1 1 100 1 1
1 2 100 1 1
1 3 100 1 1
1 4 100 1 1
1 5 100 1 1
1 6 100 1 1
1 0 100 2 0.197092
2 0 100 2 0.802908
1 1 100 2 0.93135
2 1 100 2 0.0686497
1 2 100 2 0.731405
2 2 100 2 0.268595
1 3 100 2 0.1119
2 3 100 2 0.8881
1 4 100 2 0.469232
2 4 100 2 0.530768
1 5 100 2 0.118737
2 5 100 2 0.881263
1 6 100 2 0.132566
2 6 100 2 0.867434
1 7 100 2 0.0410084
2 7 100 2 0.958992
1 8 100 2 0.50811
2 8 100 2 0.49189
1 9 100 2 0.184241
2 9 100 2 0.815759
1 10 100 2 0.604929
2 10 100 2 0.395071
2 11 100 2 1
1 12 100 2 3.33836e-05
2 12 100 2 0.999967
1 13 100 2 0.000364087
2 13 100 2 0.999636
1 0 100 3 0.73478
2 0 100 3 0.203046
3 0 100 3 0.0621745
1 1 100 3 0.845633
2 1 100 3 0.133552
3 1 100 3 0.0208145
1 2 100 3 0.436274
2 2 100 3 0.500046
3 2 100 3 0.0636802
1 3 100 3 0.196038
2 3 100 3 0.384945
3 3 100 3 0.419017
1 4 100 3 0.166466
2 4 100 3 0.273809
3 4 100 3 0.559725
1 5 100 3 0.0891539
2 5 100 3 0.25857
3 5 100 3 0.652276
1 6 100 3 0.140011
2 6 100 3 0.209613
3 6 100 3 0.650376
1 7 100 3 0.17885
2 7 100 3 0.111141
3 7 100 3 0.710009
1 8 100 3 0.0136345
2 8 100 3 0.116696
3 8 100 3 0.869669
1 9 100 3 0.00593998
2 9 100 3 0.135948
3 9 100 3 0.858112
1 10 100 3 7.40577e-05
2 10 100 3 0.142903
3 10 100 3 0.857023
1 11 100 3 0.000277065
2 11 100 3 3.84144e-05
3 11 100 3 0.999685
1 12 100 3 0.00739858
3 12 100 3 0.992601
1 13 100 3 0.00600417
3 13 100 3 0.993996
3 14 100 3 1
1 0 100 4 0.156288
2 0 100 4 0.731898
3 0 100 4 0.0806761
4 0 100 4 0.031138
1 1 100 4 0.757457
2 1 100 4 0.210569
3 1 100 4 0.0255683
4 1 100 4 0.00640538
1 2 100 4 0.443301
2 2 100 4 0.278202
3 2 100 4 0.258543
4 2 100 4 0.0199541
1 3 100 4 0.151993
2 3 100 4 0.340874
3 3 100 4 0.303808
4 3 100 4 0.203325
1 4 100 4 0.120822
2 4 100 4 0.137727
3 4 100 4 0.461031
4 4 100 4 0.280419
1 5 100 4 0.0696007
2 5 100 4 0.141703
3 5 100 4 0.223102
4 5 100 4 0.565595
1 6 100 4 0.096334
2 6 100 4 0.131288
3 6 100 4 0.302151
4 6 100 4 0.470226
1 7 100 4 0.0813013
2 7 100 4 0.0581888
3 7 100 4 0.219431
4 7 100 4 0.641079
1 8 100 4 0.108934
2 8 100 4 0.0595401
3 8 100 4 0.219479
4 8 100 4 0.612047
1 9 100 4 0.0934975
2 9 100 4 0.0837904
3 9 100 4 0.272882
4 9 100 4 0.54983
1 10 100 4 0.0023539
2 10 100 4 0.00875929
3 10 100 4 0.0661117
4 10 100 4 0.922775
1 11 100 4 0.134538
2 11 100 4 0.161829
3 11 100 4 0.201769
4 11 100 4 0.501864
1 12 100 4 0.161441
2 12 100 4 0.0361274
3 12 100 4 1.05586e-05
4 12 100 4 0.802421
1 13 100 4 0.137303
2 13 100 4 0.426676
3 13 100 4 0.214117
4 13 100 4 0.221903
1 14 100 4 0.00267604
2 14 100 4 0.189881
3 14 100 4 0.275943
4 14 100 4 0.5315
2 15 100 4 0.000892377
3 15 100 4 0.301283
4 15 100 4 0.697825
1 16 100 4 0.00125156
4 16 100 4 0.998748
1 0 100 5 0.153591
2 0 100 5 0.264469
3 0 100 5 0.523851
4 0 100 5 0.0251367
5 0 100 5 0.0329528
1 1 100 5 0.778829
2 1 100 5 0.177359
3 1 100 5 0.0265781
4 1 100 5 0.0171505
5 1 100 5 8.32275e-05
1 2 100 5 0.386463
2 2 100 5 0.392343
3 2 100 5 0.148069
4 2 100 5 0.0645308
5 2 100 5 0.00859421
1 3 100 5 0.168614
2 3 100 5 0.310054
3 3 100 5 0.307401
4 3 100 5 0.180516
5 3 100 5 0.0334154
1 4 100 5 0.100971
2 4 100 5 0.182634
3 4 100 5 0.245702
4 4 100 5 0.3381
5 4 100 5 0.132594
1 5 100 5 0.059749
2 5 100 5 0.126326
3 5 100 5 0.176352
4 5 100 5 0.313791
5 5 100 5 0.323782
1 6 100 5 0.0772002
2 6 100 5 0.0925307
3 6 100 5 0.144542
4 6 100 5 0.316482
5 6 100 5 0.369246
1 7 100 5 0.0388533
2 7 100 5 0.0750498
3 7 100 5 0.123988
4 7 100 5 0.237561
5 7 100 5 0.524547
1 8 100 5 0.0404611
2 8 100 5 0.051982
3 8 100 5 0.129488
4 8 100 5 0.272728
5 8 100 5 0.505341
1 9 100 5 0.0663367
2 9 100 5 0.0683953
3 9 100 5 0.0936559
4 9 100 5 0.248627
5 9 100 5 0.522985
1 10 100 5 0.0255709
2 10 100 5 0.0452397
3 10 100 5 0.0227458
4 10 100 5 0.206014
5 10 100 5 0.70043
1 11 100 5 0.0400883
2 11 100 5 0.0494487
3 11 100 5 0.117457
4 11 100 5 0.113487
5 11 100 5 0.679519
1 12 100 5 0.0257373
2 12 100 5 0.194164
3 12 100 5 0.0488983
4 12 100 5 0.131568
5 12 100 5 0.599633
1 13 100 5 0.106466
2 13 100 5 0.114936
3 13 100 5 0.136397
4 13 100 5 0.174167
5 13 100 5 0.468032
1 14 100 5 0.00325147
2 14 100 5 6.16082e-05
3 14 100 5 0.0897936
4 14 100 5 1.63106e-05
5 14 100 5 0.906877
2 15 100 5 5.19186e-05
3 15 100 5 0.0118024
4 15 100 5 5.91577e-05
5 15 100 5 0.988086
3 16 100 5 1.53047e-06
4 16 100 5 1.17165e-06
5 16 100 5 0.999997
5 17 100 5 1
5 18 100 5 1
1 0 100 6 0.10747
2 0 100 6 0.277
3 0 100 6 0.210539
4 0 100 6 0.353627
5 0 100 6 0.0264871
6 0 100 6 0.0248772
1 1 100 6 0.798615
2 1 100 6 0.169007
3 1 100 6 0.018886
4 1 100 6 0.00755906
5 1 100 6 0.00572809
6 1 100 6 0.000205025
1 2 100 6 0.359021
2 2 100 6 0.362948
3 2 100 6 0.146524
4 2 100 6 0.0567101
5 2 100 6 0.0556592
6 2 100 6 0.019137
1 3 100 6 0.148078
2 3 100 6 0.308886
3 3 100 6 0.320334
4 3 100 6 0.138336
5 3 100 6 0.0553245
6 3 100 6 0.0290409
1 4 100 6 0.103916
2 4 100 6 0.143606
3 4 100 6 0.294818
4 4 100 6 0.219992
5 4 100 6 0.208065
6 4 100 6 0.0296029
1 5 100 6 0.0515075
2 5 100 6 0.0833054
3 5 100 6 0.186441
4 5 100 6 0.256634
5 5 100 6 0.268952
6 5 100 6 0.153159
1 6 100 6 0.0463068
2 6 100 6 0.0499598
3 6 100 6 0.117148
4 6 100 6 0.192256
5 6 100 6 0.329047
6 6 100 6 0.265283
1 7 100 6 0.0366808
2 7 100 6 0.0689026
3 7 100 6 0.103183
4 7 100 6 0.147042
5 7 100 6 0.247666
6 7 100 6 0.396526
1 8 100 6 0.0486899
2 8 100 6 0.0363842
3 8 100 6 0.0692332
4 8 100 6 0.123732
5 8 100 6 0.279259
6 8 100 6 0.442702
1 9 100 6 0.0253166
2 9 100 6 0.0129903
3 9 100 6 0.0765532
4 9 100 6 0.0835105
5 9 100 6 0.264431
6 9 100 6 0.537198
1 10 100 6 0.0228665
2 10 100 6 0.0360554
3 10 100 6 0.0563324
4 10 100 6 0.130817
5 10 100 6 0.185564
6 10 100 6 0.568364
1 11 100 6 0.0404033
2 11 100 6 0.0404894
3 11 100 6 0.0779675
4 11 100 6 0.162317
5 11 100 6 0.217543
6 11 100 6 0.46128
1 12 100 6 0.0874505
2 12 100 6 0.0869183
3 12 100 6 0.0921305
4 12 100 6 0.0868054
5 12 100 6 0.239767
6 12 100 6 0.406929
1 13 100 6 0.116091
2 13 100 6 0.0987279
3 13 100 6 0.0655146
4 13 100 6 0.0592723
5 13 100 6 0.100689
6 13 100 6 0.559705
1 14 100 6 0.0867152
2 14 100 6 0.0853629
3 14 100 6 0.000134334
4 14 100 6 0.000464102
5 14 100 6 0.24906
6 14 100 6 0.578263
1 15 100 6 0.265756
2 15 100 6 0.155424
3 15 100 6 0.142843
4 15 100 6 0.152316
5 15 100 6 0.144171
6 15 100 6 0.13949
1 16 100 6 0.00209146
2 16 100 6 0.159402
3 16 100 6 0.000810995
4 16 100 6 0.00153103
5 16 100 6 0.169344
6 16 100 6 0.666821
1 17 100 6 0.145953
2 17 100 6 0.134035
3 17 100 6 0.28516
4 17 100 6 0.0144063
5 17 100 6 0.285126
6 17 100 6 0.13532
1 18 100 6 1.412e-06
3 18 100 6 4.89212e-06
4 18 100 6 1.49465e-05
5 18 100 6 0.0122758
6 18 100 6 0.987703
1 19 100 6 0.00243254
3 19 100 6 0.000379024
4 19 100 6 4.37427e-05
6 19 100 6 0.997145
1 0 100 7 0.0946855
2 0 100 7 0.23794
3 0 100 7 0.185429
4 0 100 7 0.176262
5 0 100 7 0.268801
6 0 100 7 0.0175206
7 0 100 7 0.0193612
1 1 100 7 0.776947
2 1 100 7 0.145229
3 1 100 7 0.0328812
4 1 100 7 0.0182343
5 1 100 7 0.0131715
6 1 100 7 0.0133037
7 1 100 7 0.000233636
1 2 100 7 0.353048
2 2 100 7 0.322745
3 2 100 7 0.160348
4 2 100 7 0.0693504
5 2 100 7 0.0373717
6 2 100 7 0.041364
7 2 100 7 0.0157722
1 3 100 7 0.12639
2 3 100 7 0.296243
3 3 100 7 0.299555
4 3 100 7 0.155272
5 3 100 7 0.060337
6 3 100 7 0.0555492
7 3 100 7 0.00665324
1 4 100 7 0.0669033
2 4 100 7 0.132066
3 4 100 7 0.303379
4 4 100 7 0.245661
5 4 100 7 0.124175
6 4 100 7 0.107926
7 4 100 7 0.0198901
1 5 100 7 0.0413027
2 5 100 7 0.110099
3 5 100 7 0.144737
4 5 100 7 0.263468
5 5 100 7 0.225692
6 5 100 7 0.159594
7 5 100 7 0.0551074
1 6 100 7 0.035694
2 6 100 7 0.0489694
3 6 100 7 0.105811
4 6 100 7 0.188258
5 6 100 7 0.217371
6 6 100 7 0.23764
7 6 100 7 0.166257
1 7 100 7 0.0261052
2 7 100 7 0.0402467
3 7 100 7 0.0659423
4 7 100 7 0.130655
5 7 100 7 0.194452
6 7 100 7 0.284918
7 7 100 7 0.25768
1 8 100 7 0.0213651
2 8 100 7 0.0234929
3 8 100 7 0.0496121
4 8 100 7 0.0865333
5 8 100 7 0.152495
6 8 100 7 0.291653
7 8 100 7 0.374849
1 9 100 7 0.0212264
2 9 100 7 0.0190592
3 9 100 7 0.0290107
4 9 100 7 0.0733652
5 9 100 7 0.157209
6 9 100 7 0.268027
7 9 100 7 0.432103
1 10 100 7 0.0215201
2 10 100 7 0.0277603
3 10 100 7 0.0330621
4 10 100 7 0.025778
5 10 100 7 0.105055
6 10 100 7 0.239176
7 10 100 7 0.547648
1 11 100 7 0.0522356
2 11 100 7 0.0320644
3 11 100 7 0.0615398
4 11 100 7 0.0805399
5 11 100 7 0.10302
6 11 100 7 0.244771
7 11 100 7 0.425829
1 12 100 7 0.066568
2 12 100 7 0.0819274
3 12 100 7 0.0538348
4 12 100 7 0.109883
5 12 100 7 0.0747327
6 12 100 7 0.180615
7 12 100 7 0.432439
1 13 100 7 0.0279313
2 13 100 7 0.0614954
3 13 100 7 0.0222828
4 13 100 7 0.0807596
5 13 100 7 0.0940511
6 13 100 7 0.193856
7 13 100 7 0.519624
1 14 100 7 0.0546475
2 14 100 7 0.00289927
3 14 100 7 0.0763301
4 14 100 7 0.0617982
5 14 100 7 0.0628341
6 14 100 7 0.123032
7 14 100 7 0.618458
1 15 100 7 0.0455051
2 15 100 7 0.104219
3 15 100 7 0.0708269
4 15 100 7 0.14216
5 15 100 7 0.000101943
6 15 100 7 0.0746726
7 15 100 7 0.562515
1 16 100 7 0.111048
2 16 100 7 0.00993418
3 16 100 7 0.000407928
4 16 100 7 0.1044
5 16 100 7 0.04173
6 16 100 7 0.105923
7 16 100 7 0.626557
1 17 100 7 0.0216143
2 17 100 7 4.63741e-05
3 17 100 7 9.24012e-06
4 17 100 7 0.000144821
5 17 100 7 0.0105822
6 17 100 7 0.142434
7 17 100 7 0.825169
1 18 100 7 2.82887e-06
2 18 100 7 5.28608e-06
3 18 100 7 0.000220487
4 18 100 7 3.59157e-05
5 18 100 7 2.33596e-05
7 18 100 7 0.999712
1 19 100 7 1.64252e-05
2 19 100 7 0.000231843
3 19 100 7 0.000345533
4 19 100 7 2.3401e-05
5 19 100 7 0.000253612
6 19 100 7 6.07418e-05
7 19 100 7 0.999068
1 0 100 8 0.0893282
2 0 100 8 0.17465
3 0 100 8 0.191715
4 0 100 8 0.165885
5 0 100 8 0.16292
6 0 100 8 0.180255
7 0 100 8 0.0144556
8 0 100 8 0.020791
1 1 100 8 0.762016
2 1 100 8 0.178997
3 1 100 8 0.0151953
4 1 100 8 0.0157831
5 1 100 8 0.0124942
6 1 100 8 0.00211925
7 1 100 8 0.00823063
8 1 100 8 0.00516465
1 2 100 8 0.319848
2 2 100 8 0.375509
3 2 100 8 0.161424
4 2 100 8 0.0494345
5 2 100 8 0.0452248
6 2 100 8 0.0208091
7 2 100 8 0.0179364
8 2 100 8 0.00981379
1 3 100 8 0.126902
2 3 100 8 0.240217
3 3 100 8 0.312658
4 3 100 8 0.150894
5 3 100 8 0.0655568
6 3 100 8 0.0522712
7 3 100 8 0.0446227
8 3 100 8 0.00687821
1 4 100 8 0.052365
2 4 100 8 0.144182
3 4 100 8 0.221185
4 4 100 8 0.297534
5 4 100 8 0.143791
6 4 100 8 0.0622303
7 4 100 8 0.0627633
8 4 100 8 0.0159505
1 5 100 8 0.0438115
2 5 100 8 0.0802293
3 5 100 8 0.142023
4 5 100 8 0.229054
5 5 100 8 0.212769
6 5 100 8 0.16344
7 5 100 8 0.0976165
8 5 100 8 0.0310574
1 6 100 8 0.0326764
2 6 100 8 0.0392108
3 6 100 8 0.116332
4 6 100 8 0.164675
5 6 100 8 0.225509
6 6 100 8 0.168468
7 6 100 8 0.189409
8 6 100 8 0.0637191
1 7 100 8 0.0251403
2 7 100 8 0.0265466
3 7 100 8 0.0478507
4 7 100 8 0.108288
5 7 100 8 0.173902
6 7 100 8 0.233172
7 7 100 8 0.215339
8 7 100 8 0.169762
1 8 100 8 0.0288151
2 8 100 8 0.0319468
3 8 100 8 0.0253944
4 8 100 8 0.0781736
5 8 100 8 0.144779
6 8 100 8 0.179654
7 8 100 8 0.276446
8 8 100 8 0.234791
1 9 100 8 0.0214012
2 9 100 8 0.0163954
3 9 100 8 0.0343596
4 9 100 8 0.032392
5 9 100 8 0.107902
6 9 100 8 0.18392
7 9 100 8 0.248174
8 9 100 8 0.355455
1 10 100 8 0.0223322
2 10 100 8 0.0262387
3 10 100 8 0.0277771
4 10 100 8 0.0596104
5 10 100 8 0.0754295
6 10 100 8 0.153071
7 10 100 8 0.29963
8 10 100 8 0.335911
1 11 100 8 0.0351299
2 11 100 8 0.0156231
3 11 100 8 0.0478386
4 11 100 8 0.0332757
5 11 100 8 0.0508725
6 11 100 8 0.0984973
7 11 100 8 0.207713
8 11 100 8 0.51105
1 12 100 8 0.0373464
2 12 100 8 0.0411362
3 12 100 8 0.0544665
4 12 100 8 0.0851234
5 12 100 8 0.0868094
6 12 100 8 0.0797585
7 12 100 8 0.185903
8 12 100 8 0.429456
1 13 100 8 0.0499419
2 13 100 8 0.0476309
3 13 100 8 0.0192638
4 13 100 8 0.03124
5 13 100 8 0.0883909
6 13 100 8 0.11455
7 13 100 8 0.194992
8 13 100 8 0.453991
1 14 100 8 0.0352706
2 14 100 8 0.00414365
3 14 100 8 0.018061
4 14 100 8 0.0516378
5 14 100 8 0.116477
6 14 100 8 0.168346
7 14 100 8 0.167193
8 14 100 8 0.438871
1 15 100 8 0.0456369
2 15 100 8 0.0473283
3 15 100 8 0.0710497
4 15 100 8 0.055772
5 15 100 8 0.0566505
6 15 100 8 0.102192
7 15 100 8 0.216481
8 15 100 8 0.404889
1 16 100 8 0.104669
2 16 100 8 0.00364617
3 16 100 8 0.0709968
4 16 100 8 0.00705887
5 16 100 8 0.113962
6 16 100 8 0.0701284
7 16 100 8 0.210119
8 16 100 8 0.41942
1 17 100 8 0.0758405
2 17 100 8 0.0205416
3 17 100 8 0.0324109
4 17 100 8 0.0485188
5 17 100 8 0.0484642
6 17 100 8 0.0485368
7 17 100 8 0.0937555
8 17 100 8 0.631932
2 18 100 8 0.0209354
4 18 100 8 1.42348e-05
5 18 100 8 0.000152443
6 18 100 8 0.23629
7 18 100 8 0.250182
8 18 100 8 0.492426
1 19 100 8 0.000442507
3 19 100 8 1.65446e-06
4 19 100 8 0.000471834
5 19 100 8 0.00156797
6 19 100 8 0.000112893
7 19 100 8 0.497741
8 19 100 8 0.499662
1 20 100 8 2.14603e-06
2 20 100 8 5.21307e-05
8 20 100 8 0.999946
1 21 100 8 0.0055927
2 21 100 8 0.000324006
3 21 100 8 0.001224
5 21 100 8 0.000208008
8 21 100 8 0.992651
8 22 100 8 1
8 23 100 8 1
1 0 100 9 0.0627555
2 0 100 9 0.13597
3 0 100 9 0.166502
4 0 100 9 0.167788
5 0 100 9 0.137156
6 0 100 9 0.126946
7 0 100 9 0.166259
8 0 100 9 0.0113867
9 0 100 9 0.0252367
1 1 100 9 0.752321
2 1 100 9 0.163285
3 1 100 9 0.0279705
4 1 100 9 0.0142325
5 1 100 9 0.0173997
6 1 100 9 0.0100534
7 1 100 9 0.0108466
8 1 100 9 0.00194329
9 1 100 9 0.00194852
1 2 100 9 0.303303
2 2 100 9 0.363485
3 2 100 9 0.157001
4 2 100 9 0.0652587
5 2 100 9 0.0328629
6 2 100 9 0.0248539
7 2 100 9 0.0243603
8 2 100 9 0.0185945
9 2 100 9 0.0102812
1 3 100 9 0.113875
2 3 100 9 0.240918
3 3 100 9 0.292567
4 3 100 9 0.168672
5 3 100 9 0.0750704
6 3 100 9 0.0402484
7 3 100 9 0.0326104
8 3 100 9 0.0331221
9 3 100 9 0.00291594
1 4 100 9 0.0648536
2 4 100 9 0.135107
3 4 100 9 0.237908
4 4 100 9 0.236185
5 4 100 9 0.177867
6 4 100 9 0.069146
7 4 100 9 0.0459993
8 4 100 9 0.0297952
9 4 100 9 0.00313874
1 5 100 9 0.0376164
2 5 100 9 0.0957625
3 5 100 9 0.122662
4 5 100 9 0.222299
5 5 100 9 0.206585
6 5 100 9 0.170004
7 5 100 9 0.0583331
8 5 100 9 0.0767162
9 5 100 9 0.0100202
1 6 100 9 0.0482708
2 6 100 9 0.047635
3 6 100 9 0.101773
4 6 100 9 0.12577
5 6 100 9 0.220155
6 6 100 9 0.182255
7 6 100 9 0.133782
8 6 100 9 0.104025
9 6 100 9 0.0363339
1 7 100 9 0.0294343
2 7 100 9 0.0416644
3 7 100 9 0.045438
4 7 100 9 0.0889618
5 7 100 9 0.134394
6 7 100 9 0.22951
7 7 100 9 0.185001
8 7 100 9 0.164327
9 7 100 9 0.0812698
1 8 100 9 0.0387126
2 8 100 9 0.0353401
3 8 100 9 0.0434934
4 8 100 9 0.0847045
5 8 100 9 0.125903
6 8 100 9 0.134345
7 8 100 9 0.199855
8 8 100 9 0.200311
9 8 100 9 0.137336
1 9 100 9 0.0220486
2 9 100 9 0.0157971
3 9 100 9 0.0350217
4 9 100 9 0.0467983
5 9 100 9 0.0750889
6 9 100 9 0.141672
7 9 100 9 0.154772
8 9 100 9 0.279202
9 9 100 9 0.229599
1 10 100 9 0.0160028
2 10 100 9 0.0246361
3 10 100 9 0.0257743
4 10 100 9 0.043996
5 10 100 9 0.049793
6 10 100 9 0.1238
7 10 100 9 0.158041
8 10 100 9 0.225731
9 10 100 9 0.332226
1 11 100 9 0.0317923
2 11 100 9 0.0325275
3 11 100 9 0.0312286
4 11 100 9 0.0280911
5 11 100 9 0.0703179
6 11 100 9 0.074479
7 11 100 9 0.158211
8 11 100 9 0.243149
9 11 100 9 0.330204
1 12 100 9 0.0220639
2 12 100 9 0.0254508
3 12 100 9 0.0300156
4 12 100 9 0.0440871
5 12 100 9 0.0458183
6 12 100 9 0.0811827
7 12 100 9 0.111549
8 12 100 9 0.239117
9 12 100 9 0.400716
1 13 100 9 0.0397952
2 13 100 9 0.0313413
3 13 100 9 0.052375
4 13 100 9 0.0188818
5 13 100 9 0.0605656
6 13 100 9 0.0626983
7 13 100 9 0.123313
8 13 100 9 0.165228
9 13 100 9 0.445801
1 14 100 9 0.0505523
2 14 100 9 0.0203047
3 14 100 9 0.035966
4 14 100 9 0.0283279
5 14 100 9 0.0365015
6 14 100 9 0.0799906
7 14 100 9 0.0792466
8 14 100 9 0.234944
9 14 100 9 0.434166
1 15 100 9 0.0503328
2 15 100 9 0.0306859
3 15 100 9 0.0361459
4 15 100 9 0.0162283
5 15 100 9 0.0497698
6 15 100 9 0.101893
7 15 100 9 0.0693511
8 15 100 9 0.183314
9 15 100 9 0.46228
1 16 100 9 0.0295621
2 16 100 9 0.0592745
3 16 100 9 0.0582963
4 16 100 9 0.0744113
5 16 100 9 0.039126
6 16 100 9 0.0580977
7 16 100 9 0.13928
8 16 100 9 0.139209
9 16 100 9 0.402743
1 17 100 9 0.0311123
2 17 100 9 9.71251e-06
3 17 100 9 2.23703e-05
4 17 100 9 0.0428565
5 17 100 9 0.00820452
6 17 100 9 0.00498306
7 17 100 9 0.0978248
8 17 100 9 0.212966
9 17 100 9 0.602021
1 18 100 9 0.000906896
2 18 100 9 1.82384e-06
3 18 100 9 9.51625e-06
4 18 100 9 6.74505e-06
5 18 100 9 0.0339383
6 18 100 9 0.265455
7 18 100 9 0.00683404
8 18 100 9 0.167188
9 18 100 9 0.525659
1 19 100 9 0.000451923
2 19 100 9 0.00154312
3 19 100 9 9.52596e-07
4 19 100 9 5.49316e-06
5 19 100 9 0.0123601
6 19 100 9 0.113679
7 19 100 9 0.112276
8 19 100 9 0.226632
9 19 100 9 0.533051
1 20 100 9 0.000287303
2 20 100 9 0.0111756
3 20 100 9 2.02578e-06
4 20 100 9 0.00330226
5 20 100 9 1.31362e-05
6 20 100 9 0.0369171
7 20 100 9 0.0329979
8 20 100 9 4.43727e-06
9 20 100 9 0.9153
1 21 100 9 1.1123e-06
3 21 100 9 0.0161326
5 21 100 9 0.228072
7 21 100 9 7.94681e-07
8 21 100 9 0.741577
9 21 100 9 0.0142172
1 22 100 9 0.00195492
3 22 100 9 0.000438439
9 22 100 9 0.997607
3 23 100 9 4.62573e-05
6 23 100 9 0.50326
9 23 100 9 0.496694
3 24 100 9 4.91898e-05
4 24 100 9 0.37834
6 24 100 9 0.00175716
9 24 100 9 0.619853
1 0 100 10 0.0550878
2 0 100 10 0.135504
3 0 100 10 0.122847
4 0 100 10 0.144994
5 0 100 10 0.140666
6 0 100 10 0.112586
7 0 100 10 0.112966
8 0 100 10 0.147781
9 0 100 10 0.00446898
10 0 100 10 0.0230989
1 1 100 10 0.764986
2 1 100 10 0.157778
3 1 100 10 0.0260699
4 1 100 10 0.0174733
5 1 100 10 0.00525801
6 1 100 10 0.00801807
7 1 100 10 0.00653679
8 1 100 10 0.00792878
9 1 100 10 0.00592783
10 1 100 10 2.30853e-05
1 2 100 10 0.29857
2 2 100 10 0.343827
3 2 100 10 0.143142
4 2 100 10 0.0538627
5 2 100 10 0.0495586
6 2 100 10 0.0357092
7 2 100 10 0.0229011
8 2 100 10 0.0231255
9 2 100 10 0.0167792
10 2 100 10 0.0125254
1 3 100 10 0.11072
2 3 100 10 0.226254
3 3 100 10 0.328864
4 3 100 10 0.150265
5 3 100 10 0.063309
6 3 100 10 0.0510862
7 3 100 10 0.0224622
8 3 100 10 0.0224678
9 3 100 10 0.0224385
10 3 100 10 0.00213351
1 4 100 10 0.0604777
2 4 100 10 0.130734
3 4 100 10 0.22861
4 4 100 10 0.274101
5 4 100 10 0.143543
6 4 100 10 0.0636113
7 4 100 10 0.0415751
8 4 100 10 0.0229432
9 4 100 10 0.0327276
10 4 100 10 0.00167673
1 5 100 10 0.0390646
2 5 100 10 0.0952771
3 5 100 10 0.130555
4 5 100 10 0.198597
5 5 100 10 0.228617
6 5 100 10 0.150436
7 5 100 10 0.0715972
8 5 100 10 0.0354742
9 5 100 10 0.0433681
10 5 100 10 0.00701336
1 6 100 10 0.0273117
2 6 100 10 0.0359058
3 6 100 10 0.0924224
4 6 100 10 0.129547
5 6 100 10 0.203749
6 6 100 10 0.231901
7 6 100 10 0.148696
8 6 100 10 0.059489
9 6 100 10 0.0557234
10 6 100 10 0.0152541
1 7 100 10 0.0253023
2 7 100 10 0.0446726
3 7 100 10 0.0603314
4 7 100 10 0.103933
5 7 100 10 0.131805
6 7 100 10 0.178846
7 7 100 10 0.201329
8 7 100 10 0.116078
9 7 100 10 0.103169
10 7 100 10 0.0345348
1 8 100 10 0.03013
2 8 100 10 0.0138248
3 8 100 10 0.0418833
4 8 100 10 0.047472
5 8 100 10 0.090797
6 8 100 10 0.14843
7 8 100 10 0.192758
8 8 100 10 0.210563
9 8 100 10 0.152687
10 8 100 10 0.0714549
1 9 100 10 0.0234278
2 9 100 10 0.0207911
3 9 100 10 0.0302973
4 9 100 10 0.0335998
5 9 100 10 0.0726761
6 9 100 10 0.104407
7 9 100 10 0.154312
8 9 100 10 0.190753
9 9 100 10 0.223565
10 9 100 10 0.146171
1 10 100 10 0.0190687
2 10 100 10 0.0228299
3 10 100 10 0.0240297
4 10 100 10 0.0418072
5 10 100 10 0.0543184
6 10 100 10 0.0736547
7 10 100 10 0.12814
8 10 100 10 0.1539
9 10 100 10 0.241696
10 10 100 10 0.240556
1 11 100 10 0.0184618
2 11 100 10 0.0137777
3 11 100 10 0.012173
4 11 100 10 0.0319517
5 11 100 10 0.0343963
6 11 100 10 0.0606845
7 11 100 10 0.099477
8 11 100 10 0.146779
9 11 100 10 0.271084
10 11 100 10 0.311214
1 12 100 10 0.0198499
2 12 100 10 0.0203923
3 12 100 10 0.0191041
4 12 100 10 0.0336379
5 12 100 10 0.0271526
6 12 100 10 0.0842497
7 12 100 10 0.0707488
8 12 100 10 0.137634
9 12 100 10 0.216758
10 12 100 10 0.370473
1 13 100 10 0.0501525
2 13 100 10 0.0300905
3 13 100 10 0.034956
4 13 100 10 0.0258774
5 13 100 10 0.0536233
6 13 100 10 0.0559887
7 13 100 10 0.117887
8 13 100 10 0.13051
9 13 100 10 0.186649
10 13 100 10 0.314265
1 14 100 10 0.0297493
2 14 100 10 0.0139187
3 14 100 10 0.0398318
4 14 100 10 0.0418494
5 14 100 10 0.0190332
6 14 100 10 0.0617836
7 14 100 10 0.101321
8 14 100 10 0.11137
9 14 100 10 0.211926
10 14 100 10 0.369217
1 15 100 10 0.0182
2 15 100 10 0.00950809
3 15 100 10 0.00537343
4 15 100 10 0.0258667
5 15 100 10 0.000219578
6 15 100 10 0.0376449
7 15 100 10 0.0855883
8 15 100 10 0.074258
9 15 100 10 0.23986
10 15 100 10 0.503481
1 16 100 10 0.0273627
2 16 100 10 0.0148861
3 16 100 10 0.064407
4 16 100 10 0.00190125
5 16 100 10 0.0536601
6 16 100 10 0.0109653
7 16 100 10 0.0623308
8 16 100 10 0.124345
9 16 100 10 0.124777
10 16 100 10 0.515365
1 17 100 10 0.0481513
2 17 100 10 0.0220824
3 17 100 10 0.00618138
4 17 100 10 0.0452513
5 17 100 10 0.103709
6 17 100 10 0.0591224
7 17 100 10 0.0244842
8 17 100 10 0.0690696
9 17 100 10 0.184993
10 17 100 10 0.436956
1 18 100 10 0.0332766
2 18 100 10 0.104244
3 18 100 10 0.0641573
4 18 100 10 0.0790203
5 18 100 10 0.0503494
6 18 100 10 0.0567979
7 18 100 10 0.0972468
8 18 100 10 0.10463
9 18 100 10 0.178861
10 18 100 10 0.231416
1 19 100 10 0.0418046
2 19 100 10 0.0403962
3 19 100 10 0.0398207
4 19 100 10 0.00433373
5 19 100 10 0.0776441
6 19 100 10 0.0803107
7 19 100 10 0.0822539
8 19 100 10 0.0785341
9 19 100 10 0.079472
10 19 100 10 0.47543
1 20 100 10 0.0692316
2 20 100 10 0.0651568
3 20 100 10 0.000407593
4 20 100 10 0.000318245
5 20 100 10 0.000641311
6 20 100 10 0.000207433
7 20 100 10 0.189353
8 20 100 10 0.12849
9 20 100 10 0.000141467
10 20 100 10 0.546052
1 21 100 10 0.000357831
2 21 100 10 0.000331753
3 21 100 10 4.72207e-05
4 21 100 10 0.000200465
5 21 100 10 0.00109662
6 21 100 10 0.124578
7 21 100 10 8.33316e-05
8 21 100 10 0.0186635
9 21 100 10 0.511164
10 21 100 10 0.343478
1 22 100 10 0.0149095
2 22 100 10 8.34316e-07
3 22 100 10 0.0926858
5 22 100 10 0.126402
6 22 100 10 0.00214083
7 22 100 10 7.07239e-05
8 22 100 10 0.156603
9 22 100 10 0.277472
10 22 100 10 0.329715
1 23 100 10 1.13372e-05
2 23 100 10 0.0189689
3 23 100 10 5.11454e-07
4 23 100 10 0.0949529
6 23 100 10 1.96622e-05
7 23 100 10 3.03688e-05
8 23 100 10 3.7547e-06
10 23 100 10 0.886013
1 24 100 10 0.217571
2 24 100 10 0.0534909
3 24 100 10 1.74071e-05
4 24 100 10 0.0376983
5 24 100 10 0.000104412
6 24 100 10 0.000817973
7 24 100 10 0.000915832
8 24 100 10 0.0133665
9 24 100 10 0.00934334
10 24 100 10 0.666674
10 25 100 10 1
1 0 100 11 0.048736
2 0 100 11 0.10167
3 0 100 11 0.125026
4 0 100 11 0.11292
5 0 100 11 0.116626
6 0 100 11 0.127079
7 0 100 11 0.0956744
8 0 100 11 0.10184
9 0 100 11 0.141896
10 0 100 11 0.00439321
11 0 100 11 0.0241401
1 1 100 11 0.805147
2 1 100 11 0.115817
3 1 100 11 0.0292645
4 1 100 11 0.00976578
5 1 100 11 0.0132395
6 1 100 11 0.0114775
7 1 100 11 0.00247667
8 1 100 11 0.00670378
9 1 100 11 0.00417204
10 1 100 11 0.00192463
11 1 100 11 1.19362e-05
1 2 100 11 0.262307
2 2 100 11 0.378578
3 2 100 11 0.162191
4 2 100 11 0.0624072
5 2 100 11 0.0322708
6 2 100 11 0.0179833
7 2 100 11 0.0171845
8 2 100 11 0.0213235
9 2 100 11 0.0151082
10 2 100 11 0.0278879
11 2 100 11 0.00275751
1 3 100 11 0.116615
2 3 100 11 0.229431
3 3 100 11 0.303579
4 3 100 11 0.155441
5 3 100 11 0.0700473
6 3 100 11 0.0340957
7 3 100 11 0.0363888
8 3 100 11 0.00977536
9 3 100 11 0.0205321
10 3 100 11 0.0192841
11 3 100 11 0.00480993
1 4 100 11 0.0787825
2 4 100 11 0.155146
3 4 100 11 0.199905
4 4 100 11 0.253906
5 4 100 11 0.127506
6 4 100 11 0.0637281
7 4 100 11 0.0502021
8 4 100 11 0.0261114
9 4 100 11 0.0151499
10 4 100 11 0.0272182
11 4 100 11 0.0023438
1 5 100 11 0.028699
2 5 100 11 0.0903333
3 5 100 11 0.142367
4 5 100 11 0.209527
5 5 100 11 0.218783
6 5 100 11 0.10541
7 5 100 11 0.0700449
8 5 100 11 0.0571734
9 5 100 11 0.0361923
10 5 100 11 0.0328398
11 5 100 11 0.00862941
1 6 100 11 0.0316254
2 6 100 11 0.0553832
3 6 100 11 0.0958058
4 6 100 11 0.145357
5 6 100 11 0.191684
6 6 100 11 0.19392
7 6 100 11 0.115819
8 6 100 11 0.0705343
9 6 100 11 0.0453619
10 6 100 11 0.0391531
11 6 100 11 0.015357
1 7 100 11 0.0157406
2 7 100 11 0.0252618
3 7 100 11 0.0560135
4 7 100 11 0.101838
5 7 100 11 0.143077
6 7 100 11 0.203589
7 7 100 11 0.191353
8 7 100 11 0.120232
9 7 100 11 0.0586645
10 7 100 11 0.0668062
11 7 100 11 0.017424
1 8 100 11 0.0176365
2 8 100 11 0.0213605
3 8 100 11 0.0380195
4 8 100 11 0.0750678
5 8 100 11 0.0968401
6 8 100 11 0.158547
7 8 100 11 0.191557
8 8 100 11 0.158771
9 8 100 11 0.122979
10 8 100 11 0.0848044
11 8 100 11 0.0344181
1 9 100 11 0.0151005
2 9 100 11 0.0172378
3 9 100 11 0.0225806
4 9 100 11 0.0446979
5 9 100 11 0.0995913
6 9 100 11 0.0879162
7 9 100 11 0.158309
8 9 100 11 0.18727
9 9 100 11 0.142415
10 9 100 11 0.164688
11 9 100 11 0.060194
1 10 100 11 0.0155424
2 10 100 11 0.0214774
3 10 100 11 0.0179716
4 10 100 11 0.0190931
5 10 100 11 0.0518359
6 10 100 11 0.0866843
7 10 100 11 0.10759
8 10 100 11 0.16244
9 10 100 11 0.1611
10 10 100 11 0.193484
11 10 100 11 0.162781
1 11 100 11 0.00985989
2 11 100 11 0.0111381
3 11 100 11 0.0279213
4 11 100 11 0.0211719
5 11 100 11 0.0342536
6 11 100 11 0.0656064
7 11 100 11 0.0967083
8 11 100 11 0.132906
9 11 100 11 0.161346
10 11 100 11 0.201971
11 11 100 11 0.237118
1 12 100 11 0.0110462
2 12 100 11 0.0211365
3 12 100 11 0.013878
4 12 100 11 0.0298455
5 12 100 11 0.0247132
6 12 100 11 0.0481805
7 12 100 11 0.0924201
8 12 100 11 0.12027
9 12 100 11 0.131798
10 12 100 11 0.241464
11 12 100 11 0.265248
1 13 100 11 0.019871
2 13 100 11 0.0164269
3 13 100 11 0.00679113
4 13 100 11 0.00395808
5 13 100 11 0.0304332
6 13 100 11 0.0421607
7 13 100 11 0.0770266
8 13 100 11 0.0978108
9 13 100 11 0.193757
10 13 100 11 0.194658
11 13 100 11 0.317106
1 14 100 11 0.0230302
2 14 100 11 0.0134944
3 14 100 11 0.00880204
4 14 100 11 0.0164394
5 14 100 11 0.00778017
6 14 100 11 0.0289038
7 14 100 11 0.0566732
8 14 100 11 0.113868
9 14 100 11 0.133108
10 14 100 11 0.254189
11 14 100 11 0.343712
1 15 100 11 0.0343461
2 15 100 11 0.0183664
3 15 100 11 0.013218
4 15 100 11 0.00781346
5 15 100 11 0.0206535
6 15 100 11 0.0352691
7 15 100 11 0.0391036
8 15 100 11 0.0633918
9 15 100 11 0.13441
10 15 100 11 0.226649
11 15 100 11 0.406779
1 16 100 11 0.00852347
2 16 100 11 0.0230985
3 16 100 11 0.0114492
4 16 100 11 0.0364935
5 16 100 11 0.0256942
6 16 100 11 0.0287168
7 16 100 11 0.0240359
8 16 100 11 0.0469131
9 16 100 11 0.0609721
10 16 100 11 0.241492
11 16 100 11 0.492611
1 17 100 11 0.0317597
2 17 100 11 0.0214185
3 17 100 11 0.0414402
4 17 100 11 0.0458937
5 17 100 11 0.0272024
6 17 100 11 0.0550432
7 17 100 11 0.042875
8 17 100 11 0.0866782
9 17 100 11 0.0838931
10 17 100 11 0.170377
11 17 100 11 0.393419
1 18 100 11 0.0506506
2 18 100 11 0.0624996
3 18 100 11 0.0437652
4 18 100 11 0.0149532
5 18 100 11 0.00556131
6 18 100 11 0.0180492
7 18 100 11 0.0523173
8 18 100 11 0.0696231
9 18 100 11 0.123807
10 18 100 11 0.242633
11 18 100 11 0.316141
1 19 100 11 0.000139523
2 19 100 11 3.06074e-05
3 19 100 11 0.000128301
4 19 100 11 3.58644e-05
5 19 100 11 0.0107553
6 19 100 11 0.0427222
7 19 100 11 0.00243362
8 19 100 11 0.124088
9 19 100 11 0.0416059
10 19 100 11 0.15284
11 19 100 11 0.62522
1 20 100 11 0.0740609
2 20 100 11 0.0458868
3 20 100 11 0.00204108
4 20 100 11 0.0587814
5 20 100 11 0.0021842
6 20 100 11 0.0639464
7 20 100 11 0.0831195
8 20 100 11 0.0610927
9 20 100 11 0.073615
10 20 100 11 0.185524
11 20 100 11 0.349749
1 21 100 11 0.000436429
2 21 100 11 0.000371695
3 21 100 11 5.45465e-05
4 21 100 11 0.000130295
5 21 100 11 0.000515521
6 21 100 11 0.136101
7 21 100 11 2.37779e-06
8 21 100 11 8.31032e-05
9 21 100 11 0.000150958
10 21 100 11 0.156899
11 21 100 11 0.705255
1 22 100 11 7.35724e-05
2 22 100 11 1.07289e-06
3 22 100 11 1.68386e-05
4 22 100 11 0.167594
5 22 100 11 0.265957
6 22 100 11 0.000145914
7 22 100 11 0.381281
8 22 100 11 5.29229e-05
9 22 100 11 0.000383901
10 22 100 11 0.000564938
11 22 100 11 0.183929
3 23 100 11 1.35803e-06
4 23 100 11 2.91787e-07
5 23 100 11 0.0661593
6 23 100 11 1.0558e-05
7 23 100 11 6.84074e-05
8 23 100 11 0.189828
9 23 100 11 8.41528e-05
10 23 100 11 0.3725
11 23 100 11 0.371348
1 24 100 11 0.0649609
2 24 100 11 0.0715016
3 24 100 11 0.122721
4 24 100 11 0.12186
5 24 100 11 0.124473
6 24 100 11 0.000780703
7 24 100 11 0.121861
9 24 100 11 0.121928
10 24 100 11 0.121857
11 24 100 11 0.128057
1 25 100 11 0.228905
3 25 100 11 0.00048602
4 25 100 11 4.94016e-06
5 25 100 11 1.56209e-06
6 25 100 11 0.000839589
8 25 100 11 9.97802e-07
9 25 100 11 1.47301e-05
11 25 100 11 0.769747
6 26 100 11 0.000212291
8 26 100 11 0.000483475
11 26 100 11 0.999304
1 0 100 12 0.0469933
2 0 100 12 0.0853149
3 0 100 12 0.103725
4 0 100 12 0.107299
5 0 100 12 0.0945667
6 0 100 12 0.0996502
7 0 100 12 0.117792
8 0 100 12 0.0953425
9 0 100 12 0.102261
10 0 100 12 0.124286
11 0 100 12 0.00476229
12 0 100 12 0.0180086
1 1 100 12 0.736649
2 1 100 12 0.145946
3 1 100 12 0.0256669
4 1 100 12 0.0253892
5 1 100 12 0.0136762
6 1 100 12 0.0173438
7 1 100 12 0.0108383
8 1 100 12 0.0100027
9 1 100 12 0.00438337
10 1 100 12 0.0078868
11 1 100 12 0.00216504
12 1 100 12 5.30378e-05
1 2 100 12 0.293451
2 2 100 12 0.35036
3 2 100 12 0.137019
4 2 100 12 0.0514693
5 2 100 12 0.0318453
6 2 100 12 0.0316005
7 2 100 12 0.0204036
8 2 100 12 0.0191153
9 2 100 12 0.0219105
10 2 100 12 0.0184443
11 2 100 12 0.0200988
12 2 100 12 0.0042827
1 3 100 12 0.125977
2 3 100 12 0.242075
3 3 100 12 0.280139
4 3 100 12 0.146845
5 3 100 12 0.0470755
6 3 100 12 0.0380353
7 3 100 12 0.0278465
8 3 100 12 0.0311607
9 3 100 12 0.026486
10 3 100 12 0.0132915
11 3 100 12 0.0189383
12 3 100 12 0.00212977
1 4 100 12 0.0502713
2 4 100 12 0.11606
3 4 100 12 0.222722
4 4 100 12 0.216347
5 4 100 12 0.145017
6 4 100 12 0.0622987
7 4 100 12 0.0480696
8 4 100 12 0.0367302
9 4 100 12 0.033436
10 4 100 12 0.0256701
11 4 100 12 0.0383652
12 4 100 12 0.00501245
1 5 100 12 0.0473686
2 5 100 12 0.0707314
3 5 100 12 0.1234
4 5 100 12 0.214001
5 5 100 12 0.190738
6 5 100 12 0.136813
7 5 100 12 0.0717243
8 5 100 12 0.045175
9 5 100 12 0.0369664
10 5 100 12 0.0304824
11 5 100 12 0.0280791
12 5 100 12 0.00452201
1 6 100 12 0.0195129
2 6 100 12 0.0442152
3 6 100 12 0.0690526
4 6 100 12 0.125946
5 6 100 12 0.234371
6 6 100 12 0.167794
7 6 100 12 0.130733
8 6 100 12 0.0802437
9 6 100 12 0.0520722
10 6 100 12 0.0223546
11 6 100 12 0.0429949
12 6 100 12 0.0107096
1 7 100 12 0.028765
2 7 100 12 0.0308287
3 7 100 12 0.0517156
4 7 100 12 0.0850291
5 7 100 12 0.128141
6 7 100 12 0.195549
7 7 100 12 0.181712
8 7 100 12 0.119075
9 7 100 12 0.0725037
10 7 100 12 0.0465963
11 7 100 12 0.0388936
12 7 100 12 0.0211915
1 8 100 12 0.0197212
2 8 100 12 0.0325817
3 8 100 12 0.0324651
4 8 100 12 0.0629922
5 8 100 12 0.0936754
6 8 100 12 0.135201
7 8 100 12 0.150179
8 8 100 12 0.184286
9 8 100 12 0.122739
10 8 100 12 0.0674587
11 8 100 12 0.0633478
12 8 100 12 0.0353531
1 9 100 12 0.0153306
2 9 100 12 0.0271542
3 9 100 12 0.0272114
4 9 100 12 0.0473821
5 9 100 12 0.059507
6 9 100 12 0.0986352
7 9 100 12 0.10647
8 9 100 12 0.163546
9 9 100 12 0.17153
10 9 100 12 0.135446
11 9 100 12 0.0958905
12 9 100 12 0.051897
1 10 100 12 0.0121194
2 10 100 12 0.0170767
3 10 100 12 0.0305544
4 10 100 12 0.026719
5 10 100 12 0.052437
6 10 100 12 0.0791139
7 10 100 12 0.098401
8 10 100 12 0.111448
9 10 100 12 0.149492
10 10 100 12 0.193909
11 10 100 12 0.152461
12 10 100 12 0.0762677
1 11 100 12 0.0134967
2 11 100 12 0.0180195
3 11 100 12 0.0246823
4 11 100 12 0.0295616
5 11 100 12 0.050071
6 11 100 12 0.0459961
7 11 100 12 0.0895248
8 11 100 12 0.117989
9 11 100 12 0.120913
10 11 100 12 0.137152
11 11 100 12 0.217371
12 11 100 12 0.135224
1 12 100 12 0.0101673
2 12 100 12 0.0200666
3 12 100 12 0.0223807
4 12 100 12 0.0245403
5 12 100 12 0.0304151
6 12 100 12 0.0543572
7 12 100 12 0.0711634
8 12 100 12 0.117284
9 12 100 12 0.0981173
10 12 100 12 0.11179
11 12 100 12 0.210767
12 12 100 12 0.228951
1 13 100 12 0.0162251
2 13 100 12 0.0160201
3 13 100 12 0.0178143
4 13 100 12 0.0219636
5 13 100 12 0.0202848
6 13 100 12 0.0487868
7 13 100 12 0.0430744
8 13 100 12 0.0656432
9 13 100 12 0.144175
10 13 100 12 0.140791
11 13 100 12 0.172995
12 13 100 12 0.292228
1 14 100 12 0.0194579
2 14 100 12 0.0111504
3 14 100 12 0.0342947
4 14 100 12 0.0135364
5 14 100 12 0.0324621
6 14 100 12 0.0303356
7 14 100 12 0.0617898
8 14 100 12 0.0716372
9 14 100 12 0.116429
10 14 100 12 0.145449
11 14 100 12 0.20369
12 14 100 12 0.259768
1 15 100 12 0.0367435
2 15 100 12 0.0288503
3 15 100 12 0.0284467
4 15 100 12 0.0267692
5 15 100 12 0.0268438
6 15 100 12 0.0268299
7 15 100 12 0.0432891
8 15 100 12 0.0514266
9 15 100 12 0.0811948
10 15 100 12 0.107485
11 15 100 12 0.224142
12 15 100 12 0.317979
1 16 100 12 0.0269255
2 16 100 12 0.0129186
3 16 100 12 0.00587869
4 16 100 12 0.0106205
5 16 100 12 0.0223077
6 16 100 12 0.0346464
7 16 100 12 0.0235641
8 16 100 12 0.050845
9 16 100 12 0.113685
10 16 100 12 0.134311
11 16 100 12 0.243052
12 16 100 12 0.321246
1 17 100 12 0.0285166
2 17 100 12 0.0139715
3 17 100 12 0.025949
4 17 100 12 0.0203508
5 17 100 12 0.0140013
6 17 100 12 0.0314352
7 17 100 12 0.0394155
8 17 100 12 0.0710446
9 17 100 12 0.0645198
10 17 100 12 0.11881
11 17 100 12 0.184093
12 17 100 12 0.387893
1 18 100 12 0.00183657
2 18 100 12 0.0224103
3 18 100 12 0.0534688
4 18 100 12 0.0195251
5 18 100 12 0.0459704
6 18 100 12 0.000253614
7 18 100 12 0.0647363
8 18 100 12 0.0409124
9 18 100 12 0.0595521
10 18 100 12 0.07851
11 18 100 12 0.148322
12 18 100 12 0.464503
1 19 100 12 0.0134439
2 19 100 12 5.88697e-05
3 19 100 12 0.00836441
4 19 100 12 0.017923
5 19 100 12 0.0322345
6 19 100 12 0.0174359
7 19 100 12 0.00228051
8 19 100 12 0.00937746
9 19 100 12 0.104864
10 19 100 12 0.0468487
11 19 100 12 0.299512
12 19 100 12 0.447657
1 20 100 12 0.0475097
2 20 100 12 0.0224356
3 20 100 12 0.0402386
4 20 100 12 0.073026
5 20 100 12 0.00011051
6 20 100 12 0.0201595
7 20 100 12 0.0615598
8 20 100 12 0.122327
9 20 100 12 0.0421565
10 20 100 12 0.0932551
11 20 100 12 0.0771606
12 20 100 12 0.400061
1 21 100 12 5.11696e-06
2 21 100 12 2.19911e-05
3 21 100 12 5.78945e-05
4 21 100 12 2.47856e-05
5 21 100 12 0.00939291
6 21 100 12 1.02305e-05
7 21 100 12 3.76825e-06
8 21 100 12 0.0672871
9 21 100 12 0.0560289
10 21 100 12 0.162338
11 21 100 12 0.17537
12 21 100 12 0.52946
1 22 100 12 0.008856
2 22 100 12 5.38871e-06
4 22 100 12 2.31064e-05
5 22 100 12 9.30753e-05
6 22 100 12 0.0893283
7 22 100 12 0.0753792
8 22 100 12 0.00270351
9 22 100 12 0.0754592
10 22 100 12 1.00962e-05
11 22 100 12 0.147739
12 22 100 12 0.600403
1 23 100 12 0.000647215
2 23 100 12 2.68147e-06
3 23 100 12 1.9947e-05
4 23 100 12 0.000513469
5 23 100 12 0.000207228
6 23 100 12 0.00312969
7 23 100 12 0.00037937
8 23 100 12 0.000161045
9 23 100 12 0.000406994
10 23 100 12 7.64472e-06
11 23 100 12 3.90649e-07
12 23 100 12 0.994524
3 24 100 12 0.360564
9 24 100 12 0.00020755
11 24 100 12 0.639228
1 25 100 12 2.82267e-05
3 25 100 12 0.50757
9 25 100 12 1.85168e-05
11 25 100 12 0.0703491
12 25 100 12 0.422034
3 26 100 12 0.0265736
5 26 100 12 1.0229e-05
9 26 100 12 0.000152869
12 26 100 12 0.973263
1 0 100 13 0.0414603
2 0 100 13 0.0808581
3 0 100 13 0.0986759
4 0 100 13 0.0972328
5 0 100 13 0.0898185
6 0 100 13 0.0962934
7 0 100 13 0.100549
8 0 100 13 0.0898214
9 0 100 13 0.0843242
10 0 100 13 0.095142
11 0 100 13 0.101218
12 0 100 13 0.00423374
13 0 100 13 0.0203722
1 1 100 13 0.765534
2 1 100 13 0.131775
3 1 100 13 0.0289179
4 1 100 13 0.0124063
5 1 100 13 0.00583767
6 1 100 13 0.00886174
7 1 100 13 0.00413574
8 1 100 13 0.00587851
9 1 100 13 0.0103436
10 1 100 13 0.00981306
11 1 100 13 0.0102594
12 1 100 13 0.00416742
13 1 100 13 0.00207
1 2 100 13 0.255914
2 2 100 13 0.379188
3 2 100 13 0.14931
4 2 100 13 0.0587033
5 2 100 13 0.0399439
6 2 100 13 0.017015
7 2 100 13 0.0167644
8 2 100 13 0.0157428
9 2 100 13 0.0148209
10 2 100 13 0.011525
11 2 100 13 0.0166878
12 2 100 13 0.0203403
13 2 100 13 0.0040448
1 3 100 13 0.104147
2 3 100 13 0.230014
3 3 100 13 0.307654
4 3 100 13 0.145806
5 3 100 13 0.0722597
6 3 100 13 0.0383321
7 3 100 13 0.0189686
8 3 100 13 0.0227631
9 3 100 13 0.0198037
10 3 100 13 0.0159516
11 3 100 13 0.0123176
12 3 100 13 0.0102248
13 3 100 13 0.00175818
1 4 100 13 0.0660259
2 4 100 13 0.0962973
3 4 100 13 0.208937
4 4 100 13 0.256326
5 4 100 13 0.135732
6 4 100 13 0.0733371
7 4 100 13 0.0532844
8 4 100 13 0.0296609
9 4 100 13 0.0236916
10 4 100 13 0.0205786
11 4 100 13 0.0147923
12 4 100 13 0.0196663
13 4 100 13 0.0016712
1 5 100 13 0.0375805
2 5 100 13 0.0753467
3 5 100 13 0.101767
4 5 100 13 0.189479
5 5 100 13 0.204697
6 5 100 13 0.143668
7 5 100 13 0.0781178
8 5 100 13 0.0575597
9 5 100 13 0.0303045
10 5 100 13 0.0359357
11 5 100 13 0.0219914
12 5 100 13 0.0222345
13 5 100 13 0.00131872
1 6 100 13 0.0275772
2 6 100 13 0.0437637
3 6 100 13 0.0693281
4 6 100 13 0.112799
5 6 100 13 0.233586
6 6 100 13 0.17337
7 6 100 13 0.116859
8 6 100 13 0.0784089
9 6 100 13 0.0582755
10 6 100 13 0.0295828
11 6 100 13 0.0236379
12 6 100 13 0.0267585
13 6 100 13 0.00605333
1 7 100 13 0.0130132
2 7 100 13 0.0375126
3 7 100 13 0.0518763
4 7 100 13 0.0806194
5 7 100 13 0.107882
6 7 100 13 0.179251
7 7 100 13 0.173708
8 7 100 13 0.135135
9 7 100 13 0.0688504
10 7 100 13 0.0566902
11 7 100 13 0.0451214
12 7 100 13 0.0386098
13 7 100 13 0.0117303
1 8 100 13 0.0246481
2 8 100 13 0.0233263
3 8 100 13 0.0297168
4 8 100 13 0.0417977
5 8 100 13 0.0669389
6 8 100 13 0.1291
7 8 100 13 0.188735
8 8 100 13 0.158439
9 8 100 13 0.129207
10 8 100 13 0.0751192
11 8 100 13 0.0500112
12 8 100 13 0.0625508
13 8 100 13 0.0204093
1 9 100 13 0.0157481
2 9 100 13 0.0211908
3 9 100 13 0.0280921
4 9 100 13 0.0347471
5 9 100 13 0.0638917
6 9 100 13 0.0823784
7 9 100 13 0.109996
8 9 100 13 0.162234
9 9 100 13 0.162779
10 9 100 13 0.121659
11 9 100 13 0.0805408
12 9 100 13 0.0772985
13 9 100 13 0.0394448
1 10 100 13 0.0152499
2 10 100 13 0.0104939
3 10 100 13 0.0247491
4 10 100 13 0.0267556
5 10 100 13 0.0344052
6 10 100 13 0.0672258
7 10 100 13 0.0927963
8 10 100 13 0.131398
9 10 100 13 0.167037
10 10 100 13 0.143536
11 10 100 13 0.124716
12 10 100 13 0.10635
13 10 100 13 0.055287
1 11 100 13 0.0105765
2 11 100 13 0.0204383
3 11 100 13 0.0202942
4 11 100 13 0.0381381
5 11 100 13 0.0385267
6 11 100 13 0.0506966
7 11 100 13 0.0601701
8 11 100 13 0.0971152
9 11 100 13 0.137977
10 11 100 13 0.149247
11 11 100 13 0.129179
12 11 100 13 0.143689
13 11 100 13 0.103952
1 12 100 13 0.011924
2 12 100 13 0.0215694
3 12 100 13 0.03268
4 12 100 13 0.0201227
5 12 100 13 0.0345205
6 12 100 13 0.0360998
7 12 100 13 0.0481461
8 12 100 13 0.080222
9 12 100 13 0.0878634
10 12 100 13 0.157453
11 12 100 13 0.152074
12 12 100 13 0.181759
13 12 100 13 0.135565
1 13 100 13 0.0167384
2 13 100 13 0.0164433
3 13 100 13 0.00866398
4 13 100 13 0.0235249
5 13 100 13 0.0263581
6 13 100 13 0.0337719
7 13 100 13 0.0569478
8 13 100 13 0.0514316
9 13 100 13 0.0838002
10 13 100 13 0.097705
11 13 100 13 0.175709
12 13 100 13 0.212116
13 13 100 13 0.19679
1 14 100 13 0.0231842
2 14 100 13 0.0138788
3 14 100 13 0.0117035
4 14 100 13 0.0135392
5 14 100 13 0.0229091
6 14 100 13 0.0360241
7 14 100 13 0.0422595
8 14 100 13 0.0590359
9 14 100 13 0.090132
10 14 100 13 0.0910108
11 14 100 13 0.134147
12 14 100 13 0.227536
13 14 100 13 0.234639
1 15 100 13 0.00492504
2 15 100 13 0.0102846
3 15 100 13 0.0129755
4 15 100 13 0.0282372
5 15 100 13 0.0132952
6 15 100 13 0.0196795
7 15 100 13 0.0293237
8 15 100 13 0.0554404
9 15 100 13 0.083639
10 15 100 13 0.119638
11 15 100 13 0.134187
12 15 100 13 0.173262
13 15 100 13 0.315113
1 16 100 13 0.00472463
2 16 100 13 0.0114701
3 16 100 13 0.0161957
4 16 100 13 0.0172136
5 16 100 13 0.00693545
6 16 100 13 0.0148317
7 16 100 13 0.0327317
8 16 100 13 0.0486404
9 16 100 13 0.0905532
10 16 100 13 0.0936103
11 16 100 13 0.119856
12 16 100 13 0.191749
13 16 100 13 0.351489
1 17 100 13 0.0418766
2 17 100 13 0.0272967
3 17 100 13 0.0192479
4 17 100 13 0.054582
5 17 100 13 0.0232846
6 17 100 13 0.0269106
7 17 100 13 0.0336355
8 17 100 13 0.0156434
9 17 100 13 0.0594789
10 17 100 13 0.0776326
11 17 100 13 0.107396
12 17 100 13 0.221878
13 17 100 13 0.291137
1 18 100 13 0.00167161
2 18 100 13 0.0171964
3 18 100 13 0.00915539
4 18 100 13 0.0259226
5 18 100 13 0.0321263
6 18 100 13 0.0254956
7 18 100 13 0.0381182
8 18 100 13 0.0329072
9 18 100 13 0.0637976
10 18 100 13 0.0804095
11 18 100 13 0.0618845
12 18 100 13 0.20497
13 18 100 13 0.406345
1 19 100 13 0.0313565
2 19 100 13 0.0539065
3 19 100 13 0.0333408
4 19 100 13 0.0123896
5 19 100 13 0.0251847
6 19 100 13 0.0325692
7 19 100 13 0.0214371
8 19 100 13 0.0456824
9 19 100 13 0.0173826
10 19 100 13 0.0524623
11 19 100 13 0.0709625
12 19 100 13 0.17465
13 19 100 13 0.428676
1 20 100 13 0.0356911
2 20 100 13 0.0151063
3 20 100 13 0.0384529
4 20 100 13 0.0493698
5 20 100 13 0.00167188
6 20 100 13 0.0338984
7 20 100 13 0.0375626
8 20 100 13 0.00151626
9 20 100 13 0.0559347
10 20 100 13 0.0293897
11 20 100 13 0.0643933
12 20 100 13 0.217163
13 20 100 13 0.41985
1 21 100 13 0.000111744
2 21 100 13 5.03812e-05
3 21 100 13 0.000313592
4 21 100 13 0.0141431
5 21 100 13 0.0672358
6 21 100 13 0.00152334
7 21 100 13 3.22649e-06
8 21 100 13 0.0203434
9 21 100 13 0.0324436
10 21 100 13 0.157752
11 21 100 13 0.0446735
12 21 100 13 0.133559
13 21 100 13 0.527847
1 22 100 13 0.0888456
2 22 100 13 3.69403e-05
3 22 100 13 1.64898e-06
4 22 100 13 3.50801e-06
5 22 100 13 0.00393831
6 22 100 13 0.0750265
7 22 100 13 0.0394763
8 22 100 13 0.00457389
9 22 100 13 2.42295e-06
10 22 100 13 0.039339
11 22 100 13 0.219647
12 22 100 13 0.241376
13 22 100 13 0.287732
1 23 100 13 3.11145e-05
2 23 100 13 0.0753552
3 23 100 13 0.0224624
4 23 100 13 9.76458e-05
5 23 100 13 0.000176022
6 23 100 13 2.68947e-05
7 23 100 13 0.0334974
8 23 100 13 0.00118236
9 23 100 13 0.000132619
10 23 100 13 0.0313539
11 23 100 13 6.96371e-06
12 23 100 13 0.0798361
13 23 100 13 0.755842
1 24 100 13 0.000241294
2 24 100 13 4.46824e-06
3 24 100 13 4.45739e-05
4 24 100 13 3.06097e-06
5 24 100 13 1.41347e-05
6 24 100 13 3.01305e-05
7 24 100 13 0.000536427
8 24 100 13 0.000784131
9 24 100 13 0.00124571
10 24 100 13 2.25249e-05
11 24 100 13 1.32676e-05
12 24 100 13 1.9266e-07
13 24 100 13 0.99706
1 25 100 13 0.00156099
2 25 100 13 9.23514e-06
3 25 100 13 8.03652e-06
5 25 100 13 0.00159745
6 25 100 13 1.02947e-05
7 25 100 13 3.4512e-06
8 25 100 13 8.57727e-06
9 25 100 13 3.02212e-06
10 25 100 13 0.000502583
11 25 100 13 4.65997e-06
13 25 100 13 0.996292
1 0 100 14 0.0419568
2 0 100 14 0.0750558
3 0 100 14 0.0949167
4 0 100 14 0.0856932
5 0 100 14 0.0828215
6 0 100 14 0.0929564
7 0 100 14 0.0842329
8 0 100 14 0.0866547
9 0 100 14 0.0866288
10 0 100 14 0.0782071
11 0 100 14 0.0867306
12 0 100 14 0.0834748
13 0 100 14 0.00304266
14 0 100 14 0.0176278
1 1 100 14 0.798288
2 1 100 14 0.121613
3 1 100 14 0.0277994
4 1 100 14 0.0114831
5 1 100 14 0.0115096
6 1 100 14 0.00832211
7 1 100 14 0.0123978
8 1 100 14 0.000678091
9 1 100 14 0.00248617
10 1 100 14 0.00286007
11 1 100 14 0.00245404
12 1 100 14 4.18596e-05
13 1 100 14 4.97169e-06
14 1 100 14 6.18269e-05
1 2 100 14 0.331467
2 2 100 14 0.368094
3 2 100 14 0.126815
4 2 100 14 0.0445418
5 2 100 14 0.0243277
6 2 100 14 0.0232086
7 2 100 14 0.00965884
8 2 100 14 0.0100358
9 2 100 14 0.0104719
10 2 100 14 0.00821421
11 2 100 14 0.0127718
12 2 100 14 0.0139977
13 2 100 14 0.0157452
14 2 100 14 0.000649707
1 3 100 14 0.100445
2 3 100 14 0.26373
3 3 100 14 0.27379
4 3 100 14 0.131453
5 3 100 14 0.0575951
6 3 100 14 0.0253462
7 3 100 14 0.0286813
8 3 100 14 0.0265785
9 3 100 14 0.0173523
10 3 100 14 0.019488
11 3 100 14 0.020791
12 3 100 14 0.0156615
13 3 100 14 0.0176604
14 3 100 14 0.00142824
1 4 100 14 0.0542555
2 4 100 14 0.132412
3 4 100 14 0.203177
4 4 100 14 0.250661
5 4 100 14 0.151793
6 4 100 14 0.0599342
7 4 100 14 0.0322536
8 4 100 14 0.0269536
9 4 100 14 0.0256864
10 4 100 14 0.0280451
11 4 100 14 0.0148329
12 4 100 14 0.00871981
13 4 100 14 0.00988517
14 4 100 14 0.00139129
1 5 100 14 0.0284176
2 5 100 14 0.0744517
3 5 100 14 0.131199
4 5 100 14 0.204839
5 5 100 14 0.202485
6 5 100 14 0.116495
7 5 100 14 0.0727831
8 5 100 14 0.0393949
9 5 100 14 0.0374453
10 5 100 14 0.0301013
11 5 100 14 0.0243919
12 5 100 14 0.0193317
13 5 100 14 0.01797
14 5 100 14 0.000694953
1 6 100 14 0.0283196
2 6 100 14 0.026363
3 6 100 14 0.0846559
4 6 100 14 0.135612
5 6 100 14 0.207129
6 6 100 14 0.187279
7 6 100 14 0.109241
8 6 100 14 0.0914707
9 6 100 14 0.0370272
10 6 100 14 0.0318962
11 6 100 14 0.00841568
12 6 100 14 0.0232492
13 6 100 14 0.0247847
14 6 100 14 0.00455697
1 7 100 14 0.01594
2 7 100 14 0.0216658
3 7 100 14 0.0568409
4 7 100 14 0.0875926
5 7 100 14 0.12409
6 7 100 14 0.199701
7 7 100 14 0.181742
8 7 100 14 0.0966776
9 7 100 14 0.0646054
10 7 100 14 0.048678
11 7 100 14 0.0391221
12 7 100 14 0.0301457
13 7 100 14 0.0250661
14 7 100 14 0.00813179
1 8 100 14 0.0197479
2 8 100 14 0.0264241
3 8 100 14 0.0235394
4 8 100 14 0.0644487
5 8 100 14 0.10573
6 8 100 14 0.110348
7 8 100 14 0.150763
8 8 100 14 0.172325
9 8 100 14 0.110179
10 8 100 14 0.0638244
11 8 100 14 0.0572706
12 8 100 14 0.0387839
13 8 100 14 0.0461145
14 8 100 14 0.0105009
1 9 100 14 0.0138522
2 9 100 14 0.00820616
3 9 100 14 0.0228302
4 9 100 14 0.0324681
5 9 100 14 0.07289
6 9 100 14 0.078275
7 9 100 14 0.151153
8 9 100 14 0.153805
9 9 100 14 0.15301
10 9 100 14 0.109214
11 9 100 14 0.069743
12 9 100 14 0.0606224
13 9 100 14 0.0506663
14 9 100 14 0.0232649
1 10 100 14 0.0137294
2 10 100 14 0.0168915
3 10 100 14 0.0228163
4 10 100 14 0.0240767
5 10 100 14 0.0403019
6 10 100 14 0.0829586
7 10 100 14 0.101251
8 10 100 14 0.114466
9 10 100 14 0.169383
10 10 100 14 0.145755
11 10 100 14 0.103462
12 10 100 14 0.0774339
13 10 100 14 0.0650411
14 10 100 14 0.0224322
1 11 100 14 0.0120136
2 11 100 14 0.0135819
3 11 100 14 0.019107
4 11 100 14 0.018162
5 11 100 14 0.0254464
6 11 100 14 0.0566576
7 11 100 14 0.0934351
8 11 100 14 0.093297
9 11 100 14 0.136512
10 11 100 14 0.136013
11 11 100 14 0.14415
12 11 100 14 0.103868
13 11 100 14 0.089822
14 11 100 14 0.0579344
1 12 100 14 0.00399246
2 12 100 14 0.00744494
3 12 100 14 0.0107603
4 12 100 14 0.0226717
5 12 100 14 0.0186031
6 12 100 14 0.0375434
7 12 100 14 0.0474823
8 12 100 14 0.0875709
9 12 100 14 0.0986206
10 12 100 14 0.135916
11 12 100 14 0.160672
12 12 100 14 0.155917
13 12 100 14 0.132967
14 12 100 14 0.0798378
1 13 100 14 0.00414707
2 13 100 14 0.0135302
3 13 100 14 0.0115263
4 13 100 14 0.0188713
5 13 100 14 0.00608061
6 13 100 14 0.02852
7 13 100 14 0.0327256
8 13 100 14 0.0728189
9 13 100 14 0.0914916
10 13 100 14 0.123271
11 13 100 14 0.130773
12 13 100 14 0.134813
13 13 100 14 0.185789
14 13 100 14 0.145642
1 14 100 14 0.0146921
2 14 100 14 0.0106154
3 14 100 14 0.0142533
4 14 100 14 0.00637412
5 14 100 14 0.0107627
6 14 100 14 0.0294942
7 14 100 14 0.033597
8 14 100 14 0.0362382
9 14 100 14 0.0585315
10 14 100 14 0.10067
11 14 100 14 0.134912
12 14 100 14 0.131224
13 14 100 14 0.217787
14 14 100 14 0.200848
1 15 100 14 0.0127954
2 15 100 14 0.019923
3 15 100 14 0.0111641
4 15 100 14 0.0306595
5 15 100 14 0.00710315
6 15 100 14 0.0138397
7 15 100 14 0.0262142
8 15 100 14 0.0424578
9 15 100 14 0.0519441
10 15 100 14 0.121687
11 15 100 14 0.109817
12 15 100 14 0.148549
13 15 100 14 0.16663
14 15 100 14 0.237216
1 16 100 14 0.024362
2 16 100 14 0.0252563
3 16 100 14 0.0241282
4 16 100 14 0.0101131
5 16 100 14 0.0172798
6 16 100 14 0.0126171
7 16 100 14 0.0218632
8 16 100 14 0.031
9 16 100 14 0.0591964
10 16 100 14 0.0718452
11 16 100 14 0.0862593
12 16 100 14 0.157582
13 16 100 14 0.191546
14 16 100 14 0.266951
1 17 100 14 0.02973
2 17 100 14 0.0257881
3 17 100 14 0.0323729
4 17 100 14 0.0305951
5 17 100 14 0.0308596
6 17 100 14 0.0245715
7 17 100 14 0.0169548
8 17 100 14 0.0225093
9 17 100 14 0.0525912
10 17 100 14 0.0571656
11 17 100 14 0.0957812
12 17 100 14 0.0943359
13 17 100 14 0.241015
14 17 100 14 0.24573
1 18 100 14 0.0191332
2 18 100 14 0.00524132
3 18 100 14 0.0254954
4 18 100 14 0.00517113
5 18 100 14 0.0302523
6 18 100 14 0.00287028
7 18 100 14 0.0366536
8 18 100 14 0.0293022
9 18 100 14 0.0377378
10 18 100 14 0.0391987
11 18 100 14 0.0684889
12 18 100 14 0.140213
13 18 100 14 0.16055
14 18 100 14 0.399692
1 19 100 14 0.00826464
2 19 100 14 0.00785803
3 19 100 14 0.0092925
4 19 100 14 0.0082971
5 19 100 14 0.0229817
6 19 100 14 0.0479141
7 19 100 14 0.0276195
8 19 100 14 0.0478557
9 19 100 14 0.0088531
10 19 100 14 0.0745884
11 19 100 14 0.0682876
12 19 100 14 0.106498
13 19 100 14 0.212459
14 19 100 14 0.349231
1 20 100 14 0.0266092
2 20 100 14 0.0108326
3 20 100 14 0.0107917
4 20 100 14 0.0219616
5 20 100 14 0.0263045
6 20 100 14 0.0191604
7 20 100 14 0.0529736
8 20 100 14 0.0495098
9 20 100 14 0.0220241
10 20 100 14 0.0338007
11 20 100 14 0.0874089
12 20 100 14 0.161155
13 20 100 14 0.178271
14 20 100 14 0.299197
1 21 100 14 0.000423335
2 21 100 14 0.000315597
3 21 100 14 0.0287925
4 21 100 14 0.0153483
5 21 100 14 0.0168893
6 21 100 14 0.0164198
7 21 100 14 0.00766852
8 21 100 14 0.0377581
9 21 100 14 0.0323803
10 21 100 14 0.0403947
11 21 100 14 0.0967146
12 21 100 14 0.0303168
13 21 100 14 0.180155
14 21 100 14 0.496424
1 22 100 14 0.0349819
2 22 100 14 0.00324641
3 22 100 14 0.0125384
4 22 100 14 0.0158056
5 22 100 14 0.0419323
6 22 100 14 0.020239
7 22 100 14 0.0148972
8 22 100 14 0.0291837
9 22 100 14 0.0324244
10 22 100 14 0.0637381
11 22 100 14 0.0803539
12 22 100 14 0.113071
13 22 100 14 0.228224
14 22 100 14 0.309364
1 23 100 14 0.0367401
2 23 100 14 5.88669e-06
3 23 100 14 1.19404e-05
4 23 100 14 0.030465
5 23 100 14 0.035372
6 23 100 14 0.000750773
7 23 100 14 0.000306942
8 23 100 14 0.000144864
9 23 100 14 0.000162994
10 23 100 14 0.00778182
11 23 100 14 0.0016356
12 23 100 14 0.112906
13 23 100 14 0.13359
14 23 100 14 0.640125
1 24 100 14 3.19694e-05
2 24 100 14 2.33447e-05
3 24 100 14 1.82914e-05
4 24 100 14 1.00095e-05
5 24 100 14 6.08358e-06
6 24 100 14 0.000171994
7 24 100 14 0.0310293
8 24 100 14 0.000910873
9 24 100 14 3.64294e-05
10 24 100 14 3.56289e-05
11 24 100 14 0.0768604
12 24 100 14 0.0742068
13 24 100 14 0.255884
14 24 100 14 0.560775
1 25 100 14 0.000120958
2 25 100 14 1.21151e-05
3 25 100 14 2.20466e-05
4 25 100 14 0.00012382
5 25 100 14 8.71047e-05
6 25 100 14 3.95222e-06
7 25 100 14 7.91663e-05
8 25 100 14 4.50315e-06
9 25 100 14 1.16042e-06
10 25 100 14 0.0211567
11 25 100 14 4.43167e-05
12 25 100 14 6.2034e-06
13 25 100 14 0.137479
14 25 100 14 0.840859
1 26 100 14 7.91326e-05
3 26 100 14 8.27123e-06
4 26 100 14 4.47662e-06
5 26 100 14 1.7637e-06
6 26 100 14 4.39317e-06
7 26 100 14 4.81955e-05
8 26 100 14 0.234959
9 26 100 14 2.86907e-06
10 26 100 14 0.0405631
11 26 100 14 9.19374e-06
12 26 100 14 0.000117106
13 26 100 14 6.2682e-07
14 26 100 14 0.724202
2 27 100 14 1.44416e-05
4 27 100 14 0.000299243
7 27 100 14 3.81805e-07
9 27 100 14 0.139457
11 27 100 14 7.42335e-06
12 27 100 14 1.57977e-06
14 27 100 14 0.86022
1 28 100 14 0.0389835
4 28 100 14 0.0454593
8 28 100 14 0.000164734
9 28 100 14 0.444699
10 28 100 14 0.39385
12 28 100 14 9.31969e-06
14 28 100 14 0.0768336
14 29 100 14 1
1 0 100 15 0.0303021
2 0 100 15 0.076383
3 0 100 15 0.0758464
4 0 100 15 0.0894335
5 0 100 15 0.0781514
6 0 100 15 0.0722258
7 0 100 15 0.075387
8 0 100 15 0.089538
9 0 100 15 0.0823394
10 0 100 15 0.0797601
11 0 100 15 0.0736707
12 0 100 15 0.0709936
13 0 100 15 0.0901214
14 0 100 15 0.00274171
15 0 100 15 0.0131059
1 1 100 15 0.745857
2 1 100 15 0.159346
3 1 100 15 0.0310039
4 1 100 15 0.0277622
5 1 100 15 0.0112302
6 1 100 15 0.00717379
7 1 100 15 0.00622632
8 1 100 15 0.00364179
9 1 100 15 0.00209083
10 1 100 15 5.8198e-05
11 1 100 15 0.00199764
12 1 100 15 6.0715e-06
13 1 100 15 0.001635
14 1 100 15 0.00195267
15 1 100 15 1.859e-05
1 2 100 15 0.27315
2 2 100 15 0.376333
3 2 100 15 0.177487
4 2 100 15 0.0577884
5 2 100 15 0.0268372
6 2 100 15 0.0196247
7 2 100 15 0.015022
8 2 100 15 0.0100978
9 2 100 15 0.0121133
10 2 100 15 0.00755457
11 2 100 15 0.0028132
12 2 100 15 0.00628002
13 2 100 15 0.0047286
14 2 100 15 0.00452466
15 2 100 15 0.00564531
1 3 100 15 0.141934
2 3 100 15 0.219128
3 3 100 15 0.283486
4 3 100 15 0.161558
5 3 100 15 0.0739221
6 3 100 15 0.0188663
7 3 100 15 0.0220388
8 3 100 15 0.0174419
9 3 100 15 0.0177559
10 3 100 15 0.00527388
11 3 100 15 0.0146939
12 3 100 15 0.00533698
13 3 100 15 0.00710753
14 3 100 15 0.0106966
15 3 100 15 0.000760357
1 4 100 15 0.0592208
2 4 100 15 0.128778
3 4 100 15 0.191961
4 4 100 15 0.244619
5 4 100 15 0.148542
6 4 100 15 0.0708143
7 4 100 15 0.0353608
8 4 100 15 0.0191987
9 4 100 15 0.0264387
10 4 100 15 0.0229675
11 4 100 15 0.0123913
12 4 100 15 0.0122166
13 4 100 15 0.00940625
14 4 100 15 0.016582
15 4 100 15 0.00150356
1 5 100 15 0.0243822
2 5 100 15 0.081529
3 5 100 15 0.142005
4 5 100 15 0.168298
5 5 100 15 0.225492
6 5 100 15 0.131545
7 5 100 15 0.0775938
8 5 100 15 0.0400405
9 5 100 15 0.0130558
10 5 100 15 0.0312977
11 5 100 15 0.0233668
12 5 100 15 0.021583
13 5 100 15 0.00579378
14 5 100 15 0.0124316
15 5 100 15 0.00158626
1 6 100 15 0.0277529
2 6 100 15 0.0393321
3 6 100 15 0.102211
4 6 100 15 0.126849
5 6 100 15 0.161005
6 6 100 15 0.232439
7 6 100 15 0.128984
8 6 100 15 0.070629
9 6 100 15 0.0384003
10 6 100 15 0.0164792
11 6 100 15 0.0182239
12 6 100 15 0.0125424
13 6 100 15 0.0152047
14 6 100 15 0.00820701
15 6 100 15 0.00174072
1 7 100 15 0.0147551
2 7 100 15 0.0372153
3 7 100 15 0.0493573
4 7 100 15 0.0797884
5 7 100 15 0.144954
6 7 100 15 0.155435
7 7 100 15 0.198652
8 7 100 15 0.114792
9 7 100 15 0.0636539
10 7 100 15 0.0377231
11 7 100 15 0.0253529
12 7 100 15 0.0236837
13 7 100 15 0.0248009
14 7 100 15 0.0253887
15 7 100 15 0.00444708
1 8 100 15 0.0210284
2 8 100 15 0.0217806
3 8 100 15 0.033906
4 8 100 15 0.0539854
5 8 100 15 0.0854919
6 8 100 15 0.14657
7 8 100 15 0.147614
8 8 100 15 0.16371
9 8 100 15 0.129652
10 8 100 15 0.0723231
11 8 100 15 0.0403099
12 8 100 15 0.0284395
13 8 100 15 0.0201428
14 8 100 15 0.0261834
15 8 100 15 0.00886266
1 9 100 15 0.0144867
2 9 100 15 0.0228896
3 9 100 15 0.0225255
4 9 100 15 0.0391454
5 9 100 15 0.0575073
6 9 100 15 0.0854576
7 9 100 15 0.129234
8 9 100 15 0.162126
9 9 100 15 0.155593
10 9 100 15 0.118487
11 9 100 15 0.0868262
12 9 100 15 0.0473142
13 9 100 15 0.0220913
14 9 100 15 0.026255
15 9 100 15 0.0100613
1 10 100 15 0.0142191
2 10 100 15 0.0104635
3 10 100 15 0.0234683
4 10 100 15 0.0245092
5 10 100 15 0.0419046
6 10 100 15 0.073059
7 10 100 15 0.0852837
8 10 100 15 0.124813
9 10 100 15 0.138624
10 10 100 15 0.178936
11 10 100 15 0.125471
12 10 100 15 0.0688774
13 10 100 15 0.0410406
14 10 100 15 0.0399044
15 10 100 15 0.00942706
1 11 100 15 0.00893448
2 11 100 15 0.0108015
3 11 100 15 0.0212939
4 11 100 15 0.029251
5 11 100 15 0.0315069
6 11 100 15 0.0556811
7 11 100 15 0.0705941
8 11 100 15 0.088275
9 11 100 15 0.102164
10 11 100 15 0.128958
11 11 100 15 0.158736
12 11 100 15 0.119818
13 11 100 15 0.0720656
14 11 100 15 0.0710759
15 11 100 15 0.0308446
1 12 100 15 0.00371256
2 12 100 15 0.00211858
3 12 100 15 0.00857421
4 12 100 15 0.0169351
5 12 100 15 0.0136169
6 12 100 15 0.0228015
7 12 100 15 0.0597069
8 12 100 15 0.0666806
9 12 100 15 0.12139
10 12 100 15 0.125336
11 12 100 15 0.134312
12 12 100 15 0.151301
13 12 100 15 0.117003
14 12 100 15 0.10631
15 12 100 15 0.0502012
1 13 100 15 0.00798627
2 13 100 15 0.00687289
3 13 100 15 0.00958943
4 13 100 15 0.00934371
5 13 100 15 0.0154316
6 13 100 15 0.031852
7 13 100 15 0.036948
8 13 100 15 0.0546042
9 13 100 15 0.0911906
10 13 100 15 0.110212
11 13 100 15 0.109613
12 13 100 15 0.152348
13 13 100 15 0.151573
14 13 100 15 0.130774
15 13 100 15 0.0816617
1 14 100 15 0.0122696
2 14 100 15 0.0140815
3 14 100 15 0.0146001
4 14 100 15 0.0153291
5 14 100 15 0.0241532
6 14 100 15 0.0223912
7 14 100 15 0.029599
8 14 100 15 0.0410485
9 14 100 15 0.0660898
10 14 100 15 0.0841504
11 14 100 15 0.104249
12 14 100 15 0.131899
13 14 100 15 0.140393
14 14 100 15 0.195787
15 14 100 15 0.103959
1 15 100 15 0.00896809
2 15 100 15 0.00542025
3 15 100 15 0.0161668
4 15 100 15 0.0106897
5 15 100 15 0.01455
6 15 100 15 0.015531
7 15 100 15 0.0197729
8 15 100 15 0.0414178
9 15 100 15 0.0538993
10 15 100 15 0.0570564
11 15 100 15 0.0979983
12 15 100 15 0.109122
13 15 100 15 0.128198
14 15 100 15 0.188696
15 15 100 15 0.232513
1 16 100 15 0.00947412
2 16 100 15 0.0115149
3 16 100 15 0.00979381
4 16 100 15 0.01379
5 16 100 15 0.0203269
6 16 100 15 0.0178948
7 16 100 15 0.0295184
8 16 100 15 0.0257568
9 16 100 15 0.0394641
10 16 100 15 0.0555805
11 16 100 15 0.0872246
12 16 100 15 0.102929
13 16 100 15 0.15722
14 16 100 15 0.199971
15 16 100 15 0.219542
1 17 100 15 0.0150252
2 17 100 15 0.00306741
3 17 100 15 0.00422313
4 17 100 15 0.0084925
5 17 100 15 0.0148405
6 17 100 15 0.0223891
7 17 100 15 0.0255783
8 17 100 15 0.0217565
9 17 100 15 0.0368145
10 17 100 15 0.0551288
11 17 100 15 0.103498
12 17 100 15 0.120612
13 17 100 15 0.10243
14 17 100 15 0.186701
15 17 100 15 0.279443
1 18 100 15 0.0176681
2 18 100 15 0.0177886
3 18 100 15 0.017952
4 18 100 15 0.0112526
5 18 100 15 0.0171243
6 18 100 15 0.0409105
7 18 100 15 0.0121157
8 18 100 15 0.0280404
9 18 100 15 0.0305779
10 18 100 15 0.0580464
11 18 100 15 0.0712734
12 18 100 15 0.103846
13 18 100 15 0.121042
14 18 100 15 0.14971
15 18 100 15 0.302652
1 19 100 15 0.0314037
2 19 100 15 0.0115057
3 19 100 15 0.0132658
4 19 100 15 0.0170031
5 19 100 15 0.0254481
6 19 100 15 0.0134648
7 19 100 15 0.0349501
8 19 100 15 0.031122
9 19 100 15 0.0388417
10 19 100 15 0.0434417
11 19 100 15 0.0674102
12 19 100 15 0.122214
13 19 100 15 0.113521
14 19 100 15 0.198194
15 19 100 15 0.238214
1 20 100 15 0.0294468
2 20 100 15 0.0126846
3 20 100 15 0.033707
4 20 100 15 0.032599
5 20 100 15 0.0108398
6 20 100 15 0.0100395
7 20 100 15 0.0124259
8 20 100 15 0.0265333
9 20 100 15 0.00832989
10 20 100 15 0.0376064
11 20 100 15 0.0406256
12 20 100 15 0.0777397
13 20 100 15 0.143528
14 20 100 15 0.212801
15 20 100 15 0.311094
1 21 100 15 0.0152149
2 21 100 15 0.0157559
3 21 100 15 0.00651974
4 21 100 15 0.0148983
5 21 100 15 0.0334174
6 21 100 15 0.0218386
7 21 100 15 0.0293867
8 21 100 15 0.00956869
9 21 100 15 0.0354651
10 21 100 15 0.0265859
11 21 100 15 0.0346356
12 21 100 15 0.080382
13 21 100 15 0.0952425
14 21 100 15 0.202103
15 21 100 15 0.378985
1 22 100 15 0.0145955
2 22 100 15 4.36582e-05
3 22 100 15 0.0220383
4 22 100 15 0.014356
5 22 100 15 0.00194529
6 22 100 15 0.01475
7 22 100 15 0.00261641
8 22 100 15 0.0144081
9 22 100 15 0.00555188
10 22 100 15 0.0144316
11 22 100 15 0.0441451
12 22 100 15 0.0633483
13 22 100 15 0.053535
14 22 100 15 0.166651
15 22 100 15 0.567584
1 23 100 15 0.0375116
2 23 100 15 0.0186895
3 23 100 15 0.000123701
4 23 100 15 0.0267496
5 23 100 15 0.0234665
6 23 100 15 0.0199752
7 23 100 15 0.0384369
8 23 100 15 0.0300759
9 23 100 15 0.0377157
10 23 100 15 0.0404105
11 23 100 15 0.0575329
12 23 100 15 0.0517077
13 23 100 15 0.111017
14 23 100 15 0.1932
15 23 100 15 0.313388
1 24 100 15 0.000369567
2 24 100 15 0.00421589
3 24 100 15 6.60103e-05
4 24 100 15 1.33971e-05
5 24 100 15 0.000942052
6 24 100 15 0.000261308
7 24 100 15 1.5497e-05
8 24 100 15 2.42036e-05
9 24 100 15 0.00325851
10 24 100 15 0.0407247
11 24 100 15 0.0384687
12 24 100 15 0.0380967
13 24 100 15 0.200692
14 24 100 15 0.189216
15 24 100 15 0.483636
1 25 100 15 6.19171e-06
4 25 100 15 9.85601e-05
5 25 100 15 0.0492665
6 25 100 15 0.0458825
7 25 100 15 0.0453518
8 25 100 15 0.0965357
9 25 100 15 0.0452846
10 25 100 15 0.000175953
11 25 100 15 0.0454957
12 25 100 15 0.044497
13 25 100 15 0.0695203
14 25 100 15 0.243717
15 25 100 15 0.314168
1 26 100 15 0.000158657
2 26 100 15 4.81514e-06
3 26 100 15 2.11501e-07
4 26 100 15 1.96914e-07
5 26 100 15 3.4133e-07
6 26 100 15 2.73564e-05
7 26 100 15 2.13961e-05
8 26 100 15 0.00126924
9 26 100 15 0.000263916
10 26 100 15 4.63705e-05
11 26 100 15 0.000463115
12 26 100 15 0.00133888
13 26 100 15 0.000600983
14 26 100 15 0.267371
15 26 100 15 0.728434
1 27 100 15 7.16843e-05
2 27 100 15 5.68138e-06
3 27 100 15 5.24872e-06
4 27 100 15 8.76066e-06
5 27 100 15 0.000322127
6 27 100 15 3.22293e-05
7 27 100 15 3.43366e-07
8 27 100 15 0.000428525
9 27 100 15 5.81597e-06
10 27 100 15 5.70755e-05
11 27 100 15 4.20784e-07
12 27 100 15 5.53547e-05
13 27 100 15 3.33718e-06
15 27 100 15 0.999003
1 28 100 15 0.000674585
3 28 100 15 5.0679e-06
4 28 100 15 9.515e-06
5 28 100 15 5.07974e-06
6 28 100 15 4.24071e-05
9 28 100 15 8.37224e-07
10 28 100 15 7.51997e-07
11 28 100 15 3.44659e-05
13 28 100 15 5.49127e-06
15 28 100 15 0.999222
1 0 100 16 0.0365734
2 0 100 16 0.0661241
3 0 100 16 0.0689837
4 0 100 16 0.0763882
5 0 100 16 0.0722427
6 0 100 16 0.0633849
7 0 100 16 0.0682232
8 0 100 16 0.0772698
9 0 100 16 0.0785425
10 0 100 16 0.0732099
11 0 100 16 0.0842788
12 0 100 16 0.0612039
13 0 100 16 0.0806919
14 0 100 16 0.0794283
15 0 100 16 0.00175654
16 0 100 16 0.0116981
1 1 100 16 0.780281
2 1 100 16 0.133705
3 1 100 16 0.0234943
4 1 100 16 0.0313994
5 1 100 16 0.00395543
6 1 100 16 0.00687239
7 1 100 16 0.00243005
8 1 100 16 0.00452936
9 1 100 16 0.00381271
10 1 100 16 0.00468768
11 1 100 16 0.0023069
12 1 100 16 0.00237765
13 1 100 16 0.000111251
14 1 100 16 1.9705e-05
15 1 100 16 7.20468e-07
16 1 100 16 1.65693e-05
1 2 100 16 0.284775
2 2 100 16 0.385044
3 2 100 16 0.12931
4 2 100 16 0.0527684
5 2 100 16 0.0329145
6 2 100 16 0.0225513
7 2 100 16 0.0152616
8 2 100 16 0.0150161
9 2 100 16 0.0105924
10 2 100 16 0.0167353
11 2 100 16 0.01224
12 2 100 16 0.00933679
13 2 100 16 0.00323764
14 2 100 16 0.00715691
15 2 100 16 0.00305691
16 2 100 16 3.78669e-06
1 3 100 16 0.109889
2 3 100 16 0.237956
3 3 100 16 0.323037
4 3 100 16 0.120806
5 3 100 16 0.0540296
6 3 100 16 0.0247433
7 3 100 16 0.0306724
8 3 100 16 0.0138112
9 3 100 16 0.00862765
10 3 100 16 0.0132792
11 3 100 16 0.01943
12 3 100 16 0.0174092
13 3 100 16 0.00710027
14 3 100 16 0.0121008
15 3 100 16 0.00706695
16 3 100 16 4.10359e-05
1 4 100 16 0.0537016
2 4 100 16 0.105159
3 4 100 16 0.230036
4 4 100 16 0.262096
5 4 100 16 0.118254
6 4 100 16 0.0687567
7 4 100 16 0.0304578
8 4 100 16 0.0310396
9 4 100 16 0.0157796
10 4 100 16 0.0171628
11 4 100 16 0.0155779
12 4 100 16 0.0138051
13 4 100 16 0.0138386
14 4 100 16 0.0122588
15 4 100 16 0.0086613
16 4 100 16 0.00341646
1 5 100 16 0.0288292
2 5 100 16 0.0666438
3 5 100 16 0.117179
4 5 100 16 0.186504
5 5 100 16 0.241505
6 5 100 16 0.121142
7 5 100 16 0.072079
8 5 100 16 0.0409687
9 5 100 16 0.0345805
10 5 100 16 0.0215956
11 5 100 16 0.00992009
12 5 100 16 0.0207787
13 5 100 16 0.0131615
14 5 100 16 0.0117721
15 5 100 16 0.0116809
16 5 100 16 0.00165999
1 6 100 16 0.0193623
2 6 100 16 0.0355641
3 6 100 16 0.0919851
4 6 100 16 0.117657
5 6 100 16 0.186658
6 6 100 16 0.227944
7 6 100 16 0.113012
8 6 100 16 0.0582232
9 6 100 16 0.0409546
10 6 100 16 0.0320061
11 6 100 16 0.0147541
12 6 100 16 0.0190049
13 6 100 16 0.0103351
14 6 100 16 0.0133123
15 6 100 16 0.0166038
16 6 100 16 0.00262379
1 7 100 16 0.00926619
2 7 100 16 0.0214862
3 7 100 16 0.0486573
4 7 100 16 0.10073
5 7 100 16 0.133644
6 7 100 16 0.172187
7 7 100 16 0.205792
8 7 100 16 0.119154
9 7 100 16 0.0481645
10 7 100 16 0.041116
11 7 100 16 0.0366677
12 7 100 16 0.0124792
13 7 100 16 0.0253885
14 7 100 16 0.0111409
15 7 100 16 0.0125741
16 7 100 16 0.00155337
1 8 100 16 0.0233899
2 8 100 16 0.0166906
3 8 100 16 0.0264458
4 8 100 16 0.0639854
5 8 100 16 0.0863574
6 8 100 16 0.141453
7 8 100 16 0.192029
8 8 100 16 0.156083
9 8 100 16 0.118002
10 8 100 16 0.0462666
11 8 100 16 0.0406759
12 8 100 16 0.0303083
13 8 100 16 0.0184097
14 8 100 16 0.0146336
15 8 100 16 0.018459
16 8 100 16 0.00681105
1 9 100 16 0.00665988
2 9 100 16 0.0309816
3 9 100 16 0.0169453
4 9 100 16 0.0385743
5 9 100 16 0.0833658
6 9 100 16 0.0904608
7 9 100 16 0.0981201
8 9 100 16 0.157415
9 9 100 16 0.149571
10 9 100 16 0.103634
11 9 100 16 0.0578572
12 9 100 16 0.0700441
13 9 100 16 0.0338687
14 9 100 16 0.0254527
15 9 100 16 0.0318674
16 9 100 16 0.00518204
1 10 100 16 0.00755055
2 10 100 16 0.00769277
3 10 100 16 0.0124527
4 10 100 16 0.0154176
5 10 100 16 0.0424525
6 10 100 16 0.0821381
7 10 100 16 0.106411
8 10 100 16 0.123584
9 10 100 16 0.16836
10 10 100 16 0.142795
11 10 100 16 0.116248
12 10 100 16 0.0389399
13 10 100 16 0.0557397
14 10 100 16 0.0362757
15 10 100 16 0.0345361
16 10 100 16 0.0094065
1 11 100 16 0.0108922
2 11 100 16 0.00794976
3 11 100 16 0.0208212
4 11 100 16 0.0289819
5 11 100 16 0.0341872
6 11 100 16 0.0579445
7 11 100 16 0.0749715
8 11 100 16 0.0888913
9 11 100 16 0.11979
10 11 100 16 0.142513
11 11 100 16 0.11639
12 11 100 16 0.104394
13 11 100 16 0.0487929
14 11 100 16 0.0729772
15 11 100 16 0.0523986
16 11 100 16 0.0181056
1 12 100 16 0.0175716
2 12 100 16 0.0109467
3 12 100 16 0.00932577
4 12 100 16 0.0163362
5 12 100 16 0.0147715
6 12 100 16 0.0279326
7 12 100 16 0.0553503
8 12 100 16 0.0859078
9 12 100 16 0.095866
10 12 100 16 0.124051
11 12 100 16 0.137401
12 12 100 16 0.132557
13 12 100 16 0.111791
14 12 100 16 0.0621033
15 12 100 16 0.0638669
16 12 100 16 0.0342214
1 13 100 16 0.0155853
2 13 100 16 0.0213298
3 13 100 16 0.0156936
4 13 100 16 0.0141895
5 13 100 16 0.0139401
6 13 100 16 0.0209282
7 13 100 16 0.0330666
8 13 100 16 0.0624735
9 13 100 16 0.0591537
10 13 100 16 0.125746
11 13 100 16 0.112713
12 13 100 16 0.145769
13 13 100 16 0.113813
14 13 100 16 0.102843
15 13 100 16 0.0923299
16 13 100 16 0.0504257
1 14 100 16 0.0196858
2 14 100 16 0.0144221
3 14 100 16 0.0146083
4 14 100 16 0.00811316
5 14 100 16 0.00827135
6 14 100 16 0.014934
7 14 100 16 0.0193043
8 14 100 16 0.0395227
9 14 100 16 0.0710287
10 14 100 16 0.074128
11 14 100 16 0.124021
12 14 100 16 0.13485
13 14 100 16 0.113688
14 14 100 16 0.137041
15 14 100 16 0.13533
16 14 100 16 0.0710528
1 15 100 16 0.0076971
2 15 100 16 0.00934674
3 15 100 16 0.0113265
4 15 100 16 0.0130587
5 15 100 16 0.0204202
6 15 100 16 0.0171875
7 15 100 16 0.0310944
8 15 100 16 0.0393089
9 15 100 16 0.0430179
10 15 100 16 0.0829022
11 15 100 16 0.0783995
12 15 100 16 0.126638
13 15 100 16 0.131214
14 15 100 16 0.115591
15 15 100 16 0.152709
16 15 100 16 0.120089
1 16 100 16 0.0108331
2 16 100 16 0.00481551
3 16 100 16 0.0161213
4 16 100 16 0.0140148
5 16 100 16 0.0132313
6 16 100 16 0.0193242
7 16 100 16 0.0164128
8 16 100 16 0.0250111
9 16 100 16 0.0471927
10 16 100 16 0.0612397
11 16 100 16 0.0665628
12 16 100 16 0.0981627
13 16 100 16 0.130716
14 16 100 16 0.108937
15 16 100 16 0.183974
16 16 100 16 0.183452
1 17 100 16 0.00780546
2 17 100 16 0.0080327
3 17 100 16 0.00966414
4 17 100 16 0.00794759
5 17 100 16 0.00999086
6 17 100 16 0.0220761
7 17 100 16 0.028825
8 17 100 16 0.0181348
9 17 100 16 0.0227781
10 17 100 16 0.0507751
11 17 100 16 0.0743256
12 17 100 16 0.0915301
13 17 100 16 0.102966
14 17 100 16 0.160601
15 17 100 16 0.175019
16 17 100 16 0.20953
1 18 100 16 0.00676324
2 18 100 16 0.013817
3 18 100 16 0.0116629
4 18 100 16 0.0110329
5 18 100 16 0.0125179
6 18 100 16 0.00975897
7 18 100 16 0.0126786
8 18 100 16 0.029701
9 18 100 16 0.0232372
10 18 100 16 0.0253633
11 18 100 16 0.0487094
12 18 100 16 0.058667
13 18 100 16 0.114133
14 18 100 16 0.12166
15 18 100 16 0.230625
16 18 100 16 0.269672
1 19 100 16 0.00744436
2 19 100 16 0.00418759
3 19 100 16 0.0134139
4 19 100 16 0.000143364
5 19 100 16 0.0127881
6 19 100 16 0.0105488
7 19 100 16 0.0160349
8 19 100 16 0.013249
9 19 100 16 0.0229024
10 19 100 16 0.0158
11 19 100 16 0.0262657
12 19 100 16 0.0938015
13 19 100 16 0.121007
14 19 100 16 0.150133
15 19 100 16 0.157116
16 19 100 16 0.335164
1 20 100 16 0.00571072
2 20 100 16 0.00584566
3 20 100 16 0.00364046
4 20 100 16 0.0121922
5 20 100 16 0.0131669
6 20 100 16 0.0103372
7 20 100 16 0.0077211
8 20 100 16 0.00853024
9 20 100 16 0.0420818
10 20 100 16 0.0406724
11 20 100 16 0.0459612
12 20 100 16 0.0752116
13 20 100 16 0.110694
14 20 100 16 0.127468
15 20 100 16 0.255116
16 20 100 16 0.235652
1 21 100 16 0.0107442
2 21 100 16 0.0147731
3 21 100 16 0.00311536
4 21 100 16 0.0192921
5 21 100 16 0.0152381
6 21 100 16 0.0171939
7 21 100 16 0.0123463
8 21 100 16 0.0275878
9 21 100 16 0.0507354
10 21 100 16 0.0226042
11 21 100 16 0.0353817
12 21 100 16 0.0480907
13 21 100 16 0.115821
14 21 100 16 0.0942816
15 21 100 16 0.212029
16 21 100 16 0.300766
1 22 100 16 0.0167722
2 22 100 16 0.0157835
3 22 100 16 0.0160816
4 22 100 16 0.0159367
5 22 100 16 0.000218531
6 22 100 16 0.0317921
7 22 100 16 0.0084851
8 22 100 16 0.0156703
9 22 100 16 0.0176329
10 22 100 16 0.00813927
11 22 100 16 0.0278664
12 22 100 16 0.0611645
13 22 100 16 0.0529706
14 22 100 16 0.0998123
15 22 100 16 0.191541
16 22 100 16 0.420133
1 23 100 16 0.000148645
2 23 100 16 1.41996e-05
3 23 100 16 7.27543e-05
4 23 100 16 6.8207e-05
5 23 100 16 0.000289321
6 23 100 16 0.00199539
7 23 100 16 0.0313309
8 23 100 16 0.000100869
9 23 100 16 0.0338152
10 23 100 16 0.0142034
11 23 100 16 0.0461363
12 23 100 16 0.0658611
13 23 100 16 0.0603973
14 23 100 16 0.0739913
15 23 100 16 0.129833
16 23 100 16 0.541742
1 24 100 16 0.0224398
2 24 100 16 0.0227726
3 24 100 16 0.000166829
4 24 100 16 0.00047759
5 24 100 16 0.0227818
6 24 100 16 3.29463e-05
7 24 100 16 0.0238989
8 24 100 16 0.038221
9 24 100 16 3.90266e-05
10 24 100 16 0.0228209
11 24 100 16 0.0433119
12 24 100 16 0.00971987
13 24 100 16 0.0569652
14 24 100 16 0.0564175
15 24 100 16 0.233083
16 24 100 16 0.446851
1 25 100 16 0.0406246
2 25 100 16 0.00024207
3 25 100 16 0.0274714
4 25 100 16 1.32396e-05
5 25 100 16 0.00394521
6 25 100 16 7.29697e-05
7 25 100 16 0.00270406
8 25 100 16 0.0336278
9 25 100 16 0.0306019
10 25 100 16 4.37983e-06
11 25 100 16 0.0287195
12 25 100 16 0.0273344
13 25 100 16 0.0616837
14 25 100 16 0.0942793
15 25 100 16 0.191697
16 25 100 16 0.456978
1 26 100 16 2.11714e-05
2 26 100 16 1.07853e-05
3 26 100 16 7.23466e-05
4 26 100 16 2.84731e-06
5 26 100 16 0.000240974
6 26 100 16 5.43762e-06
7 26 100 16 0.000497169
8 26 100 16 1.48666e-05
9 26 100 16 2.20751e-05
10 26 100 16 0.0949943
11 26 100 16 0.0475476
12 26 100 16 0.0615623
13 26 100 16 0.0473126
14 26 100 16 0.15797
15 26 100 16 0.0958669
16 26 100 16 0.493858
1 27 100 16 1.02235e-05
2 27 100 16 1.3608e-06
3 27 100 16 0.00019704
4 27 100 16 0.00275495
5 27 100 16 0.00012987
6 27 100 16 0.000282969
7 27 100 16 0.152575
8 27 100 16 8.21012e-06
9 27 100 16 2.3231e-06
10 27 100 16 2.11251e-05
11 27 100 16 0.000461327
12 27 100 16 4.17681e-05
13 27 100 16 3.68938e-05
14 27 100 16 0.0027351
15 27 100 16 4.91463e-05
16 27 100 16 0.840693
1 28 100 16 0.000366185
2 28 100 16 1.34599e-06
3 28 100 16 5.69896e-06
4 28 100 16 6.82575e-05
6 28 100 16 7.04859e-06
7 28 100 16 0.00186938
8 28 100 16 0.183676
9 28 100 16 1.18787e-05
10 28 100 16 9.16414e-06
11 28 100 16 0.0101411
12 28 100 16 0.00486057
13 28 100 16 1.94523e-05
14 28 100 16 0.000103953
15 28 100 16 0.656363
16 28 100 16 0.142497
2 29 100 16 0.152585
5 29 100 16 6.18405e-07
6 29 100 16 2.09732e-06
9 29 100 16 0.000457254
10 29 100 16 0.00222645
11 29 100 16 1.20278e-06
14 29 100 16 3.74996e-06
16 29 100 16 0.844724
2 30 100 16 0.0024363
3 30 100 16 0.000336861
4 30 100 16 2.53686e-05
5 30 100 16 0.818311
6 30 100 16 5.75259e-06
7 30 100 16 8.84405e-06
8 30 100 16 2.25607e-06
9 30 100 16 0.000577434
10 30 100 16 0.000674475
12 30 100 16 1.49138e-05
14 30 100 16 2.38304e-06
15 30 100 16 3.4612e-05
16 30 100 16 0.17757
7 31 100 16 0.40369
16 31 100 16 0.59631
7 32 100 16 4.97904e-05
16 32 100 16 0.99995
1 0 100 17 0.0289627
2 0 100 17 0.0626242
3 0 100 17 0.0650195
4 0 100 17 0.0619982
5 0 100 17 0.0586462
6 0 100 17 0.0627084
7 0 100 17 0.0652808
8 0 100 17 0.0700472
9 0 100 17 0.0661449
10 0 100 17 0.0750698
11 0 100 17 0.0699094
12 0 100 17 0.0835251
13 0 100 17 0.066881
14 0 100 17 0.0623727
15 0 100 17 0.0817582
16 0 100 17 0.00297421
17 0 100 17 0.0160774
1 1 100 17 0.7958
2 1 100 17 0.112411
3 1 100 17 0.0250981
4 1 100 17 0.0265999
5 1 100 17 0.0123667
6 1 100 17 0.00233329
7 1 100 17 0.0100899
8 1 100 17 0.000114262
9 1 100 17 0.00252385
10 1 100 17 0.00447228
11 1 100 17 0.00279548
12 1 100 17 0.00250615
13 1 100 17 2.96077e-05
14 1 100 17 5.79171e-06
15 1 100 17 0.000352153
16 1 100 17 0.0024939
17 1 100 17 7.85317e-06
1 2 100 17 0.273476
2 2 100 17 0.396027
3 2 100 17 0.118806
4 2 100 17 0.0500697
5 2 100 17 0.0378754
6 2 100 17 0.0168805
7 2 100 17 0.0153423
8 2 100 17 0.0133673
9 2 100 17 0.00801588
10 2 100 17 0.0116211
11 2 100 17 0.0126209
12 2 100 17 0.00998129
13 2 100 17 0.00828282
14 2 100 17 0.013447
15 2 100 17 0.0066032
16 2 100 17 0.00500593
17 2 100 17 0.0025777
1 3 100 17 0.14679
2 3 100 17 0.209177
3 3 100 17 0.314635
4 3 100 17 0.139422
5 3 100 17 0.0463954
6 3 100 17 0.03058
7 3 100 17 0.0270264
8 3 100 17 0.0129476
9 3 100 17 0.0107897
10 3 100 17 0.00951321
11 3 100 17 0.0127082
12 3 100 17 0.00957005
13 3 100 17 0.00388707
14 3 100 17 0.00923129
15 3 100 17 0.0108397
16 3 100 17 0.005398
17 3 100 17 0.00108943
1 4 100 17 0.044745
2 4 100 17 0.126586
3 4 100 17 0.206501
4 4 100 17 0.257963
5 4 100 17 0.141799
6 4 100 17 0.0556251
7 4 100 17 0.0398636
8 4 100 17 0.0202521
9 4 100 17 0.0133334
10 4 100 17 0.0093426
11 4 100 17 0.0145404
12 4 100 17 0.00851579
13 4 100 17 0.0149072
14 4 100 17 0.0150286
15 4 100 17 0.0123576
16 4 100 17 0.0166968
17 4 100 17 0.0019422
1 5 100 17 0.0400238
2 5 100 17 0.0809508
3 5 100 17 0.146971
4 5 100 17 0.195107
5 5 100 17 0.227329
6 5 100 17 0.109978
7 5 100 17 0.0499605
8 5 100 17 0.038976
9 5 100 17 0.0323795
10 5 100 17 0.0205309
11 5 100 17 0.0162508
12 5 100 17 0.015857
13 5 100 17 0.00344657
14 5 100 17 0.0122781
15 5 100 17 0.00651978
16 5 100 17 0.00341845
17 5 100 17 2.26683e-05
1 6 100 17 0.0167991
2 6 100 17 0.0434735
3 6 100 17 0.0780554
4 6 100 17 0.127106
5 6 100 17 0.192169
6 6 100 17 0.200682
7 6 100 17 0.0984088
8 6 100 17 0.0554136
9 6 100 17 0.0468186
10 6 100 17 0.0275211
11 6 100 17 0.0177829
12 6 100 17 0.0200292
13 6 100 17 0.0290752
14 6 100 17 0.0181326
15 6 100 17 0.0100131
16 6 100 17 0.0184068
17 6 100 17 0.000113078
1 7 100 17 0.0104481
2 7 100 17 0.014469
3 7 100 17 0.048894
4 7 100 17 0.102677
5 7 100 17 0.143807
6 7 100 17 0.198082
7 7 100 17 0.188875
8 7 100 17 0.0944105
9 7 100 17 0.067641
10 7 100 17 0.0442942
11 7 100 17 0.0301812
12 7 100 17 0.0134972
13 7 100 17 0.00861744
14 7 100 17 0.0157228
15 7 100 17 0.00606115
16 7 100 17 0.0119918
17 7 100 17 0.000329376
1 8 100 17 0.00612183
2 8 100 17 0.00882464
3 8 100 17 0.0286761
4 8 100 17 0.0604676
5 8 100 17 0.09841
6 8 100 17 0.138909
7 8 100 17 0.204661
8 8 100 17 0.160538
9 8 100 17 0.0984524
10 8 100 17 0.0521295
11 8 100 17 0.0407438
12 8 100 17 0.029167
13 8 100 17 0.0261855
14 8 100 17 0.011034
15 8 100 17 0.0106215
16 8 100 17 0.0202411
17 8 100 17 0.00481705
1 9 100 17 0.0121299
2 9 100 17 0.0225015
3 9 100 17 0.0191566
4 9 100 17 0.0473304
5 9 100 17 0.0634409
6 9 100 17 0.116514
7 9 100 17 0.119739
8 9 100 17 0.170829
9 9 100 17 0.13208
10 9 100 17 0.0988824
11 9 100 17 0.0585698
12 9 100 17 0.0396547
13 9 100 17 0.0276628
14 9 100 17 0.0226122
15 9 100 17 0.0256029
16 9 100 17 0.0190409
17 9 100 17 0.0042529
1 10 100 17 0.00789681
2 10 100 17 0.00906522
3 10 100 17 0.0113627
4 10 100 17 0.0164253
5 10 100 17 0.0394015
6 10 100 17 0.0664403
7 10 100 17 0.106041
8 10 100 17 0.131141
9 10 100 17 0.162667
10 10 100 17 0.142062
11 10 100 17 0.097118
12 10 100 17 0.0683003
13 10 100 17 0.0419684
14 10 100 17 0.035473
15 10 100 17 0.0287364
16 10 100 17 0.0187173
17 10 100 17 0.0171831
1 11 100 17 0.0115526
2 11 100 17 0.0162209
3 11 100 17 0.00911717
4 11 100 17 0.0109913
5 11 100 17 0.0362027
6 11 100 17 0.0470284
7 11 100 17 0.0625042
8 11 100 17 0.0906395
9 11 100 17 0.133618
10 11 100 17 0.16942
11 11 100 17 0.124646
12 11 100 17 0.0771681
13 11 100 17 0.0676506
14 11 100 17 0.0476026
15 11 100 17 0.0470669
16 11 100 17 0.0400838
17 11 100 17 0.00848788
1 12 100 17 0.00816264
2 12 100 17 0.0134571
3 12 100 17 0.00176941
4 12 100 17 0.0106575
5 12 100 17 0.0151827
6 12 100 17 0.0415407
7 12 100 17 0.051053
8 12 100 17 0.0841034
9 12 100 17 0.108621
10 12 100 17 0.118042
11 12 100 17 0.157828
12 12 100 17 0.127766
13 12 100 17 0.0964802
14 12 100 17 0.0508079
15 12 100 17 0.0432024
16 12 100 17 0.0522197
17 12 100 17 0.0191058
1 13 100 17 0.0105488
2 13 100 17 0.00671887
3 13 100 17 0.0129785
4 13 100 17 0.00680335
5 13 100 17 0.00852573
6 13 100 17 0.0216579
7 13 100 17 0.0312632
8 13 100 17 0.061283
9 13 100 17 0.0867313
10 13 100 17 0.0844178
11 13 100 17 0.11738
12 13 100 17 0.147893
13 13 100 17 0.12524
14 13 100 17 0.12558
15 13 100 17 0.0606189
16 13 100 17 0.0690037
17 13 100 17 0.0233562
1 14 100 17 0.00218508
2 14 100 17 0.00773564
3 14 100 17 0.0207921
4 14 100 17 0.0170177
5 14 100 17 0.0176382
6 14 100 17 0.0120579
7 14 100 17 0.0341092
8 14 100 17 0.0559899
9 14 100 17 0.054458
10 14 100 17 0.0811123
11 14 100 17 0.104405
12 14 100 17 0.115748
13 14 100 17 0.136932
14 14 100 17 0.0937376
15 14 100 17 0.0858904
16 14 100 17 0.098614
17 14 100 17 0.0615775
1 15 100 17 0.0115358
2 15 100 17 0.00810281
3 15 100 17 0.0142245
4 15 100 17 0.0101055
5 15 100 17 0.00408438
6 15 100 17 0.0167178
7 15 100 17 0.0177042
8 15 100 17 0.0284257
9 15 100 17 0.0301862
10 15 100 17 0.056774
11 15 100 17 0.0664246
12 15 100 17 0.104993
13 15 100 17 0.139178
14 15 100 17 0.143933
15 15 100 17 0.130793
16 15 100 17 0.128956
17 15 100 17 0.0878618
1 16 100 17 0.0039249
2 16 100 17 0.00641677
3 16 100 17 0.0107007
4 16 100 17 0.0115029
5 16 100 17 0.00647087
6 16 100 17 0.0138122
7 16 100 17 0.0125171
8 16 100 17 0.029424
9 16 100 17 0.046675
10 16 100 17 0.0568256
11 16 100 17 0.0801489
12 16 100 17 0.0565333
13 16 100 17 0.0960703
14 16 100 17 0.140127
15 16 100 17 0.142814
16 16 100 17 0.157233
17 16 100 17 0.128804
1 17 100 17 0.00418198
2 17 100 17 0.00423653
3 17 100 17 0.00489419
4 17 100 17 0.0120567
5 17 100 17 0.00976595
6 17 100 17 0.0113285
7 17 100 17 0.0118457
8 17 100 17 0.0143247
9 17 100 17 0.033215
10 17 100 17 0.0388054
11 17 100 17 0.0570363
12 17 100 17 0.0806766
13 17 100 17 0.109168
14 17 100 17 0.123042
15 17 100 17 0.120299
16 17 100 17 0.19022
17 17 100 17 0.174903
1 18 100 17 0.00539921
2 18 100 17 0.00525389
3 18 100 17 0.00263518
4 18 100 17 0.00717172
5 18 100 17 0.00940876
6 18 100 17 0.0106044
7 18 100 17 0.00593411
8 18 100 17 0.0191672
9 18 100 17 0.0240028
10 18 100 17 0.0280316
11 18 100 17 0.0884642
12 18 100 17 0.0560295
13 18 100 17 0.119916
14 18 100 17 0.0990348
15 18 100 17 0.127746
16 18 100 17 0.162451
17 18 100 17 0.228749
1 19 100 17 0.00732894
2 19 100 17 0.00831356
3 19 100 17 0.00902425
4 19 100 17 0.00535687
5 19 100 17 0.0143701
6 19 100 17 0.0079364
7 19 100 17 0.00980923
8 19 100 17 0.0140542
9 19 100 17 0.00460371
10 19 100 17 0.0366002
11 19 100 17 0.0321681
12 19 100 17 0.0838597
13 19 100 17 0.0815337
14 19 100 17 0.134408
15 19 100 17 0.108812
16 19 100 17 0.185121
17 19 100 17 0.2567
1 20 100 17 0.0278382
2 20 100 17 0.0133241
3 20 100 17 0.0151421
4 20 100 17 0.0108482
5 20 100 17 0.0166617
6 20 100 17 0.00621999
7 20 100 17 0.0198589
8 20 100 17 0.0144279
9 20 100 17 0.00995358
10 20 100 17 0.013235
11 20 100 17 0.0417719
12 20 100 17 0.0549661
13 20 100 17 0.0658426
14 20 100 17 0.120878
15 20 100 17 0.137254
16 20 100 17 0.199435
17 20 100 17 0.232343
1 21 100 17 0.0137862
2 21 100 17 0.0222972
3 21 100 17 0.0159036
4 21 100 17 0.0097136
5 21 100 17 0.00451627
6 21 100 17 0.00560802
7 21 100 17 0.0180193
8 21 100 17 0.0143866
9 21 100 17 0.0308951
10 21 100 17 0.0381254
11 21 100 17 0.0325841
12 21 100 17 0.0311252
13 21 100 17 0.0574039
14 21 100 17 0.0845237
15 21 100 17 0.144308
16 21 100 17 0.222202
17 21 100 17 0.254602
1 22 100 17 0.0133544
2 22 100 17 0.000703242
3 22 100 17 0.0182331
4 22 100 17 0.0178846
5 22 100 17 0.0171993
6 22 100 17 0.00672178
7 22 100 17 0.0268601
8 22 100 17 0.013016
9 22 100 17 0.0351335
10 22 100 17 0.0216153
11 22 100 17 0.0177679
12 22 100 17 0.0309371
13 22 100 17 0.0432322
14 22 100 17 0.11379
15 22 100 17 0.110177
16 22 100 17 0.208568
17 22 100 17 0.304807
1 23 100 17 0.0274096
2 23 100 17 4.05153e-05
3 23 100 17 0.0154131
4 23 100 17 0.0126705
5 23 100 17 0.000420854
6 23 100 17 0.0120817
7 23 100 17 0.0429392
8 23 100 17 0.000100808
9 23 100 17 0.0227424
10 23 100 17 0.0222809
11 23 100 17 0.0425309
12 23 100 17 0.0512073
13 23 100 17 0.0686497
14 23 100 17 0.0667997
15 23 100 17 0.101037
16 23 100 17 0.143563
17 23 100 17 0.370112
1 24 100 17 0.0124164
2 24 100 17 0.0131877
3 24 100 17 0.0171729
4 24 100 17 0.0119808
5 24 100 17 0.00133655
6 24 100 17 0.00141064
7 24 100 17 6.17053e-05
8 24 100 17 0.00994801
9 24 100 17 0.0234972
10 24 100 17 0.000127266
11 24 100 17 0.025324
12 24 100 17 0.0568941
13 24 100 17 0.0589295
14 24 100 17 0.0433599
15 24 100 17 0.0751319
16 24 100 17 0.208078
17 24 100 17 0.441143
1 25 100 17 2.99728e-05
2 25 100 17 0.00269315
3 25 100 17 4.3055e-05
4 25 100 17 9.2132e-06
5 25 100 17 0.000173009
6 25 100 17 9.84921e-05
7 25 100 17 0.000449597
8 25 100 17 0.004265
9 25 100 17 0.0366662
10 25 100 17 0.0455738
11 25 100 17 0.000181372
12 25 100 17 0.00919053
13 25 100 17 0.0390461
14 25 100 17 0.080344
15 25 100 17 0.146509
16 25 100 17 0.134305
17 25 100 17 0.500423
1 26 100 17 0.00387274
2 26 100 17 3.2443e-05
3 26 100 17 0.000547859
4 26 100 17 0.000675323
5 26 100 17 0.0175938
6 26 100 17 0.000732698
7 26 100 17 0.033577
8 26 100 17 0.0581605
9 26 100 17 0.030043
10 26 100 17 0.0273197
11 26 100 17 0.028971
12 26 100 17 0.00311535
13 26 100 17 0.0521088
14 26 100 17 0.114339
15 26 100 17 0.100607
16 26 100 17 0.225678
17 26 100 17 0.302625
1 27 100 17 0.0347639
2 27 100 17 0.0682501
3 27 100 17 0.0685918
4 27 100 17 0.00337775
5 27 100 17 0.0205974
6 27 100 17 0.0682757
7 27 100 17 0.0707256
8 27 100 17 0.00014437
9 27 100 17 0.0637662
10 27 100 17 0.0345725
11 27 100 17 0.000624627
12 27 100 17 0.0339557
13 27 100 17 0.0345557
14 27 100 17 0.00185856
15 27 100 17 0.0365261
16 27 100 17 0.136791
17 27 100 17 0.322623
1 28 100 17 2.67572e-07
2 28 100 17 7.81022e-07
4 28 100 17 3.1474e-06
5 28 100 17 0.000113212
6 28 100 17 4.82525e-05
7 28 100 17 2.34891e-05
8 28 100 17 0.0563559
9 28 100 17 0.0557207
10 28 100 17 1.33178e-05
11 28 100 17 6.42999e-05
12 28 100 17 0.00781769
13 28 100 17 3.4494e-06
14 28 100 17 0.0559013
15 28 100 17 0.000119481
16 28 100 17 0.334512
17 28 100 17 0.489303
1 29 100 17 0.000120523
2 29 100 17 4.19748e-06
3 29 100 17 4.63364e-07
4 29 100 17 0.000100485
5 29 100 17 3.571e-05
6 29 100 17 7.1495e-05
7 29 100 17 0.0360914
8 29 100 17 0.000236182
9 29 100 17 3.8769e-06
10 29 100 17 0.0914172
11 29 100 17 2.15987e-06
12 29 100 17 1.32453e-05
13 29 100 17 7.35038e-06
14 29 100 17 1.23871e-06
15 29 100 17 0.0647295
16 29 100 17 1.43411e-07
17 29 100 17 0.807165
1 30 100 17 0.000278266
4 30 100 17 1.10513e-06
5 30 100 17 5.03285e-05
6 30 100 17 3.89234e-05
7 30 100 17 0.0479843
8 30 100 17 1.94268e-06
9 30 100 17 2.79908e-05
10 30 100 17 0.00124547
11 30 100 17 3.9801e-05
12 30 100 17 0.00132902
13 30 100 17 4.22194e-05
14 30 100 17 1.22753e-06
15 30 100 17 2.93936e-05
16 30 100 17 0.808651
17 30 100 17 0.140279
4 31 100 17 6.17881e-06
11 31 100 17 7.53161e-06
15 31 100 17 5.882e-06
17 31 100 17 0.99998
1 0 100 18 0.0346627
2 0 100 18 0.0572923
3 0 100 18 0.0528892
4 0 100 18 0.0664385
5 0 100 18 0.051402
6 0 100 18 0.0549132
7 0 100 18 0.0680928
8 0 100 18 0.0648907
9 0 100 18 0.0662792
10 0 100 18 0.0672069
11 0 100 18 0.0639502
12 0 100 18 0.0670704
13 0 100 18 0.0663886
14 0 100 18 0.0648861
15 0 100 18 0.0628951
16 0 100 18 0.0756028
17 0 100 18 0.00103651
18 0 100 18 0.0141029
1 1 100 18 0.767208
2 1 100 18 0.125962
3 1 100 18 0.0239528
4 1 100 18 0.0204867
5 1 100 18 0.0184678
6 1 100 18 0.00489806
7 1 100 18 0.0025705
8 1 100 18 0.00235526
9 1 100 18 0.00469627
10 1 100 18 0.00972355
11 1 100 18 1.00422e-05
12 1 100 18 0.00243605
13 1 100 18 0.00266293
14 1 100 18 0.00470178
15 1 100 18 0.00284069
16 1 100 18 0.00234133
17 1 100 18 0.00467998
18 1 100 18 7.17004e-06
1 2 100 18 0.268857
2 2 100 18 0.388051
3 2 100 18 0.154827
4 2 100 18 0.048332
5 2 100 18 0.0384689
6 2 100 18 0.0180958
7 2 100 18 0.0119545
8 2 100 18 0.012684
9 2 100 18 0.0065392
10 2 100 18 0.0018394
11 2 100 18 0.00542616
12 2 100 18 0.00544984
13 2 100 18 0.00559656
14 2 100 18 0.00715479
15 2 100 18 0.0103931
16 2 100 18 0.00723186
17 2 100 18 0.0090973
18 2 100 18 1.0049e-06
1 3 100 18 0.0857772
2 3 100 18 0.247941
3 3 100 18 0.327729
4 3 100 18 0.124087
5 3 100 18 0.0596207
6 3 100 18 0.0333353
7 3 100 18 0.0142396
8 3 100 18 0.0189727
9 3 100 18 0.0164675
10 3 100 18 0.0100394
11 3 100 18 0.00620417
12 3 100 18 0.00614371
13 3 100 18 0.0164376
14 3 100 18 0.0102967
15 3 100 18 0.00824436
16 3 100 18 0.0020968
17 3 100 18 0.0123624
18 3 100 18 4.43423e-06
1 4 100 18 0.0536497
2 4 100 18 0.0805319
3 4 100 18 0.231029
4 4 100 18 0.24657
5 4 100 18 0.122176
6 4 100 18 0.0648136
7 4 100 18 0.0356011
8 4 100 18 0.0374068
9 4 100 18 0.0213706
10 4 100 18 0.0207918
11 4 100 18 0.014813
12 4 100 18 0.011339
13 4 100 18 0.012912
14 4 100 18 0.00933765
15 4 100 18 0.0130689
16 4 100 18 0.0133116
17 4 100 18 0.0112756
18 4 100 18 1.20217e-06
1 5 100 18 0.0217174
2 5 100 18 0.0789205
3 5 100 18 0.130086
4 5 100 18 0.201548
5 5 100 18 0.222084
6 5 100 18 0.115597
7 5 100 18 0.0607945
8 5 100 18 0.0323292
9 5 100 18 0.029987
10 5 100 18 0.020683
11 5 100 18 0.0206678
12 5 100 18 0.0132059
13 5 100 18 0.0155527
14 5 100 18 0.00757199
15 5 100 18 0.00561929
16 5 100 18 0.00773846
17 5 100 18 0.0130738
18 5 100 18 0.00282369
1 6 100 18 0.0186986
2 6 100 18 0.0330019
3 6 100 18 0.0738876
4 6 100 18 0.123147
5 6 100 18 0.20016
6 6 100 18 0.195442
7 6 100 18 0.11101
8 6 100 18 0.0589825
9 6 100 18 0.0425422
10 6 100 18 0.0127568
11 6 100 18 0.0166883
12 6 100 18 0.0155826
13 6 100 18 0.0215634
14 6 100 18 0.0152111
15 6 100 18 0.0218452
16 6 100 18 0.0193242
17 6 100 18 0.0185957
18 6 100 18 0.00156096
1 7 100 18 0.0113566
2 7 100 18 0.0372307
3 7 100 18 0.0323758
4 7 100 18 0.105574
5 7 100 18 0.112224
6 7 100 18 0.198962
7 7 100 18 0.184471
8 7 100 18 0.116101
9 7 100 18 0.0655342
10 7 100 18 0.0398739
11 7 100 18 0.0274333
12 7 100 18 0.0244721
13 7 100 18 0.00674581
14 7 100 18 0.0116962
15 7 100 18 0.0077861
16 7 100 18 0.00775179
17 7 100 18 0.00968308
18 7 100 18 0.000728023
1 8 100 18 0.0164536
2 8 100 18 0.0187902
3 8 100 18 0.036544
4 8 100 18 0.029008
5 8 100 18 0.114003
6 8 100 18 0.107518
7 8 100 18 0.18413
8 8 100 18 0.192291
9 8 100 18 0.100715
10 8 100 18 0.0571558
11 8 100 18 0.0367364
12 8 100 18 0.0340494
13 8 100 18 0.019362
14 8 100 18 0.00727893
15 8 100 18 0.0140218
16 8 100 18 0.01241
17 8 100 18 0.0140315
18 8 100 18 0.00550201
1 9 100 18 0.00912115
2 9 100 18 0.0267767
3 9 100 18 0.00601195
4 9 100 18 0.0611403
5 9 100 18 0.0662953
6 9 100 18 0.109958
7 9 100 18 0.122184
8 9 100 18 0.145916
9 9 100 18 0.154388
10 9 100 18 0.0885701
11 9 100 18 0.0636303
12 9 100 18 0.0305263
13 9 100 18 0.0294604
14 9 100 18 0.0315759
15 9 100 18 0.0178893
16 9 100 18 0.018278
17 9 100 18 0.0150014
18 9 100 18 0.00327646
1 10 100 18 0.00395481
2 10 100 18 0.0115224
3 10 100 18 0.0189944
4 10 100 18 0.0117863
5 10 100 18 0.0415007
6 10 100 18 0.0655608
7 10 100 18 0.105623
8 10 100 18 0.125805
9 10 100 18 0.15031
10 10 100 18 0.16219
11 10 100 18 0.0922351
12 10 100 18 0.0761858
13 10 100 18 0.0390024
14 10 100 18 0.0327869
15 10 100 18 0.0295666
16 10 100 18 0.0136215
17 10 100 18 0.0135599
18 10 100 18 0.0057943
1 11 100 18 0.0115117
2 11 100 18 0.00748581
3 11 100 18 0.0266863
4 11 100 18 0.00890036
5 11 100 18 0.018559
6 11 100 18 0.0522651
7 11 100 18 0.0726732
8 11 100 18 0.0731832
9 11 100 18 0.122026
10 11 100 18 0.140389
11 11 100 18 0.132424
12 11 100 18 0.103993
13 11 100 18 0.0791681
14 11 100 18 0.0609495
15 11 100 18 0.0310283
16 11 100 18 0.0274419
17 11 100 18 0.0255413
18 11 100 18 0.00577397
1 12 100 18 0.00408261
2 12 100 18 0.0199106
3 12 100 18 0.00999407
4 12 100 18 0.0216409
5 12 100 18 0.0204819
6 12 100 18 0.0255724
7 12 100 18 0.0428088
8 12 100 18 0.0834467
9 12 100 18 0.0882914
10 12 100 18 0.122557
11 12 100 18 0.142337
12 12 100 18 0.122141
13 12 100 18 0.0921628
14 12 100 18 0.0741061
15 12 100 18 0.0515228
16 12 100 18 0.0255536
17 12 100 18 0.0376836
18 12 100 18 0.0157059
1 13 100 18 0.00590274
2 13 100 18 0.00619447
3 13 100 18 0.0102306
4 13 100 18 0.0140225
5 13 100 18 0.0165265
6 13 100 18 0.0269511
7 13 100 18 0.0259168
8 13 100 18 0.0554784
9 13 100 18 0.0933553
10 13 100 18 0.0943994
11 13 100 18 0.145774
12 13 100 18 0.132849
13 13 100 18 0.111759
14 13 100 18 0.0766713
15 13 100 18 0.0597532
16 13 100 18 0.0595656
17 13 100 18 0.0512341
18 13 100 18 0.0134161
1 14 100 18 0.00805103
2 14 100 18 0.0103915
3 14 100 18 0.00779335
4 14 100 18 0.00594782
5 14 100 18 0.0169506
6 14 100 18 0.0217927
7 14 100 18 0.0216396
8 14 100 18 0.0357428
9 14 100 18 0.054187
10 14 100 18 0.0865611
11 14 100 18 0.0875461
12 14 100 18 0.126681
13 14 100 18 0.134298
14 14 100 18 0.133425
15 14 100 18 0.082571
16 14 100 18 0.0668356
17 14 100 18 0.0630658
18 14 100 18 0.03652
1 15 100 18 0.0075833
2 15 100 18 0.0133614
3 15 100 18 0.00979994
4 15 100 18 0.00768693
5 15 100 18 0.00788038
6 15 100 18 0.0171654
7 15 100 18 0.0249518
8 15 100 18 0.031114
9 15 100 18 0.0388989
10 15 100 18 0.0514741
11 15 100 18 0.0848332
12 15 100 18 0.0899079
13 15 100 18 0.120336
14 15 100 18 0.128527
15 15 100 18 0.142146
16 15 100 18 0.0760654
17 15 100 18 0.0902531
18 15 100 18 0.058016
1 16 100 18 0.00424932
2 16 100 18 0.00404971
3 16 100 18 0.00414462
4 16 100 18 0.011969
5 16 100 18 0.00971028
6 16 100 18 0.0149983
7 16 100 18 0.0142605
8 16 100 18 0.0180426
9 16 100 18 0.0309847
10 16 100 18 0.0534012
11 16 100 18 0.0685252
12 16 100 18 0.0821719
13 16 100 18 0.0992674
14 16 100 18 0.12268
15 16 100 18 0.133392
16 16 100 18 0.128441
17 16 100 18 0.123297
18 16 100 18 0.0764157
1 17 100 18 0.0268955
2 17 100 18 0.00983855
3 17 100 18 0.0118341
4 17 100 18 0.00816853
5 17 100 18 0.00810395
6 17 100 18 0.0121451
7 17 100 18 0.0173151
8 17 100 18 0.0216948
9 17 100 18 0.0278121
10 17 100 18 0.0481749
11 17 100 18 0.0541292
12 17 100 18 0.0776292
13 17 100 18 0.0976238
14 17 100 18 0.103322
15 17 100 18 0.093327
16 17 100 18 0.129599
17 17 100 18 0.147546
18 17 100 18 0.104842
1 18 100 18 0.00334074
2 18 100 18 0.00806916
3 18 100 18 0.00795001
4 18 100 18 0.0106432
5 18 100 18 0.00767629
6 18 100 18 0.00507631
7 18 100 18 0.00820589
8 18 100 18 0.0184815
9 18 100 18 0.0244502
10 18 100 18 0.0257643
11 18 100 18 0.0428425
12 18 100 18 0.0487982
13 18 100 18 0.0804154
14 18 100 18 0.102643
15 18 100 18 0.123304
16 18 100 18 0.12717
17 18 100 18 0.180877
18 18 100 18 0.174293
1 19 100 18 0.00550676
2 19 100 18 0.00550207
3 19 100 18 0.00829193
4 19 100 18 2.439e-06
5 19 100 18 0.0109837
6 19 100 18 0.00795371
7 19 100 18 0.00549188
8 19 100 18 0.0143365
9 19 100 18 0.00833523
10 19 100 18 0.0276689
11 19 100 18 0.0307089
12 19 100 18 0.071265
13 19 100 18 0.0776191
14 19 100 18 0.0852209
15 19 100 18 0.121767
16 19 100 18 0.13737
17 19 100 18 0.166561
18 19 100 18 0.215415
1 20 100 18 0.0136649
2 20 100 18 0.011779
3 20 100 18 0.0204741
4 20 100 18 0.0149389
5 20 100 18 0.0110809
6 20 100 18 0.0189428
7 20 100 18 0.00858914
8 20 100 18 0.00240161
9 20 100 18 0.0239777
10 20 100 18 0.0214402
11 20 100 18 0.0262261
12 20 100 18 0.0404398
13 20 100 18 0.0475648
14 20 100 18 0.0654674
15 20 100 18 0.128387
16 20 100 18 0.135499
17 20 100 18 0.213922
18 20 100 18 0.195205
1 21 100 18 0.00467326
2 21 100 18 0.0125685
3 21 100 18 3.28619e-05
4 21 100 18 0.00834355
5 21 100 18 0.00569469
6 21 100 18 3.94489e-05
7 21 100 18 0.00867563
8 21 100 18 0.0270605
9 21 100 18 0.00388639
10 21 100 18 0.020146
11 21 100 18 0.0242344
12 21 100 18 0.0259754
13 21 100 18 0.0573779
14 21 100 18 0.0767779
15 21 100 18 0.0761351
16 21 100 18 0.125415
17 21 100 18 0.185274
18 21 100 18 0.33769
1 22 100 18 0.0205028
2 22 100 18 0.00469573
3 22 100 18 0.0142002
4 22 100 18 0.0053951
5 22 100 18 0.0253706
6 22 100 18 0.0139917
7 22 100 18 0.000825112
8 22 100 18 0.00913384
9 22 100 18 0.0256161
10 22 100 18 0.0246658
11 22 100 18 0.0337124
12 22 100 18 0.0262466
13 22 100 18 0.0484383
14 22 100 18 0.0716066
15 22 100 18 0.0882153
16 22 100 18 0.108246
17 22 100 18 0.188354
18 22 100 18 0.290783
1 23 100 18 0.0159748
2 23 100 18 0.01596
3 23 100 18 0.0258769
4 23 100 18 0.0287283
5 23 100 18 0.00711215
6 23 100 18 0.0234567
7 23 100 18 0.00775861
8 23 100 18 0.000653434
9 23 100 18 0.00712345
10 23 100 18 0.0333313
11 23 100 18 0.0273679
12 23 100 18 0.0218307
13 23 100 18 0.0438825
14 23 100 18 0.0424409
15 23 100 18 0.112025
16 23 100 18 0.0902692
17 23 100 18 0.181224
18 23 100 18 0.314984
1 24 100 18 0.00661094
2 24 100 18 0.00324334
3 24 100 18 0.00983353
4 24 100 18 0.00986782
5 24 100 18 0.0343501
6 24 100 18 3.49518e-05
7 24 100 18 0.0300177
8 24 100 18 0.00774567
9 24 100 18 0.0301763
10 24 100 18 0.0115349
11 24 100 18 0.0491273
12 24 100 18 0.0463072
13 24 100 18 0.0361488
14 24 100 18 0.0677836
15 24 100 18 0.0540831
16 24 100 18 0.0532615
17 24 100 18 0.1904
18 24 100 18 0.359473
1 25 100 18 0.0142443
2 25 100 18 0.000110581
3 25 100 18 0.016028
4 25 100 18 0.0382784
5 25 100 18 0.000275559
6 25 100 18 0.0305029
7 25 100 18 0.013586
8 25 100 18 0.0353212
9 25 100 18 5.21544e-05
10 25 100 18 0.0151132
11 25 100 18 0.013885
12 25 100 18 0.0135775
13 25 100 18 0.0209177
14 25 100 18 0.0547883
15 25 100 18 0.0712428
16 25 100 18 0.0519917
17 25 100 18 0.164371
18 25 100 18 0.445713
1 26 100 18 0.0218465
2 26 100 18 7.20163e-05
3 26 100 18 1.38811e-05
4 26 100 18 4.32375e-06
5 26 100 18 6.37349e-05
6 26 100 18 0.00018879
7 26 100 18 0.0215621
8 26 100 18 0.000162458
9 26 100 18 1.96e-05
10 26 100 18 0.0042758
11 26 100 18 4.10478e-05
12 26 100 18 0.0406455
13 26 100 18 0.0240525
14 26 100 18 0.0235231
15 26 100 18 0.106036
16 26 100 18 0.203978
17 26 100 18 0.170352
18 26 100 18 0.383163
1 27 100 18 1.03378e-05
2 27 100 18 3.18096e-05
3 27 100 18 2.70441e-07
4 27 100 18 0.00170863
5 27 100 18 1.83751e-06
6 27 100 18 0.023515
7 27 100 18 0.0462343
8 27 100 18 0.0177062
9 27 100 18 2.72623e-06
10 27 100 18 0.0241804
11 27 100 18 0.0713258
12 27 100 18 0.0511803
13 27 100 18 0.0236214
14 27 100 18 0.0823809
15 27 100 18 0.0849354
16 27 100 18 0.122854
17 27 100 18 0.241432
18 27 100 18 0.208879
1 28 100 18 5.90038e-05
2 28 100 18 1.27833e-05
3 28 100 18 3.192e-06
4 28 100 18 0.000449596
5 28 100 18 5.93727e-05
6 28 100 18 0.00371448
7 28 100 18 0.000212498
8 28 100 18 0.000347563
9 28 100 18 0.000113091
10 28 100 18 0.00368572
11 28 100 18 0.000342719
12 28 100 18 2.82309e-05
13 28 100 18 0.000120202
14 28 100 18 0.0155011
15 28 100 18 0.0680716
16 28 100 18 0.139647
17 28 100 18 0.26904
18 28 100 18 0.498592
1 29 100 18 1.14328e-05
2 29 100 18 3.22166e-05
3 29 100 18 1.48719e-06
5 29 100 18 0.0441289
6 29 100 18 0.0450426
7 29 100 18 0.0452401
9 29 100 18 3.40564e-05
10 29 100 18 0.0477868
11 29 100 18 0.0458777
12 29 100 18 0.0444913
13 29 100 18 4.26139e-06
14 29 100 18 6.63695e-06
15 29 100 18 6.03135e-06
16 29 100 18 0.04974
17 29 100 18 0.176736
18 29 100 18 0.500861
1 30 100 18 0.000654609
2 30 100 18 0.00063038
3 30 100 18 1.65354e-06
4 30 100 18 0.000506228
5 30 100 18 5.10391e-07
6 30 100 18 6.39738e-05
7 30 100 18 0.0001387
8 30 100 18 3.66821e-06
9 30 100 18 0.000599187
10 30 100 18 6.19512e-06
11 30 100 18 4.84008e-05
12 30 100 18 2.00622e-07
13 30 100 18 0.000173353
14 30 100 18 0.0400793
15 30 100 18 9.75663e-06
16 30 100 18 2.88139e-06
17 30 100 18 0.168212
18 30 100 18 0.788869
2 31 100 18 0.000485475
3 31 100 18 3.94866e-07
4 31 100 18 4.73849e-05
6 31 100 18 6.7608e-07
8 31 100 18 2.32783e-05
12 31 100 18 7.78423e-06
13 31 100 18 2.49058e-05
14 31 100 18 0.226329
15 31 100 18 0.66563
16 31 100 18 5.47509e-07
17 31 100 18 9.86317e-06
18 31 100 18 0.107441
4 32 100 18 9.56035e-05
7 32 100 18 0.557955
9 32 100 18 2.14869e-06
13 32 100 18 3.42496e-05
14 32 100 18 1.02182e-06
17 32 100 18 6.15494e-06
18 32 100 18 0.441906
1 33 100 18 4.96533e-06
2 33 100 18 2.13078e-06
7 33 100 18 7.39285e-05
9 33 100 18 5.81423e-05
13 33 100 18 1.16694e-05
16 33 100 18 0.00108349
18 33 100 18 0.998766
1 0 100 19 0.0301435
2 0 100 19 0.0515094
3 0 100 19 0.0494981
4 0 100 19 0.0589725
5 0 100 19 0.0577333
6 0 100 19 0.055604
7 0 100 19 0.0613611
8 0 100 19 0.064698
9 0 100 19 0.0517189
10 0 100 19 0.0659677
11 0 100 19 0.06963
12 0 100 19 0.0595786
13 0 100 19 0.0629968
14 0 100 19 0.0601716
15 0 100 19 0.0566738
16 0 100 19 0.0588394
17 0 100 19 0.0703913
18 0 100 19 0.000514962
19 0 100 19 0.013997
1 1 100 19 0.785197
2 1 100 19 0.112858
3 1 100 19 0.0232156
4 1 100 19 0.0190642
5 1 100 19 0.0193113
6 1 100 19 0.00827098
7 1 100 19 1.90649e-05
8 1 100 19 0.00559098
9 1 100 19 0.00281641
10 1 100 19 0.00280171
11 1 100 19 0.00910113
12 1 100 19 0.00300167
13 1 100 19 0.00310879
14 1 100 19 0.0028146
15 1 100 19 7.43147e-06
16 1 100 19 0.00279501
17 1 100 19 2.18798e-05
18 1 100 19 1.04412e-06
19 1 100 19 2.79393e-06
1 2 100 19 0.286091
2 2 100 19 0.414286
3 2 100 19 0.126181
4 2 100 19 0.0388456
5 2 100 19 0.0329129
6 2 100 19 0.0163515
7 2 100 19 0.00907922
8 2 100 19 0.00531572
9 2 100 19 0.0105938
10 2 100 19 0.00571808
11 2 100 19 0.0107141
12 2 100 19 0.0107847
13 2 100 19 0.00391465
14 2 100 19 0.00742336
15 2 100 19 0.00724512
16 2 100 19 0.00729115
17 2 100 19 0.00181915
18 2 100 19 0.00542859
19 2 100 19 4.02406e-06
1 3 100 19 0.0751389
2 3 100 19 0.224359
3 3 100 19 0.367304
4 3 100 19 0.124624
5 3 100 19 0.0491872
6 3 100 19 0.0267627
7 3 100 19 0.016501
8 3 100 19 0.0152163
9 3 100 19 0.0161371
10 3 100 19 0.00953342
11 3 100 19 0.0086138
12 3 100 19 0.004405
13 3 100 19 0.010372
14 3 100 19 0.00814352
15 3 100 19 0.0142595
16 3 100 19 0.0142204
17 3 100 19 0.00415306
18 3 100 19 0.0110359
19 3 100 19 3.42628e-05
1 4 100 19 0.0546528
2 4 100 19 0.117083
3 4 100 19 0.212395
4 4 100 19 0.274541
5 4 100 19 0.126168
6 4 100 19 0.0633288
7 4 100 19 0.03967
8 4 100 19 0.017367
9 4 100 19 0.018791
10 4 100 19 0.00842141
11 4 100 19 0.012179
12 4 100 19 0.00892522
13 4 100 19 0.00420857
14 4 100 19 0.00718669
15 4 100 19 0.0122616
16 4 100 19 0.00829618
17 4 100 19 0.00824524
18 4 100 19 0.00625716
19 4 100 19 2.16377e-05
1 5 100 19 0.020855
2 5 100 19 0.0500538
3 5 100 19 0.128774
4 5 100 19 0.211078
5 5 100 19 0.237108
6 5 100 19 0.129573
7 5 100 19 0.0634235
8 5 100 19 0.0449643
9 5 100 19 0.0238186
10 5 100 19 0.0176892
11 5 100 19 0.00662509
12 5 100 19 0.00945724
13 5 100 19 0.0097429
14 5 100 19 0.00872224
15 5 100 19 0.00221016
16 5 100 19 0.00783695
17 5 100 19 0.0108996
18 5 100 19 0.0153126
19 5 100 19 0.00185559
1 6 100 19 0.0147403
2 6 100 19 0.0293269
3 6 100 19 0.06008
4 6 100 19 0.116566
5 6 100 19 0.192312
6 6 100 19 0.206582
7 6 100 19 0.118519
8 6 100 19 0.0547175
9 6 100 19 0.0351885
10 6 100 19 0.0294943
11 6 100 19 0.0301307
12 6 100 19 0.0159324
13 6 100 19 0.0119502
14 6 100 19 0.0228319
15 6 100 19 0.0239956
16 6 100 19 0.0121127
17 6 100 19 0.00991805
18 6 100 19 0.0137801
19 6 100 19 0.00182202
1 7 100 19 0.00799683
2 7 100 19 0.0201879
3 7 100 19 0.0576522
4 7 100 19 0.0777355
5 7 100 19 0.120987
6 7 100 19 0.151125
7 7 100 19 0.192426
8 7 100 19 0.0983588
9 7 100 19 0.0689413
10 7 100 19 0.0409642
11 7 100 19 0.0320521
12 7 100 19 0.0268613
13 7 100 19 0.0230975
14 7 100 19 0.0173422
15 7 100 19 0.0249628
16 7 100 19 0.0153538
17 7 100 19 0.0080271
18 7 100 19 0.0156287
19 7 100 19 0.000299729
1 8 100 19 0.0116809
2 8 100 19 0.0117331
3 8 100 19 0.0296671
4 8 100 19 0.0717144
5 8 100 19 0.0972499
6 8 100 19 0.144074
7 8 100 19 0.157149
8 8 100 19 0.180175
9 8 100 19 0.108595
10 8 100 19 0.0572978
11 8 100 19 0.0253102
12 8 100 19 0.0366806
13 8 100 19 0.0144174
14 8 100 19 0.0126429
15 8 100 19 0.00952033
16 8 100 19 0.015572
17 8 100 19 0.00651959
18 8 100 19 0.00974738
19 8 100 19 0.000253559
1 9 100 19 0.020981
2 9 100 19 0.0200187
3 9 100 19 0.0060704
4 9 100 19 0.0257169
5 9 100 19 0.0542421
6 9 100 19 0.0965589
7 9 100 19 0.150288
8 9 100 19 0.137795
9 9 100 19 0.170816
10 9 100 19 0.109636
11 9 100 19 0.0548003
12 9 100 19 0.0436368
13 9 100 19 0.0218794
14 9 100 19 0.020291
15 9 100 19 0.0175604
16 9 100 19 0.0150415
17 9 100 19 0.0146174
18 9 100 19 0.0171942
19 9 100 19 0.00285641
1 10 100 19 0.00977935
