-gritaban shouting 7.66552e-06
sabremos know 1.30729e-06
fijarla impression 1.68096e-05
fijarla supreme 1.63011e-05
fijarla wanted 1.48056e-05
relojes ship 1.18499e-05
descorrer went 7.20599e-05
brumas navigators 5.94535e-07
. between 9.83923e-10
hay 'll 8.48477e-08
me simply 1.16825e-08
encontrarse lie 4.30017e-05
encontrarse figure 5.12135e-06
rombo diamond 9.74954e-06
me havre 1.50024e-09
-así does 6.6623e-07
hacia locality 6.32307e-08
de thousand 9.56221e-10
las smoke 3.83752e-09
-buena good 7.54385e-05
destinarlo saved 0.000139894
destinarlo breathable 1.05056e-05
-es crushing 6.14145e-08
-es death 9.34906e-08
confundían each 1.39918e-05
silenciosamente studied 2.17051e-06
mostró refraction 8.30973e-08
a defend 1.45565e-09
con productively 3.3241e-10
-le nemo 5.67439e-07
yo suffer 2.36968e-09
de ten 2.18046e-09
íbamos going 7.88379e-06
llevado has 3.1409e-06
llevado before 1.24351e-06
allí answered 5.04118e-08
liberarse clear 2.41644e-05
con reasonably 1.16017e-09
aparición when 5.07449e-06
ascendíamos rising 7.49515e-05
al risks 1.00205e-09
sea siberia 2.87811e-08
sea along 5.35203e-07
sea either 1.32472e-06
durante enough 4.87948e-08
y air 2.12904e-09
-agárrese hold 6.34666e-05
esos granite 4.10937e-06
esos day 3.67662e-07
esos primordial 4.61134e-06
esos view 8.43167e-07
que dive 1.24225e-09
plantas usual 3.77333e-07
plantas its 2.78283e-06
plantas next 7.1516e-07
plantas eat 4.74729e-07
tardan 's 0.000150675
unos rock 5.32535e-08
orificio mountain 4.08818e-07
companeros companions 2.80669e-05
cierto served 7.18877e-08
verse subject 8.45998e-07
grande greater 1.84985e-07
destruida laid 1.85499e-05
lenguaje sign 1.1787e-06
tomaba english 6.14066e-05
tomaba down 8.287e-05
tomaba handed 9.83358e-05
tomaba being 0.136233
usted chain 3.71047e-09
kosciusko reincarnation 5.62199e-06
pensaría he 0.000285479
naufragado perished 8.0005e-05
geológicos closed 9.84536e-06
entre close 8.24472e-08
mediterráneo he 5.01051e-05
mediterráneo memories 8.59875e-07
próximas nile 3.28511e-06
encuentran exclusively 7.20795e-07
sin way 3.39336e-08
animal assault 3.7465e-08
unas floating 1.98617e-07
nombre word 8.32116e-08
pereció perished 1.55472e-05
griegos favor 3.56601e-05
griegos say 3.82186e-05
griegos find 2.61172e-05
demasiados fortifications 2.40103e-06
sobrepasó crossed 0.000518503
dado chance 3.46789e-07
digo landlocked 3.30591e-08
-ordenó he 0.000383598
estertores rattle 3.56546e-05
estertores monster 8.29963e-05
él quarters 3.03134e-09
razón had 4.64028e-06
quedan staying 1.2753e-06
almejas included 3.98451e-06
acometió fishing 2.54242e-05
. suddenly 6.2331e-10
más them 4.83185e-08
petrificada blood 5.72426e-06
llegará someday 4.43738e-07
mirándole while 0.000118238
mirándole good 4.73269e-05
mirándole stared 7.08685e-06
mirándole unexpected 3.09195e-06
al emotionless 2.75608e-09
estaba seemed 1.17308e-08
ellos memory 5.34634e-08
había memory 2.44998e-08
les lost 5.94456e-08
extraño happened 5.87094e-07
primeras upper 2.46947e-07
presentaba meters 6.52682e-07
presentaba had 2.54885e-05
su revolutions 9.34079e-10
no invisible 1.14027e-09
exclamé ah 4.16111e-06
y 2:40 2.08691e-10
unos papuans 3.26758e-08
unos just 1.60257e-06
unos 're 1.26401e-07
observé noticed 3.25526e-06
cazador our 1.43723e-05
son birds 1.94183e-08
objeto still 1.05259e-06
paraíso snakes 5.66971e-07
seguimos followed 6.15177e-06
todos vegetation 2.53894e-08
-gruñó put 2.56851e-05
; vain 3.04921e-09
canoa aside 3.40075e-07
-prosiguió , 0.00102969
-prosiguió whatever 4.46099e-06
rumbo straight 5.17489e-05
rumbo cut 2.04427e-06
algunos rubble 2.65228e-08
dudando d'urville 4.49979e-06
y d'urville 5.69646e-10
que nautilus 4.18676e-09
y fertile 4.20173e-08
sé lord 1.61502e-07
formaría form 2.73993e-05
pero animals 4.15852e-09
un arid 8.1105e-10
puso brought 8.91988e-08
como easy 3.45217e-08
como suits 3.43491e-08
-tan added 3.5799e-06
subía NULL 0.000137085
ser perch 1.96245e-08
ser common 3.26649e-08
ser example 1.97907e-08
silencio unbroken 2.35001e-08
ardor fire 5.1578e-06
fin 're 7.74858e-08
que note 1.39548e-09
¿ surface 4.1774e-09
ahí lay 1.68958e-07
pues ask 3.34299e-08
; events 2.24137e-09
ahogo n't 0.000540231
! complaining 4.59005e-09
campana chief 1.2149e-06
-¡protesto into 0.000287586
-¡protesto object 0.000182707
piel otter 8.38078e-08
velocidad generate 9.02902e-08
sustancia tested 4.3526e-08
propiedad words 2.48452e-06
me answered 9.5285e-09
me directions 1.03428e-08
me request 1.45492e-08
me shouted 8.39153e-09
nuestra hailing 4.92003e-08
nuestra us 4.41736e-05
nuestra answered 0.00616833
perdidos done 2.27333e-05
-le raced 5.60643e-08
luminoso light 2.45334e-06
-respondía- . 0.00414836
-respondía- he 0.000837122
si below 8.82433e-09
hacia making 2.96946e-08
al opened 5.30473e-09
-el same 2.02117e-05
alcanzarlas reach 4.18279e-05
" even 4.9727e-06
" NULL 0.000126079
vez heart 6.54456e-08
antes now 2.41979e-07
mucho sir 1.05072e-07
tenemos wait 9.11353e-08
será ever 3.56515e-08
sentada any 4.31985e-06
¿ soft 2.70454e-09
deseaba meant 2.89809e-07
preparé prepared 3.86004e-06
me difficulty 2.91687e-09
es there 2.75033e-08
llevarme usually 4.22232e-06
anciano john 7.20622e-06
vive he 1.29923e-05
un illustration 2.87306e-09
devolvieron sent 3.49647e-06
con unmoved 1.08704e-09
se john 3.03415e-09
aclaración clear 5.99805e-05
ausente quite 9.27613e-06
para labours 1.28679e-09
la sails 7.43806e-10
era provoking 2.31836e-09
qué far 2.01793e-08
lugar suit 4.96834e-08
lugar swamp 2.57828e-08
hija moment 2.47644e-06
mirarme him 0.000147914
-¿gustarme ! 0.000784549
al find 1.03529e-08
con family 3.01392e-09
gusto than 1.41831e-06
gusto am 1.6225e-06
le careful 2.7818e-09
aún when 6.62617e-07
tejados vale 3.52378e-06
rubia- extremity 0.00240691
tejados extremity 0.00847099
tejados quite 5.73755e-05
rubia- NULL 0.0047362
su table 2.30556e-09
creo hannah 4.50486e-08
arrullo toned 1.9976e-05
fueron about 3.61734e-07
desesperada fainting 1.08067e-06
sólo 's 3.17562e-07
porque moment 3.37977e-08
pasó some 8.45133e-07
del ceiling 1.9663e-09
del obscured 9.83528e-10
-¿y mean 7.77677e-08
siempre life 1.38091e-07
siempre whole 1.03307e-07
era look 5.96461e-09
duda sir 2.81633e-07
-¿sabes know 0.000513022
noticias eyre 5.24251e-07
noticias further 0.0562419
y mastered 6.30675e-10
-contestó was 0.000390741
tales silent 2.81579e-07
tales daughter 8.16505e-07
voz sort 4.84037e-08
usted thrust 5.27836e-09
un intonation 4.66818e-10
porque earnestly 5.87161e-09
temido meet 5.99679e-06
-¿el you 0.000108273
porque strange 1.14577e-08
porque mr 5.33045e-06
búhos stately 1.36454e-05
encontrado am 3.58319e-07
-nada idea 9.91165e-07
quitar away 5.10533e-05
quitar ordered 4.1979e-06
corrí sky 1.84291e-06
ansia hypochondriac 1.19479e-05
perseveré pursued 0.000143929
que plan 9.81958e-10
dejásemos grant 2.5308e-05
conseguí should 2.17272e-05
buen answer 6.56594e-08
su quite 6.20789e-09
. nightingale 1.99012e-10
esfuerzo liberty 4.73235e-07
jamás come 1.08632e-06
-usted organ 3.19435e-05
-usted the 0.000439244
-usted of 0.00016834
-usted deal 6.5897e-06
-usted good 6.48894e-05
-usted a 0.000194016
-usted and 0.000121241
-usted beauties 2.65875e-05
-usted natural 0.000105746
-usted for 0.000176069
-usted eye 2.54508e-05
-usted an 0.000208334
lo overtaken 1.64585e-09
pensaba sternness 7.31644e-08
vació poured 8.51505e-06
arruinar ruined 9.19802e-05
vestido glancing 3.52781e-07
vida live 4.31334e-08
-el NULL 0.000341257
humedeció took 0.000167459
recuerdos removed 1.15592e-06
señor voice 1.6436e-08
me often 2.35691e-09
tiene without 2.02962e-07
las elbow 3.11521e-09
ni turned 3.70848e-08
consulte reappeared 8.35266e-05
aunque large 9.54388e-08
abandonaron from 2.1267e-05
abandonaron too 3.43151e-06
ojos consciousness 3.25745e-08
acompañaré will 4.51218e-05
: husband 6.22653e-08
: resolved 1.81942e-08
-yo none 6.1601e-07
y none 2.624e-09
( fabric 1.82522e-07
limitaron stared 6.9937e-05
se pointed 2.45763e-09
llevé change 3.7814e-06
alcancé reached 2.02551e-05
cambiase any 0.000359477
llegaban did 1.26953e-05
colócate morrow 8.32531e-06
¡ many 3.3989e-09
hasta often 8.37917e-09
sobre last 3.81835e-08
sentimiento tenderer 7.79835e-08
del unnatural 3.59215e-10
ve light 3.88015e-07
sentimientos willed 5.30503e-07
sentimiento triumphed 1.50913e-07
. need 5.1036e-10
dirigían along 1.38437e-06
está : 2.88843e-07
cumplido host 1.03477e-06
-ya now 3.30629e-06
cómo when 4.61305e-07
usted aunts 1.74576e-09
intervenir request 1.38073e-05
; parle 9.45818e-10
ya neighbourhood 5.81874e-08
años set 1.48867e-07
pronto event 3.92718e-08
a coverings 2.60625e-10
comparados compared 1.53464e-05
sincera anything 5.90463e-06
riñendo always 0.000246108
aún attired 4.39175e-08
actividad revived 1.34556e-06
nasales light 2.31317e-05
nasales other 4.81983e-05
nasales any 8.2293e-05
actividad gryce 3.45655e-07
evito escape 2.34878e-05
precipitada amid 0.000112217
querré will 0.000273707
acercas stay 0.010884
acercas do 0.000565952
para untaught 2.57232e-10
. clever 3.14426e-10
parientes friends 6.35575e-05
-no or 3.68032e-07
-no pay 3.45919e-07
tos verse 7.72171e-05
tos words 0.000162143
tos first 0.000177009
vez between 4.86242e-08
tos connection 4.10718e-06
del lifted 5.01282e-09
! lifted 1.41335e-08
oí once 5.50817e-07
pero : 4.86476e-08
admitida pupil 6.33435e-06
mi prospects 1.33651e-09
mientras struggled 2.28349e-08
-¿y keep 1.70979e-07
humilde called 5.83072e-06
pariente low 3.46602e-06
sí night 3.25977e-08
¿ nonsense 9.27065e-10
menudo before 3.06788e-06
-vio raps 4.665e-06
aparición passed 3.19848e-06
más scene 5.04573e-09
sobre gleamed 1.05655e-07
sobre boldly 3.187e-09
sobre shaking 6.96454e-09
lo returned 4.56987e-08
en legged 5.63535e-10
una feet 4.1762e-09
una gathering 2.23247e-09
amotinaba set 2.69875e-05
escribirme written 1.15659e-05
dientes comrades 1.22088e-06
dientes his 1.83047e-05
dientes and 3.71149e-05
dientes himself 5.56399e-06
dientes name 3.14134e-05
vienes come 0.000208789
sacó upon 1.07195e-06
sacó noise 1.70823e-07
esos rochefort 4.43969e-08
avisado proceed 3.91386e-06
juntas conceal 1.72955e-06
vengan really 7.11864e-06
vengan may 2.11434e-05
os conducted 6.42768e-09
sí must 3.39964e-07
pues must 8.49742e-08
sí one 1.38537e-06
hacerme make 1.43635e-05
fijos with 1.90081e-05
mis their 1.81446e-07
milady faith 1.13103e-06
milady served 1.89385e-08
milady eminence 2.18738e-07
milady anger 6.11725e-08
milady heart 4.11952e-08
milady excellent 3.39937e-08
milady notwithstanding 6.79751e-08
una introduced 2.87592e-09
¿ boarder 4.5981e-10
las gallant 1.04513e-08
os here 1.63806e-07
¿ likewise 1.53755e-09
ponerse embroidered 6.77346e-07
a around 1.12205e-09
al over 1.42947e-08
balanceaba shook 3.39505e-05
muramos , 0.00595145
oculta , 0.000361818
buscando of 0.000286543
buscando in 0.000185295
orden bearing 7.47123e-08
desde alarmed 1.27253e-08
las virgins 1.47363e-09
refugiarme take 0.00158611
refugiarme me 0.000466555
insomnio sleep 1.79342e-05
puso she 9.03085e-07
pondrá will 3.92478e-05
¡ imprisonment 3.99725e-09
ni power 8.33269e-08
semejantes these 1.37316e-06
tener wish 1.36003e-07
avisado sent 1.58253e-06
recibido taken 5.6231e-07
nuevamente more 9.72271e-06
nuevamente of 0.0001368
sus leaders 1.51175e-08
me warn 1.21842e-09
den furnished 5.29808e-06
descubriendo entrance 1.06284e-05
descubriendo leaving 0.000134064
una packages 1.02654e-09
su packages 9.95844e-10
encontró with 4.88811e-06
confiese have 0.000162568
duerme bed 2.92532e-06
acostar down 3.40766e-05
gustaría wish 9.94047e-07
tragaré and 0.00593717
tragaré ; 0.00245288
un official 1.63407e-09
la husband 3.2084e-09
quien possess 2.6561e-08
: offers 3.07887e-09
contada described 7.93966e-06
efecto porthos 0.000139748
efecto cried 3.31302e-05
efecto sure 1.09311e-05
efecto be 8.69913e-06
delantera , 0.0614534
delantera already 3.05329e-05
delantera NULL 0.00159541
partido set 1.04977e-06
paso charging 4.25822e-08
encima heads 1.58223e-07
nos making 8.90199e-07
nos is 7.26332e-06
hace grimaud 8.68746e-08
nos signs 9.18318e-09
nunca escape 6.80452e-08
sentaron seated 1.00417e-06
quitó off 2.0162e-05
pasado pass 4.93432e-07
otros many 1.92257e-07
otros as 2.3505e-06
una faint 1.53177e-09
persiste hope 4.79981e-06
si hope 3.88459e-07
me till 2.10309e-08
vinieran listen 5.1556e-06
vinieran and 0.00117272
vinieran come 0.00155084
vinieran sign 0.000160948
centrar fixed 0.00116204
centrar length 0.000398098
visto her 8.36061e-06
visto did 1.54504e-06
dirán certain 6.47403e-06
dirán follow 8.0451e-06
_ " 0.00130233
misma letter 1.19981e-07
crimen consequence 3.30727e-05
crimen branded 8.57487e-06
poniéndose throwing 2.72e-06
? undertake 1.88228e-09
allí him 5.10364e-07
hubiese have 4.31415e-06
seguir further 2.05698e-07
hombres amorous 4.05426e-08
cañoneo side 3.44088e-05
quizá hereafter 2.73198e-08
bien attention 1.03112e-07
tal siege 3.11529e-08
igual difference 9.54043e-07
. commands 2.78992e-10
se necessary 4.36829e-09
mi rushed 3.82424e-09
ayuda murder 2.96718e-06
veamos but 4.40554e-06
pido rely 4.38352e-07
tenid reason 3.96641e-05
toda only 1.73903e-07
bajo wrong 2.53184e-08
sí frugal 1.88187e-09
centelleante cloud 1.52955e-05
¡ love 4.75413e-09
! golden 2.72902e-09
han lost 5.06884e-08
que visit 1.23187e-09
encontrarse meet 1.67445e-05
cada wherever 4.84199e-08
procedía his 0.000513136
se ridicule 2.78244e-09
abrir door 1.60859e-06
vez evening 5.75857e-08
vez each 3.77473e-08
entrar the 4.15913e-05
responderme reply 1.60251e-05
ese upon 7.94179e-08
mentía half 1.33619e-05
una bottle 2.13064e-09
selió black 2.99272e-05
selió followed 5.19771e-05
hice knew 8.92955e-06
que double 1.22792e-09
lazo caught 7.50498e-06
ahí said 2.52461e-06
oro woman 1.66539e-06
falta ; 2.43211e-05
aún dressed 7.7741e-08
pulso tremulous 2.87206e-06
quedaría be 4.86522e-05
parece bottles 5.97375e-08
parece part 2.11405e-07
llevamos led 5.54013e-06
como perceive 4.92883e-09
o tense 9.49118e-09
helo " 0.00129433
eternamente ever 1.63987e-05
religión orders 1.35419e-06
entrar orders 2.73818e-07
pueda whether 2.78259e-07
brindaremos we 0.000349393
brindaremos shall 0.000549245
sólo change 1.41579e-07
sólo how 5.46558e-07
sólo then 7.48259e-07
sólo question 4.0987e-07
elevaban formed 0.000155602
elevaban NULL 0.000640308
¿ -- 1.87808e-08
entre duel 1.43487e-08
habéis again 1.55175e-06
fuerza might 6.26532e-06
encargado coste 4.69234e-07
hendió way 5.0282e-05
hendió made 0.000248492
hacia instantly 1.1246e-08
como part 9.12477e-09
llama of 2.5825e-05
atravesado installed 2.88119e-07
haz you 5.27185e-05
aún speed 3.75376e-08
todos each 4.98716e-08
sabéis what 2.22863e-06
sabéis tell 6.58166e-06
encima as 3.75244e-06
entonces interrupted 1.60654e-08
puso upon 2.58155e-07
habría be 8.29611e-07
cogía took 1.61414e-05
pues not 8.2033e-07
aunque NULL 1.19384e-05
color rose 4.01908e-07
oírse hear 5.31497e-06
quieres would 6.54116e-06
un every 3.54138e-09
luego some 2.06565e-07
quien that 2.11912e-06
le course 8.30191e-09
antaño seguier 1.92705e-06
desgraciados most 4.25372e-05
desgraciados times 9.37329e-06
tiempos unfortunate 1.33587e-06
muy thing 1.24009e-07
muy sad 8.01876e-08
muy a 2.77011e-06
dicho yet 1.08577e-07
quedó alone 3.77401e-05
ya matter 1.30399e-08
engañaba none 3.51604e-06
voy , 3.0294e-05
atrevía dare 5.50121e-06
llevarlo led 1.83454e-06
confeséis place 1.98431e-05
ahí this 2.70337e-06
como parisian 1.05798e-09
oh which 2.28447e-06
que dignity 7.74982e-10
cual what 1.50615e-06
más even 9.62855e-08
años , 3.81237e-05
si , 2.47733e-06
si therefore 1.31448e-08
las others 4.06456e-09
acababan just 2.48731e-06
seguía continued 4.11432e-07
sabéis consequence 1.78941e-07
; dispose 1.40637e-09
resulta am 2.28385e-05
pues no 2.20799e-07
as NULL 0.000595706
? performed 2.40206e-09
yo drink 3.13268e-09
ven from 1.87423e-05
frunció became 2.85475e-06
tratase sword 2.09079e-05
embargo retreat 5.3563e-08
finalmente these 4.99576e-05
viejos clothes 1.99909e-06
ha am 4.05048e-08
sacar NULL 0.000186915
estaríam be 0.00115888
según in 6.9962e-06
dado as 1.44973e-06
venir in 9.47173e-06
tiene sides 5.18617e-07
hagamos do 2.5528e-05
hagamos must 1.61848e-05
matamos each 2.45955e-05
haberos sooner 1.41976e-06
decididamente NULL 0.000151853
mí - 8.10467e-07
hacerme making 1.01279e-06
firmeza costume 8.77512e-06
firmeza irreproachable 0.000727474
firmeza NULL 0.00252431
presento give 5.05506e-05
arrestar were 2.59171e-05
hacéis d’aguillon 1.24186e-07
estudiando theology 1.84534e-05
habríais have 8.13029e-05
más opinion 6.31311e-09
como manner 5.80753e-09
con folds 1.34222e-09
despierta imagination 2.56023e-06
divertían themselves 1.56813e-05
divertían amusing 1.0098e-05
sobra that 2.83374e-05
su passion 4.28439e-09
pasaba beyond 1.75002e-07
nuevo enter 3.30042e-08
como well 3.05341e-08
profundidades waters 7.34523e-07
imposible providential 9.74846e-08
sobre from 2.82652e-07
dijo be 1.19482e-07
interior portion 1.13849e-07
nada done 4.43203e-08
su energy 1.54777e-09
fueron by 2.35875e-06
alturas obscured 9.17895e-07
purísimo indicated 1.62816e-05
describía described 5.32889e-06
casco constructed 3.20148e-07
casco vessel 6.36072e-07
en supernatural 7.28694e-10
aparejado found 6.33072e-06
aparejado - 4.30643e-05
encuentran waters 2.28916e-05
dirigirán go 3.77417e-05
capitán silence 3.3066e-08
capitán were 7.47122e-07
capitán words 6.07636e-08
entonces eyes 6.86532e-08
buena believes 3.82514e-08
buena action 1.24426e-07
echado sunk 5.50722e-07
tantos proved 9.77506e-07
tierra inhabited 4.00074e-08
fuerte seemed 2.10806e-07
vasto immense 6.83494e-07
comunicación occasional 2.56866e-06
recinto occasional 3.04778e-07
empalizada vapor 1.21834e-05
tan searched 7.15854e-09
: learn 1.60694e-08
tan going 2.44841e-08
: going 1.69107e-08
tan doubt 1.26292e-07
levantaba lay 7.93027e-07
estas undergone 1.85547e-08
algunos companions 6.83349e-07
con telegraphic 9.6917e-10
del trees 3.7535e-09
tarea really 5.09025e-07
antro gulf 0.000133296
las remarked 2.85963e-09
sembrados strewn 3.42719e-06
perdidos concealed 1.10261e-06
aquel at 3.30566e-07
energía moral 3.45917e-07
así seemed 5.98393e-08
grande its 8.63627e-07
pronto top 6.08128e-08
pronto neb 1.42392e-07
recinto appear 6.68068e-07
recinto did 4.12882e-06
mayor astonishing 1.9865e-07
les lengthened 9.09564e-09
halló stretched 4.4454e-06
halló soon 2.23531e-05
haría ayrton 3.75819e-07
dentro . 6.7472e-05
estaré remain 2.33358e-07
engañaban mistaken 6.00104e-06
romperse break 0.000450116
romperse might 9.96712e-06
¡ heart 3.80817e-09
cuando moment 4.13788e-08
cuando watched 1.39078e-08
nuevo another 1.05069e-07
entonces must 9.77474e-08
he am 4.6765e-08
trozos means 1.0544e-06
tendrían right 6.12115e-06
tanto here 2.26568e-05
tanto speak 1.15629e-06
pensar excellent 1.91524e-06
smith excellent 8.60556e-07
aquellos thinking 2.08275e-06
para thinking 8.96694e-09
smith in 1.9094e-06
smith right 8.21925e-08
estaré am 1.24906e-06
referencia either 0.000101683
noche morning 4.842e-08
puentecillos were 9.47748e-05
río bridges 4.31719e-08
sido often 1.57845e-08
fina bed 2.23089e-06
máquina clumsy 6.93768e-07
eso happened 1.47479e-08
alguno obstacle 4.37957e-07
pareciese command 2.68277e-06
sonaron heard 6.63268e-06
menos not 8.20603e-07
deberían believe 1.7317e-05
deberían led 8.9907e-06
ocupar take 5.74013e-06
intencionados have 0.000219121
sumergidos buried 1.78911e-06
hecho being 1.38577e-07
llegar would 1.44771e-06
un of 1.89784e-07
: actual 4.96039e-09
y stroke 5.31061e-10
quedó agreed 4.70556e-07
irá will 8.48264e-06
tierra cargoes 5.34986e-09
pabellón hoarse 1.57235e-07
llevó put 1.15739e-06
... japanese?--it 1.01256e-08
garra wind 3.09547e-06
se comes 2.01888e-09
cortados broken 6.55176e-05
tomaba part 5.25074e-06
parte took 1.41694e-07
tomaba never 1.07657e-05
tomaba useful 1.43371e-06
tomó useful 4.9403e-07
tomó himself 8.37788e-07
tomó common 3.68009e-07
parte shared 1.88784e-07
tomó shared 0.000330014
tomó ayrton 6.04949e-06
– confess 5.87882e-10
todos happy 2.13683e-08
siguió along 3.41959e-07
experiencia it 4.81213e-05
ha we 1.64931e-07
raros there 0.000202107
raros and 0.000504385
raros here 6.19425e-05
su bank 2.612e-09
estos duncan 6.91606e-08
depositar than 5.75596e-05
colocado sat 1.53234e-06
que successful 4.61541e-10
que although 1.28225e-09
no sympathy 1.87771e-09
quiso up 7.94569e-06
decirle wish 8.03076e-07
carpinteros become 1.22478e-05
partido course 8.69257e-07
; doubtless 2.34061e-09
han was 1.48821e-06
– liberty 8.38136e-10
spilett–¿podemos set 0.000289932
spilett–¿podemos once 0.010589
spilett–¿podemos if 0.904535
spilett–¿podemos hope 0.000251537
spilett–¿podemos we 0.00242987
spilett–¿podemos can 0.0170603
spilett–¿podemos " 0.008778
spilett–¿podemos , 0.00643983
spilett–¿podemos spilett 0.0348414
querría would 1.87801e-05
cuanto NULL 8.80689e-06
suspendida conducted 1.88153e-05
bordo breakfasted 1.04457e-07
subieron returned 6.27769e-06
estuviera was 0.000160713
ruido hear 1.62556e-07
oyeron hear 2.48372e-05
oyeron could 9.13639e-05
oyeron they 8.05688e-05
oyeron left 5.66318e-06
oyeron glade 2.85533e-05
islote much 5.09661e-07
todavía inhabited 2.84993e-08
fuesen should 7.86154e-06
estuviera feared 2.39213e-06
encuentra anything 7.22609e-07
fuera side 1.18289e-06
fuera over 1.281e-07
fuera hung 5.81554e-08
acabó happened 4.88915e-06
acabó therefore 1.82682e-06
abría any 2.47176e-06
toda rest 3.25953e-08
inagotable light 3.12127e-06
calderas coal 3.83722e-06
acertaba give 0.000275289
acertaba could 0.000508049
puso was 0.00011365
puso it 4.62062e-05
; plant 3.9253e-09
excitaron excited 1.21596e-05
decía as 3.08855e-06
tanto approached 2.69572e-08
por engineer 8.96267e-09
inflama fire 5.92037e-05
inflama takes 2.96848e-05
inflama inconveniences 2.19575e-06
menos weight 3.09022e-08
tomó on 2.63105e-06
observando reported 1.10997e-06
para begun 3.73053e-09
algunos those 1.30498e-07
tan terror 1.14753e-08
por servant 2.21809e-09
tantos fall 6.27979e-07
¿ intruders 4.63706e-10
acabarían end 4.18022e-05
colgante part 5.97158e-05
arrecifes granite 2.70635e-06
del along 3.84294e-09
del fracture 6.47745e-10
? shirts 9.2475e-10
mal right 2.93213e-07
aquellas breaking 1.35924e-07
contar be 8.57164e-06
para in 2.5052e-07
cazador spring 1.73557e-06
bala collected 3.9121e-07
encontrar for 6.10502e-05
tarde between 1.68198e-07
mar rocks 3.54287e-08
en rocks 1.60447e-09
ni rocks 6.61448e-08
modo and 9.68873e-06
pasase go 2.04016e-05
lejos beyond 1.24805e-07
predilecta NULL 0.00482447
transformando making 3.7554e-05
¡ practical 1.62836e-09
diciendo hand 2.226e-06
con perhaps 5.75739e-09
nuestra fault 6.42661e-08
: is 2.65575e-07
: it 3.16407e-07
preguntaron asked 9.7465e-06
ella know 3.51007e-08
suponía himself 7.90115e-06
mismo acknowledge 4.055e-08
panes cakes 1.46292e-05
ésta latter 2.24914e-07
espuma arose 9.90711e-06
subió soon 1.48029e-06
subió pots 1.33827e-07
subió earthen 5.48045e-07
mercurial column 6.15699e-05
cestos several 0.000151192
y platform 1.12681e-09
punto what 7.5207e-07
no stained 1.83389e-09
descendió fell 7.44412e-07
añadieron added 7.18587e-05
. seriously 4.88277e-10
hacer openings 1.26465e-08
grande recess 2.68987e-08
maravillosa sagacity 1.00306e-06
sagacidad marvelous 8.52118e-06
extinguió went 1.23327e-05
hasta stopped 1.21064e-08
primero before 7.56719e-07
durante five 6.368e-08
química terminated 0.000164609
eso now 9.06129e-08
sino terminate 2.05859e-08
aquellas situation 1.41243e-07
si furiously 5.67078e-08
tan only 2.44431e-07
entre road 2.31547e-08
vinieran NULL 0.0011738
tomaba NULL 0.000256397
vara slowly 4.58269e-06
confunden true 3.32741e-05
según i 8.79482e-06
satisfecho air 2.25499e-06
esos NULL 2.81505e-05
bastante bad 1.51584e-07
arrancó gathered 8.95729e-06
hacen formed 9.79798e-07
cierto no 1.00427e-06
por follow 2.40499e-09
agudo cry 8.16197e-07
roedores citizens 1.0534e-06
fabricar few 4.42629e-06
canguros tracks 4.28359e-07
diera given 3.13317e-06
denunciaba betrayed 5.59023e-06
rojiza color 6.17116e-05
empleaban already 1.14227e-05
poniendo east 7.25795e-07
parece is 1.82103e-06
la even 8.16713e-09
formaba out 5.29059e-06
véase drawn 9.82182e-06
véase immediately 9.85245e-06
capas streaks 4.18682e-07
a hungry 9.76426e-10
terrenos regions 3.78057e-06
y who 2.96503e-08
aquellas among 1.26491e-07
podrá state 4.35714e-07
velocidad strength 2.53625e-07
ya said 1.90373e-07
preocuparse himself 5.87428e-06
preocuparse care 3.06948e-06
quiso care 9.92797e-07
n,–b neb 2.44813e-05
aquella jelly 3.30561e-09
después marine 1.64703e-08
tuvo mixing 9.60355e-08
habiendo and 0.000102769
habiendo other 8.64388e-06
habiendo each 3.41055e-06
habiendo reply 3.61522e-05
tardó sleep 1.13444e-06
hecha quite 6.80581e-07
lecho double 5.65447e-07
pena while 1.24835e-06
quedó NULL 0.00082875
tenían save 6.24462e-08
cocción done 1.71405e-05
después crackled 6.87341e-09
y struck 1.64118e-09
tomó NULL 0.000276659
triste wretched 4.0381e-07
¡ even 9.00113e-09
¡ rather 7.38453e-09
piedras kept 1.40427e-06
pleamar approaching 2.64083e-05
estamos NULL 1.64829e-05
esa family 5.8118e-08
casi " 0.000124061
casi smoke 0.000350014
casi for 5.57356e-05
casi opening 0.000659781
casi keep 1.52097e-06
casi and 3.11258e-05
casi passage 7.20942e-07
casi left 2.19943e-05
casi the 0.00284378
casi in 2.11974e-05
casi NULL 0.000110007
nos when 2.90654e-07
quedaba between 6.05388e-07
formando and 0.000160841
– against 1.48232e-09
tiene NULL 8.5577e-06
de sailor 2.27445e-09
pensar dream 2.36767e-07
estaba followed 1.07681e-08
interesante single 2.15894e-06
faltaba less 2.36366e-06
faltaba not 6.56619e-05
faltaba it 7.03245e-05
1.800 eighteen 3.66485e-05
terribles frightful 6.25735e-07
partamos go 1.63343e-05
solo gesture 7.03743e-07
fijarla establish 0.000151914
profundidad down 8.53407e-06
incorporé asked 6.24794e-06
ante crosstrees 2.9967e-07
ante appeared 7.36688e-05
ante mastheads 0.000745782
puentes decker 0.144788
ingenio really 0.000110692
reconocer out 2.13541e-06
reconocer make 9.73033e-06
no something 7.62588e-09
haber giving 4.65355e-07
terranova banks 6.03635e-06
brumas waves 7.04075e-05
brumas surface 5.28172e-06
afrontarla brave 3.46276e-05
-¿qué want 2.47606e-07
derribado suddenly 5.96405e-06
-si event 1.6476e-06
-quizá this 0.00014452
-prosiguió " 0.000848794
al dragged 6.11756e-08
regularidad uniform 1.62401e-05
adherirse suction 0.00604664
adherirse stick 0.0220617
adherirse enabling 0.00630951
. arms 6.23859e-10
ha magellan 2.68858e-08
va 's 1.07878e-06
aparecer neither 4.64232e-06
marzo 28 5.05625e-06
. remove 1.98126e-09
si knew 1.52124e-08
subido raised 5.93951e-06
ruidos heard 1.31881e-05
duerme retire 0.000560481
desaparece disappear 1.2943e-05
humor growing 0.000805888
humor temper 1.92446e-05
-se either 3.9604e-06
sólo ridge 2.53271e-07
sólo beyond 1.66543e-07
acompañado fortunate 3.76767e-05
ese toward 3.34946e-07
-¿estamos we 0.00133008
-¿estamos " 0.0012716
libre told 3.84194e-07
rápidamente exchange 7.933e-07
¡ front 5.87928e-08
) myself 2.74923e-06
podía madman 1.62173e-07
por among 3.56938e-09
perdidos swallowed 0.00149518
perdidos completely 0.000973428
un holds 1.27118e-08
incierto figure 0.000274611
controlar double 0.000119432
cristales made 1.64103e-05
cierto chance 1.94096e-07
unas twenty 2.90259e-07
sobre monument 6.98965e-08
destruida low 7.11574e-05
extendiera shores 9.10621e-05
necesario defend 3.66866e-07
españoles dust 1.07378e-05
muchas ideas 1.81446e-06
pensaría ingratitude 5.48819e-07
pensaría make 0.0530233
pensaría what 0.00235009
pensaría wondered 0.152976
pensaría for 0.000282359
únicamente more 4.92803e-06
yo ready 5.94046e-09
terminar complete 3.9596e-06
sea happens 4.6292e-07
ned majority 7.55288e-05
ni waiting 7.94758e-08
dijo replying 3.77531e-08
señor conseil 7.38751e-08
mesa fine 3.64102e-07
conduzca take 0.000346342
conduzca does 0.000330636
conduzca really 1.53614e-05
alce shrug 0.000183306
usted traces 1.30552e-08
lleguemos reach 2.27099e-05
¡ unfortunate 3.4879e-09
sorpresa much 3.79276e-06
yo again 4.06903e-08
yo back 1.67115e-08
digo replied 7.79987e-06
digo land 4.64114e-06
digo ned 3.65943e-06
fiel true 2.22469e-06
seguirle followed 3.12772e-06
cinco glimmers 1.10357e-05
-yo 'm 7.94089e-07
vi observed 0.000239056
vi off 5.64978e-06
vi right 1.88979e-06
quería lost 1.25268e-06
quien consulting 8.54053e-07
-sus least 8.23532e-05
entonces party 8.71429e-08
lámparas inordinately 6.65734e-06
sé knows 1.61236e-07
no knows 4.80095e-09
mente struggles 2.48527e-05
mente speculation 1.27857e-05
tras only 3.86225e-07
agitación foot 3.50341e-06
extraño remind 8.71908e-06
un envisioned 1.39578e-05
medio obliquely 2.74133e-07
maravilla wonder 7.28279e-06
hubiéramos n't 1.89103e-05
particular especially 4.96142e-07
particular snails 7.00864e-05
sobrevenir planned 8.0249e-06
-¿y master 2.83038e-07
difícil capture 1.94919e-06
humedad ligaments 1.58214e-05
; near 6.99385e-09
-dije- seems 2.10975e-06
-dije- excursion 6.29795e-07
fuerza replied 3.33641e-06
-¿así as 7.23477e-05
miró gave 2.54643e-06
archipiélago separated 2.70798e-06
hojalata stamped 0.000171805
ponféridos damselfish 0.00266369
. limestone 3.46228e-06
exterior belt 5.68347e-06
ya closely 8.64722e-08
ascenderían return 0.0158161
gracias miraculously 1.26951e-06
vi hurtling 4.25415e-07
gusto easy 4.12645e-07
presa yet 4.89395e-06
entonces see 9.02591e-08
-¡una hunting 1.79988e-05
yo climbed 1.5606e-08
nos concerning 1.1235e-07
¡ bad 5.33139e-09
darme less 1.01712e-05
diría answered 3.41318e-05
diría pardon 0.000123859
-me 'll 1.1446e-06
total cubic 2.8049e-06
total meters-- 1.87705e-05
mayor lines 1.60256e-06
cigarro cigars 3.9468e-06
algunas information 6.19028e-07
puesto charm 6.84109e-06
comprendo fascinate 2.55099e-07
gustaba collector 2.11552e-06
he truly 3.9104e-08
le foods 2.89974e-09
parte foods 2.65808e-08
sanos renounced 1.90016e-05
… existence 1.08389e-06
yo stave 5.77558e-09
ahogo spice 1.60779e-05
altas storing 2.19724e-06
servicio table 4.69086e-07
n mobilis 0.00028474
fidete loin 0.000222762
me followed 4.14302e-09
falta caledonia 2.14011e-06
sus elusive 1.25562e-07
sus impression 4.64181e-07
fijada topside 2.15396e-06
fijada ring 3.51967e-06
fijada big 6.84605e-06
película plunged 0.000654126
película 'd 0.00012056
mirada spattered 7.70471e-07
rompía shimmering 9.38651e-06
rompía by 0.000106574
mirada through 1.294e-06
mirada peer 1.40607e-07
unas calculated 1.43084e-06
calculé therefore 4.43256e-05
una steer 2.42743e-08
profundidad first 2.51291e-06
sumidas encounter 8.59842e-05
¡ shifting 1.38678e-09
! shifting 8.6959e-09
plazo agreed 1.96203e-05
-respondía- nothing 0.0236589
-respondía- replied 0.19747
-yo does 7.55455e-06
mantendrán feed 0.00127816
conseil serenely 1.53179e-07
redactada brooklyn 0.000299635
muelle brooklyn 0.000139558
escrutaron examined 0.00011957
hacia happened 3.49675e-07
fuimos advice 1.8686e-05
parte corrected 3.0763e-07
mí led 4.84128e-08
postreras audible 0.000120887
mucho quite 1.29148e-07
tiene feel 2.87416e-06
en best 1.23736e-09
sus trickle 2.58527e-08
le soothe 6.96577e-08
era missionary 2.9006e-09
-y did 7.52257e-07
novios tour 0.000153242
obstante still 1.47176e-05
es enchantment 1.64918e-08
rochester excited 2.08665e-06
no. day 5.75053e-06
-¡mi living 1.44442e-05
acabo only 2.53709e-05
-ordenó aloud 9.93367e-06
había ejaculated 2.95376e-08
¡ ejaculated 5.62037e-08
contra blood 6.03572e-08
aspecto character 8.98964e-05
profundo silence 8.59011e-05
quiere jane 1.97145e-05
rehusar hand 4.15088e-05
hagas shall 6.01304e-05
conversación speaking 5.99617e-07
se returned 7.68155e-09
máximo circle 2.22232e-05
y for 3.02005e-06
y striking 1.44942e-08
john lightly 1.19129e-06
-¿hablas not 0.00131434
-¿hablas are 0.0120373
mencionó could 0.000217509
las barren 2.31385e-08
encuentre get 5.9538e-05
agregaba clever 0.000162695
aunque handsome 2.06567e-07
y homes 8.61857e-09
ellas they 3.57568e-06
yo contend 1.15576e-07
-eso what 6.67666e-06
rubia- daughter 0.0189169
rubia- vale 0.000397089
rubia- roof 3.43624e-05
no surely 4.59804e-09
tenemos father 3.5851e-07
característica reward 0.000801655
ocupadas occupied 5.35381e-05
cuanto inmates 1.83664e-07
conociera know 0.000230574
conociera before 8.76614e-05
él coolly 4.0057e-09
un book 3.69407e-09
muy though 3.43414e-08
pertenecía said 0.000110834
acuerdo thoughts 1.49441e-07
era o 3.83835e-08
nosotros mentioned 2.87051e-07
huesos skin 7.74427e-06
oferta unprofitable 2.12141e-06
dirigí again 4.89078e-06
dirigí face 7.50092e-05
dirigí turned 2.54505e-05
-¿volverá be 0.000162206
me refreshment 2.49349e-09
panecillos window 1.59236e-05
panecillos bread 2.32298e-05
debo respect 1.52715e-06
me unsustained 1.65482e-08
debo reply--"_i 2.69134e-06
hablas jane 0.00145945
giacinta italian 0.000149346
pudiendo live 9.16786e-06
pudiendo could 8.15727e-05
obstante ) 0.00058249
obstante attachment 0.0304093
negué no 0.000883766
negué him 0.000142905
mi draw 1.31746e-07
mi would 3.04731e-07
negué permit 3.05223e-06
mi now 1.3999e-07
rostro resolute 2.76305e-08
emplearé 'll 0.000174398
entonces performed 1.93253e-08
aserción report 0.000107298
-ya god 2.78935e-05
qué curtain)--"it 1.51239e-08
aceptas accept 0.000169175
era high 1.55018e-07
era very 3.43263e-08
era wall 2.74784e-07
era shell 2.72061e-07
era but 2.11261e-06
era nothing 7.85928e-08
era front 1.1224e-06
era stately 2.50864e-06
encontrado close 9.73109e-07
podía stop 6.51607e-07
oscura rain 7.91217e-07
, pleased 9.64109e-10
que service 1.63269e-09
con sense 9.37519e-09
- girl 1.19815e-06
una murmured 1.82029e-09
! abode 9.8359e-09
hacía interim 1.71014e-07
un cynosure 7.43277e-09
pequeño born 0.000228527
pequeño last 8.35165e-05
portería before 1.888e-05
portería there 0.0770776
georgiana pony 0.000114573
desafiando justified 0.000534916
siquiera trouble 4.26589e-07
-temía coming 3.58432e-05
-temía afraid 4.44469e-05
vamos step 1.21982e-07
ciertas occasion 2.25527e-06
y yes 8.07767e-09
gracias softly 6.79471e-07
mis slippers 5.96397e-08
ésta distinguished 5.02598e-07
vez offered 9.74029e-08
me human 5.14862e-09
me much 8.3183e-09
: conceives 2.41747e-08
interesa never 1.95565e-05
ni exchanged 2.27904e-07
alguno afraid 5.63286e-07
jovencitas young 0.000110034
quiere have 2.16591e-06
quiere 'll 5.49693e-05
viajero gentleman 3.94905e-06
ganado weapons 2.59727e-06
y termination 7.5969e-10
-y good 2.96891e-06
unos eshtons 3.62792e-07
rochester pith 5.43792e-06
hombre soldierly 3.95759e-07
hombre fine 8.43962e-08
traje sanctum 5.55629e-06
cambiase change 0.000428436
era change 4.89985e-08
era need 5.85151e-08
llegaban news 3.05411e-06
espejo picture 2.34011e-05
espejo your 4.83433e-05
formada tall 2.26759e-06
-¿habrá there 0.000566196
anoche last 0.000351103
anoche rate 4.32148e-05
más tenderer 8.6685e-08
ceñido handkerchief 2.74376e-05
marchar gone 4.16584e-06
rochester re 1.64033e-07
impresionó drew 1.19777e-05
-si which 1.23733e-05
-si light 2.61286e-06
-su language 1.66146e-05
los irrevocably 9.11264e-09
-no from 9.74363e-07
siéntese seat 2.69581e-05
-no none 6.04961e-05
adela adele 7.43297e-05
abandonó leave 0.000177302
buen fire 1.17112e-07
preparar give 2.13397e-06
sobre rose 3.8436e-08
sobre side 4.0474e-08
paseo situation 3.07832e-06
ella attempts 5.74744e-08
todo silent 1.8293e-08
silenciosa when 1.87479e-05
ventile in 0.00182141
quiere let 1.11962e-06
yo sophie 2.53583e-08
también desired 6.8198e-08
últimos dreary 1.48826e-06
gato demurely 5.2945e-05
seguí went 8.99706e-06
: both 1.0468e-08
sincera brings 1.69806e-05
sincera desire 1.141e-05
tía here 2.65138e-06
encontraron quarrelling-- 0.00177344
discípulas teachers 1.70541e-05
» were 4.09863e-07
humores irritation 0.000129228
dulce liberty 5.92808e-07
mayo advanced 5.44499e-07
-dijo- barbara 3.67448e-05
servicio brought 1.52568e-06
servicio soon 5.70538e-07
te adopt 4.94488e-07
muchas pity 1.06721e-06
. constricting 1.16944e-09
pensaría would 0.014228
me forces 3.56456e-08
una girls 1.77235e-08
eran season 3.31797e-08
a obeyed 2.23891e-08
bien afternoon 3.98606e-08
además burns 1.75604e-07
incidente dismissed 2.61642e-06
incidente afternoon 1.86827e-06
incidente event 1.45963e-06
muchachas grown 3.50094e-05
muchachas - 0.000105573
muchachas full 4.05114e-05
convirtió resolved 6.68189e-06
ellas a 1.25617e-05
desengancharon towns 1.21069e-05
atravesamos passed 6.70334e-05
brillaba hastened 2.17901e-06
-eso that 1.59067e-05
verdad friend 3.75649e-07
-así things 8.11747e-07
-así state 1.5066e-06
para remove 1.59927e-08
pequeños die 5.24984e-07
salir implied 3.19048e-07
servidumbre servants 0.0447098
servidumbre rang 0.0012395
eh up 4.00271e-05
-no only 1.02805e-06
él nursery 7.39327e-09
contesté say 1.63348e-05
no really 5.814e-09
largo large 1.4827e-07
ahí upon 1.30902e-05
ahí name 9.1004e-05
alguien wise 2.03192e-06
mismo another 4.17308e-08
entraban were 0.00012376
trató even 1.45481e-06
quien which 1.02213e-06
quien existence 9.68641e-08
bella she 8.12552e-06
había she 2.63636e-07
aislada house 1.26075e-05
sucedían succeeded 9.47148e-05
puesto keep 4.55179e-07
puesto him 1.63782e-06
puesto beg 7.97437e-07
relevo horses 1.31491e-05
breves small 2.00652e-05
posibilidad offered 2.24923e-06
ese paper 8.10301e-08
horrible was 4.19044e-05
; daybreak 2.82829e-08
posible best 9.21076e-08
que setting 9.73419e-09
fui was 3.94126e-05
yo travel 1.61133e-08
sois come 2.0913e-07
sois did 8.04991e-05
para up 2.07039e-07
hasta twenty 1.51867e-08
inmediatamente yourself 3.17885e-07
traída in 0.000659041
seno palpitating 0.00026682
acuso nobody 1.57611e-06
hombres base 1.39038e-07
ningún power 2.86312e-07
sucumbiese yielded 0.000687124
costumbre before 1.91072e-06
tiempo . 4.08967e-06
estaban ill 1.339e-07
podían must 5.90214e-07
devolvieron full 0.000760959
devolvieron everywhere 0.0184718
las everywhere 6.57315e-09
colocar placed 1.63505e-05
inspeccionó looked 1.30439e-05
campana clock 5.12457e-05
devolvió back 9.62824e-06
john upon 7.26321e-07
haberlo she 5.0624e-05
mí judith 1.93814e-07
desenfrenos debaucheries 0.0321329
criaturas persecuted 3.77997e-05
amplitud power 2.76222e-05
semejantes things 3.89296e-07
ni word 1.90559e-07
estaréis you 0.000172519
tenderme lay 3.04997e-05
tanto met 2.42086e-07
tanto often 1.29431e-07
levantémonos rise 0.000520626
ocurriría doubt 3.01961e-05
sabio vulnerable 6.76008e-06
su sides 7.51423e-09
tener pay 6.21851e-07
adoptó sitting 0.00028209
dinero joyous 1.39616e-07
sus die 8.6261e-09
de kill 1.73618e-09
aclarad end 0.000106825
salga come 1.82045e-05
muchacho very 1.58291e-06
muchacho appears 2.2737e-07
sacarán taken 0.000321739
setecientas hundred 2.35021e-05
setecientas seven 2.55656e-05
aprestaron prepared 3.80171e-05
tanto well 5.07482e-07
tienen assured 6.73838e-07
devolvieron returned 0.00305804
cuanto grimaud 2.0757e-07
ha what 5.01222e-07
es kood 2.86406e-08
podido may 2.76839e-07
esté is 9.954e-06
alguien possible 2.76651e-07
quemaría burned 0.000971292
sé has 7.6724e-07
albergue silent 1.40336e-06
toda fell 1.64714e-07
derecho more 2.05089e-05
grandes particular 6.88762e-08
calle line 1.40015e-06
calle placed 7.24416e-07
louis louis 2.5377e-05
mosqueteros d’artagnan 2.82099e-06
quedaba felt 1.01395e-06
próxima along 2.97054e-06
se appear 5.10969e-09
hubiese would 3.85499e-06
enamorados men 3.06085e-05
a leaven 9.46407e-09
al guards 3.59123e-09
honrarme me 0.975871
d gentleman 8.21275e-06
nos those 2.76509e-05
han stopped 3.42887e-08
salisteis set 3.58743e-05
quería say 4.22386e-07
¡ gallop 1.38079e-08
cogió therefore 5.47514e-07
acompañar conduct 1.42843e-05
llegar till 1.51064e-07
sino till 2.25034e-07
volvieron more 3.12144e-06
dosis large 2.98268e-05
palpitante re 1.79025e-05
palpitante brain 0.000189301
palpitante heart 3.57827e-05
palpitante beating 0.036678
hoja animated 0.00104699
luego " 3.0839e-05
y replied 8.24153e-09
? perplexed 1.29976e-08
en perplexed 2.86667e-10
cesar ring 1.32431e-05
necesitó took 5.32137e-05
repetir . 0.000645738
oro horse 3.18744e-07
cuando and 0.00115645
! burgundy 1.93398e-08
entregarme brought 7.55768e-06
había condescended 1.0402e-08
estaba finding 2.18785e-08
procedía increased 0.000560095
qué not 4.0284e-07
le kitty 7.23679e-09
son useless 1.43177e-07
dispuestos quite 5.08389e-06
estado rank 1.37802e-07
estado indicated 2.53931e-07
montada household 0.00012722
ganándoles winning 0.000440137
demás addition 8.13025e-07
vos spoils 2.29907e-07
tanto time 2.98919e-07
verme that 5.76421e-05
verme ; 0.000153667
todo after 8.50473e-08
sin ; 4.75766e-07
metió ran 4.07542e-06
mis horses 2.199e-08
apetecible appearance 0.000191154
cruz and 0.00170474
iglesia boy 5.30073e-07
cruz boy 0.000273597
cruz followed 2.75636e-05
su steadfastly 5.58082e-09
; steadfastly 1.21893e-07
señores rank 4.20398e-07
señores high 2.47477e-07
todo state 2.2402e-08
hacía only 8.95064e-07
contento joy 7.69082e-06
cogido lasso 8.40056e-06
cogido with 5.84098e-05
cogido caught 0.00500163
cogido not 0.0354858
quien mousqueton 4.7763e-06
comprometido agreed 2.61109e-05
pongo deal 6.63404e-05
y whom 5.43441e-09
quisiera anxious 4.59184e-07
falta " 6.38364e-05
falta short 2.1924e-06
falta eight 2.76074e-06
falta seven 5.09132e-07
quedaría might 3.46456e-05
un back 9.16891e-09
seguimos always 4.70256e-06
. ruined 2.57263e-09
sí right 4.17884e-07
sí are 6.22636e-06
dos pistols 1.92573e-06
dos with 1.45241e-06
dirigidas put 5.46846e-05
ese against 6.13489e-08
disciplina cord 1.18471e-05
disciplina employ 2.81734e-05
pasado last 6.72503e-06
palabras conversation 7.36951e-07
súbita disappearance 1.73927e-05
deseó answer 1.55495e-05
anudar lay 0.000184257
viesen seeing 6.08788e-06
mejor good 3.20364e-07
punta leaving 1.6913e-07
hacía back 1.04303e-06
así does 3.58707e-08
él accosted 1.23812e-08
palpitante and 0.155679
se table 3.77195e-09
artagnan waited 3.82269e-06
hablar aloud 9.06217e-08
luego followed 5.00845e-08
continuación place 2.15308e-05
haya new 3.26617e-07
ante on 2.3452e-06
os counsel 9.38028e-09
recayó conversation 9.88439e-06
hacia search 5.48027e-06
bono order 3.95793e-05
él lost 7.46324e-09
contraído accustomed 0.0262967
contraído him 0.00100472
contraído showed 0.0118327
contraído promptitude 4.11108e-05
dos his 1.0898e-05
ptanchet planchet 0.000597796
junto across 9.0818e-07
alojó lodged 0.000727937
todos of 4.66266e-06
saltar felt 1.10353e-05
haya am 6.42138e-07
falta NULL 0.000456622
nada least 0.000196402
alguna little 3.4374e-07
detenidamente weighed 0.000167516
ah yourself 5.4316e-07
serias serious 7.14747e-06
volverlo two 3.18735e-05
¿ someone 6.0126e-09
había get 3.44277e-08
sido cardinal 2.25267e-05
sea peril 1.63432e-07
tras upon 2.81024e-07
tendremos period 1.21321e-06
tendremos future 5.99578e-07
; requested 1.34771e-08
! scandal 4.56984e-09
mariscala d’ancre 0.000121599
cuando than 3.97633e-06
afirmaría affirm 0.00356662
pida demand 4.78158e-05
reparar repaired 1.14158e-05
llevarlo into 1.03952e-05
llevarlo him 0.000123255
los locked 1.22651e-08
consecuencia part 1.56194e-06
alguno world 5.94846e-07
eso woman 2.28721e-07
eso everything 9.94153e-07
eso confessed 1.40939e-07
milord accuse 2.32683e-07
milord invoke 1.26013e-06
importan me 0.000490265
importan NULL 0.0482581
agitaba disordered 2.77163e-06
a toward 1.64343e-08
había perceived 3.01979e-09
dominaba resumed 9.86333e-06
su interlocutor 8.57929e-09
es excessive 1.68667e-08
podríais into 2.71802e-05
quiero can 6.24841e-07
sois " 0.000402365
recogido placed 5.58399e-06
y spite 1.02386e-09
puesto search 1.24665e-07
puesto earnest 2.22691e-07
? here 1.82543e-08
gracias obtained 6.59556e-05
en going 3.48032e-09
arreglad make 8.9224e-05
arreglad place 8.54985e-05
ame should 0.000126706
emitido uttered 0.000201717
embargo must 1.70642e-06
previo acquaintance 1.06045e-05
pues upon 9.04691e-08
rogaba requested 2.88767e-05
sin encouraging 4.61277e-09
se hastily 1.18695e-08
esguince chance 7.05757e-06
suya NULL 0.000119168
sentían bore 0.000111914
lo observed 9.16429e-09
bien ’s 1.24557e-06
sobra it 9.40212e-05
sobra feel 5.37101e-06
largo ; 4.3176e-06
contra with 4.24445e-06
! slayer 3.18803e-09
hubiera ambiguous 1.00405e-06
supuesto hoping 1.97186e-06
puso order 3.50441e-07
toda related 9.33495e-08
hace miss 1.06871e-07
iba pain 4.09485e-07
iba contend 4.02422e-06
iba energies 0.00217853
iba rallied 6.29155e-06
... no 3.72339e-07
veamos only 3.11876e-06
soltarme give 4.15841e-05
. companions 1.61215e-09
en complained 7.84309e-09
construiría build 7.74876e-05
puso throwing 2.20881e-05
puso man 9.25131e-07
pensad seeing 0.000219302
¡ manuscript 1.24205e-08
¡ honor 4.58612e-09
principal NULL 0.000395785
habían remained 8.50707e-08
sí war 4.55651e-08
periódico best 8.17152e-06
estando it 6.89338e-05
pudo suggested 1.49226e-06
derredor all 0.000744909
derredor NULL 0.00377593
procedieron therefore 6.76083e-06
entonces said,-- 4.86664e-08
abrasada fire 0.000119178
extremos southern 1.40062e-06
pusieron hands 8.67229e-06
directamente personally 9.98893e-06
cripta light 1.44793e-06
sus secure 6.57879e-08
última recent 4.837e-06
todavía matter 5.99214e-08
erupción NULL 0.000119205
para beginning 8.9167e-09
con during 5.66376e-09
deseo respecting 2.78936e-05
encuentran NULL 0.000358597
puede will 7.39748e-07
– besides 1.36328e-09
había hurled 2.89294e-08
entregaban exposed 0.00341382
sobre nothing 5.07474e-07
tippo tools 8.38123e-05
tippo facile 5.71025e-05
usted under 2.76856e-08
hace vessel 9.81049e-07
hace my 3.07265e-05
que death 1.20465e-09
distancia length 3.36603e-07
remos plunged 2.60358e-06
cayeron harding 9.31087e-06
contrafuerte south 3.47451e-06
relación directly 6.53807e-06
ocupase stranger 0.000285357
ocupase occupied 2.35003e-05
ocupase probably 0.000187699
luminosos brighter 1.28092e-05
había therefore 1.6641e-08
mayor farthest 0.000337361
esta peculiarity 8.80949e-07
vivir still 3.36364e-06
comunicaba between 2.00378e-05
salud workers 4.03178e-06
aumentaba intensity 2.97439e-05
encuentro speak 5.12187e-07
que various 9.9494e-09
poca distance 3.53089e-06
volverlos ever 3.25053e-05
hacia appeared 1.03743e-07
top growling 4.74814e-07
en accompanied 5.67337e-09
encontraron NULL 0.000132328
pila waters 0.000757696
reclamaciones contrary 8.11302e-05
faltaba remained 6.30436e-07
superiores rocks 1.65863e-06
jup corral 3.35343e-05
presencia before 1.28264e-06
¿ nothing 1.19808e-08
divisó saw 8.65213e-06
traer must 5.82594e-06
estuviese that 4.36175e-05
conviene best 3.02868e-06
bosques into 2.90208e-06
venir expected 0.0101996
venir be 0.000534913
venir might 1.16591e-06
llegó went 9.04769e-07
ten your 3.49841e-05
emplearse employed 0.000282733
emplearse ought 4.97347e-05
– listened 4.55664e-08
mío cried 3.75763e-07
emprender necessary 1.63078e-06
era thing 9.63962e-09
entonces sure 1.34785e-07
entonces besides 8.11788e-08
gente honest 2.89235e-06
nosotros island 1.18122e-07
esa these 3.42307e-07
oyó tremendous 1.17753e-06
piedra rock 5.45479e-07
bruñirlos care 5.91788e-05
al depends 8.89398e-09
ocuparon actively 1.09423e-06
él forget 2.90743e-09
dándonos channel 2.3258e-05
aclarado doubtless 1.21281e-05
levantarse rose 1.45016e-06
levantarse perfectly 3.07119e-05
medía was 8.74891e-05
refugiarse refuge 1.70491e-05
y revenge 6.12543e-09
lo rapidly 2.37032e-08
entonces dozen 3.2245e-08
tardó passed 5.14267e-06
vapor smoke 1.58043e-06
estuviese was 5.54455e-05
desaparecieron back 7.98189e-05
nioniento same 0.0228935
son object 1.93842e-07
aguas shores 2.0312e-06
más now 9.72385e-08
allá am 1.11747e-06
travesía vessels 2.19041e-06
; rigging 1.2424e-08
no respectful 2.50154e-09
; constant 2.19394e-08
siguió ran 6.44259e-07
unas eight 6.79898e-07
por common 3.36567e-08
parte northern 1.84871e-07
pero appeared 2.97718e-08
precisamente however 6.03559e-07
tan innumerable 2.93366e-08
presentaba extremely 2.63103e-05
parte known 6.17898e-05
marcha on 3.50999e-06
más sooner 1.66769e-07
más perhaps 6.87e-08
toda strangely 7.76328e-08
tierra away 4.25623e-06
admitir know 5.37816e-06
creer think 1.48723e-06
maldita wicked 9.83295e-06
¡ midst 5.57993e-09
él man 3.68489e-08
aquéllos recall 1.62273e-05
hacer try 5.44502e-08
llegaron convinced 3.91334e-07
esperarse hoped 3.78033e-05
ahí NULL 0.000138883
entonces least 1.09334e-05
su effect 7.67375e-09
penetraron hour 0.000681836
puntos on 1.60627e-05
varias species 1.34264e-06
antes rigging 7.18234e-08
cinturón teal 1.31738e-06
esa a 2.6831e-06
imponente fury 2.82049e-05
intervino part 0.140826
intervino took 0.00135348
intervino only 0.00358455
consumo increasing 8.1658e-05
ofrecía with 3.8132e-05
excelente good 5.23023e-06
excelente real 2.95383e-05
todavía whalers 3.29665e-07
tratado been 5.41593e-06
saber tell 3.75271e-07
digamos say 1.09967e-05
cuando , 4.311e-05
mediante by 2.84989e-05
los period 7.92083e-09
manteleta sort 4.62054e-05
podría was 9.06457e-06
un grass 5.0986e-09
al without 6.84982e-08
por entered 5.901e-09
pradera , 0.00163051
encontraron litter 8.08749e-07
contentarás satisfied 0.000143762
veras take 3.23599e-06
porque perhaps 5.68134e-08
repetir making 1.89372e-05
colgante lower 9.76683e-05
llegar they 7.81052e-05
llegar NULL 1.63475e-05
eco rocks 8.34389e-06
verdad it 0.00116144
voluntad mind 3.30677e-07
ellas entirely 9.80869e-07
contar another 1.97211e-06
bastará light 8.2565e-06
acondicionar find 6.92157e-05
marcha lengthening 5.2269e-06
allí granite 1.88113e-07
es creek 1.03407e-08
para provision 4.46374e-08
pencroff neb 1.21633e-07
predilecta except 0.115295
predilecta favorite 0.000787006
habrá turned 1.15024e-07
así that 2.79144e-06
refirió how 1.45749e-05
belleza remarkable 7.95982e-05
encuentras find 1.12055e-05
algunos men 2.45225e-07
más syrupy 1.07642e-09
ni difficulty 1.28428e-06
al grateful 7.74422e-08
éstos these 7.9548e-05
acercarse venture 1.34001e-06
menos otherwise 2.98967e-07
esos four 1.98533e-07
comparada compared 0.00419813
misma shore 6.51133e-05
hará NULL 7.35534e-05
? warm 4.12397e-07
? strong 3.82705e-07
cuando on 1.99897e-05
cuando seen 0.00106978
cuando regularly 5.27613e-06
con above 2.86993e-09
tenían green 5.60561e-07
hacen readily 6.3521e-06
colonos some 2.78661e-07
pasó passing 7.52918e-07
bastante considerable 3.03077e-07
tengamos must 3.14445e-05
unos hundred 9.84473e-08
necesitaba had 1.65806e-05
necesitaba harding 2.89884e-06
esquisto buttressed 0.000358166
trozos buttressed 1.39762e-06
hecha given 1.31604e-06
cabeza other 2.47462e-07
pues guard 4.22137e-08
ponerse necessary 2.43535e-06
nieves begin 0.000122457
del waited 5.91417e-09
explorado use 0.23791
explorado made 0.0321145
explorado already 0.000794366
explorado coal 5.79967e-05
emplear proceed 5.35558e-07
grado - 8.42902e-06
australiano australia 0.000234729
ni without 8.7736e-07
encontraban situation 4.65855e-07
empezaba far 2.92299e-06
entrecruzan each 8.55059e-05
unanimidad agreed 8.11117e-05
demasiado strange 6.54902e-08
demasiado so 1.09731e-06
indicación drawn 0.000465502
adonde wished 6.08159e-06
adonde they 6.5065e-05
adonde which 0.000703985
adonde plateau 1.21523e-06
ojazos deeply 0.000178674
tú provided 2.4113e-07
dijo crossed 1.48034e-07
dijo harding 4.07972e-07
no when 2.74715e-08
siendo only 8.7311e-06
preocuparse trouble 1.15569e-05
quiso trouble 3.58173e-06
– my 1.60023e-07
relato him 0.000191646
restos rest 5.39777e-05
tuvo thought 3.06016e-05
respondieron came 4.72877e-06
atención thought 0.000550411
atención giving 0.000129976
atención couch 3.83224e-06
puso ends 1.32692e-07
puso nests 1.85833e-07
enderezaron hunters 2.47654e-05
pena trying 7.88721e-06
creía , 0.000560175
creía he 0.0706446
creía NULL 0.00110468
orilla belonged 2.23935e-07
descubierto have 1.35232e-05
ataron fastened 3.92446e-05
examinaron attentively 1.09839e-05
cresta southern 2.77781e-06
medios doing 2.37368e-06
medios way 0.00161111
medios a 0.000244148
medios always 3.1938e-06
medios NULL 0.00046216
disposición feature 2.93319e-06
muro perpendicular 1.57232e-05
del northwesterly 1.02613e-08
inmensidad while 8.11064e-06
provocada produced 2.74558e-05
supuso declared 9.42577e-05
lanzaron gave 2.44873e-06
arenoso mingled 4.21744e-05
vigilar necessary 1.52962e-05
escapar pass 1.96054e-06
ejército southern 9.04732e-07
encargado herald 2.78888e-07
encargado NULL 0.000684189
después capital 3.39017e-07
pechos lungs 2.6753e-05
aire slowly 1.87427e-07
aire evident 2.2362e-07
alma life 0.0126123
nada more 1.99448e-06
aquellos the 2.79519e-05
¡ maelstrom 2.42205e-05
-a in 3.23199e-05
parado ship 1.17026e-05
parado abeyance 0.066071
parado beaches 8.11496e-06
informó instruments 0.000183317
indicio hull 0.00018053
aquellos their 3.94731e-06
baje back 4.34231e-05
baje get 0.0002589
ya stood 5.96678e-07
atenerse they 0.0002544
con eastern 4.10861e-09
desanimaron refused 0.000978901
cercanías places 0.00012288
cercanías landing 0.000335396
hay escape 9.90656e-07
-¿qué 's 1.28645e-05
dentro before 0.0134079
volví irresolute 0.00378537
retorciéndose steps 3.29601e-05
inferior still 1.66405e-05
hablar about 2.02311e-05
. gigantic 3.25043e-09
millares thousand 8.45308e-06
llenos crowded 0.00190241
. contracted 3.73001e-08
surcadas parasols 0.00154696
extienden islands 2.81263e-05
vuelto longer 1.17317e-05
cuestión point 6.00253e-07
regresaría back 0.000173747
emergido risen 0.000680829
agua injections 4.78668e-05
hay rely 0.000568875
capaz strong 1.57255e-05
. trade 1.13267e-08
. miner 6.83175e-07
26 next 1.99833e-05
puro without 4.23841e-06
renovaba giving 9.83344e-05
ímprobo work 3.20919e-05
les strolling 0.000669437
impulsado along 0.000384065
impulsado swept 0.203888
corrieron opened 3.42706e-05
inútilmente argument 0.000133392
veríamos hideously 0.0201151
veríamos bank 0.00520899
veríamos might 1.76081e-05
-un an 6.85759e-05
salga pull 8.75805e-06
precisamente cut 2.10204e-06
iremos way 1.13706e-05
pendiente path 0.0001949
sólo such 1.72705e-07
sólo bellows 3.44435e-06
sólo fearsome 2.68125e-07
sólo foamed 5.18886e-05
promontorio dropped 0.00071911
exceptuado lobes 0.00868393
salir reentered 2.10695e-06
salir come 2.36961e-07
he before 1.49771e-07
allí 'll 2.22301e-06
hacia sensible 2.96782e-06
podido enjoyed 5.53152e-06
onduladas scrawled 0.014191
temí dread 0.620058
nuestra faster 0.00209618
-son southern 2.47076e-06
cuando recommendation 7.43878e-07
continuaba remained 1.63577e-06
no dive 9.4235e-07
se dive 2.51484e-05
plantas appearance 1.39046e-05
plantas resumed 4.58263e-06
plantas ocean 1.35495e-06
plantas plenty 1.44928e-05
fría section 0.00573351
fría around 2.61663e-05
misma top 0.00528384
capas swollen 0.000121459
basaltos way 4.47831e-05
basaltos gave 2.36174e-05
esas portray 0.00336625
inquebrantable confidence 0.000149119
interrogar ask 0.000191337
durante stroll 2.70186e-06
brumoso still 0.000116131
había emptied 8.43225e-06
decirle inform 0.000724603
-cierto surely 0.00257383
yo piece 6.75186e-07
necesario it 3.3765e-05
necesario so 7.52239e-06
españoles inflicted 0.000194349
españoles pyrenees 0.00370373
mi innermost 2.43532e-07
al reincarnation 6.90713e-05
yo than 6.5677e-07
no barely 2.39817e-07
encima barriers 0.00010643
-dijo master 3.5875e-07
delimitado space 0.000620299
unos ridges 3.39934e-06
mediterráneo ease 0.0394475
mediterráneo here 0.000975074
encuentran encountered 0.0725727
dentro happens 7.25191e-05
huida whether 4.95189e-05
huida attempt 0.0394641
él speaks 6.52724e-06
aceptaría repeated 6.33349e-05
puso 10:15 0.00034772
entre stretched 5.44297e-06
introdujo along 1.6091e-05
reaparecer pilothouse 1.71337e-06
vuelto over 5.1505e-06
! lord 7.74041e-09
-pregunto conseil 0.000515711
comprenderá can 9.05671e-05
-la because 3.50525e-05
aronna.x aronnax 0.000162398
¡ die 9.57482e-09
mal abominable 1.14296e-07
antiguos mistaken 7.35438e-06
dragas dragnet 0.00026693
dragas fished 2.59548e-05
hallábamo walking 0.00717906
unos tiniest 3.39945e-08
forma pronouncing 4.33327e-06
arrendadas annually 0.003956
azulada azure 0.20593
tierra ceylon 6.93756e-07
ala indian 1.86842e-06
consultado consulting 4.41052e-06
tropicales zones 0.00128652
mí rejoined 1.33052e-07
suyos men 2.8961e-05
ese area 2.00971e-05
ese cast 5.38677e-08
ese lamps 6.40944e-05
hallábamos stood 1.01233e-06
sus fists 0.000123242
otra observation 1.01623e-06
ningún danger 1.91796e-07
-mañana tomorrow 6.83553e-05
-¡mira at 0.00430445
sobrevenir events 0.354724
vivos birds 2.13615e-06
¡ catching 3.95121e-09
abría walking 0.0401183
llegaddo arrived 0.000102621
-y canadian 1.25109e-06
-y asked 1.95804e-06
resolvimos decided 1.9746e-05
abría during 7.23638e-06
recolección baker 2.26954e-06
miga bread 0.000403292
. doses 4.70368e-08
animálculos animals 0.00206369
corales coral 0.00128636
cuando of 0.00123872
acusó gave 6.9805e-05
nuestros food 1.10379e-07
sucedido followed 2.7421e-05
informes costumes 0.00667075
introducirse putting 0.00172723
colgadas hanging 0.000262877
ser difficulty 2.81796e-08
-escúcheme listen 2.58158e-05
-tan liberty 2.31984e-05
subía individual 0.000396561
subía climbed 2.59287e-05
cambiara change 0.000635053
así change 2.57515e-07
hizo marked 2.04145e-06
capturado caught 0.0250586
admite accept 0.000636086
transparentes sheets 7.87672e-05
darme taking 3.90016e-05
darme heading 2.29356e-06
diría seems 0.000827243
su reply 5.77523e-09
este our 2.59185e-07
-es 're 6.57215e-06
como same 7.45236e-08
ha us 1.44497e-07
una astern 4.14504e-08
mayor sufficiently 0.000222663
sorprendió compartment 0.000181911
conocido familiar 6.13708e-06
amabilidad good 2.77778e-05
puesto 've 1.45584e-05
comprendo 're 6.74276e-05
meyerbeer meyerbeer 0.964755
¿ exclaimed 1.09122e-08
y sample 6.53483e-10
pescados fish 0.000169947
trataré try 3.80014e-05
hacer something 5.56215e-08
tendrán figure 8.48369e-06
veamos look 1.10761e-06
ahogo pirates 0.00143934
ahogo if 0.000520657
ahogo does 0.000461957
ahogo since 7.88002e-05
ahogo NULL 0.0300546
del chief 8.12867e-08
-respondí- see 7.05271e-06
-ésa that 0.00106499
letra letter 0.000145649
n mobili 0.013676
quiere suppose 1.99236e-06
probable perhaps 1.46252e-05
momento way 1.86325e-07
momento find 4.79078e-08
tales reptiles 2.32815e-05
barril restricting 3.64509e-05
digo saying 1.53182e-07
sumidas sound 0.000131435
sumidas so 0.00297732
sumidas whales 0.844622
es outrun 1.23421e-09
-¿ha 're 8.88581e-06
escapaba shot 0.0831898
-le up 0.00227205
unos helvetia 1.70576e-05
tuvieron remain 0.0615602
existía enough 1.87806e-06
veras that 0.002744
hace figures 6.4402e-05
profundas strata 8.30716e-06
provisto armed 0.00420729
ya crossed 9.01952e-06
llegada reached 0.0330731
marcha making 1.26669e-06
equipaje carried 0.00968246
sentido explored 4.92059e-05
inaccesibles constitution 0.583849
planeta populating 0.00157907
era relegating 8.56077e-05
: distinctly,--'surely 1.26711e-09
partió left 8.04887e-06
completarán done 5.92913e-06
nuevo more 1.70643e-06
confesó said 0.000622362
bajo meridian 2.59443e-06
sus minute 3.41091e-07
he thought 3.66075e-08
sabe understand 4.06535e-07
son mr 1.48969e-07
sentada longer 9.0152e-06
es soft 0.000257498
no soft 1.55877e-07
nada probably 1.78078e-07
¿ brain 5.2578e-05
contra told 7.13478e-07
vivías have 0.00149347
vivías you 0.00103558
buenas views 4.43935e-05
averiguado found 0.000236019
-ya told 0.000277313
usted door 7.01945e-08
llevarme drive 0.156733
compadezco part 3.58706e-05
cuando take 5.31057e-08
quedó shut 1.57679e-07
ventanas paneless 0.00750179
contesté replied 0.17264
azotaba beat 0.000621208
pero june 1.94459e-07
mi while 7.04397e-08
mi waited 6.58037e-08
mi ear 2.4148e-06
fue unconscious 1.80837e-06
sobre whit 1.69005e-05
fresca whit 1.43265e-06
sonrió most 5.54645e-06
qué wrong 1.52623e-08
posible so 1.94413e-06
posible power 0.000210774
posible fully 0.00495638
capaz unchristian 4.05639e-06
mi ran 2.0391e-07
que brother 1.45265e-08
navío east 5.32119e-06
dos months 5.52761e-07
y moods 2.56335e-06
enfermos daily 0.000215418
tuve had 6.92035e-05
jarrones tinted 0.00167996
mencionó tell 5.88203e-05
, happy 3.00546e-09
-quizá yourself 1.5216e-05
usted confused 3.5094e-07
emociona now 0.000166209
trató he 2.54565e-05
-y pursued 1.63382e-05
quien he 4.12617e-06
hace mind 8.08054e-06
-supongo " 0.000634598
sino : 8.90544e-07
sino redeem 8.47332e-06
distinguida high 0.000328405
modesto honest 0.000110012
mi goodwill 1.1297e-07
están seasonable 4.62844e-05
está come 9.33255e-07
siguiendo adhered 0.00644671
siguiendo when 3.3967e-05
disgustados anger 0.00412935
-parece john 1.04918e-05
ese purpose 8.54259e-05
ese for 7.25253e-05
ese building 0.000855731
mí master 1.21662e-07
mí own 2.83336e-07
imposible render 9.63875e-06
-repuso st 1.56044e-06
tan natural 6.88563e-08
rivers imperturbably 1.87306e-05
vivía did 0.000288461
-claro " 0.00296861
charla talking 9.32362e-05
fuera turn 8.91339e-07
echarme turn 0.000144648
llama . 0.000207948
llama gentleman 1.99503e-06
siguiente all 1.48904e-06
siguiente out 1.19048e-06
hallé stood 0.000394077
casa night 3.04944e-07
robar bring 0.000120576
? wonder 2.10628e-08
sólo language 2.07809e-07
pidas ask 0.000530115
de seemed 2.00971e-09
perspectiva prospect 0.214671
volveremos hope 2.05245e-06
erré living 2.46982e-05
tenía acquaintance 6.12666e-07
plantador india 0.00031926
plantador west 0.000149976
tenía mr 1.67912e-05
debes jane 0.000105615
dejé put 8.01015e-06
-me long 4.57475e-06
dios sir!--for 7.37775e-06
rochester- rochester 1.26274e-05
desciende came 0.00645593
dirigía mr 0.0749282
les observed 4.11446e-08
temido dread 0.00015948
... vampyre 5.40874e-07
-me woman 8.68986e-07
¡ sophie 1.20263e-05
de woe 7.39537e-08
podía entreat 6.2514e-05
arreglando happy 0.000434599
arreglando busy 0.00334469
: muscular 1.72777e-07
cada dark 1.02202e-06
concebir enough 8.52187e-05
y pleased 5.45677e-08
libertad conditions 8.2338e-06
ir business 2.41141e-07
muy mean 2.65321e-08
. accompany 1.61155e-08
-¿no may 3.82964e-06
-¿se going 1.63466e-05
desairada deserted 0.00050687
con miss 1.3819e-08
extremo point 3.27751e-06
esposa girl 1.2983e-05
estaba certain 9.9671e-09
estaba be 1.55083e-07
ofrecía drink 2.88599e-05
preparé shall 1.97118e-05
vaya leave 7.26173e-07
su - 8.08851e-07
¡ truant 1.39979e-09
-estaba have 8.51126e-05
diario garden 4.2685e-05
diario kitchen 3.08332e-05
más busier 3.13612e-08
caprichoso head 1.14296e-05
vendría exclaimed 4.99522e-06
en wish 2.19589e-09
la morrow 2.01978e-09
¿ certainly 3.7861e-09
menos time 1.8383e-07
-¿cuánto long 0.00178016
hace season 2.12444e-07
-es you 1.40717e-05
. leaven 2.96828e-09
admirable not 0.000105141
admirable she 0.000539985
admirable one 0.00066333
al tardy 4.78032e-09
asuste put 8.07247e-05
plácida atmosphere 0.000114886
dicho rattling 0.000108976
ocasiones occasion 0.000442703
es got 4.06881e-06
ayúdeme help 3.03884e-05
inusitado quarter 0.000173488
-¡pero but 9.36262e-05
dormí soon 4.94197e-06
vaciando swallowed 0.00318886
él- he 0.000106047
-si jane 1.74544e-06
... not?--and 3.37161e-06
: acquaintance 2.61212e-05
de materials 1.30152e-06
-porque " 0.000195851
reiría laugh 0.00861081
quiere need 0.00751749
quiere gentlemen 4.63546e-05
-conminó miss 8.98063e-05
abandonaron several 7.979e-06
abandonaron looked 5.61292e-05
tocaba flirted 0.00554093
en washed 1.17534e-07
baronesa ingram 0.00123879
-tienes baroness 0.000894894
pensaba quite 1.07458e-06
afectaba vanquishing 2.30213e-06
escuchaban listen 1.03418e-05
rochester power 3.60048e-05
rochester genuine 0.00273398
rochester native 0.000190824
! gazer 9.29709e-08
blancas fair 0.00170011
escabel feet 2.60832e-05
-la her 7.47131e-05
tazas coffee- 0.0302103
divertido habiller 0.0788505
del sweep 1.02145e-06
-¿es does 9.31648e-07
llegaba suppose 0.000321637
fructificar suppose 1
llegaban not 9.525e-05
es like 2.79616e-08
! richly 3.63751e-07
raro affair 1.08442e-06
con nothing 1.11433e-07
segundo fasten 4.98584e-06
dormitorio chamber 1.56587e-06
había hushed 6.19655e-07
murmullo sound 7.23471e-05
hasta chasseed 1.3301e-07
una combinations 5.95066e-08
usted seem 3.9678e-07
usted salubrious 3.87469e-05
usted limpid 8.92009e-06
sus limb 6.52805e-06
y save 1.04053e-07
cumplido pursued 0.00015259
-ya i 0.000649044
mayor brother 5.23296e-07
los piano 2.53186e-09
biblioteca piano 4.31055e-06
biblioteca open 8.07038e-05
biblioteca door 0.039837
ir leave 3.04304e-05
-¿ha have 7.6981e-05
-¿y where 5.82025e-06
contempló searched 0.275495
-quiero like 0.000266377
me re 5.3129e-07
protagonista because 0.0173985
protagonista secondly 0.966469
protagonista dissimilar 0.00847097
al mahomet 2.22515e-07
¡ repeated 2.12996e-07
. neighbourhood 5.45841e-08
sobre answered 1.76015e-05
para pronouncing 9.75315e-08
sus magnitude 1.04538e-06
calma still 0.0668301
calma was 3.4331e-05
charla short 0.000170232
mano door 2.11696e-07
mano thence 3.41143e-07
él returned 3.5038e-08
ventile let 0.00122397
: imposing 3.15647e-08
tan imposing 4.50254e-07
nada half 9.27519e-07
... fontaine 8.34408e-06
mr smoke!--and 1.23142e-06
! manager 8.04892e-07
descendí descended 0.00012631
los quarters 7.40585e-08
interrogué nothing 0.00125693
mucho play 6.75629e-07
sincera second 1.87189e-05
tiene like 5.80154e-07
quizá suggestion 7.88245e-06
creo feel 4.27958e-07
» she 1.04029e-06
-me she 5.89604e-06
-contestó said 5.98636e-05
precipitada plunging 0.675836
poco enough 9.36302e-06
mismo us 2.37603e-07
sentó herself 0.000111003
inocente strength 7.63783e-06
permitan speak 0.000145847
permitan one 0.0641474
: treacherous 6.8149e-07
pero escaped 6.96281e-07
pero might 1.86212e-08
inspectora temple 4.91894e-05
la temple 6.08278e-06
el miss 1.78949e-07
-dijo- have 1.01707e-05
alteró ordinary 5.87975e-05
alteró altered 8.09693e-06
esta clean 1.43825e-07
esta neither 1.62027e-08
manda above 8.70937e-06
balde money 1.26906e-05
decir writing 2.48131e-06
centro top 6.81993e-07
seguramente little 1.56214e-05
: candle 7.44891e-08
blanca large 1.5344e-06
-¡tenga good 0.000299634
brillaba chattered 4.405e-05
sobre through 2.56583e-08
si spoke 1.74245e-07
pariente poor 1.52779e-05
vez might 8.78292e-08
más bonnet 9.19625e-06
más new 8.02321e-08
apagaron out 0.000115908
-¿qué " 0.000537495
sobre dark 1.67727e-06
caía dark 0.000144679
estaba remote 4.8687e-06
cocinas seldom 0.0914231
al equality 7.91697e-08
-llévensela away 0.631896
las accustomed 2.78104e-08
retenía home 0.000100851
corrido drew 0.00103448
largo rolled 1.22568e-05
besaron coolly 0.00352616
quiere preserve 9.19632e-06
alguien wish 3.38267e-06
alguien you 2.79073e-05
ahorra spare 0.00895572
yo anger 9.2049e-08
entraré will 0.000109262
ocuparon and 0.000835891
trató therefore 0.000102958
era ; 1.12622e-07
era accuse 3.83736e-08
los voice 2.38496e-08
devuelve back 0.00921171
sentía found 3.7473e-06
cabo troop 5.4615e-06
metió opened 5.54998e-05
busca look 0.066295
huía fall 9.36227e-06
colaba appeared 0.00138919
un watch 1.14536e-08
palideciendo pale 3.96555e-06
mis persecutors 5.92821e-08
horrible noise 5.30974e-06
hacía became 7.7287e-06
sacó acted 0.0168267
tendréis perhaps 7.37551e-06
venir when 2.146e-05
venir feel 7.46781e-07
sacarme me 0.0164879
estoy be 3.29477e-05
devolvéis send 2.90949e-05
o can 6.93698e-08
si permit 8.66693e-08
marche gone 0.00371682
habréis have 0.000117051
casa him 5.62274e-05
personalmente knowing 0.000103086
hablemos speak 1.54348e-06
mezclaba girl 1.79609e-05
haremos do 1.45068e-05
haremos will 1.0206e-05
pronunciaba pronounced 0.00203607
prudente course 0.00323621
desayunar served 2.09499e-05
indicar inquired 6.44275e-06
maneras gallant 3.33182e-06
caballos fatigued 8.62698e-07
persigámoslo pursue 0.991042
persigámoslo let 0.00011704
as now 3.44975e-05
fuese in 6.87357e-05
fuese although 3.2703e-06
resto share 1.9404e-05
lo simple 3.71364e-08
campaña country 2.72038e-05
manda overheard 6.04461e-06
cerrando upon 0.000112383
humanos feeling 4.71123e-05
agitaba work 1.22429e-05
pasó place 3.91497e-07
sobra saw 1.81534e-05
al fortunately 8.54204e-09
ni doubt 0.000258954
cumple ’ 0.616221
sufriréis undergo 0.013446
contestó i. 2.5043e-06
aún terrible 3.57813e-07
ofrecí exhibited 0.0873259
ofrecí supper 0.000769323
mi supper 4.10595e-08
produjeron events 5.91963e-05
oculta under 1.56559e-05
oscuridad quite 1.68107e-05
oscuridad it 0.00469663
estábamos was 3.1861e-05
prisión upon 2.33276e-06
hasta look 2.84177e-07
sólo merely 1.71851e-05
pena painful 3.69105e-07
momento have 0.000760969
cuánto feel 3.72975e-06
envíen can 9.7172e-05
devolverá return 7.14015e-05
os should 2.03113e-07
divinamente that 0.0019248
principio being 1.14537e-06
hará attention 1.58315e-06
pondrá place 2.18093e-05
dios vengeance 2.24319e-07
había stopped 1.13543e-08
daban upon 3.31092e-05
pues continued 6.89919e-07
él impenetrable 1.125e-06
leáis read 0.00798056
leáis consented 0.957743
leáis painful 0.0109544
leáis ceremonies 0.00429404
dijo doctor 4.00554e-08
ocurriría no 0.000629978
ocurriría just 0.000102599
! fruitful 1.13904e-07
ah has 1.97353e-06
hablar something 1.68072e-07
ayudar assist 0.278451
imponer upon 8.89468e-05
imponer place 0.787144
señorita mme 9.6889e-07
nuevamente once 0.000372513
nuevamente spite 0.00046068
nuevamente NULL 0.00104641
podia he 0.000328575
sus were 0.00114359
esta pronounced 5.12377e-07
si recognize 1.44761e-06
de english 5.63846e-09
prevengo defend 0.00052757
estáis either 2.31045e-06
dando going 1.49382e-06
hacerlo so 1.38517e-05
falte anything 3.12755e-05
aclarad put 0.00237616
siempre officer 1.74838e-07
tranquilizada reassured 0.000358888
totalmente very 7.59213e-06
con threatens 1.72749e-07
éste that 5.06251e-05
es outline 1.45675e-07
demás by 2.77516e-06
muchacho good 4.35284e-05
muchacho latest 6.24326e-05
picardo diminished 0.32221
picardo confidence 0.0101299
ocho four 6.56291e-07
palabre word 0.00277145
para puzzled 1.31021e-09
señores coming 3.23086e-07
más sold 4.27242e-06
carta who 3.2798e-06
precisamente i 3.00827e-05
salvará save 3.07517e-05
decíais ; 0.000100908
tanto england 1.92133e-07
hacer is 9.96609e-07
hay committed 3.61396e-05
hay folly 8.89049e-05
ya whither 4.3754e-07
fuisteis ? 0.00181383
entonces immediately 3.76273e-08
rodeándose route 0.000183308
encargado constable 9.65922e-05
hacer wish 3.64019e-07
su cardinal 3.44659e-08
toda responsibility 7.98219e-06
derecho reason 0.000244458
mejor reason 4.1102e-05
_ believe 0.00618319
_ i 0.0226609
habría we 5.3355e-07
fechoría consequence 1.44647e-05
invitados guards 2.93505e-05
consigo bears 5.4207e-05
una apparition 3.67861e-06
! royale 6.28855e-09
pasar arquebus 8.35404e-05
brindó a 0.00391064
tropa arms 9.73754e-07
pudiera being 5.9875e-07
aproximadamente men 9.11397e-06
realmente real 1.18538e-05
hombre approached 7.43327e-08
miras passions 0.115265
miras profound 9.71521e-05
comenzaban beginning 6.06804e-05
interlocutor obeyed 0.000490962
me something 8.62131e-09
menos ago 3.56608e-06
menos months 1.09232e-07
tenía made 4.6207e-07
serán o’clock 0.000186794
serán already 0.0845644
serán is 0.000113823
muchos rich 7.6285e-06
lo love 1.67656e-08
por both 8.76585e-09
consiguiente you 5.79188e-05
¿ lackeys 1.61564e-07
he attach 1.13253e-06
os entertains 9.46116e-06
casa rushed 6.66827e-08
quién d’artagnan 1.73839e-06
soltó excused 0.0804874
soltó quite 5.58579e-06
cuando till 2.59919e-07
sino stop 2.42386e-06
hecho recalled 3.90378e-08
misma also 8.85326e-08
le beloved 2.44515e-06
traicionarm her 0.00096533
ello he 2.17091e-05
aún impatient 1.99966e-06
introducir orders 7.03202e-06
marearme woman 5.03478e-05
enloquecer wild 0.00909594
cuánto know 3.1357e-06
os given 1.54777e-07
haya should 8.92754e-07
principal great 8.18973e-06
señor due 7.00865e-08
gustado seen 9.66177e-05
esto these 5.08046e-07
dejaremos will 0.000127778
dejaremos we 2.67804e-05
entró embarrassment 3.96139e-05
criado count 0.0192707
por know 2.9452e-08
corría broke 1.96036e-05
abrían opened 9.70947e-06
¡ directly 1.33575e-08
avisos news 0.0377983
quieras - 0.000171284
cierta much 2.39268e-06
coquenard fresh 4.96262e-06
eso what 4.95473e-06
horribles montreuil 6.65555e-06
pequeño came 5.54473e-07
era like 1.17113e-06
vez morrow 4.94059e-08
mundo careless 9.57925e-07
ver showed 2.6357e-07
hacer much 8.82909e-08
veis view 1.41727e-05
mucho occupied 1.04193e-07
privado quite 4.6213e-05
verme so 0.00165735
eso ? 7.32787e-07
retrocediendo springing 0.000310544
sin facing 4.59682e-05
había turned 1.24527e-08
dio turned 1.23075e-06
sitio way 0.000162104
sitio thereupon 0.000296713
cabeza modestly 6.89578e-06
escribisteis wrote 0.209052
verlos either 5.87325e-05
pena general 1.02203e-05
dado d’artagnan 2.78375e-06
cuanto then 9.97043e-07
y athos 1.15904e-08
reír aloud 5.09149e-05
cogería take 0.000775488
instante hesitate 9.06572e-07
diablos matter 1.24618e-05
haríais strongly 1.0344e-05
¿ grimaud 3.28804e-09
acabad fellow 0.000185273
desfruncía did 0.000103828
¡ think 3.00283e-08
¿ presently 4.95357e-08
tan devils 7.99612e-08
paso back 0.00289221
cortejo crossed 0.000419069
cortejo four 0.623994
aquí shots 9.46789e-09
haciendo about 0.0526211
penas anxiety 7.96658e-05
acaso at 4.57836e-05
una resolution 4.15316e-08
os pain 3.72252e-06
force force 0.0014653
tardaba upon 0.000128648
aquella reply 4.99443e-08
quiera heaven 5.75659e-07
adiós till 2.55535e-06
imitar follow 1.24838e-05
asunto thing 4.06599e-07
aburría began 1.55182e-05
didáctica dogmatic 0.0201061
propósito time 1.56536e-05
? shoulder 1.01508e-08
borran lost 0.000110004
sobre mental 7.92889e-08
sobre sort 2.31804e-07
junto snare 2.84393e-06
acabó of 0.00185325
subió went 5.20539e-06
del eagle 5.50973e-05
conceder kindness 0.229023
del payment 3.56908e-09
eso lord 0.00104591
nos sure 1.1706e-06
persona him 3.78351e-06
punta separated 1.82139e-06
tú direction 1.69638e-07
puede without 4.43039e-06
vos anything 1.37978e-07
golpear knocking 0.00149215
mujer she 1.00515e-05
mujer discovered 0.00263919
ante your 2.14847e-06
ciertamente remarked 2.70901e-06
sólo replied 3.79723e-07
sólo " 0.00771919
casa enter 2.7644e-07
su passage 2.49061e-08
anillo cast 5.28917e-06
permaneció waited 0.000472171
demás velvet 1.59416e-07
hallaron all 0.00785565
iban dressed 1.46291e-06
desconcierto trouble 0.00284661
les feared 3.10243e-08
les faltering 5.46777e-06
gradas steps 1
colación consisting 0.012709
arzón similar 0.00194995
arzón furnished 0.00234435
debo am 6.02397e-06
entendámonos each 6.63734e-06
pagadas paid 0.00146328
de nobody 8.50552e-09
una nothing 2.39455e-08
esa stole 4.79765e-07
salones apartments 0.00454079
ante upon 1.13222e-06
tomar both 1.176e-07
rompiendo opened 0.000109618
agujerearme gave 0.00137201
punto pale 1.26676e-05
tal pale 3.78378e-07
! governor 2.13311e-07
brazo hand 1.1648e-05
nunca jest 7.10815e-06
seguido with 6.5052e-05
dónde that 6.48939e-06
visar examined 0.000808265
dos each 9.19845e-07
hacerle have 1.73048e-05
un d’artagnan 0.000110124
llegará can 2.10214e-05
acostarían sleep 0.000183494
matad fellow 0.00296514
matad kill 0.98271
coro shouted 0.000280755
tenéis must 4.79045e-07
tomar to 0.0195856
tomar go 1.54733e-06
ibais about 0.000178867
puso went 5.01192e-06
eminencia money 4.37008e-07
todavía obstacle 8.91844e-06
bueno " 0.000131903
daréis give 3.95038e-05
ya condition 1.50579e-07
sabíais compromise 0.00495276
sabíais knew 0.000463338
sabíais you 0.00209841
aunque during 6.65257e-06
punto reached 3.13854e-07
punto walking 1.0884e-06
cuál madame 6.15595e-07
haceros render 0.00228465
quiera wish 5.95437e-06
preocupaciones trouble 0.000577934
podido get 5.6386e-06
él sire 1.78334e-08
me precisely 2.06676e-08
estuviese better 6.7585e-06
estuviese being 0.000232679
estuviese excellent 3.66352e-06
pensó fancy 7.65997e-06
pensó began 1.20339e-06
reina dignity 9.82979e-06
prometo answer 3.12196e-05
sois it 0.00019938
sois since 2.34011e-06
interior home 4.92459e-05
seréis happier 4.19015e-05
el duke 2.59402e-09
cuya expression 1.30822e-06
cuya an 1.92993e-05
propia queen 1.50126e-05
cabo within 0.00786925
presentaba wait 2.15555e-06
estado was 0.0111179
produjeron made 0.00827641
produjeron words 1.41923e-05
prisa quick 3.36335e-05
eso them 1.564e-07
parte admirer 4.97894e-09
parte suspected 0.00203265
impasible there 3.21149e-05
fuerte something 1.82631e-06
engañaba deceived 0.000601296
de duchesse 1.62745e-07
orfebre repaired 0.000502474
reparar it 0.0036241
veía perceive 4.72062e-05
llama is 0.000197238
respondió what 5.70863e-07
ha think 5.86766e-08
aspecto carriage 2.30201e-07
estoy came 0.00755278
estoy i 0.000295236
estoy how 8.81862e-07
semisubtenánea subterranean 1
quizá insanity 4.25103e-06
mí provided 0.00144026
! seeing 9.64137e-09
pude able 0.000316839
podido prevent 1.64252e-07
sorprendente beauty 0.00016125
que object 2.70002e-05
pie bottom 3.00833e-06
momento exactly 1.11405e-07
pide content 0.14698
pide thus 1.19136e-05
al curiosity 3.6503e-08
! imprudent 7.00479e-08
dominaba influence 9.10914e-05
lo question 1.12125e-08
pensó near 8.69557e-07
su observe 6.10491e-08
cuanto see 0.000407731
hagamos let 3.31418e-05
largo homeward 5.37497e-06
eran twenty 1.05793e-07
medio through 5.36583e-05
asustada bonacieux 6.5676e-05
acostaban bed 4.44268e-05
guardar form 0.00972978
; ! 7.10988e-07
voz mouth 6.66431e-08
ser and 6.89629e-07
quedaremos enough 9.78376e-06
entreveía get 0.000301275
buen nice 4.64157e-07
tuve duty 0.000231628
exigen require 0.00411472
tendrá have 3.07124e-05
ningún honor 4.74119e-07
así as 3.76348e-05
venían were 1.06358e-05
! how 3.12826e-08
tenéis had 5.49259e-06
portamantas dowry 0.000104751
los feasts 4.60831e-07
belicoso name 0.000739923
prescindió made 0.000326513
cara carriage 1.71874e-06
y doing 6.61638e-09
traédmelas them 0.000249142
más reverence 4.4726e-07
exija require 0.000962195
sacar obtained 0.000438691
esguince was 0.00424485
esguince NULL 0.00398924
sobre felicitations 2.91253e-09
pues monsieur 9.63286e-08
contestado told 0.00014955
placer sport 1.02363e-06
d'artagnan out 4.99807e-06
más fell 4.13909e-08
tiene had 1.63682e-05
bastó determine 0.000122853
verse possible 1.58803e-06
ingenio murmured 3.92164e-06
ingenio fellow 2.79599e-05
enrojeciendo porthos 0.00104046
athos , 3.06726e-05
! thereby 1.39754e-06
esencial part 0.000224064
mí can 1.65724e-06
requerirme ask 0.000458424
dijo say 3.07956e-07
irguió drew 3.91527e-05
ante smile 4.26046e-07
todas blasphemies 8.75317e-06
señor the 3.47976e-05
señores sir 9.02524e-06
me two 3.52581e-06
lleno carelessness 0.000117422
le your 8.75946e-08
habríais would 0.000113108
volvieron said 2.72983e-05
viene obtained 8.31194e-06
desde lofty 1.69622e-05
tuvo leisure 2.25544e-07
despierta warm 0.00202931
imaginación warm 5.64212e-05
otro ear 1.07644e-05
primeros steps 3.52994e-07
émulo equal 0.0151843
cuatro time 1.78245e-05
esta deception 3.2438e-06
siempre will 3.87612e-06
me customers 4.8832e-07
directamente soon 3.07594e-06
muchacho young 1.06586e-06
nombrado no 7.26328e-05
buscad seek 0.000251894
banderín standard 0.0241869
sabio friend 2.45098e-05
recibieron became 2.17704e-05
mi whose 1.51712e-07
yo saying 4.69758e-08
únicamente in 0.022455
ninguno quitting 4.75112e-06
granitos granite 0.935522
lincoln winter 2.33334e-06
isla spend 2.02542e-05
esto enough 6.69424e-08
dijo might 8.64295e-07
. mouth 1.92823e-09
creyeron colonists 1.06229e-05
querían hoped 9.93613e-05
isla cultivated 1.48403e-06
asilo cultivated 0.0052104
isla peril 0.00054525
quizá question 0.00146978
trataba even 7.62627e-06
animales order 4.28785e-05
fondo head 4.58873e-07
bajo paused 6.36497e-07
parte up 9.25861e-06
quemado partly 5.58295e-06
y answered 5.95902e-09
sufría subjected 0.000101119
fenómeno corral 5.16553e-06
disolverse itself 0.00306115
apenas cyrus 6.65909e-07
erupción morrow 2.57893e-06
contados many 2.14458e-05
fueron -- 2.6343e-06
¿ us 2.46283e-08
surgía forth 0.00582995
surgía shot 2.39527e-05
surgía flames 0.000562536
extraño wondered 2.0598e-07
buque might 3.63448e-07
atentamente expecting 1.32352e-05
apagarlo out 0.000279082
elevaba rising 3.37712e-05
contemplar joined 2.83241e-05
con object 8.7016e-08
pasar difficulty 9.43366e-07
pernos deck 0.0003713
estaba sustained 1.39982e-07
capitán longer 8.02957e-08
capitán he 0.000502581
así gentlemen 4.21534e-08
pasados sojourn 8.20367e-05
– captain 2.11681e-08
permaneció silent 6.56366e-06
aquellos frightful 1.02826e-06
universo earth 0.00204559
arsenales dockyard 0.00527875
sabe you 7.12502e-06
creído death 4.9607e-07
mío " 5.97264e-05
todavía powerful 9.88409e-06
lentamente bows 7.62522e-06
lentamente harding 4.09072e-06
hombres man 9.94639e-07
globo crypts 9.30998e-06
globo natural 2.6386e-07
globo world 3.38998e-05
interior projection 1.16513e-06
poseídos prey 0.000486572
extenuados quite 2.14632e-05
suspendido NULL 0.00447851
sus course 5.15342e-08
latitudes lower 2.3717e-05
rigor severe 0.000317751
vivir for 3.92066e-05
vivir necessary 2.12764e-06
ninguna attacks 1.90128e-06
adiestrados driven 0.999398
adiestrados either 2.92097e-05
del direction 1.57446e-08
del rendered 1.03144e-07
época most 1.46176e-06
finalmente in 4.74266e-05
habían should 1.08569e-07
totalmente then 1.25876e-05
aumentaba sonorousness 0.000158805
aquel daybreak 2.59156e-07
se pieces 1.95127e-07
profundamente ground 1.33362e-06
fuera at 2.53465e-06
vez answered 8.12685e-06
volverlos hope 7.72921e-05
casa ready 1.14843e-07
replegó back 0.000215434
vigoroso healthy 0.0015894
porque off 2.50203e-06
magnificencia magnificent 2.85605e-05
erraré its 0.000557639
distanciaron speed 0.00464595
distanciaron prodigious 0.398308
les cost 1.94655e-06
fijó settle 7.40369e-06
conservaban had 0.0108447
conservaban still 0.000772943
onagros stable 0.000500491
las upper 8.3109e-09
y ground 1.59693e-09
febril sleep 2.10089e-05
negro meet 2.47405e-06
marchemos go 6.56972e-05
sitios messenger 1.60877e-05
esta therefore 5.34956e-05
examinaron factory 0.00163341
llevaba this 7.60976e-06
siquiera only 7.3555e-06
irían went 0.000138885
tenían attack 7.30238e-06
? denied 7.22457e-08
bah return 0.000978952
estaba subjected 3.66234e-07
hay well 1.55689e-07
recobrara becoming 0.00160368
harbert him 1.08042e-06
creía stop 8.73122e-07
muerto been 0.00070668
muerto had 0.000216671
muerto it 6.30199e-06
muerto if 0.00731423
muerto ; 5.52162e-05
con sent 9.96987e-09
emoción anxiety 5.73609e-06
estaba lying 1.58156e-06
los regularly 1.38914e-07
primera least 2.54716e-07
vuelta companions 3.61895e-07
través along 0.000119953
obtuvo 11th 5.70173e-06
busca NULL 0.000104254
limpiar rid 0.00332755
limpiar here 0.000107471
aquí she 1.60948e-06
gente suppose 0.0500459
gente men 0.00124976
eso after 6.63077e-07
volviese fetch 0.000160936
vivir our 3.50898e-06
batería house 2.35895e-05
batería granite 0.000110862
batería present 4.18176e-05
nuestra pacific 2.03553e-07
se pencroft 2.95654e-08
pensar believe 3.43673e-07
llegar everything 0.000665843
él often 4.20461e-09
tablas timbers 5.43327e-05
pañol course 0.000127542
veamos the 0.000283232
pareciese vessel 7.00373e-06
? far 3.12826e-08
situación more 2.75555e-06
tierra approached 3.98471e-08
continuamente did 6.82055e-05
recorrían approaching 0.000175053
lo approaching 6.77381e-07
entraron maneuvered 0.0015502
seguido rounded 0.0176004
costados side 5.58761e-05
ir be 2.82709e-05
menos than 3.25497e-06
presentó appeared 2.64283e-06
intencionados made 0.000102928
alerta qui 4.49327e-06
desaparecieron drew 0.00253803
desaparecieron others 5.22371e-05
nioniento moment 0.0945916
son were 5.89623e-06
un governor 3.20527e-07
: settling 4.45303e-07
suceder be 0.000142858
era information 4.22403e-08
este but 1.01044e-06
haciéndose out 0.000945903
perdieron before 5.07969e-05
haberlo had 0.000191388
acercándose going 0.000104509
he be 4.51215e-07
siguió rapidly 5.61518e-06
él " 7.91918e-07
completamente sheltered 5.38791e-06
abrigado completely 0.00412526
resulta result 0.0243703
– bay 2.14826e-09
experiencia you 7.89938e-05
del bay 5.91483e-07
raros trees 2.38734e-05
parte northwest 9.33072e-07
llegó even 0.0225076
mares duncan 1.37815e-05
depositar place 6.14672e-05
colonos they 2.66296e-05
acababan they 0.000157796
adelantó by 0.000654868
terminaron ended 0.000823748
retrato successful 4.015e-05
retrato most 0.00135111
recibió moments 4.47027e-05
poner place 2.08629e-05
poner sufficient 0.000101502
tender stretched 1.30745e-05
cercanías direction 3.49599e-06
a interrupted 7.27603e-09
quiso would 1.49141e-05
y thousand 1.40119e-08
irlanda picked 0.00104724
futuro time 4.15302e-06
darme NULL 0.00190953
jabón exhausted 8.22533e-05
gire it 0.000317045
gire for 0.000797271
designado soon 9.77613e-06
armazón rest 1.87072e-05
formó made 0.000480144
grandes stones 8.3665e-07
varias some 5.18008e-05
meseta under 5.82899e-06
hallarse not 0.0174638
verdadera not 1.76199e-05
hace twelve 2.47543e-07
magnetizado subject 0.00110924
puesto can 2.68472e-06
podido mistaken 2.65376e-05
hubiera be 1.3826e-06
ninguna reason 9.56311e-07
conjetura point 0.000925303
e dwelt 3.45933e-07
zozobra degree 0.000980819
zozobra uneasy 0.001211
dormir nor 0.0422396
aspecto expect 4.32911e-06
presentada presented 0.000126438
comida eat 5.81045e-07
mirada faded 8.64591e-07
trató make 0.000147903
cuanto frightful 1.13948e-05
oír these 4.26613e-06
completarán tools 0.000991618
– might 3.55747e-09
estos such 2.16888e-07
parte shore 1.31143e-07
por exploring 3.44936e-07
tabor contrary 3.47665e-06
! astonishing 3.72688e-08
considera take 5.48048e-05
nosotros on 1.05025e-06
encuentra see 1.26079e-05
cuando where 1.98148e-06
ahora us 1.01065e-06
ahora wanting 1.45396e-07
ahora destitute 3.20864e-06
quedaron entirely 3.77708e-06
cargaba lighted 6.23221e-05
un tremendously 1.90584e-06
claridad day 2.3485e-06
los assailants 1.29797e-07
refería regard 0.00339762
refería inevitably 0.00107927
bajaron foot 9.68912e-05
... remember 8.24997e-08
tomó taken 4.15584e-07
aquel its 1.38179e-06
tiene there 8.27849e-07
cortaron cut 8.10024e-05
naval boat 1.37067e-05
descubrimiento it 0.00820603
olvida forgotten 4.38319e-06
esperarse expected 0.424884
hallaron settlers 3.46517e-05
fortuna valuable 0.0173334
los feeling 3.679e-08
tratado only 0.000638257
hecho drawn 3.57995e-06
seguirían leave 0.000272046
marino employ 0.00285913
exactamente occupies 0.0130155
cuando led 3.59612e-08
decir rather 0.00284942
funcionar acted 0.0018146
aparte back 0.298473
las feared 2.21738e-08
acontecimiento occurred 1.49744e-05
acontecimiento importance 0.00613674
tuvieron reason 0.0045082
escogieron there 0.000556199
parecía would 1.14802e-06
cambio other 0.000801375
cuadra yard 0.122447
bayo colored 0.0180302
un terror 9.17904e-08
. servant 3.68326e-08
el servant 2.77838e-08
y belong 4.02699e-09
echado down 4.23616e-05
sobrecogidos seized 0.000288059
– fight 1.58166e-08
los anthropoid 4.7212e-06
otro the 1.452e-05
llegar were 0.0134953
toda against 1.08177e-07
tela case 0.000112711
– pardon 5.3729e-09
camino away 0.000104663
camino cut 1.29758e-06
arrecifes rocks 0.0553305
volvemos return 5.6497e-05
permitirían shelter 0.905175
encontrar which 4.53633e-06
encontrar long 0.0146335
formarlo extending 0.0110405
nab watched 1.00898e-06
nab also 7.05243e-08
ahorraba gained 0.000115835
algunos castaways 1.83559e-05
? itself 1.65758e-07
? went 9.59579e-09
serían be 5.30573e-05
serían should 1.0962e-05
serían that 0.00017526
serían resolved 4.40497e-06
izquierda specimens 3.54141e-05
izquierda magnificent 1.64619e-05
útil use 0.10659
urgente which 8.5749e-05
varios numerous 1.91584e-06
correría driven 0.00260009
punto pointed 4.17125e-07
dejado chelonian 4.46887e-08
ganar reach 3.91843e-06
parte yet 2.15155e-07
: that 1.42229e-06
cansaba but 0.000532938
dirigiéndose turning 0.000207086
– must 1.62875e-07
intensos cold 7.82833e-06
climáticas climate 0.0237805
serán NULL 0.000575867
provendrá gradual 0.000166473
morirá end 5.03264e-06
coralígenas coral 0.00167583
coral insects 3.28836e-06
comían around 5.43703e-05
comían looked 4.7239e-05
esos thousand 2.14086e-06
esos hundred 5.28874e-07
adormideras plant 0.04918
arrastraron dragged 0.024567
corresponde thirty 6.95124e-05
señor thirty 4.37209e-08
teniendo of 6.81428e-05
barquichuelo boat 0.000297777
ancha long 0.103007
consistió work 4.90341e-05
comprendida just 0.00039751
comprendida be 6.99342e-05
comprendida found 0.3378
cuanto will 9.90155e-07
cortó took 7.20169e-06
tengamos care 1.09905e-05
animal dog 3.23835e-07
subterráneo passage 0.000606815
hacían made 1.09605e-05
menos NULL 6.34376e-06
al than 1.39278e-07
desagüe where 8.56561e-06
del looked 1.22732e-08
nuevo into 2.4976e-06
nuevo time 2.40378e-06
misma NULL 1.37152e-05
alfombraba grass 2.82815e-05
crecían also 3.17702e-05
vinieran came 2.17983e-05
de above 3.06118e-09
155 fifty 0.000621087
mediodía determine 8.93974e-06
alta at 6.29394e-06
según presently 1.71849e-06
prefiero would 0.000509131
37 degree 2.51456e-05
grado seventh 0.00109539
grado thirty 0.0389224
base stick 1.63247e-06
proceder differently 3.57586e-05
las observations 2.93898e-07
preferible important 2.21436e-05
humeante cool 0.000564102
escapaba where 8.86593e-06
averiguar know 0.000275194
entrecruzan other 0.000403143
entrecruzan crossed 0.0525632
pena looking 4.0815e-06
casa interrupted 1.49916e-07
no which 1.27219e-07
diera immediately 9.63672e-06
diera color 1.68429e-05
le having 4.17985e-08
dueño signing 0.000147453
por looked 1.07696e-08
ponía substance 3.55878e-05
empleaban facilitated 0.000740816
escasa how 2.24307e-05
“ what 4.61905e-05
meridiano town 0.000243951
démosle give 1.5067e-05
poniendo which 0.000644329
lugar nomenclature 4.90375e-06
interrumpió cried 8.79859e-06
marchar mark 3.66488e-05
nada zones 1.7102e-05
nada temperate 4.60803e-05
; such 1.15481e-07
formaba marked 0.000259905
una roadstead 2.57662e-08
formaban closed 1.41577e-05
era fatigued 1.8837e-08
las approaching 6.7581e-09
mató killed 0.0130652
pedrada stone 0.000391166
quizá willingly 3.15034e-06
acusaba had 0.00898521
ojazos eyes 0.000206414
guiarse find 9.48333e-05
hallaron still 9.35391e-05
hallaron were 0.0130621
– hunters 7.00265e-09
mil to 3.08605e-05
mil six 2.63797e-07
mil estimate 8.85607e-07
marino done 6.58627e-07
marino nothing 2.18405e-06
del something 3.08702e-08
era that 1.63212e-06
– . 4.87559e-07
– dear 7.09602e-09
restos divided 0.00965433
restos little 0.0577202
él longed 2.05354e-08
hubiera desert 5.78789e-08
dando under 6.03959e-06
cama tossed 3.21947e-05
tardó was 0.000123618
después concluded 8.99287e-07
violencia coast 9.43222e-07
sobre best 3.34848e-08
mordieron attacked 0.000678055
porque difficulties 4.15576e-07
creía did 0.00424465
faltaban among 4.24037e-05
bolsillo knife 4.40746e-06
más thanksgiving 1.33605e-08
necesitaría have 0.000522518
estuviera NULL 0.00032405
previniendo in 0.136906
¡ lost 1.07661e-08
salió rushed 9.13883e-08
vegetal fastened 0.000411574
pájaros are 0.00260298
estar have 7.20708e-07
bajara turning 7.16688e-05
bajara awaited 0.000910117
esparce spread 0.000181901
marea -- 1.20625e-05
adelante course 1.00441e-06
una somewhat 4.39546e-07
formando widened 5.22598e-07
inmensidad gloom 8.88028e-05
anunciaban indicated 2.16346e-05
cuando voyagers 3.74505e-07
estaban was 8.44954e-05
de recognized 1.33615e-08
agujeros every 2.78544e-06
vez tears 8.38519e-07
vigilar weather 2.9067e-05
puesto produced 2.74861e-06
alegría pleasure 0.000382648
iban thus 2.3362e-07
posible do 2.29892e-06
resultado useless 6.01755e-07
fue the 1.9327e-05
unos can 4.12638e-07
nos execution 0.000840258
noruega limited 0.115141
así conclusion 0.00114476
igualmente closing 0.117134
cerró closing 5.15501e-06
cerró likewise 0.0266164
le skiff 5.98702e-07
advertido saw 0.248887
fijaba picture 0.00146549
erizados end 0.0205599
erizados standing 0.369774
me rushed 1.11602e-07
comprendí understood 0.0269378
pero went 3.71689e-05
cinco seven 1.41776e-06
nosotros off 9.18588e-05
oía hear 1.41573e-06
opinión coolly 1.02348e-07
opinión replied 4.86578e-05
implacable feeling 0.467402
baje inside 0.0441891
honrada people 0.0295344
formidable sequence 0.0052371
debía case 2.75365e-07
supuesto called 4.74134e-06
supuesto this 0.0535345
atenerse stood 0.0216215
yo follow 6.83035e-09
avanzaba coming 0.0702087
-dígame me 3.36399e-05
-dígame tell 0.184726
éste captain 0.0073408
superficie avenger 0.00171687
un rays 2.98862e-07
calma smooth 0.0327558
haber glimpse 0.00292702
varios damage 0.0117235
contenida enclosed 0.141567
contenida material 0.0372711
contenida textile 0.00299324
contenida gutta 0.000897214
pues mountain 4.45526e-05
pues call 6.73464e-05
pues peak 3.31872e-06
acompañan follow 0.0110627
brumas chiefly 0.0736902
brumas caused 0.00021163
reposo place 5.28324e-06
reposo resting 0.0532894
hubo needed 0.0113776
profundidad again 5.82651e-06
-jamás never 0.000893019
mientras tone 8.63269e-07
mientras apart 9.58368e-08
trabajando work 0.00272708
-¿qué do 3.78429e-06
-¿qué oh 5.38704e-05
él closer 8.86006e-05
prefiero things 1.86011e-06
actuara action 0.00217443
mismo ned 5.62024e-07
quiere me 0.00255972
quiero strictly 1.44125e-05
quiero once 1.46043e-05
eso though 4.32992e-07
cuyos seemingly 0.0105536
grande big 0.0113901
obtendría supply 0.698907
salir leaves 0.00300579
sorprendido experience 9.01541e-07
poder navigating 2.17732e-05
su reverted 2.67152e-08
uno seamen 4.16097e-08
uno top 1.05388e-07
uno stationed 0.00137216
usted turn 4.41376e-07
estallar off 0.289899
estallar go 0.0356743
las electric 1.69063e-08
-subir rise 1
un collector 4.19169e-07
después followed 1.08307e-06
era miniature 6.51982e-05
mientras conseil 1.59213e-07
-¿los its 0.00229125
-prosiguió went 9.46396e-06
-prosiguió conseil 0.00265964
negarse denied 0.000325413
maniobrar maneuver 0.000321617
-así n't 0.000117143
él believe 2.23182e-08
razones grueling 0.0191351
razones state 2.91551e-06
hubiera managed 0.0016533
para hamper 2.64987e-07
ancho enough 6.34911e-05
del greenest 4.08484e-05
defenderse resistance 0.130829
defenderse offering 0.000737216
desarrollado unchecked 0.102469
desarrollado increased 0.000118114
navegó leave 0.575478
navegó n't 0.0104883
fuga plans 7.65506e-05
filamentos smooth 0.568926
-afirmó then 0.0082579
pensábamos thoughts 1
no settle 9.64208e-08
observación happen 1.14875e-05
observación shore 1.02108e-05
regresaría going 0.00584508
superior than 3.50094e-06
superior better 0.0157963
hablaba word 8.33122e-05
hablaba say 6.10001e-05
alimento heedlessly 0.0121682
reclinado lying 0.0726605
ya nearly 1.62797e-07
hablar say 8.83781e-07
del rose 9.99086e-09
evitaremos escaped 0.172005
mis ! 0.000220353
mis short 0.000104528
mis lungs 0.000792254
-pasado after 0.06238
partes gaining 6.81254e-06
retornamos returned 0.000107862
para digging 6.72392e-05
hacerlo precaution 0.000284923
puro through 0.00140102
puro oxygen 0.0441755
puro fresh 2.08184e-06
aire clean 0.0117687
rehusará turn 0.0265788
sea anything 1.42121e-07
vuestra predicament 0.000718018
inmóviles effect 5.01851e-05
palidecí pale 0.0273766
palidecí grew 0.000647559
-dijo repeated 4.81519e-05
parecer sound 0.00870587
-entonces and 0.000232313
cabeza- head 5.89747e-05
confundían streaks 0.00712049
-¡cierre close 0.975702
-¡cierre master 0.022259
podíamos could 0.00549585
cesaba stop 0.00427067
producido . 0.00374644
producido about 0.0884965
producido came 0.000126279
salga 'll 0.0174369
ruidos sound 0.130789
me heeled 2.87532e-10
mostró looked 0.00279172
algo gone 2.02377e-07
iremos make 3.64411e-05
cabe high 3.56364e-05
estaré 'm 0.000169551
estaré mean 6.69787e-06
me shared 1.30977e-06
-está 're 0.0292417
-no attacked 0.00176417
graníticos cliffs 0.393662
graníticos granite 0.00991607
. cruising 2.43547e-05
era hiding 0.000165364
hacerse do 0.0978228
hacerse we 0.00481095
polo here 0.00172914
dirigíamos proceeded 1
-¿estamos are 0.89031
libre ! 0.00099053
abandonaban pressure 0.000803979
abandonaban leave 0.368236
llegó by 0.000310931
prisioneras imprisoned 0.999986
descender delay 0.00397939
descender submerged 0.067765
volverán back 0.00391658
volverán come 0.00567166
del favor 7.52029e-08
eso giving 0.00145454
ha solidified 0.000246215
excitado carried 2.51048e-05
he has 1.45424e-05
-le south 1.81455e-07
? farther 6.30251e-08
-¿piensa think 1
esto well 0.00308859
quiéralo whether 0.000984061
me irritation 4.23557e-08
convulsión convulsions 0.168802
fin latitude 0.000236257
aquéllos former 0.387942
aquéllos facets 0.000113132
dos udders 8.35048e-08
dos draw 2.34906e-08
precipitamos rushed 0.00138742
tanto risks 0.000784372
pasar opponents 8.0341e-05
cazar simply 0.00248645
años time 8.34509e-07
años long 3.06314e-06
dijera told 0.000673453
-como like 0.00101106
del depths 8.2186e-08
conocerlas know 0.001694
respuesta hear 5.71772e-05
durante over 1.18629e-06
mil liters 9.25024e-08
fáciles easy 0.742574
-quisiera put 0.121865
mi purpose 0.000544708
perdidas lively 5.44895e-06
tal mechanism 0.00262307
sus metal 0.000483211
enviar take 5.36931e-06
discutiera discussed 2.24817e-05
los margins 2.8036e-05
largas tentacles 1.72995e-06
brazo ring 9.02467e-05
brazo accurately 0.00138704
yo afraid 0.000473099
sus embankment 6.04106e-07
mezcla mixed 0.164265
-¡mire oh 0.512363
hubiera volcano 0.00128453
conglomeraciones stones 1.33106e-05
conglomeraciones pudding 0.749321
buscar see 0.0137606
cuanto but 0.00375628
más perfectly 3.39809e-05
esta accordingly 0.000918693
-¿podremos we 4.56875e-05
-entonces captain 1.09168e-05
geológicos transformed 0.000817801
estas waters 4.25395e-06
estas its 0.000180478
le light 1.57041e-05
le want 1.20731e-05
tapados open 0.695759
vida bygone 0.00181795
épocas contemporaries 0.0654576
consignó deeds 0.885228
consignó lofty 0.0254806
hacia over 0.00243284
rocosa meters 9.75341e-05
sigue come 2.95136e-05
antehistóricos times 0.00114263
esas rocks 7.69811e-07
marchábamos walked 0.488838
me everything 3.17463e-08
durante walk 1.72983e-05
durante exhausting 2.96722e-05
asomó clouds 1.83156e-05
asomó made 0.391727
land tried 6.15739e-06
precedido emptied 0.0800198
de selfishness 1.18756e-05
restos hulks 8.22638e-08
restos disemboweled 0.00944836
incendió burned 0.35447
concertado signed 0.425004
escúcheme carefully 9.2373e-06
escúcheme listen 0.802296
sentó out 0.0009578
sentó stretched 0.0028841
camarote glued 0.00267467
detuvo fell 0.0241895
pasaban struck 0.0695244
muchas thousand 1.33125e-05
únicamente nothing 7.01824e-05
yo less 7.64277e-05
eso suddenly 7.09295e-08
cerrar after 0.000276202
cerrar NULL 0.00775234
ejecución put 3.02047e-06
omitiendo leaving 0.999944
omitiendo catalog 5.57783e-05
permiso conseil 0.000113023
-¿dentro how 0.999473
sol restore 0.00627639
unos turtle 0.00285089
región basin 0.0381179
que going 1.36184e-08
terminado end 0.0239227
terminado come 0.000241496
apoyé leaned 0.146074
continué working 7.01312e-06
créame sir 0.392041
usted swimming 4.24239e-06
aronnax ned 0.0163795
pude help 1.73309e-06
ned bachelor 7.42139e-06
ned completely 0.00574542
vuelo farewell 0.00117623
dé farewell 0.000903493
dé fond 0.000513573
-usted ned 1.28846e-05
-además more 0.666955
algunos minutes 0.00305186
algunos of 7.49984e-05
algunos matter 6.56492e-07
introdujo went 0.00374709
sumergirse return 1.07007e-05
sumergirse waves 0.30927
sumergirse beneath 0.00243854
sumergirse sink 0.000179309
desplazaba reduced 1.76766e-05
vuelto rolled 0.0115029
mantuvieran keep 0.167456
compañeros men 3.34021e-07
-gritó said 0.0820354
-gritó he 0.000171153
-gritó exclaimed 4.47151e-06
herir hit 0.0221398
golpea whales 0.669966
justicia regarded 0.00108272
porque carefully 0.000880479
del attack 2.09845e-07
jamas never 0.00103033
¡ excitement 1.74311e-07
trémula excitement 0.0458187
-exclamó me 0.000102871
-exclamó told 1.94803e-05
-exclamó sir 9.87583e-05
-dijo whale 4.30265e-06
-pregunto asked 0.0571996
dibujaba looked 0.00106135
dibujaba east 0.0176607
dibujaba coast 2.08179e-05
sumergió beneath 3.37761e-05
sumergió went 2.62317e-05
-¡en in 0.00147745
recorre through 0.00218259
recorre gone 0.000264113
-hasta until 0.079146
antiguos reputation 6.7988e-06
mal reputation 6.45923e-08
sus reefs 2.69501e-07
sus currents 2.32471e-08
sus nor 0.000450748
observar wonders 1.58644e-07
observar hidden 0.0171937
ya staying 3.75564e-07
ya sometimes 3.15023e-07
embocábamos entered 1
yo reached 8.33735e-08
yo convinced 0.000189111
dudara hesitating 0.995715
navegar traveling 0.015312
-yo but 0.000308058
mil 16,220 0.000983188
país land 8.25669e-05
país same 1.17078e-05
estas impressions 0.00160975
-ordenó said 0.027409
capitán latter 0.00215536
una dreadful 0.000180116
lanzó shot 1.84159e-05
ningún threaten 0.00142039
fondo foot 3.70731e-06
llevaba into 2.65769e-06
llevaba taken 0.0350561
momento cave 0.00169724
repente then 0.0153363
repente just 0.0348852
claridad waves 2.14595e-05
claridad sufficient 0.0267563
rareza sights 0.118072
desaparecimos disappeared 0.000477368
hacia craniums 6.6992e-06
cinco of 0.00524071
ponernos put 4.23916e-05
