1 1 100 1 1
1 2 100 1 1
1 0 100 2 0.0324313
2 0 100 2 0.967569
1 1 100 2 0.779815
2 1 100 2 0.220185
1 2 100 2 0.113116
2 2 100 2 0.886884
1 3 100 2 0.105879
2 3 100 2 0.894121
1 4 100 2 0.000311668
2 4 100 2 0.999688
2 5 100 2 1
2 6 100 2 1
2 7 100 2 1
1 0 100 3 0.25064
2 0 100 3 0.111875
3 0 100 3 0.637485
1 1 100 3 0.972488
2 1 100 3 0.0237464
3 1 100 3 0.00376592
1 2 100 3 0.227559
2 2 100 3 0.658602
3 2 100 3 0.113839
1 3 100 3 0.00735501
2 3 100 3 0.474964
3 3 100 3 0.517681
1 4 100 3 0.0323755
2 4 100 3 0.244101
3 4 100 3 0.723524
1 5 100 3 0.0498886
2 5 100 3 0.32049
3 5 100 3 0.629622
1 6 100 3 0.000667811
2 6 100 3 0.067997
3 6 100 3 0.931335
1 7 100 3 0.30894
2 7 100 3 0.293495
3 7 100 3 0.397565
2 8 100 3 1.73239e-06
3 8 100 3 0.999998
1 0 100 4 0.0490381
2 0 100 4 0.0550134
3 0 100 4 0.0134419
4 0 100 4 0.882507
1 1 100 4 0.951206
2 1 100 4 0.0379241
3 1 100 4 0.00953323
4 1 100 4 0.00133658
1 2 100 4 0.0552847
2 2 100 4 0.846767
3 2 100 4 0.085621
4 2 100 4 0.0123276
1 3 100 4 0.00589216
2 3 100 4 0.164805
3 3 100 4 0.765699
4 3 100 4 0.063604
1 4 100 4 0.0147169
2 4 100 4 0.0912319
3 4 100 4 0.410142
4 4 100 4 0.483909
1 5 100 4 0.0680455
2 5 100 4 0.0572848
3 5 100 4 0.381463
4 5 100 4 0.493207
1 6 100 4 0.0208618
2 6 100 4 0.0878345
3 6 100 4 0.36856
4 6 100 4 0.522743
1 7 100 4 0.0641689
2 7 100 4 0.16071
3 7 100 4 0.129996
4 7 100 4 0.645125
1 8 100 4 3.15642e-05
2 8 100 4 2.17551e-05
3 8 100 4 0.158075
4 8 100 4 0.841871
2 9 100 4 0.000536557
3 9 100 4 0.00100834
4 9 100 4 0.998455
3 10 100 4 0.000217323
4 10 100 4 0.999783
1 0 100 5 0.0745995
2 0 100 5 0.0862295
3 0 100 5 0.176703
4 0 100 5 0.0476598
5 0 100 5 0.614808
1 1 100 5 0.905357
2 1 100 5 0.0633517
3 1 100 5 0.023193
4 1 100 5 0.00657152
5 1 100 5 0.00152629
1 2 100 5 0.100122
2 2 100 5 0.71697
3 2 100 5 0.127547
4 2 100 5 0.0483409
5 2 100 5 0.00702029
1 3 100 5 0.0139089
2 3 100 5 0.173712
3 3 100 5 0.59109
4 3 100 5 0.176353
5 3 100 5 0.0449361
1 4 100 5 0.00998184
2 4 100 5 0.0993684
3 4 100 5 0.218601
4 4 100 5 0.572625
5 4 100 5 0.0994235
1 5 100 5 0.0205185
2 5 100 5 0.012428
3 5 100 5 0.144334
4 5 100 5 0.335498
5 5 100 5 0.487222
1 6 100 5 0.01821
2 6 100 5 0.00910513
3 6 100 5 0.0828025
4 6 100 5 0.344682
5 6 100 5 0.545201
1 7 100 5 0.0240701
2 7 100 5 0.0873408
3 7 100 5 0.0909909
4 7 100 5 0.292103
5 7 100 5 0.505495
1 8 100 5 0.000313544
2 8 100 5 0.00718554
3 8 100 5 0.0316405
4 8 100 5 0.24209
5 8 100 5 0.718771
1 9 100 5 0.0866856
2 9 100 5 0.261064
3 9 100 5 0.0986451
4 9 100 5 0.190572
5 9 100 5 0.363034
1 10 100 5 2.27262e-05
2 10 100 5 2.27811e-05
3 10 100 5 0.0883212
4 10 100 5 0.467274
5 10 100 5 0.444359
1 11 100 5 5.34277e-07
2 11 100 5 1.12055e-06
3 11 100 5 0.00198067
4 11 100 5 2.41418e-05
5 11 100 5 0.997994
1 12 100 5 1.77745e-06
5 12 100 5 0.999998
1 13 100 5 0.00448222
5 13 100 5 0.995518
3 14 100 5 0.999965
5 14 100 5 3.49784e-05
1 0 100 6 0.0415491
2 0 100 6 0.0738048
3 0 100 6 0.149782
4 0 100 6 0.120014
5 0 100 6 0.0191569
6 0 100 6 0.595692
1 1 100 6 0.934177
2 1 100 6 0.0468474
3 1 100 6 0.0071125
4 1 100 6 0.00479478
5 1 100 6 0.00500723
6 1 100 6 0.00206101
1 2 100 6 0.0571549
2 2 100 6 0.735317
3 2 100 6 0.128555
4 2 100 6 0.0685694
5 2 100 6 0.00691062
6 2 100 6 0.00349308
1 3 100 6 0.0111543
2 3 100 6 0.169095
3 3 100 6 0.55674
4 3 100 6 0.157189
5 3 100 6 0.0980847
6 3 100 6 0.00773723
1 4 100 6 0.0136156
2 4 100 6 0.058157
3 4 100 6 0.207433
4 4 100 6 0.528922
5 4 100 6 0.159882
6 4 100 6 0.0319912
1 5 100 6 0.00721518
2 5 100 6 0.025523
3 5 100 6 0.0938655
4 5 100 6 0.205675
5 5 100 6 0.556193
6 5 100 6 0.111528
1 6 100 6 0.00328229
2 6 100 6 0.041852
3 6 100 6 0.0598643
4 6 100 6 0.153086
5 6 100 6 0.38628
6 6 100 6 0.355635
1 7 100 6 2.59098e-06
2 7 100 6 0.0243643
3 7 100 6 0.0509581
4 7 100 6 0.10549
5 7 100 6 0.389241
6 7 100 6 0.429944
1 8 100 6 0.0275867
2 8 100 6 0.0418651
3 8 100 6 0.0652773
4 8 100 6 0.073322
5 8 100 6 0.259654
6 8 100 6 0.532294
1 9 100 6 0.000808344
2 9 100 6 0.00518131
3 9 100 6 0.071665
4 9 100 6 0.114906
5 9 100 6 0.296919
6 9 100 6 0.51052
1 10 100 6 0.000103553
2 10 100 6 9.45615e-05
3 10 100 6 0.116129
4 10 100 6 0.164494
5 10 100 6 0.29914
6 10 100 6 0.420039
1 11 100 6 0.0854867
2 11 100 6 7.68737e-06
3 11 100 6 0.00664621
4 11 100 6 0.0871092
5 11 100 6 0.0923992
6 11 100 6 0.728351
1 12 100 6 0.0282449
2 12 100 6 0.377162
3 12 100 6 0.136222
4 12 100 6 0.0576534
5 12 100 6 0.134749
6 12 100 6 0.265969
1 13 100 6 0.141949
2 13 100 6 0.186976
3 13 100 6 0.249975
4 13 100 6 0.201044
5 13 100 6 0.217024
6 13 100 6 0.0030331
1 14 100 6 2.21847e-05
2 14 100 6 0.00327154
3 14 100 6 1.1233e-06
4 14 100 6 0.246139
5 14 100 6 0.237526
6 14 100 6 0.51304
1 15 100 6 0.000255696
2 15 100 6 0.00028827
4 15 100 6 0.47211
5 15 100 6 0.423978
6 15 100 6 0.103368
3 16 100 6 7.07859e-07
5 16 100 6 0.24563
6 16 100 6 0.75437
1 18 100 6 0.000321814
5 18 100 6 0.000366983
6 18 100 6 0.999311
1 0 100 7 0.0363362
2 0 100 7 0.0487652
3 0 100 7 0.103506
4 0 100 7 0.210212
5 0 100 7 0.101099
6 0 100 7 0.0282115
7 0 100 7 0.47187
1 1 100 7 0.950542
2 1 100 7 0.0281633
3 1 100 7 0.0107918
4 1 100 7 0.00444686
5 1 100 7 0.00291308
6 1 100 7 0.00129417
7 1 100 7 0.00184845
1 2 100 7 0.0539015
2 2 100 7 0.742847
3 2 100 7 0.119869
4 2 100 7 0.0494268
5 2 100 7 0.0317364
6 2 100 7 0.00166047
7 2 100 7 0.000558496
1 3 100 7 0.0203463
2 3 100 7 0.200148
3 3 100 7 0.547356
4 3 100 7 0.144864
5 3 100 7 0.0576394
6 3 100 7 0.0279015
7 3 100 7 0.00174466
1 4 100 7 0.0224907
2 4 100 7 0.0673567
3 4 100 7 0.261225
4 4 100 7 0.365123
5 4 100 7 0.206708
6 4 100 7 0.069079
7 4 100 7 0.008017
1 5 100 7 0.0149879
2 5 100 7 0.0296832
3 5 100 7 0.0778317
4 5 100 7 0.2335
5 5 100 7 0.397265
6 5 100 7 0.220264
7 5 100 7 0.0264679
1 6 100 7 0.00684381
2 6 100 7 0.0224083
3 6 100 7 0.0482376
4 6 100 7 0.107094
5 6 100 7 0.232001
6 6 100 7 0.427724
7 6 100 7 0.155692
1 7 100 7 0.00528019
2 7 100 7 0.0136361
3 7 100 7 0.0335282
4 7 100 7 0.0663282
5 7 100 7 0.161715
6 7 100 7 0.369135
7 7 100 7 0.350378
1 8 100 7 0.00250368
2 8 100 7 0.0151359
3 8 100 7 0.0151669
4 8 100 7 0.0408657
5 8 100 7 0.12744
6 8 100 7 0.384613
7 8 100 7 0.414274
1 9 100 7 0.0187534
2 9 100 7 0.0536843
3 9 100 7 0.0178006
4 9 100 7 0.0440132
5 9 100 7 0.118583
6 9 100 7 0.269005
7 9 100 7 0.478161
1 10 100 7 2.58912e-05
2 10 100 7 0.0194109
3 10 100 7 0.033096
4 10 100 7 0.0846747
5 10 100 7 0.0667611
6 10 100 7 0.299208
7 10 100 7 0.496823
1 11 100 7 0.000183915
2 11 100 7 0.0676782
3 11 100 7 0.0670728
4 11 100 7 0.0372133
5 11 100 7 0.176708
6 11 100 7 0.203426
7 11 100 7 0.447717
1 12 100 7 0.00201738
2 12 100 7 0.0711489
3 12 100 7 0.0659539
4 12 100 7 0.141483
5 12 100 7 0.215758
6 12 100 7 0.0964091
7 12 100 7 0.40723
1 13 100 7 8.07506e-05
2 13 100 7 2.66896e-05
3 13 100 7 0.175269
4 13 100 7 0.0201139
5 13 100 7 0.0777576
6 13 100 7 0.509899
7 13 100 7 0.216853
1 14 100 7 0.00277446
2 14 100 7 3.90968e-06
3 14 100 7 0.0253079
4 14 100 7 0.185803
5 14 100 7 0.100214
6 14 100 7 0.172715
7 14 100 7 0.513182
1 15 100 7 0.000146096
2 15 100 7 2.60011e-06
3 15 100 7 0.00630431
4 15 100 7 0.0226565
5 15 100 7 0.299673
6 15 100 7 0.582676
7 15 100 7 0.0885425
1 16 100 7 0.288011
2 16 100 7 4.85953e-05
3 16 100 7 4.93655e-07
4 16 100 7 0.218754
5 16 100 7 1.13268e-05
6 16 100 7 0.234055
7 16 100 7 0.259119
1 17 100 7 4.8941e-05
3 17 100 7 0.726926
4 17 100 7 3.92339e-05
5 17 100 7 4.25457e-06
6 17 100 7 0.00808511
7 17 100 7 0.264896
1 18 100 7 3.63801e-06
2 18 100 7 4.50406e-06
3 18 100 7 4.97076e-05
4 18 100 7 2.2173e-06
5 18 100 7 1.5839e-06
7 18 100 7 0.999938
1 19 100 7 0.00702429
2 19 100 7 0.410652
3 19 100 7 2.24868e-05
4 19 100 7 0.0375882
5 19 100 7 0.544482
6 19 100 7 0.000230657
3 20 100 7 0.00382407
6 20 100 7 0.874675
7 20 100 7 0.121501
1 0 100 8 0.0374825
2 0 100 8 0.0620618
3 0 100 8 0.0929039
4 0 100 8 0.126058
5 0 100 8 0.180642
6 0 100 8 0.0876769
7 0 100 8 0.0229929
8 0 100 8 0.390182
1 1 100 8 0.940196
2 1 100 8 0.0360207
3 1 100 8 0.012819
4 1 100 8 0.0065669
5 1 100 8 0.00119809
6 1 100 8 0.00271238
7 1 100 8 4.23172e-05
8 1 100 8 0.000444228
1 2 100 8 0.0416084
2 2 100 8 0.72162
3 2 100 8 0.127581
4 2 100 8 0.0590038
5 2 100 8 0.0183546
6 2 100 8 0.023108
7 2 100 8 0.00727418
8 2 100 8 0.00145012
1 3 100 8 0.0196471
2 3 100 8 0.16155
3 3 100 8 0.50927
4 3 100 8 0.145423
5 3 100 8 0.0862547
6 3 100 8 0.0516387
7 3 100 8 0.0253974
8 3 100 8 0.000820532
1 4 100 8 0.0193457
2 4 100 8 0.0812898
3 4 100 8 0.21439
4 4 100 8 0.359495
5 4 100 8 0.175286
6 4 100 8 0.103999
7 4 100 8 0.0446668
8 4 100 8 0.00152695
1 5 100 8 0.013324
2 5 100 8 0.0273191
3 5 100 8 0.10129
4 5 100 8 0.238189
5 5 100 8 0.296568
6 5 100 8 0.202426
7 5 100 8 0.0985843
8 5 100 8 0.0222999
1 6 100 8 0.0050977
2 6 100 8 0.0294377
3 6 100 8 0.0560748
4 6 100 8 0.124243
5 6 100 8 0.19397
6 6 100 8 0.314531
7 6 100 8 0.227948
8 6 100 8 0.048698
1 7 100 8 0.00426156
2 7 100 8 0.0123816
3 7 100 8 0.0311723
4 7 100 8 0.0689522
5 7 100 8 0.119865
6 7 100 8 0.216813
7 7 100 8 0.397606
8 7 100 8 0.148948
1 8 100 8 0.00981835
2 8 100 8 0.0161335
3 8 100 8 0.014543
4 8 100 8 0.0443568
5 8 100 8 0.0846743
6 8 100 8 0.158288
7 8 100 8 0.348459
8 8 100 8 0.323728
1 9 100 8 0.00423922
2 9 100 8 0.012819
3 9 100 8 0.0128434
4 9 100 8 0.00913682
5 9 100 8 0.0797558
6 9 100 8 0.18865
7 9 100 8 0.286347
8 9 100 8 0.406208
1 10 100 8 0.000417881
2 10 100 8 0.019721
3 10 100 8 0.0488393
4 10 100 8 0.0171564
5 10 100 8 0.0445269
6 10 100 8 0.181204
7 10 100 8 0.343244
8 10 100 8 0.34489
1 11 100 8 0.0184774
2 11 100 8 0.0263679
3 11 100 8 0.0425932
4 11 100 8 0.0710735
5 11 100 8 0.0759412
6 11 100 8 0.0880605
7 11 100 8 0.244224
8 11 100 8 0.433262
1 12 100 8 0.00426508
2 12 100 8 1.77357e-05
3 12 100 8 0.00892159
4 12 100 8 0.0384357
5 12 100 8 0.0268913
6 12 100 8 0.113151
7 12 100 8 0.268339
8 12 100 8 0.539978
1 13 100 8 4.12263e-05
2 13 100 8 0.0550426
3 13 100 8 2.52482e-05
4 13 100 8 0.0550434
5 13 100 8 0.0898548
6 13 100 8 0.0205073
7 13 100 8 0.337841
8 13 100 8 0.441644
1 14 100 8 1.72019e-05
2 14 100 8 7.49938e-06
3 14 100 8 0.000353845
4 14 100 8 3.10062e-07
5 14 100 8 0.103635
6 14 100 8 0.135594
7 14 100 8 0.448059
8 14 100 8 0.312333
1 15 100 8 0.000297009
2 15 100 8 0.000322337
3 15 100 8 9.44894e-05
4 15 100 8 4.3371e-06
5 15 100 8 0.000116051
6 15 100 8 1.16485e-06
7 15 100 8 0.201064
8 15 100 8 0.7981
1 16 100 8 4.79681e-05
2 16 100 8 0.399147
3 16 100 8 0.000103165
4 16 100 8 0.0069551
8 16 100 8 0.593747
1 17 100 8 0.33345
2 17 100 8 7.30697e-05
3 17 100 8 0.317241
4 17 100 8 0.00311077
7 17 100 8 0.000105354
8 17 100 8 0.346021
2 18 100 8 0.000116582
4 18 100 8 3.57947e-06
8 18 100 8 0.99988
1 0 100 9 0.0403433
2 0 100 9 0.0506878
3 0 100 9 0.083318
4 0 100 9 0.0914002
5 0 100 9 0.133423
6 0 100 9 0.206627
7 0 100 9 0.0778228
8 0 100 9 0.0231864
9 0 100 9 0.293192
1 1 100 9 0.934179
2 1 100 9 0.0282446
3 1 100 9 0.0114955
4 1 100 9 0.00648437
5 1 100 9 0.00664032
6 1 100 9 0.00631519
7 1 100 9 0.00385195
8 1 100 9 0.00262177
9 1 100 9 0.000167313
1 2 100 9 0.0429604
2 2 100 9 0.752106
3 2 100 9 0.108871
4 2 100 9 0.043658
5 2 100 9 0.0169004
6 2 100 9 0.0164044
7 2 100 9 0.0079256
8 2 100 9 0.0111725
9 2 100 9 1.92349e-06
1 3 100 9 0.016574
2 3 100 9 0.14951
3 3 100 9 0.566731
4 3 100 9 0.160663
5 3 100 9 0.052985
6 3 100 9 0.0237177
7 3 100 9 0.0202301
8 3 100 9 0.00826401
9 3 100 9 0.00132498
1 4 100 9 0.0155823
2 4 100 9 0.0704808
3 4 100 9 0.215406
4 4 100 9 0.429035
5 4 100 9 0.128936
6 4 100 9 0.0733265
7 4 100 9 0.0511384
8 4 100 9 0.0160902
9 4 100 9 4.09067e-06
1 5 100 9 0.0142698
2 5 100 9 0.0300396
3 5 100 9 0.0850737
4 5 100 9 0.222249
5 5 100 9 0.354904
6 5 100 9 0.146148
7 5 100 9 0.105083
8 5 100 9 0.0393917
9 5 100 9 0.0028412
1 6 100 9 0.00542375
2 6 100 9 0.0229231
3 6 100 9 0.0343404
4 6 100 9 0.107376
5 6 100 9 0.225562
6 6 100 9 0.258381
7 6 100 9 0.213138
8 6 100 9 0.121635
9 6 100 9 0.0112202
1 7 100 9 0.00161813
2 7 100 9 0.0162825
3 7 100 9 0.0310945
4 7 100 9 0.0407643
5 7 100 9 0.119277
6 7 100 9 0.192359
7 7 100 9 0.290663
8 7 100 9 0.248642
9 7 100 9 0.0592995
1 8 100 9 0.00492776
2 8 100 9 0.00835519
3 8 100 9 0.0167669
4 8 100 9 0.0343269
5 8 100 9 0.0646952
6 8 100 9 0.122722
7 8 100 9 0.213839
8 8 100 9 0.339694
9 8 100 9 0.194673
1 9 100 9 0.00200693
2 9 100 9 0.014955
3 9 100 9 0.022187
4 9 100 9 0.0223778
5 9 100 9 0.0434067
6 9 100 9 0.0861716
7 9 100 9 0.179315
8 9 100 9 0.303632
9 9 100 9 0.325948
1 10 100 9 0.00710994
2 10 100 9 0.00976741
3 10 100 9 0.00719857
4 10 100 9 0.0280254
5 10 100 9 0.0485701
6 10 100 9 0.0660252
7 10 100 9 0.139707
8 10 100 9 0.307272
9 10 100 9 0.386324
1 11 100 9 4.06241e-05
2 11 100 9 0.00623804
3 11 100 9 0.00795833
4 11 100 9 0.0131931
5 11 100 9 0.0310193
6 11 100 9 0.0732994
7 11 100 9 0.130355
8 11 100 9 0.241612
9 11 100 9 0.496285
1 12 100 9 1.45834e-05
2 12 100 9 0.00168618
3 12 100 9 0.0158539
4 12 100 9 0.000210834
5 12 100 9 0.0511961
6 12 100 9 0.0627441
7 12 100 9 0.134484
8 12 100 9 0.262768
9 12 100 9 0.471042
1 13 100 9 0.000132206
2 13 100 9 0.0277473
3 13 100 9 0.0477931
4 13 100 9 0.0518027
5 13 100 9 0.0401244
6 13 100 9 0.058383
7 13 100 9 0.164106
8 13 100 9 0.288432
9 13 100 9 0.321479
1 14 100 9 0.00141503
2 14 100 9 0.043017
3 14 100 9 0.0336715
4 14 100 9 0.0325903
5 14 100 9 0.0550309
6 14 100 9 0.00120962
7 14 100 9 0.0417679
8 14 100 9 0.292269
9 14 100 9 0.499029
1 15 100 9 6.74955e-06
2 15 100 9 0.00380057
3 15 100 9 0.0439378
4 15 100 9 5.14112e-06
5 15 100 9 0.000986772
6 15 100 9 0.162938
7 15 100 9 0.0782529
8 15 100 9 0.0782643
9 15 100 9 0.631808
1 16 100 9 7.87382e-07
2 16 100 9 4.44578e-06
3 16 100 9 2.29481e-07
4 16 100 9 0.104292
5 16 100 9 2.72599e-06
6 16 100 9 8.42579e-06
7 16 100 9 0.114909
8 16 100 9 0.171469
9 16 100 9 0.609312
2 17 100 9 6.86674e-06
5 17 100 9 0.243745
6 17 100 9 0.000142958
7 17 100 9 0.243684
8 17 100 9 0.00123769
9 17 100 9 0.511184
1 18 100 9 0.000233272
4 18 100 9 6.30498e-05
5 18 100 9 0.202856
6 18 100 9 7.66003e-05
7 18 100 9 1.56423e-05
8 18 100 9 0.70305
9 18 100 9 0.0937056
1 19 100 9 5.20739e-06
8 19 100 9 0.412911
9 19 100 9 0.587084
1 0 100 10 0.0451436
2 0 100 10 0.057514
3 0 100 10 0.0865584
4 0 100 10 0.0864836
5 0 100 10 0.0911968
6 0 100 10 0.109882
7 0 100 10 0.213414
8 0 100 10 0.0706394
9 0 100 10 0.0149721
10 0 100 10 0.224197
1 1 100 10 0.941608
2 1 100 10 0.0345894
3 1 100 10 0.0111855
4 1 100 10 0.00297462
5 1 100 10 0.00245901
6 1 100 10 0.00141793
7 1 100 10 0.00271409
8 1 100 10 0.000448199
9 1 100 10 0.0012265
10 1 100 10 0.00137638
1 2 100 10 0.0453687
2 2 100 10 0.702329
3 2 100 10 0.11655
4 2 100 10 0.0679769
5 2 100 10 0.0322647
6 2 100 10 0.0110933
7 2 100 10 0.00849946
8 2 100 10 0.0074201
9 2 100 10 0.00768946
10 2 100 10 0.000809124
1 3 100 10 0.0114169
2 3 100 10 0.153153
3 3 100 10 0.550242
4 3 100 10 0.146462
5 3 100 10 0.0734316
6 3 100 10 0.0363647
7 3 100 10 0.0116096
8 3 100 10 0.0073937
9 3 100 10 0.00848818
10 3 100 10 0.00143838
1 4 100 10 0.00840056
2 4 100 10 0.0559776
3 4 100 10 0.194183
4 4 100 10 0.413043
5 4 100 10 0.169781
6 4 100 10 0.0775236
7 4 100 10 0.0366466
8 4 100 10 0.0295026
9 4 100 10 0.0108991
10 4 100 10 0.00404238
1 5 100 10 0.00687663
2 5 100 10 0.0274557
3 5 100 10 0.0700013
4 5 100 10 0.204821
5 5 100 10 0.357968
6 5 100 10 0.180281
7 5 100 10 0.0624527
8 5 100 10 0.0601434
9 5 100 10 0.0267177
10 5 100 10 0.00328214
1 6 100 10 0.00252884
2 6 100 10 0.0171674
3 6 100 10 0.0348501
4 6 100 10 0.0932849
5 6 100 10 0.20664
6 6 100 10 0.284073
7 6 100 10 0.169758
8 6 100 10 0.116982
9 6 100 10 0.0610825
10 6 100 10 0.013632
1 7 100 10 0.00268926
2 7 100 10 0.0139948
3 7 100 10 0.0242799
4 7 100 10 0.050728
5 7 100 10 0.111717
6 7 100 10 0.203125
7 7 100 10 0.213472
8 7 100 10 0.213506
9 7 100 10 0.138696
10 7 100 10 0.0277918
1 8 100 10 0.00288276
2 8 100 10 0.00678413
3 8 100 10 0.0130413
4 8 100 10 0.026823
5 8 100 10 0.0434476
6 8 100 10 0.125328
7 8 100 10 0.177796
8 8 100 10 0.272918
9 8 100 10 0.251199
10 8 100 10 0.0797805
1 9 100 10 3.07638e-05
2 9 100 10 0.00874569
3 9 100 10 0.00517446
4 9 100 10 0.0152338
5 9 100 10 0.0399359
6 9 100 10 0.063735
7 9 100 10 0.117218
8 9 100 10 0.192137
9 9 100 10 0.338691
10 9 100 10 0.219099
1 10 100 10 0.00357813
2 10 100 10 0.00236211
3 10 100 10 0.00675706
4 10 100 10 0.00395675
5 10 100 10 0.0179739
6 10 100 10 0.0509094
7 10 100 10 0.0912014
8 10 100 10 0.19286
9 10 100 10 0.310532
10 10 100 10 0.319869
1 11 100 10 2.81424e-05
2 11 100 10 1.52142e-05
3 11 100 10 0.00363829
4 11 100 10 0.0221484
5 11 100 10 0.0108231
6 11 100 10 0.0454975
7 11 100 10 0.0602371
8 11 100 10 0.159538
9 11 100 10 0.289253
10 11 100 10 0.408822
1 12 100 10 0.000154672
2 12 100 10 0.00584578
3 12 100 10 0.0100401
4 12 100 10 0.00411939
5 12 100 10 0.0496943
6 12 100 10 0.0304854
7 12 100 10 0.0689185
8 12 100 10 0.169482
9 12 100 10 0.26572
10 12 100 10 0.395539
1 13 100 10 0.0125407
2 13 100 10 0.0110951
3 13 100 10 0.00543159
4 13 100 10 0.00153673
5 13 100 10 0.0124207
6 13 100 10 0.0343265
7 13 100 10 0.015681
8 13 100 10 0.180439
9 13 100 10 0.206375
10 13 100 10 0.520153
1 14 100 10 4.24671e-06
2 14 100 10 0.013235
3 14 100 10 0.0001255
4 14 100 10 0.0412086
5 14 100 10 0.000806102
6 14 100 10 0.0636435
7 14 100 10 0.0452054
8 14 100 10 0.0586325
9 14 100 10 0.303132
10 14 100 10 0.474007
1 15 100 10 0.000199288
2 15 100 10 1.82354e-07
3 15 100 10 3.62721e-07
4 15 100 10 0.0111909
5 15 100 10 0.0501431
6 15 100 10 0.0332852
7 15 100 10 0.136068
8 15 100 10 0.0397384
9 15 100 10 0.132806
10 15 100 10 0.596569
1 16 100 10 8.50833e-05
2 16 100 10 2.74823e-07
3 16 100 10 1.78576e-05
4 16 100 10 1.31047e-07
5 16 100 10 0.000623758
6 16 100 10 0.16131
7 16 100 10 0.0829192
8 16 100 10 0.265126
9 16 100 10 0.183235
10 16 100 10 0.306682
1 17 100 10 3.48732e-05
3 17 100 10 0.126786
4 17 100 10 0.126215
5 17 100 10 0.0947277
6 17 100 10 0.126216
7 17 100 10 0.000448669
8 17 100 10 1.59343e-07
9 17 100 10 0.124211
10 17 100 10 0.401361
2 18 100 10 1.04217e-06
5 18 100 10 0.000965776
6 18 100 10 1.24869e-05
7 18 100 10 0.0142027
8 18 100 10 0.0066229
9 18 100 10 1.0604e-05
10 18 100 10 0.978185
3 19 100 10 5.44687e-07
6 19 100 10 3.55226e-05
7 19 100 10 1.75365e-06
8 19 100 10 0.000194236
9 19 100 10 0.424487
10 19 100 10 0.575281
7 20 100 10 1
10 22 100 10 1
1 0 100 11 0.0337638
2 0 100 11 0.0389299
3 0 100 11 0.0729518
4 0 100 11 0.100612
5 0 100 11 0.0925318
6 0 100 11 0.0863004
7 0 100 11 0.113787
8 0 100 11 0.171057
9 0 100 11 0.0636904
10 0 100 11 0.0159217
11 0 100 11 0.210455
1 1 100 11 0.93357
2 1 100 11 0.0305954
3 1 100 11 0.0157054
4 1 100 11 0.00413765
5 1 100 11 0.0022589
6 1 100 11 0.00275832
7 1 100 11 0.00336153
8 1 100 11 0.00269235
9 1 100 11 0.00340794
10 1 100 11 0.000524245
11 1 100 11 0.000988581
1 2 100 11 0.0323741
2 2 100 11 0.743784
3 2 100 11 0.100662
4 2 100 11 0.0524112
5 2 100 11 0.0235652
6 2 100 11 0.0196759
7 2 100 11 0.00970241
8 2 100 11 0.00366088
9 2 100 11 0.00940442
10 2 100 11 0.00475801
11 2 100 11 1.16203e-06
1 3 100 11 0.0213863
2 3 100 11 0.132673
3 3 100 11 0.545202
4 3 100 11 0.163785
5 3 100 11 0.0690562
6 3 100 11 0.0258167
7 3 100 11 0.0164
8 3 100 11 0.0060258
9 3 100 11 0.00955072
10 3 100 11 0.00712625
11 3 100 11 0.0029784
1 4 100 11 0.0127885
2 4 100 11 0.0595918
3 4 100 11 0.221132
4 4 100 11 0.389704
5 4 100 11 0.170715
6 4 100 11 0.0830114
7 4 100 11 0.0314302
8 4 100 11 0.0150797
9 4 100 11 0.0102441
10 4 100 11 0.00628175
11 4 100 11 2.08836e-05
1 5 100 11 0.00655615
2 5 100 11 0.0377538
3 5 100 11 0.0943352
4 5 100 11 0.19296
5 5 100 11 0.329886
6 5 100 11 0.193532
7 5 100 11 0.087706
8 5 100 11 0.0212841
9 5 100 11 0.0258249
10 5 100 11 0.0101589
11 5 100 11 2.33812e-06
1 6 100 11 0.00288243
2 6 100 11 0.0186781
3 6 100 11 0.0336894
4 6 100 11 0.103135
5 6 100 11 0.211236
6 6 100 11 0.292343
7 6 100 11 0.152962
8 6 100 11 0.102673
9 6 100 11 0.0454264
10 6 100 11 0.0356019
11 6 100 11 0.00137365
1 7 100 11 0.00472119
2 7 100 11 0.00653152
3 7 100 11 0.0223564
4 7 100 11 0.0471494
5 7 100 11 0.099134
6 7 100 11 0.202814
7 7 100 11 0.283486
8 7 100 11 0.146242
9 7 100 11 0.112561
10 7 100 11 0.0650314
11 7 100 11 0.00997321
1 8 100 11 0.00344813
2 8 100 11 0.0202361
3 8 100 11 0.0184296
4 8 100 11 0.0226611
5 8 100 11 0.0538848
6 8 100 11 0.104873
7 8 100 11 0.17579
8 8 100 11 0.24132
9 8 100 11 0.195281
10 8 100 11 0.135013
11 8 100 11 0.0290648
1 9 100 11 0.00305432
2 9 100 11 0.0138311
3 9 100 11 0.0182858
4 9 100 11 0.0167378
5 9 100 11 0.0306558
6 9 100 11 0.0438624
7 9 100 11 0.112125
8 9 100 11 0.17164
9 9 100 11 0.27062
10 9 100 11 0.221848
11 9 100 11 0.0973401
1 10 100 11 0.00327463
2 10 100 11 0.00648767
3 10 100 11 0.00853921
4 10 100 11 0.00980579
5 10 100 11 0.0211515
6 10 100 11 0.048176
7 10 100 11 0.0604165
8 10 100 11 0.109197
9 10 100 11 0.219239
10 10 100 11 0.338486
11 10 100 11 0.175227
1 11 100 11 0.00326218
2 11 100 11 0.00228427
3 11 100 11 0.00749648
4 11 100 11 0.0158274
5 11 100 11 0.0146939
6 11 100 11 0.024525
7 11 100 11 0.0542188
8 11 100 11 0.0671998
9 11 100 11 0.174229
10 11 100 11 0.306373
11 11 100 11 0.329891
1 12 100 11 0.000599869
2 12 100 11 0.0094145
3 12 100 11 0.0143025
4 12 100 11 0.0114381
5 12 100 11 0.0310012
6 12 100 11 0.0331354
7 12 100 11 0.0572834
8 12 100 11 0.0861829
9 12 100 11 0.16163
10 12 100 11 0.235902
11 12 100 11 0.35911
1 13 100 11 0.00299761
2 13 100 11 0.0286939
3 13 100 11 0.0248611
4 13 100 11 0.0182798
5 13 100 11 0.0108736
6 13 100 11 0.0424671
7 13 100 11 0.0521642
8 13 100 11 0.0744382
9 13 100 11 0.118275
10 13 100 11 0.259044
11 13 100 11 0.367905
1 14 100 11 1.00787e-05
2 14 100 11 1.17536e-05
3 14 100 11 0.0104479
4 14 100 11 0.0110302
5 14 100 11 0.00103897
6 14 100 11 0.0196884
7 14 100 11 0.0643534
8 14 100 11 0.0932615
9 14 100 11 0.115273
10 14 100 11 0.230982
11 14 100 11 0.453903
1 15 100 11 0.00339722
2 15 100 11 0.0202694
3 15 100 11 0.00262924
4 15 100 11 0.0322858
5 15 100 11 0.0565936
6 15 100 11 0.00766342
7 15 100 11 0.0620551
8 15 100 11 0.00866368
9 15 100 11 0.0851092
10 15 100 11 0.211107
11 15 100 11 0.510227
1 16 100 11 7.91528e-06
2 16 100 11 0.00294026
3 16 100 11 0.0254189
4 16 100 11 0.000116579
5 16 100 11 0.0506333
6 16 100 11 0.0505574
7 16 100 11 0.00377044
8 16 100 11 0.191978
9 16 100 11 0.190951
10 16 100 11 0.249727
11 16 100 11 0.233898
1 17 100 11 0.000363551
2 17 100 11 0.000159037
3 17 100 11 0.0180267
4 17 100 11 0.0559745
5 17 100 11 0.0393892
6 17 100 11 0.00385852
7 17 100 11 0.000883102
8 17 100 11 0.0627275
9 17 100 11 0.173879
10 17 100 11 0.258622
11 17 100 11 0.386117
1 18 100 11 0.0399111
2 18 100 11 0.0246758
3 18 100 11 0.000206799
4 18 100 11 0.000140904
5 18 100 11 0.0344726
6 18 100 11 0.128778
7 18 100 11 5.32532e-06
8 18 100 11 0.00125348
9 18 100 11 0.0681169
10 18 100 11 0.277038
11 18 100 11 0.4254
1 19 100 11 1.39887e-05
2 19 100 11 1.43814e-06
3 19 100 11 0.00984567
4 19 100 11 4.00135e-05
5 19 100 11 0.133952
6 19 100 11 0.083758
7 19 100 11 0.000383031
9 19 100 11 9.02828e-06
10 19 100 11 0.135351
11 19 100 11 0.636646
2 20 100 11 4.67862e-06
3 20 100 11 2.40648e-06
4 20 100 11 0.249543
5 20 100 11 0.000304239
6 20 100 11 0.00177499
9 20 100 11 4.64633e-07
10 20 100 11 1.73184e-05
11 20 100 11 0.748353
1 21 100 11 1.44674e-06
2 21 100 11 0.0117595
10 21 100 11 1.08818e-06
11 21 100 11 0.988238
1 0 100 12 0.0423457
2 0 100 12 0.0467975
3 0 100 12 0.0814823
4 0 100 12 0.0732072
5 0 100 12 0.0819392
6 0 100 12 0.0914285
7 0 100 12 0.0885087
8 0 100 12 0.123233
9 0 100 12 0.130157
10 0 100 12 0.0609993
11 0 100 12 0.0120702
12 0 100 12 0.167832
1 1 100 12 0.897262
2 1 100 12 0.0357657
3 1 100 12 0.0167467
4 1 100 12 0.0152657
5 1 100 12 0.00630179
6 1 100 12 0.00655972
7 1 100 12 0.00896826
8 1 100 12 8.6178e-05
9 1 100 12 0.00569133
10 1 100 12 0.00455419
11 1 100 12 0.00265666
12 1 100 12 0.000142245
1 2 100 12 0.0613874
2 2 100 12 0.683776
3 2 100 12 0.110372
4 2 100 12 0.0471491
5 2 100 12 0.0314922
6 2 100 12 0.013333
7 2 100 12 0.0194123
8 2 100 12 0.0158101
9 2 100 12 0.00677388
10 2 100 12 0.00617943
11 2 100 12 0.00427564
12 2 100 12 3.91354e-05
1 3 100 12 0.0252491
2 3 100 12 0.173617
3 3 100 12 0.475519
4 3 100 12 0.146226
5 3 100 12 0.0758576
6 3 100 12 0.0391363
7 3 100 12 0.0210605
8 3 100 12 0.0160897
9 3 100 12 0.0093669
10 3 100 12 0.0103332
11 3 100 12 0.00741988
12 3 100 12 0.000124528
1 4 100 12 0.0123408
2 4 100 12 0.0729009
3 4 100 12 0.230296
4 4 100 12 0.359653
5 4 100 12 0.154675
6 4 100 12 0.0645423
7 4 100 12 0.0386917
8 4 100 12 0.0220785
9 4 100 12 0.0150996
10 4 100 12 0.0169316
11 4 100 12 0.0114876
12 4 100 12 0.00130315
1 5 100 12 0.00452088
2 5 100 12 0.0332113
3 5 100 12 0.0883442
4 5 100 12 0.229398
5 5 100 12 0.299372
6 5 100 12 0.165083
7 5 100 12 0.0777616
8 5 100 12 0.0391921
9 5 100 12 0.0310015
10 5 100 12 0.0211373
11 5 100 12 0.00867363
12 5 100 12 0.00230558
1 6 100 12 0.00789191
2 6 100 12 0.0247836
3 6 100 12 0.0492081
4 6 100 12 0.0968725
5 6 100 12 0.210798
6 6 100 12 0.263659
7 6 100 12 0.165353
8 6 100 12 0.0745329
9 6 100 12 0.0515488
10 6 100 12 0.0343563
11 6 100 12 0.0198373
12 6 100 12 0.00115858
1 7 100 12 0.00597703
2 7 100 12 0.0127549
3 7 100 12 0.0211557
4 7 100 12 0.068943
5 7 100 12 0.116069
6 7 100 12 0.215275
7 7 100 12 0.255619
8 7 100 12 0.14246
9 7 100 12 0.0706343
10 7 100 12 0.0577337
11 7 100 12 0.0253188
12 7 100 12 0.00805981
1 8 100 12 0.000894456
2 8 100 12 0.0103212
3 8 100 12 0.0111695
4 8 100 12 0.0324593
5 8 100 12 0.0627852
6 8 100 12 0.101147
7 8 100 12 0.182655
8 8 100 12 0.231251
9 8 100 12 0.154617
10 8 100 12 0.117774
11 8 100 12 0.0789796
12 8 100 12 0.015947
1 9 100 12 0.00315702
2 9 100 12 0.0106136
3 9 100 12 0.011808
4 9 100 12 0.017562
5 9 100 12 0.038095
6 9 100 12 0.07239
7 9 100 12 0.107607
8 9 100 12 0.175894
9 9 100 12 0.204775
10 9 100 12 0.188646
11 9 100 12 0.131296
12 9 100 12 0.038157
1 10 100 12 0.00305991
2 10 100 12 0.0033098
3 10 100 12 0.0121871
4 10 100 12 0.0181409
5 10 100 12 0.0220598
6 10 100 12 0.0290513
7 10 100 12 0.058934
8 10 100 12 0.121426
9 10 100 12 0.181798
10 10 100 12 0.229385
11 10 100 12 0.234489
12 10 100 12 0.0861592
1 11 100 12 3.17492e-05
2 11 100 12 0.00199899
3 11 100 12 0.00822095
4 11 100 12 0.0125348
5 11 100 12 0.0165148
6 11 100 12 0.0300899
7 11 100 12 0.0593295
8 11 100 12 0.0571118
9 11 100 12 0.11953
10 11 100 12 0.211257
11 11 100 12 0.264864
12 11 100 12 0.218517
1 12 100 12 0.00247678
2 12 100 12 0.0122738
3 12 100 12 0.0121869
4 12 100 12 0.0177083
5 12 100 12 0.00735844
6 12 100 12 0.0250155
7 12 100 12 0.0283723
8 12 100 12 0.0646717
9 12 100 12 0.0754956
10 12 100 12 0.150007
11 12 100 12 0.331311
12 12 100 12 0.273123
1 13 100 12 9.29987e-06
2 13 100 12 0.00737527
3 13 100 12 0.00705336
4 13 100 12 0.00709679
5 13 100 12 0.0106846
6 13 100 12 0.0208227
7 13 100 12 0.0352567
8 13 100 12 0.0508313
9 13 100 12 0.0898431
10 13 100 12 0.148484
11 13 100 12 0.261172
12 13 100 12 0.361371
1 14 100 12 4.57437e-05
2 14 100 12 0.000729488
3 14 100 12 0.000719409
4 14 100 12 0.00720157
5 14 100 12 0.00290115
6 14 100 12 0.00419242
7 14 100 12 0.0592456
8 14 100 12 0.0446048
9 14 100 12 0.0774175
10 14 100 12 0.15463
11 14 100 12 0.210098
12 14 100 12 0.438215
1 15 100 12 0.00191885
2 15 100 12 0.000182321
3 15 100 12 0.0198656
4 15 100 12 0.018364
5 15 100 12 0.0185913
6 15 100 12 0.0107014
7 15 100 12 0.0248494
8 15 100 12 0.0876819
9 15 100 12 0.102684
10 15 100 12 0.138101
11 15 100 12 0.230167
12 15 100 12 0.346893
1 16 100 12 9.89781e-06
2 16 100 12 0.0159401
3 16 100 12 0.0183373
4 16 100 12 0.0141836
5 16 100 12 0.0280061
6 16 100 12 0.00745203
7 16 100 12 0.000434611
8 16 100 12 0.0300454
9 16 100 12 0.0998658
10 16 100 12 0.130182
11 16 100 12 0.22044
12 16 100 12 0.435103
1 17 100 12 1.29885e-06
2 17 100 12 2.87535e-05
3 17 100 12 0.000437363
4 17 100 12 7.13073e-07
5 17 100 12 5.95611e-05
6 17 100 12 0.0275703
7 17 100 12 0.0419081
8 17 100 12 0.0310687
9 17 100 12 0.103123
10 17 100 12 0.221171
11 17 100 12 0.300005
12 17 100 12 0.274626
1 18 100 12 6.51036e-06
2 18 100 12 0.000593034
3 18 100 12 0.000697853
4 18 100 12 0.029951
5 18 100 12 0.0114021
6 18 100 12 0.0293131
7 18 100 12 3.40988e-06
8 18 100 12 0.0417037
9 18 100 12 0.0484193
10 18 100 12 0.0694412
11 18 100 12 0.344657
12 18 100 12 0.423812
1 19 100 12 3.15579e-06
3 19 100 12 8.34518e-07
4 19 100 12 2.93073e-05
5 19 100 12 3.72906e-06
6 19 100 12 0.0298113
7 19 100 12 0.00138377
8 19 100 12 2.08321e-05
9 19 100 12 0.0894559
10 19 100 12 0.0809837
11 19 100 12 0.0810287
12 19 100 12 0.717279
3 20 100 12 8.04243e-07
4 20 100 12 0.000701959
5 20 100 12 3.02901e-06
6 20 100 12 0.000153987
7 20 100 12 0.180155
8 20 100 12 0.296034
9 20 100 12 0.10287
10 20 100 12 0.231471
11 20 100 12 0.170544
12 20 100 12 0.0180663
1 21 100 12 0.000126576
4 21 100 12 0.0729335
5 21 100 12 9.49901e-07
7 21 100 12 0.0338472
10 21 100 12 3.67242e-06
11 21 100 12 0.222448
12 21 100 12 0.67064
12 22 100 12 1
1 0 100 13 0.0331617
2 0 100 13 0.0423553
3 0 100 13 0.0610478
4 0 100 13 0.072681
5 0 100 13 0.0773066
6 0 100 13 0.0811718
7 0 100 13 0.0954792
8 0 100 13 0.0918133
9 0 100 13 0.100672
10 0 100 13 0.108803
11 0 100 13 0.0612468
12 0 100 13 0.00860318
13 0 100 13 0.165658
1 1 100 13 0.929031
2 1 100 13 0.039716
3 1 100 13 0.0151788
4 1 100 13 0.0093983
5 1 100 13 0.00372693
6 1 100 13 3.86569e-05
7 1 100 13 0.00127725
8 1 100 13 1.95856e-05
9 1 100 13 3.86232e-05
10 1 100 13 0.00126189
11 1 100 13 2.46368e-05
13 1 100 13 0.000288224
1 2 100 13 0.0385679
2 2 100 13 0.734758
3 2 100 13 0.107385
4 2 100 13 0.0443545
5 2 100 13 0.0246745
6 2 100 13 0.019235
7 2 100 13 0.00584037
8 2 100 13 0.00767696
9 2 100 13 0.00370947
10 2 100 13 0.00522411
11 2 100 13 0.00411932
12 2 100 13 0.00445231
13 2 100 13 2.76192e-06
1 3 100 13 0.0132133
2 3 100 13 0.148396
3 3 100 13 0.53678
4 3 100 13 0.147405
5 3 100 13 0.0753943
6 3 100 13 0.0272569
7 3 100 13 0.0181798
8 3 100 13 0.0101212
9 3 100 13 0.0100868
10 3 100 13 0.00730601
11 3 100 13 0.00144527
12 3 100 13 0.00432022
13 3 100 13 9.47921e-05
1 4 100 13 0.0120047
2 4 100 13 0.0597719
3 4 100 13 0.201289
4 4 100 13 0.406138
5 4 100 13 0.152211
6 4 100 13 0.0735359
7 4 100 13 0.0379895
8 4 100 13 0.021134
9 4 100 13 0.0122687
10 4 100 13 0.00916681
11 4 100 13 0.00653903
12 4 100 13 0.00792676
13 4 100 13 2.37981e-05
1 5 100 13 0.00715434
2 5 100 13 0.0212652
3 5 100 13 0.102714
4 5 100 13 0.197221
5 5 100 13 0.347953
6 5 100 13 0.160128
7 5 100 13 0.0722049
8 5 100 13 0.0333281
9 5 100 13 0.0221602
10 5 100 13 0.0125353
11 5 100 13 0.0151347
12 5 100 13 0.00682247
13 5 100 13 0.00137783
1 6 100 13 0.00855777
2 6 100 13 0.014411
3 6 100 13 0.0385259
4 6 100 13 0.108368
5 6 100 13 0.180289
6 6 100 13 0.306108
7 6 100 13 0.156528
8 6 100 13 0.0845156
9 6 100 13 0.0386232
10 6 100 13 0.0296431
11 6 100 13 0.0207146
12 6 100 13 0.0124324
13 6 100 13 0.00128331
1 7 100 13 0.00817362
2 7 100 13 0.0167654
3 7 100 13 0.0172926
4 7 100 13 0.0365757
5 7 100 13 0.0982098
6 7 100 13 0.182632
7 7 100 13 0.271158
8 7 100 13 0.169458
9 7 100 13 0.0877523
10 7 100 13 0.0452465
11 7 100 13 0.0317067
12 7 100 13 0.029554
13 7 100 13 0.00547599
1 8 100 13 0.00545955
2 8 100 13 0.00708039
3 8 100 13 0.0199337
4 8 100 13 0.0312089
5 8 100 13 0.0429645
6 8 100 13 0.105001
7 8 100 13 0.182921
8 8 100 13 0.233186
9 8 100 13 0.152672
10 8 100 13 0.0994428
11 8 100 13 0.0729429
12 8 100 13 0.0402555
13 8 100 13 0.00693256
1 9 100 13 0.00136063
2 9 100 13 0.00849431
3 9 100 13 0.00739819
4 9 100 13 0.0120658
5 9 100 13 0.0359928
6 9 100 13 0.0447264
7 9 100 13 0.114485
8 9 100 13 0.168919
9 9 100 13 0.213329
10 9 100 13 0.132656
11 9 100 13 0.155192
12 9 100 13 0.0840323
13 9 100 13 0.0213484
1 10 100 13 0.00527865
2 10 100 13 0.00698886
3 10 100 13 0.0127559
4 10 100 13 0.00957095
5 10 100 13 0.0167812
6 10 100 13 0.0333083
7 10 100 13 0.0459498
8 10 100 13 0.134592
9 10 100 13 0.183633
10 10 100 13 0.202228
11 10 100 13 0.140248
12 10 100 13 0.153408
13 10 100 13 0.0552571
1 11 100 13 0.00291552
2 11 100 13 0.00154251
3 11 100 13 0.00671264
4 11 100 13 0.0152258
5 11 100 13 0.0108228
6 11 100 13 0.0266703
7 11 100 13 0.0405747
8 11 100 13 0.0676058
9 11 100 13 0.122216
10 11 100 13 0.192353
11 11 100 13 0.212825
12 11 100 13 0.189039
13 11 100 13 0.111497
1 12 100 13 0.00177097
2 12 100 13 0.00555235
3 12 100 13 0.00993096
4 12 100 13 0.0070511
5 12 100 13 0.0201491
6 12 100 13 0.00854743
7 12 100 13 0.0257663
8 12 100 13 0.0495587
9 12 100 13 0.0908657
10 12 100 13 0.126753
11 12 100 13 0.214084
12 12 100 13 0.249948
13 12 100 13 0.190022
1 13 100 13 0.00459913
2 13 100 13 0.00684216
3 13 100 13 0.00234688
4 13 100 13 0.0118551
5 13 100 13 0.00912274
6 13 100 13 0.0139775
7 13 100 13 0.021012
8 13 100 13 0.0340474
9 13 100 13 0.0655634
10 13 100 13 0.110725
11 13 100 13 0.17708
12 13 100 13 0.295851
13 13 100 13 0.246978
1 14 100 13 4.27804e-05
2 14 100 13 7.40721e-05
3 14 100 13 0.00708365
4 14 100 13 1.62476e-07
5 14 100 13 0.00575743
6 14 100 13 0.00754867
7 14 100 13 5.48558e-05
8 14 100 13 0.0241651
9 14 100 13 0.0453636
10 14 100 13 0.102001
11 14 100 13 0.18108
12 14 100 13 0.306814
13 14 100 13 0.320014
1 15 100 13 0.0025743
2 15 100 13 0.00405896
3 15 100 13 0.00623162
4 15 100 13 0.0115735
5 15 100 13 0.00103984
6 15 100 13 0.00683377
7 15 100 13 0.0225456
8 15 100 13 0.00897271
9 15 100 13 0.0239548
10 15 100 13 0.0767401
11 15 100 13 0.142205
12 15 100 13 0.292274
13 15 100 13 0.400996
1 16 100 13 0.000987384
2 16 100 13 0.0103622
3 16 100 13 0.00911838
4 16 100 13 0.00207519
5 16 100 13 0.0470515
6 16 100 13 0.0342949
7 16 100 13 0.00436809
8 16 100 13 0.00301758
9 16 100 13 0.0395603
10 16 100 13 0.0467084
11 16 100 13 0.157766
12 16 100 13 0.25393
13 16 100 13 0.390761
1 17 100 13 8.78532e-05
2 17 100 13 7.08877e-06
3 17 100 13 5.38964e-06
4 17 100 13 2.35725e-06
5 17 100 13 0.0147275
6 17 100 13 0.0205343
7 17 100 13 0.0290082
8 17 100 13 0.0157799
9 17 100 13 0.0310786
10 17 100 13 0.0634671
11 17 100 13 0.115873
12 17 100 13 0.290348
13 17 100 13 0.41908
1 18 100 13 0.000324356
2 18 100 13 5.83205e-06
3 18 100 13 0.000294264
4 18 100 13 0.0215913
5 18 100 13 0.0442881
6 18 100 13 0.0670846
7 18 100 13 0.0746124
8 18 100 13 0.00708338
9 18 100 13 0.0230898
10 18 100 13 0.0688506
11 18 100 13 0.0530343
12 18 100 13 0.206151
13 18 100 13 0.43359
1 19 100 13 1.08229e-06
2 19 100 13 0.0388177
3 19 100 13 0.0411978
4 19 100 13 0.038822
5 19 100 13 0.00015573
6 19 100 13 2.72255e-05
7 19 100 13 0.0626645
8 19 100 13 0.0865474
9 19 100 13 0.0670734
10 19 100 13 0.0471747
11 19 100 13 0.0143279
12 19 100 13 0.177457
13 19 100 13 0.425733
1 20 100 13 4.79106e-07
2 20 100 13 1.27538e-07
3 20 100 13 1.69146e-06
4 20 100 13 2.11555e-05
5 20 100 13 0.00523741
6 20 100 13 9.61381e-05
7 20 100 13 2.93021e-06
8 20 100 13 0.0505814
9 20 100 13 0.0937899
10 20 100 13 0.0322695
11 20 100 13 7.7615e-06
12 20 100 13 0.236063
13 20 100 13 0.581928
2 21 100 13 5.82684e-07
5 21 100 13 3.23389e-07
7 21 100 13 3.70581e-06
8 21 100 13 0.16627
9 21 100 13 6.83045e-06
10 21 100 13 0.169607
11 21 100 13 0.331533
12 21 100 13 0.000374509
13 21 100 13 0.332205
8 22 100 13 7.2142e-06
9 22 100 13 0.000380621
10 22 100 13 0.189814
11 22 100 13 0.19363
12 22 100 13 0.192196
13 22 100 13 0.423972
11 23 100 13 0.000873812
12 23 100 13 0.831493
13 23 100 13 0.167634
7 24 100 13 1.37506e-06
8 24 100 13 0.000104423
9 24 100 13 0.978498
10 24 100 13 0.0048156
11 24 100 13 0.0165783
12 24 100 13 2.39525e-06
6 25 100 13 0.000620772
8 25 100 13 9.89677e-07
10 25 100 13 1.64533e-06
11 25 100 13 4.82542e-05
12 25 100 13 0.892964
13 25 100 13 0.106364
1 0 100 14 0.031008
2 0 100 14 0.0377532
3 0 100 14 0.0482909
4 0 100 14 0.0635357
5 0 100 14 0.0753766
6 0 100 14 0.0819528
7 0 100 14 0.0805826
8 0 100 14 0.0859663
9 0 100 14 0.0790148
10 0 100 14 0.100034
11 0 100 14 0.0964865
12 0 100 14 0.0660023
13 0 100 14 0.0106702
14 0 100 14 0.143326
1 1 100 14 0.903347
2 1 100 14 0.0418225
3 1 100 14 0.0152638
4 1 100 14 0.00847185
5 1 100 14 0.00250601
6 1 100 14 0.00564412
7 1 100 14 0.00593268
8 1 100 14 0.00416988
9 1 100 14 0.00423846
10 1 100 14 0.00424783
11 1 100 14 0.000174948
12 1 100 14 0.00266508
13 1 100 14 0.00141362
14 1 100 14 0.00010223
1 2 100 14 0.0496077
2 2 100 14 0.693738
3 2 100 14 0.112884
4 2 100 14 0.0476823
5 2 100 14 0.0262537
6 2 100 14 0.0152158
7 2 100 14 0.0118108
8 2 100 14 0.0112023
9 2 100 14 0.00819287
10 2 100 14 0.00817949
11 2 100 14 0.0110478
12 2 100 14 0.00277818
13 2 100 14 0.00140091
14 2 100 14 5.61484e-06
1 3 100 14 0.0233985
2 3 100 14 0.13187
3 3 100 14 0.543568
4 3 100 14 0.139633
5 3 100 14 0.0608243
6 3 100 14 0.0322762
7 3 100 14 0.0262681
8 3 100 14 0.00956266
9 3 100 14 0.00839141
10 3 100 14 0.0113921
11 3 100 14 0.00486723
12 3 100 14 0.00624378
13 3 100 14 0.00164334
14 3 100 14 6.14095e-05
1 4 100 14 0.0111622
2 4 100 14 0.0597003
3 4 100 14 0.215717
4 4 100 14 0.409963
5 4 100 14 0.146539
6 4 100 14 0.0497174
7 4 100 14 0.0385618
8 4 100 14 0.0143058
9 4 100 14 0.00927084
10 4 100 14 0.00954406
11 4 100 14 0.0151366
12 4 100 14 0.0116881
13 4 100 14 0.0076053
14 4 100 14 0.00108827
1 5 100 14 0.00607744
2 5 100 14 0.0268077
3 5 100 14 0.0745819
4 5 100 14 0.210498
5 5 100 14 0.329745
6 5 100 14 0.176279
7 5 100 14 0.0668971
8 5 100 14 0.0335749
9 5 100 14 0.0280401
10 5 100 14 0.0165128
11 5 100 14 0.0125245
12 5 100 14 0.0122028
13 5 100 14 0.00620686
14 5 100 14 5.22164e-05
1 6 100 14 0.00495843
2 6 100 14 0.0133614
3 6 100 14 0.0440904
4 6 100 14 0.0885363
5 6 100 14 0.212976
6 6 100 14 0.289832
7 6 100 14 0.15202
8 6 100 14 0.0854828
9 6 100 14 0.0360629
10 6 100 14 0.0265133
11 6 100 14 0.0146193
12 6 100 14 0.0167957
13 6 100 14 0.0122472
14 6 100 14 0.00250348
1 7 100 14 0.0058912
2 7 100 14 0.0111865
3 7 100 14 0.0281844
4 7 100 14 0.0518168
5 7 100 14 0.0976266
6 7 100 14 0.181377
7 7 100 14 0.272813
8 7 100 14 0.146313
9 7 100 14 0.0766425
10 7 100 14 0.050402
11 7 100 14 0.0316896
12 7 100 14 0.0238224
13 7 100 14 0.0163199
14 7 100 14 0.00591476
1 8 100 14 0.00753855
2 8 100 14 0.0124366
3 8 100 14 0.0164346
4 8 100 14 0.0257814
5 8 100 14 0.0575862
6 8 100 14 0.0964468
7 8 100 14 0.172266
8 8 100 14 0.244137
9 8 100 14 0.164471
10 8 100 14 0.0849194
11 8 100 14 0.0517545
12 8 100 14 0.0262353
13 8 100 14 0.0271414
14 8 100 14 0.0128505
1 9 100 14 0.0015652
2 9 100 14 0.00618724
3 9 100 14 0.0110119
4 9 100 14 0.0117585
5 9 100 14 0.0304449
6 9 100 14 0.0753332
7 9 100 14 0.0966912
8 9 100 14 0.170708
9 9 100 14 0.235694
10 9 100 14 0.138795
11 9 100 14 0.10158
12 9 100 14 0.060991
13 9 100 14 0.0440774
14 9 100 14 0.0151618
1 10 100 14 0.00227585
2 10 100 14 0.00456534
3 10 100 14 0.00688126
4 10 100 14 0.0200974
5 10 100 14 0.0234668
6 10 100 14 0.0388933
7 10 100 14 0.0680475
8 10 100 14 0.0974376
9 10 100 14 0.152907
10 10 100 14 0.202017
11 10 100 14 0.148647
12 10 100 14 0.13844
13 10 100 14 0.0728766
14 10 100 14 0.0234487
1 11 100 14 0.00351374
2 11 100 14 0.00840047
3 11 100 14 0.00998934
4 11 100 14 0.012382
5 11 100 14 0.0162199
6 11 100 14 0.0314875
7 11 100 14 0.0520279
8 11 100 14 0.0692414
9 11 100 14 0.102619
10 11 100 14 0.140321
11 11 100 14 0.170788
12 11 100 14 0.16726
13 11 100 14 0.174241
14 11 100 14 0.0415091
1 12 100 14 4.6059e-05
2 12 100 14 0.00539408
3 12 100 14 0.00243741
4 12 100 14 0.0108085
5 12 100 14 0.00545606
6 12 100 14 0.0105744
7 12 100 14 0.0281213
8 12 100 14 0.0766427
9 12 100 14 0.075231
10 12 100 14 0.116178
11 12 100 14 0.184074
12 12 100 14 0.185996
13 12 100 14 0.180576
14 12 100 14 0.118464
1 13 100 14 0.0051323
2 13 100 14 0.00406397
3 13 100 14 0.0066212
4 13 100 14 0.00853494
5 13 100 14 0.0199847
6 13 100 14 0.0106369
7 13 100 14 0.0149315
8 13 100 14 0.0267583
9 13 100 14 0.0811867
10 13 100 14 0.0904488
11 13 100 14 0.10111
12 13 100 14 0.186627
13 13 100 14 0.26643
14 13 100 14 0.177533
1 14 100 14 3.45381e-05
2 14 100 14 0.0024506
3 14 100 14 6.72789e-05
4 14 100 14 4.14176e-05
5 14 100 14 0.00275623
6 14 100 14 0.00541862
7 14 100 14 0.00719468
8 14 100 14 0.0247134
9 14 100 14 0.0399305
10 14 100 14 0.102712
11 14 100 14 0.134939
12 14 100 14 0.185129
13 14 100 14 0.247097
14 14 100 14 0.247516
1 15 100 14 0.00100189
2 15 100 14 4.93905e-06
3 15 100 14 0.00685045
4 15 100 14 0.00354845
5 15 100 14 0.00387812
6 15 100 14 0.0040248
7 15 100 14 0.0144843
8 15 100 14 0.0230564
9 15 100 14 0.0597179
10 15 100 14 0.0590863
11 15 100 14 0.109408
12 15 100 14 0.177585
13 15 100 14 0.254776
14 15 100 14 0.282579
1 16 100 14 4.02068e-06
2 16 100 14 0.000161309
3 16 100 14 0.000125103
4 16 100 14 0.00574905
5 16 100 14 5.80245e-05
6 16 100 14 0.0143604
7 16 100 14 0.0080366
8 16 100 14 0.00962222
9 16 100 14 0.0368145
10 16 100 14 0.0558586
11 16 100 14 0.0776977
12 16 100 14 0.142906
13 16 100 14 0.325426
14 16 100 14 0.32318
1 17 100 14 0.00291447
2 17 100 14 0.0159313
3 17 100 14 0.000747224
4 17 100 14 0.000761915
5 17 100 14 0.000191837
6 17 100 14 0.000204367
7 17 100 14 0.00821779
8 17 100 14 0.00868677
9 17 100 14 0.033762
10 17 100 14 0.0390779
11 17 100 14 0.122088
12 17 100 14 0.172246
13 17 100 14 0.194923
14 17 100 14 0.400248
1 18 100 14 1.75997e-05
2 18 100 14 0.0147813
3 18 100 14 0.0206969
4 18 100 14 0.00676814
5 18 100 14 1.01533e-05
6 18 100 14 0.00215929
7 18 100 14 0.00567073
8 18 100 14 4.08396e-06
9 18 100 14 0.000134736
10 18 100 14 0.0503131
11 18 100 14 0.0925282
12 18 100 14 0.128679
13 18 100 14 0.285249
14 18 100 14 0.392988
1 19 100 14 0.0168781
2 19 100 14 0.0167299
3 19 100 14 0.0174264
4 19 100 14 0.0182071
5 19 100 14 0.023318
6 19 100 14 0.016749
7 19 100 14 1.21939e-05
8 19 100 14 0.0186932
9 19 100 14 0.0482834
10 19 100 14 0.0585976
11 19 100 14 0.060392
12 19 100 14 0.148594
13 19 100 14 0.242237
14 19 100 14 0.313882
1 20 100 14 9.46762e-07
2 20 100 14 4.59946e-06
3 20 100 14 0.0022647
4 20 100 14 0.0402475
5 20 100 14 0.0399685
6 20 100 14 0.0404313
7 20 100 14 0.000660226
8 20 100 14 0.020223
9 20 100 14 0.040953
10 20 100 14 0.0366883
11 20 100 14 0.0367519
12 20 100 14 0.101064
13 20 100 14 0.18868
14 20 100 14 0.452062
1 21 100 14 2.80538e-07
2 21 100 14 1.34061e-06
3 21 100 14 1.29566e-07
4 21 100 14 3.9054e-07
5 21 100 14 2.88588e-05
7 21 100 14 7.62625e-06
8 21 100 14 0.0526221
9 21 100 14 0.0533262
10 21 100 14 0.0615104
11 21 100 14 0.0540601
12 21 100 14 0.000317541
13 21 100 14 0.187059
14 21 100 14 0.591066
1 22 100 14 3.61804e-06
5 22 100 14 4.69216e-06
7 22 100 14 0.000508975
8 22 100 14 5.38207e-06
9 22 100 14 2.28526e-07
10 22 100 14 1.75728e-06
11 22 100 14 0.000628828
13 22 100 14 0.389307
14 22 100 14 0.609539
13 23 100 14 0.00192724
14 23 100 14 0.998073
1 0 100 15 0.0272321
2 0 100 15 0.0290356
3 0 100 15 0.0583564
4 0 100 15 0.0687851
5 0 100 15 0.0742612
6 0 100 15 0.0619399
7 0 100 15 0.0697528
8 0 100 15 0.0790144
9 0 100 15 0.0706271
10 0 100 15 0.0860578
11 0 100 15 0.0741054
12 0 100 15 0.102044
13 0 100 15 0.060591
14 0 100 15 0.00947097
15 0 100 15 0.128727
1 1 100 15 0.946834
2 1 100 15 0.0308072
3 1 100 15 0.00799596
4 1 100 15 0.00408419
5 1 100 15 0.00453662
6 1 100 15 4.50279e-06
7 1 100 15 0.00131123
8 1 100 15 0.00267827
9 1 100 15 3.9464e-06
10 1 100 15 2.11355e-05
11 1 100 15 0.00162897
12 1 100 15 1.99399e-05
13 1 100 15 1.71885e-05
15 1 100 15 5.73206e-05
1 2 100 15 0.0510816
2 2 100 15 0.733057
3 2 100 15 0.0987077
4 2 100 15 0.0334815
5 2 100 15 0.0299175
6 2 100 15 0.0154886
7 2 100 15 0.00260257
8 2 100 15 0.00654887
9 2 100 15 0.00924513
10 2 100 15 0.00284974
11 2 100 15 0.00390862
12 2 100 15 0.00658941
13 2 100 15 0.00387471
14 2 100 15 0.0026468
15 2 100 15 3.57408e-07
1 3 100 15 0.0206823
2 3 100 15 0.147281
3 3 100 15 0.558253
4 3 100 15 0.133314
5 3 100 15 0.0449429
6 3 100 15 0.0245593
7 3 100 15 0.0161819
8 3 100 15 0.0147855
9 3 100 15 0.00768017
10 3 100 15 0.0107856
11 3 100 15 0.00759533
12 3 100 15 0.00764301
13 3 100 15 0.00309678
14 3 100 15 0.00305284
15 3 100 15 0.000147321
1 4 100 15 0.014206
2 4 100 15 0.0623314
3 4 100 15 0.214329
4 4 100 15 0.416275
5 4 100 15 0.132185
6 4 100 15 0.0718589
7 4 100 15 0.0244606
8 4 100 15 0.0139032
9 4 100 15 0.0255045
10 4 100 15 0.00603215
11 4 100 15 0.0045994
12 4 100 15 0.00570813
13 4 100 15 0.00433088
14 4 100 15 0.00427553
15 4 100 15 6.47911e-07
1 5 100 15 0.00756012
2 5 100 15 0.0187681
3 5 100 15 0.0948532
4 5 100 15 0.214468
5 5 100 15 0.368982
6 5 100 15 0.152719
7 5 100 15 0.0762105
8 5 100 15 0.0334974
9 5 100 15 0.0120477
10 5 100 15 0.00600548
11 5 100 15 0.00303371
12 5 100 15 0.00448149
13 5 100 15 0.00586175
14 5 100 15 0.00150023
15 5 100 15 1.06775e-05
1 6 100 15 0.00797146
2 6 100 15 0.0283158
3 6 100 15 0.0334754
4 6 100 15 0.0943232
5 6 100 15 0.198287
6 6 100 15 0.30454
7 6 100 15 0.135572
8 6 100 15 0.0721342
9 6 100 15 0.0396912
10 6 100 15 0.0304349
11 6 100 15 0.0182393
12 6 100 15 0.0108627
13 6 100 15 0.0141256
14 6 100 15 0.0106847
15 6 100 15 0.00134255
1 7 100 15 0.00428868
2 7 100 15 0.011394
3 7 100 15 0.0240614
4 7 100 15 0.04945
5 7 100 15 0.098876
6 7 100 15 0.192935
7 7 100 15 0.291714
8 7 100 15 0.134984
9 7 100 15 0.0880665
10 7 100 15 0.0520457
11 7 100 15 0.0188113
12 7 100 15 0.014719
13 7 100 15 0.0100627
14 7 100 15 0.00855641
15 7 100 15 3.50822e-05
1 8 100 15 0.00151474
2 8 100 15 0.00715193
3 8 100 15 0.0153599
4 8 100 15 0.0398499
5 8 100 15 0.0438321
6 8 100 15 0.10942
7 8 100 15 0.176534
8 8 100 15 0.239825
9 8 100 15 0.154503
10 8 100 15 0.0897475
11 8 100 15 0.0593927
12 8 100 15 0.0219793
13 8 100 15 0.0240608
14 8 100 15 0.0141594
15 8 100 15 0.00266989
1 9 100 15 0.0043264
2 9 100 15 0.010067
3 9 100 15 0.0176705
4 9 100 15 0.0244497
5 9 100 15 0.0308203
6 9 100 15 0.0593946
7 9 100 15 0.119045
8 9 100 15 0.177592
9 9 100 15 0.207266
10 9 100 15 0.139937
11 9 100 15 0.0983401
12 9 100 15 0.0564997
13 9 100 15 0.0299666
14 9 100 15 0.0216261
15 9 100 15 0.00299824
1 10 100 15 0.00133521
2 10 100 15 0.0100463
3 10 100 15 0.00560772
4 10 100 15 0.00901885
5 10 100 15 0.0272861
6 10 100 15 0.0444589
7 10 100 15 0.0552469
8 10 100 15 0.126682
9 10 100 15 0.169282
10 10 100 15 0.194143
11 10 100 15 0.133809
12 10 100 15 0.0895244
13 10 100 15 0.0864517
14 10 100 15 0.0428298
15 10 100 15 0.00427756
1 11 100 15 0.0014694
2 11 100 15 0.00599163
3 11 100 15 0.00452051
4 11 100 15 0.00319219
5 11 100 15 0.00824025
6 11 100 15 0.022334
7 11 100 15 0.0518455
8 11 100 15 0.0598746
9 11 100 15 0.113648
10 11 100 15 0.1586
11 11 100 15 0.196427
12 11 100 15 0.147867
13 11 100 15 0.119896
14 11 100 15 0.0872182
15 11 100 15 0.0188754
1 12 100 15 0.00158188
2 12 100 15 0.00314178
3 12 100 15 0.00314147
4 12 100 15 0.00159099
5 12 100 15 0.0106237
6 12 100 15 0.0206264
7 12 100 15 0.0331619
8 12 100 15 0.0468124
9 12 100 15 0.0803857
10 12 100 15 0.111371
11 12 100 15 0.175973
12 12 100 15 0.177906
13 12 100 15 0.150233
14 12 100 15 0.122438
15 12 100 15 0.0610137
1 13 100 15 1.00427e-05
2 13 100 15 0.00167154
3 13 100 15 0.00172562
4 13 100 15 0.00343845
5 13 100 15 0.00168165
6 13 100 15 0.00666515
7 13 100 15 0.0150432
8 13 100 15 0.0488941
9 13 100 15 0.0606805
10 13 100 15 0.0800917
11 13 100 15 0.132466
12 13 100 15 0.155421
13 13 100 15 0.192291
14 13 100 15 0.205997
15 13 100 15 0.0939222
1 14 100 15 8.20753e-06
2 14 100 15 0.00181097
3 14 100 15 0.00180774
4 14 100 15 0.0109657
5 14 100 15 0.00721217
6 14 100 15 0.00181425
7 14 100 15 0.0162047
8 14 100 15 0.0187352
9 14 100 15 0.0395796
10 14 100 15 0.073186
11 14 100 15 0.0906143
12 14 100 15 0.138493
13 14 100 15 0.187514
14 14 100 15 0.254621
15 14 100 15 0.157433
1 15 100 15 0.00242865
2 15 100 15 0.002303
3 15 100 15 0.00230539
4 15 100 15 0.000105434
5 15 100 15 0.0139031
6 15 100 15 0.00823706
7 15 100 15 0.00435723
8 15 100 15 0.0156663
9 15 100 15 0.0344192
10 15 100 15 0.0359751
11 15 100 15 0.0820569
12 15 100 15 0.108819
13 15 100 15 0.16114
14 15 100 15 0.260326
15 15 100 15 0.267958
1 16 100 15 2.39082e-06
3 16 100 15 0.0031829
4 16 100 15 0.00576096
5 16 100 15 2.2984e-07
6 16 100 15 0.00929955
7 16 100 15 0.0154025
8 16 100 15 0.0101869
9 16 100 15 0.0184994
10 16 100 15 0.0474528
11 16 100 15 0.064675
12 16 100 15 0.110334
13 16 100 15 0.181992
14 16 100 15 0.261336
15 16 100 15 0.271876
1 17 100 15 0.00419169
2 17 100 15 0.00709931
3 17 100 15 0.000437297
4 17 100 15 0.00947871
5 17 100 15 0.0105103
6 17 100 15 0.000975986
7 17 100 15 0.0150751
8 17 100 15 0.016795
9 17 100 15 0.018814
10 17 100 15 0.0518971
11 17 100 15 0.0648711
12 17 100 15 0.0790866
13 17 100 15 0.161894
14 17 100 15 0.186962
15 17 100 15 0.371912
1 18 100 15 3.95891e-06
2 18 100 15 0.000542613
3 18 100 15 0.00501985
4 18 100 15 0.000787941
5 18 100 15 0.0132205
6 18 100 15 0.00812269
7 18 100 15 0.0164903
8 18 100 15 0.0209456
9 18 100 15 0.0183244
10 18 100 15 0.0306227
11 18 100 15 0.0363204
12 18 100 15 0.104701
13 18 100 15 0.115571
14 18 100 15 0.325166
15 18 100 15 0.30416
1 19 100 15 1.91711e-06
2 19 100 15 0.0100165
3 19 100 15 0.0100955
4 19 100 15 0.0119851
5 19 100 15 0.02077
6 19 100 15 0.0110849
7 19 100 15 0.0162626
8 19 100 15 0.0112805
9 19 100 15 0.0104263
10 19 100 15 0.0363925
11 19 100 15 0.0534328
12 19 100 15 0.0651066
13 19 100 15 0.114391
14 19 100 15 0.227242
15 19 100 15 0.401513
1 20 100 15 6.55435e-07
2 20 100 15 7.59334e-05
3 20 100 15 6.47997e-07
4 20 100 15 0.000209961
5 20 100 15 0.0217369
6 20 100 15 9.12447e-05
7 20 100 15 0.00220539
8 20 100 15 6.86282e-05
9 20 100 15 0.0272249
10 20 100 15 0.0250859
11 20 100 15 0.0793955
12 20 100 15 0.0382356
13 20 100 15 0.0950734
14 20 100 15 0.284946
15 20 100 15 0.42565
1 21 100 15 3.69251e-06
2 21 100 15 1.30233e-07
3 21 100 15 3.67181e-07
4 21 100 15 1.0982e-05
5 21 100 15 0.0122401
6 21 100 15 0.0242258
7 21 100 15 0.00304482
8 21 100 15 0.0275019
9 21 100 15 0.0271494
10 21 100 15 0.027772
11 21 100 15 0.122435
12 21 100 15 0.00665216
13 21 100 15 0.149176
14 21 100 15 0.107765
15 21 100 15 0.492022
2 22 100 15 2.0745e-07
3 22 100 15 9.36536e-07
4 22 100 15 2.60751e-07
5 22 100 15 0.0458147
6 22 100 15 0.0101951
7 22 100 15 0.0458984
8 22 100 15 0.0012144
9 22 100 15 0.0686059
10 22 100 15 0.0469013
11 22 100 15 0.0461287
12 22 100 15 0.147349
13 22 100 15 0.178893
14 22 100 15 0.196586
15 22 100 15 0.212412
3 23 100 15 1.43954e-06
4 23 100 15 0.000259833
5 23 100 15 0.00021634
6 23 100 15 1.98688e-07
7 23 100 15 0.133777
8 23 100 15 0.0631223
9 23 100 15 0.0665931
10 23 100 15 7.71946e-05
11 23 100 15 0.0628692
12 23 100 15 0.179243
13 23 100 15 0.0628688
14 23 100 15 0.0958357
15 23 100 15 0.335136
1 24 100 15 0.0420185
3 24 100 15 1.25938e-06
4 24 100 15 1.43955e-05
5 24 100 15 0.0079387
6 24 100 15 4.75075e-06
7 24 100 15 7.17231e-07
8 24 100 15 9.80813e-06
9 24 100 15 0.000436892
10 24 100 15 0.210766
12 24 100 15 0.00511429
13 24 100 15 0.257897
14 24 100 15 0.134401
15 24 100 15 0.341397
3 25 100 15 0.0970356
6 25 100 15 2.50981e-07
10 25 100 15 4.35504e-06
11 25 100 15 0.136151
12 25 100 15 0.0013459
13 25 100 15 0.141844
14 25 100 15 0.283616
15 25 100 15 0.340003
1 26 100 15 3.61292e-06
3 26 100 15 5.58234e-07
5 26 100 15 0.012365
6 26 100 15 6.65191e-07
11 26 100 15 4.81808e-06
12 26 100 15 0.392049
13 26 100 15 2.81123e-05
14 26 100 15 0.391155
15 26 100 15 0.204394
1 27 100 15 0.000179061
13 27 100 15 5.03001e-05
14 27 100 15 0.000491249
15 27 100 15 0.999279
1 0 100 16 0.0268557
2 0 100 16 0.031954
3 0 100 16 0.0516705
4 0 100 16 0.062847
5 0 100 16 0.0579954
6 0 100 16 0.0665711
7 0 100 16 0.0612033
8 0 100 16 0.073097
9 0 100 16 0.0637636
10 0 100 16 0.0718196
11 0 100 16 0.0781913
12 0 100 16 0.0665593
13 0 100 16 0.0837836
14 0 100 16 0.0596936
15 0 100 16 0.0150182
16 0 100 16 0.128977
1 1 100 16 0.891249
2 1 100 16 0.0552072
3 1 100 16 0.0218583
4 1 100 16 0.00415173
5 1 100 16 0.0067432
6 1 100 16 0.00144259
7 1 100 16 0.00283513
8 1 100 16 0.00137095
9 1 100 16 0.00274947
10 1 100 16 0.00408379
11 1 100 16 0.00139233
12 1 100 16 0.00408569
13 1 100 16 0.00274485
14 1 100 16 2.26235e-05
16 1 100 16 6.33106e-05
1 2 100 16 0.0505865
2 2 100 16 0.721681
3 2 100 16 0.103061
4 2 100 16 0.054798
5 2 100 16 0.0234985
6 2 100 16 0.0192074
7 2 100 16 0.0066112
8 2 100 16 0.0045462
9 2 100 16 0.00244824
10 2 100 16 0.00442549
11 2 100 16 0.00457609
12 2 100 16 6.04267e-06
13 2 100 16 0.00149894
14 2 100 16 0.00150556
15 2 100 16 0.0014956
16 2 100 16 5.402e-05
1 3 100 16 0.0198794
2 3 100 16 0.167681
3 3 100 16 0.557367
4 3 100 16 0.119132
5 3 100 16 0.0611614
6 3 100 16 0.0253732
7 3 100 16 0.014321
8 3 100 16 0.0115472
9 3 100 16 0.00634038
10 3 100 16 0.00479287
11 3 100 16 8.75649e-05
12 3 100 16 0.00561311
13 3 100 16 0.00175891
14 3 100 16 0.00163019
15 3 100 16 0.00172737
16 3 100 16 0.00158767
1 4 100 16 0.0134636
2 4 100 16 0.0578765
3 4 100 16 0.213705
4 4 100 16 0.403933
5 4 100 16 0.12467
6 4 100 16 0.0657554
7 4 100 16 0.0367891
8 4 100 16 0.0207464
9 4 100 16 0.0149551
10 4 100 16 0.0147127
11 4 100 16 0.0120526
12 4 100 16 0.00783187
13 4 100 16 0.0104881
14 4 100 16 0.00298253
15 4 100 16 3.76567e-05
16 4 100 16 1.06716e-06
1 5 100 16 0.00680709
2 5 100 16 0.0244181
3 5 100 16 0.0683669
4 5 100 16 0.217756
5 5 100 16 0.353617
6 5 100 16 0.139774
7 5 100 16 0.0754709
8 5 100 16 0.0347866
9 5 100 16 0.0188408
10 5 100 16 0.011906
11 5 100 16 0.0105963
12 5 100 16 0.0189838
13 5 100 16 0.00405588
14 5 100 16 0.01017
15 5 100 16 0.00444857
16 5 100 16 1.88849e-06
1 6 100 16 0.00312692
2 6 100 16 0.0160065
3 6 100 16 0.0335762
4 6 100 16 0.0883614
5 6 100 16 0.213944
6 6 100 16 0.322121
7 6 100 16 0.150719
8 6 100 16 0.0617944
9 6 100 16 0.0327857
10 6 100 16 0.0244146
11 6 100 16 0.014321
12 6 100 16 0.0112358
13 6 100 16 0.0112261
14 6 100 16 0.00832002
15 6 100 16 0.00803958
16 6 100 16 7.11641e-06
1 7 100 16 0.00379452
2 7 100 16 0.00734846
3 7 100 16 0.0222762
4 7 100 16 0.0367701
5 7 100 16 0.10416
6 7 100 16 0.202301
7 7 100 16 0.266632
8 7 100 16 0.149373
9 7 100 16 0.0801737
10 7 100 16 0.0288946
11 7 100 16 0.028693
12 7 100 16 0.0184661
13 7 100 16 0.0173282
14 7 100 16 0.0211621
15 7 100 16 0.011157
16 7 100 16 0.00146988
1 8 100 16 4.97712e-06
2 8 100 16 0.00487461
3 8 100 16 0.00971919
4 8 100 16 0.027114
5 8 100 16 0.0528875
6 8 100 16 0.101792
7 8 100 16 0.181193
8 8 100 16 0.267691
9 8 100 16 0.170585
10 8 100 16 0.0679292
11 8 100 16 0.0331693
12 8 100 16 0.0231363
13 8 100 16 0.0240844
14 8 100 16 0.0196289
15 8 100 16 0.0117307
16 8 100 16 0.00445932
1 9 100 16 0.00606847
2 9 100 16 0.0125356
3 9 100 16 0.0110659
4 9 100 16 0.0204583
5 9 100 16 0.047837
6 9 100 16 0.0528806
7 9 100 16 0.11924
8 9 100 16 0.162465
9 9 100 16 0.220338
10 9 100 16 0.165552
11 9 100 16 0.0915203
12 9 100 16 0.0347687
13 9 100 16 0.0216955
14 9 100 16 0.0165106
15 9 100 16 0.0141533
16 9 100 16 0.00291121
1 10 100 16 0.00563146
2 10 100 16 0.00767168
3 10 100 16 0.00945591
4 10 100 16 0.0102338
5 10 100 16 0.00653929
6 10 100 16 0.0384511
7 10 100 16 0.0767024
8 10 100 16 0.107757
9 10 100 16 0.165871
10 10 100 16 0.216684
11 10 100 16 0.153667
12 10 100 16 0.0902916
13 10 100 16 0.0464953
14 10 100 16 0.029474
15 10 100 16 0.0305964
16 10 100 16 0.00447723
1 11 100 16 3.63871e-06
2 11 100 16 0.00302505
3 11 100 16 0.0103607
4 11 100 16 0.006011
5 11 100 16 0.0195285
6 11 100 16 0.0186948
7 11 100 16 0.0333287
8 11 100 16 0.0648138
9 11 100 16 0.114221
10 11 100 16 0.175896
11 11 100 16 0.187786
12 11 100 16 0.166994
13 11 100 16 0.0891215
14 11 100 16 0.0622407
15 11 100 16 0.0344786
16 11 100 16 0.0134964
1 12 100 16 0.00327668
2 12 100 16 0.00493512
3 12 100 16 0.00331248
4 12 100 16 0.00504398
5 12 100 16 0.00995136
6 12 100 16 0.0186028
7 12 100 16 0.0248813
8 12 100 16 0.0451739
9 12 100 16 0.0658791
10 12 100 16 0.10675
11 12 100 16 0.166881
12 12 100 16 0.199767
13 12 100 16 0.160899
14 12 100 16 0.104153
15 12 100 16 0.0576222
16 12 100 16 0.0228716
1 13 100 16 1.23084e-05
2 13 100 16 0.00186855
3 13 100 16 0.00545051
4 13 100 16 0.00688782
5 13 100 16 0.00522254
6 13 100 16 0.00650667
7 13 100 16 0.0213405
8 13 100 16 0.0233262
9 13 100 16 0.0553698
10 13 100 16 0.0765278
11 13 100 16 0.0984069
12 13 100 16 0.166586
13 13 100 16 0.187777
14 13 100 16 0.180963
15 13 100 16 0.131211
16 13 100 16 0.0325435
1 14 100 16 0.00180323
2 14 100 16 3.79889e-06
3 14 100 16 0.00749257
4 14 100 16 0.00376965
5 14 100 16 0.0019378
6 14 100 16 0.00580371
7 14 100 16 0.0051686
8 14 100 16 0.016548
9 14 100 16 0.0432983
10 14 100 16 0.0525945
11 14 100 16 0.0988909
12 14 100 16 0.104988
13 14 100 16 0.156379
14 14 100 16 0.197221
15 14 100 16 0.210855
16 14 100 16 0.0932466
1 15 100 16 0.00243746
2 15 100 16 0.00197049
3 15 100 16 0.00195603
4 15 100 16 0.00588399
5 15 100 16 0.00185488
6 15 100 16 0.0039414
7 15 100 16 0.00573913
8 15 100 16 0.0137205
9 15 100 16 0.0238209
10 15 100 16 0.041315
11 15 100 16 0.0635724
12 15 100 16 0.0969075
13 15 100 16 0.138681
14 15 100 16 0.175949
15 15 100 16 0.232886
16 15 100 16 0.189365
1 16 100 16 0.00258061
2 16 100 16 0.00261437
3 16 100 16 1.25592e-05
4 16 100 16 3.69156e-06
5 16 100 16 0.00529082
6 16 100 16 0.000932088
7 16 100 16 0.00525551
8 16 100 16 0.0190329
9 16 100 16 0.00764063
10 16 100 16 0.022093
11 16 100 16 0.0357793
12 16 100 16 0.0975429
13 16 100 16 0.113467
14 16 100 16 0.194104
15 16 100 16 0.262323
16 16 100 16 0.231328
1 17 100 16 4.78179e-06
2 17 100 16 0.00265764
3 17 100 16 0.00983456
4 17 100 16 0.00657245
5 17 100 16 1.37041e-05
6 17 100 16 0.00330611
7 17 100 16 0.00978912
8 17 100 16 0.00659085
9 17 100 16 0.0135366
10 17 100 16 0.0201988
11 17 100 16 0.048544
12 17 100 16 0.0655691
13 17 100 16 0.0876765
14 17 100 16 0.157354
15 17 100 16 0.306958
16 17 100 16 0.261394
1 18 100 16 6.13059e-05
2 18 100 16 0.00473655
3 18 100 16 0.00423697
4 18 100 16 0.00948005
5 18 100 16 0.00388445
6 18 100 16 5.78438e-05
7 18 100 16 0.00772907
8 18 100 16 0.00480952
9 18 100 16 0.0202209
10 18 100 16 0.0276577
11 18 100 16 0.04695
12 18 100 16 0.0543272
13 18 100 16 0.0638018
14 18 100 16 0.127824
15 18 100 16 0.268833
16 18 100 16 0.35539
1 19 100 16 1.09191e-06
2 19 100 16 2.52944e-06
3 19 100 16 0.00101962
4 19 100 16 0.0236752
5 19 100 16 0.00662528
6 19 100 16 0.0133081
7 19 100 16 0.0001836
8 19 100 16 0.0109129
9 19 100 16 0.0306958
10 19 100 16 0.0330468
11 19 100 16 0.0243277
12 19 100 16 0.0692976
13 19 100 16 0.108462
14 19 100 16 0.0766339
15 19 100 16 0.21754
16 19 100 16 0.384268
1 20 100 16 1.09015e-06
2 20 100 16 2.05275e-05
3 20 100 16 5.06966e-05
4 20 100 16 0.0234467
5 20 100 16 0.00748095
6 20 100 16 0.0010225
7 20 100 16 0.0104742
8 20 100 16 0.000512514
9 20 100 16 0.0226921
10 20 100 16 0.041066
11 20 100 16 0.058636
12 20 100 16 0.063675
13 20 100 16 0.115767
14 20 100 16 0.161096
15 20 100 16 0.214741
16 20 100 16 0.279319
1 21 100 16 3.5528e-06
2 21 100 16 0.0182089
3 21 100 16 0.0214893
4 21 100 16 0.0323521
5 21 100 16 0.0192298
6 21 100 16 0.0020788
7 21 100 16 0.000125666
8 21 100 16 0.00656712
9 21 100 16 6.41025e-06
10 21 100 16 5.94986e-06
11 21 100 16 0.0182144
12 21 100 16 0.0721541
13 21 100 16 0.118515
14 21 100 16 0.165233
15 21 100 16 0.206975
16 21 100 16 0.318841
1 22 100 16 0.00017111
2 22 100 16 1.79514e-05
3 22 100 16 0.0197724
4 22 100 16 0.00250206
5 22 100 16 3.92987e-05
6 22 100 16 4.72377e-07
7 22 100 16 2.07488e-05
8 22 100 16 0.0338978
9 22 100 16 0.0285497
10 22 100 16 5.81642e-07
11 22 100 16 1.25614e-05
12 22 100 16 0.000604279
13 22 100 16 0.0831752
14 22 100 16 0.160979
15 22 100 16 0.1718
16 22 100 16 0.498457
1 23 100 16 9.85388e-07
2 23 100 16 5.51088e-05
3 23 100 16 0.000159786
4 23 100 16 0.0489479
5 23 100 16 1.59091e-05
6 23 100 16 7.92285e-06
7 23 100 16 0.000196144
8 23 100 16 6.0378e-07
9 23 100 16 0.0371765
10 23 100 16 2.75593e-07
11 23 100 16 0.000952023
12 23 100 16 2.02306e-06
13 23 100 16 0.0265564
14 23 100 16 0.144718
15 23 100 16 0.295832
16 23 100 16 0.445379
1 24 100 16 7.95953e-07
2 24 100 16 3.62568e-07
3 24 100 16 0.00107652
4 24 100 16 0.00103273
5 24 100 16 0.000117419
7 24 100 16 1.08166e-07
9 24 100 16 3.74873e-07
10 24 100 16 0.0910165
12 24 100 16 1.83542e-07
13 24 100 16 3.15765e-05
14 24 100 16 0.233396
15 24 100 16 0.270824
16 24 100 16 0.402503
2 25 100 16 1.39575e-05
4 25 100 16 1.75383e-05
5 25 100 16 1.74535e-06
8 25 100 16 0.0894577
9 25 100 16 0.000510558
10 25 100 16 1.45032e-05
11 25 100 16 0.113886
12 25 100 16 4.643e-05
15 25 100 16 0.22777
16 25 100 16 0.568282
3 26 100 16 9.78146e-07
11 26 100 16 3.72057e-07
15 26 100 16 0.247337
16 26 100 16 0.752661
1 27 100 16 0.56651
2 27 100 16 0.3868
4 27 100 16 0.0315034
10 27 100 16 0.00314214
13 27 100 16 0.0120449
1 28 100 16 2.6568e-07
2 28 100 16 0.17143
3 28 100 16 0.180193
4 28 100 16 0.00618901
8 28 100 16 6.72617e-06
9 28 100 16 0.000664155
10 28 100 16 0.181587
11 28 100 16 0.180685
12 28 100 16 0.182076
13 28 100 16 3.27018e-05
14 28 100 16 0.0969593
15 28 100 16 0.000177932
1 29 100 16 0.278332
2 29 100 16 0.00893969
4 29 100 16 0.04973
11 29 100 16 0.0205388
13 29 100 16 0.621275
14 29 100 16 0.0211847
1 30 100 16 0.00593559
2 30 100 16 0.00886916
3 30 100 16 0.0105237
4 30 100 16 0.781789
8 30 100 16 1.34624e-05
9 30 100 16 0.000115845
10 30 100 16 0.00202328
11 30 100 16 0.0014069
12 30 100 16 0.00167354
13 30 100 16 1.19389e-05
14 30 100 16 0.0105318
15 30 100 16 0.177106
2 31 100 16 0.0166183
4 31 100 16 0.00788385
5 31 100 16 0.0126872
16 31 100 16 0.962811
1 32 100 16 2.34206e-06
2 32 100 16 1.04929e-06
16 32 100 16 0.999997
1 0 100 17 0.0295156
2 0 100 17 0.0224098
3 0 100 17 0.055892
4 0 100 17 0.0606816
5 0 100 17 0.0708123
6 0 100 17 0.0604231
7 0 100 17 0.0641053
8 0 100 17 0.0714991
9 0 100 17 0.0656097
10 0 100 17 0.0657477
11 0 100 17 0.063249
12 0 100 17 0.0610071
13 0 100 17 0.0666534
14 0 100 17 0.0687684
15 0 100 17 0.0509316
16 0 100 17 0.00841533
17 0 100 17 0.114279
1 1 100 17 0.887532
2 1 100 17 0.050781
3 1 100 17 0.0121817
4 1 100 17 0.00946159
5 1 100 17 0.0131196
6 1 100 17 0.0027694
7 1 100 17 8.75484e-06
8 1 100 17 0.00869334
9 1 100 17 0.00767943
10 1 100 17 0.00146085
11 1 100 17 0.00147128
12 1 100 17 0.00146309
13 1 100 17 0.00147032
14 1 100 17 1.51286e-05
15 1 100 17 0.0014688
16 1 100 17 3.67967e-06
17 1 100 17 0.00042022
1 2 100 17 0.0530681
2 2 100 17 0.695532
3 2 100 17 0.113794
4 2 100 17 0.0284568
5 2 100 17 0.0163664
6 2 100 17 0.0178157
7 2 100 17 0.0106911
8 2 100 17 0.0105064
9 2 100 17 0.00584127
10 2 100 17 0.0101582
11 2 100 17 0.0114879
12 2 100 17 0.00872102
13 2 100 17 0.00752361
14 2 100 17 0.00564467
15 2 100 17 0.00291852
16 2 100 17 0.0014641
17 2 100 17 1.00996e-05
1 3 100 17 0.0169119
2 3 100 17 0.15028
3 3 100 17 0.527875
4 3 100 17 0.14335
5 3 100 17 0.0465833
6 3 100 17 0.0331301
7 3 100 17 0.0195109
8 3 100 17 0.0164639
9 3 100 17 0.0100315
10 3 100 17 0.00180488
11 3 100 17 0.00338302
12 3 100 17 0.00503256
13 3 100 17 0.00342098
14 3 100 17 0.0103132
15 3 100 17 0.00810476
16 3 100 17 0.0021175
17 3 100 17 0.00168576
1 4 100 17 0.0116368
2 4 100 17 0.047324
3 4 100 17 0.172707
4 4 100 17 0.387688
5 4 100 17 0.147763
6 4 100 17 0.0793453
7 4 100 17 0.0414977
8 4 100 17 0.0228538
9 4 100 17 0.0168492
10 4 100 17 0.0214897
11 4 100 17 0.00314472
12 4 100 17 0.0103536
13 4 100 17 0.00919608
14 4 100 17 0.00358933
15 4 100 17 0.0138253
16 4 100 17 0.0107293
17 4 100 17 8.05347e-06
1 5 100 17 0.00714751
2 5 100 17 0.0238187
3 5 100 17 0.0709733
4 5 100 17 0.201613
5 5 100 17 0.340523
6 5 100 17 0.144989
7 5 100 17 0.0853444
8 5 100 17 0.034136
9 5 100 17 0.0159991
10 5 100 17 0.0162183
11 5 100 17 0.0131327
12 5 100 17 0.0066908
13 5 100 17 0.00459706
14 5 100 17 0.0131645
15 5 100 17 0.0100098
16 5 100 17 0.011621
17 5 100 17 2.28085e-05
1 6 100 17 0.0108327
2 6 100 17 0.0140104
3 6 100 17 0.0444031
4 6 100 17 0.0932955
5 6 100 17 0.184413
6 6 100 17 0.303922
7 6 100 17 0.164918
8 6 100 17 0.0673809
9 6 100 17 0.04185
10 6 100 17 0.0171195
11 6 100 17 0.013997
12 6 100 17 0.00870151
13 6 100 17 0.013954
14 6 100 17 0.0104752
15 6 100 17 0.00361852
16 6 100 17 0.00691841
17 6 100 17 0.000189602
1 7 100 17 0.00467862
2 7 100 17 0.0209753
3 7 100 17 0.0183088
4 7 100 17 0.0379509
5 7 100 17 0.105602
6 7 100 17 0.193357
7 7 100 17 0.265746
8 7 100 17 0.138908
9 7 100 17 0.0849995
10 7 100 17 0.0513243
11 7 100 17 0.0312271
12 7 100 17 0.0177878
13 7 100 17 0.00949343
14 7 100 17 0.00673085
15 7 100 17 0.00486879
16 7 100 17 0.00803339
17 7 100 17 8.63014e-06
1 8 100 17 0.00317316
2 8 100 17 0.00840804
3 8 100 17 0.0194356
4 8 100 17 0.0344785
5 8 100 17 0.0550297
6 8 100 17 0.105114
7 8 100 17 0.183739
8 8 100 17 0.238883
9 8 100 17 0.148353
10 8 100 17 0.0846621
11 8 100 17 0.0510715
12 8 100 17 0.027344
13 8 100 17 0.0136921
14 8 100 17 0.0118258
15 8 100 17 0.00898506
16 8 100 17 0.00479003
17 8 100 17 0.00101564
1 9 100 17 0.00914813
2 9 100 17 0.00910159
3 9 100 17 0.0106788
4 9 100 17 0.0271124
5 9 100 17 0.0230714
6 9 100 17 0.0698549
7 9 100 17 0.0847986
8 9 100 17 0.14387
9 9 100 17 0.223092
10 9 100 17 0.157014
11 9 100 17 0.100221
12 9 100 17 0.0602539
13 9 100 17 0.0334561
14 9 100 17 0.0170852
15 9 100 17 0.0239337
16 9 100 17 0.00602533
17 9 100 17 0.00128392
1 10 100 17 0.00305561
2 10 100 17 0.0148591
3 10 100 17 0.013194
4 10 100 17 0.0130079
5 10 100 17 0.0280344
6 10 100 17 0.0270962
7 10 100 17 0.0644272
8 10 100 17 0.110428
9 10 100 17 0.161564
10 10 100 17 0.192994
11 10 100 17 0.137969
12 10 100 17 0.09012
13 10 100 17 0.0597847
14 10 100 17 0.0315429
15 10 100 17 0.0258102
16 10 100 17 0.0238393
17 10 100 17 0.00227352
1 11 100 17 0.00317788
2 11 100 17 0.00691338
3 11 100 17 0.00988704
4 11 100 17 0.00216589
5 11 100 17 0.00688937
6 11 100 17 0.0171897
7 11 100 17 0.0265178
8 11 100 17 0.0861532
9 11 100 17 0.119428
10 11 100 17 0.159364
11 11 100 17 0.175676
12 11 100 17 0.141834
13 11 100 17 0.0929952
14 11 100 17 0.0665467
15 11 100 17 0.0390134
16 11 100 17 0.0342912
17 11 100 17 0.0119574
1 12 100 17 0.00165602
2 12 100 17 0.00651031
3 12 100 17 0.00364114
4 12 100 17 0.00821401
5 12 100 17 0.00822477
6 12 100 17 0.0217732
7 12 100 17 0.0163561
8 12 100 17 0.0404476
9 12 100 17 0.0628753
10 12 100 17 0.103391
11 12 100 17 0.171782
12 12 100 17 0.172846
13 12 100 17 0.135665
14 12 100 17 0.110105
15 12 100 17 0.0747321
16 12 100 17 0.0408457
17 12 100 17 0.0209354
1 13 100 17 5.29926e-06
2 13 100 17 0.00193568
3 13 100 17 0.0103573
4 13 100 17 0.005319
5 13 100 17 0.00330893
6 13 100 17 0.00344749
7 13 100 17 0.0145719
8 13 100 17 0.0226755
9 13 100 17 0.0381257
10 13 100 17 0.0874695
11 13 100 17 0.119505
12 13 100 17 0.157293
13 13 100 17 0.178611
14 13 100 17 0.141406
15 13 100 17 0.11088
16 13 100 17 0.082255
17 13 100 17 0.0228339
1 14 100 17 5.30571e-06
2 14 100 17 0.00173843
3 14 100 17 0.00898768
4 14 100 17 0.0086544
5 14 100 17 0.0102152
6 14 100 17 0.0139815
7 14 100 17 0.00637151
8 14 100 17 0.0130209
9 14 100 17 0.023835
10 14 100 17 0.0559716
11 14 100 17 0.0871765
12 14 100 17 0.128894
13 14 100 17 0.135842
14 14 100 17 0.166015
15 14 100 17 0.145309
16 14 100 17 0.138256
17 14 100 17 0.0557243
1 15 100 17 0.00184052
2 15 100 17 4.82862e-06
3 15 100 17 0.00383708
4 15 100 17 0.0109998
5 15 100 17 0.00735239
6 15 100 17 0.00596438
7 15 100 17 0.0195859
8 15 100 17 0.0125378
9 15 100 17 0.0244069
10 15 100 17 0.0195213
11 15 100 17 0.0586714
12 15 100 17 0.0993852
13 15 100 17 0.156582
14 15 100 17 0.139497
15 15 100 17 0.192555
16 15 100 17 0.155607
17 15 100 17 0.0916504
1 16 100 17 0.00212386
2 16 100 17 0.00424133
3 16 100 17 0.00428273
4 16 100 17 0.00223607
5 16 100 17 0.0106126
6 16 100 17 0.00641763
7 16 100 17 0.0190863
8 16 100 17 0.0191159
9 16 100 17 0.0176374
10 16 100 17 0.0287944
11 16 100 17 0.0378264
12 16 100 17 0.0693546
13 16 100 17 0.0951246
14 16 100 17 0.158574
15 16 100 17 0.160682
16 16 100 17 0.236762
17 16 100 17 0.127127
1 17 100 17 0.00531403
2 17 100 17 0.00838435
3 17 100 17 0.00540887
4 17 100 17 0.0083648
5 17 100 17 0.00805342
6 17 100 17 0.00802337
7 17 100 17 0.00546202
8 17 100 17 0.00987573
9 17 100 17 0.0158805
10 17 100 17 0.0159637
11 17 100 17 0.0333061
12 17 100 17 0.0590805
13 17 100 17 0.0849515
14 17 100 17 0.121777
15 17 100 17 0.161959
16 17 100 17 0.259439
17 17 100 17 0.188757
1 18 100 17 7.66203e-06
2 18 100 17 0.00332193
3 18 100 17 0.00334793
4 18 100 17 0.00331417
5 18 100 17 0.00718887
6 18 100 17 0.00336316
7 18 100 17 0.0133148
8 18 100 17 0.0137921
9 18 100 17 0.00946682
10 18 100 17 0.0196055
11 18 100 17 0.0167388
12 18 100 17 0.039697
13 18 100 17 0.0725532
14 18 100 17 0.0940343
15 18 100 17 0.187723
16 18 100 17 0.23792
17 18 100 17 0.274611
1 19 100 17 5.43803e-05
2 19 100 17 1.71128e-05
3 19 100 17 7.58335e-05
4 19 100 17 1.79041e-05
5 19 100 17 0.00188892
6 19 100 17 0.00132425
7 19 100 17 0.0131806
8 19 100 17 0.0235657
9 19 100 17 0.0198161
10 19 100 17 0.00539714
11 19 100 17 0.0208596
12 19 100 17 0.0360837
13 19 100 17 0.0629665
14 19 100 17 0.10085
15 19 100 17 0.173288
16 19 100 17 0.2462
17 19 100 17 0.294414
1 20 100 17 0.00573808
2 20 100 17 0.011708
3 20 100 17 0.0154818
4 20 100 17 0.0177732
5 20 100 17 0.01915
6 20 100 17 0.0114878
7 20 100 17 0.0126891
8 20 100 17 0.0157363
9 20 100 17 0.0216908
10 20 100 17 0.0285492
11 20 100 17 0.0190011
12 20 100 17 0.036442
13 20 100 17 0.0416296
14 20 100 17 0.072363
15 20 100 17 0.0928567
16 20 100 17 0.194364
17 20 100 17 0.383339
1 21 100 17 1.35803e-05
2 21 100 17 9.64772e-06
3 21 100 17 1.2058e-05
4 21 100 17 0.000196364
5 21 100 17 0.00313758
6 21 100 17 0.0203413
7 21 100 17 0.000681916
8 21 100 17 0.000113007
9 21 100 17 0.00225111
10 21 100 17 0.0115374
11 21 100 17 0.033601
12 21 100 17 0.0156938
13 21 100 17 0.0281682
14 21 100 17 0.0748887
15 21 100 17 0.108524
16 21 100 17 0.290666
17 21 100 17 0.410165
1 22 100 17 0.0175364
2 22 100 17 0.0174628
3 22 100 17 0.0174725
4 22 100 17 0.0175015
5 22 100 17 0.0174851
6 22 100 17 2.33504e-06
7 22 100 17 1.07944e-05
9 22 100 17 1.75016e-06
10 22 100 17 0.0336148
11 22 100 17 0.0262777
12 22 100 17 0.0180074
13 22 100 17 0.062885
14 22 100 17 0.0364292
15 22 100 17 0.0846716
16 22 100 17 0.263399
17 22 100 17 0.387242
1 23 100 17 3.99767e-07
3 23 100 17 1.59252e-07
6 23 100 17 8.17657e-05
7 23 100 17 3.03778e-06
8 23 100 17 8.41805e-07
9 23 100 17 1.25876e-07
10 23 100 17 0.0170967
11 23 100 17 0.0271219
12 23 100 17 0.0153455
13 23 100 17 0.00272321
14 23 100 17 0.0976064
15 23 100 17 0.056055
16 23 100 17 0.314623
17 23 100 17 0.469342
2 24 100 17 1.83983e-07
3 24 100 17 0.000919234
6 24 100 17 3.55891e-06
7 24 100 17 2.05956e-07
8 24 100 17 5.39791e-06
10 24 100 17 2.98626e-05
11 24 100 17 8.81229e-06
12 24 100 17 0.0300581
13 24 100 17 0.0545858
14 24 100 17 0.000300234
15 24 100 17 0.111499
16 24 100 17 0.110792
17 24 100 17 0.691797
1 25 100 17 9.82635e-07
6 25 100 17 3.9237e-06
7 25 100 17 2.35378e-07
9 25 100 17 2.61326e-07
10 25 100 17 8.34347e-07
11 25 100 17 9.90175e-07
13 25 100 17 0.00029895
14 25 100 17 0.218655
15 25 100 17 0.214398
17 25 100 17 0.566642
1 26 100 17 0.00121117
3 26 100 17 0.000189578
6 26 100 17 0.00115843
10 26 100 17 1.33726e-06
11 26 100 17 2.18407e-05
12 26 100 17 2.89076e-05
13 26 100 17 4.30041e-07
14 26 100 17 8.27793e-05
15 26 100 17 0.332653
16 26 100 17 5.93656e-06
17 26 100 17 0.664647
3 27 100 17 2.10604e-06
10 27 100 17 2.62826e-06
11 27 100 17 0.00655272
12 27 100 17 9.96641e-06
13 27 100 17 0.295666
14 27 100 17 4.90916e-06
15 27 100 17 9.96641e-06
16 27 100 17 0.660603
17 27 100 17 0.0371493
17 28 100 17 1
17 29 100 17 1
1 0 100 18 0.0256033
2 0 100 18 0.0229862
3 0 100 18 0.0508993
4 0 100 18 0.0593475
5 0 100 18 0.0563981
6 0 100 18 0.055178
7 0 100 18 0.0646784
8 0 100 18 0.0651675
9 0 100 18 0.0630868
10 0 100 18 0.0616583
11 0 100 18 0.0657812
12 0 100 18 0.0614643
13 0 100 18 0.0643412
14 0 100 18 0.0530769
15 0 100 18 0.0685856
16 0 100 18 0.0552141
17 0 100 18 0.00961216
18 0 100 18 0.0969212
1 1 100 18 0.916363
2 1 100 18 0.0506064
3 1 100 18 0.0146707
4 1 100 18 0.00907401
5 1 100 18 0.00456594
6 1 100 18 0.0014264
7 1 100 18 0.00150011
8 1 100 18 2.52296e-05
9 1 100 18 6.74043e-05
10 1 100 18 1.11885e-05
11 1 100 18 4.85879e-06
12 1 100 18 6.97705e-06
13 1 100 18 4.41613e-06
14 1 100 18 7.74096e-06
15 1 100 18 9.39367e-06
16 1 100 18 0.00151939
17 1 100 18 1.32153e-07
18 1 100 18 0.000136968
1 2 100 18 0.0557287
2 2 100 18 0.734628
3 2 100 18 0.106842
4 2 100 18 0.0420058
5 2 100 18 0.0203032
6 2 100 18 0.0108266
7 2 100 18 0.0101612
8 2 100 18 0.00642541
9 2 100 18 0.00115303
10 2 100 18 0.00568009
11 2 100 18 0.00156302
12 2 100 18 0.00308626
13 2 100 18 3.60881e-06
14 2 100 18 0.00157761
15 2 100 18 5.3541e-07
16 2 100 18 1.25092e-05
17 2 100 18 1.26078e-07
18 2 100 18 1.98837e-06
1 3 100 18 0.0205633
2 3 100 18 0.162023
3 3 100 18 0.543571
4 3 100 18 0.140421
5 3 100 18 0.0644154
6 3 100 18 0.0367134
7 3 100 18 0.00810062
8 3 100 18 0.00525104
9 3 100 18 0.00174442
10 3 100 18 0.00175234
11 3 100 18 0.00173461
12 3 100 18 0.00175715
13 3 100 18 0.00522924
14 3 100 18 0.00118817
15 3 100 18 1.02963e-06
16 3 100 18 0.000658369
17 3 100 18 0.00174713
18 3 100 18 0.00312939
1 4 100 18 0.0141881
2 4 100 18 0.0477456
3 4 100 18 0.201551
4 4 100 18 0.370909
5 4 100 18 0.168168
6 4 100 18 0.0792398
7 4 100 18 0.0417315
8 4 100 18 0.0113679
9 4 100 18 0.00974124
10 4 100 18 0.0113808
11 4 100 18 0.0050275
12 4 100 18 0.0096745
13 4 100 18 0.0128923
14 4 100 18 0.00324361
15 4 100 18 0.00159232
16 4 100 18 0.00652529
17 4 100 18 0.00486152
18 4 100 18 0.000160478
1 5 100 18 0.00620271
2 5 100 18 0.0355547
3 5 100 18 0.0824704
4 5 100 18 0.19889
5 5 100 18 0.319517
6 5 100 18 0.1655
7 5 100 18 0.0739264
8 5 100 18 0.038481
9 5 100 18 0.029665
10 5 100 18 0.00629576
11 5 100 18 0.0125785
12 5 100 18 0.00475723
13 5 100 18 0.00580234
14 5 100 18 0.00638838
15 5 100 18 0.0063281
16 5 100 18 0.00447415
17 5 100 18 0.00316293
18 5 100 18 5.62481e-06
1 6 100 18 0.00752239
2 6 100 18 0.0126449
3 6 100 18 0.0327234
4 6 100 18 0.0902912
5 6 100 18 0.197052
6 6 100 18 0.277937
7 6 100 18 0.174609
8 6 100 18 0.0789895
9 6 100 18 0.0451111
10 6 100 18 0.0247791
11 6 100 18 0.0138436
12 6 100 18 0.0113239
13 6 100 18 0.00767146
14 6 100 18 0.00858705
15 6 100 18 0.00154087
16 6 100 18 0.00925342
17 6 100 18 0.00612065
18 6 100 18 1.79472e-07
1 7 100 18 0.00148717
2 7 100 18 0.00929097
3 7 100 18 0.0223304
4 7 100 18 0.0473614
5 7 100 18 0.0928861
6 7 100 18 0.207487
7 7 100 18 0.226869
8 7 100 18 0.162825
9 7 100 18 0.0979127
10 7 100 18 0.0559176
11 7 100 18 0.0283473
12 7 100 18 0.010317
13 7 100 18 0.00864111
14 7 100 18 0.00319065
15 7 100 18 0.00837646
16 7 100 18 0.00703115
17 7 100 18 0.00871486
18 7 100 18 0.00101398
1 8 100 18 0.0090196
2 8 100 18 0.00583463
3 8 100 18 0.0191372
4 8 100 18 0.0338775
5 8 100 18 0.0468799
6 8 100 18 0.102236
7 8 100 18 0.194158
8 8 100 18 0.221196
9 8 100 18 0.124451
10 8 100 18 0.0893077
11 8 100 18 0.0562134
12 8 100 18 0.0341181
13 8 100 18 0.0255375
14 8 100 18 0.0105635
15 8 100 18 0.00636485
16 8 100 18 0.0134374
17 8 100 18 0.00599165
18 8 100 18 0.00167601
1 9 100 18 4.53261e-06
2 9 100 18 0.00911201
3 9 100 18 0.00327943
4 9 100 18 0.0118781
5 9 100 18 0.0279182
6 9 100 18 0.0428941
7 9 100 18 0.100646
8 9 100 18 0.186731
9 9 100 18 0.218835
10 9 100 18 0.141591
11 9 100 18 0.101904
12 9 100 18 0.0587666
13 9 100 18 0.027177
14 9 100 18 0.01968
15 9 100 18 0.0202592
16 9 100 18 0.0143385
17 9 100 18 0.0117616
18 9 100 18 0.00322373
1 10 100 18 0.00582736
2 10 100 18 0.00965041
3 10 100 18 0.00345363
4 10 100 18 0.00638287
5 10 100 18 0.0227284
6 10 100 18 0.0372718
7 10 100 18 0.0466496
8 10 100 18 0.103743
9 10 100 18 0.176242
10 10 100 18 0.216078
11 10 100 18 0.123548
12 10 100 18 0.110366
13 10 100 18 0.0586769
14 10 100 18 0.0323563
15 10 100 18 0.0165751
16 10 100 18 0.018429
17 10 100 18 0.0118766
18 10 100 18 0.000145393
1 11 100 18 0.0074544
2 11 100 18 0.00193548
3 11 100 18 0.0134285
4 11 100 18 0.0163892
5 11 100 18 0.0103336
6 11 100 18 0.0162893
7 11 100 18 0.0483089
8 11 100 18 0.0616308
9 11 100 18 0.108463
10 11 100 18 0.138935
11 11 100 18 0.180647
12 11 100 18 0.136015
13 11 100 18 0.100289
14 11 100 18 0.0736801
15 11 100 18 0.0313509
16 11 100 18 0.0300882
17 11 100 18 0.0217971
18 11 100 18 0.00296434
1 12 100 18 0.0032845
2 12 100 18 0.00330043
3 12 100 18 0.00684699
4 12 100 18 0.00915093
5 12 100 18 0.00983847
6 12 100 18 0.00497711
7 12 100 18 0.0171201
8 12 100 18 0.0421343
9 12 100 18 0.0583999
10 12 100 18 0.11958
11 12 100 18 0.154839
12 12 100 18 0.173651
13 12 100 18 0.120315
14 12 100 18 0.0997029
15 12 100 18 0.0711348
16 12 100 18 0.0373044
17 12 100 18 0.0569582
18 12 100 18 0.0114612
1 13 100 18 8.73852e-05
2 13 100 18 1.89381e-06
3 13 100 18 0.00168969
4 13 100 18 0.0114243
5 13 100 18 0.0080854
6 13 100 18 0.00362717
7 13 100 18 0.0117015
8 13 100 18 0.0188088
9 13 100 18 0.04358
10 13 100 18 0.0642205
11 13 100 18 0.123367
12 13 100 18 0.133228
13 13 100 18 0.173133
14 13 100 18 0.146948
15 13 100 18 0.110398
16 13 100 18 0.0741412
17 13 100 18 0.052345
18 13 100 18 0.0232126
1 14 100 18 6.19424e-07
2 14 100 18 0.00168142
3 14 100 18 0.00167954
4 14 100 18 0.00168772
5 14 100 18 0.00469464
6 14 100 18 0.0132985
7 14 100 18 0.0084005
8 14 100 18 0.0161223
9 14 100 18 0.031564
10 14 100 18 0.0561204
11 14 100 18 0.0667244
12 14 100 18 0.115644
13 14 100 18 0.140622
14 14 100 18 0.163603
15 14 100 18 0.142892
16 14 100 18 0.121274
17 14 100 18 0.0857669
18 14 100 18 0.0282245
1 15 100 18 7.16423e-06
2 15 100 18 0.0018051
3 15 100 18 1.78844e-05
4 15 100 18 0.00573198
5 15 100 18 0.0018105
6 15 100 18 0.00557784
7 15 100 18 0.00593426
8 15 100 18 0.00363366
9 15 100 18 0.0091731
10 15 100 18 0.0230503
11 15 100 18 0.0556791
12 15 100 18 0.0863852
13 15 100 18 0.121713
14 15 100 18 0.159536
15 15 100 18 0.169056
16 15 100 18 0.139006
17 15 100 18 0.148502
18 15 100 18 0.0633809
1 16 100 18 5.02995e-07
2 16 100 18 0.00388571
3 16 100 18 0.00194174
4 16 100 18 0.00197093
5 16 100 18 1.84576e-05
6 16 100 18 0.00386275
7 16 100 18 0.00582485
8 16 100 18 0.00998391
9 16 100 18 0.00358158
10 16 100 18 0.012382
11 16 100 18 0.0350801
12 16 100 18 0.0619007
13 16 100 18 0.0839024
14 16 100 18 0.129038
15 16 100 18 0.159787
16 16 100 18 0.193958
17 16 100 18 0.189219
18 16 100 18 0.103662
1 17 100 18 1.29803e-05
2 17 100 18 0.00432473
3 17 100 18 0.00653
4 17 100 18 0.00215387
5 17 100 18 6.89428e-05
6 17 100 18 0.00432276
7 17 100 18 0.00216009
8 17 100 18 0.00677813
9 17 100 18 0.0256202
10 17 100 18 0.014368
11 17 100 18 0.0179267
12 17 100 18 0.0291364
13 17 100 18 0.0644289
14 17 100 18 0.120924
15 17 100 18 0.131015
16 17 100 18 0.171203
17 17 100 18 0.228538
18 17 100 18 0.170489
1 18 100 18 2.45765e-05
2 18 100 18 0.00277527
3 18 100 18 0.00273554
4 18 100 18 0.0109073
5 18 100 18 0.00542954
6 18 100 18 0.000541145
7 18 100 18 0.00279128
8 18 100 18 0.00275449
9 18 100 18 0.00853791
10 18 100 18 0.0251282
11 18 100 18 0.0133257
12 18 100 18 0.0348612
13 18 100 18 0.0587327
14 18 100 18 0.0934862
15 18 100 18 0.126162
16 18 100 18 0.145778
17 18 100 18 0.206302
18 18 100 18 0.259726
1 19 100 18 1.22811e-05
2 19 100 18 3.29399e-07
3 19 100 18 7.87487e-06
4 19 100 18 7.97538e-07
5 19 100 18 0.0124709
6 19 100 18 0.00416915
7 19 100 18 0.00845187
8 19 100 18 0.00423098
9 19 100 18 0.0127397
10 19 100 18 0.00838409
11 19 100 18 0.0210635
12 19 100 18 0.0206066
13 19 100 18 0.0287081
14 19 100 18 0.0398997
15 19 100 18 0.118189
16 19 100 18 0.197293
17 19 100 18 0.246514
18 19 100 18 0.277258
1 20 100 18 7.65162e-06
2 20 100 18 0.00170648
3 20 100 18 0.000545415
4 20 100 18 4.81974e-05
5 20 100 18 8.18518e-06
6 20 100 18 5.69444e-05
7 20 100 18 0.00767586
8 20 100 18 0.0133958
9 20 100 18 0.0116173
10 20 100 18 0.0144492
11 20 100 18 0.00566185
12 20 100 18 0.027368
13 20 100 18 0.0589423
14 20 100 18 0.0571901
15 20 100 18 0.0995812
16 20 100 18 0.165233
17 20 100 18 0.241745
18 20 100 18 0.294768
1 21 100 18 0.0104652
2 21 100 18 0.00690931
3 21 100 18 0.00721795
4 21 100 18 0.00962612
5 21 100 18 0.00698989
6 21 100 18 0.00733991
7 21 100 18 0.00957818
8 21 100 18 0.0159134
9 21 100 18 0.016772
10 21 100 18 0.0315591
11 21 100 18 0.0107177
12 21 100 18 0.0156447
13 21 100 18 0.0337647
14 21 100 18 0.071903
15 21 100 18 0.0669267
16 21 100 18 0.128707
17 21 100 18 0.254053
18 21 100 18 0.295913
1 22 100 18 5.74137e-06
2 22 100 18 1.14227e-06
3 22 100 18 0.00961993
4 22 100 18 4.95039e-06
5 22 100 18 2.1192e-05
6 22 100 18 0.000110352
7 22 100 18 0.000202621
8 22 100 18 0.0192353
9 22 100 18 0.000941238
10 22 100 18 0.00973595
11 22 100 18 0.0131077
12 22 100 18 0.0297983
13 22 100 18 0.0269538
14 22 100 18 0.0782614
15 22 100 18 0.122416
16 22 100 18 0.0850434
17 22 100 18 0.199408
18 22 100 18 0.405133
1 23 100 18 1.18331e-05
3 23 100 18 3.6072e-05
4 23 100 18 0.0213612
6 23 100 18 0.000834932
7 23 100 18 0.000966297
8 23 100 18 0.00199502
9 23 100 18 0.0238054
10 23 100 18 0.0156068
11 23 100 18 0.0170624
12 23 100 18 0.0423337
13 23 100 18 0.0430719
14 23 100 18 0.00247141
15 23 100 18 0.0332035
16 23 100 18 0.076551
17 23 100 18 0.239786
18 23 100 18 0.480902
1 24 100 18 8.60118e-07
3 24 100 18 1.32559e-06
4 24 100 18 6.22721e-06
5 24 100 18 4.4829e-07
6 24 100 18 7.11349e-05
7 24 100 18 5.6782e-07
8 24 100 18 0.0311653
9 24 100 18 9.22673e-05
10 24 100 18 0.0328965
11 24 100 18 2.05973e-05
12 24 100 18 0.0574973
13 24 100 18 0.0653123
14 24 100 18 0.0640396
15 24 100 18 0.0511431
16 24 100 18 0.112998
17 24 100 18 0.238238
18 24 100 18 0.346516
1 25 100 18 1.49687e-07
3 25 100 18 0.000137256
4 25 100 18 0.000197102
6 25 100 18 4.16105e-06
7 25 100 18 1.48905e-05
8 25 100 18 2.06553e-06
9 25 100 18 0.000160742
11 25 100 18 7.98232e-07
12 25 100 18 0.000400932
13 25 100 18 0.0994952
14 25 100 18 0.109717
15 25 100 18 0.0327278
16 25 100 18 0.151231
17 25 100 18 0.349705
18 25 100 18 0.256205
3 26 100 18 1.63811e-07
4 26 100 18 3.93837e-07
5 26 100 18 4.21973e-07
6 26 100 18 1.8271e-07
7 26 100 18 3.96192e-05
8 26 100 18 2.97588e-06
11 26 100 18 2.38911e-07
12 26 100 18 3.1055e-07
13 26 100 18 1.19403e-06
14 26 100 18 9.56887e-05
15 26 100 18 0.000170821
16 26 100 18 0.00908679
17 26 100 18 0.219826
18 26 100 18 0.770776
2 27 100 18 0.000294538
7 27 100 18 1.01153e-06
13 27 100 18 1.82539e-05
15 27 100 18 2.60282e-06
17 27 100 18 0.00137096
18 27 100 18 0.998313
7 28 100 18 5.7263e-06
10 28 100 18 2.65827e-06
11 28 100 18 0.610687
12 28 100 18 4.21235e-06
13 28 100 18 2.44006e-06
14 28 100 18 0.0132052
15 28 100 18 4.21235e-06
16 28 100 18 6.55297e-06
18 28 100 18 0.376082
7 29 100 18 0.000521997
12 29 100 18 0.00133753
13 29 100 18 0.00180487
14 29 100 18 9.72171e-05
15 29 100 18 0.00133753
16 29 100 18 0.994901
10 30 100 18 1.2051e-06
14 30 100 18 2.0189e-06
16 30 100 18 0.00115154
17 30 100 18 0.998845
18 31 100 18 1
1 0 100 19 0.0214417
2 0 100 19 0.0245294
3 0 100 19 0.0481309
4 0 100 19 0.0542885
5 0 100 19 0.0547786
6 0 100 19 0.0571821
7 0 100 19 0.05799
8 0 100 19 0.0592643
9 0 100 19 0.0546272
10 0 100 19 0.0636514
11 0 100 19 0.0555629
12 0 100 19 0.0601379
13 0 100 19 0.0593721
14 0 100 19 0.0506517
15 0 100 19 0.0529347
16 0 100 19 0.0643702
17 0 100 19 0.0464814
18 0 100 19 0.0110158
19 0 100 19 0.103589
1 1 100 19 0.916104
2 1 100 19 0.0366096
3 1 100 19 0.00961755
4 1 100 19 0.0133165
5 1 100 19 0.00292702
6 1 100 19 0.00150641
7 1 100 19 0.00296302
8 1 100 19 0.00148614
9 1 100 19 0.000540366
10 1 100 19 0.00142165
11 1 100 19 0.00296188
12 1 100 19 1.98669e-05
13 1 100 19 0.00148545
14 1 100 19 0.0030294
15 1 100 19 0.0014143
16 1 100 19 0.00139857
17 1 100 19 0.00148857
18 1 100 19 0.00148553
19 1 100 19 0.000224325
1 2 100 19 0.0472146
2 2 100 19 0.689305
3 2 100 19 0.117064
4 2 100 19 0.0386724
5 2 100 19 0.033074
6 2 100 19 0.018049
7 2 100 19 0.00743725
8 2 100 19 0.00877375
9 2 100 19 0.00753502
10 2 100 19 0.00301745
11 2 100 19 0.00644848
12 2 100 19 0.00603045
13 2 100 19 0.00622748
14 2 100 19 0.00182579
15 2 100 19 0.00152265
16 2 100 19 0.00474276
17 2 100 19 0.00155276
18 2 100 19 0.00150608
19 2 100 19 1.49455e-07
1 3 100 19 0.0162998
2 3 100 19 0.166152
3 3 100 19 0.527778
4 3 100 19 0.118528
5 3 100 19 0.0615916
6 3 100 19 0.0207495
7 3 100 19 0.00883557
8 3 100 19 0.0119635
9 3 100 19 0.00677385
10 3 100 19 0.00678073
11 3 100 19 0.00506788
12 3 100 19 0.0051859
13 3 100 19 0.00671546
14 3 100 19 0.00855349
15 3 100 19 0.00686341
16 3 100 19 0.00535433
17 3 100 19 0.0083664
18 3 100 19 0.00677331
19 3 100 19 0.00166675
1 4 100 19 0.0177202
2 4 100 19 0.0540341
3 4 100 19 0.188176
4 4 100 19 0.40342
5 4 100 19 0.149079
6 4 100 19 0.0782364
7 4 100 19 0.0346346
8 4 100 19 0.0106885
9 4 100 19 0.00773914
10 4 100 19 0.00618235
11 4 100 19 0.00652391
12 4 100 19 0.00774218
13 4 100 19 0.00510918
14 4 100 19 0.00665332
15 4 100 19 0.0062041
16 4 100 19 0.00753517
17 4 100 19 0.007455
18 4 100 19 0.00286493
19 4 100 19 1.87277e-06
1 5 100 19 0.0142517
2 5 100 19 0.0223006
3 5 100 19 0.0772948
4 5 100 19 0.20252
5 5 100 19 0.335743
6 5 100 19 0.153883
7 5 100 19 0.07368
8 5 100 19 0.0449723
9 5 100 19 0.0209989
10 5 100 19 0.0177758
11 5 100 19 0.00640669
12 5 100 19 0.00256388
13 5 100 19 0.00164449
14 5 100 19 0.00955423
15 5 100 19 0.0035978
16 5 100 19 0.00319666
17 5 100 19 0.0031802
18 5 100 19 0.00642974
19 5 100 19 6.00254e-06
1 6 100 19 0.00318354
2 6 100 19 0.0266306
3 6 100 19 0.0309461
4 6 100 19 0.0812591
5 6 100 19 0.202531
6 6 100 19 0.296647
7 6 100 19 0.165729
8 6 100 19 0.0705459
9 6 100 19 0.0443063
10 6 100 19 0.0205924
11 6 100 19 0.0126298
12 6 100 19 0.0100482
13 6 100 19 0.00549919
14 6 100 19 0.00481631
15 6 100 19 0.00960683
16 6 100 19 0.00474935
17 6 100 19 0.00655723
18 6 100 19 0.00316127
19 6 100 19 0.000560841
1 7 100 19 8.65174e-06
2 7 100 19 0.0161575
3 7 100 19 0.0218366
4 7 100 19 0.0479719
5 7 100 19 0.06577
6 7 100 19 0.20311
7 7 100 19 0.293409
8 7 100 19 0.166189
9 7 100 19 0.0842995
10 7 100 19 0.0329808
11 7 100 19 0.0248285
12 7 100 19 0.00895117
13 7 100 19 0.00359443
14 7 100 19 0.00832172
15 7 100 19 0.00331224
16 7 100 19 0.00625045
17 7 100 19 0.00657377
18 7 100 19 0.00471778
19 7 100 19 0.00171711
1 8 100 19 0.00769307
2 8 100 19 0.00589716
3 8 100 19 0.0123072
4 8 100 19 0.0338998
5 8 100 19 0.0451491
6 8 100 19 0.0902964
7 8 100 19 0.186379
8 8 100 19 0.250915
9 8 100 19 0.150151
10 8 100 19 0.0888144
11 8 100 19 0.0501655
12 8 100 19 0.019984
13 8 100 19 0.0186439
14 8 100 19 0.00636647
15 8 100 19 0.00631445
16 8 100 19 0.00611042
17 8 100 19 0.0116288
18 8 100 19 0.00789965
19 8 100 19 0.0013854
1 9 100 19 0.00448283
2 9 100 19 0.00828008
3 9 100 19 0.00638598
4 9 100 19 0.015436
5 9 100 19 0.0490349
6 9 100 19 0.0396824
7 9 100 19 0.078769
8 9 100 19 0.163498
9 9 100 19 0.240026
10 9 100 19 0.150205
11 9 100 19 0.102138
12 9 100 19 0.0562801
13 9 100 19 0.0373967
14 9 100 19 0.017855
15 9 100 19 0.0178929
16 9 100 19 0.00155493
17 9 100 19 0.00461453
18 9 100 19 0.00646285
19 9 100 19 5.40331e-06
1 10 100 19 3.22343e-06
2 10 100 19 0.00466463
3 10 100 19 0.0108795
4 10 100 19 0.00179572
5 10 100 19 0.0130527
6 10 100 19 0.0396377
7 10 100 19 0.0532673
8 10 100 19 0.0926818
9 10 100 19 0.16662
10 10 100 19 0.193139
11 10 100 19 0.15513
12 10 100 19 0.103505
13 10 100 19 0.055451
14 10 100 19 0.0343199
15 10 100 19 0.0278288
16 10 100 19 0.0152163
17 10 100 19 0.012276
18 10 100 19 0.0158915
19 10 100 19 0.00463949
1 11 100 19 0.00163112
2 11 100 19 0.00370231
3 11 100 19 0.00977396
4 11 100 19 0.0102466
5 11 100 19 0.013141
6 11 100 19 0.0148886
7 11 100 19 0.0381906
8 11 100 19 0.0525422
9 11 100 19 0.0959233
10 11 100 19 0.156686
11 11 100 19 0.183248
12 11 100 19 0.152183
13 11 100 19 0.118204
14 11 100 19 0.064332
15 11 100 19 0.0331822
16 11 100 19 0.026095
17 11 100 19 0.0130178
18 11 100 19 0.00976101
19 11 100 19 0.00325069
1 12 100 19 0.00174778
2 12 100 19 0.00666589
3 12 100 19 0.00560178
4 12 100 19 0.00504388
5 12 100 19 0.0100692
6 12 100 19 0.0078889
7 12 100 19 0.0168913
8 12 100 19 0.0434972
9 12 100 19 0.0699105
10 12 100 19 0.106206
11 12 100 19 0.134984
12 12 100 19 0.188238
13 12 100 19 0.144784
14 12 100 19 0.105272
15 12 100 19 0.0711544
16 12 100 19 0.0332784
17 12 100 19 0.0276127
18 12 100 19 0.0164142
19 12 100 19 0.00474071
1 13 100 19 0.00951161
2 13 100 19 0.00853131
3 13 100 19 0.00849833
4 13 100 19 0.00856891
5 13 100 19 0.0085968
6 13 100 19 0.00830223
7 13 100 19 0.0126486
8 13 100 19 0.0203822
9 13 100 19 0.0462374
10 13 100 19 0.0712486
11 13 100 19 0.12487
12 13 100 19 0.143577
13 13 100 19 0.15107
14 13 100 19 0.146812
15 13 100 19 0.100577
16 13 100 19 0.0533098
17 13 100 19 0.0399158
18 13 100 19 0.0287732
19 13 100 19 0.00856977
1 14 100 19 0.00176559
2 14 100 19 0.00173588
3 14 100 19 0.0034675
4 14 100 19 0.00364517
5 14 100 19 0.00358074
6 14 100 19 0.00541593
7 14 100 19 0.0108774
8 14 100 19 0.0152849
9 14 100 19 0.0165655
10 14 100 19 0.0559796
11 14 100 19 0.0647209
12 14 100 19 0.108525
13 14 100 19 0.144949
14 14 100 19 0.190339
15 14 100 19 0.13414
16 14 100 19 0.109962
17 14 100 19 0.0676038
18 14 100 19 0.0458504
19 14 100 19 0.015591
1 15 100 19 0.00424495
2 15 100 19 0.00782093
3 15 100 19 0.00350903
4 15 100 19 0.00650535
5 15 100 19 0.00162567
6 15 100 19 0.00789094
7 15 100 19 0.00951349
8 15 100 19 0.0184171
9 15 100 19 0.0173576
10 15 100 19 0.0289925
11 15 100 19 0.0613963
12 15 100 19 0.0648823
13 15 100 19 0.114218
14 15 100 19 0.142507
15 15 100 19 0.162798
16 15 100 19 0.11214
17 15 100 19 0.121745
18 15 100 19 0.0889686
19 15 100 19 0.0254678
1 16 100 19 1.11284e-05
2 16 100 19 0.00348113
3 16 100 19 0.00484555
4 16 100 19 0.00792162
5 16 100 19 0.000464974
6 16 100 19 0.0049571
7 16 100 19 0.00162287
8 16 100 19 0.00788692
9 16 100 19 0.0127692
10 16 100 19 0.0258443
11 16 100 19 0.0319944
12 16 100 19 0.0634771
13 16 100 19 0.0803731
14 16 100 19 0.11493
15 16 100 19 0.151185
16 16 100 19 0.17422
17 16 100 19 0.146505
18 16 100 19 0.119174
19 16 100 19 0.0483362
1 17 100 19 1.03828e-05
2 17 100 19 0.00144222
3 17 100 19 0.0056822
4 17 100 19 0.000130205
5 17 100 19 0.00559134
6 17 100 19 0.00569787
7 17 100 19 0.00917641
8 17 100 19 0.00186868
9 17 100 19 0.0149032
10 17 100 19 0.0132333
11 17 100 19 0.0286045
12 17 100 19 0.0292753
13 17 100 19 0.05043
14 17 100 19 0.078998
15 17 100 19 0.128053
16 17 100 19 0.163503
17 17 100 19 0.186655
18 17 100 19 0.175578
19 17 100 19 0.101167
1 18 100 19 7.56751e-06
2 18 100 19 0.00460106
3 18 100 19 0.000856687
4 18 100 19 0.00373819
5 18 100 19 0.00454753
6 18 100 19 0.00443167
7 18 100 19 0.00631526
8 18 100 19 0.00939201
9 18 100 19 0.00471649
10 18 100 19 0.00819935
11 18 100 19 0.0161061
12 18 100 19 0.0325046
13 18 100 19 0.0497499
14 18 100 19 0.053961
15 18 100 19 0.0858302
16 18 100 19 0.152648
17 18 100 19 0.168599
18 18 100 19 0.238906
19 18 100 19 0.154889
1 19 100 19 0.00569357
2 19 100 19 0.00509296
3 19 100 19 0.00511005
4 19 100 19 0.00606506
5 19 100 19 0.0120445
6 19 100 19 0.00256298
7 19 100 19 3.50863e-05
8 19 100 19 0.00770803
9 19 100 19 0.00242832
10 19 100 19 0.00766541
11 19 100 19 0.0127368
12 19 100 19 0.0203663
13 19 100 19 0.041498
14 19 100 19 0.0459972
15 19 100 19 0.0827231
16 19 100 19 0.119395
17 19 100 19 0.160347
18 19 100 19 0.246721
19 19 100 19 0.215809
1 20 100 19 2.57437e-07
2 20 100 19 4.42987e-07
3 20 100 19 0.00385751
4 20 100 19 0.0035804
5 20 100 19 0.00103846
6 20 100 19 0.00431914
7 20 100 19 4.08945e-07
8 20 100 19 0.00687393
9 20 100 19 0.0071649
10 20 100 19 0.00871221
11 20 100 19 0.0136402
12 20 100 19 0.0179977
13 20 100 19 0.0215753
14 20 100 19 0.0497291
15 20 100 19 0.0798283
16 20 100 19 0.109227
17 20 100 19 0.162146
18 20 100 19 0.25111
19 20 100 19 0.259198
1 21 100 19 1.4317e-05
2 21 100 19 0.0102049
3 21 100 19 3.07357e-06
4 21 100 19 0.000510915
5 21 100 19 0.000492814
6 21 100 19 0.0118041
7 21 100 19 0.000573079
8 21 100 19 0.000659388
9 21 100 19 0.00946814
10 21 100 19 0.0118193
11 21 100 19 0.0109949
12 21 100 19 0.0279215
13 21 100 19 0.0120556
14 21 100 19 0.0273616
15 21 100 19 0.0447532
16 21 100 19 0.0594673
17 21 100 19 0.160496
18 21 100 19 0.237623
19 21 100 19 0.373777
1 22 100 19 3.28851e-05
2 22 100 19 0.000857492
3 22 100 19 7.42245e-05
4 22 100 19 0.00338608
5 22 100 19 0.0107698
6 22 100 19 0.000252977
7 22 100 19 0.00894505
8 22 100 19 0.00111901
9 22 100 19 0.00863627
10 22 100 19 0.00406536
11 22 100 19 0.00478955
12 22 100 19 0.0240181
13 22 100 19 0.0385841
14 22 100 19 0.0430577
15 22 100 19 0.0703467
16 22 100 19 0.0898002
17 22 100 19 0.0946702
18 22 100 19 0.271431
19 22 100 19 0.325163
1 23 100 19 3.69078e-06
2 23 100 19 0.000121641
3 23 100 19 0.00987446
4 23 100 19 1.25217e-06
5 23 100 19 0.0120884
6 23 100 19 0.00703239
7 23 100 19 0.0187983
8 23 100 19 0.0339374
9 23 100 19 0.0126847
10 23 100 19 0.000330377
11 23 100 19 0.0069933
12 23 100 19 3.47628e-06
13 23 100 19 0.0454375
14 23 100 19 0.0916889
15 23 100 19 0.02859
16 23 100 19 0.0425117
17 23 100 19 0.114691
18 23 100 19 0.229846
19 23 100 19 0.345365
1 24 100 19 5.77795e-05
2 24 100 19 1.02882e-05
3 24 100 19 0.000206834
4 24 100 19 4.71229e-05
5 24 100 19 2.4673e-05
6 24 100 19 0.0140646
7 24 100 19 0.0121392
8 24 100 19 4.65995e-05
9 24 100 19 3.18846e-05
10 24 100 19 1.68531e-06
11 24 100 19 0.00721691
12 24 100 19 1.36482e-05
13 24 100 19 8.44042e-06
14 24 100 19 0.0464115
15 24 100 19 0.126803
16 24 100 19 0.0797805
17 24 100 19 0.155291
18 24 100 19 0.230666
19 24 100 19 0.327178
2 25 100 19 2.94927e-07
3 25 100 19 5.46234e-06
4 25 100 19 0.00025825
5 25 100 19 0.0374619
6 25 100 19 0.0286529
7 25 100 19 2.07771e-05
8 25 100 19 0.0272109
9 25 100 19 0.000469625
10 25 100 19 3.95205e-05
11 25 100 19 0.000381641
12 25 100 19 2.81953e-06
13 25 100 19 2.96736e-05
14 25 100 19 0.000135678
15 25 100 19 0.0498037
16 25 100 19 0.0894978
17 25 100 19 0.212098
18 25 100 19 0.204574
19 25 100 19 0.349357
1 26 100 19 1.56601e-06
2 26 100 19 1.15995e-06
3 26 100 19 8.58104e-07
4 26 100 19 5.95089e-05
5 26 100 19 0.000794136
7 26 100 19 0.0001775
9 26 100 19 2.62268e-06
10 26 100 19 3.37761e-06
11 26 100 19 4.40582e-06
12 26 100 19 0.0279261
13 26 100 19 0.00327381
14 26 100 19 0.0300794
15 26 100 19 0.0869551
16 26 100 19 0.0466504
17 26 100 19 0.0811899
18 26 100 19 0.156207
19 26 100 19 0.566673
1 27 100 19 8.65972e-07
3 27 100 19 7.81185e-05
4 27 100 19 1.40141e-07
5 27 100 19 7.86944e-06
7 27 100 19 1.32543e-06
8 27 100 19 2.12369e-05
9 27 100 19 6.58068e-07
10 27 100 19 0.00915196
11 27 100 19 0.00362263
12 27 100 19 0.00760514
13 27 100 19 0.00129401
14 27 100 19 4.33393e-07
15 27 100 19 9.57925e-05
16 27 100 19 0.101217
17 27 100 19 0.0776571
18 27 100 19 0.155753
19 27 100 19 0.643492
3 28 100 19 3.5321e-05
4 28 100 19 6.14983e-06
5 28 100 19 2.15347e-07
7 28 100 19 0.000488976
9 28 100 19 0.000129036
10 28 100 19 0.000136451
11 28 100 19 7.48035e-06
12 28 100 19 5.33489e-05
13 28 100 19 0.114822
14 28 100 19 0.124003
15 28 100 19 0.0120678
16 28 100 19 0.0129814
17 28 100 19 0.228562
18 28 100 19 0.345744
19 28 100 19 0.160963
6 29 100 19 0.0430563
11 29 100 19 0.130225
12 29 100 19 0.000486413
13 29 100 19 2.32024e-05
14 29 100 19 9.62874e-06
15 29 100 19 4.30448e-06
16 29 100 19 0.0861166
17 29 100 19 0.186445
18 29 100 19 0.367625
19 29 100 19 0.186009
1 30 100 19 0.000104472
2 30 100 19 0.000721812
4 30 100 19 7.36119e-07
9 30 100 19 2.64244e-06
10 30 100 19 6.62175e-07
11 30 100 19 9.00785e-06
12 30 100 19 0.000104521
13 30 100 19 1.03284e-05
14 30 100 19 0.000208536
15 30 100 19 0.00387145
17 30 100 19 0.497537
18 30 100 19 2.36475e-06
19 30 100 19 0.497426
2 31 100 19 5.33471e-05
4 31 100 19 2.0648e-05
5 31 100 19 1.25134e-05
6 31 100 19 1.77398e-06
9 31 100 19 3.22076e-06
10 31 100 19 5.06901e-07
11 31 100 19 0.000966207
13 31 100 19 6.136e-07
15 31 100 19 0.000161157
17 31 100 19 0.00010049
18 31 100 19 0.473945
19 31 100 19 0.524734
1 32 100 19 0.358347
15 32 100 19 0.000266021
16 32 100 19 0.640969
17 32 100 19 0.000418764
5 33 100 19 8.93208e-06
15 33 100 19 2.20662e-05
17 33 100 19 0.00200413
18 33 100 19 0.997965
12 34 100 19 5.40527e-06
15 34 100 19 6.48464e-07
19 34 100 19 0.999994
1 0 100 20 0.023479
2 0 100 20 0.0252991
3 0 100 20 0.0447869
4 0 100 20 0.0494173
5 0 100 20 0.057169
6 0 100 20 0.0517786
7 0 100 20 0.0639737
8 0 100 20 0.0685404
9 0 100 20 0.0555934
10 0 100 20 0.0593267
11 0 100 20 0.0456857
12 0 100 20 0.0419801
13 0 100 20 0.0478873
14 0 100 20 0.0430702
15 0 100 20 0.0475817
16 0 100 20 0.0537494
17 0 100 20 0.0591475
18 0 100 20 0.0488968
19 0 100 20 0.0105644
20 0 100 20 0.102073
1 1 100 20 0.920685
2 1 100 20 0.0371265
3 1 100 20 0.00782488
4 1 100 20 0.0134849
5 1 100 20 0.00189939
6 1 100 20 0.00736154
7 1 100 20 0.00195467
8 1 100 20 0.00188317
9 1 100 20 0.00191141
10 1 100 20 4.23887e-06
11 1 100 20 7.99133e-06
12 1 100 20 0.00577296
13 1 100 20 3.01574e-06
14 1 100 20 4.51706e-06
15 1 100 20 2.22592e-06
16 1 100 20 6.20047e-06
17 1 100 20 2.82785e-06
18 1 100 20 2.01977e-05
20 1 100 20 4.41196e-05
1 2 100 20 0.0505554
2 2 100 20 0.706578
3 2 100 20 0.10319
4 2 100 20 0.0496701
5 2 100 20 0.018246
6 2 100 20 0.0120901
7 2 100 20 0.0147101
8 2 100 20 0.00903047
9 2 100 20 0.0091948
10 2 100 20 0.00732781
11 2 100 20 9.66406e-06
12 2 100 20 4.79653e-06
13 2 100 20 0.00462415
14 2 100 20 0.00553954
15 2 100 20 3.73212e-07
16 2 100 20 0.00103453
17 2 100 20 0.00267226
18 2 100 20 0.00184144
19 2 100 20 0.00368016
20 2 100 20 6.09633e-07
1 3 100 20 0.0286214
2 3 100 20 0.141432
3 3 100 20 0.540311
4 3 100 20 0.123186
5 3 100 20 0.0534367
6 3 100 20 0.0220788
7 3 100 20 0.0178534
8 3 100 20 0.0140978
9 3 100 20 0.00780534
10 3 100 20 0.00410603
11 3 100 20 0.00247746
12 3 100 20 0.00597794
13 3 100 20 0.00508707
14 3 100 20 0.0118117
15 3 100 20 0.0080279
16 3 100 20 0.000977688
17 3 100 20 0.00510969
18 3 100 20 0.00179178
19 3 100 20 0.00380129
20 3 100 20 0.0020088
1 4 100 20 0.0211686
2 4 100 20 0.0337948
3 4 100 20 0.164437
4 4 100 20 0.401752
5 4 100 20 0.160737
6 4 100 20 0.0694444
7 4 100 20 0.0382288
8 4 100 20 0.0293692
9 4 100 20 0.0137693
10 4 100 20 0.00594198
11 4 100 20 0.00548258
12 4 100 20 0.00367926
13 4 100 20 0.00789441
14 4 100 20 0.0117791
15 4 100 20 0.0103495
16 4 100 20 0.0084187
17 4 100 20 0.00196695
18 4 100 20 0.00783851
19 4 100 20 0.00198793
20 4 100 20 0.00196012
1 5 100 20 0.00068348
2 5 100 20 0.024285
3 5 100 20 0.0811513
4 5 100 20 0.177643
5 5 100 20 0.347379
6 5 100 20 0.175839
7 5 100 20 0.0780051
8 5 100 20 0.0375946
9 5 100 20 0.0202287
10 5 100 20 0.0132014
11 5 100 20 0.00983866
12 5 100 20 0.00455053
13 5 100 20 0.0131194
14 5 100 20 0.00597984
15 5 100 20 0.00392761
16 5 100 20 8.81108e-05
17 5 100 20 0.00210459
18 5 100 20 3.1384e-06
19 5 100 20 0.00405
20 5 100 20 0.000328059
1 6 100 20 0.0155724
2 6 100 20 0.0110481
3 6 100 20 0.0460886
4 6 100 20 0.0828475
5 6 100 20 0.165628
6 6 100 20 0.306475
7 6 100 20 0.155233
8 6 100 20 0.0707567
9 6 100 20 0.040854
10 6 100 20 0.0174767
11 6 100 20 0.0153707
12 6 100 20 0.0109017
13 6 100 20 0.0152919
14 6 100 20 0.0112289
15 6 100 20 0.00242982
16 6 100 20 0.00479209
17 6 100 20 0.00856978
18 6 100 20 0.00960962
19 6 100 20 0.00982447
20 6 100 20 1.92402e-06
1 7 100 20 0.000529186
2 7 100 20 0.0206142
3 7 100 20 0.0199479
4 7 100 20 0.0491181
5 7 100 20 0.0799602
6 7 100 20 0.1628
7 7 100 20 0.284583
8 7 100 20 0.163455
9 7 100 20 0.0893144
10 7 100 20 0.0567357
11 7 100 20 0.015905
12 7 100 20 0.0127568
13 7 100 20 6.20635e-05
14 7 100 20 0.0105435
15 7 100 20 0.0144303
16 7 100 20 0.00251362
17 7 100 20 0.00420585
18 7 100 20 0.0105352
19 7 100 20 6.85268e-06
20 7 100 20 0.00198313
1 8 100 20 0.00622381
2 8 100 20 0.00799837
3 8 100 20 0.016647
4 8 100 20 0.0254714
5 8 100 20 0.046637
6 8 100 20 0.0814643
7 8 100 20 0.166654
8 8 100 20 0.239597
9 8 100 20 0.166507
10 8 100 20 0.100772
11 8 100 20 0.0667073
12 8 100 20 0.032672
13 8 100 20 0.00773729
14 8 100 20 0.00592503
15 8 100 20 0.00399557
16 8 100 20 0.00980071
17 8 100 20 0.00543812
18 8 100 20 0.00192808
19 8 100 20 0.00782221
20 8 100 20 1.62551e-06
1 9 100 20 0.00208767
2 9 100 20 0.0101778
3 9 100 20 0.00671026
4 9 100 20 0.0185904
5 9 100 20 0.0147027
6 9 100 20 0.0506881
7 9 100 20 0.0680568
8 9 100 20 0.149174
