676 3039 1.11745e-07
24023 19561 9.92716e-06
2108 370 1.37786e-07
1089 226 2.59928e-07
2350 3564 6.55429e-07
3112 19522 1.12342e-06
1422 238 3.92042e-07
269 754 1.29258e-07
158 755 1.60878e-07
23915 66 3.50726e-06
27 1813 1.31223e-07
730 1454 2.59873e-07
12469 133 3.25783e-07
14950 1971 1.4752e-05
479 116 8.73653e-06
208 680 1.03248e-07
4505 16953 1.12579e-06
6013 17250 5.95289e-07
440 17250 1.38605e-07
6141 17250 2.06054e-05
950 1173 1.07876e-07
2124 12830 1.16246e-07
29 106 1.8404e-07
435 931 1.49695e-07
523 587 8.74548e-07
24416 3219 2.06243e-06
11796 179 1.40741e-07
4123 34 9.82573e-07
9560 73 1.29085e-05
127 11 1.12536e-07
234 128 2.01566e-06
111 128 9.4227e-06
63 128 2.33413e-05
62 128 2.53231e-05
618 1404 1.08501e-07
46 7892 1.15927e-07
2552 5978 1.64555e-07
2470 19130 8.57077e-07
4620 19118 6.47042e-07
16939 20 1.12866e-06
10072 39 2.84077e-06
916 216 1.21157e-05
5103 18446 2.28602e-06
217 18994 1.02199e-07
707 18994 1.13168e-07
970 16018 1.54918e-07
2223 1262 8.09201e-07
170 1130 4.11666e-07
2639 455 2.70141e-07
4663 455 4.24095e-07
218 27 3.41827e-07
4297 208 5.31827e-07
5312 525 1.11923e-06
2018 18784 2.08964e-07
970 373 1.86853e-07
2691 455 2.5337e-07
23915 10763 3.90927e-06
9391 10763 3.07474e-06
2112 2160 2.54936e-06
3885 1096 5.09974e-07
1263 18779 1.92228e-06
81 18779 3.27935e-07
356 763 3.12384e-07
1123 1095 5.44635e-07
1205 1095 3.60689e-07
21777 7381 1.62731e-07
1444 2120 2.40652e-07
1440 8913 1.98106e-07
4308 1310 1.93711e-07
23818 2099 1.45137e-05
4381 5892 1.53237e-07
46 28 1.5249e-07
9844 18630 1.68021e-06
8983 740 2.55281e-06
8983 11 5.67352e-05
23667 68 2.25573e-06
21809 2 7.78459e-07
2053 34 2.03489e-06
514 3319 7.3774e-07
2919 14586 1.37674e-07
21921 22 1.14429e-06
3560 4655 3.37631e-07
11710 156 5.00978e-07
35 18481 1.00822e-07
3388 2722 0.000102973
911 951 1.27735e-07
7429 1743 5.03547e-07
1337 1217 4.61324e-07
22471 45 1.46673e-06
4298 6379 1.94063e-07
1855 66 1.34513e-06
3021 1916 1.9547e-07
9143 7290 1.07945e-06
12414 39 9.59152e-07
23409 17031 7.67718e-06
551 30 1.23848e-06
3907 1362 2.98478e-06
36 3332 0.0024036
23347 3332 0.00428406
23283 18238 8.40523e-06
23280 18238 3.99312e-06
23267 572 0.000548147
1803 393 9.04141e-06
111 393 4.59141e-07
237 642 1.17372e-07
474 68 2.51495e-07
1519 2037 8.06506e-07
677 83 1.185e-07
10017 503 3.44881e-07
1440 4655 1.68423e-07
710 313 1.07578e-07
16309 133 2.96831e-07
38 17629 1.60877e-07
3072 60 5.71961e-07
1371 18002 1.72818e-07
763 60 1.01959e-07
378 2483 1.03362e-06
22951 16 5.64267e-06
740 279 1.1555e-07
11744 448 5.3163e-06
6991 17878 3.96878e-07
22820 21 1.24637e-05
2435 1805 2.2281e-07
652 4183 3.06022e-07
90 7470 4.09784e-07
22658 71 2.60376e-06
2541 17698 7.36961e-07
655 1744 1.37278e-07
22592 176 2.55775e-06
1434 2264 3.23773e-07
2980 2264 9.46742e-07
3620 17317 1.05904e-06
3678 115 4.05594e-07
4834 75 0.000312775
3028 17516 2.46636e-07
3486 3452 6.67102e-07
9096 17497 8.73262e-07
235 740 2.57612e-07
879 199 1.02848e-07
546 1520 1.04305e-07
272 5308 1.7399e-07
5377 378 2.64259e-07
1448 3343 2.61447e-07
2639 16 4.23372e-07
11784 16 1.38757e-07
6745 1669 1.89398e-06
630 1301 1.13329e-07
358 3438 1.40466e-06
5793 16933 6.45056e-07
62 6491 1.2169e-06
1623 6491 2.32935e-05
9014 34 1.09106e-06
10864 6491 5.75254e-06
880 7530 1.17321e-07
43 890 1.00838e-07
16547 5752 0.000221286
92 5752 4.38755e-07
22167 5752 2.0423e-05
3582 25 1.48796e-07
131 4785 1.58999e-07
115 4785 1.04218e-07
1952 661 1.03336e-07
56 34 1.22376e-07
602 2052 2.81037e-07
45 12638 1.22368e-07
2563 9323 7.03132e-07
7883 189 1.55402e-06
21780 1084 7.68876e-07
125 658 8.18402e-07
8174 492 1.07782e-06
22035 47 1.23182e-05
774 892 1.06554e-06
424 292 6.26981e-07
1021 2052 7.86316e-07
2347 51 1.48945e-07
180 16874 1.11459e-07
489 826 2.99468e-07
21936 826 1.08007e-05
48 826 5.37799e-07
1762 826 5.11355e-07
880 826 2.47501e-06
16116 826 5.27466e-07
3561 1041 3.12338e-07
9232 51 1.05938e-06
3620 8975 2.18621e-07
2674 237 1.97959e-06
677 16816 3.29252e-07
724 16816 1.28127e-07
99 1325 1.11162e-07
98 1325 1.21147e-07
3412 1325 1.52872e-07
21809 2331 1.54383e-06
0 2331 1.23471e-05
3017 27 3.91212e-07
171 13841 2.02518e-07
19397 34 1.85882e-06
1192 1744 1.12223e-07
6734 535 1.83577e-06
21717 12517 1.40655e-05
151 123 1.21435e-07
16412 188 3.41408e-06
4401 18 3.35389e-06
45 18 1.80628e-06
478 18 4.9317e-05
2526 986 7.11449e-07
8375 95 3.0498e-06
268 4649 1.46535e-07
12646 32 1.20785e-07
1769 55 1.64127e-07
1769 5224 1.17982e-07
6301 5224 1.72425e-06
10940 5224 8.32974e-06
3835 5224 1.41213e-06
49 948 1.52443e-07
18674 10780 1.70226e-07
395 1711 1.26343e-07
2620 892 1.98035e-07
21407 1060 1.15289e-06
6618 9867 7.72391e-07
20398 39 8.52495e-07
2277 16407 1.11045e-07
16104 2854 4.2558e-07
3019 32 1.15315e-07
2734 364 4.15413e-07
2075 19 4.68795e-07
12967 51 3.97801e-07
344 1669 1.29716e-07
10668 590 3.3827e-06
21482 1669 2.09999e-05
21482 590 1.01447e-05
11490 139 8.34949e-06
6573 752 2.8826e-06
1178 1046 3.79514e-07
1310 230 1.66668e-07
5516 6418 3.66923e-06
7602 10293 1.48469e-06
19720 1081 6.46895e-06
670 32 1.05975e-07
12853 380 7.66743e-06
1103 28 5.80501e-07
3629 2962 1.29451e-07
1775 37 6.25756e-07
392 27 1.02497e-07
3019 55 1.74025e-07
371 55 4.0357e-05
7748 8999 2.52869e-07
4281 208 1.65628e-07
20571 752 2.7865e-06
7213 1202 1.14707e-06
1594 1146 1.00717e-07
2296 10168 1.63006e-07
8923 987 6.14067e-07
2418 1074 1.01088e-07
82 54 5.18382e-07
812 587 2.60279e-07
9113 247 1.62384e-07
1089 2669 2.73731e-07
862 8161 1.17431e-07
7377 10609 1.56203e-06
249 39 2.35197e-07
2283 30 1.17489e-07
14092 51 2.90389e-07
2036 353 2.55202e-07
2250 123 1.2844e-07
1942 754 1.70272e-07
5416 378 8.0886e-06
19033 1081 1.24218e-06
3444 150 2.06097e-06
15982 150 0.0576328
1508 150 2.75386e-07
3406 150 3.15336e-07
1864 1340 3.31438e-07
15576 48 1.22714e-05
10855 7982 1.7201e-07
1736 30 1.50051e-07
7004 189 7.02592e-07
4593 15878 1.414e-06
834 68 1.54568e-07
2418 752 1.62034e-07
2418 15661 7.04885e-06
1952 15661 4.23351e-06
55 15661 1.34245e-07
4759 183 1.79663e-07
14473 1744 6.89697e-06
1224 5036 1.19879e-07
213 1393 1.05783e-07
3823 1752 7.34405e-07
3281 1752 6.98677e-07
0 7552 2.13354e-07
3046 39 2.57497e-06
16261 298 5.48499e-07
7646 83 8.0481e-07
13663 60 2.29778e-07
12594 6995 4.84192e-06
2248 6995 4.00579e-07
2397 5122 5.13931e-07
21013 60 3.37565e-06
14943 752 1.2097e-06
2149 1060 6.33571e-07
237 15694 1.37112e-07
14139 2841 2.20524e-07
20907 3036 2.2654e-05
1271 51 2.42232e-07
989 8334 1.75146e-07
8719 6898 5.40257e-07
1410 6017 4.11486e-07
20464 127 3.25545e-07
7163 9152 6.33903e-07
6620 1681 4.0988e-07
15250 483 1.82145e-06
145 1784 1.0329e-07
260 15575 1.26269e-07
239 14330 1.86055e-07
1570 14330 3.10801e-07
1175 2668 1.03852e-07
17904 189 1.52321e-06
6398 83 2.22709e-07
3798 438 9.37403e-07
1942 48 3.109e-07
2007 566 3.13104e-07
3862 60 1.68646e-07
2412 48 6.62574e-07
369 48 1.16985e-07
11490 133 8.98923e-07
9648 3597 2.32672e-07
5042 8909 1.14954e-06
1175 156 1.54551e-07
13783 18 6.29399e-06
19072 1578 3.97381e-07
49 9951 1.39013e-07
1180 9951 1.24786e-07
14201 15342 3.06744e-07
379 230 1.49396e-07
151 230 1.40661e-07
6926 1306 2.74577e-06
898 1306 1.56836e-06
2248 15305 1.31617e-07
1011 123 5.77612e-07
588 123 2.16789e-07
285 671 1.07039e-07
7746 15232 1.36454e-07
7797 21 1.78133e-07
127 116 1.15906e-07
1207 13594 2.81996e-07
4138 13594 6.74429e-07
14201 1405 1.31022e-06
17395 60 5.78955e-06
1709 7067 2.86518e-07
13019 15164 5.01066e-07
18150 661 4.20281e-06
635 22 4.34826e-07
844 892 1.00858e-07
791 892 2.71049e-07
2054 1532 1.40182e-07
667 45 1.53995e-07
5899 35 7.85459e-07
65 45 1.41926e-07
13461 2852 3.00438e-06
193 334 1.15598e-07
27 334 1.1913e-07
8942 334 2.29535e-06
8942 4435 2.19286e-06
1570 7123 1.02625e-07
9380 15038 7.39705e-07
68 34 1.15993e-07
4600 11525 2.20359e-06
11067 162 1.94393e-05
950 2732 1.48298e-07
43 2732 5.31048e-07
803 2732 3.38776e-07
880 2732 1.81983e-06
1570 2732 4.15552e-07
5154 2732 1.17672e-07
20235 21 2.11278e-06
9625 21 1.79939e-07
4402 1015 3.02947e-07
9 928 1.53872e-07
12541 1060 1.99264e-06
9559 13600 4.94926e-07
16751 503 2.05932e-06
19976 21 2.59445e-06
5621 71 1.69994e-06
6348 763 1.43167e-06
683 22 4.21122e-07
20271 253 3.62754e-06
507 7365 1.31744e-07
378 1608 5.27997e-07
9354 1374 2.25846e-06
5583 14715 3.43553e-07
368 898 9.01506e-07
3376 483 5.06139e-07
4567 116 1.07071e-06
14125 83 4.95509e-07
1509 195 1.21925e-07
3281 51 1.61681e-07
998 486 4.26179e-07
1580 486 4.53047e-07
2275 1060 1.38339e-06
3018 139 1.43669e-07
3050 117 4.93734e-07
20121 752 2.48035e-06
3340 503 1.38032e-07
11321 216 1.66351e-06
11321 204 1.32697e-06
11591 26 3.79197e-07
286 11 1.39368e-07
592 892 9.63962e-07
327 39 1.0094e-07
664 1388 3.25781e-07
2430 607 2.54742e-07
14506 607 7.89298e-06
418 1283 9.82347e-07
3958 607 1.43945e-07
4238 702 3.29592e-05
171 702 4.22115e-07
3534 702 3.32998e-07
2953 702 8.5322e-07
2007 68 1.82664e-07
345 1034 1.38007e-06
313 1034 1.2041e-06
20019 32 5.62371e-06
4090 3597 2.05152e-06
935 71 1.02028e-07
7350 990 9.39159e-07
4114 68 1.08092e-07
617 68 1.01926e-07
1120 9719 2.17123e-07
673 14310 4.63164e-07
9351 34 7.57401e-07
1940 378 1.0476e-07
1562 14265 1.27751e-06
19304 4812 2.17023e-07
3546 2841 1.19898e-07
19306 30 1.26742e-07
1261 14224 1.01218e-07
3215 913 2.80774e-05
12507 771 7.86636e-07
11361 14158 1.16287e-06
12122 14158 1.10761e-06
19806 752 3.56177e-06
3559 1393 1.28632e-07
509 1393 1.07464e-07
791 7155 1.17e-06
253 95 1.76195e-07
345 14082 1.14768e-07
1741 210 6.61671e-07
19726 14066 8.53351e-06
2277 14066 9.78289e-07
253 14066 3.82835e-07
10433 14066 0.000239927
686 14066 5.04993e-06
9925 6013 1.19574e-05
9925 39 1.79409e-05
13598 2846 1.22141e-05
3262 1827 2.42793e-07
198 1827 2.24957e-07
19610 54 5.99515e-07
13824 5887 1.17228e-06
4242 1040 1.44977e-06
1425 241 1.1312e-07
1208 83 2.71343e-06
4496 5605 9.12185e-07
14569 5605 7.44486e-07
182 3065 2.49388e-07
15714 3065 2.88506e-06
207 337 1.01436e-07
6926 3700 1.2967e-05
803 3700 4.69966e-07
3801 3700 2.36583e-07
509 13821 2.09517e-07
13063 208 2.07761e-06
1689 188 6.39302e-06
19467 188 3.22821e-06
2194 188 1.26305e-06
15761 188 2.51207e-06
16095 139 1.0974e-05
19464 1306 1.04736e-05
19464 188 5.69789e-06
1015 188 3.23194e-06
795 188 5.97012e-07
686 206 1.00855e-07
1128 45 2.20559e-07
1120 30 1.07046e-07
19431 13609 3.48606e-06
672 287 6.35749e-07
1567 127 5.41955e-07
2036 9112 2.5498e-07
3534 1990 1.00351e-07
49 438 2.26397e-07
3080 13695 4.79606e-07
572 13696 1.30022e-07
7945 208 1.59438e-06
486 13695 7.42678e-07
12558 927 6.07788e-07
3629 927 1.03012e-07
5170 13689 5.24587e-07
617 2972 1.10145e-07
141 8182 2.23048e-07
6029 8182 1.28534e-07
6029 4470 1.10179e-07
774 135 1.16888e-07
1659 95 1.36376e-07
4007 11506 1.20885e-06
2283 3597 2.43722e-07
1233 2915 1.45566e-07
3515 13572 6.97692e-07
373 6771 2.57786e-07
693 2688 1.40128e-07
19259 892 1.31e-06
1630 316 1.19901e-07
560 93 1.14129e-07
728 759 1.0192e-07
950 3974 1.25083e-07
764 4965 2.44297e-07
312 1636 3.69775e-07
1706 13475 0.000499454
108 13475 0.00226128
313 13475 3.81806e-05
5646 13475 0.00568279
11 13475 3.20891e-06
7153 13475 0.000650065
0 13475 6.91118e-07
507 1930 1.50444e-07
19104 587 1.45558e-06
1335 3322 1.87425e-07
2430 532 1.03792e-07
950 660 1.27595e-07
1580 990 2.01326e-07
1942 370 1.03968e-07
1174 1146 6.82069e-07
56 447 1.04292e-07
1736 8911 6.17611e-06
5036 2667 1.44261e-07
5036 1076 4.86548e-07
1180 1512 1.22836e-07
652 133 5.71306e-07
950 7689 1.16994e-07
10047 12802 6.56965e-07
0 12802 1.17378e-07
11 6825 4.7794e-07
18835 19 1.51247e-06
753 3411 1.20431e-07
12432 12897 3.50886e-07
17395 68 2.00035e-06
12407 5611 1.8169e-06
6320 64 7.18199e-07
2695 54 1.46482e-06
1179 1708 1.06198e-07
3601 51 5.57217e-07
8066 45 1.04096e-06
376 21 1.17848e-07
1174 51 1.72207e-07
17295 2810 1.5086e-06
19 200 1.24614e-06
18530 200 3.83702e-06
3948 200 5.32867e-07
7010 133 4.08803e-07
13987 9071 4.74063e-06
13987 380 5.55456e-06
2916 1768 4.22334e-07
12497 299 1.73186e-07
7345 13072 9.81257e-07
83 566 1.33747e-06
9489 48 1.328e-06
3357 43 1.35989e-07
157 1081 1.10728e-07
5136 2089 2.07285e-06
13622 542 5.18192e-06
3164 7060 2.82159e-07
251 16 6.92267e-07
468 544 2.0461e-07
62 6758 1.31743e-07
778 4129 1.06195e-07
1589 6583 5.75551e-07
11308 826 3.75891e-07
1211 347 2.69961e-07
2212 41 1.21109e-07
1281 208 1.10234e-07
17 154 2.57516e-07
956 397 1.10224e-05
17 397 1.33639e-07
611 12777 1.29787e-07
1940 2735 1.1624e-06
16458 581 2.77912e-06
1051 537 2.1863e-07
1950 189 3.67067e-07
1930 133 8.06619e-07
1197 133 1.41461e-07
4962 1461 8.87701e-07
0 1461 2.05571e-07
234 2240 1.03232e-07
0 5352 1.05338e-07
7 1769 1.28358e-07
197 181 1.87113e-07
72 37 1.4771e-07
778 2113 1.64533e-07
1281 4431 7.69387e-07
2468 4431 2.87812e-05
51 4431 3.22012e-06
75 4431 7.614e-07
0 572 1.33994e-07
120 253 2.56546e-06
2277 115 1.25683e-07
37 634 9.01058e-07
207 634 1.55434e-06
3357 45 1.38873e-07
1447 48 5.22364e-07
7770 2360 7.78798e-06
1141 2360 0.000929723
71 2360 1.03037e-06
1425 2693 1.19616e-07
17220 45 1.25791e-06
273 5452 1.00388e-07
15517 8772 4.94138e-06
13405 898 8.80464e-07
13405 54 1.08425e-06
4940 39 1.51582e-07
30 9002 1.01878e-07
1076 32 1.41953e-07
1076 15 4.86652e-07
555 331 1.06405e-07
555 1306 1.21717e-07
11860 552 0.000195302
10261 552 9.25102e-07
17400 21 2.03888e-06
1521 12398 3.69279e-06
1161 12398 1.95222e-06
2884 660 6.19316e-07
546 10356 2.39081e-06
0 10356 4.03672e-07
805 188 1.53026e-07
804 199 1.20913e-07
479 1147 7.03846e-07
1100 1077 0.00363829
4289 9150 2.99087e-07
546 3887 1.24834e-07
12961 587 6.6713e-07
617 27 2.3424e-07
17243 58 1.89079e-06
3264 185 1.24128e-07
763 90 1.0442e-07
17195 68 1.74154e-06
1184 2584 1.1873e-07
133 581 2.1248e-07
9226 150 4.78882e-07
33 40 2.13738e-07
3008 30 1.99967e-07
13351 1217 6.93802e-06
17051 68 1.25521e-05
5154 5721 7.3889e-07
795 1669 1.16118e-07
804 961 1.19278e-07
6917 28 5.00042e-07
76 1740 1.0334e-07
40 68 1.27303e-07
20 16 1.85731e-07
15079 80 7.14642e-07
2620 5354 1.9389e-07
15016 1478 1.80859e-06
9481 817 1.34359e-06
3286 6178 6.07118e-07
5667 551 1.62275e-07
6109 1142 3.48444e-07
543 55 1.25908e-07
13122 892 6.87079e-07
99 10030 1.24872e-07
4897 2270 2.2912e-06
13545 11978 2.39144e-07
106 183 1.04893e-07
10734 37 4.791e-07
266 7106 1.15672e-07
614 1077 1.07779e-07
4625 1968 6.01349e-05
129 1968 1.91725e-07
40 1968 5.36538e-07
1570 1968 9.53662e-07
2690 1545 9.31804e-07
741 9323 1.90739e-07
741 27 3.39225e-07
28 4585 4.42628e-07
61 4585 1.27703e-07
2128 121 6.24589e-07
200 58 1.93304e-07
2428 1886 2.75373e-07
862 60 1.32535e-07
3030 241 1.83606e-07
821 612 6.15048e-07
12375 68 2.06938e-07
555 68 4.38726e-07
1610 139 1.07733e-07
8752 593 3.02204e-07
1609 702 2.0928e-07
4528 10825 3.44608e-06
1258 1638 1.26381e-07
611 3393 1.43107e-07
2016 2 6.68051e-07
5139 20 1.65369e-06
802 150 2.94071e-06
62 150 5.40728e-07
141 68 1.28028e-07
16166 27 1.08096e-06
2420 1166 1.42069e-07
1558 11499 1.3964e-07
12822 892 2.53923e-06
1064 5844 1.81468e-07
396 5618 1.11308e-07
1283 4170 1.83032e-07
549 5430 1.06195e-07
12361 11314 9.66393e-06
1885 641 4.52793e-07
2321 4107 0.00412912
2023 4107 6.32265e-05
0 4107 1.88981e-06
1254 140 1.16944e-07
3152 1081 4.37532e-07
1111 65 2.87011e-07
9214 11111 1.01993e-07
786 2430 2.00318e-07
1175 2543 1.40254e-07
5109 66 5.3162e-07
15651 66 5.97228e-05
2131 66 8.32717e-06
14557 11121 6.42552e-06
4114 11098 2.38514e-07
322 11098 1.56466e-07
1185 2679 2.21337e-07
12801 438 4.0688e-07
7774 19 2.2127e-07
13791 6536 1.41951e-06
2919 264 2.00117e-06
546 4954 1.02486e-07
71 210 1.1244e-07
1480 455 3.35395e-05
368 455 4.03035e-06
1037 455 0.000128801
79 1198 1.57596e-07
12432 494 1.02032e-07
201 607 1.6684e-07
15402 8300 0.000105864
3265 60 6.50826e-07
1570 71 1.05219e-07
3005 51 4.24712e-07
239 1041 2.72807e-07
65 10845 1.04102e-07
507 93 2.64427e-07
15246 28 4.78732e-06
106 133 1.34432e-07
9399 752 1.32271e-06
10040 1041 2.20919e-07
2474 5453 6.35822e-07
62 286 1.09441e-07
9868 6347 5.56923e-06
2 6347 2.05883e-06
11 6347 7.88119e-07
71 6347 2.43082e-06
6998 6347 1.00661e-05
55 6347 6.10937e-07
1266 21 4.80279e-07
816 45 3.2685e-07
10855 117 1.37819e-07
14920 53 1.03331e-06
6906 60 8.52071e-07
950 1002 1.06794e-07
2361 1002 2.52822e-05
1326 60 3.41985e-07
3257 4015 3.0833e-07
65 10566 1.47599e-07
3006 2140 1.99781e-06
234 20 8.01562e-06
10517 54 1.0285e-06
2594 51 1.70812e-07
313 4497 1.66722e-07
12494 22 4.70418e-07
1184 833 1.97088e-07
12644 6418 1.1397e-07
0 6418 2.66861e-07
12425 3264 2.25563e-07
0 3264 1.21648e-07
858 5619 2.07497e-07
858 93 2.8268e-07
234 90 1.0587e-07
1745 68 1.90683e-07
227 3160 1.51116e-07
950 115 1.15466e-07
188 1510 1.11965e-07
3559 39 1.10072e-07
221 946 1.13824e-07
6998 1907 3.26108e-07
803 532 2.80224e-07
14308 2258 1.01054e-06
2248 21 1.09642e-07
213 68 1.16305e-07
14200 68 2.51245e-06
237 2914 1.13515e-07
14010 2 5.44648e-05
697 6013 7.85335e-06
129 6013 4.71124e-07
604 14 2.91117e-07
1509 1146 1.17577e-07
29 1146 1.04839e-07
318 7840 1.60882e-07
3468 9648 4.13764e-06
2 9648 2.94064e-06
0 9648 1.63006e-07
2296 41 1.19958e-07
2046 157 3.68165e-06
3004 157 3.61806e-07
1637 157 1.55381e-07
2249 1851 2.80147e-07
1305 9798 1.17184e-07
214 127 1.39744e-07
710 6032 1.44069e-07
9605 11 1.79022e-06
1263 1041 1.57623e-07
13623 54 2.07369e-06
11959 30 1.34605e-06
6109 4308 3.74124e-07
13407 593 1.83908e-06
546 60 1.29684e-07
12457 9480 3.60935e-07
1571 1284 9.48253e-07
0 1967 1.34111e-07
4305 4358 1.35238e-06
485 1886 6.41607e-07
2792 68 6.53449e-07
7361 581 1.30764e-07
2314 71 1.75671e-07
13159 8679 3.63165e-06
4039 7600 1.16791e-07
75 20 1.57545e-07
1778 20 8.23964e-07
13105 278 2.59245e-06
286 8975 1.01124e-07
692 1340 9.35023e-07
3078 9248 5.91992e-07
146 320 1.93523e-07
13032 1128 1.15614e-05
691 9220 2.18435e-07
1191 535 4.95287e-07
19 8673 1.25841e-07
82 8673 7.15688e-07
950 882 1.45768e-07
12456 492 1.21721e-07
40 1060 1.24027e-07
197 217 7.83582e-07
197 1827 1.45572e-07
0 4673 1.04673e-07
43 661 1.02319e-07
554 14 2.00571e-07
9912 755 9.02488e-07
1931 5535 1.14386e-07
8320 3807 2.67345e-07
12527 2264 1.8616e-06
759 2099 6.54452e-07
12499 32 1.25919e-05
3534 587 1.09564e-07
37 68 1.26879e-07
1739 3811 6.09625e-07
465 127 2.7293e-07
1628 634 3.49915e-07
1828 39 1.23111e-07
4855 3698 6.19183e-07
63 1764 1.46249e-07
2572 3673 2.99231e-07
220 51 1.01456e-07
2616 241 4.54339e-07
3385 256 9.62462e-07
2637 7529 1.02569e-05
2637 133 5.79194e-07
665 2941 1.86325e-07
670 660 1.24141e-07
7256 792 1.82407e-07
27 189 1.80105e-07
5667 339 1.28484e-07
1745 8224 1.02865e-07
59 8150 2.92326e-07
805 41 1.06909e-07
970 542 1.72547e-07
203 115 2.07581e-07
478 241 2.22485e-07
2234 1115 1.92464e-07
1941 449 2.41573e-07
2247 45 1.56391e-07
956 3372 2.95846e-07
2094 428 6.46922e-07
152 133 2.03176e-07
369 1206 1.06132e-07
266 1206 1.73238e-07
1565 3625 4.72841e-07
402 27 1.49237e-07
366 1510 1.78777e-07
376 7770 1.45007e-07
3306 183 4.26882e-07
3708 189 1.93216e-06
496 302 3.82147e-07
11 532 2.09337e-07
159 378 4.99482e-07
9304 1604 8.58855e-07
7838 206 3.58218e-05
337 7601 1.96037e-06
1312 627 3.80772e-07
98 32 1.13362e-07
224 228 1.01307e-07
0 6491 3.85989e-07
3263 393 1.71485e-06
5270 54 1.58123e-06
8197 208 9.75666e-07
3027 128 9.19019e-07
1322 7406 4.16832e-07
88 2745 1.10442e-07
451 7411 5.97816e-07
227 54 1.16858e-07
3212 846 5.80027e-06
1424 846 1.64695e-07
3459 7231 2.22232e-07
2063 7374 2.93297e-07
7634 7374 5.68107e-07
2320 34 1.21014e-07
162 210 1.75878e-07
90 27 1.20985e-07
614 7349 7.94836e-06
111 7349 1.22535e-06
45 7349 0.000217932
1020 7349 0.000581304
0 7349 3.18152e-07
5939 607 3.04153e-07
9640 9 7.77873e-07
3050 7021 5.35163e-07
0 3332 9.73223e-07
2797 7112 5.21424e-07
1494 3515 3.75385e-07
205 1007 1.03414e-07
5873 334 5.83547e-06
157 334 2.34775e-06
0 334 3.20674e-07
634 4122 1.0993e-07
2074 890 1.46606e-07
1454 1468 1.38251e-07
4023 206 6.44992e-07
234 607 1.14548e-07
51 702 2.63899e-07
0 1002 2.40237e-07
233 2090 9.68418e-07
528 1425 2.34727e-07
528 6417 3.83415e-07
1026 5225 2.61419e-06
482 1886 1.14544e-07
431 438 7.64898e-07
60 241 3.74815e-07
830 93 1.26695e-07
79 22 1.05181e-07
173 1353 2.53762e-07
2196 401 5.28424e-07
7697 884 7.01302e-07
3268 68 6.13076e-07
1950 2679 1.03004e-07
7130 6596 7.72476e-06
630 6596 2.66601e-07
4312 5142 5.05673e-07
2205 5142 2.53439e-06
1833 1657 5.03159e-07
546 1657 1.6569e-06
61 378 1.22737e-07
9136 210 1.50535e-06
4657 509 1.29542e-06
823 22 1.01859e-07
6168 1092 4.76796e-07
549 1811 1.57289e-07
6911 1208 5.01337e-07
92 6335 1.21565e-07
6494 1920 3.48471e-06
171 1074 4.39747e-07
421 393 5.08877e-07
0 552 2.11339e-06
7833 532 1.00232e-06
0 531 1.22851e-07
1048 2346 9.44787e-07
2993 6000 3.65515e-07
336 189 1.20045e-07
368 6176 1.05931e-07
29 1584 1.15642e-07
4694 1584 6.24332e-07
51 390 1.25996e-07
8538 3254 2.6581e-07
4459 1545 2.54576e-07
6069 45 3.20453e-07
1776 45 1.06047e-07
8569 139 2.10931e-06
828 746 3.49793e-06
828 1038 1.43143e-07
8391 5962 5.27172e-06
201 220 1.01001e-07
0 1873 1.00432e-07
590 45 1.85154e-06
231 5727 3.55858e-07
7 4526 1.6799e-07
3569 45 1.73113e-06
7773 142 4.61766e-07
1458 393 1.55737e-07
2223 32 1.00621e-07
3381 5457 2.57454e-07
7492 401 8.27587e-07
396 750 1.92829e-07
2295 191 1.34326e-06
41 754 1.56608e-07
36 59 1.39559e-07
602 5193 5.18334e-07
2570 27 2.77654e-07
232 2114 1.39725e-07
710 1720 1.32841e-07
23 5050 1.20271e-07
7148 83 4.26549e-07
366 5156 1.73661e-07
116 183 1.3571e-07
173 811 1.20837e-07
0 2063 1.1995e-07
269 45 1.08596e-07
6988 5021 2.13708e-06
1200 51 2.33978e-07
621 2526 4.81426e-07
5909 492 1.23314e-06
611 2005 1.64965e-07
0 1925 1.1629e-07
6856 11 1.692e-06
1933 4929 1.0109e-07
6730 153 1.18462e-05
521 4660 2.14333e-07
0 1323 4.51954e-07
5526 4316 4.51e-07
830 1211 1.19354e-07
55 27 1.24501e-07
237 200 1.07476e-07
5690 3258 1.71862e-06
313 4401 9.21037e-06
11 4401 4.7479e-06
0 4401 3.53106e-07
3378 127 5.60376e-07
44 127 2.08777e-07
1335 920 2.37583e-07
5503 1880 2.0528e-06
5491 503 5.55932e-06
956 51 1.4694e-07
487 51 1.09905e-07
5440 3978 1.03876e-05
1786 83 1.56244e-06
1786 127 9.24671e-07
5021 339 8.15852e-06
2590 206 4.45067e-07
108 1512 1.56819e-07
1941 1321 3.1054e-07
3070 3673 7.02647e-07
116 3761 1.39541e-07
4756 45 6.7699e-07
36 208 4.7476e-07
517 208 1.16843e-06
1444 51 2.04397e-07
4526 71 1.44677e-06
38 750 4.07694e-07
717 338 1.08661e-06
155 390 1.27877e-07
33 3382 6.21582e-07
4301 117 1.55311e-06
1003 1115 1.5925e-07
4271 2849 2.71564e-07
410 34 1.45998e-07
1396 601 2.35203e-05
0 601 3.44509e-07
1495 83 1.31271e-07
1064 208 7.94564e-06
90 208 1.66158e-07
2685 466 5.73092e-07
126 2829 1.12053e-07
3582 2815 2.36013e-07
3445 1013 3.29623e-07
220 2711 3.3969e-07
3420 2711 3.39004e-06
286 2711 4.62998e-07
3028 1278 3.50942e-07
3365 53 1.21253e-06
3276 27 2.66008e-07
519 401 2.20212e-07
2014 53 4.36992e-07
823 20 1.25075e-07
3172 41 8.37216e-07
1375 2507 1.44844e-06
36 2486 1.15873e-07
2990 2415 4.39778e-07
2581 2415 9.1011e-07
0 65 1.02413e-07
2501 54 1.17422e-06
2725 2114 2.0071e-06
520 827 2.77883e-07
90 587 1.05819e-07
2313 525 4.64573e-06
2312 495 2.69899e-06
111 495 4.87418e-07
950 495 1.55627e-06
0 495 2.61348e-07
2305 1744 3.36697e-07
2241 581 2.40952e-06
73 117 2.25896e-07
1425 393 1.42012e-07
1204 362 3.04458e-07
668 1268 1.01209e-07
1067 500 1.57733e-06
1046 53 1.03673e-05
1015 939 1.92285e-07
213 492 4.19011e-06
827 26 1.82944e-06
749 700 3.19947e-07
165 168 2.64629e-07
375 337 3.88081e-06
300 342 5.14061e-07
300 337 1.49761e-06
146 342 2.89022e-07
371 337 1.74983e-06
17 337 3.88676e-07
155 337 0.000360607
247 337 2.77132e-07
0 337 4.15842e-07
184 51 2.27983e-07
0 116 7.93853e-07
2022 41 1.77298e-06
24444 4525 0.00013549
973 4768 4.29257e-06
1797 4768 3.06882e-06
9473 4768 8.08579e-05
5822 393 2.35243e-05
1254 393 1.08306e-07
171 7594 1.6366e-07
396 34 4.47511e-07
1743 19494 4.48051e-07
402 22 3.17251e-07
1736 455 1.49747e-05
1494 8172 2.06952e-07
14335 2713 1.85832e-05
524 1349 3.93869e-07
1348 12746 1.54524e-06
24644 19410 2.27509e-05
7114 222 6.74852e-05
7433 11 9.39535e-06
24466 1007 7.29273e-05
22498 3290 0.000440598
12623 20 4.44549e-07
9713 19205 1.35557e-05
626 1159 1.62062e-07
1829 393 7.26412e-06
24396 2517 0.000216117
4605 2112 2.99507e-07
9613 12720 1.37361e-05
151 7892 2.07699e-07
80 7892 1.50422e-07
21 353 6.11048e-07
6918 5978 9.73682e-06
1300 303 4.3982e-07
302 18 7.15546e-07
1619 404 1.65827e-05
14525 15156 2.52641e-06
6508 208 3.21665e-06
368 22 3.45858e-07
1502 466 8.38075e-06
312 438 1.30857e-07
8344 18999 6.52545e-06
3559 180 1.09769e-06
487 52 9.5117e-07
1359 52 5.00041e-07
3918 71 4.00565e-06
139 74 1.0781e-06
24122 5339 0.000121307
24118 1296 0.000111604
4374 3368 8.79219e-07
815 525 0.00795472
1942 9366 1.6578e-07
208 9366 1.63938e-05
2474 9366 0.00906074
27 1973 5.51911e-07
1495 1744 2.26754e-07
804 1744 4.9928e-07
3320 581 4.14802e-07
126 455 1.87847e-06
2979 156 6.47535e-07
961 32 2.46332e-06
549 483 1.78482e-07
2286 661 1.72809e-06
2442 1403 0.000276974
6431 51 4.91124e-05
15027 117 1.757e-06
7206 627 1.9565e-06
7559 2983 2.62361e-06
21966 17061 4.96978e-05
133 17061 2.13455e-07
52 18501 1.36757e-07
6089 191 1.13555e-05
495 18468 2.75778e-07
2933 1435 6.12528e-06
1439 1743 3.95904e-07
1254 11611 4.45534e-07
10377 5136 2.18743e-06
1520 1911 0.000206093
111 1911 7.1184e-07
55 1911 9.23387e-05
1927 924 5.00388e-06
23421 651 7.77557e-05
1003 51 1.32507e-07
6389 1260 7.22111e-06
499 6762 3.86114e-06
23216 1167 0.000292085
549 1147 1.07029e-06
2690 34 7.34825e-07
4498 591 6.83575e-05
5971 570 1.03997e-06
5971 591 4.13732e-07
23100 1916 3.50264e-05
5710 1744 1.19994e-06
237 758 9.96405e-07
9067 661 2.15984e-05
1177 34 2.95131e-07
1776 17629 6.04976e-07
5787 13742 6.29192e-06
5404 157 1.60185e-06
487 892 2.1422e-07
4697 16685 4.1159e-06
5305 15 1.59276e-05
80 279 2.89175e-07
1829 754 2.43851e-07
3404 1259 4.67914e-06
8546 139 5.91158e-06
4855 7271 2.01055e-06
8300 222 4.66848e-06
6071 438 5.54791e-07
2590 39 3.43926e-06
173 4006 0.0125413
2303 10406 1.29724e-05
880 467 4.49959e-06
1693 597 1.09613e-06
110 151 2.1135e-07
38 1404 1.17236e-06
2963 17392 1.286e-06
3451 16 0.000230301
1494 16 1.29198e-06
2239 68 1.92277e-07
366 68 7.96694e-07
9773 2739 5.07164e-05
2608 202 5.29231e-06
589 17260 0.0524172
56 1164 2.52688e-07
131 5012 4.48004e-07
991 1041 1.7771e-06
991 2 5.95809e-07
3050 10797 2.02874e-06
2650 10797 2.59778e-05
3004 4417 1.1573e-06
219 371 7.08052e-07
219 4417 3.48201e-07
3588 771 3.38752e-07
3101 27 0.000163721
479 658 3.94875e-06
11199 4532 2.7027e-05
2891 6485 5.83664e-06
11812 9651 2.10261e-05
1837 15905 5.57178e-06
22042 363 0.00392682
1096 66 3.46148e-05
694 7496 1.24412e-06
1841 1424 5.03013e-07
244 1024 4.09363e-06
507 1060 1.03555e-07
7359 55 3.28984e-06
5142 6229 9.75531e-06
21859 667 0.000138395
1350 11673 0.000631431
98 3181 3.06771e-05
819 1744 3.2538e-06
1370 1744 3.78349e-06
614 6857 6.17198e-07
3794 16667 3.43929e-06
3152 7285 3.28286e-05
11225 1081 6.26151e-05
7653 133 5.03439e-06
21714 8552 3.14329e-05
2250 885 2.02677e-07
5249 702 8.01553e-07
616 8305 3.07784e-07
19907 403 8.96824e-05
62 899 1.87541e-07
1363 30 1.2892e-06
6814 378 5.49042e-05
19538 1282 3.77919e-06
626 763 1.10537e-06
273 139 1.88014e-07
14019 16 1.46057e-06
17124 21 2.73525e-05
5769 587 1.09818e-05
3426 16466 1.86618e-06
2802 34 1.02305e-06
1144 730 2.57936e-07
1508 577 4.08534e-07
5431 4242 3.4233e-06
499 7636 2.96798e-05
41 7636 1.35474e-06
21551 7636 5.84317e-05
1193 8394 2.76637e-07
17075 14920 2.83545e-06
19772 48 2.99589e-05
543 2854 1.39454e-07
1900 2854 1.43204e-06
19488 133 9.29899e-06
5660 8898 1.03405e-06
14121 8898 2.60013e-05
613 186 1.17655e-07
1252 2338 3.25127e-07
151 909 1.23085e-06
17 1823 8.34569e-07
1179 1823 1.43845e-07
21498 1306 3.98825e-05
4864 2708 5.92297e-07
8501 83 1.99315e-06
950 375 3.66594e-07
21494 375 7.3641e-05
3700 1081 4.50962e-05
145 206 2.08511e-07
1425 11784 3.66521e-07
2135 438 5.99049e-07
19533 1284 4.22132e-06
12656 51 7.54123e-06
1180 16325 1.13768e-07
14425 83 1.16144e-06
3667 73 4.85521e-06
8063 12914 2.07704e-05
141 39 2.55781e-07
13070 6223 0.142396
2406 3153 1.43359e-06
3624 73 1.38312e-06
15019 16254 6.23138e-05
21362 68 6.72056e-06
21362 60 6.44456e-06
13513 740 2.35208e-05
14166 752 3.58571e-06
3026 8075 8.09942e-06
3546 15834 1.72668e-07
1406 6827 1.45563e-06
2418 188 2.65561e-07
18995 343 1.72935e-05
1488 16176 1.46881e-06
973 16176 4.80689e-07
15521 39 1.26726e-05
19909 611 0.00182032
7278 45 1.2507e-05
21311 503 4.40957e-06
245 1515 1.27964e-07
4687 901 3.8103e-06
804 307 1.03108e-07
2528 1537 7.27782e-06
213 66 1.59453e-07
194 43 1.18164e-07
7022 593 1.18725e-06
4469 989 5.19139e-07
196 597 2.11248e-07
27 397 3.07877e-07
1952 350 1.18366e-07
212 15861 1.18646e-07
1305 123 7.5733e-07
605 51 2.26612e-06
14827 5357 1.84043e-05
7345 1901 0.0513697
7345 9 4.81089e-06
1158 1901 1.12492e-06
10040 15694 3.60489e-07
7100 15777 5.76212e-06
1544 15777 6.12307e-07
159 15 2.74655e-06
15216 1657 0.0832535
19709 39 5.52649e-05
19709 68 2.48664e-05
2283 51 3.08861e-07
5344 624 1.61367e-06
1015 1973 2.1908e-07
3257 11 2.91353e-07
14445 11 0.000325013
33 9379 3.56747e-07
1412 453 8.39256e-07
308 37 5.98705e-07
3360 37 2.74131e-06
542 15583 2.84388e-07
1180 370 1.71196e-06
12150 370 0.00620194
5764 822 3.39056e-05
13899 51 7.96552e-05
1245 8905 7.20737e-06
273 51 4.93269e-07
2496 15514 3.72477e-06
2496 15513 0.00506896
92 15513 1.29605e-07
1946 15513 9.08445e-05
62 15513 0.000125516
11 15513 2.19777e-07
19921 15513 1.41247e-06
16658 15504 0.000133846
8918 15504 0.00249862
4542 48 5.62883e-06
115 48 1.17268e-06
115 438 8.77836e-07
3973 438 0.00180318
2041 641 7.50594e-07
245 3307 7.09269e-07
804 187 1.79314e-07
345 490 8.24435e-07
20154 654 2.87861e-05
5109 8378 0.0187513
3360 1079 3.63752e-07
1237 373 1.16674e-07
12894 2063 2.88744e-07
2989 15350 1.43065e-07
29 9951 1.4466e-07
950 363 1.0193e-07
1547 123 2.75401e-05
269 123 4.12687e-07
12328 10011 1.5106e-07
13542 1349 2.66396e-06
2054 14390 2.29814e-07
2951 41 6.811e-07
33 1093 1.82951e-07
14582 752 2.55094e-05
8963 127 4.15054e-05
1175 15292 1.41367e-07
1371 2879 1.48928e-07
1952 6631 2.36728e-07
13719 9 4.71806e-06
9501 14979 0.000320452
366 15226 4.06264e-07
200 22 1.78843e-07
1179 10390 1.06062e-06
12860 740 1.58014e-05
212 51 5.92298e-07
201 13594 2.04191e-06
20509 13594 2.37917e-05
546 537 3.94161e-07
477 43 1.46272e-05
8327 34 1.0087e-05
1939 661 4.73603e-07
0 13594 2.22131e-07
3019 1060 1.14883e-07
432 30 1.53681e-07
1709 93 7.00995e-07
3591 139 2.49931e-07
33 142 1.42171e-07
201 140 1.21662e-07
502 45 4.50642e-07
1917 1904 2.04393e-06
16808 901 1.61366e-06
570 1196 4.37244e-07
5431 752 4.80998e-07
1940 2798 2.02578e-07
1175 952 2.9382e-07
7 54 1.00578e-06
10044 740 0.00219131
2178 39 3.02967e-05
10008 54 4.84517e-06
3266 4435 2.24167e-07
12371 14591 1.00857e-05
0 14591 1.59762e-07
7995 5733 4.82046e-05
174 14752 2.03236e-05
17018 133 8.86829e-06
109 4435 0.000705835
2651 14 0.091128
19306 12398 2.32527e-07
5583 2472 2.78482e-07
3414 39 2.60432e-07
20012 220 0.000260037
713 250 2.29522e-07
713 116 1.32334e-06
1220 116 0.00068319
2108 116 5.21067e-05
392 116 1.71437e-07
7455 116 1.40494e-05
595 123 3.31234e-07
378 779 3.30763e-07
20173 740 0.0179144
65 14640 2.56423e-07
451 486 4.79453e-06
677 363 3.90388e-07
260 123 5.70249e-07
11321 9 0.000223397
6128 740 3.52357e-06
3151 93 8.44648e-06
327 2126 2.79347e-05
159 577 1.88171e-07
9627 1827 2.27009e-06
1813 2 3.37185e-06
4924 1164 1.31062e-07
99 140 2.25129e-07
1110 14409 1.38194e-06
989 14408 1.9235e-07
667 68 6.05633e-07
28 39 2.89818e-07
20028 32 5.12117e-05
686 393 4.76889e-07
5662 779 7.15459e-06
2709 14327 8.62194e-06
2734 14194 6.75339e-06
3900 68 3.5134e-05
4600 68 7.74118e-06
15560 3597 4.02415e-05
2016 1060 7.0263e-07
3411 2735 4.47061e-07
19960 156 2.91984e-05
210 6322 0.000317918
2054 990 1.689e-06
12516 60 8.91615e-07
6705 14224 1.62595e-06
138 80 7.5419e-07
14425 645 1.87784e-06
83 1060 2.30477e-07
2989 1413 1.46566e-06
1796 84 9.98129e-07
11361 14160 3.52633e-05
12122 14160 3.23479e-05
222 14160 2.72798e-07
8341 14158 5.03235e-05
11102 51 4.62387e-06
509 123 2.2287e-07
13126 54 9.20002e-06
2724 54 8.13173e-07
1073 7659 1.54018e-05
1178 4434 1.96515e-06
3029 39 1.44733e-05
69 10122 1.48078e-07
4637 443 6.74737e-05
5874 661 7.37268e-06
13935 19 2.89358e-05
677 55 1.89856e-07
10047 5887 4.3205e-06
1224 801 0.00659104
16095 801 0.000449844
958 801 6.93127e-07
7203 5530 4.43896e-06
19623 250 2.44802e-05
2802 10138 7.69823e-07
182 7640 1.34953e-07
547 2983 2.58903e-07
613 22 2.01576e-07
173 8218 2.76932e-07
50 127 1.89456e-07
270 51 1.77842e-07
12894 1891 3.01339e-07
9113 13676 7.66596e-07
19306 4435 9.50286e-07
19306 9700 6.84408e-06
14539 39 6.95121e-06
368 117 1.65759e-07
0 9951 1.23697e-05
173 2732 1.01515e-06
327 2732 1.44485e-06
18634 41 1.06875e-06
1295 30 2.3145e-06
165 763 7.94592e-07
1255 188 0.000668987
547 8142 9.37319e-07
15003 37 4.11028e-05
935 13736 0.00846125
2657 13736 1.07442e-05
8325 13736 2.29296e-06
713 1115 4.91828e-06
1594 188 2.49687e-07
16095 27 3.13868e-06
9964 20 0.0363191
2989 438 5.2551e-07
13049 127 0.000219771
5648 13632 0.000285647
1144 755 4.20803e-07
9352 8724 8.03009e-06
980 45 2.46147e-06
19064 1372 3.66693e-05
1543 867 1.00989e-06
2621 39 1.88631e-05
9141 759 1.73629e-06
19170 3597 0.000244953
4572 3597 1.17e-06
19083 517 0.000193046
1261 503 1.0662e-05
2973 503 0.000155328
12662 5750 2.81543e-06
9595 1041 1.90632e-05
1183 449 1.62776e-07
3019 298 2.94262e-07
162 54 3.0462e-06
7274 6591 1.10665e-06
3385 7090 0.00017045
1003 7090 8.00957e-07
1871 1217 2.35422e-06
3620 127 4.35531e-07
43 1567 2.86904e-07
37 1567 1.08289e-07
14087 123 5.23732e-06
1171 22 8.62547e-07
132 590 7.30672e-05
3585 4997 1.4245e-06
2305 607 7.87081e-07
5040 19 3.90491e-07
610 1827 1.58533e-06
2127 500 1.92193e-05
18638 2234 0.000915102
7773 1413 3.16692e-06
1063 116 3.05539e-06
200 650 1.51497e-06
3076 961 1.90053e-06
6545 3597 9.72273e-07
3900 6582 6.59789e-06
159 4435 1.41759e-07
18367 60 0.000520587
477 22 2.74575e-06
18308 4443 0.00147586
18297 2924 2.25536e-05
1424 7060 1.38499e-06
18226 83 2.31778e-05
1146 2592 0.0328404
1837 2592 1.64113e-05
1159 1041 6.93601e-06
3696 12940 1.36845e-06
4593 20 8.26845e-05
61 20 8.09691e-06
1769 20 7.46702e-06
515 22 1.17383e-07
7004 133 1.80188e-05
11308 380 8.15224e-06
1841 380 2.79068e-07
400 154 6.2177e-07
16746 4585 5.49735e-06
9714 28 1.57183e-07
509 20 1.19484e-07
17853 68 0.000203991
14432 21 2.45744e-06
12360 8770 2.90855e-07
72 4585 5.69729e-07
1144 371 2.80876e-07
7905 602 4.51849e-06
3729 1827 6.79444e-06
3378 1827 5.91275e-05
0 9402 1.46123e-07
3216 1096 4.66844e-06
2250 8673 5.31195e-07
595 8821 1.22793e-06
521 10930 8.02629e-06
1193 189 2.81849e-07
181 222 0.00024343
6058 222 5.84542e-05
83 222 0.000389659
17426 222 1.16971e-06
1776 2 2.10885e-07
16126 41 2.4182e-05
1186 127 6.18097e-06
1580 661 8.2624e-07
0 2116 1.76785e-07
2989 449 1.26482e-07
345 9385 0.000450503
2323 378 1.90369e-06
3376 5054 1.36943e-06
9064 2282 8.865e-06
1629 2282 8.3739e-06
17255 752 6.62625e-06
17255 27 4.79558e-06
400 279 2.55593e-06
116 180 2.90812e-07
8849 1041 3.36131e-06
2664 14 1.16107e-07
14687 14 6.21113e-05
2347 45 1.83476e-07
237 2041 5.05322e-07
19 2584 1.8245e-07
2065 4168 1.24462e-06
392 814 2.07779e-07
4321 2533 1.97408e-07
4117 1694 4.10331e-05
2919 127 5.55667e-07
613 563 2.1955e-07
378 563 1.42258e-07
2142 12191 1.57495e-07
16724 566 2.29044e-07
5230 298 2.74924e-07
1610 39 3.52291e-07
371 331 4.90633e-07
16984 466 0.0001303
211 1907 1.81154e-06
1471 68 2.83689e-07
2133 4594 4.61356e-05
795 1642 8.47824e-06
11860 1142 9.42172e-07
8164 139 2.10758e-06
9014 752 8.83772e-06
5704 27 5.55625e-07
210 581 1.37967e-07
61 117 1.04672e-07
11488 1041 3.02545e-05
572 2 1.34348e-07
6029 1437 1.18144e-07
663 1411 1.17087e-06
5854 611 1.23371e-05
5517 183 3.87929e-05
5147 353 1.57676e-05
61 133 2.52012e-07
234 551 3.8208e-07
251 286 1.87594e-06
37 917 2.30501e-07
98 917 1.64751e-05
15808 917 1.20209e-07
191 1340 2.33127e-07
805 1077 1.65355e-07
656 127 1.47254e-07
237 1166 2.89116e-07
33 3781 1.19409e-07
23 305 3.37282e-07
740 6331 1.2594e-07
2980 1669 6.17054e-07
268 397 6.31213e-06
2797 127 3.50879e-07
2283 1583 3.74139e-07
13925 28 4.37675e-05
950 1081 1.56802e-06
1456 1076 2.0687e-07
2152 373 7.37786e-05
15132 8901 1.1635e-05
10376 11592 3.2338e-05
205 39 4.80514e-07
12361 83 1.49277e-07
61 3468 1.95721e-07
2135 52 8.34852e-07
16159 30 0.00020105
1841 11508 2.81366e-06
15367 52 0.000106516
368 8409 1.68939e-07
61 53 1.3692e-07
7634 45 1.18068e-06
27 7078 1.65093e-07
200 216 1.6601e-06
1642 1150 0.0631998
1781 1150 0.00211773
10809 1150 0.000278649
5109 1780 0.00321741
626 1780 2.99486e-05
478 521 1.03478e-07
2959 380 3.2711e-07
90 140 1.39776e-07
41 390 3.54521e-07
1829 22 1.61506e-07
224 378 1.82354e-07
221 3039 3.45621e-07
125 9385 0.00188266
3019 3446 3.48831e-07
13748 650 0.000209406
266 4214 2.70745e-07
37 66 3.20881e-07
5963 6790 2.6882e-07
3537 1146 8.97603e-07
628 8638 5.43092e-07
3320 8354 1.38216e-06
1207 7685 2.84492e-07
19 68 4.21098e-07
2657 9581 6.13509e-06
1198 68 2.14368e-07
182 41 1.47606e-07
66 7546 1.03811e-07
1187 2972 2.85169e-07
366 188 4.94346e-07
619 624 5.21493e-05
45 624 8.72938e-07
913 624 1.07468e-06
12644 1268 0.00635731
1003 68 1.06554e-06
123 5722 1.9368e-07
1940 8359 2.95958e-06
1280 9162 3.55839e-06
638 1015 1.03514e-07
1127 353 1.50018e-07
5490 2188 1.86656e-05
1174 1930 8.16138e-07
43 2684 1.27387e-07
10040 5453 5.33882e-07
335 183 1.93313e-07
99 183 4.91759e-06
379 250 2.78826e-05
14083 18 4.41382e-07
5147 185 3.57317e-07
2023 601 2.39706e-07
9240 378 9.06235e-06
4601 188 0.0259001
1963 303 0.000649082
151 1217 1.75895e-07
997 9741 3.82296e-06
1180 156 1.03447e-07
12258 58 2.80872e-05
1191 3249 1.24035e-06
6981 208 3.70677e-06
14486 7947 3.50798e-05
2320 2188 1.8282e-07
4928 593 3.64178e-06
43 90 1.72356e-07
99 90 5.15092e-07
158 247 4.62934e-05
207 247 5.82806e-05
6148 10403 1.39298e-05
3360 755 1.50809e-07
804 1764 1.45995e-07
194 1002 1.84412e-07
205 8905 1.04902e-06
2023 8673 2.01034e-07
1512 1421 2.49978e-07
2190 10168 6.832e-07
1597 438 8.32478e-07
515 2780 1.40618e-07
825 510 2.28401e-06
12675 51 1.50925e-06
10940 10079 6.52308e-07
3157 4448 7.44224e-07
63 5380 2.83121e-07
8838 30 2.93224e-06
655 3813 7.39119e-07
24 786 9.44438e-07
90 220 1.16588e-07
2046 32 8.57201e-07
3534 1058 1.18617e-07
2072 194 2.13728e-06
437 9798 2.26075e-06
1471 2851 2.28279e-07
3546 1829 2.79451e-07
13662 434 0.00013419
3158 68 2.30922e-05
0 591 1.22494e-07
13567 30 0.000644956
1225 2392 1.07971e-05
588 2851 3.65208e-07
2046 115 2.29131e-07
9768 9483 1.89415e-07
12323 19 1.63103e-07
13251 1081 2.5188e-05
304 607 1.41408e-07
6384 1478 0.00257057
21 1041 3.84555e-06
125 9415 4.24464e-07
1185 506 2.92879e-06
8548 581 2.17246e-06
815 8970 2.29843e-07
65 6704 7.20643e-05
7756 6704 1.07323e-05
1159 1217 3.31858e-07
12967 71 1.12843e-06
5667 3333 2.29703e-07
12885 208 3.16758e-05
12852 9083 0.245862
893 9083 0.000585922
8467 9083 7.37381e-05
479 4015 0.00234316
874 6998 5.63734e-07
1256 4347 1.16464e-06
5697 8907 0.000108482
676 115 1.31986e-07
12538 2483 9.32742e-06
2889 2264 2.17831e-06
1748 7 6.55487e-06
0 2543 3.32326e-07
1117 8223 1.83469e-07
0 2242 1.48111e-07
1690 2996 3.15887e-07
867 54 7.29502e-07
1145 679 4.20523e-06
464 2976 1.36729e-07
1865 83 8.4137e-07
2886 2972 7.74259e-07
795 34 3.21824e-07
89 34 1.92475e-07
12133 127 0.00017721
37 4594 2.07244e-07
4129 8484 6.75128e-06
1605 486 2.61343e-07
4677 593 1.05501e-05
707 8401 1.00204e-07
998 1051 4.6569e-07
3815 28 1.16065e-06
848 256 9.28171e-07
3306 48 4.6605e-06
3315 1478 9.35344e-06
217 1478 0.000156054
4940 660 2.98641e-07
11935 9 2.01247e-06
115 393 1.78261e-07
803 48 1.31411e-07
63 1041 8.20106e-07
697 27 3.46298e-07
697 1031 1.20107e-07
0 1142 2.73283e-07
7492 296 8.55673e-06
5068 60 2.44167e-05
1341 393 2.24869e-06
19 5183 1.64879e-07
1434 1245 1.86104e-07
1195 590 2.76551e-06
65 95 1.04076e-07
788 95 1.5301e-06
9649 18 3.90037e-06
3794 440 0.00460609
379 34 2.52218e-07
379 378 5.70848e-07
9961 8082 2.10853e-06
1570 66 3.68136e-06
993 71 2.11439e-06
50 123 2.1417e-07
18 1171 1.8758e-07
1322 7689 1.3902e-06
2690 54 2.34807e-07
1543 3000 2.24822e-07
1999 5797 1.51508e-05
10399 4453 7.98178e-06
11279 2923 6.42883e-05
3719 127 3.3102e-06
3388 1064 1.61692e-06
2723 7789 2.93418e-07
710 127 1.4174e-07
1488 127 1.00459e-06
1444 189 1.02454e-06
45 365 1.65951e-07
478 525 1.7655e-07
313 1345 1.53229e-07
2887 2459 5.71219e-06
10889 30 2.07982e-05
6895 9 0.00035477
7683 9 0.000332505
410 801 1.32817e-07
665 53 1.76569e-06
9294 189 2.77173e-05
98 157 4.79485e-07
4459 364 3.20927e-07
10614 53 6.23236e-06
1580 1507 3.3553e-07
4455 3779 2.05655e-07
1549 1172 4.6202e-07
2896 3413 1.1681e-06
3366 34 9.83134e-07
496 298 1.28864e-07
1637 1209 2.63336e-06
825 1933 1.65119e-07
7398 978 5.81342e-06
560 5464 2.69392e-07
1364 7087 5.47967e-07
0 603 3.89845e-07
1424 7061 2.08614e-07
710 7060 3.40828e-07
119 888 4.29228e-07
1690 650 8.0023e-07
9908 206 4.35457e-05
213 115 1.77805e-05
1312 175 2.30627e-07
4708 2641 5.95017e-06
1013 1373 3.00124e-06
1017 5884 1.75933e-06
255 54 6.13462e-07
1797 244 2.20048e-07
418 11 8.16115e-07
0 179 1.02245e-07
98 216 0.000438537
55 6704 3.17161e-06
1530 393 2.62634e-06
3266 401 3.70924e-05
774 34 1.00445e-06
56 41 2.20412e-07
133 80 1.21691e-07
38 393 1.62025e-07
3138 6572 1.70037e-05
466 607 1.09135e-06
99 607 1.28612e-07
52 127 2.73631e-07
27 208 1.13435e-07
1610 6477 3.33239e-07
735 1095 2.59667e-07
1956 6434 1.14004e-07
961 3877 2.3405e-06
8948 66 8.47189e-05
3881 2776 3.23592e-06
0 250 2.32094e-07
6494 455 0.126459
8845 71 0.000137692
0 365 2.12792e-07
8784 6000 1.53667e-05
693 6232 1.23628e-07
4551 2848 1.06461e-05
0 2848 1.06539e-07
1187 438 3.43179e-07
222 438 4.47038e-05
398 445 8.9845e-07
31 4 5.28432e-07
921 71 1.83682e-07
440 127 1.54886e-07
656 183 3.67534e-06
8302 32 2.16332e-06
5516 2199 7.50775e-07
77 4573 1.11419e-07
3332 661 0.000579124
1273 661 0.000194545
686 661 4.01385e-06
51 764 1.41939e-07
231 261 3.56607e-07
3696 261 6.19423e-07
8085 41 1.91775e-05
133 128 3.36014e-07
516 1294 1.08551e-06
1655 1294 6.105e-05
141 5703 1.49782e-07
194 298 2.56123e-07
1332 1183 4.21277e-07
7979 95 5.95924e-05
213 219 8.36624e-07
2256 5653 3.94507e-07
1302 16 1.44509e-07
7148 1367 2.26964e-06
1175 1992 2.28915e-07
2 1992 2.60132e-07
0 1992 2.71265e-07
4096 189 9.45717e-05
1841 4883 2.38654e-07
45 52 3.89118e-07
2384 206 0.00286634
1451 206 0.00372752
313 5012 2.96758e-06
3131 826 4.58279e-07
75 826 1.99947e-07
23 826 7.52897e-07
7677 826 1.20823e-05
1474 133 2.08479e-06
124 1275 1.08925e-07
4320 1275 1.049e-05
1715 37 2.68312e-05
15 154 2.93572e-07
378 1448 5.26501e-07
4647 1448 0.00480605
1377 1907 1.91606e-05
71 48 1.20916e-07
7379 188 0.000129689
878 901 5.97853e-06
3856 5296 7.71009e-06
38 2987 1.94252e-07
7349 21 0.000143286
1580 2438 3.94054e-07
7165 27 0.000145232
51 220 1.08787e-07
234 476 1.62026e-07
956 1142 2.94776e-07
487 1142 1.923e-07
2379 563 7.07011e-07
27 1081 4.28677e-07
1167 403 0.00023028
1167 188 0.00441729
1232 874 3.4833e-06
950 339 1.45328e-07
36 312 3.42658e-07
1850 2972 7.2754e-07
0 1770 1.32267e-07
266 544 0.00052177
667 544 0.00204726
33 544 2.47159e-05
1693 544 3.94539e-07
2112 298 4.07005e-06
214 4587 3.89848e-07
1265 4577 1.00814e-05
4674 1669 2.98264e-07
0 624 1.46156e-06
2078 45 3.99655e-06
6025 68 0.000137676
950 200 2.21106e-07
2036 287 1.21682e-06
19 28 2.95351e-07
225 4321 2.34301e-07
5712 54 1.23781e-05
3 4234 1.83406e-06
90 438 2.59343e-07
2096 83 1.18896e-06
3916 22 1.31145e-05
313 3169 2.77373e-07
1434 2005 1.19489e-07
3383 3517 9.47118e-07
2797 3517 1.42583e-05
3843 1712 1.42125e-05
89 22 1.47932e-06
410 566 1.62862e-05
5303 3996 6.04298e-06
723 127 9.14411e-07
634 702 2.0007e-07
171 1901 1.03107e-07
1567 1244 9.4386e-07
286 45 1.47005e-07
191 390 2.59556e-07
49 1460 2.1678e-07
4272 2849 4.30292e-05
1496 2849 6.36998e-07
4269 393 1.30595e-05
1211 920 3.77052e-07
15 208 6.98304e-07
106 3043 0.000102929
443 220 1.59947e-06
59 2801 1.51968e-07
3466 2740 5.68021e-07
3467 661 2.60825e-05
3420 990 6.29453e-07
823 990 1.45963e-07
291 139 2.87821e-07
1580 1403 3.63772e-07
285 1393 1.59348e-07
1374 2508 2.95102e-05
50 516 3.55387e-07
151 2283 2.70361e-06
1461 2235 2.7247e-07
2443 53 0.000493606
0 1901 2.40364e-07
62 117 2.24866e-07
208 37 3.48256e-07
253 1207 3.67593e-07
638 1899 5.65e-07
189 1899 0.000114353
2289 1899 1.53602e-05
2280 449 7.64267e-07
437 901 2.52856e-06
1100 220 9.58116e-07
1732 28 1.41845e-06
0 1478 8.27497e-07
316 1527 9.43766e-07
1670 1456 2.17851e-05
481 551 3.06718e-07
443 551 1.20542e-06
1600 551 1.65074e-05
1600 752 1.59444e-05
1457 1350 2.96151e-07
1501 752 6.46495e-06
55 286 1.6651e-07
930 1268 5.54442e-07
125 139 5.34295e-07
198 45 1.82002e-07
217 331 3.1736e-07
307 268 8.08673e-06
0 188 6.34857e-07
89 88 2.21081e-07
7243 58 0.000188223
4896 195 8.64094e-06
682 6920 1.78307e-06
1422 19522 2.39105e-05
1936 52 8.13116e-05
8539 3887 2.29792e-06
1295 22 3.79652e-05
1295 409 5.8272e-07
3819 234 3.6612e-06
5060 890 3.42385e-06
2919 16 4.17266e-07
695 3667 0.000420993
24687 210 0.331539
355 4212 7.21379e-07
1180 1809 2.41752e-07
1739 19419 2.16975e-05
617 60 9.12413e-07
24642 46 0.332689
689 3527 0.0211731
10661 3496 5.28183e-05
234 3464 2.57858e-06
440 21 1.5479e-07
2995 15156 0.000119625
2892 11556 7.84557e-07
8688 3290 0.194095
108 106 2.33781e-06
12623 139 2.5705e-06
2359 5476 1.87446e-05
317 5622 0.00048274
11781 208 0.000112371
1485 19166 2.43604e-07
191 222 0.000380451
1191 19159 8.2003e-06
1434 19159 0.0077173
6954 373 2.87625e-05
1263 156 1.13185e-05
356 156 0.00029328
2654 55 8.30107e-05
16315 4212 0.0941947
1434 6551 2.13513e-07
12497 6877 7.24478e-05
11796 6877 0.000274848
24224 2878 0.234882
190 1842 1.90153e-06
8002 58 0.0101727
3420 34 1.39988e-05
9619 17840 0.00115857
5662 18 2.36579e-05
127 1130 8.36638e-07
5995 580 2.51782e-06
319 298 1.38611e-06
5498 2992 0.000946456
22334 150 0.132733
1426 1349 5.83779e-06
5013 315 3.81701e-05
598 16 4.55712e-06
1180 1973 1.55568e-05
2323 1973 0.00177469
337 343 2.67492e-07
546 18866 1.27195e-05
23977 2215 0.166032
15327 3115 0.249855
20870 1877 0.0751408
7183 1877 0.00909634
251 7141 2.29682e-06
198 22 3.61082e-06
482 5534 0.000300316
1254 5534 7.56558e-07
8734 66 0.00278567
2164 2120 3.63677e-06
4481 54 3.0175e-05
46 54 2.54136e-07
3442 156 0.000831209
131 8483 7.82144e-05
677 483 1.02171e-05
9675 607 0.246171
712 58 8.56674e-05
7537 11 4.09216e-05
1665 7164 2.8733e-05
1665 234 0.00212511
859 18643 3.72015e-06
23741 18641 0.000569574
313 47 1.01593e-06
157 29 1.06301e-06
1545 3171 0.0173988
4297 2933 0.00021335
21809 156 0.00119129
1110 65 0.00109261
272 1491 7.54779e-07
5624 8090 0.000815301
286 2228 2.64202e-06
510 1074 0.0553264
791 156 7.72171e-07
3412 466 7.77823e-06
108 18481 0.000955422
7 18481 3.76984e-05
22732 5989 0.199609
11970 5989 6.88984e-06
1945 535 0.000215258
525 34 5.80363e-06
3070 892 7.8267e-06
3141 18383 7.36284e-06
297 19 1.13415e-06
56 1081 1.03114e-06
1205 80 1.24711e-06
2075 890 5.71277e-07
1143 51 1.14346e-05
239 343 7.46766e-07
699 353 4.27849e-06
1739 68 1.44843e-05
2251 1971 3.63151e-05
3041 1651 0.068156
2042 1510 1.16337e-05
173 73 4.94771e-06
151 1167 3.64473e-07
23203 455 0.000112085
1193 11161 2.49841e-07
7329 593 2.13308e-05
4200 16762 0.000695248
23099 51 0.0153592
15079 5357 3.22767e-05
68 5503 2.08716e-07
146 18027 4.18195e-07
1192 18021 5.99964e-07
5679 593 2.98524e-05
22983 1232 0.165174
22983 241 0.000121468
7139 1232 6.84898e-06
129 15357 8.38263e-07
910 2483 1.36691e-06
910 1398 1.02156e-06
1108 153 0.0216717
1872 13742 0.0118488
229 34 1.24836e-06
22143 331 2.61794e-05
2071 10753 0.00179827
4469 154 7.90796e-06
22886 140 0.331815
10 5042 1.2259e-05
3278 34 1.96911e-06
274 95 0.0386263
9 95 2.02734e-05
2051 1436 0.000601528
2108 9915 8.27227e-06
1371 34 3.50087e-06
22752 95 0.142982
355 4015 0.0264268
2015 17698 0.00115302
68 8526 0.00263663
180 1484 5.80808e-07
1646 1484 4.76115e-05
995 1095 0.00194255
626 1164 1.41232e-07
398 1775 1.47911e-05
2195 9 0.000219398
6896 650 0.0029239
22540 17556 0.00105826
791 189 7.24705e-07
482 3891 2.56626e-07
5793 2071 1.01111e-06
3050 2071 3.97346e-06
44 1997 4.5196e-07
212 1339 6.97936e-07
1960 16210 0.0169155
327 7141 3.54857e-06
378 3452 2.10995e-07
8787 1620 0.00359137
298 1620 7.0086e-05
235 11244 7.96293e-05
1359 1095 7.29644e-06
22447 1260 0.00763971
267 14 1.71822e-07
516 9451 4.5718e-06
5377 1404 0.000652533
10274 7636 0.00251967
665 1314 2.85664e-06
676 154 5.168e-07
22326 1827 0.02554
10409 6491 3.8364e-06
22289 1287 0.046581
901 202 0.000247365
237 202 1.18128e-06
22282 12896 0.00398177
667 1956 6.41094e-05
235 10157 1.12381e-06
815 2309 2.44878e-06
544 365 0.00111654
1134 65 1.1036e-07
1795 2052 4.95381e-07
16846 18 1.1191e-05
18693 60 7.21936e-07
1129 2384 7.03506e-05
15060 1744 2.62795e-05
1017 16590 0.000363882
221 16590 9.18572e-05
17231 1095 0.000104706
1904 363 2.77956e-05
5582 1559 0.000269377
1741 5341 2.73972e-07
2347 127 5.37868e-06
18424 65 0.00729655
1332 826 8.41117e-05
3267 7863 0.0370031
51 1095 8.45026e-07
797 740 0.000126576
9232 22 0.000514053
2596 1092 4.74332e-05
14556 249 0.000352621
21882 189 0.13387
21760 51 2.40325e-06
21799 1287 0.00109992
6959 54 2.58107e-05
1499 3924 0.00802731
3623 3924 8.51895e-06
736 16352 0.242269
90 20 1.49692e-06
21765 3807 0.100007
4063 3669 3.53397e-07
1359 9 5.7152e-06
9128 9 2.66697e-05
6545 7222 1.29903e-07
6873 206 0.000161224
37 899 1.78601e-06
116 901 3.37124e-06
3798 7841 0.00189879
12646 581 5.77215e-07
20568 834 4.58087e-06
964 948 2.2206e-06
7797 948 0.000174979
57 948 1.46415e-05
2400 948 0.000832349
487 16450 0.000239978
16808 2 0.00012961
950 1060 1.10309e-07
7862 27 1.08627e-06
12328 1465 7.30013e-07
116 150 2.16547e-07
1305 6738 2.54714e-07
21535 6738 1.4538e-05
1646 139 8.4735e-06
2989 117 7.92393e-07
432 1980 8.38168e-07
432 650 1.6378e-07
5975 615 5.15266e-05
10956 1306 0.00112639
48 401 3.12876e-07
21495 551 0.00990029
3393 754 2.8797e-06
21483 16357 0.0227112
6545 11784 2.71892e-06
10250 139 0.00101617
20938 1074 9.95097e-05
2192 83 5.83321e-05
1391 51 0.00020437
101 51 1.42308e-07
6089 1060 4.14192e-05
89 6206 6.18675e-07
8737 10317 3.74699e-06
3468 4688 0.000277304
2664 1088 5.3839e-07
1185 70 1.09607e-07
56 68 1.77687e-06
239 3625 6.18587e-05
763 3625 0.00680384
8923 373 0.00104341
1144 4006 1.02824e-06
2973 602 5.31483e-07
21344 1979 0.00806565
14958 13776 1.20408e-05
956 1679 8.81657e-07
15017 9 0.000988661
3459 45 2.78019e-05
11383 189 3.56729e-05
1741 345 1.95822e-05
14092 14504 7.45947e-06
10789 587 2.08238e-05
1261 483 7.57091e-06
21 16102 1.4171e-07
3021 3319 6.07139e-07
5154 656 0.000855623
2340 93 1.76168e-05
4010 14 4.45504e-05
19648 1711 0.02906
21213 6977 0.000101955
13759 39 3.86329e-06
760 39 1.08367e-06
2411 45 0.000268496
13799 16013 0.0497902
1748 139 2.89576e-05
1592 1601 2.86738e-07
249 90 2.99762e-07
21163 208 3.18908e-06
17532 3520 0.00401047
6301 1545 7.9525e-07
629 1545 1.13211e-06
468 661 9.87748e-05
21116 43 2.50693e-05
5699 3597 1.34393e-06
9214 4472 2.01821e-07
369 1262 2.45478e-06
21110 21 0.00221262
2017 375 0.0190208
944 1455 1.3949e-05
1664 711 1.46419e-07
16095 51 1.51956e-05
21074 51 0.119424
245 2889 1.7983e-06
17462 2889 0.000518451
1796 2889 9.72405e-06
3260 2063 2.47979e-06
3649 2889 1.76137e-05
9841 2889 4.08321e-05
15015 15205 3.48944e-06
21057 5045 3.07079e-06
7220 60 6.00667e-05
1952 1053 8.48032e-07
7777 206 5.38024e-05
20936 9667 3.30173e-06
509 15809 5.6953e-06
268 10380 2.935e-07
6911 15020 2.50553e-06
1183 7818 1.5591e-06
3336 1415 0.00638752
21007 353 0.000132082
1101 5957 2.48781e-07
19412 15766 0.0027784
3320 1081 2.00278e-07
763 15 1.75908e-05
242 4139 0.00264098
1175 1265 2.02313e-06
1326 393 2.91655e-05
2341 1137 8.40484e-07
327 486 4.19174e-07
11123 624 0.000516284
4614 15662 8.23692e-07
19042 517 0.000473957
14585 801 7.98424e-07
11225 5567 0.000331782
693 246 3.57541e-07
693 822 1.53362e-05
19383 1041 0.111206
20796 740 0.0012676
13506 80 5.45657e-06
1158 761 3.19494e-05
264 761 9.87564e-06
516 3406 2.23302e-07
406 7762 7.40285e-07
1533 15451 0.000224379
18512 740 0.124758
4674 51 7.6162e-07
7209 51 3.13028e-06
2251 70 3.81345e-05
51 490 1.97427e-07
20670 54 9.84315e-05
3973 2668 7.14742e-05
14266 19 0.00868886
803 19 2.79234e-07
20560 19 0.00016019
20 2817 9.65832e-06
2989 1694 3.44371e-06
1305 4000 3.23233e-06
1461 1142 0.000413234
20630 27 0.000187648
4506 27 6.82169e-05
7566 123 0.000348173
2160 123 5.31898e-05
12966 6657 0.110539
2724 2291 1.35461e-06
11884 15321 7.1125e-06
4050 611 0.00115901
16585 1093 0.00278334
20602 39 0.000137849
3629 6631 1.27229e-07
944 13609 5.37458e-07
14083 581 6.02826e-07
0 4417 1.26152e-05
214 1081 9.00549e-06
1809 83 6.19435e-07
126 14 2.4848e-06
977 405 0.0554848
63 405 2.72926e-07
3960 752 0.000202446
482 1314 1.75592e-06
0 1314 3.5937e-06
1182 189 2.52857e-06
13122 1953 0.0381974
3388 51 2.8048e-05
502 43 1.32095e-05
1305 43 1.39552e-06
2310 45 4.83832e-06
316 1060 2.54177e-06
145 1058 8.39626e-07
1423 740 1.19977e-05
3441 740 4.19601e-05
823 2354 1.3407e-05
189 80 4.59543e-07
804 115 2.24315e-07
9611 15085 7.28807e-06
20453 901 3.9259e-05
20450 3316 0.0052228
68 3316 0.00247162
239 3316 1.40569e-06
20449 3316 0.00444953
617 51 1.94377e-06
14344 1926 0.000981793
15958 39 4.60444e-05
9974 740 0.000130913
4143 6779 0.000145514
40 334 2.93525e-07
9501 10086 0.000109086
19913 2 0.000281554
4402 230 0.00024426
0 15006 1.2659e-07
63 2120 9.73969e-07
741 2820 1.07916e-07
20363 14958 9.23662e-05
3390 117 4.37862e-07
7722 14591 0.000144051
309 961 1.11409e-06
20257 2669 0.110961
7995 740 1.2198e-06
3534 150 7.27376e-07
931 14750 4.26533e-05
12919 14749 4.3436e-07
7862 504 1.54538e-06
20212 4435 0.000479291
17068 128 0.000726405
823 27 1.00162e-06
2627 140 0.00011139
16296 140 1.37021e-05
20147 34 1.61423e-05
13663 83 6.77938e-06
267 14429 4.2814e-07
2245 507 7.52696e-07
15241 26 1.31315e-05
10040 20 6.26376e-06
18693 93 1.78089e-07
1127 986 5.54711e-07
3573 5598 1.1955e-06
10089 1827 0.0911768
763 577 5.6793e-07
349 11628 6.0382e-07
862 14478 1.565e-07
2910 45 8.67325e-07
6954 1164 1.34468e-05
29 1164 5.01815e-06
802 1164 0.00511007
2239 1041 2.56457e-07
5564 373 0.123433
642 14397 2.07676e-06
16097 1676 1.33433e-05
663 83 4.12728e-06
20009 4157 0.000253036
511 4458 3.44727e-07
79 13072 1.94595e-06
2152 1349 6.62696e-07
593 10624 3.19208e-06
9689 14075 4.74372e-06
3470 11252 1.45118e-06
16090 189 0.00332001
145 12398 1.82324e-07
19306 22 5.21084e-07
1977 551 3.69635e-07
12500 14224 0.00132912
1850 593 6.32442e-06
944 298 5.88424e-07
19867 593 0.030798
1224 287 2.17859e-07
11695 892 0.000249602
19800 2668 0.000653718
16200 2668 0.121469
2793 45 4.79144e-06
19786 51 0.000246768
5036 591 1.87787e-06
2440 2034 2.36449e-05
286 1404 3.43381e-07
270 14111 1.12717e-07
9853 17 3.74406e-06
19767 1287 0.00484775
19758 453 0.246303
2919 185 3.61544e-07
3260 185 2.92689e-06
19721 624 0.00611963
4436 60 0.000517342
617 14040 1.80515e-07
19646 7143 0.00174297
7260 51 3.55229e-06
11978 51 2.11031e-05
12894 3857 1.4515e-05
19663 7123 0.00104801
1535 7123 0.0382081
16141 801 3.46627e-05
0 10380 4.29325e-07
4490 1041 2.66349e-06
1942 1980 1.10114e-07
17380 740 0.00902248
2802 3942 1.20225e-05
19573 4516 0.111003
19604 127 9.4899e-05
1471 529 0.000319346
4637 529 8.29826e-05
1776 529 0.000496768
4856 41 0.000242872
747 28 5.80066e-05
15568 595 2.90261e-05
12894 9299 2.06353e-06
14092 1891 0.0013783
9730 602 2.20391e-06
11939 241 0.000117562
7347 278 5.83849e-06
19471 32 4.35629e-05
2142 27 4.69125e-06
2769 27 6.21138e-05
16104 316 1.62917e-06
804 2664 4.36113e-07
2971 7950 3.23175e-06
171 13821 1.74831e-06
13063 1081 8.36187e-06
19467 661 0.12465
2023 37 8.62091e-06
2248 629 3.02e-07
5629 239 5.82991e-05
1424 13774 4.70921e-07
15525 4435 6.09797e-05
44 495 4.80025e-07
16846 1540 0.000206559
15 393 3.76452e-07
1946 13687 9.84196e-07
4053 9112 6.08708e-06
4053 740 3.00481e-05
4860 21 4.29919e-06
804 892 2.00883e-07
572 127 1.01836e-07
7945 494 7.50537e-05
7113 68 0.00128039
5011 927 0.000263164
2234 20 3.3066e-07
4100 740 0.000281844
4943 2933 1.41987e-07
19312 3597 0.00503533
785 10721 2.23489e-07
10939 1098 1.12523e-05
2951 853 0.00554862
15898 752 0.000561047
2989 13069 4.65226e-07
593 2685 1.43919e-05
628 667 0.000108707
19229 16 0.000951792
189 41 1.69135e-07
127 759 3.23994e-05
6491 156 7.47306e-05
12384 2866 3.92208e-07
18 378 1.17032e-06
4223 1930 0.000658174
3591 661 1.02681e-06
464 1068 0.00809227
196 54 1.50534e-07
710 9483 1.62787e-07
3360 189 4.43934e-07
12617 19 1.09134e-05
304 2439 3.61402e-07
3340 1166 2.28944e-06
2420 3189 4.56803e-05
201 54 3.18998e-06
12375 759 4.26561e-07
13957 1084 2.86045e-07
10742 503 0.00846647
12425 9782 2.37763e-05
234 241 4.52932e-06
652 4435 0.0183179
8849 4435 1.67545e-05
546 3942 1.62791e-07
11710 702 4.51981e-05
1539 12802 1.65134e-06
1281 1180 3.3818e-06
13509 1832 7.65732e-07
1476 9845 0.00309677
1304 1575 6.54586e-06
234 9138 0.000209551
5682 9138 9.61048e-07
77 3558 1.17676e-06
2620 51 4.40131e-07
2657 5907 8.68184e-07
10023 6883 0.000115443
10143 12902 4.91124e-06
2695 51 0.00017
40 8896 2.45154e-07
4036 5557 2.15367e-06
675 754 1.55862e-07
675 39 2.04648e-06
247 39 4.43106e-06
547 2942 1.16742e-07
2418 608 0.000113097
198 20 1.56234e-07
4089 6755 4.23407e-06
285 6755 2.3409e-07
4614 1794 4.45423e-06
950 128 7.9911e-05
254 661 5.62283e-07
3390 892 5.20614e-06
656 278 3.60111e-07
27 593 1.74684e-07
90 4663 8.96884e-07
14190 65 0.00282059
1211 241 4.70813e-06
3460 892 1.99692e-05
8535 2914 0.00177537
1012 9861 1.1084e-06
1174 1205 2.79523e-07
2012 16 0.000710252
11803 28 1.99684e-06
15648 927 0.497407
7361 661 1.44516e-06
18127 1463 6.29915e-05
1348 1463 3.42791e-06
14682 661 0.261142
885 9150 1.70121e-06
18093 1217 0.332691
18092 12905 4.32438e-05
2986 83 1.31415e-05
1193 12902 1.44495e-07
7862 593 2.24488e-07
1545 472 4.50698e-05
3497 1158 1.18542e-05
2415 95 5.21231e-05
3730 3597 3.33e-05
3730 628 0.000288777
14072 1076 8.90521e-05
560 4417 2.74889e-06
1900 12797 0.00980929
17906 4519 0.0251748
840 2735 2.55121e-06
879 2735 9.23362e-07
18 20 6.69496e-06
1570 20 2.41504e-07
5177 1197 2.31586e-05
6795 127 0.000148651
221 4594 2.2377e-06
2204 21 6.02631e-05
1944 1759 8.11018e-07
4408 20 7.44538e-05
964 1041 1.53534e-05
12250 2952 0.000274147
882 9064 0.00166183
15629 611 4.61235e-05
5324 393 0.000177082
2135 7220 6.06298e-05
12593 7220 0.000116523
5229 503 5.46098e-07
988 650 2.38302e-06
950 650 4.98453e-07
159 650 0.00165089
3777 650 4.22393e-06
479 10171 1.39617e-06
8044 10171 3.92208e-06
197 54 1.40009e-07
1305 9402 2.70893e-06
9434 68 1.08544e-05
17613 6054 0.00219838
265 8821 5.63451e-06
12344 740 3.58872e-06
1185 1260 1.60557e-07
15027 51 4.37467e-05
13204 39 1.2424e-05
247 1827 1.62637e-07
5699 1171 1.48429e-07
1741 68 1.19641e-07
345 189 1.85869e-07
4321 4663 1.07971e-07
125 7576 8.69788e-07
2670 2170 2.63044e-06
1076 743 1.39293e-05
670 518 1.54455e-06
16500 15 0.00111641
1633 353 3.5341e-05
466 909 3.23039e-06
71 265 5.56777e-06
12457 2116 1.76497e-05
560 115 4.7102e-06
1335 12398 7.60209e-06
44 139 6.97806e-06
17314 919 0.000255254
9489 2713 0.000752732
1305 12357 2.10959e-06
8752 401 4.81659e-06
1668 123 0.000581305
728 3895 2.00099e-06
11347 156 7.19572e-06
9313 208 0.00311489
12701 8359 3.54991e-07
41 364 2.22843e-07
1603 901 7.57149e-05
5667 127 4.30644e-07
17193 1041 0.00459533
691 494 1.39504e-07
0 9702 4.68221e-06
2276 51 0.000564894
1037 27 1.0722e-05
11963 189 2.32902e-07
1589 8896 4.85459e-06
6935 15 0.00372699
15126 353 0.332599
1252 7939 0.000262677
1170 133 8.02413e-07
9 65 1.10226e-05
17042 3392 0.083179
90 1084 1.23516e-07
795 41 9.14819e-07
52 2709 2.64267e-07
162 1115 4.98103e-07
16565 21 0.0023092
8044 901 0.00585997
1570 133 7.60186e-07
15416 661 1.67187e-05
15416 581 2.43146e-06
162 3534 8.95019e-07
911 637 8.74903e-06
11 65 1.94989e-06
16923 1604 0.161774
1021 3597 3.36766e-05
28 4139 2.34683e-07
116 1150 1.22549e-07
2615 1063 4.49156e-05
6894 1063 0.0579718
2639 661 1.72559e-05
202 230 2.29524e-07
378 10030 3.03779e-07
158 10030 3.2705e-07
16502 752 1.93671e-05
16818 150 0.000996631
5121 83 0.000131692
13726 2810 0.00879854
13435 9686 0.000117858
15484 1967 0.00463832
1952 68 1.22825e-07
0 8392 1.60945e-07
22 154 2.15924e-07
3619 2702 0.000454534
2523 8236 1.06201e-06
63 241 0.000519285
45 665 3.94244e-07
120 665 0.00505439
2670 665 0.00023647
1287 1166 3.42164e-05
207 1166 7.2329e-06
15874 21 4.86742e-05
6470 305 4.67282e-05
570 37 0.000580218
7424 587 0.00914499
12701 127 2.91964e-05
5526 14 1.53172e-05
20 1994 4.9302e-07
13696 624 0.000495374
286 8805 3.54474e-07
12918 45 2.40544e-05
665 8638 3.18468e-07
29 8638 3.33973e-06
1215 1197 0.00020417
4381 41 3.33898e-07
2896 41 3.03138e-06
16355 1041 0.00179973
9653 752 4.96241e-06
16325 93 3.78719e-06
10479 21 0.000260092
10183 11623 1.64269e-05
10183 1345 0.00279489
1425 2430 2.69938e-07
16253 4663 0.00524482
1424 4663 5.28602e-07
0 4663 7.93532e-07
65 11499 1.98176e-05
3266 2132 2.32486e-07
234 3593 0.000706088
155 1147 4.92391e-06
9687 4170 0.00110331
15945 51 2.34977e-05
1100 27 1.13492e-06
1055 995 4.39898e-06
98 3828 5.11275e-07
11330 68 0.000570117
4436 661 4.50268e-05
90 646 1.62042e-07
136 3593 0.00190457
396 1299 1.15554e-07
1179 2 2.75065e-06
2135 570 1.03351e-05
99 504 3.92838e-07
15752 4000 0.0112487
1067 1613 0.0923856
1089 133 7.55768e-06
13929 1722 0.0125744
778 11152 9.9482e-07
1293 123 8.84736e-05
7119 30 0.00019928
35 11082 1.83297e-07
1837 2139 5.36347e-07
191 3186 2.12355e-07
208 343 1.84242e-07
1562 1016 1.17259e-06
82 1041 1.08686e-05
165 5104 1.67579e-06
2919 529 3.65706e-06
3366 150 4.65271e-07
345 499 7.97482e-07
10183 11015 5.32513e-05
0 8638 4.30546e-07
45 90 6.04423e-07
3142 286 1.88212e-07
844 6803 2.79105e-06
9732 2 0.000314488
9732 54 0.027029
12961 2618 0.0557682
1587 4435 0.00410715
3412 1209 1.27864e-06
15450 680 0.000109007
5692 5978 4.79792e-06
1524 22 3.70837e-07
4515 390 1.69991e-05
15312 661 0.000404024
3667 10862 0.000281594
106 1217 3.06501e-07
432 8673 1.10321e-06
3525 21 3.5127e-05
2629 938 0.0117312
466 938 2.51121e-07
55 378 8.73344e-07
549 8673 7.79693e-07
6926 9845 4.43732e-05
1184 140 5.3599e-07
12894 1060 6.99119e-07
664 1848 5.75836e-06
15094 1848 0.189627
15094 7242 0.0405443
632 64 7.78399e-05
537 3381 1.31241e-05
37 80 1.64947e-07
266 11 9.68915e-07
7784 1283 0.00289703
15023 1283 0.160062
13936 9845 2.66078e-06
613 401 4.70975e-07
7497 1961 1.89875e-06
14571 1335 0.138933
7860 48 9.03798e-05
11 467 3.57222e-07
1261 467 1.03517e-06
14857 892 6.02307e-05
547 1967 8.11774e-07
193 531 6.48503e-07
14760 1078 0.00924443
68 51 9.49309e-07
2142 14 1.18416e-06
14729 55 0.00128737
5464 66 0.00284552
753 603 1.24784e-06
14713 1081 0.00198806
12644 577 3.46945e-07
1183 587 6.96262e-06
111 593 4.23281e-07
1198 296 1.37904e-06
7269 224 2.66354e-06
655 494 0.000407531
844 1217 9.86886e-07
3015 602 8.36946e-05
14471 53 3.81377e-05
65 10313 4.5195e-07
368 1138 5.98052e-07
181 2780 2.48635e-06
628 6616 5.96427e-06
3413 140 0.00589131
309 10122 7.11865e-07
14161 1024 0.332681
13136 45 2.91245e-05
3631 22 1.83224e-06
2302 4129 3.29916e-06
4321 393 1.55306e-07
6464 14 0.00862272
602 1060 0.000353554
6918 206 0.000381316
98 2679 3.15787e-07
9434 8340 0.0415948
862 9945 3.60583e-07
124 9933 1.21781e-06
0 2033 1.49665e-07
41 1146 1.68086e-05
956 220 1.12544e-06
2163 51 5.68256e-07
1187 9863 1.70114e-07
5526 9863 0.0374443
2074 6798 3.7226e-07
345 6798 0.000198604
189 6798 0.00257651
478 41 2.1594e-07
0 9138 1.23991e-05
0 2684 1.67114e-07
1693 9769 1.57395e-06
1143 591 1.17029e-06
13716 37 0.00109036
42 1002 2.27079e-05
2298 471 4.98567e-07
1225 1077 5.8105e-05
207 504 1.11565e-06
1193 629 7.38641e-07
509 1081 1.9691e-06
8434 3820 1.59387e-05
194 3081 4.65244e-07
2489 154 7.0722e-07
13270 19 0.00108995
111 19 3.48033e-06
207 19 6.65658e-06
1302 1967 7.91469e-06
5502 66 4.38147e-05
2436 45 9.63132e-06
5963 581 5.70862e-07
8548 265 5.36756e-05
90 6704 0.000188381
477 1159 3.53688e-06
45 1217 5.77396e-07
4039 3997 3.85954e-07
286 264 7.58637e-06
0 472 4.9043e-07
4275 541 0.000248773
12353 4129 4.057e-07
3782 443 1.03047e-05
10384 8678 0.111517
5552 1858 0.000275633
7256 313 3.75721e-06
2792 8949 5.80603e-05
2023 1030 1.47606e-06
2023 133 6.82861e-07
1495 3447 1.33225e-06
8044 353 2.17469e-07
468 973 8.39276e-06
1300 973 0.000109703
741 1081 1.42171e-07
2 1081 3.07677e-07
4976 125 2.76062e-05
10804 125 8.55632e-07
9577 2483 0.240667
11458 8799 0.0017499
12433 8731 4.71925e-07
12408 5953 0.00222554
12350 5079 2.85294e-05
3 51 1.34113e-07
2027 14 2.06232e-06
507 722 2.88546e-07
1637 27 1.83222e-06
795 1835 4.34885e-07
4210 486 8.41534e-05
308 75 1.62974e-06
7869 4394 0.000382433
371 4616 4.68615e-07
1805 4141 5.9006e-05
785 34 7.82246e-07
3110 11 0.0011148
4065 470 2.01177e-05
5905 4395 5.72162e-06
3765 2354 0.000891806
528 287 3.56234e-06
862 153 4.54708e-07
10454 3010 0.00267869
41 5618 3.48459e-07
0 5618 2.23077e-07
2654 2163 0.00249245
11316 2816 0.000366978
663 1077 5.94379e-07
1106 1077 5.32649e-07
5693 6547 2.25914e-05
4316 1512 2.55027e-07
5667 7970 2.76769e-07
1035 68 1.74246e-07
3559 1586 2.04482e-07
10878 534 0.00900395
40 71 9.94143e-06
6020 8324 2.84792e-05
6020 71 0.000669219
9 61 3.31812e-07
56 27 5.07431e-07
0 5464 1.2229e-06
511 51 3.39169e-06
5943 41 2.62649e-05
11690 133 0.0196672
1359 8156 6.27424e-07
8495 903 0.00267598
222 95 0.00167331
1177 2776 1.38806e-07
1570 115 1.0924e-07
2347 83 8.78871e-07
1160 34 2.0698e-06
3881 220 1.8409e-05
11429 195 0.0107432
11393 11 0.000295399
62 1886 1.46251e-06
1122 27 5.87057e-07
287 535 0.000233405
626 1388 3.02773e-06
2603 1388 2.75651e-06
9348 4453 2.29894e-05
2431 702 1.79654e-05
3577 210 0.0139053
511 2851 5.43743e-05
786 3781 0.011736
11167 127 0.00037134
628 199 0.000234204
311 380 4.8011e-05
5341 466 0.000732952
396 2838 3.42579e-06
5178 1937 1.13662e-05
2880 7688 6.92708e-06
345 53 2.00208e-07
1837 1312 2.38159e-06
3239 3007 0.000210327
3412 53 5.28434e-07
41 1865 2.17348e-05
950 1865 5.29755e-05
4298 48 2.57934e-06
62 990 1.70688e-06
2570 504 1.48091e-05
106 7381 2.58859e-07
2214 7381 9.78767e-05
1159 1345 1.43473e-06
27 2120 1.50611e-07
937 581 1.36822e-07
60 1373 1.03273e-05
10657 15 0.000132026
2250 917 5.14195e-07
10608 156 0.00289516
2010 486 1.33517e-06
2893 703 0.071291
472 4435 0.000334035
1170 703 1.40974e-07
30 2439 0.000887867
2556 1711 2.31931e-07
763 5277 3.544e-07
19 7414 5.10096e-07
1261 1335 2.25019e-07
1942 6167 9.36043e-07
1332 83 1.01876e-06
10037 3597 0.00134831
216 3597 5.14775e-05
20 11 7.39074e-07
530 208 0.000627002
6954 210 1.09584e-06
249 607 3.43219e-07
49 18 8.62894e-05
126 123 1.39063e-07
10366 55 0.0366063
1341 128 0.000190684
40 128 7.90549e-07
98 128 3.25471e-07
125 128 3.71262e-07
161 128 1.10356e-05
1140 238 0.000172818
2277 1425 1.9021e-07
216 424 4.77455e-07
6074 34 5.03013e-07
7130 6482 7.74202e-06
11 331 3.61458e-07
529 157 1.26048e-06
10105 32 1.53865e-06
467 3909 1.44713e-05
10049 364 0.010479
8982 364 0.0394261
4269 364 4.93454e-05
2010 27 6.15052e-07
4161 720 0.000445892
3620 1844 2.57411e-06
1019 7018 4.06865e-07
5489 1007 5.78294e-07
8434 2851 2.18684e-05
335 246 0.00214957
99 246 2.58071e-06
1570 338 4.26982e-07
90 337 1.52556e-07
509 32 1.75398e-07
27 587 1.04371e-07
9613 1827 6.21694e-07
6286 11 0.000291208
4791 5903 0.00238682
830 241 7.49698e-07
1641 664 1.16843e-05
6561 6686 5.2945e-05
6714 30 2.5295e-07
9450 6684 0.001465
21 6673 2.09191e-07
52 6649 4.87916e-07
797 53 2.64865e-05
5650 2034 0.000609548
481 6576 2.25136e-06
1596 529 1.46344e-05
194 261 5.50289e-07
243 90 6.27525e-07
9196 16 0.0646018
2046 16 6.16603e-07
402 627 4.80749e-07
591 1384 3.97992e-06
9143 208 3.03825e-05
126 27 3.71708e-05
7298 1089 6.03938e-06
402 1089 0.000133084
1432 1089 0.00217453
72 1089 1.81463e-06
791 1089 2.69377e-05
435 509 2.01817e-07
395 3992 1.06481e-07
2 1095 1.37547e-06
335 1811 5.54137e-07
9003 6390 0.0153528
8919 66 0.000530241
3879 611 4.46804e-06
3438 1920 0.000801459
101 2270 1.54342e-05
686 2270 2.10919e-05
8863 532 2.02994e-05
795 251 1.91802e-07
44 1411 2.23823e-07
959 6186 2.02018e-05
3571 34 1.72329e-05
2194 1584 0.00171416
5404 80 9.5088e-05
6279 6162 0.000126352
5098 2163 0.00609254
2635 2921 2.94932e-05
6279 3595 0.000655862
753 390 7.46594e-06
110 150 1.24056e-07
970 51 3.57314e-07
606 404 1.26987e-07
1603 752 2.34921e-05
2145 1065 3.0383e-07
5883 133 0.00988534
1055 1329 3.13676e-06
571 3232 1.56094e-07
89 5223 1.28329e-07
4491 2275 2.48137e-06
1407 68 9.97343e-05
37 140 1.30273e-06
116 1669 1.43137e-07
8435 146 0.0049033
1473 313 2.85679e-05
1183 41 1.76208e-07
4418 83 1.05883e-05
4203 93 2.23556e-07
1246 339 1.74379e-06
8104 2550 0.124507
8102 5771 0.199328
8088 66 0.00553628
590 41 0.00285748
1790 5715 0.00011718
239 5703 4.2349e-07
4184 2429 4.44991e-06
101 342 1.02056e-07
655 206 7.32995e-07
1350 1681 1.07802e-06
1667 115 4.83496e-05
921 115 0.000976709
6034 581 2.25088e-07
3261 189 4.86656e-05
1524 4326 1.10235e-06
1307 19 3.30431e-07
1451 27 0.000117916
1434 2291 7.32298e-07
4053 150 3.8283e-05
43 535 4.8146e-07
285 362 5.72273e-07
1522 1540 1.71357e-06
384 5430 4.3627e-06
3695 1978 0.000465929
1396 971 2.93049e-07
1551 504 3.01804e-05
305 206 0.0217122
221 206 7.29398e-07
55 21 2.46872e-07
1377 191 6.22817e-06
50 525 1.57157e-06
257 2 1.49809e-05
914 222 2.00159e-06
1100 3461 4.89288e-07
675 901 1.27272e-07
3856 1339 0.142596
2641 210 1.34439e-06
844 1420 5.62876e-07
365 591 2.98582e-06
191 570 1.15774e-07
4674 54 8.88177e-06
2075 83 6.68403e-07
0 826 1.22361e-05
2096 54 1.07816e-05
245 222 2.13207e-07
1159 503 6.11057e-07
2325 1041 0.000158801
6965 5034 0.106456
1139 185 1.36298e-07
6740 261 2.37018e-06
6602 2277 0.330237
1198 210 7.8775e-07
1434 3477 9.7455e-07
29 3477 2.10839e-06
29 754 3.07584e-05
0 754 4.01268e-07
20 133 5.14492e-05
6323 71 0.000879693
6314 71 0.0129016
5425 634 0.173357
6279 634 7.03512e-05
3190 2831 3.78559e-05
1150 4517 1.22244e-05
6142 3323 5.51893e-05
6120 4483 0.000642717
1371 2852 5.37278e-07
1027 2852 5.98477e-06
191 3781 0.00036449
77 47 4.11367e-05
1392 47 3.03487e-05
23 597 2.08116e-06
158 156 3.01448e-06
2 157 1.85031e-06
213 123 1.9359e-07
2214 4144 5.11095e-06
202 455 3.97448e-07
5490 503 1.48533e-06
0 1886 5.66716e-07
5379 279 0.0108977
1841 4027 1.09966e-06
98 759 1.90068e-06
699 122 4.81332e-07
1940 15 6.79366e-07
283 127 3.22296e-07
1139 1035 4.20882e-07
430 1512 2.86093e-05
5060 1476 3.37018e-06
2160 1476 4.71426e-07
4766 220 0.000261354
723 220 4.42351e-06
4686 390 0.0392986
1060 11 9.17393e-05
4522 2929 1.31221e-05
4429 882 2.6012e-06
3080 3382 0.000260426
0 3382 1.10732e-05
0 3347 2.94774e-07
4180 3234 0.00910048
43 127 1.99155e-07
3943 3073 6.08337e-05
463 80 4.22158e-05
2373 71 2.27885e-07
332 22 3.19165e-06
3847 3044 0.000137615
3822 66 5.0554e-05
257 2914 3.15153e-06
2056 16 0.0608526
1977 1166 2.70631e-05
3450 68 4.47086e-06
1588 1338 4.30632e-06
55 22 2.08445e-07
3157 2609 3.1849e-05
3304 189 0.00366447
2247 32 1.67603e-06
120 2521 1.25935e-07
3100 2492 3.6353e-06
1510 1300 0.00195431
2812 2282 3.88952e-05
140 752 3.03827e-05
0 1164 2.99191e-07
2 353 1.34169e-06
880 730 5.30678e-07
88 71 2.12823e-06
2436 60 1.03592e-06
22 188 5.49506e-07
2349 128 0.00270116
2335 298 0.00191952
1447 858 1.78188e-07
253 428 3.23773e-07
193 1207 3.06742e-06
23 1264 2.71492e-07
2256 1872 2.69565e-07
2190 34 6.73876e-06
116 34 2.63188e-07
2172 1817 4.30472e-06
1695 1796 4.16226e-07
447 66 2.31131e-05
0 901 1.68204e-06
1732 14 1.79624e-06
1106 752 1.44237e-06
77 393 5.29423e-07
1128 117 1.68122e-06
11 80 4.25517e-07
0 702 3.09076e-07
108 80 9.63384e-07
191 54 1.7935e-07
691 48 1.00094e-06
626 257 8.02126e-07
0 1093 6.0138e-06
1378 250 6.50232e-06
1225 1190 1.3743e-05
1283 73 1.51344e-07
1204 34 1.76367e-06
495 1086 2.00534e-07
232 532 1.55054e-07
2 95 1.60526e-07
11 75 9.30234e-07
155 466 2.94443e-07
396 219 7.89471e-06
0 219 2.5993e-07
126 116 1.56438e-07
53 51 1.49363e-05
528 185 1.19733e-06
8637 1420 4.18078e-06
3862 470 0.0133852
24444 55 0.000939357
7727 195 0.0319714
225 195 2.07865e-05
194 4690 0.000596473
444 6920 0.0691542
2552 5596 0.0128716
5866 4343 0.0897539
81 19553 1.49572e-06
1262 19553 0.0147811
24799 6331 0.124748
24796 16777 1.43884e-05
3366 587 6.7661e-05
3366 4525 0.0242665
1148 37 1.33916e-05
667 766 1.19459e-07
13499 766 4.13982e-06
9473 766 0.0394668
100 2754 0.00660031
1998 4376 0.0362158
1544 1436 7.03538e-05
1245 4172 0.0621601
9391 1490 0.0588792
3111 587 4.47516e-05
396 11 5.48501e-06
14972 210 0.00124951
3052 503 2.06711e-06
316 47 0.000120577
910 1233 0.0222312
9259 1233 6.323e-07
384 593 0.000134705
384 890 0.00297351
1413 17390 0.0499033
1413 587 8.12523e-07
481 19475 0.0170119
1396 19475 0.000147519
19723 16 2.48678e-06
2570 393 0.018813
380 19460 0.0525405
18196 95 0.49901
24701 30 0.120594
2228 15130 6.88272e-07
394 15130 0.0711617
7863 662 0.0314012
344 58 5.36217e-07
24659 532 0.498913
1698 19419 0.00881628
24653 5160 1.30951e-05
3388 5160 0.0305173
432 8007 0.000100192
68 661 3.5236e-07
5042 661 5.35728e-07
520 990 2.78164e-06
870 990 0.0424859
384 6415 0.022148
5060 6415 3.10114e-07
6206 4655 0.0400645
2426 2397 0.0833107
3659 1300 0.0834022
1745 890 0.00562501
188 1932 0.00536395
24564 3324 0.124764
47 17333 1.49857e-05
1112 17333 0.0169037
303 1466 0.0130018
440 2605 1.87147e-07
368 337 0.000186449
1312 16 0.00800974
2353 1546 0.058847
511 1546 2.74002e-07
2757 1972 0.0683489
1128 220 0.000104446
255 139 1.49352e-06
4451 1245 0.0498518
151 1095 0.000802746
7627 2504 0.0830232
7116 730 0.141388
605 2712 0.026868
4469 898 0.00915564
5229 16 0.0131961
12 6236 0.0042067
4238 5170 0.0882319
4238 703 0.00300313
2603 703 3.84257e-05
7206 17921 0.0361934
3484 74 0.0587098
2212 32 4.01747e-05
1788 156 0.000412297
160 7819 0.000439972
1523 175 0.00181763
1752 587 0.0254482
14092 385 0.00151321
8234 241 0.0638714
478 7863 4.84968e-06
267 7863 0.000183421
652 19086 3.57673e-06
7 19086 1.28e-06
5908 12629 0.0771479
2509 2812 0.0624446
92 5948 4.25034e-05
4616 1478 5.58645e-05
1587 5160 0.00409065
10409 230 0.000113361
6276 1209 1.37798e-05
7862 15 4.83353e-06
1571 1074 4.09023e-06
1674 19154 0.0237732
110 55 0.00481985
7343 19144 0.091114
5393 9649 0.0831723
707 826 1.14977e-07
43 826 0.000300848
3705 627 0.000611751
613 627 0.00413916
6094 125 0.166575
6650 125 1.80449e-06
1003 9376 0.00430354
2723 455 8.92923e-06
43 455 2.23768e-05
2352 2059 4.34976e-05
8264 4612 0.000263646
24277 9 0.117001
5693 5148 0.0344428
707 353 8.03521e-07
1762 1521 0.00239745
652 525 0.022784
216 17708 0.00112515
1305 307 3.37881e-07
1304 307 0.0151788
16636 19 0.0495627
1439 1349 0.00793748
10072 216 0.00304734
24245 3030 0.199601
630 1209 1.28655e-06
478 55 0.000257654
3019 117 4.8637e-06
8223 11311 0.109857
267 443 9.96483e-06
4134 19034 3.76849e-05
2071 3264 0.0983393
21789 194 0.110864
1751 71 0.0809519
5872 363 2.685e-06
2428 157 1.62228e-05
17299 3448 0.0455722
216 5091 4.61561e-07
2979 18997 0.0214366
529 3968 2.5028e-07
1019 17319 2.34888e-06
20 2669 0.000118512
815 3331 0.000108568
1610 603 3.31817e-06
2185 467 3.59274e-05
141 1095 9.51399e-07
5837 600 3.117e-05
83 890 1.31612e-05
4473 41 0.00035188
47 18977 0.00788514
80 18977 3.55595e-05
217 18977 5.3662e-06
4173 15072 3.45257e-06
950 564 2.98627e-06
3281 564 0.00832612
2379 74 0.020036
950 6180 3.51802e-06
3214 18969 0.0475162
24122 851 0.19973
10429 6236 0.196785
8657 515 0.0203101
24106 515 1.54909e-05
12150 455 2.17116e-05
3406 298 1.80128e-06
1418 1338 7.49989e-05
1473 1338 0.0497497
2628 18944 0.0357165
8696 15000 0.0907319
24065 16783 0.19965
9111 541 0.0702361
2618 16 0.000672752
3486 448 1.71161e-06
1121 2704 0.0160847
4297 7141 0.00714029
3696 433 1.58521e-05
3913 17545 0.0714748
1302 16873 0.00420713
72 593 0.00794385
5668 1041 0.00179014
175 5948 0.0383867
4138 18880 0.033312
542 18879 0.00153232
4032 515 0.0813256
2616 18871 0.031189
6490 216 0.166054
3226 6992 0.0159737
606 6992 1.39753e-05
0 18866 3.52653e-06
4604 18842 0.035667
344 664 1.33544e-06
23941 455 0.00347206
345 892 6.45502e-07
1508 907 0.0106432
22581 455 0.111167
14204 5341 1.67134e-05
23925 14280 0.166345
165 2424 2.9054e-07
165 161 0.0196117
23916 10763 0.00481552
3050 1657 2.40496e-06
1677 9760 0.0709182
395 205 1.22751e-05
6710 205 0.0114214
1563 5308 1.72326e-07
10381 634 0.0767905
439 16785 1.60352e-06
1123 234 7.50594e-07
83 7381 7.07166e-05
2347 2609 0.000114864
47 54 1.78427e-06
10792 13305 0.0772199
4855 442 1.20401e-05
606 18764 0.00494151
6198 53 0.0451741
18917 1041 0.00019822
4910 37 5.8664e-06
4321 404 6.67599e-07
40 1095 0.000511776
189 1310 0.00291318
525 18700 0.00219447
3596 15151 2.42189e-05
217 18109 2.31952e-05
3156 41 5.41702e-06
11122 73 0.000141981
23 73 9.41722e-05
21826 73 0.0220069
4187 375 0.0276387
191 375 0.000119739
616 7123 5.42856e-07
43 2692 0.000643118
169 541 0.0399227
13447 1518 0.0872341
11796 18591 1.49411e-07
23677 18591 0.166342
464 467 3.00712e-05
71 467 3.09717e-05
55 467 8.87853e-05
4316 467 6.44258e-05
23509 189 0.0110806
9136 133 0.111577
686 12890 0.00448386
23649 219 0.247264
11420 1081 4.15155e-06
2489 16749 0.0287961
2489 385 0.0288684
477 1916 3.21375e-06
4530 2564 9.91068e-06
1190 2564 1.75979e-05
18758 1158 0.0377209
18758 140 0.037721
182 593 2.08918e-07
351 34 8.43653e-06
1003 6825 1.27482e-06
351 1823 7.44341e-05
30 37 9.03302e-07
1601 504 2.03703e-06
5593 9764 0.00401286
1703 5098 0.0623804
7868 466 0.000851469
6142 41 0.0326389
904 449 0.124264
1795 972 2.98259e-05
19914 378 0.110932
30 16853 0.000887834
11781 1164 0.0369668
365 58 0.00159894
4698 58 0.0501377
7429 518 2.63137e-06
1439 518 1.11202e-06
2617 518 0.00125819
23484 518 0.165419
12623 510 7.84538e-05
3446 5830 0.0385783
4625 837 0.00194905
368 763 0.00335422
1444 763 6.66118e-06
123 8939 0.00709034
8789 169 1.77162e-05
1999 3462 1.51329e-06
3224 2441 3.23774e-05
3141 796 0.000208211
3323 1916 0.000202537
4298 34 0.000306977
1776 80 1.45153e-05
20819 680 0.124761
591 17701 0.0232313
3211 6270 0.0335754
4481 222 0.0344164
1051 2132 0.0155319
8517 8358 0.332686
47 18281 0.000109033
1262 18281 0.0150151
4534 1150 0.166345
23373 18308 0.199612
699 15778 2.83572e-05
1586 1092 0.00106719
4824 1845 0.109135
5492 438 7.61468e-06
4353 4870 0.0483295
1656 572 0.0345484
2707 1095 0.0661425
9965 2187 0.249517
1185 175 4.63693e-07
3257 5745 0.00076387
23178 901 0.332689
2973 123 7.12011e-05
2420 7210 1.61676e-06
14186 21 1.42959e-05
825 17269 0.011362
3213 8239 0.00271336
116 5732 1.34667e-06
27 5732 6.39283e-06
425 5732 0.00127388
1130 1523 0.000881851
1283 5545 8.58766e-05
2996 5514 7.4299e-05
16419 1863 2.30736e-06
16419 4168 0.000456204
1519 4168 1.94489e-06
23140 4168 0.127492
1762 353 2.47089e-07
23135 192 0.199904
2987 46 0.0587041
37 1046 8.966e-05
12497 1046 0.000347
198 570 0.00241354
274 425 0.0479683
336 4242 1.14595e-05
55 3030 9.3074e-05
4258 3030 0.000135214
384 3000 0.0221495
221 353 3.31254e-07
336 766 2.98066e-06
8975 331 0.0170234
9340 10117 1.38989e-05
677 18081 2.77258e-06
216 18081 8.24376e-07
1175 5693 0.00079578
1175 834 0.000398686
2468 758 0.00599303
10017 364 0.0303622
577 364 7.21365e-07
3716 6545 0.0337815
4245 18033 0.0602105
1609 34 5.47854e-06
764 9596 0.0186087
3946 2911 4.62472e-05
2625 2911 0.024407
690 1299 0.0556305
1144 10636 5.20689e-07
804 10636 0.0019308
613 5159 2.93526e-06
1742 27 5.80114e-07
509 2851 5.94491e-06
88 1299 3.85662e-07
2250 1299 1.76075e-06
55 1299 7.67351e-05
3072 18006 0.00683881
2175 22 5.83355e-07
19555 15 0.0021072
2650 15357 9.65676e-05
1814 2483 0.0010911
2099 8762 0.0711719
1944 593 0.000275138
2251 531 3.15663e-06
392 13742 0.00025867
3483 890 0.11135
1185 1746 0.000965507
3696 890 0.0127196
77 890 0.000189585
1340 16 0.00146442
251 448 0.0187172
146 17943 5.70508e-05
245 16638 2.3892e-07
127 2137 0.00164994
5995 3337 0.0048177
2482 1844 0.0352758
5710 51 0.000752645
45 279 1.10792e-05
2749 279 3.79014e-05
1706 1436 0.0499
208 563 0.00208786
24 1259 0.00950447
65 17885 0.00235063
2767 12487 0.0253668
4031 653 0.0415248
3892 139 0.00807775
1323 17816 1.48257e-06
22788 278 0.000520953
2289 8239 3.60865e-05
22283 16 0.000220449
115 890 4.63405e-05
4258 17798 0.0285068
12154 106 0.499033
4564 17790 0.0833128
4029 350 0.186249
22733 157 0.180501
5236 804 0.110898
8879 3331 0.166991
3746 222 2.73746e-05
22411 222 8.89843e-05
4294 1126 6.94622e-05
9941 127 1.5699e-06
5656 370 0.033377
7900 17706 0.000452971
368 17696 9.06251e-06
2359 17696 0.0235865
3688 2891 0.00110191
3506 17273 1.4343e-06
1837 7004 8.16679e-05
19081 4200 0.248787
3582 189 2.3655e-06
13175 189 0.0608686
6946 66 0.0997063
116 5537 0.000146345
22595 47 0.166345
22595 455 0.166344
22582 4998 0.166546
515 1245 2.36201e-05
3620 602 0.00106385
987 650 0.0311305
22580 650 1.83185e-06
18634 52 0.0222172
5145 1164 0.0516321
4094 649 0.0561056
9353 16 0.166605
20016 16 1.19643e-06
156 1584 0.0383037
22523 5482 0.0519832
17522 95 0.0574312
435 13447 0.00453687
22296 16210 1.58705e-06
3283 15156 0.000272628
2698 1092 3.20261e-05
283 4332 0.0249311
546 302 0.00361653
265 17492 9.63493e-06
5515 30 2.85006e-05
133 16651 2.27975e-06
22417 1659 0.110896
1064 21 1.9265e-05
5955 102 0.000191995
11023 9 9.09761e-05
245 230 1.16948e-07
616 230 5.91281e-06
2987 1347 0.058704
665 10894 2.40768e-07
2020 393 0.00034657
40 3922 6.31144e-07
2063 455 4.34536e-06
2860 455 0.000948875
7555 455 0.00012076
22370 9 0.10931
3024 3332 0.0796776
13330 206 0.101123
911 188 0.00527744
804 188 5.96399e-05
1144 1764 0.00823732
549 17358 0.0011868
664 653 0.0159726
71 653 2.69486e-06
309 432 2.55046e-05
308 432 0.015887
22331 10414 0.199612
106 3297 0.000556628
6099 68 6.53987e-05
6099 17306 0.00313291
1187 51 9.3583e-06
7135 642 0.110912
11417 9921 0.0560646
22289 9 0.317084
43 5459 3.79565e-07
2608 5459 0.0436139
2608 65 0.0436688
22282 515 0.0253378
64 2131 0.0835522
37 754 2.53381e-06
344 754 1.85979e-06
5721 54 5.89394e-06
3377 256 0.0432088
3377 17225 0.000123103
22200 1747 0.332689
268 1196 1.07002e-05
2466 2021 0.0587099
3470 525 0.00211291
495 17171 3.05652e-06
2990 135 7.46338e-06
4464 17160 0.00115396
1179 15156 0.0105239
7209 1744 5.75302e-06
1522 624 4.57348e-06
10280 1744 0.0807742
210 611 0.000930657
368 892 5.43603e-05
862 406 0.00474506
4298 30 5.4682e-05
2362 946 0.00444829
6487 17107 2.88848e-06
16027 1478 0.00116917
950 4519 0.00144851
2430 4120 0.00289884
7739 11 5.90638e-06
515 1404 0.00269439
22124 665 0.199619
477 978 0.0313963
1187 1515 3.23563e-07
5489 2666 2.08691e-05
874 2666 0.00247425
1603 1986 0.0341132
2152 55 3.89215e-07
55 1032 9.33692e-05
22112 1041 0.141916
218 5545 0.000270955
145 5545 0.00876581
2337 17074 2.82965e-06
21780 17074 0.0238093
4129 181 0.0499025
2338 181 6.10048e-07
11499 1095 0.124759
2406 1346 0.0302444
22087 1095 1.80156e-05
291 8102 0.00254168
8174 5928 0.0907863
151 4170 0.000742369
1904 15905 0.000605918
973 157 7.86788e-07
611 12463 0.0251504
5582 1436 0.11082
8514 892 0.00101849
11982 22 0.0261803
8461 7182 0.00594316
8461 316 4.00431e-05
867 7182 3.50599e-07
7326 7182 0.107067
7326 316 0.109601
1881 6550 0.127327
542 16946 1.41955e-07
4108 16946 0.0429394
7986 8538 0.17342
21983 75 0.199613
1155 1767 0.000816971
2670 3505 0.00563812
3450 16928 0.0427181
4032 5953 0.000446345
33 642 0.000574214
9149 2578 0.143632
9022 1060 0.00445548
4138 8633 0.000246637
2589 8633 0.0207083
2975 1886 1.0012e-05
2975 3206 6.81012e-05
20019 3206 4.42982e-06
5532 287 0.0680527
2317 287 0.000112702
7746 34 1.13522e-05
3427 2059 0.0244867
21934 642 0.332524
11991 189 0.000103084
1382 615 0.0125353
665 2481 0.0019586
2749 18 0.000108371
224 1393 6.30065e-07
759 1060 1.04287e-05
3005 3891 0.0415655
21907 5175 0.199486
2234 5175 4.55508e-06
1610 148 3.05113e-05
1432 1413 0.0343332
2245 7748 1.02934e-05
21780 2945 3.71099e-05
1451 16825 0.0575594
464 16741 3.41366e-06
2562 9878 0.139548
198 208 0.000189775
198 57 2.35329e-05
1690 6475 3.42411e-06
1690 1827 4.59994e-05
337 133 0.000258731
515 1002 1.01603e-07
181 1002 0.00547423
710 16797 0.00479463
378 667 1.31943e-07
396 667 0.000134035
127 667 5.96229e-05
5955 667 0.00129116
2600 9 0.10889
21846 899 0.166345
4542 191 0.0064382
2568 466 0.000149202
2457 2113 2.75489e-05
7027 2113 0.199548
418 16746 0.0237638
1340 27 0.0176272
159 2331 8.37843e-06
7100 890 2.1502e-05
3619 10313 0.00562952
1900 1521 0.000251938
2552 7106 0.00416566
1940 15156 6.64514e-07
43 7449 5.53263e-06
71 16720 3.12251e-06
1940 3438 0.00276104
440 3301 5.05016e-05
2526 2616 1.16557e-05
707 16697 4.30253e-06
724 16697 0.0249633
224 16685 0.00520153
2114 5965 0.0367151
921 2113 1.23964e-05
714 892 0.0352025
21719 12517 2.18111e-07
30 4243 1.07914e-05
12812 2377 0.0133082
911 16651 1.80857e-06
7774 1081 3.17977e-07
1864 10334 0.0271094
1439 2341 0.000489006
33 2341 0.000547673
21718 6192 0.0490008
8779 615 0.0183628
5263 615 0.142287
9144 6039 0.0154068
21712 66 0.00427045
1170 240 0.00549795
619 5853 0.0262382
24 642 1.9718e-05
14689 216 0.14258
14525 206 1.23711e-05
509 899 0.000773192
5121 181 0.0383567
9480 449 4.01335e-06
8631 1357 0.0518643
1782 2441 0.0036688
1782 22 2.19244e-05
1193 740 0.00814056
4924 740 8.7748e-07
743 5067 0.000348957
2065 6976 1.06796e-06
1942 8248 0.00416695
21558 551 0.110779
11813 3597 0.0873695
16116 3597 2.19615e-06
20568 55 0.000100331
20568 2276 0.000746704
21583 15605 0.142579
12918 15605 9.03017e-07
1382 161 0.00579828
11792 587 0.00793259
5854 1353 0.000334065
181 517 2.70812e-06
40 517 0.000508603
3619 68 0.000858069
9602 6887 0.0849129
9602 590 0.0639388
2951 6887 2.56103e-07
2951 590 0.0048866
2300 16466 1.55524e-06
21569 740 0.199598
689 740 3.92602e-05
2508 48 0.0437316
201 4763 3.91141e-07
756 6043 0.0970469
2337 593 7.99737e-05
4851 15957 0.0525544
1175 115 8.47712e-05
40 183 3.75519e-07
1164 11 0.0077883
376 133 2.17313e-07
12920 892 1.02226e-05
3141 545 0.0260383
161 545 1.05621e-06
1233 892 0.00141401
21057 438 4.19657e-06
3559 1060 5.40613e-07
98 9769 2.53109e-05
1175 2742 3.68203e-07
1180 2742 0.000201213
14268 1060 0.0166597
21548 1060 0.481221
1325 1478 2.88941e-06
595 2501 8.33535e-05
760 185 2.9518e-05
20138 483 5.26652e-06
30 483 0.000803339
13558 21 1.84996e-06
470 16413 0.000131274
3059 208 1.75118e-07
2506 16405 0.0012805
3243 10763 0.000160643
2496 10763 0.0508584
1916 39 0.00212679
21523 55 0.142598
2905 6827 2.33177e-05
7668 186 5.49073e-06
19298 19 1.36133e-06
546 303 2.40482e-06
11946 54 0.00624875
1185 909 9.77137e-06
2430 19 2.72592e-07
21288 19 0.0580446
129 4271 0.0026904
693 1671 0.000489345
2440 220 0.00256326
68 3597 7.03121e-06
19452 1759 5.18437e-05
21499 175 0.15856
4221 4418 4.2459e-05
549 4418 2.99464e-06
2184 774 2.14072e-07
10956 133 0.000102836
254 1363 2.68123e-06
2415 16375 0.00253622
12122 1081 0.000367558
10101 16369 0.249517
9163 9 0.0136486
4558 9 0.000323046
3498 9 1.30003e-06
2003 9 8.65812e-07
21487 892 9.05657e-06
3393 892 0.000819558
3393 307 3.70501e-06
3900 892 0.0568765
1347 536 0.000553412
764 848 0.000649152
1440 1060 8.81166e-05
336 206 0.0112815
833 2277 2.75921e-05
2429 906 0.0997674
2012 8357 0.00182258
9598 21 0.00209591
98 1669 0.000418902
313 1669 0.000117786
1741 180 0.00929747
16262 1060 7.39628e-06
1796 10293 0.00532692
5514 1081 0.000112481
1410 95 1.89114e-06
245 16334 9.36275e-05
12656 127 0.00111873
285 13594 3.72376e-07
9768 261 0.00529663
61 16325 1.84424e-06
2947 51 0.133738
970 170 2.80456e-07
50 1089 0.00204594
322 1089 4.80798e-06
63 1089 1.76038e-06
19720 2103 0.0632432
3667 572 0.00395155
2347 1335 5.10755e-07
20934 3093 0.000361204
5087 4894 0.0189493
1188 10317 0.0212503
50 345 0.00818806
5134 345 1.32709e-06
16718 892 0.116839
12687 20 7.23935e-05
12687 892 0.000927357
1103 2962 0.00144669
10339 1041 0.000735731
2957 3347 8.04576e-07
133 378 3.80365e-07
1310 4782 0.0142795
4173 68 1.82003e-05
810 634 1.49979e-05
15440 53 0.000593986
10855 15865 0.000284348
371 634 6.5314e-05
7161 12356 0.000163382
1185 3036 0.000930506
151 3036 2.67825e-05
19843 34 0.000145141
3323 189 5.34863e-05
6142 16 0.0320868
519 1434 0.0186779
11023 901 0.0140692
7213 2600 0.110743
2442 4859 0.0302057
15699 4859 1.15487e-05
2696 4859 4.36529e-06
9853 16272 1.63961e-05
21057 16272 6.35319e-07
131 373 2.13004e-06
111 16270 0.00339173
43 2104 5.01696e-05
41 2104 1.74179e-07
5922 1268 0.000900271
667 16265 7.80281e-06
18674 16265 1.21551e-06
3862 6653 0.000165186
57 6653 0.00865802
1637 449 2.02533e-06
1495 11722 1.97334e-07
40 11722 0.0005081
1741 1098 0.00464877
1003 1159 0.00422731
988 1092 0.000296796
21387 3230 0.124594
1185 657 3.64679e-05
212 1669 0.00913446
3624 1092 0.0342401
3624 1060 2.195e-06
6963 3863 1.41692e-06
1185 241 1.90008e-07
1782 3767 0.0475184
1015 754 0.00908427
14994 754 0.00734751
3340 2668 0.0126599
8320 3625 0.0200549
4855 16076 0.000121263
4728 517 0.00278948
6298 2369 0.124764
376 39 2.20775e-05
8285 4006 0.0094123
1509 4006 2.48494e-07
913 4006 2.11211e-06
1144 552 4.82497e-07
3815 185 6.79887e-06
2065 185 7.54928e-05
21351 12009 0.204279
4542 16215 5.73418e-06
495 16215 1.57885e-06
2880 16213 0.000519882
221 16212 1.87057e-05
16960 39 0.00233681
1305 53 1.34564e-05
2145 53 0.0122571
3591 4156 5.47921e-06
7644 990 0.166273
6877 990 0.00141999
2010 6680 1.67874e-06
10680 752 0.0102887
3537 15251 0.000767421
245 15251 1.9471e-07
21057 1980 1.05443e-05
1182 1980 4.15874e-05
7034 752 0.124753
4235 740 0.0274904
1946 7110 3.20706e-06
2337 9091 7.76195e-05
18674 590 0.00772092
16044 15093 0.142583
162 9090 7.3413e-07
1866 5892 2.5165e-07
15337 503 0.110176
7377 503 0.000831934
20613 752 0.0809835
13969 68 0.0270916
1100 2745 0.0125479
16449 222 0.00019822
1781 3393 1.25464e-07
21298 3393 0.200284
269 16144 9.1376e-07
7256 948 5.48939e-05
18335 948 0.0902725
2337 127 3.05747e-06
496 16130 0.00527237
1175 8416 0.000396466
804 8416 1.07722e-05
21292 455 0.0959419
2337 1041 0.000102492
9480 1953 8.34857e-06
5683 1534 0.0587084
2028 1076 0.011925
1177 1076 1.52909e-05
4614 2170 0.00122507
2485 755 0.00887391
14331 1081 0.00108953
63 634 3.07089e-07
13888 443 0.0247916
1003 6548 0.000120473
1003 115 8.35582e-05
2959 892 4.21863e-07
1180 220 9.1445e-06
43 343 1.06788e-07
21261 9 0.111133
9113 10380 0.0161157
2142 1600 0.00926468
8696 71 0.0907297
7862 19 0.00829627
16624 2404 1.78471e-05
351 245 0.000345129
950 643 1.78796e-06
713 16061 3.35287e-05
1183 3597 0.000277542
12894 39 4.71829e-07
6742 39 0.0454028
14940 210 0.000788281
6171 210 0.0696518
4188 13929 4.2563e-05
4188 210 0.00776543
4448 455 0.000518241
4419 16035 0.00528164
19848 30 1.76689e-06
1647 220 0.0287179
21095 181 1.43203e-06
21095 503 0.00223165
4321 438 9.99412e-07
1839 13813 0.0147891
1332 1358 0.0128198
2100 4909 6.81063e-05
17991 2103 0.0592065
1246 15749 0.0228275
6074 16013 0.00274122
369 5012 1.70519e-07
2236 1827 0.00240607
1489 1060 0.000196577
16150 39 0.000330415
604 9389 0.0177748
1736 4750 1.75281e-07
1425 6466 8.03193e-07
2007 10063 0.0106623
63 9951 0.000333433
10126 142 5.67405e-06
8810 3479 0.0174346
65 15973 2.07326e-07
2430 15973 3.39682e-07
8777 743 0.0708196
2910 1079 1.16324e-06
369 3410 1.26514e-05
12308 5823 0.0128144
21141 393 0.00110343
5643 65 2.79075e-06
392 15939 8.73318e-06
557 1038 5.43696e-07
1182 1038 0.00195278
16097 1081 6.03743e-05
151 1036 2.00944e-06
351 593 0.000297062
21095 68 1.29002e-05
638 11712 0.0021168
1101 1081 1.80592e-06
10855 15247 2.57763e-07
21116 1060 0.0684109
1637 1257 1.8503e-07
214 1257 0.0118961
195 1581 0.0190622
371 1366 1.2509e-06
1736 115 6.57753e-06
1736 15894 9.44194e-05
1736 22 8.12085e-06
124 247 0.00227117
3340 5887 6.42657e-05
7552 195 1.12546e-06
4037 2470 5.49443e-05
834 5787 0.0011208
505 5787 3.89917e-05
9324 5787 0.0978414
4404 175 8.68592e-07
2427 1298 0.0144719
7220 901 0.000526226
3375 150 1.65866e-06
958 150 0.000996634
2556 4435 1.51178e-06
88 1053 3.86767e-07
173 1834 8.56982e-07
216 15778 2.40867e-07
593 34 1.22259e-05
1179 449 0.000998966
16442 212 0.0556008
220 212 0.00133606
675 755 9.22794e-06
2732 14239 0.000242834
351 9112 6.06814e-05
1594 58 0.0079629
862 3550 3.27167e-06
3534 3550 0.00865324
4605 2845 0.0020016
3582 3525 8.31496e-06
3724 2719 0.000793895
595 116 2.68121e-05
5922 15825 0.0490382
13759 740 0.00204292
2137 30 0.00122347
0 15816 1.24169e-05
17569 2441 0.0518483
3847 426 3.96739e-06
713 7027 0.0118806
2400 494 0.0227322
1637 15809 0.0111449
83 597 0.0003955
43 597 7.74871e-06
3039 15020 0.0834002
371 15020 2.53257e-07
40 8543 0.000456726
0 8543 1.12575e-07
555 51 4.07662e-07
1159 8649 0.0125159
1159 5647 6.25469e-06
7595 4435 0.00052208
1741 188 5.89181e-06
21019 1081 0.141056
2682 15786 2.83094e-06
11149 95 0.000248691
368 607 1.76589e-06
2359 607 0.0209511
260 2036 0.00889086
1300 230 7.84017e-06
4719 230 0.0750252
1197 5957 0.000557026
10330 754 0.00510617
4152 754 0.0417465
1741 933 1.04025e-06
3374 892 0.0297391
55 607 0.00018923
193 607 6.71404e-07
27 607 6.5965e-07
1130 933 0.00419164
13375 3176 0.168272
5297 601 0.0317748
57 1077 0.000192671
2400 1077 0.00144667
655 2531 1.7926e-07
14943 15 0.0501127
3420 15 0.0424876
2296 220 0.00154018
20722 5892 0.110843
2769 5892 7.92985e-06
804 1265 7.23212e-06
20695 32 9.1251e-06
20962 1060 0.331787
18 1093 7.84415e-07
10040 1213 1.72998e-07
2418 1213 2.75781e-07
753 892 7.21103e-06
468 48 3.9015e-06
3703 1041 1.93304e-05
547 2113 1.14705e-05
4180 127 0.000822079
5873 1060 1.00503e-05
1471 634 0.0114812
1596 1653 0.032118
1382 15707 4.03266e-07
191 15707 4.87298e-06
344 15707 2.04742e-07
12307 15697 0.047996
1743 740 0.0202169
4466 593 0.0191831
7183 27 0.000984107
2230 1346 9.35206e-06
14403 1478 0.00163202
14714 1478 1.12856e-05
20646 1478 9.83115e-07
5390 1478 0.0483453
14840 80 0.000697271
4614 80 0.000405234
522 1340 0.00780525
1570 634 4.12767e-07
7066 671 0.0831825
1271 1201 4.82784e-06
1179 2933 0.00549643
4462 1041 0.0181583
20884 1041 0.148385
17140 1060 0.102713
10857 13944 0.0431662
547 13226 0.0100456
267 13226 0.000217636
12623 334 0.0117026
5806 1081 3.77565e-06
14445 52 0.126342
5520 139 0.000992232
10326 133 4.68696e-05
1488 133 1.10113e-05
682 21 0.00220162
993 1143 0.000749137
3226 15536 0.016019
2042 658 1.78176e-06
1647 2307 3.18413e-06
13531 60 8.54818e-05
664 1060 1.90183e-06
5189 278 0.041996
12830 752 0.143598
435 752 5.53107e-06
970 15586 0.0146836
5230 13579 1.36008e-07
1524 13579 0.000240993
4542 393 1.31152e-06
2755 6720 0.00564681
266 7970 0.00226968
18 7970 2.01066e-05
3619 60 0.000648331
2145 6798 0.0130689
2755 180 1.82077e-05
57 1320 5.52712e-07
3798 8547 0.0711898
611 2463 0.00117114
7345 1373 0.000358181
1292 52 0.000390641
1292 486 0.0740056
20811 15560 0.204955
17816 331 0.099782
9768 298 4.59314e-07
20792 15534 0.199661
1258 13749 8.58142e-07
1245 41 5.37056e-06
1530 313 0.00172833
4297 607 0.00712436
9445 6701 0.0274407
266 1383 2.97082e-05
1942 1857 1.27536e-07
6336 720 0.000171773
5784 15507 0.00138313
376 15507 0.00703761
2983 15500 0.0223521
993 833 1.15504e-06
20748 833 0.194006
2664 3406 2.08236e-06
7862 139 3.2934e-07
8404 338 0.0160678
4169 1060 0.0764437
2676 1060 3.79032e-05
1758 43 9.13554e-05
2072 43 2.40774e-05
1256 12536 0.0250514
10544 641 0.0600274
2917 641 3.41601e-06
7748 15473 0.0176048
3620 15473 1.51584e-05
61 604 0.000149078
2361 73 1.52155e-06
6629 1015 1.46219e-05
2142 3488 0.000226004
893 3488 0.0414811
4465 3488 0.00879355
609 15433 0.0095449
2436 15433 1.42242e-05
3157 7222 3.10828e-07
3862 3597 0.000572418
5431 1413 0.000447372
677 5012 0.00032937
1549 740 0.0121527
19891 14239 3.86299e-06
958 3903 0.000985926
13130 9483 0.00173223
6435 55 0.0416392
2300 68 4.7679e-06
958 10067 2.69104e-07
8751 60 2.77837e-06
20687 740 0.0819495
9343 15408 5.95996e-05
4943 15408 0.00985264
5991 1060 5.27758e-05
2412 15408 1.86688e-07
7307 68 8.99564e-05
7826 7815 0.000264376
16636 7815 0.00010122
126 7815 1.86938e-06
4005 380 0.00898922
2382 6351 0.065762
2245 21 0.00069141
20646 13600 0.00201357
3973 740 2.33987e-06
7868 740 5.62869e-06
4600 32 3.953e-05
3641 928 0.00311551
9207 53 0.000973684
9207 188 9.09763e-06
16116 188 1.9003e-06
260 22 7.52172e-07
860 1425 0.0828704
2244 18 0.00023334
7148 393 3.21607e-06
1051 2817 0.00189625
335 2817 0.000191207
1180 2817 6.82965e-07
0 2817 8.7731e-06
13852 647 0.00566464
1193 1741 1.82566e-06
5869 1041 0.0355896
55 9951 9.33304e-05
9768 9951 2.42253e-05
1151 901 6.57227e-07
1382 7374 0.00579637
4271 503 5.76805e-07
2142 15346 1.572e-05
1101 7662 5.69865e-05
11223 4770 0.045134
13528 1081 4.49528e-05
15373 13599 0.248963
20630 740 0.00809255
20474 48 0.00215803
2717 48 0.0255201
8526 10091 0.0435043
20619 740 0.106378
19708 139 0.00154788
11238 607 2.26613e-06
266 607 2.4642e-07
522 607 0.00822525
2769 1827 7.72449e-07
202 1827 0.00161634
1809 1081 2.12036e-05
3302 1669 9.23187e-06
212 657 0.000999806
20603 15305 0.142387
13277 13447 0.0241017
14582 2068 0.1426
14582 105 3.94608e-05
7256 551 0.0169233
20596 3597 0.182099
519 6322 0.0187187
14273 6322 1.63496e-05
9714 51 3.42932e-06
1140 2798 0.0123972
516 961 4.29434e-05
1952 16 2.44562e-07
2074 2535 0.0131836
10274 127 0.0292577
3030 566 0.0137461
20578 117 0.235495
2767 680 0.0270797
3641 1349 2.99282e-05
379 1349 0.000498002
3385 1349 1.27065e-06
2917 160 0.000580597
254 1081 0.000213096
3367 39 0.000597924
2234 611 1.75019e-07
15928 15248 0.000350227
3629 467 1.25856e-07
3629 1074 0.00629001
644 313 3.88969e-07
655 313 1.35508e-07
5516 15242 0.027722
509 13574 3.30467e-07
1637 1115 1.18073e-05
4943 1115 1.67429e-06
9451 1081 0.111316
728 3258 1.27201e-05
15361 752 0.0504205
3357 13601 0.0119333
1809 14 0.000569547
349 1425 8.21497e-07
3302 3828 5.73512e-05
3381 1938 0.00247099
9113 331 1.86109e-06
10855 15209 6.34503e-06
2320 15209 0.000283524
16437 10019 4.77504e-06
1833 2063 0.000321505
17089 1041 0.025469
628 355 2.91368e-05
4289 661 4.06206e-05
3475 21 0.0008842
211 2255 0.000180228
14585 13417 0.000121595
496 458 0.00905561
5055 1041 0.00159349
1542 15173 0.000247597
1144 1523 0.00823305
804 1523 2.38242e-05
4728 1081 0.0664874
5377 3445 0.000484926
400 3445 0.00468165
245 3445 9.08998e-05
4888 3198 9.40783e-05
1939 566 0.0251408
1939 19 0.000114343
1254 13594 0.00652681
1254 1523 0.00668077
6618 15143 2.37384e-05
486 15135 0.0104653
20485 496 0.111157
1305 503 2.68004e-07
797 503 0.0271387
6168 503 0.00170126
2737 43 1.5479e-05
667 35 2.27137e-07
189 364 2.51077e-06
950 1708 0.00149976
8535 185 0.04761
4605 7205 2.51051e-05
4940 7205 2.11038e-06
4289 10168 0.000261262
1758 393 0.000588948
212 393 2.71596e-06
1592 393 1.62002e-07
40 1601 0.000506059
1143 199 1.70399e-07
547 199 5.19614e-07
3776 8868 0.00648545
2149 1196 0.0162458
519 241 6.39918e-06
11684 19 0.000362675
2519 27 0.00625657
2989 740 1.35246e-06
4448 41 0.00139655
868 41 0.000564146
3142 752 0.0012611
3142 39 1.39383e-06
349 1041 1.23623e-06
19684 127 3.26495e-05
190 7078 2.59341e-05
1777 1078 3.66911e-06
7119 4435 0.000205974
7119 3597 1.03911e-06
5498 752 0.00899465
11035 41 0.115843
5134 41 1.01725e-05
1300 1175 7.07159e-06
2846 162 1.92628e-06
2910 1857 3.94141e-05
2910 2732 0.0166853
18634 1857 2.8172e-07
18634 2732 0.000399508
19568 8142 0.124752
1188 2425 0.00239644
9625 15006 0.00605884
151 8905 1.74053e-07
5109 8905 0.0187922
5109 1930 0.018793
2007 14733 4.87098e-07
745 593 0.000591061
3234 1158 0.124759
15811 14984 8.19599e-05
3546 14984 0.00795191
2910 2293 0.0158571
2910 206 0.0204498
2657 14975 2.30496e-07
15348 624 0.0191751
603 624 0.00275009
65 14965 0.00279113
19848 14965 3.2827e-07
99 1360 0.00016503
1127 1360 1.04111e-06
7212 14950 0.0523306
1150 51 0.00614568
4404 162 0.0203631
4045 2600 0.0462997
2343 14867 2.98098e-05
12623 5079 3.64655e-06
285 2397 0.0066993
4031 14881 0.0415247
0 1938 7.65539e-07
20232 14887 0.022704
9196 287 0.000174951
1060 287 2.64876e-06
17018 220 0.0774868
4143 139 4.61663e-06
6489 1366 8.51306e-06
10293 313 0.0619933
6081 576 1.42405e-05
3281 1344 0.000457154
51 660 1.73646e-07
1471 483 1.07955e-06
6711 3597 0.00141638
81 14826 2.80705e-06
19523 702 0.00109267
12494 4732 0.0412907
8850 3597 4.9922e-07
3969 4462 0.0498736
2339 7636 0.0169149
1774 2669 6.33284e-06
232 7 0.00422017
2957 127 0.000144168
7733 2669 3.66414e-05
3356 2669 1.74394e-05
20090 66 0.147295
7995 128 0.0998253
16095 566 1.59093e-05
1144 8821 0.00192848
2346 8821 2.54857e-06
109 10086 9.67482e-05
944 10086 0.00686719
19917 21 9.49312e-05
1609 1605 0.00199029
2440 14 0.000125978
10667 154 0.000245545
2657 6017 2.3587e-06
673 6017 0.0433374
125 2472 0.000121804
3021 298 0.0138724
396 298 2.61935e-07
7513 671 0.0712444
327 241 4.02356e-06
158 890 1.14018e-05
7700 2346 1.16022e-06
713 2346 1.94815e-05
43 5535 4.47351e-06
3376 5535 0.0367809
272 373 1.54606e-06
