2 0.244697 0.75396 0.000348002 0.000958545 2.29616e-06 3.20618e-05 5.45966e-07 2.52147e-07 2.01491e-07 1.53227e-07 
3 0.0833771 0.709749 0.109491 0.0342723 0.024555 0.015235 0.00900539 0.00717358 0.00290599 0.00423558 
4 0.0453606 0.939739 0.00898472 0.00246361 0.00144987 0.000782158 0.000514526 0.000233227 0.000197903 0.000274092 
5 0.192095 0.712 0.0675558 0.0102361 0.00762313 0.00378386 0.00275335 0.00169173 0.0010032 0.00125774 
6 0.192095 0.712 0.0675558 0.0102361 0.00762313 0.00378386 0.00275335 0.00169173 0.0010032 0.00125774 
7 0.214548 0.77331 0.00836897 0.00261715 0.000475622 0.000273838 0.000145468 9.48788e-05 8.17189e-05 8.41594e-05 
8 0.284351 0.701518 0.0134645 0.00059652 2.4856e-05 1.90484e-05 1.27004e-05 6.35103e-06 6.3509e-06 0 
9 0.929761 0.0689556 4.17782e-05 0.00123875 1.16321e-06 8.91424e-07 5.94352e-07 2.97215e-07 2.97209e-07 0 
10 0.0967325 0.690783 0.107124 0.0537678 0.0202773 0.0127324 0.00693195 0.0046997 0.00331171 0.00363965 
11 0.371659 0.626434 0.00153628 0.000175808 8.03592e-05 4.62666e-05 2.45776e-05 1.60303e-05 1.38069e-05 1.42192e-05 
12 0.12939 0.728621 0.102451 0.0164672 0.00969047 0.00522769 0.00343893 0.00155881 0.00132272 0.00183194 
13 0.285977 0.648919 0.035594 0.0164515 0.00461909 0.00320988 0.00215598 0.0011761 0.000994027 0.000903741 
14 0.538473 0.461355 4.63332e-06 0.000167035 0 0 0 0 0 0 
15 0.362116 0.634992 0.00273979 7.76814e-05 3.84067e-05 1.47236e-05 9.91957e-06 4.96378e-06 3.96656e-06 3.01643e-06 
16 0.141071 0.802879 0.0536942 0.00233766 9.77372e-06 3.70567e-06 1.78274e-06 1.43229e-06 1.07345e-06 3.58078e-07 
17 0.285729 0.503725 0.182645 0.0116359 0.00683213 0.00368571 0.00242457 0.00109902 0.000932564 0.00129158 
18 0.565943 0.388109 0.0409313 0.00266744 0.000988461 0.000490638 0.000357016 0.00021936 0.000130081 0.000163087 
19 0.048015 0.950763 0.00036799 0.000460302 0.000392932 3.32446e-07 2.21381e-07 1.10705e-07 1.10702e-07 0 
20 0.209346 0.779215 0.00643731 0.00143517 0.00355668 4.24257e-06 2.04057e-06 1.63943e-06 1.22869e-06 4.09863e-07 
21 0.0798763 0.920004 2.08589e-05 6.01108e-05 1.00621e-07 0 3.90856e-05 0 0 0 
22 0.539853 0.459638 0.000152009 0.000344553 6.59257e-06 2.50314e-06 1.20422e-06 9.67496e-07 7.25101e-07 2.41877e-07 
23 0.0844275 0.667616 0.188136 0.0295413 0.0149755 0.00622261 0.0033878 0.00229685 0.00161851 0.00177878 
24 0.0967054 0.63201 0.116833 0.0450955 0.0454839 0.0331867 0.0118494 0.00943892 0.00382366 0.00557313 
25 0.188101 0.68042 0.0910524 0.027709 0.00535244 0.00265675 0.00193321 0.00118781 0.000704374 0.000883097 
26 0.219036 0.777631 0.00220743 0.000533284 0.000243756 0.000140342 7.45522e-05 4.86254e-05 4.18809e-05 4.31317e-05 
27 0.195636 0.803329 0.000483999 0.000464583 4.52332e-05 1.66441e-05 8.84164e-06 5.76681e-06 4.96694e-06 5.11527e-06 
28 0.308593 0.690416 0.000218328 0.000773125 0 0 0 0 0 0 
29 0.025791 0.835525 0.13242 0.00349284 0.000980196 0.000681095 0.00045747 0.000249554 0.00021092 0.000191762 
30 0.150996 0.84623 0.000297068 0.00247522 9.39724e-07 3.55956e-07 2.37332e-07 1.18681e-07 1.18679e-07 0 
31 0.194565 0.630487 0.0990408 0.0472758 0.0101399 0.00703289 0.00472377 0.00257686 0.00217792 0.00198011 
32 0.51094 0.488571 0.000417063 3.48784e-05 1.88452e-05 7.2245e-06 4.86729e-06 2.43561e-06 1.9463e-06 1.48009e-06 
33 0.100664 0.768535 0.089969 0.0244459 0.00688461 0.00371242 0.00244214 0.00110698 0.000939321 0.00130094 
34 0.62912 0.370506 0.000314716 3.34891e-05 1.38828e-05 5.27316e-06 2.53684e-06 2.03815e-06 1.52751e-06 5.09543e-07 
35 0.28489 0.662234 0.0190156 0.00488326 0.0259537 0.00121743 0.000646718 0.000421811 0.000363305 0.000374154 
36 0.195051 0.692185 0.071212 0.0231548 0.00774682 0.00384208 0.00279571 0.00171776 0.00101863 0.00127709 
37 0.770365 0.225452 0.00391105 0.000132352 7.15113e-05 2.74145e-05 1.84697e-05 9.24231e-06 7.38554e-06 5.61645e-06 
38 0.136219 0.732022 0.0789169 0.0245476 0.010008 0.00695475 0.00467128 0.00254823 0.00215372 0.0019581 
39 0.0924128 0.904205 0.00185184 0.00152927 5.32366e-07 1.68156e-07 1.12117e-07 0 0 0 
40 0.191258 0.752087 0.0526377 0.00190621 0.000868835 0.000500229 0.000265731 0.000173318 0.000149279 0.000153737 
41 0.318135 0.680859 2.55371e-06 0.00100179 8.01398e-07 1.44522e-07 0 0 0 0 
42 0.156833 0.786737 0.0440385 0.00447404 0.00333197 0.00165387 0.00120345 0.000739431 0.000438485 0.000549743 
43 0.381753 0.613742 0.00209099 0.00184495 0.000234007 0.000134728 7.15701e-05 4.66804e-05 4.02057e-05 4.14064e-05 
44 0.133959 0.664737 0.108759 0.0302643 0.0123387 0.00897881 0.0190533 0.00328231 0.0119581 0.00666924 
45 0.29632 0.702726 0.000182611 0.000768299 1.49538e-06 5.5998e-07 2.69398e-07 2.16439e-07 1.62213e-07 0 
46 0.124864 0.809268 0.0564177 0.00341202 0.00254104 0.00126129 0.000917784 0.00056391 0.0003344 0.000419248 
47 0.150617 0.842166 0.00674395 0.000230014 0.00012428 4.76438e-05 3.20986e-05 1.60622e-05 1.28353e-05 9.76084e-06 
48 0.290111 0.70945 0.000145346 0.000282875 5.48813e-06 2.08457e-06 1.00286e-06 8.05714e-07 6.03851e-07 2.01431e-07 
49 0.206126 0.582126 0.179024 0.0143534 0.00543775 0.00930175 0.001493 0.000915198 0.000542715 0.000680419 
50 0.206097 0.753935 0.0264028 0.0012537 0.000677393 0.000259685 0.000177608 0.0102505 0.000893392 5.32019e-05 
51 0.448134 0.549609 0.000272997 0.00197658 3.89109e-06 1.3004e-06 6.25601e-07 5.0262e-07 3.76694e-07 1.25657e-07 
52 0.464487 0.531485 0.0037303 0.00014518 7.84259e-05 3.00653e-05 2.02556e-05 1.0136e-05 8.09966e-06 6.15951e-06 
53 0.113929 0.433564 0.448304 4.61973e-05 0.00414189 6.1126e-06 4.11712e-06 2.06022e-06 1.64632e-06 1.25197e-06 
54 0.731745 0.268075 0.000152478 1.59023e-05 6.59228e-06 2.50397e-06 1.20462e-06 9.67816e-07 7.25341e-07 2.41957e-07 
55 0.224056 0.754745 0.0192706 0.000410667 0.00125012 0.000107611 5.71646e-05 3.72846e-05 3.21132e-05 3.30722e-05 
56 0.218818 0.648069 0.115968 0.00158462 0.000856401 0.0142168 0.000221126 0.000110651 8.84213e-05 6.72413e-05 
57 0.118889 0.869756 0.0087485 0.00123461 0.000564324 0.000324908 0.000172597 0.000112573 9.69591e-05 9.98547e-05 
58 0.350743 0.644129 0.00502736 5.6872e-05 2.35762e-05 8.95502e-06 4.30813e-06 3.46123e-06 2.59406e-06 8.6532e-07 
59 0.105955 0.59743 0.132661 0.0735229 0.0279122 0.0391009 0.00862755 0.00699598 0.00312053 0.00467385 
60 0.524492 0.474337 0.000427842 0.00062985 4.65145e-05 2.67602e-05 1.42155e-05 9.27179e-06 7.98577e-06 8.22426e-06 
61 0.185022 0.604255 0.204784 0.00214485 0.00159723 0.000792809 0.000576893 0.000354457 0.000210194 0.000263528 
62 0.14419 0.736684 0.0750947 0.0183395 0.0107917 0.00582174 0.00382972 0.00173595 0.00147303 0.00204012 
63 0.210077 0.742133 0.0180447 0.0281359 0.000826102 0.000315085 0.000212279 0.000106225 8.48844e-05 6.45517e-05 
64 0.114824 0.798109 0.0450902 0.0147739 0.0105841 0.00656682 0.00388164 0.00309206 0.00125258 0.00182568 
65 0.424208 0.563167 0.0111077 0.000719034 0.00032866 0.000189225 0.00010052 6.55623e-05 5.64687e-05 5.81551e-05 
66 0.470601 0.527976 0.00101232 0.000194412 8.88631e-05 5.11627e-05 2.71785e-05 1.77267e-05 1.5268e-05 1.5724e-05 
67 0.30844 0.668121 0.0154936 0.00376436 0.00172063 0.00099065 0.000526251 0.000343238 0.00029563 0.000304459 
68 0.172809 0.827055 0.000117675 8.87768e-06 4.79668e-06 1.83885e-06 1.23887e-06 6.19935e-07 4.9539e-07 3.76727e-07 
69 0.104368 0.650017 0.12073 0.0384615 0.0288379 0.0320144 0.00906539 0.00780711 0.00348233 0.00521575 
70 0.137785 0.841796 0.0143831 0.00217929 0.00162299 0.000805596 0.000586198 0.000360174 0.000213584 0.000267778 
71 0.123315 0.874695 0.00140255 0.000212179 0.000158017 7.84342e-05 5.70732e-05 3.50672e-05 2.07949e-05 2.60713e-05 
72 0.115692 0.669727 0.106839 0.044917 0.0251873 0.0153041 0.00791778 0.00681887 0.00304153 0.00455553 
73 0.313622 0.658614 0.0164942 0.00523528 0.00213441 0.00148324 0.000996244 0.000543461 0.000459325 0.000417605 
74 0.210231 0.784306 0.00465459 0.000393404 0.000212561 8.14873e-05 5.48997e-05 2.7472e-05 2.19529e-05 1.66944e-05 
75 0.214706 0.423004 0.347714 0.00343244 0.00763007 0.00126769 0.000922443 0.000566772 0.000336097 0.000421376 
76 0.234219 0.743971 0.014375 0.00352261 0.00161013 0.000927031 0.000492455 0.000321195 0.000276645 0.000284906 
77 0.148447 0.660541 0.137198 0.0224121 0.0131898 0.00711547 0.00468076 0.00212172 0.00180037 0.00249348 
78 0.124289 0.717636 0.097339 0.0344464 0.0110426 0.00595713 0.00391878 0.00177632 0.00150728 0.00208756 
79 0.0765953 0.839868 0.0495675 0.0157806 0.00643373 0.00447091 0.00300297 0.00163815 0.00138454 0.00125878 
80 0.619015 0.364525 0.0137741 0.000972578 0.000720812 0.000357786 0.000260346 0.000159963 9.48585e-05 0.000118927 
81 0.114257 0.876928 0.00682911 0.00094109 0.000430158 0.000247662 0.000131563 8.58095e-05 7.39075e-05 7.61147e-05 
82 0.0733765 0.856317 0.0355926 0.022814 0.00420991 0.00292489 0.00196456 0.00107168 0.000905772 0.000823502 
83 0.545857 0.454068 6.31933e-05 6.66253e-06 2.76194e-06 1.04908e-06 5.04695e-07 4.05482e-07 3.03893e-07 1.01372e-07 
84 0.117664 0.769648 0.0940008 0.0104194 0.00292442 0.00203223 0.00136498 0.000744612 0.000629335 0.000572173 
85 0.247667 0.676599 0.0223169 0.0333258 0.00247231 0.00142896 0.0148347 0.000493105 0.000424708 0.000437392 
86 0.116325 0.826126 0.0429312 0.00527797 0.00393068 0.00195105 0.0014197 0.000872298 0.000517275 0.000648525 
87 0.266429 0.682402 0.0237376 0.00581765 0.0178107 0.001531 0.000813297 0.000530459 0.000456883 0.000470527 
88 0.103203 0.706143 0.116862 0.0289898 0.0232968 0.00843058 0.00538994 0.00294026 0.00248507 0.00225935 
89 0.189449 0.701152 0.0665475 0.0100833 0.00750935 0.00372917 0.017582 0.00172034 0.000988227 0.00123897 
90 0.0785331 0.899227 0.0146857 0.00290994 0.0024842 0.000821429 0.000551725 0.000300972 0.000254377 0.000231272 
91 0.0418842 0.300721 0.54579 0.0142181 0.0312808 0.0334381 0.0131323 0.00888673 0.00437998 0.00626932 
92 0.237626 0.705302 0.0461206 0.00518872 0.00237168 0.00136549 0.000725373 0.000473112 0.00040749 0.00041966 
93 0.690673 0.309021 9.80864e-05 0.000205461 1.52427e-06 5.77808e-07 2.77975e-07 2.2333e-07 1.67377e-07 0 
94 0.251205 0.714837 0.0223811 0.0054852 0.00250721 0.00144352 0.000766822 0.000500147 0.000430775 0.00044364 
95 0.204893 0.787007 0.00557599 0.00239164 6.76704e-05 2.594e-05 1.74763e-05 8.74519e-06 6.98829e-06 5.31435e-06 
96 0.117021 0.675476 0.105143 0.0486252 0.0136473 0.00948375 0.00646749 0.0185288 0.0029369 0.00267014 
97 0.0995531 0.816119 0.0364721 0.0272884 0.00815593 0.00504639 0.00274742 0.00186269 0.00131257 0.00144254 
98 0.123802 0.677279 0.152745 0.0214508 0.00874488 0.00607696 0.0040817 0.00222661 0.0018819 0.00171097 
99 0.112506 0.686924 0.155386 0.0213854 0.00999653 0.00539277 0.00354753 0.00160804 0.00136449 0.00188979 
100 0.247667 0.663498 0.0492549 0.033574 0.00247197 0.00142319 0.000756022 0.000493103 0.000424708 0.000437392 
101 0.144615 0.673677 0.0826402 0.0555159 0.0171172 0.0107481 0.00585165 0.00396728 0.0027956 0.00307243 
102 0.130578 0.787765 0.0413712 0.0230002 0.00679396 0.00426602 0.00232256 0.00157464 0.00110959 0.00121947 
103 0.07959 0.682035 0.139029 0.0568953 0.0166843 0.010476 0.00570351 0.00386684 0.00272483 0.00299465 
104 0.0540682 0.89152 0.0368629 0.00815238 0.0033237 0.00230969 0.00155135 0.000846275 0.000715259 0.000650293 
105 0.0759866 0.836474 0.080343 0.00259839 0.0019351 0.000960519 0.000698928 0.000429439 0.000254658 0.000319274 
106 0.105963 0.634794 0.116339 0.065313 0.0259878 0.0164312 0.0203808 0.00699599 0.00312053 0.00467385 
107 0.084375 0.656066 0.127834 0.0504917 0.0404943 0.0165699 0.00856856 0.00737932 0.00329152 0.00492995 
108 0.107269 0.702496 0.124182 0.0306846 0.01251 0.00869343 0.0058391 0.00318528 0.00269216 0.00244763 
109 0.152185 0.739472 0.0734841 0.0182336 0.00698284 0.00376701 0.00247805 0.00112326 0.000953135 0.00132008 
110 0.168867 0.752809 0.0552243 0.0083405 0.00621144 0.00308315 0.00224347 0.00137845 0.000817422 0.00102483 
111 0.131398 0.790384 0.0527481 0.0173927 0.0033995 0.0016874 0.00122785 0.00075442 0.000447373 0.000560886 
112 0.0934327 0.729279 0.0894875 0.0448065 0.0168978 0.0106104 0.00577663 0.00391642 0.00275976 0.00303304 
113 0.0924649 0.703734 0.0883828 0.0513957 0.0194814 0.0264554 0.00694867 0.00449236 0.00316561 0.00347907 
114 0.144193 0.783608 0.0541888 0.0104923 0.00316433 0.00157066 0.0011429 0.000702227 0.000416423 0.000522083 
115 0.124562 0.874552 0.000815766 3.38436e-05 1.82861e-05 7.01016e-06 4.72288e-06 2.36335e-06 1.88855e-06 1.43618e-06 
116 0.282654 0.360642 0.348454 0.00194226 0.00148814 0.00353893 0.000532081 0.000320845 0.000190262 0.000238538 
117 0.451791 0.547833 0.000317676 3.3097e-05 1.37203e-05 5.21143e-06 2.50714e-06 2.01428e-06 1.50963e-06 5.03578e-07 
118 0.35553 0.573563 0.0636647 0.0015816 0.00465683 0.000404273 0.00021471 0.000140041 0.000120617 0.000124219 
119 0.0400364 0.30679 0.546492 0.0135908 0.0297116 0.0174523 0.0272526 0.00849473 0.00418674 0.00599273 
120 0.327525 0.583325 0.0673633 0.00969639 0.00507843 0.00273964 0.00180222 0.000816917 0.000693189 0.000960054 
121 0.324371 0.645897 0.022825 0.00401781 0.00121652 0.000603225 0.00043894 0.000269696 0.00015993 0.00020051 
122 0.155223 0.836473 0.00394235 0.00333485 0.000422906 0.000243485 0.000129343 8.43621e-05 7.26609e-05 7.48308e-05 
123 0.405921 0.59392 0.000134949 1.38095e-05 5.72468e-06 2.17443e-06 1.04608e-06 8.40444e-07 6.2988e-07 2.10114e-07 
124 0.189228 0.701371 0.0665491 0.0100833 0.00750935 0.00373515 0.0155394 0.00375691 0.000988227 0.00123897 
125 0.147383 0.842624 0.00664427 0.00158663 0.000725226 0.000417547 0.000221808 0.000144671 0.000124604 0.000128326 
126 0.093845 0.699761 0.0892536 0.0670877 0.0196721 0.0123523 0.00672503 0.00455941 0.00321285 0.003531 
127 0.394409 0.604945 0.000608854 1.80718e-05 9.76442e-06 3.74328e-06 2.52192e-06 1.26198e-06 1.00845e-06 7.6689e-07 
128 0.45275 0.529732 0.0131052 0.00159337 0.00118662 0.000588997 0.000428588 0.000263335 0.000156158 0.000195781 
129 0.118821 0.685868 0.106761 0.033989 0.0138573 0.00962965 0.00646792 0.0039851 0.0179099 0.00271122 
130 0.141092 0.673679 0.0871238 0.043917 0.0227731 0.0163167 0.00563221 0.00381851 0.00269076 0.00295721 
131 0.181379 0.800504 0.0137362 0.00207548 0.000948674 0.000546196 0.000290149 0.000189245 0.000162996 0.000167864 
132 0.126972 0.768201 0.0726928 0.0149276 0.00608596 0.00422924 0.00284064 0.0015496 0.0013097 0.00119074 
133 0.434629 0.564936 0.000407986 1.48646e-05 6.16204e-06 2.34055e-06 1.126e-06 9.04652e-07 6.78002e-07 2.26166e-07 
134 0.168815 0.803213 0.0130097 0.00317326 0.00145302 0.00909697 0.000443623 0.000289341 0.000249209 0.000256651 
135 0.376003 0.558772 0.0594374 0.00331374 0.00107833 0.000503498 0.000366374 0.000225109 0.00013349 0.000167361 
136 0.233407 0.69695 0.0436545 0.0120728 0.00492198 0.00342037 0.00229735 0.00125323 0.00105921 0.000963002 
137 0.0998942 0.818197 0.0456976 0.0150809 0.00887538 0.00478798 0.00314967 0.0014277 0.00121146 0.00167785 
138 0.0786731 0.632832 0.145112 0.0505732 0.0361103 0.0224045 0.0132432 0.0105494 0.00427351 0.00622879 
139 0.268772 0.730388 0.000779857 2.92308e-05 1.57937e-05 6.05466e-06 4.07915e-06 2.04122e-06 1.63114e-06 1.24042e-06 
140 0.437838 0.558357 0.00312662 0.000321657 0.000146989 8.46284e-05 4.49561e-05 2.93218e-05 2.52548e-05 2.60091e-05 
141 0.378085 0.584714 0.0295327 0.00276884 0.00206199 0.0010235 0.000744759 0.000457599 0.000271357 0.00034021 
142 0.369183 0.628184 0.00173596 0.00042521 0.000194357 0.000111901 5.94436e-05 3.87711e-05 3.33934e-05 3.43907e-05 
143 0.0967325 0.690523 0.092051 0.0691008 0.0202774 0.0127324 0.00693196 0.0046997 0.00331171 0.00363965 
144 0.0749002 0.821025 0.0488451 0.0281847 0.0106293 0.00667425 0.00363369 0.00246355 0.00173598 0.00190788 
145 0.136466 0.726078 0.0828844 0.0227276 0.0133756 0.00721568 0.00474669 0.0021516 0.00182572 0.00252859 
146 0.104011 0.680126 0.117942 0.0301573 0.0248932 0.0228205 0.00710811 0.00612148 0.00273046 0.00408962 
147 0.202055 0.714609 0.0625453 0.00750738 0.0055903 0.00277483 0.00201913 0.0012406 0.00073568 0.000922346 
148 0.248574 0.723136 0.0214796 0.00322659 0.00147483 0.000849129 0.000451072 0.000294204 0.000253397 0.000260965 
149 0.152697 0.679312 0.0989079 0.0367841 0.0135668 0.00731876 0.0048145 0.00218234 0.00185181 0.00256472 
150 0.293133 0.706537 0.000277838 2.95371e-05 1.22445e-05 4.65089e-06 2.23747e-06 1.79763e-06 1.34725e-06 4.49413e-07 
151 0.108137 0.865088 0.0243841 0.00113264 0.000517713 0.000298072 0.000158341 0.000103275 8.89507e-05 9.16071e-05 
152 0.187856 0.512974 0.239413 0.0418246 0.00634334 0.00440794 0.00296067 0.00161507 0.00136504 0.00124105 
153 0.446322 0.512328 0.0324168 0.00324038 0.00239584 0.00118921 0.000865339 0.000531686 0.000315291 0.000395291 
154 0.189202 0.809777 0.000300318 0.000696244 1.32371e-05 5.0279e-06 2.41885e-06 1.94335e-06 1.45646e-06 4.85844e-07 
155 0.196943 0.719105 0.0461642 0.012509 0.00748442 0.0116006 0.00261257 0.00118421 0.00100486 0.00139171 
156 0.50566 0.494131 0.00017608 1.86411e-05 7.72765e-06 2.93522e-06 1.41209e-06 1.1345e-06 8.50264e-07 2.83629e-07 
157 0.246191 0.739074 0.013942 0.000375758 0.000171727 9.88712e-05 5.25221e-05 3.42566e-05 2.95052e-05 3.03863e-05 
158 0.138412 0.736454 0.0697831 0.0230523 0.0135667 0.00731876 0.0048145 0.00218234 0.00185181 0.00256472 
159 0.08566 0.682148 0.127812 0.0363913 0.0272575 0.016562 0.00856856 0.00737932 0.00329152 0.00492995 
160 0.0984484 0.71489 0.156928 0.0138187 0.00562952 0.00391205 0.00262759 0.00143338 0.00121147 0.00110143 
161 0.256453 0.572215 0.157049 0.00515718 0.00384066 0.00190637 0.00138719 0.000852321 0.000505429 0.000633673 
162 0.282117 0.689917 0.0200718 0.00333048 0.00192033 0.000953186 0.000693593 0.000426161 0.000252714 0.000316836 
163 0.201148 0.691062 0.0655689 0.00993542 0.0221044 0.00367257 0.00267237 0.00164197 0.000973694 0.00122075 
164 0.0713587 0.620779 0.178019 0.0456964 0.03274 0.0203134 0.0120072 0.00956477 0.00387465 0.00564744 
165 0.11135 0.881658 0.00460806 0.00112931 0.00051619 0.000297195 0.000157875 0.000102971 8.86891e-05 9.13377e-05 
166 0.0962604 0.611062 0.179429 0.0398633 0.0285524 0.0177151 0.0104714 0.00834137 0.00337905 0.00492509 
167 0.127952 0.706125 0.11025 0.0296 0.0135074 0.00510901 0.00278134 0.00188568 0.00132877 0.00146035 
168 0.172121 0.697141 0.084566 0.0214494 0.00874488 0.00607696 0.0040817 0.00222661 0.0018819 0.00171096 
169 0.129461 0.361818 0.489833 0.00530963 0.00902398 0.001643 0.00119553 0.000734566 0.0004356 0.000546126 
170 0.175192 0.776151 0.0343745 0.0051571 0.00384066 0.00190637 0.00138719 0.000852321 0.000505429 0.000633673 
171 0.173337 0.72901 0.0756403 0.007948 0.00591914 0.00293806 0.0021379 0.00131358 0.000778955 0.000976602 
172 0.137047 0.695742 0.100138 0.0258353 0.0109511 0.0164094 0.00690763 0.00266675 0.0022539 0.00204918 
173 0.183744 0.681059 0.108081 0.00979102 0.00729169 0.00361935 0.00263364 0.00161818 0.000959583 0.00120306 
174 0.23935 0.700335 0.0508923 0.00446472 0.00204075 0.00117496 0.000624158 0.000407096 0.000350631 0.000361102 
175 0.413798 0.581995 0.00277794 0.000677186 0.000309532 0.000178212 9.46694e-05 6.17465e-05 5.31821e-05 5.47704e-05 
176 0.0781454 0.859088 0.040543 0.0103238 0.00420898 0.00292489 0.00196456 0.00107168 0.000905772 0.000823502 
177 0.168619 0.787976 0.0284513 0.00460995 0.0066572 0.00138098 0.000946465 0.000581532 0.00034485 0.00043235 
178 0.16304 0.585185 0.193745 0.0192103 0.0115291 0.0177802 0.0040121 0.00181861 0.00154317 0.00213726 
179 0.405619 0.58287 0.0110573 0.000220808 0.000119002 4.56203e-05 3.07353e-05 1.53801e-05 1.22902e-05 9.34629e-06 
180 0.0697436 0.849651 0.0778438 0.00100148 0.000740982 0.000367798 0.000267631 0.000164439 9.75128e-05 0.000122255 
181 0.327971 0.665901 0.00477795 0.000639947 0.000292508 0.000168411 8.94626e-05 5.83505e-05 5.02571e-05 5.1758e-05 
182 0.0933237 0.649898 0.126218 0.0402097 0.0301484 0.0237549 0.0191925 0.00816199 0.00364062 0.00545283 
183 0.100884 0.861373 0.0367022 0.000489906 0.000412106 5.60236e-05 2.96561e-05 1.93427e-05 1.66598e-05 1.71573e-05 
184 0.158565 0.785532 0.04755 0.00301599 0.0022461 0.00111489 0.000811256 0.000498456 0.000295586 0.000370586 
185 0.305225 0.685762 0.00780174 0.000237548 0.000829077 0.000110374 1.5624e-05 7.81832e-06 6.24762e-06 4.7511e-06 
186 0.297153 0.667529 0.0268766 0.00399963 0.00182817 0.00105257 0.000559141 0.00036469 0.000314107 0.000323488 
187 0.15767 0.589586 0.200887 0.0278047 0.0101029 0.00545014 0.00358527 0.00162514 0.001379 0.0019099 
188 0.441506 0.510469 0.0465141 0.000547497 0.000405421 0.000201237 0.000146431 8.99711e-05 5.33531e-05 6.68906e-05 
189 0.498279 0.500773 0.000636954 0.000147395 6.73722e-05 3.87894e-05 2.06056e-05 1.34396e-05 1.15755e-05 1.19212e-05 
190 0.168842 0.690857 0.0854838 0.0224848 0.0166581 0.00596122 0.00400395 0.00218419 0.00184605 0.00167838 
191 0.0878836 0.882436 0.0178318 0.00493474 0.00290418 0.00156671 0.00103063 0.000467167 0.000396411 0.000549022 
192 0.180723 0.752035 0.0500759 0.00619799 0.00461584 0.00229115 0.00166717 0.00102435 0.000607442 0.00076157 
193 0.0941542 0.898617 0.00476552 0.00116706 0.000533449 0.000307132 0.000163154 0.000106414 9.16543e-05 9.43915e-05 
194 0.122193 0.842113 0.0211945 0.00673563 0.0027461 0.00190831 0.00128175 0.000699209 0.000590961 0.000537285 
195 0.132276 0.854144 0.0106561 0.00105559 0.000786135 0.000390211 0.000283939 0.000174459 0.000103455 0.000129705 
196 0.0838349 0.704852 0.106684 0.0599153 0.0175737 0.0110348 0.00600769 0.00407308 0.00287015 0.00315436 
197 0.0886663 0.611127 0.124608 0.0879442 0.0341047 0.0211598 0.0125075 0.00996331 0.00403609 0.00588275 
198 0.113291 0.6978 0.11416 0.0286921 0.0118243 0.0209893 0.00545994 0.00297845 0.00251734 0.00228869 
199 0.41627 0.504426 0.0772279 0.000985971 0.000448861 0.000258431 0.000137283 8.95404e-05 7.71209e-05 7.94241e-05 
200 0.304239 0.672078 0.0179392 0.0033531 0.00100634 0.00049947 0.000363443 0.000223308 0.000132422 0.000166022 
201 0.134381 0.677218 0.0830653 0.0654122 0.0156919 0.00985247 0.00536401 0.00363667 0.00256263 0.00281639 
202 0.080038 0.918226 0.00148504 0.00012228 6.60694e-05 2.53283e-05 1.70642e-05 8.53898e-06 6.82351e-06 5.18904e-06 
203 0.0603856 0.865246 0.0375494 0.0187898 0.00708617 0.0044495 0.00242246 0.00164237 0.00115732 0.00127192 
204 0.209776 0.719992 0.0508119 0.00645521 0.00771396 0.00206846 0.00134269 0.00060862 0.00051644 0.00071526 
205 0.0883911 0.857423 0.0389927 0.00911595 0.0032512 0.00101933 0.000741719 0.000455731 0.00027025 0.000338821 
206 0.426508 0.569402 0.00216208 0.00174056 9.6318e-05 3.6924e-05 2.48764e-05 1.24482e-05 9.9474e-06 7.56465e-06 
207 0.111907 0.655938 0.114115 0.036354 0.0275096 0.0300084 0.0085686 0.00737932 0.00329152 0.00492995 
208 0.280939 0.717643 0.00128911 6.27197e-05 3.38883e-05 1.29914e-05 8.75256e-06 4.37981e-06 3.49991e-06 2.66156e-06 
209 0.181118 0.699886 0.0636955 0.00978122 0.0356289 0.00356765 0.00259602 0.00159506 0.000945874 0.00118587 
210 0.256472 0.735328 0.00601414 0.00127593 0.000382897 0.000190057 0.000138296 8.49727e-05 5.0389e-05 6.31744e-05 
211 0.0885772 0.699947 0.0868894 0.0773327 0.0185847 0.0116564 0.00634616 0.00430254 0.00303185 0.00333207 
212 0.177887 0.636109 0.110588 0.026276 0.0197009 0.0119705 0.00619312 0.00533357 0.00237902 0.00356323 
213 0.221575 0.519068 0.250532 0.00318674 0.00237324 0.001178 0.000857176 0.00052667 0.000312317 0.000391562 
214 0.0733258 0.736787 0.0992088 0.0315934 0.023688 0.0143931 0.00744649 0.00641298 0.00286049 0.00428436 
215 0.136353 0.774125 0.0693877 0.00728086 0.00540996 0.00268532 0.00195399 0.00120058 0.000711948 0.000892593 
216 0.176805 0.795327 0.0221108 0.00207871 0.00154808 0.000768415 0.000559142 0.000343551 0.000203727 0.000255419 
217 0.0741773 0.74159 0.0900842 0.0400249 0.0270926 0.0109911 0.00568641 0.00489719 0.00218437 0.0032717 
218 0.0807628 0.658197 0.0997958 0.0494597 0.0629797 0.0192851 0.0113992 0.00908048 0.00367846 0.00536149 
219 0.113441 0.798912 0.0493712 0.0195418 0.00736328 0.0046235 0.00251719 0.0017066 0.00120258 0.00132166 
220 0.421154 0.571109 0.00586054 0.0014152 0.000189947 0.000109357 5.80926e-05 3.78899e-05 3.26345e-05 3.36091e-05 
221 0.107563 0.730443 0.109733 0.0242783 0.00989805 0.00687832 0.00461995 0.00252023 0.00213006 0.00193659 
222 0.180827 0.818009 0.000789786 0.00017719 8.09895e-05 4.66295e-05 2.47704e-05 1.61561e-05 1.39152e-05 1.43308e-05 
223 0.194387 0.698347 0.0536986 0.0177325 0.0104359 0.00562982 0.00370346 0.00167872 0.00143405 0.0129523 
224 0.237744 0.674542 0.0446931 0.0261412 0.00716632 0.00379491 0.00249641 0.00113158 0.000960195 0.00132985 
225 0.115274 0.68032 0.103574 0.0330773 0.0272687 0.0103396 0.00627485 0.00342307 0.017818 0.00263068 
226 0.181915 0.702995 0.0751252 0.0185654 0.00756909 0.00525989 0.0035329 0.00192723 0.00162887 0.00148092 
227 0.093845 0.684836 0.0893287 0.0670124 0.0206797 0.0262702 0.00672506 0.00455941 0.00321285 0.003531 
228 0.112113 0.614801 0.142514 0.0488631 0.0272794 0.0172309 0.0215982 0.00737932 0.00329152 0.00492995 
229 0.20374 0.670031 0.0882416 0.0158216 0.00931045 0.00502268 0.00330407 0.00149768 0.00127085 0.0017601 
230 0.204455 0.794268 0.0012063 3.97858e-05 1.64916e-05 6.26407e-06 3.01355e-06 2.42114e-06 1.81455e-06 6.05294e-07 
231 0.131893 0.652361 0.0894897 0.0576214 0.0169654 0.0232108 0.00659857 0.0160674 0.00275978 0.00303304 
232 0.191606 0.641432 0.116369 0.0235031 0.00958215 0.0066588 0.0044725 0.00243979 0.00206208 0.00187478 
233 0.0858077 0.638797 0.130283 0.0463139 0.0331825 0.0206141 0.0256549 0.00969587 0.00392701 0.00572376 
234 0.154652 0.759826 0.0398666 0.0232994 0.00878685 0.00551738 0.00300385 0.00203654 0.00143507 0.00157718 
235 0.115576 0.879317 0.00337107 0.000822193 0.000375813 0.000216373 0.000114941 7.49685e-05 6.45702e-05 6.64985e-05 
236 0.13093 0.722572 0.0806256 0.0218918 0.0262612 0.00692316 0.00455426 0.00206437 0.00175171 0.00242608 
237 0.245052 0.702845 0.0424556 0.004571 0.00208934 0.00120293 0.000639019 0.000416789 0.00035898 0.0003697 
238 0.184535 0.668354 0.0742549 0.0371799 0.0140216 0.00880433 0.00479337 0.00324979 0.00229001 0.00251678 
239 0.297183 0.672182 0.0262065 0.00209817 0.000959042 0.000552166 0.00029332 0.000191313 0.000164778 0.000169698 
240 0.294981 0.651519 0.0317326 0.0090655 0.0053352 0.00287817 0.00189334 0.000858222 0.000728238 0.0010086 
241 0.442328 0.555574 0.00139624 0.000332725 0.000152084 8.75618e-05 4.65144e-05 3.03382e-05 2.61302e-05 2.69106e-05 
242 0.12462 0.651617 0.127252 0.0315621 0.0128964 0.0232896 0.0189477 0.00452919 0.00276907 0.00251756 
243 0.111049 0.667538 0.116698 0.0368535 0.0264033 0.0163817 0.00968322 0.00771353 0.00312471 0.00455439 
244 0.143089 0.805954 0.0303696 0.00956402 0.00389923 0.00270964 0.00181998 0.000992816 0.000839113 0.000762898 
245 0.145586 0.738375 0.0843155 0.0176542 0.00497637 0.00345816 0.00232274 0.00126707 0.00107091 0.000973643 
246 0.303083 0.678865 0.0163274 0.00155547 8.64557e-05 3.31435e-05 2.23295e-05 1.11737e-05 8.92894e-06 6.79015e-06 
247 0.15312 0.820165 0.0195854 0.00414788 0.00125468 0.00062278 0.00045317 0.000278439 0.000165115 0.00020701 
248 0.0854623 0.686425 0.114877 0.0398515 0.0285524 0.0177152 0.0104714 0.00834137 0.00337905 0.00492509 
249 0.36744 0.60957 0.0162345 0.00243892 0.00181634 0.00090157 0.000656034 0.000403083 0.00023903 0.000299679 
250 0.318 0.581033 0.0880629 0.00465919 0.00346984 0.00172231 0.00125325 0.000770028 0.000456629 0.000572491 
251 0.126407 0.682105 0.118248 0.0255177 0.0191326 0.0116252 0.00601447 0.00517972 0.00231039 0.00346045 
252 0.121158 0.70252 0.0963812 0.0306846 0.0125152 0.0225772 0.0058391 0.00318528 0.00269216 0.00244763 
253 0.148118 0.73434 0.0888932 0.0133093 0.00542604 0.00377065 0.00253262 0.00138157 0.00116768 0.00106162 
254 0.102261 0.654097 0.134719 0.0452922 0.0255102 0.0155003 0.00801929 0.00690629 0.00308052 0.00461393 
255 0.142393 0.647927 0.115528 0.0328786 0.0245653 0.0149262 0.00772228 0.0066505 0.00296643 0.00444304 
256 0.138758 0.841095 0.0161577 0.00144056 0.00107276 0.000532484 0.000387465 0.000238068 0.000141175 0.000176996 
257 0.102642 0.675216 0.1116 0.0492241 0.0186219 0.0256827 0.00634624 0.00430254 0.00303185 0.00333207 
258 0.176981 0.691751 0.093578 0.00954316 0.00645034 0.0036801 0.0146719 0.00143146 0.000848862 0.00106425 
259 0.166894 0.740474 0.0739211 0.0067558 0.00503127 0.00249735 0.00181721 0.00111654 0.000662112 0.000830112 
260 0.0990177 0.725627 0.114384 0.0283242 0.0115477 0.00802471 0.00538994 0.00294026 0.00248507 0.00225935 
261 0.127956 0.831972 0.0335239 0.00236827 0.00175918 0.000873199 0.000635389 0.000390399 0.000231508 0.000290249 
262 0.112031 0.69786 0.0912903 0.0522627 0.0276593 0.00791548 0.00409615 0.0027771 0.00195692 0.0021507 
263 0.10437 0.707031 0.110819 0.0298553 0.0121719 0.00891452 0.0187358 0.00310213 0.00261939 0.00238148 
264 0.287216 0.680398 0.0138531 0.0178316 0.000364489 0.000135812 9.14995e-05 4.57866e-05 3.65881e-05 2.7824e-05 
265 0.160049 0.802931 0.0231142 0.00645991 0.00263369 0.0018302 0.00122928 0.000670586 0.000566769 0.000515291 
266 0.0919308 0.655123 0.124335 0.0545308 0.0297014 0.0180451 0.00933589 0.00804016 0.00358628 0.00537144 
267 0.223141 0.720482 0.041956 0.00522516 0.00387021 0.00192104 0.00139786 0.000858878 0.000509317 0.000638547 
268 0.0998508 0.681565 0.123863 0.0542356 0.0159612 0.00997117 0.00542864 0.00368049 0.00259351 0.00285033 
269 0.0713303 0.622379 0.123156 0.0734477 0.0429366 0.0356515 0.0120118 0.00956478 0.00387465 0.00564744 
270 0.151042 0.82574 0.0189303 0.00203156 0.000928596 0.000534637 0.000284008 0.00018524 0.000159546 0.000164311 
271 0.085645 0.640074 0.149872 0.0387277 0.0285984 0.0330351 0.0092896 0.00739544 0.00299586 0.00436658 
272 0.179003 0.697206 0.100491 0.00872178 0.00613569 0.00304555 0.00221611 0.00136164 0.000807454 0.00101233 
273 0.17825 0.586061 0.173477 0.036513 0.0107993 0.00582174 0.00382972 0.00173595 0.00147303 0.00204012 
274 0.136462 0.712703 0.0962636 0.0227276 0.0133756 0.00721568 0.00474669 0.0021516 0.00182572 0.00252859 
275 0.149341 0.768428 0.055136 0.0112843 0.00664102 0.00358261 0.00235675 0.00106828 0.000906478 0.00125546 
276 0.195051 0.692185 0.0685951 0.0103935 0.023125 0.00384208 0.00279571 0.00171776 0.00101863 0.00127709 
277 0.106442 0.674983 0.0906757 0.0591518 0.030032 0.0215729 0.00730793 0.00396728 0.0027956 0.00307243 
278 0.206259 0.772137 0.0189656 0.000952864 0.000709629 0.000352235 0.000256306 0.000157481 9.33867e-05 0.000117082 
279 0.199056 0.724683 0.0666946 0.00398435 0.00234485 0.00126497 0.000832135 0.000377194 0.000320065 0.000443284 
280 0.13053 0.669964 0.127163 0.0296978 0.0165941 0.0102939 0.00608473 0.00484701 0.0019635 0.00286188 
281 0.120868 0.701838 0.0952536 0.040972 0.0188173 0.0108562 0.00425073 0.00288189 0.00203077 0.00223186 
282 0.200768 0.669581 0.0722705 0.0296649 0.0108928 0.00683973 0.00372378 0.00252463 0.00177902 0.00195518 
283 0.118861 0.746101 0.0629499 0.0367885 0.013874 0.00871166 0.00474292 0.00321559 0.00226591 0.00249028 
284 0.0828138 0.716138 0.11186 0.0510793 0.0149776 0.00940463 0.00512019 0.00347137 0.00244615 0.00268838 
285 0.20288 0.716208 0.0436127 0.0256933 0.00488473 0.00242461 0.00176428 0.00108402 0.000642827 0.000805934 
286 0.321107 0.667519 0.00967827 0.000803565 0.000367164 0.000211394 0.000112296 7.32433e-05 6.30843e-05 6.49682e-05 
287 0.254601 0.736315 0.00691697 0.00102664 0.000469264 0.000270177 0.000143523 9.36104e-05 8.06264e-05 8.30342e-05 
288 0.114459 0.790723 0.0572014 0.0156666 0.00922006 0.00497392 0.00327199 0.00148314 0.00125851 0.00174301 
289 0.102712 0.638087 0.152186 0.0376624 0.0269836 0.0167418 0.00989604 0.00788306 0.00319339 0.00465448 
290 0.177452 0.793031 0.0225313 0.00331004 0.00151297 0.000871089 0.000462738 0.000301813 0.000259951 0.000267714 
291 0.210868 0.661327 0.0611399 0.0365899 0.00689226 0.00342239 0.0161866 0.00152951 0.000907003 0.00113714 
292 0.202228 0.79009 0.00507619 0.00123461 0.000564324 0.000324908 0.000172597 0.000112573 9.69591e-05 9.98547e-05 
293 0.070392 0.645165 0.129991 0.0451225 0.0454397 0.0200464 0.0118492 0.00943892 0.00385745 0.0186972 
294 0.0821249 0.691909 0.111072 0.035388 0.0398603 0.0161204 0.00834006 0.00718254 0.00320374 0.00479849 
295 0.164799 0.746099 0.0545113 0.00814032 0.0181049 0.00301313 0.00218941 0.00134523 0.000797725 0.00100013 
296 0.203229 0.753821 0.0321207 0.00451425 0.0026527 0.00143104 0.000941383 0.000426714 0.000362085 0.000501481 
297 0.149059 0.700797 0.0759644 0.0393964 0.0146102 0.00788175 0.00518485 0.00235021 0.00199425 0.002762 
298 0.56846 0.427148 0.00325641 0.000409703 0.00030511 0.000151446 0.000110201 6.77102e-05 4.01523e-05 5.03403e-05 
299 0.135014 0.823098 0.0254817 0.00386046 0.00287501 0.00142886 0.00675078 0.000638134 0.00037835 0.000474349 
300 0.0800629 0.712731 0.108284 0.0344655 0.0258415 0.0157016 0.00812344 0.00699598 0.00312053 0.00467385 
301 0.192652 0.703869 0.0630422 0.00951521 0.00708629 0.00382534 0.016298 0.00161058 0.000932552 0.00116917 
302 0.209946 0.753842 0.0187408 0.00891558 0.00336231 0.00211124 0.00114943 0.000779287 0.000549136 0.000603513 
303 0.234387 0.733161 0.0250267 0.00268138 0.00199653 0.000991011 0.000721116 0.000443072 0.000262743 0.000329409 
304 0.0698625 0.752035 0.0814255 0.0594155 0.0146448 0.00919564 0.00500641 0.00339423 0.00239179 0.00262863 
305 0.124088 0.705946 0.0887227 0.0344209 0.0187717 0.0114059 0.00590099 0.00508199 0.0022668 0.00339516 
306 0.262453 0.702068 0.0233833 0.00573081 0.00261947 0.00150815 0.000801158 0.000522542 0.000450064 0.000463505 
307 0.25703 0.653786 0.0596061 0.012318 0.00724936 0.00391079 0.00257263 0.00116613 0.000989514 0.00137046 
308 0.118821 0.685868 0.106761 0.033989 0.0145361 0.0243354 0.00646793 0.00352831 0.00298208 0.00271122 
309 0.238919 0.670696 0.0561113 0.0168904 0.0143227 0.00123233 0.000654605 0.000426955 0.000367735 0.000378717 
310 0.126432 0.660678 0.11592 0.0455752 0.0275432 0.00907141 0.00609297 0.00332377 0.00280921 0.00255405 
311 0.207176 0.701148 0.0682878 0.00844475 0.00628908 0.00312169 0.00227152 0.00139568 0.00082764 0.00103764 
312 0.155359 0.657861 0.137737 0.0227898 0.0092858 0.00645286 0.00433418 0.00236433 0.0019983 0.0018168 
313 0.275341 0.71039 0.0111083 0.00114118 0.000849876 0.00042185 0.000306962 0.000188605 0.000111843 0.000140222 
314 0.124742 0.678518 0.10762 0.0593603 0.0106227 0.00727822 0.00488855 0.00266675 0.0022539 0.00204918 
315 0.322721 0.645805 0.0255586 0.00280267 0.00128106 0.000737564 0.000391807 0.00025555 0.000220104 0.000226677 
316 0.390397 0.545691 0.0454502 0.0109901 0.00314455 0.00156084 0.00113576 0.000697838 0.00041382 0.00051882 
317 0.1468 0.705331 0.074012 0.0244494 0.0143889 0.00776233 0.00510629 0.0023146 0.00196425 0.0178715 
318 0.118821 0.701253 0.106761 0.033989 0.0138573 0.00962965 0.00646792 0.00352831 0.00298208 0.00271122 
319 0.163209 0.739444 0.0542964 0.0179295 0.0105518 0.00569237 0.00374461 0.00169737 0.00144029 0.00199478 
320 0.0905845 0.642137 0.125852 0.0392672 0.058413 0.0178 0.0091986 0.00792192 0.00353354 0.00529245 
321 0.103579 0.697864 0.101311 0.0553266 0.0164754 0.0103451 0.00563221 0.00381851 0.00269076 0.00295721 
322 0.16936 0.745563 0.0333858 0.0356107 0.0141196 0.000789468 0.000419356 0.000273518 0.00023558 0.000242616 
323 0.0523974 0.317647 0.513697 0.0131321 0.0424258 0.0307928 0.0120225 0.00813574 0.00400984 0.00573952 
324 0.0869771 0.644288 0.107937 0.0469485 0.0473356 0.0270859 0.0198188 0.00982683 0.0039808 0.00580217 
325 0.139508 0.807121 0.0358223 0.00815236 0.0033237 0.00230969 0.00155135 0.000846275 0.000715259 0.000650293 
326 0.0931617 0.782955 0.0866281 0.015516 0.0091314 0.00492609 0.00324053 0.00146888 0.00124641 0.00172625 
327 0.158038 0.721181 0.0727716 0.0200971 0.0117243 0.00632486 0.00416068 0.00188597 0.00160033 0.00221642 
328 0.0967325 0.705907 0.0919994 0.0537678 0.0202773 0.0127324 0.00693195 0.0046997 0.00331171 0.00363965 
329 0.115274 0.680325 0.118549 0.0478408 0.0134469 0.0093422 0.00627485 0.00342299 0.00289306 0.00263029 
330 0.217993 0.730266 0.0375661 0.00511803 0.00381157 0.00189193 0.00137668 0.000845864 0.0005016 0.000628872 
331 0.759178 0.228714 0.0112154 0.000575205 0.000162218 6.21877e-05 4.18971e-05 2.09655e-05 1.67535e-05 1.27405e-05 
332 0.17071 0.689686 0.0699674 0.0230741 0.0278305 0.00731876 0.0048145 0.00218234 0.00185181 0.00256472 
333 0.0967325 0.690523 0.0919994 0.0537678 0.0202773 0.0127324 0.00693196 0.0046997 0.00870965 0.0136263 
334 0.289856 0.701713 0.00564597 0.00131947 0.000603109 0.000347238 0.000184459 0.00012031 0.000103623 0.000106718 
335 0.133258 0.733639 0.0973447 0.0166112 0.00677235 0.00470622 0.00316102 0.00172436 0.00145741 0.00132503 
336 0.144609 0.694803 0.0878326 0.026814 0.0263699 0.00764651 0.00503007 0.00228005 0.00193472 0.00267956 
337 0.235724 0.754179 0.00568009 0.00334748 0.000439864 0.000253249 0.00013453 8.77451e-05 7.55746e-05 7.78316e-05 
338 0.192756 0.7914 0.0149024 0.000446233 0.000203838 0.000117359 6.23432e-05 4.06623e-05 3.50224e-05 3.60683e-05 
339 0.250396 0.729905 0.0164571 0.00153589 0.000702018 0.000404185 0.00021471 0.000140041 0.000120617 0.000124219 
340 0.086287 0.794844 0.0726961 0.0214494 0.00874488 0.00607696 0.0040817 0.00222661 0.0018819 0.00171096 
341 0.15137 0.732206 0.0812008 0.0146697 0.00863332 0.0046574 0.00306377 0.00138876 0.00117842 0.00163209 
342 0.202968 0.667823 0.0754732 0.0296261 0.00858392 0.00590497 0.00396618 0.00216359 0.00182863 0.00166254 
343 0.197141 0.789188 0.00766308 0.0025018 0.00147235 0.000794284 0.000522504 0.000236843 0.000200971 0.000278341 
344 0.0810578 0.636857 0.120979 0.0637558 0.0389331 0.0230834 0.0136445 0.0108691 0.00440301 0.00641755 
345 0.251744 0.681403 0.0562648 0.00224719 0.00687316 0.000591396 0.000313904 0.000204739 0.000176341 0.000181607 
346 0.0596357 0.608551 0.118403 0.0638165 0.0534939 0.0430976 0.0252152 0.0107061 0.00794237 0.00913915 
347 0.204154 0.593975 0.14478 0.0376515 0.00687605 0.00477807 0.00320928 0.00175069 0.00147966 0.00134526 
348 0.0919308 0.640197 0.126443 0.0526053 0.0444307 0.0180596 0.00933589 0.00804016 0.00358628 0.00537144 
349 0.247676 0.691059 0.0357557 0.0194918 0.00248256 0.00142319 0.000756022 0.000493103 0.000424708 0.000437392 
350 0.229685 0.726433 0.037239 0.00314725 0.00143856 0.000828249 0.00043998 0.00028697 0.000247166 0.000254548 
351 0.125829 0.734434 0.0764311 0.0305349 0.0157418 0.00665342 0.00437682 0.00198394 0.00168346 0.00233156 
352 0.092465 0.704062 0.102761 0.0513957 0.0193828 0.0121707 0.00662613 0.00449236 0.00316561 0.00347907 
353 0.230011 0.757834 0.00358671 0.00804932 0.000237996 0.000113408 6.02442e-05 3.92933e-05 3.38432e-05 3.48539e-05 
354 0.178567 0.647789 0.147291 0.00951521 0.00708629 0.00351739 0.00255945 0.00157259 0.000932552 0.00116917 
355 0.111922 0.742534 0.0793096 0.0230769 0.0173025 0.0105132 0.00543917 0.00468427 0.0020894 0.00312945 
356 0.1468 0.690179 0.074013 0.0395999 0.0143889 0.0229138 0.00510629 0.0023146 0.00196404 0.00272016 
357 0.178581 0.703908 0.0770741 0.00951523 0.0211708 0.0035174 0.00255945 0.00157259 0.000932552 0.00116917 
358 0.223399 0.742147 0.0313282 0.00152116 0.000821904 0.000315085 0.000212279 0.000106225 8.48844e-05 6.45517e-05 
359 0.118213 0.792883 0.0616175 0.0113641 0.00668779 0.00360784 0.00237334 0.0010758 0.000912862 0.0012643 
360 0.0898329 0.684049 0.113998 0.064213 0.018829 0.011823 0.00643682 0.00436401 0.00307516 0.00337967 
361 0.101216 0.692834 0.0847447 0.074609 0.0183255 0.0114945 0.00625801 0.00424279 0.00298974 0.00328579 
362 0.200554 0.650556 0.123974 0.0104228 0.0060876 0.00328406 0.00216035 0.000979254 0.000830938 0.00115083 
363 0.307988 0.683311 0.00522624 0.000742626 0.0022506 0.000193947 0.000103028 6.71982e-05 5.78777e-05 5.96062e-05 
364 0.572439 0.407405 0.0132123 0.00289198 0.00170191 0.000918125 0.00060397 0.00027377 0.000232305 0.000321739 
365 0.235972 0.677005 0.0756141 0.00411946 0.00306785 0.00152277 0.00110806 0.000680818 0.000403727 0.000506166 
366 0.0984813 0.714649 0.0943236 0.0472285 0.0178112 0.0111839 0.00608888 0.00412812 0.00290894 0.00319699 
367 0.0670529 0.691841 0.106877 0.0436012 0.0424263 0.0190509 0.0112567 0.00896698 0.00363248 0.00529448 
368 0.116737 0.80996 0.0462076 0.0112854 0.00664102 0.00358261 0.00235675 0.00106828 0.000906478 0.00125546 
369 0.280862 0.702026 0.0115226 0.00264803 0.00121038 0.000696871 0.00037019 0.00024145 0.000207961 0.000214171 
370 0.760348 0.223096 0.014163 0.00116755 0.000504324 0.000290363 0.000154246 0.000100604 8.66502e-05 8.92379e-05 
371 0.179254 0.815 0.00378869 0.00092745 0.000423924 0.000244073 0.000129656 8.45659e-05 7.28364e-05 7.50116e-05 
372 0.134042 0.694768 0.111743 0.0276161 0.011259 0.00782409 0.00525519 0.00286676 0.00242294 0.00220287 
373 0.731332 0.254763 0.0119925 0.000906926 0.000413926 0.000238317 0.000126598 8.25714e-05 7.11186e-05 7.32425e-05 
374 0.135919 0.849546 0.0139197 0.000299471 0.000161792 6.20245e-05 4.17872e-05 2.09104e-05 1.67095e-05 1.2707e-05 
375 0.359693 0.584424 0.0428546 0.0106965 0.000960764 0.000552166 0.00029332 0.000191313 0.000164778 0.000169698 
376 0.125371 0.806045 0.0394518 0.0121328 0.00714034 0.00385198 0.00253395 0.0011486 0.000974634 0.00134985 
377 0.144609 0.709729 0.0729073 0.0240845 0.0141744 0.0225715 0.00503009 0.00228005 0.00193472 0.00267956 
378 0.278679 0.717288 0.00387467 7.68133e-05 4.14824e-05 1.59026e-05 1.07139e-05 5.36129e-06 4.28421e-06 3.25799e-06 
379 0.110412 0.716231 0.113157 0.0279657 0.0114015 0.00792313 0.00532171 0.00290304 0.00245361 0.00223075 
380 0.323159 0.464437 0.0395055 0.168796 0.00150255 0.000988827 0.000664163 0.000362307 0.000306217 0.000278404 
381 0.115274 0.68032 0.103591 0.0478821 0.0141087 0.0236027 0.00627486 0.00342299 0.00289306 0.00263029 
382 0.173009 0.714331 0.0566303 0.0185482 0.0224095 0.00588872 0.00387374 0.0017559 0.00148996 0.00206357 
383 0.186445 0.691208 0.0948192 0.00994739 0.00739892 0.00367257 0.00267237 0.00164197 0.000973694 0.00122075 
384 0.199429 0.755203 0.0297469 0.0140969 0.000780299 0.000299131 0.000201531 0.000100846 8.05865e-05 6.12832e-05 
385 0.255901 0.692801 0.0384829 0.00462726 0.00344607 0.00171051 0.00124467 0.000764754 0.000453501 0.00056857 
386 0.172646 0.6804 0.0860225 0.0326704 0.0118709 0.00640392 0.00421269 0.00190954 0.00162033 0.00224413 
387 0.201067 0.657287 0.0949652 0.0194417 0.0114418 0.00617245 0.00406042 0.00184053 0.00156176 0.00216301 
388 0.116043 0.668693 0.109561 0.0571213 0.0123387 0.00959374 0.0184382 0.00314184 0.00265528 0.0024141 
389 0.0813585 0.798553 0.100269 0.0106287 0.00386043 0.00208258 0.00136998 0.00062099 0.000526936 0.000729798 
390 0.403376 0.388249 0.205511 0.00104894 0.00149543 0.000128558 6.82921e-05 4.45424e-05 3.83642e-05 3.95099e-05 
391 0.0798473 0.642277 0.117602 0.0511557 0.0515717 0.0227389 0.0134409 0.0107068 0.00433729 0.00632176 
392 0.166958 0.682902 0.0991586 0.0212324 0.0124956 0.00674097 0.00443441 0.00201005 0.00170561 0.00236224 
393 0.303791 0.454041 0.233113 0.00431573 0.0032963 0.00109923 0.000141198 8.67553e-05 5.14462e-05 6.44997e-05 
394 0.0586643 0.747334 0.111935 0.0252747 0.0189504 0.0115145 0.00672949 0.0138806 0.00228969 0.00342749 
395 0.156219 0.789524 0.0489861 0.00471628 0.000306546 0.000100133 6.74615e-05 3.37579e-05 2.6976e-05 2.05143e-05 
396 0.119487 0.706502 0.0951651 0.0303138 0.0259877 0.00857434 0.00575911 0.00314165 0.00265528 0.0024141 
397 0.283275 0.621067 0.0666596 0.0134713 0.00549221 0.00381663 0.00256351 0.00139842 0.00118192 0.00107457 
398 0.219818 0.727728 0.0292524 0.00966262 0.00568662 0.00306775 0.00201805 0.000914752 0.000776206 0.00107503 
399 0.183743 0.693232 0.0814153 0.00979102 0.00729169 0.00361935 0.00263364 0.00161818 0.00141165 0.0152437 
400 0.181355 0.725066 0.0732373 0.00734817 0.00546877 0.00271451 0.00197523 0.00121363 0.000719687 0.000902295 
401 0.430212 0.566075 0.00244982 0.000598075 0.000273372 0.000157393 8.36099e-05 5.45332e-05 4.69693e-05 4.8372e-05 
402 0.148371 0.753049 0.0594424 0.0162996 0.00959258 0.00517488 0.00340419 0.00154307 0.00130936 0.00181344 
403 0.318535 0.651633 0.0175163 0.00941384 0.001194 0.00068739 0.000365154 0.000238165 0.000205131 0.000211257 
404 0.336436 0.653595 0.00702219 0.00139623 0.000638199 0.000367441 0.000195191 0.00012731 0.000109652 0.000112927 
405 0.134686 0.837066 0.0224808 0.00209937 0.00154333 0.000766058 0.000557427 0.000342497 0.000203102 0.000254635 
406 0.0925302 0.589063 0.191437 0.0509334 0.0295844 0.0183555 0.0108499 0.00864287 0.00350119 0.00510311 
407 0.100952 0.737856 0.0760659 0.0486739 0.0143264 0.00899573 0.00489758 0.00332044 0.0023398 0.00257149 
408 0.17147 0.696634 0.0795369 0.0218062 0.0128333 0.00692316 0.00455426 0.00206437 0.00175171 0.00242608 
409 0.223942 0.6872 0.0669594 0.0167612 0.00211466 0.00121743 0.000646718 0.000421811 0.000363305 0.000374154 
410 0.0906608 0.629087 0.112563 0.0630673 0.0352571 0.0217643 0.0135327 0.0238658 0.00415141 0.00605083 
411 0.134567 0.729887 0.0680832 0.0360619 0.0131898 0.00711547 0.00468076 0.00212172 0.00180037 0.00249348 
412 0.117416 0.788168 0.0788243 0.00562984 0.00419272 0.00208112 0.00151434 0.000930451 0.00055176 0.00069176 
413 0.153003 0.719008 0.0876287 0.016809 0.00989235 0.0053366 0.00351057 0.00159129 0.00135027 0.00187011 
414 0.221806 0.672782 0.0557073 0.00701996 0.0355933 0.00257487 0.0018543 0.00113933 0.000675624 0.000847052 
415 0.154939 0.703652 0.0852556 0.0233864 0.0137633 0.00742483 0.00488427 0.00221396 0.00187864 0.00260189 
416 0.0967494 0.863327 0.0297548 0.00367163 0.00273438 0.00135726 0.000987616 0.000606816 0.000359843 0.000451148 
417 0.31041 0.619137 0.0418039 0.013309 0.00542604 0.00377065 0.00253262 0.00138157 0.00116768 0.00106162 
418 0.183743 0.699424 0.0897159 0.00979102 0.00729169 0.00361935 0.00263364 0.00161818 0.000959583 0.00120306 
419 0.0967325 0.690523 0.0919994 0.0537678 0.0202773 0.0127324 0.00693196 0.00705832 0.0163248 0.00365254 
420 0.192529 0.759381 0.03594 0.00438688 0.00326706 0.00162166 0.00118001 0.000725027 0.000429943 0.000539033 
421 0.0764253 0.643216 0.126954 0.0632461 0.0350786 0.0217643 0.0128648 0.010248 0.00415141 0.00605083 
422 0.144609 0.709903 0.0876584 0.0240845 0.0141741 0.00764647 0.00503007 0.00228005 0.00193472 0.00267956 
423 0.128969 0.61825 0.117329 0.0373781 0.0280252 0.0170368 0.0228853 0.00758801 0.0174687 0.00506883 
424 0.19581 0.776193 0.0235685 0.00209819 0.000959042 0.000552166 0.00029332 0.000191313 0.000164777 0.000169698 
425 0.175462 0.78359 0.0304959 0.00377419 0.00281076 0.00139517 0.0010152 0.000623766 0.000369895 0.00046375 
426 0.152575 0.663095 0.103309 0.0415682 0.0155062 0.00973656 0.00530091 0.00359389 0.00253248 0.00278326 
427 0.229603 0.757951 0.00820298 0.00201028 0.000918872 0.000529038 0.000281034 0.0001833 0.000157876 0.000162591 
428 0.218112 0.737975 0.0288995 0.0137123 0.00053582 0.000308068 0.000163651 0.000106739 9.19338e-05 9.46793e-05 
429 0.13122 0.760818 0.0724923 0.0123858 0.00925485 0.00562336 0.00290932 0.00250554 0.00111758 0.00167389 
430 0.233779 0.729508 0.0279043 0.00417353 0.00190766 0.00109833 0.000583452 0.000380547 0.000327764 0.000337552 
431 0.11563 0.701439 0.120207 0.0357753 0.0113381 0.00609897 0.00401208 0.00181861 0.00154317 0.00213726 
432 0.0924652 0.689432 0.117391 0.0513957 0.0193828 0.0121707 0.00662613 0.00449236 0.00316561 0.00347907 
433 0.292945 0.614144 0.0611385 0.0157519 0.00890474 0.00279737 0.0018217 0.000825749 0.000700683 0.000970433 
434 0.118628 0.770179 0.0712286 0.0194276 0.00726389 0.0050478 0.00339044 0.00184952 0.00156319 0.0014212 
435 0.0911248 0.668225 0.0979189 0.0510374 0.0621942 0.0119943 0.0065301 0.00442726 0.00311973 0.00342865 
436 0.130339 0.678977 0.107599 0.0474087 0.0140216 0.00880433 0.00479337 0.00324979 0.00229001 0.00251678 
437 0.101775 0.686385 0.100975 0.0623309 0.0194556 0.011823 0.00643682 0.00436401 0.00307516 0.00337967 
438 0.194335 0.804369 0.000472937 0.000697217 5.17201e-05 2.97195e-05 1.57875e-05 1.02971e-05 8.8689e-06 9.13376e-06 
439 0.146422 0.723171 0.0773309 0.0221049 0.0130091 0.00701799 0.00461664 0.00209265 0.0017757 0.00245932 
440 0.254177 0.733071 0.00597083 0.00518337 0.000657321 0.000378451 0.00020104 0.000131125 0.000112937 0.00011631 
441 0.0736222 0.656054 0.0660018 0.018619 0.110508 0.00691675 0.0489718 0.000700565 0.0186066 0 
442 0.136318 0.712526 0.095856 0.0256896 0.0104735 0.00727822 0.00488855 0.00266675 0.0022539 0.00204918 
443 0.315735 0.658624 0.0219902 0.00172957 0.000790561 0.000455164 0.000241791 0.000157704 0.00013583 0.000139887 
444 0.124763 0.693877 0.0991352 0.0458467 0.0128675 0.00894182 0.00600593 0.00327629 0.00276907 0.00251756 
445 0.105794 0.520384 0.314783 0.0301291 0.0113623 0.00713455 0.00388429 0.00263345 0.0018557 0.00203946 
446 0.0816573 0.740844 0.0885581 0.0453884 0.0171172 0.0107481 0.00585165 0.00396728 0.0027956 0.00307243 
447 0.149146 0.740871 0.0574514 0.0183024 0.0137227 0.00833809 0.00431383 0.00371511 0.00165711 0.00248198 
448 0.103621 0.769217 0.0760413 0.017811 0.0133543 0.00811424 0.00419802 0.00361537 0.00161262 0.00241535 
449 0.17547 0.817964 0.00434954 0.000227034 0.00188379 4.24289e-05 2.85833e-05 1.43032e-05 1.14297e-05 8.69188e-06 
450 0.068438 0.679419 0.145535 0.0403625 0.0332074 0.0134336 0.00695005 0.00598545 0.00266979 0.00399874 
451 0.0699928 0.69073 0.129992 0.0301575 0.0453384 0.013739 0.00710801 0.00612148 0.00273046 0.00408962 
452 0.109427 0.737474 0.0761659 0.0326188 0.0177662 0.0107948 0.00558486 0.00480974 0.00214536 0.00321327 
453 0.261476 0.340757 0.380704 0.00829995 0.00368087 0.00198571 0.00130626 0.000592107 0.000502428 0.000695853 
454 0.0874304 0.739656 0.105077 0.0287562 0.0156677 0.00951986 0.00492523 0.00424166 0.00189197 0.00283375 
455 0.141506 0.85121 0.00447751 0.00162276 0.000498145 0.000247262 0.000179922 0.000110549 6.55556e-05 8.21892e-05 
456 0.0328296 0.768544 0.0732888 0.0431863 0.0375717 0.0154717 0.0138477 0.00587956 0.00436179 0.00501904 
457 0.0943636 0.890309 0.0146985 0.000305867 0.000165262 6.33548e-05 4.26834e-05 2.13589e-05 1.70679e-05 1.29796e-05 
458 0.185583 0.636763 0.0833135 0.0532922 0.0164744 0.00999192 0.00516946 0.00445199 0.00198579 0.00297427 
459 0.091825 0.722275 0.135837 0.023258 0.00948129 0.00658871 0.00442542 0.00241411 0.00204037 0.00185505 
460 0.129197 0.705634 0.107871 0.0266179 0.0108521 0.00754129 0.00506524 0.00276314 0.00233536 0.00212325 
461 0.119425 0.690035 0.0899191 0.0509942 0.0235308 0.0106104 0.00577663 0.00391642 0.00275976 0.00303304 
462 0.115043 0.787271 0.0547323 0.0164872 0.00672181 0.0046711 0.00313743 0.00174193 0.0088776 0.00131632 
463 0.0933237 0.649462 0.126654 0.0402097 0.0301484 0.0183185 0.00947836 0.0233123 0.00364079 0.00545282 
464 0.131804 0.685968 0.104447 0.0299578 0.025583 0.00845847 0.00568128 0.00309919 0.00261939 0.00238148 
465 0.0745404 0.580311 0.131738 0.0638165 0.0535222 0.0430692 0.0252152 0.0107061 0.00794237 0.00913915 
466 0.274061 0.710678 0.012622 0.00164251 0.000410057 0.00023609 0.000125415 8.17997e-05 7.04539e-05 7.2558e-05 
467 0.147786 0.797516 0.0309276 0.00989974 0.00582617 0.00314303 0.00206758 0.0009372 0.000795254 0.00110141 
468 0.238711 0.722132 0.0204534 0.00172859 0.000933982 0.000368683 0.0153821 0.000120717 9.64596e-05 7.33542e-05 
469 0.103957 0.773275 0.0535414 0.0316609 0.0146161 0.00906847 0.00536035 0.00426999 0.00172975 0.00252118 
470 0.179471 0.762377 0.0343823 0.00989974 0.00582617 0.00314303 0.00206758 0.0009372 0.000795254 0.00110141 
471 0.142407 0.497958 0.300465 0.0351119 0.00938854 0.00904286 0.00237334 0.0010758 0.000912862 0.0012643 
472 0.218233 0.751275 0.0227288 0.00280324 0.00208766 0.00103624 0.00075403 0.000463295 0.000274735 0.000344445 
473 0.280316 0.662839 0.0203465 0.00498655 0.00229962 0.0144152 0.0135478 0.000454791 0.000391614 0.000403309 
474 0.258334 0.667189 0.0355885 0.0329665 0.00243757 0.00140342 0.000745522 0.000486254 0.000418809 0.000431317 
475 0.0810571 0.636858 0.134535 0.0519278 0.0372046 0.0230834 0.0136445 0.0108691 0.00440301 0.00641755 
476 0.270509 0.701757 0.0184029 0.00713333 0.000904663 0.000520857 0.000276689 0.000180465 0.000155434 0.000160076 
477 0.113579 0.71411 0.102374 0.0324895 0.0132459 0.00920481 0.00618258 0.00337265 0.00285052 0.00259161 
478 0.0798473 0.657203 0.117602 0.0511527 0.0366493 0.0227388 0.0134409 0.0107068 0.00433729 0.00632176 
479 0.0786731 0.632832 0.116035 0.0649444 0.0363169 0.0368669 0.0132801 0.0105494 0.00427351 0.0062288 
480 0.0493285 0.688554 0.0979383 0.0527865 0.0442479 0.0233031 0.020857 0.00885564 0.00656961 0.00755954 
481 0.0967325 0.690523 0.0919995 0.0691523 0.0202773 0.0127324 0.00693196 0.0046997 0.00331171 0.00363965 
482 0.209065 0.679962 0.0720679 0.0107385 0.0194821 0.00339344 0.00223189 0.00101168 0.000858453 0.00118894 
483 0.254988 0.731288 0.00780901 0.00246362 0.00144987 0.000782158 0.000514527 0.000233227 0.000197903 0.000274092 
484 0.117417 0.588386 0.145271 0.0620367 0.0485472 0.0157222 0.00801929 0.00690629 0.00308052 0.00461393 
485 0.1468 0.705331 0.0740257 0.0395872 0.0143889 0.00776233 0.00510629 0.0023146 0.00196404 0.00272016 
486 0.422905 0.573384 0.00237801 0.000125485 0.00114414 2.558e-05 1.71932e-05 8.60354e-06 6.87509e-06 5.22827e-06 
487 0.0952669 0.695212 0.0906055 0.0529531 0.0199701 0.0125726 0.0219442 0.0046296 0.00326153 0.0035845 
488 0.114411 0.613876 0.117219 0.0561819 0.0267945 0.0492867 0.0081711 0.0066505 0.00296643 0.00444304 
489 0.0919308 0.655123 0.125217 0.0520525 0.031298 0.0180451 0.00933589 0.00804016 0.00358628 0.00537144 
490 0.221689 0.690137 0.0610885 0.0105468 0.0100071 0.00235599 0.00171435 0.00105334 0.000624634 0.000783124 
491 0.0947594 0.644512 0.12816 0.0408283 0.0306122 0.0186003 0.0127552 0.0205401 0.00369665 0.00553672 
492 0.104275 0.893599 0.00147051 0.000575858 4.06642e-05 1.55879e-05 1.05019e-05 5.25518e-06 4.19942e-06 3.19351e-06 
493 0.199605 0.786358 0.01092 0.00147679 0.000675018 0.00038864 0.000206452 0.000134655 0.000115978 0.000119442 
494 0.23581 0.757799 0.00604445 0.000168463 9.09185e-05 3.48545e-05 2.34822e-05 1.17505e-05 9.38987e-06 7.14067e-06 
495 0.301398 0.688075 0.00776074 0.00131047 0.000598992 0.000344868 0.0001832 0.000119489 0.000102916 0.000105989 
496 0.198265 0.788278 0.010102 0.00165561 0.000699222 0.000402575 0.000213855 0.000139483 0.000120137 0.000123724 
497 0.140642 0.717684 0.0776225 0.0343027 0.0124956 0.00674097 0.00443441 0.00201005 0.00170561 0.00236224 
498 0.173385 0.617926 0.16479 0.0244609 0.00687574 0.00477807 0.00320928 0.00175069 0.00147966 0.00134526 
499 0.155283 0.818213 0.0215918 0.00232711 0.00106366 0.000612402 0.000325319 0.000212184 0.000182753 0.000188211 
500 0.153138 0.664149 0.100149 0.0290801 0.0208094 0.012911 0.00763169 0.00607931 0.0024627 0.00358948 
501 0.0938145 0.756461 0.0704612 0.0453892 0.0133134 0.00835967 0.00455128 0.00308566 0.00217436 0.00238967 
502 0.180007 0.712312 0.0712358 0.0186429 0.00747777 0.00403396 0.00265366 0.00120286 0.00102068 0.00141362 
503 0.377837 0.617169 0.00156519 0.00125042 0.00145188 0.00071483 7.81385e-06 1.97218e-06 1.47807e-06 4.93052e-07 
504 0.207813 0.553259 0.186042 0.0269011 0.0103052 0.00979439 0.00220876 0.00148292 0.00104496 0.00114843 
505 0.149059 0.716182 0.075151 0.0248255 0.0146102 0.00788175 0.00518485 0.00235021 0.00199425 0.002762 
506 0.277548 0.692104 0.0237621 0.00366605 0.00120209 0.000692098 0.000367655 0.000239796 0.000206536 0.000212704 
507 0.330565 0.652205 0.00799391 0.001959 0.0010203 0.00549203 0.000274545 0.000178624 0.000153848 0.000158443 
508 0.142483 0.713997 0.0718554 0.0384169 0.0139657 0.00753402 0.0049561 0.00224652 0.00190627 0.00264015 
509 0.151789 0.68252 0.0892951 0.0210617 0.0383056 0.00665342 0.00437682 0.00198394 0.00168346 0.00233156 
510 0.160239 0.67366 0.12635 0.0169131 0.00959258 0.00517488 0.00340419 0.00154307 0.00130936 0.00181344 
511 0.195711 0.692752 0.061474 0.0209671 0.0198647 0.0033298 0.00242295 0.00148872 0.000882816 0.00110682 
512 0.0554943 0.635734 0.110202 0.0732526 0.0497789 0.0262159 0.0234641 0.00996259 0.00739081 0.00850449 
513 0.0592959 0.613724 0.116708 0.0628781 0.0527071 0.028691 0.038508 0.010658 0.00782557 0.00900475 
514 0.23169 0.686189 0.0492716 0.031078 0.000907629 0.00034752 0.000234131 0.00011716 9.36225e-05 7.11967e-05 
515 0.153158 0.823975 0.0182809 0.00165584 0.00123315 0.000612095 0.000445395 0.000273662 0.000162282 0.000203459 
516 0.139362 0.748277 0.103147 0.00384386 0.00225574 0.0012169 0.00080051 0.000362859 0.000307901 0.000426438 
517 0.100313 0.869905 0.023785 0.00216532 0.00161259 0.000800432 0.00058244 0.000357866 0.000212215 0.000266061 
518 0.225038 0.770969 0.00373361 0.000126342 6.82644e-05 2.61698e-05 1.76311e-05 8.82267e-06 7.0502e-06 5.36143e-06 
519 0.113762 0.864853 0.0150644 0.00228236 0.00169975 0.000843699 0.000613923 0.00037721 0.000223686 0.000280443 
520 0.0372942 0.350075 0.499558 0.0126829 0.0550508 0.0162513 0.0116931 0.00791284 0.00389998 0.00558227 
521 0.187121 0.793365 0.014857 0.00220669 0.00100865 0.000580726 0.000308492 0.000201209 0.0001733 0.000178476 
522 0.200489 0.6788 0.11602 0.00177479 0.00122714 0.00060911 0.000443223 0.000272327 0.000161491 0.000202466 
523 0.100733 0.69004 0.115182 0.0327715 0.0245653 0.0149262 0.00772228 0.0066505 0.00296643 0.00444304 
524 0.138287 0.774672 0.0644733 0.00949816 0.0054894 0.00296135 0.00194806 0.000883027 0.000749285 0.00103775 
525 0.278904 0.710863 0.00703407 0.000678383 0.000498204 0.00175718 9.48471e-05 6.18556e-05 5.32761e-05 5.48672e-05 
526 0.117021 0.705768 0.105154 0.0334741 0.0136473 0.00948374 0.00636993 0.00347486 0.0029369 0.00267014 
527 0.205484 0.771874 0.0149242 0.0036568 0.00167147 0.000962346 0.000511215 0.000333431 0.000287184 0.00029576 
528 0.224485 0.746148 0.0267033 0.00129644 0.000700486 0.000268538 0.000180919 9.05326e-05 7.23447e-05 5.50156e-05 
529 0.1029 0.736594 0.0894157 0.0259755 0.0179204 0.00943774 0.00844708 0.00358653 0.00266069 0.00306161 
530 0.126703 0.71712 0.101424 0.0276225 0.0109962 0.00613654 0.00412172 0.00224844 0.00190034 0.00172774 
531 0.314784 0.638137 0.0184223 0.0188955 0.00521205 0.000377369 0.00382052 0.00012844 0.000109652 0.000112927 
532 0.712552 0.28351 0.00346763 0.00022442 0.000101155 5.824e-05 3.09381e-05 2.01789e-05 1.738e-05 1.7899e-05 
533 0.219696 0.538074 0.0806938 0.134765 0.00686073 0.00293806 0.0021379 0.00131358 0.000795815 0.0127244 
534 0.131171 0.727523 0.0819691 0.0322192 0.0101511 0.00645286 0.00433418 0.00236433 0.0019983 0.0018168 
535 0.0983044 0.728905 0.164453 0.00423108 0.00145278 0.00100956 0.000678089 0.000369904 0.000312637 0.000284241 
536 0.0754671 0.915615 0.00862804 0.000141917 7.58213e-05 2.90668e-05 1.95829e-05 9.79934e-06 7.83066e-06 5.95495e-06 
537 0.492564 0.502494 0.00446698 0.000231414 0.000125036 4.79338e-05 3.22939e-05 1.616e-05 1.29135e-05 9.82024e-06 
538 0.191766 0.712868 0.062367 0.0077653 0.00578307 0.00287052 0.00208875 0.00128338 0.000769888 0.0124384 
539 0.285894 0.667171 0.0217909 0.00589085 0.0157684 0.00140342 0.000745522 0.000486254 0.000418809 0.000431317 
540 0.173675 0.71289 0.0878038 0.00925452 0.00689215 0.00342103 0.00248933 0.00152951 0.000907003 0.00113714 
541 0.297954 0.682395 0.0149394 0.00223242 0.00102038 0.000587479 0.000312079 0.000203548 0.000175316 0.000180551 
542 0.353537 0.635954 0.0089565 0.000755544 0.00040823 0.000156499 0.000105437 5.27607e-05 4.21612e-05 3.20621e-05 
543 0.142748 0.700355 0.110725 0.0214494 0.00874488 0.00607696 0.0040817 0.00222661 0.0018819 0.00171097 
544 0.185412 0.679695 0.0942421 0.0154072 0.00982202 0.00609401 0.00360216 0.00286943 0.00116239 0.00169423 
545 0.192629 0.69005 0.0635779 0.0227307 0.00717594 0.00351739 0.00256148 0.0156551 0.000932552 0.00116917 
546 0.136462 0.711504 0.0837487 0.036441 0.0133756 0.00721568 0.00474669 0.0021516 0.00182572 0.00252859 
547 0.151803 0.708448 0.0634557 0.0227699 0.0352008 0.00794661 0.00437682 0.00198394 0.00168346 0.00233156 
548 0.117575 0.682507 0.113228 0.0442394 0.0166839 0.010476 0.00570351 0.00386684 0.00272483 0.00299465 
549 0.0614707 0.596506 0.122046 0.0659719 0.0703325 0.0290392 0.025991 0.0110355 0.00818675 0.00942035 
550 0.0967325 0.690523 0.0919994 0.0537705 0.035655 0.0127367 0.00693195 0.0046997 0.00331171 0.00363965 
551 0.257076 0.400995 0.338962 0.00102862 0.00170549 9.44746e-05 5.00724e-05 3.26589e-05 2.8129e-05 2.8969e-05 
552 0.234199 0.659929 0.0860592 0.013207 0.00278056 0.00137975 0.00100398 0.000616873 0.000365808 0.000458625 
553 0.164341 0.646041 0.0912254 0.0396753 0.0233457 0.0139771 0.00826183 0.00658127 0.00266604 0.00388585 
554 0.0952669 0.680106 0.105322 0.0533424 0.0199701 0.0125569 0.0218069 0.00478262 0.00326153 0.0035845 
555 0.124615 0.706612 0.100833 0.0315613 0.0128675 0.00894182 0.00600593 0.00327629 0.00276907 0.00251756 
556 0.173783 0.661067 0.0892422 0.0253961 0.0218492 0.0172035 0.00472379 0.00257686 0.00217792 0.00198011 
557 0.0814278 0.671022 0.1227 0.0439389 0.0314808 0.0195321 0.0115454 0.0091969 0.00372562 0.00543023 
558 0.102736 0.691176 0.109631 0.0492243 0.0185638 0.0116564 0.00634616 0.00430254 0.00303185 0.00333207 
559 0.0908351 0.71973 0.104802 0.0294871 0.0221088 0.0134336 0.00695005 0.00598545 0.00266979 0.00399874 
560 0.107269 0.716409 0.11027 0.0306846 0.01251 0.00869343 0.0058391 0.00318528 0.00269216 0.00244763 
561 0.0412496 0.296973 0.566941 0.0140762 0.0306119 0.0179748 0.0129333 0.00875208 0.00431361 0.00617433 
562 0.0980735 0.632808 0.151132 0.0499975 0.0272574 0.016562 0.00856856 0.00737932 0.00329152 0.00492995 
563 0.205437 0.757438 0.0337904 0.00158018 0.000722241 0.000415829 0.000220895 0.000144075 0.000124092 0.000127798 
564 0.295382 0.625082 0.0567449 0.00949212 0.00558627 0.00301361 0.00198244 0.000898609 0.000762508 0.00105606 
565 0.0735756 0.725771 0.118185 0.0380237 0.0172923 0.0107289 0.00634183 0.00505182 0.00204647 0.0029828 
566 0.226559 0.763683 0.00898524 0.000366084 0.000167307 9.63263e-05 5.11702e-05 3.33749e-05 2.87457e-05 2.96042e-05 
567 0.0646637 0.456562 0.418633 0.00888882 0.0194268 0.0114071 0.00820768 0.00555421 0.00273749 0.00391833 
568 0.0919308 0.655123 0.124334 0.0396096 0.0296984 0.0180451 0.00938816 0.0229133 0.00358628 0.00537144 
569 0.171984 0.716399 0.0647456 0.0155168 0.018746 0.0049261 0.00324053 0.00146888 0.00124641 0.00172625 
570 0.184627 0.543772 0.175676 0.073158 0.0109328 0.00481167 0.00261963 0.00177605 0.00125152 0.00137545 
571 0.131503 0.721215 0.0638385 0.0477672 0.0140216 0.00880433 0.00479337 0.00324979 0.00229001 0.00251678 
572 0.0854134 0.846069 0.0444985 0.011158 0.0045491 0.00316125 0.00212331 0.00115829 0.000978966 0.000890048 
573 0.198236 0.666551 0.0921028 0.0112919 0.00729169 0.00362874 0.017117 0.0016182 0.000959583 0.00120306 
574 0.0933237 0.649898 0.126218 0.0402097 0.0303455 0.0332727 0.00947749 0.00816198 0.00364062 0.00545283 
575 0.105255 0.662694 0.145362 0.0442397 0.0166839 0.010476 0.00570351 0.00386684 0.00272483 0.00299465 
576 0.140823 0.705482 0.0960245 0.0304298 0.0114418 0.00617245 0.00406042 0.00184052 0.00156176 0.00216301 
577 0.26269 0.724318 0.00650168 0.00435639 0.00122848 0.000364788 0.000193782 0.000126391 0.00010886 0.000112111 
578 0.177579 0.757976 0.0516301 0.00462727 0.00344607 0.00171051 0.00124467 0.000764754 0.000453501 0.00056857 
579 0.230492 0.729212 0.0149869 0.0214657 0.0015833 0.000910327 0.000483582 0.000315408 0.00027166 0.000279773 
580 0.165083 0.670387 0.10221 0.0392094 0.00529608 0.00262879 0.00288691 0.0107166 0.000707951 0.000873802 
581 0.569039 0.429758 0.000637994 0.000509651 2.86863e-05 1.08202e-05 7.2898e-06 3.64784e-06 2.91499e-06 2.21675e-06 
582 0.201667 0.670738 0.0882655 0.00927391 0.0205714 0.00342105 0.00248933 0.00152951 0.000907003 0.00113714 
583 0.120468 0.689483 0.11451 0.0335322 0.0234892 0.00705787 0.00472377 0.00257686 0.00217792 0.00198011 
584 0.129128 0.852734 0.0100701 0.000745667 0.000426109 0.00666718 0.000104058 5.20711e-05 4.161e-05 3.1643e-05 
585 0.0545046 0.72521 0.0902985 0.0479608 0.0325826 0.0171595 0.0153583 0.00652097 0.00483762 0.00556657 
586 0.171242 0.677235 0.0921875 0.031866 0.0105034 0.00645286 0.00433418 0.00236433 0.0019983 0.0018168 
587 0.176651 0.8219 0.000519355 0.000902679 1.4435e-05 5.19596e-06 3.50062e-06 1.75172e-06 1.3998e-06 1.0645e-06 
588 0.0770942 0.873437 0.0397337 0.00405452 0.00238609 0.00128722 0.000846771 0.000383828 0.000325694 0.000451081 
589 0.118992 0.875426 0.00475915 0.000400306 0.00021629 8.2917e-05 5.58628e-05 2.79539e-05 2.2338e-05 1.69873e-05 
590 0.193276 0.800959 0.00192302 0.00248216 0.00128716 2.89676e-05 1.95109e-05 9.76332e-06 7.80188e-06 5.93306e-06 
591 0.278881 0.271436 0.405933 0.0161692 0.0157343 0.00481697 0.00249205 0.00214618 0.000957294 0.00143381 
592 0.0676617 0.252168 0.65145 0.0268099 0.000803722 0.000398938 0.00029029 0.000178361 0.000105769 0.000132606 
593 0.300869 0.696785 0.00186543 0.000227602 0.000104034 5.98971e-05 3.18184e-05 2.0753e-05 1.78745e-05 1.84083e-05 
594 0.0810571 0.62212 0.134121 0.0519279 0.0385514 0.0368881 0.0136445 0.0108691 0.00440301 0.00641755 
595 0.16682 0.723388 0.0851723 0.00888923 0.00662009 0.00328599 0.00239107 0.00146913 0.0008712 0.00109225 
596 0.0776248 0.587539 0.139626 0.152146 0.0179333 0.0102174 0.00556268 0.00377137 0.00265755 0.0029207 
597 0.330868 0.624679 0.0400783 0.00215342 0.000914087 0.000526283 0.000279571 0.000182345 0.000157054 0.000161744 
598 0.0757544 0.745536 0.0721568 0.0541006 0.01588 0.00997117 0.00542864 0.00440843 0.0139127 0.00285136 
599 0.0849678 0.691946 0.130539 0.0472285 0.0178112 0.0111839 0.00608888 0.00412812 0.00290894 0.00319699 
600 0.0881483 0.69913 0.116303 0.0335929 0.0251872 0.0153041 0.00791778 0.00681887 0.00304153 0.00455553 
601 0.341817 0.645606 0.00828942 0.00203156 0.000928596 0.000534637 0.000284008 0.00018524 0.000159546 0.000164311 
602 0.388458 0.60058 0.00512447 0.0048634 0.000435645 0.000216838 0.000115188 7.51294e-05 6.47088e-05 6.66412e-05 
603 0.551641 0.424141 0.0149651 0.00448528 0.000262408 0.000101157 0.0043222 3.41703e-05 2.70908e-05 2.06016e-05 
604 0.154986 0.775883 0.0442933 0.010344 0.0060876 0.00328406 0.00216035 0.000979254 0.000830938 0.00115083 
605 0.107269 0.619187 0.193603 0.0307812 0.0263023 0.00869344 0.0058391 0.00318528 0.00269215 0.00244763 
606 0.110334 0.69402 0.100682 0.0442068 0.0129613 0.0232265 0.00600603 0.00327629 0.00276907 0.00251756 
607 0.206552 0.786171 0.00671672 0.000272936 0.000147471 5.65343e-05 3.80883e-05 1.90595e-05 1.52305e-05 1.15822e-05 
608 0.0849678 0.675563 0.133418 0.0607327 0.0178112 0.0111839 0.00608888 0.00412812 0.00290894 0.00319699 
609 0.105095 0.8161 0.0468029 0.0163313 0.006159 0.00386732 0.0021055 0.00142748 0.00100589 0.0011055 
610 0.145306 0.589969 0.139851 0.0439637 0.0314808 0.0195321 0.0115454 0.0091969 0.00372562 0.00543023 
611 0.295385 0.698362 0.0058901 0.00017668 9.54223e-05 3.6581e-05 2.46454e-05 1.23326e-05 9.85501e-06 7.49439e-06 
612 0.240442 0.693732 0.0530767 0.00270481 0.00827762 0.000711594 0.000378011 0.000246551 0.000212354 0.000218696 
613 0.135325 0.669565 0.0787309 0.0590964 0.0173425 0.0108896 0.00593659 0.0171694 0.00283242 0.00311286 
614 0.0947704 0.627354 0.117602 0.0511527 0.0366493 0.0227388 0.0134409 0.0107068 0.00435598 0.0212284 
615 0.544984 0.437139 0.0156066 0.00107555 0.00049161 0.000283043 0.000150357 9.8068e-05 8.44658e-05 8.69883e-05 
616 0.107996 0.503877 0.375482 0.00456738 0.0033995 0.0016874 0.00122785 0.000754419 0.000447373 0.000560886 
617 0.167429 0.802154 0.0231154 0.00345914 0.00158112 0.000910327 0.000483582 0.000315408 0.00027166 0.000279773 
618 0.121391 0.666359 0.0968465 0.0322126 0.0463387 0.0172111 0.00726191 0.00585533 0.00261175 0.00391181 
619 0.1468 0.705331 0.074012 0.0244494 0.0295391 0.0077636 0.00510629 0.0023146 0.00196404 0.00272016 
620 0.161854 0.687615 0.0872226 0.0243363 0.00989805 0.00687832 0.0046448 0.0134844 0.00213006 0.00193659 
621 0.201072 0.6971 0.0761686 0.0092829 0.00689215 0.00342103 0.00248933 0.00152951 0.000907003 0.00113714 
622 0.162961 0.749046 0.0706692 0.00625541 0.00465858 0.00231236 0.0016826 0.00103383 0.000613067 0.000768622 
623 0.0898295 0.697507 0.101492 0.0632631 0.018829 0.011823 0.00643682 0.00436401 0.00307516 0.00337967 
624 0.229028 0.764419 0.00593593 0.000300229 0.000162218 6.21877e-05 4.18971e-05 2.09655e-05 1.67535e-05 1.27405e-05 
625 0.140641 0.730946 0.0773594 0.0213044 0.0124956 0.00674097 0.00443441 0.00201005 0.00170561 0.00236224 
626 0.149059 0.700797 0.0751506 0.0248255 0.0146102 0.00795712 0.0204921 0.00235222 0.00199425 0.002762 
627 0.450323 0.507907 0.0260201 0.00895734 0.00285869 0.00141895 0.00103251 0.000634398 0.0003762 0.000471654 
628 0.156643 0.802952 0.0243278 0.00669568 0.00394052 0.00212578 0.0013984 0.000633874 0.000537869 0.000744939 
629 0.152509 0.591105 0.149029 0.0724186 0.013735 0.00862091 0.00469351 0.00318209 0.0022423 0.00246434 
630 0.113291 0.69587 0.125765 0.0320033 0.0116977 0.00812892 0.00545994 0.00297845 0.00251734 0.00228869 
631 0.138385 0.656451 0.137124 0.0455988 0.00545409 0.0125166 0.00183577 0.00112782 0.0006688 0.000838497 
632 0.192095 0.711824 0.0677315 0.0102361 0.00762313 0.00378386 0.00275335 0.00169173 0.0010032 0.00125774 
633 0.181715 0.715526 0.0760302 0.00965114 0.00718752 0.00356764 0.00259602 0.00159506 0.000945874 0.00118587 
634 0.336118 0.427483 0.231205 0.00112029 0.00335649 0.000288704 0.000153364 0.000100029 8.61551e-05 8.8728e-05 
635 0.0547892 0.849124 0.0752278 0.00969001 0.00395054 0.00274529 0.00184393 0.00100588 0.000850154 0.000772936 
636 0.0798473 0.6484 0.126405 0.0511532 0.0366493 0.0227388 0.0134409 0.0107068 0.00433729 0.00632176 
637 0.111253 0.759559 0.0843227 0.0208423 0.00849738 0.00590497 0.00396618 0.00216359 0.00182863 0.00166254 
638 0.183615 0.714797 0.05438 0.0207087 0.0180559 0.00304556 0.00221611 0.00136164 0.000807454 0.00101233 
639 0.0911888 0.839868 0.0498868 0.0110867 0.00335418 0.0016649 0.00121148 0.000744361 0.000441408 0.000553408 
640 0.149059 0.700797 0.0751506 0.0264683 0.0280963 0.00813752 0.00518485 0.00235021 0.00199425 0.002762 
641 0.40401 0.587536 0.0056789 0.00131495 0.000601043 0.000346049 0.000183827 0.000119898 0.000103268 0.000106352 
642 0.297248 0.691021 0.00826559 0.00125107 0.000931716 0.000462472 0.000336521 0.000206767 0.000122613 0.000153724 
643 0.155559 0.694482 0.070825 0.033759 0.0200749 0.0148924 0.00429166 0.00234021 0.00197791 0.00179826 
644 0.0933237 0.649857 0.126258 0.0402097 0.0301484 0.0183185 0.00947735 0.00816198 0.00371276 0.0205322 
645 0.104906 0.707392 0.0756962 0.0572285 0.0288913 0.0105956 0.00570351 0.00386684 0.00272483 0.00299465 
646 0.0925399 0.820879 0.04821 0.0182223 0.00917725 0.00417285 0.00280277 0.00152894 0.00129223 0.00117486 
647 0.287443 0.674612 0.0288391 0.00431421 0.00197196 0.00113535 0.000603119 0.000393374 0.000338812 0.00034893 
648 0.115274 0.683475 0.130228 0.0330151 0.0134436 0.0093422 0.00627485 0.00342299 0.00289306 0.00263029 
649 0.0772943 0.78203 0.0615173 0.0254514 0.0213338 0.0112354 0.010056 0.00426968 0.00316749 0.00364478 
650 0.324139 0.670833 0.00337389 0.000783601 0.000358173 0.000206217 0.000109546 7.14496e-05 6.15394e-05 6.33772e-05 
651 0.105365 0.865635 0.0216047 0.00267028 0.00198864 0.000987094 0.000718266 0.000441321 0.000261704 0.000328107 
652 0.0603859 0.690292 0.174643 0.0260204 0.0195078 0.0118532 0.0061324 0.00528128 0.00235569 0.0035283 
653 0.427604 0.533442 0.030755 0.000758223 0.00722718 8.59321e-05 5.78942e-05 2.89704e-05 2.31503e-05 1.7605e-05 
654 0.167093 0.808176 0.0145028 0.00216948 0.00663881 0.000573218 0.000303263 0.000197798 0.000170363 0.000175451 
655 0.285825 0.688138 0.0173222 0.00412865 0.00188715 0.00108652 0.000577178 0.000376455 0.00032424 0.000333923 
656 0.172159 0.76545 0.0431146 0.00802826 0.0047247 0.00254882 0.00167669 0.000760018 0.000644907 0.000893185 
657 0.135301 0.710954 0.104589 0.0205361 0.0120211 0.00648498 0.00426601 0.00193372 0.00164084 0.00227253 
658 0.0457208 0.41896 0.172276 0.0893911 0.0467999 0.112647 0.0461519 0.0133523 0.0193853 0.0353167 
659 0.0607445 0.276903 0.629657 0.0128431 0.00795917 0.00483609 0.00250202 0.00215476 0.000961123 0.00143955 
660 0.098921 0.166311 0.0363902 0.683687 0.00421454 0.00181519 0.00693219 0.000665496 0.000556998 0.000506406 
661 0.12968 0.868883 0.000333561 0.00109685 3.94924e-06 1.43097e-06 6.88418e-07 5.53088e-07 4.14518e-07 1.38274e-07 
662 0.267591 0.681887 0.0488109 0.000832774 0.000449947 0.000172492 0.000116211 5.81523e-05 4.64696e-05 3.53385e-05 
663 0.254846 0.667225 0.0279931 0.0163878 0.0299104 0.00146514 0.000777936 0.000507395 0.000437018 0.00045007 
664 0.17388 0.790557 0.0264369 0.00329551 0.00245428 0.00121822 0.000886445 0.000544654 0.000322981 0.000404932 
665 0.243854 0.66181 0.0782585 0.00669571 0.00394052 0.00212578 0.0013984 0.000633874 0.000537869 0.000744939 
666 0.0785952 0.731341 0.0923011 0.055844 0.0164753 0.0103451 0.00563221 0.00381851 0.00269076 0.00295721 
667 0.177181 0.718274 0.071429 0.013792 0.0081168 0.00437875 0.00288047 0.00130567 0.00110792 0.00153445 
668 0.298036 0.645953 0.0164412 0.0247114 0.00182821 0.00105257 0.000566414 0.010774 0.000314178 0.000323488 
669 0.157666 0.736796 0.0598849 0.0282607 0.00730584 0.00394087 0.00259242 0.0011751 0.000997126 0.001381 
670 0.0806127 0.72928 0.089588 0.0575254 0.0168978 0.0106104 0.00577663 0.00391642 0.00275976 0.00303304 
671 0.183736 0.742975 0.0412119 0.0174517 0.00538013 0.00351645 0.00236188 0.00128843 0.00108896 0.000990053 
672 0.10878 0.726499 0.0977386 0.0311167 0.0126862 0.00881588 0.00592134 0.00323015 0.00273007 0.0024821 
673 0.219804 0.75046 0.0196053 0.00479955 0.00219381 0.00126308 0.00067097 0.000437629 0.000376929 0.000388185 
674 0.0806107 0.729274 0.0894947 0.0576268 0.0168978 0.0106103 0.00577663 0.00391642 0.00275976 0.00303304 
675 0.0958898 0.735316 0.0786837 0.0459856 0.0173425 0.0108896 0.00592865 0.00401948 0.00283238 0.00311286 
676 0.138412 0.707841 0.0983969 0.0230523 0.0135667 0.00731876 0.0048145 0.00218234 0.00185181 0.00256472 
677 0.157768 0.719376 0.0779904 0.0208423 0.00849738 0.00590497 0.00396618 0.00216359 0.00182863 0.00166254 
678 0.118821 0.701253 0.106761 0.033989 0.0138573 0.00962965 0.00646792 0.00352831 0.00298208 0.00271122 
679 0.151806 0.796726 0.0362557 0.00549252 0.00409046 0.00203037 0.00147741 0.000907757 0.000538302 0.000674887 
680 0.26444 0.720575 0.0109696 0.00144976 0.00107967 0.000535912 0.00038996 0.000239601 0.000142084 0.000178135 
681 0.117078 0.810989 0.0595412 0.00447404 0.00333196 0.00165387 0.00120345 0.000739431 0.000438485 0.000549743 
682 0.109171 0.725704 0.100453 0.0248235 0.0102765 0.0181127 0.0047239 0.00257686 0.00217792 0.00198011 
683 0.0967325 0.705907 0.0919994 0.0537678 0.0202773 0.0127324 0.00693195 0.0046997 0.00331171 0.00363965 
684 0.106504 0.708061 0.096865 0.0308586 0.0231371 0.0140584 0.00727331 0.00626384 0.00279396 0.00418473 
685 0.0823042 0.631271 0.121221 0.0529078 0.0529804 0.0234385 0.0138545 0.0110363 0.00447075 0.00651628 
686 0.186378 0.800081 0.0115366 0.000975103 0.000526861 0.000201977 0.000136076 6.80929e-05 5.44131e-05 4.13793e-05 
687 0.0933237 0.665049 0.126218 0.0402097 0.0301484 0.0183185 0.00947735 0.00816198 0.00364062 0.00545283 
688 0.112204 0.799611 0.0534607 0.0161926 0.00778415 0.00419929 0.00276242 0.00125216 0.00106251 0.00147156 
689 0.124288 0.738996 0.0916634 0.0187635 0.0110426 0.00595713 0.00391878 0.00177632 0.00150728 0.00208756 
690 0.18469 0.649965 0.0825186 0.0195088 0.0233822 0.0182363 0.00408528 0.00184052 0.00156183 0.0142111 
691 0.0578042 0.542737 0.143995 0.0507327 0.0648152 0.0511874 0.0350252 0.0316123 0.010234 0.0118572 
692 0.15745 0.769795 0.0512492 0.00776529 0.00578306 0.00287052 0.00208875 0.00128338 0.000761048 0.000954151 
693 0.0270219 0.949177 0.011095 0.00648406 0.00244532 0.00153545 0.00083595 0.000566754 0.000399371 0.000438918 
694 0.0726098 0.916444 0.00888391 0.000977024 0.000446577 0.000257115 0.000136584 8.90847e-05 7.67285e-05 7.90199e-05 
695 0.0846289 0.640471 0.145056 0.0456964 0.03274 0.0203134 0.0120072 0.00956477 0.00387465 0.00564744 
696 0.0827319 0.698517 0.102289 0.046021 0.0173427 0.024035 0.018914 0.00420424 0.00283238 0.00311286 
697 0.10877 0.669911 0.104178 0.0521628 0.019672 0.0123523 0.00675239 0.0194574 0.00321286 0.003531 
698 0.138674 0.713623 0.0916951 0.0195136 0.0146308 0.00888987 0.0045993 0.00396096 0.00176677 0.00264622 
699 0.1468 0.705331 0.0740152 0.0395973 0.0143893 0.00776233 0.00510629 0.0023146 0.00196404 0.00272016 
700 0.119721 0.631053 0.122505 0.0390271 0.0302109 0.0315364 0.0091986 0.00792192 0.00353354 0.00529245 
701 0.150695 0.769198 0.0524978 0.0161137 0.00483805 0.0024013 0.00174732 0.0010736 0.000636646 0.000798184 
702 0.397338 0.597644 0.00382841 0.000563824 0.000257716 0.000148379 7.88217e-05 5.14101e-05 4.42794e-05 4.56018e-05 
703 0.281192 0.589229 0.0887882 0.0250904 0.0065949 0.00355773 0.00234038 0.00106086 0.000900183 0.00124674 
704 0.195051 0.692185 0.0685951 0.0103935 0.00774041 0.00384208 0.00279571 0.0025696 0.0155514 0.0012771 
705 0.0946442 0.724677 0.0816397 0.0554865 0.0171173 0.0107481 0.00585165 0.00396728 0.0027956 0.00307243 
706 0.115852 0.768817 0.0778835 0.0173968 0.0070923 0.00492856 0.00331036 0.00180583 0.00152626 0.00138763 
707 0.123596 0.837827 0.0287293 0.00355572 0.00264803 0.00131439 0.000956428 0.000587653 0.00034848 0.000436901 
708 0.0596357 0.608551 0.118403 0.0638165 0.0564083 0.0401823 0.025216 0.0107061 0.00794237 0.00913915 
709 0.128232 0.764522 0.0549272 0.0274734 0.010436 0.00562982 0.00370346 0.00167872 0.00142447 0.00197286 
710 0.0989235 0.711646 0.0819431 0.0615483 0.0180552 0.0113371 0.00617229 0.00418467 0.00294878 0.00324078 
711 0.172611 0.723893 0.0513087 0.0145519 0.026031 0.00453382 0.00298243 0.00135189 0.00114714 0.00158876 
712 0.0893211 0.640244 0.145551 0.0529197 0.0288721 0.0175221 0.00906529 0.00780711 0.00348233 0.00521575 
713 0.0924649 0.68947 0.0879406 0.0513962 0.0340881 0.0121707 0.00712278 0.018686 0.00318121 0.00347907 
714 0.14744 0.71713 0.0816168 0.022412 0.0131898 0.00711547 0.00468076 0.00212172 0.00180037 0.00249348 
715 0.1058 0.706522 0.108832 0.0302642 0.0123387 0.00857434 0.00575911 0.00319105 0.0163045 0.00241411 
716 0.0967325 0.690523 0.0920318 0.0691196 0.0202777 0.0127324 0.00693195 0.0046997 0.00331171 0.00363965 
717 0.218736 0.74148 0.0203195 0.0101467 0.00880244 0.000207389 0.000139657 6.98848e-05 5.5845e-05 4.24682e-05 
718 0.205868 0.676329 0.0790572 0.0161366 0.00949666 0.00512314 0.00337015 0.00152764 0.00129626 0.0017953 
719 0.0650956 0.80453 0.0611987 0.0353021 0.0133134 0.00835967 0.00455128 0.00308566 0.00217436 0.00238967 
720 0.114079 0.294367 0.572447 0.0101725 0.00316043 0.00219624 0.00147514 0.000804703 0.000680123 0.000618349 
721 0.142574 0.714794 0.0909712 0.0215157 0.0126622 0.00683085 0.00449353 0.00203685 0.00172835 0.00239374 
722 0.270933 0.689751 0.0276944 0.00419615 0.00312501 0.00155115 0.0011287 0.000693504 0.00041125 0.000515597 
723 0.144639 0.709699 0.0729074 0.0247495 0.0225804 0.0135005 0.00503007 0.00228005 0.00193472 0.00267956 
724 0.0933237 0.649898 0.126218 0.0426108 0.0411043 0.0201131 0.00947735 0.00816198 0.00364062 0.00545283 
725 0.113579 0.699727 0.102051 0.0324902 0.0279412 0.00921469 0.00618257 0.00337265 0.00285052 0.00259161 
726 0.120451 0.616456 0.153052 0.0446257 0.0262915 0.0159082 0.00823032 0.00708803 0.00316159 0.00473535 
727 0.138412 0.735488 0.0707493 0.0230523 0.0135667 0.00731876 0.0048145 0.00218234 0.00185181 0.00256472 
728 0.0911248 0.722956 0.0866668 0.0506508 0.0191018 0.0119943 0.0065301 0.00442726 0.00311973 0.00342865 
729 0.173115 0.72555 0.0613907 0.0166357 0.00979037 0.00528158 0.00347438 0.00157488 0.00133635 0.00185083 
730 0.322411 0.611656 0.0495856 0.0103121 0.00213557 0.00148324 0.000996244 0.000543461 0.000459325 0.000417605 
731 0.171674 0.720367 0.0700252 0.0159829 0.00922006 0.00497392 0.00327199 0.00148314 0.00125851 0.00174301 
732 0.094265 0.747239 0.0693104 0.0510776 0.0149776 0.00940463 0.00512019 0.00347137 0.00244615 0.00268838 
733 0.0967325 0.690523 0.0919994 0.0537678 0.0202773 0.0127324 0.00693196 0.00470114 0.0186949 0.00363965 
734 0.0756908 0.587468 0.120197 0.0647834 0.0543043 0.0285992 0.0255972 0.0108683 0.00813099 0.0243608 
735 0.181118 0.728457 0.0636955 0.00965114 0.00718752 0.00356764 0.00259602 0.00159506 0.000945874 0.00118587 
736 0.118821 0.685868 0.106761 0.033989 0.0138573 0.00963071 0.0218515 0.00352831 0.00298208 0.00271122 
737 0.142483 0.728703 0.0718352 0.0237303 0.0139657 0.00753402 0.0049561 0.00224652 0.00190627 0.00264015 
738 0.251205 0.700551 0.0223811 0.0054852 0.00255829 0.0155312 0.000913764 0.000500147 0.000430775 0.00044364 
739 0.1058 0.733992 0.0950609 0.0302642 0.0123387 0.00857434 0.00575911 0.00314165 0.00265528 0.0024141 
740 0.259376 0.738494 0.00131867 0.000808048 1.4065e-06 9.85483e-07 6.57066e-07 3.28576e-07 3.28569e-07 0 
741 0.1239 0.657229 0.113581 0.0325679 0.0242658 0.0147442 0.00762811 0.00659905 0.0149876 0.00449696 
742 0.0947594 0.644512 0.12816 0.0408283 0.0306122 0.0190449 0.0224925 0.0103582 0.00369663 0.00553672 
743 0.163447 0.817266 0.0157642 0.00166942 0.000763064 0.000439332 0.000233381 0.000152219 0.000131106 0.000135021 
744 0.120024 0.715427 0.101633 0.0342421 0.0101825 0.00703289 0.00472376 0.00257686 0.00217792 0.00198011 
745 0.0279428 0.951395 0.0172726 0.00122388 0.000911461 0.000452418 0.000329205 0.000202272 0.000119948 0.000150383 
746 0.0192632 0.684723 0.28849 0.00288818 0.00248439 0.000818205 0.000549562 0.000299791 0.000253379 0.000230365 
747 0.114753 0.698777 0.134616 0.0200798 0.0169472 0.00563955 0.00378752 0.00206613 0.00174626 0.00158765 
748 0.0579071 0.6189 0.115976 0.0761148 0.0522798 0.0273558 0.0244843 0.0103957 0.00771215 0.00887425 
749 0.123763 0.694877 0.0991365 0.0458454 0.0128675 0.00894182 0.00600593 0.00327629 0.00276907 0.00251756 
750 0.132577 0.775265 0.0569006 0.0293679 0.00247896 0.00123022 0.000895179 0.00055002 0.000326164 0.000408922 
751 0.130688 0.690102 0.109017 0.0270705 0.0230516 0.00763329 0.00512701 0.00279683 0.00236384 0.00214914 
752 0.0784798 0.92054 7.86148e-05 0.000900053 4.55528e-07 3.48249e-07 2.32193e-07 1.16112e-07 1.16109e-07 0 
753 0.118821 0.685868 0.106761 0.033989 0.0147316 0.02414 0.00646794 0.00352831 0.00298208 0.00271122 
754 0.142659 0.821392 0.0308676 0.00296574 0.000890644 0.000442009 0.00032163 0.000197618 0.000117188 0.000146922 
755 0.0988011 0.427854 0.463201 0.00368739 0.0031943 0.00233833 0.000379382 0.000233098 0.000138228 0.000173301 
756 0.122643 0.677778 0.112559 0.0209806 0.0243287 0.0197968 0.0160489 0.00195156 0.00164084 0.00227253 
757 0.109744 0.772508 0.0733033 0.0240699 0.0072086 0.00500742 0.00336332 0.00183472 0.00155068 0.00140984 
758 0.110711 0.693643 0.127706 0.0315613 0.0128675 0.00894182 0.00600593 0.00327629 0.00276907 0.00251756 
759 0.163158 0.801881 0.019316 0.011936 0.00258885 0.0004511 0.000239632 0.000156296 0.000134617 0.000138638 
760 0.0556307 0.838794 0.0471983 0.0327185 0.0101209 0.00631761 0.00343952 0.00233191 0.00164322 0.00180593 
761 0.200799 0.714687 0.0654218 0.00689367 0.00513395 0.00254832 0.0018543 0.00113933 0.000675624 0.000847053 
762 0.154619 0.711074 0.072566 0.0379415 0.0099965 0.00539277 0.00354753 0.00160804 0.00136449 0.00188979 
763 0.326553 0.662897 0.00796894 0.00122282 0.000558932 0.000321804 0.000170948 0.000111498 9.60327e-05 9.89007e-05 
764 0.184918 0.386538 0.41149 0.00912064 0.00280602 0.00194993 0.0013097 0.000714456 0.000603848 0.000549001 
765 0.119946 0.685525 0.10164 0.0323639 0.0242658 0.0147442 0.00762811 0.0065694 0.00293025 0.00438886 
766 0.126648 0.845632 0.0215283 0.0022456 0.00166048 0.000824208 0.00059974 0.000368495 0.000218519 0.000273964 
767 0.0605393 0.60145 0.121366 0.0647835 0.0544378 0.0436165 0.0255978 0.0108683 0.0080627 0.00927762 
768 0.0405024 0.931005 0.0161928 0.00512272 0.00301481 0.00162639 0.00106989 0.000484964 0.000411512 0.000569937 
769 0.0282114 0.803513 0.155514 0.00493762 0.00416251 0.00140085 0.000932184 0.000508515 0.00042979 0.000390753 
770 0.0235421 0.93991 0.017037 0.009957 0.00375506 0.00235786 0.0012837 0.000870315 0.00061328 0.000674009 
771 0.259578 0.734864 0.00475754 0.000389376 0.000210385 8.0653e-05 5.43376e-05 2.71907e-05 2.17281e-05 1.65235e-05 
772 0.289088 0.584748 0.103814 0.00474033 0.00219802 0.0135619 0.000662686 0.000432226 0.000372275 0.000383393 
773 0.151803 0.617657 0.180137 0.0210416 0.0123333 0.00665342 0.00437682 0.00198394 0.00168346 0.00233156 
774 0.154928 0.662801 0.0928862 0.0410748 0.0222588 0.0152019 0.00447251 0.00243979 0.00206208 0.00187478 
775 0.135374 0.812511 0.0298478 0.0092739 0.00545785 0.00294433 0.00193687 0.000877952 0.000744979 0.00103178 
776 0.129296 0.688079 0.092548 0.0301286 0.037979 0.00837158 0.00560553 0.00305787 0.00258447 0.00234972 
777 0.137022 0.65999 0.118807 0.0534155 0.0120921 0.00759273 0.00413373 0.00280258 0.00197487 0.00217043 
778 0.1468 0.690267 0.0890761 0.0244498 0.02954 0.00776233 0.00510629 0.0023146 0.00196404 0.00272016 
779 0.289543 0.632704 0.0673562 0.0049297 0.00225006 0.00129547 0.000688174 0.00044885 0.000386593 0.000398139 
780 0.0597356 0.608451 0.118403 0.0638165 0.0534938 0.0290496 0.0351889 0.0147805 0.00794237 0.00913915 
781 0.111532 0.798485 0.0560746 0.0158488 0.0063881 0.0044392 0.00298167 0.00162653 0.00137472 0.00124985 
782 0.0757859 0.767902 0.0737008 0.0473074 0.0138778 0.00871166 0.00474292 0.00321559 0.00226591 0.00249028 
783 0.0614707 0.596506 0.122046 0.0671306 0.0691739 0.0290392 0.025991 0.0110355 0.00818675 0.00942035 
784 0.118821 0.685868 0.106761 0.0493518 0.0138791 0.00962965 0.00646792 0.00352831 0.00298208 0.00271122 
785 0.25376 0.670362 0.0333368 0.039232 0.00136323 0.000783305 0.000416105 0.000271398 0.000233754 0.000240735 
786 0.125757 0.768638 0.0668617 0.0165777 0.00931045 0.00502268 0.00330407 0.00149768 0.00127085 0.0017601 
787 0.213558 0.717639 0.0484652 0.00734326 0.00546877 0.00271451 0.00197523 0.00121363 0.000719687 0.000902295 
788 0.134878 0.564955 0.121087 0.0584587 0.060841 0.0207568 0.018565 0.00788249 0.00584768 0.00672882 
789 0.0898231 0.684048 0.0997231 0.0499722 0.0473554 0.011823 0.00643682 0.00436401 0.00307516 0.00337967 
790 0.113579 0.699727 0.102053 0.0471933 0.0132459 0.00920481 0.00618258 0.00337265 0.00285052 0.00259161 
791 0.0898804 0.655878 0.14211 0.0499378 0.018829 0.011823 0.00644671 0.0186398 0.00307521 0.00337967 
792 0.21631 0.668494 0.0799337 0.0180651 0.00675911 0.00424414 0.00231065 0.00156657 0.0011039 0.00121322 
793 0.0904048 0.629343 0.114184 0.0759102 0.0350787 0.0217643 0.0128648 0.010248 0.00415141 0.00605083 
794 0.147075 0.774121 0.0586851 0.0072643 0.00540996 0.00268532 0.00195399 0.00120058 0.000711948 0.000892593 
795 0.12665 0.678741 0.131199 0.0294573 0.0120096 0.0083457 0.00560553 0.00305787 0.00258447 0.00234972 
796 0.129326 0.740535 0.0651445 0.0215608 0.0259497 0.00683135 0.00449353 0.00203685 0.00172835 0.00239374 
797 0.0933237 0.634912 0.141204 0.0553612 0.0301484 0.0183185 0.00947735 0.00816198 0.00364062 0.00545283 
798 0.159535 0.694803 0.0729073 0.0240845 0.0141741 0.00764647 0.00503007 0.00228005 0.00193475 0.0176049 
799 0.200989 0.717861 0.0571626 0.00866128 0.00645034 0.00320173 0.00232976 0.00143146 0.000848862 0.00106425 
800 0.162348 0.702054 0.0680189 0.0361778 0.0131898 0.00711547 0.00468076 0.00212172 0.00180037 0.00249348 
801 0.223617 0.727366 0.0409865 0.00289975 0.00215934 0.00107182 0.00077992 0.000479202 0.000284168 0.000356271 
802 0.389482 0.598808 0.00771782 0.00189145 0.000864555 0.000497765 0.000264422 0.000172464 0.000148543 0.000152979 
803 0.153998 0.779373 0.0469335 0.00711137 0.00529607 0.00262879 0.00191286 0.00117531 0.00069696 0.000873802 
804 0.285351 0.649314 0.0468361 0.00805677 0.00712982 0.0011949 0.00086948 0.00053423 0.0003168 0.000397183 
805 0.0772337 0.764806 0.110403 0.0220929 0.00900722 0.00625927 0.00420415 0.0022934 0.00193835 0.00176229 
806 0.140418 0.718142 0.0852868 0.0233864 0.0137633 0.00742483 0.00488427 0.00221396 0.00187864 0.00260189 
807 0.0400364 0.330844 0.537144 0.0135908 0.0297116 0.0174462 0.0125529 0.00849467 0.00418674 0.00599274 
808 0.110334 0.708306 0.11342 0.0315613 0.0128675 0.00894182 0.00600593 0.00327629 0.00276907 0.00251756 
809 0.104109 0.684058 0.0997131 0.0642127 0.018829 0.011823 0.00643682 0.00436401 0.00307516 0.00337967 
810 0.144609 0.679922 0.0877887 0.0313265 0.0367498 0.00767956 0.00503007 0.00228005 0.00193472 0.00267956 
811 0.0680949 0.772415 0.0976425 0.0350986 0.00753455 0.0131836 0.00252595 0.00134117 0.00113354 0.00103058 
812 0.181445 0.686084 0.078292 0.0178067 0.00905151 0.0189252 0.0035998 0.00183472 0.00155068 0.00140984 
813 0.120849 0.737963 0.0921592 0.0227762 0.0092858 0.00645286 0.00433418 0.00236433 0.0019983 0.0018168 
814 0.111933 0.689586 0.100625 0.0464577 0.0130539 0.00926418 0.0203929 0.00332378 0.00280921 0.00255405 
815 0.152059 0.724962 0.0793483 0.0202687 0.00826351 0.00574245 0.00385702 0.00210404 0.0017783 0.00161678 
816 0.10877 0.684836 0.104173 0.0521677 0.019672 0.0123523 0.00672503 0.00455941 0.00321285 0.003531 
817 0.135679 0.621572 0.137674 0.0445489 0.0242658 0.0147442 0.00762811 0.0065694 0.00293025 0.00438886 
818 0.245978 0.6749 0.0557335 0.00844475 0.00628908 0.00312169 0.00227152 0.00139568 0.00082764 0.00103764 
819 0.118815 0.68991 0.107561 0.0526594 0.0109844 0.00763326 0.00512701 0.00279683 0.00236384 0.00214914 
820 0.107171 0.704176 0.0879406 0.0513957 0.0193828 0.0121707 0.00662613 0.00449236 0.00316561 0.00347907 
821 0.0614707 0.596506 0.122046 0.0657801 0.0551397 0.0290605 0.0413543 0.0110355 0.00818675 0.00942035 
822 0.110919 0.784477 0.0708759 0.0156687 0.0063881 0.0044392 0.00298167 0.00162653 0.00137472 0.00124985 
823 0.0952669 0.681324 0.11964 0.0529574 0.0199701 0.0125395 0.00682692 0.00462849 0.00326153 0.0035845 
824 0.090579 0.673592 0.123814 0.0390271 0.0292617 0.0177797 0.0091986 0.00792192 0.00353354 0.00529245 
825 0.152899 0.718097 0.0886797 0.00706933 0.0149915 0.011283 0.00426287 0.00116306 0.0006897 0.0008647 
826 0.190805 0.787679 0.0171435 0.00157883 0.00117553 0.000583493 0.000424582 0.000260874 0.000154699 0.000193951 
827 0.19131 0.721941 0.0796534 0.00564054 0.000598993 0.000344868 0.0001832 0.000119489 0.000102916 0.000105989 
829 0.100304 0.721351 0.116576 0.0286988 0.0116977 0.00812892 0.00545994 0.00297845 0.00251734 0.00228869 
830 0.124659 0.696337 0.0924007 0.0538948 0.01161 0.00802471 0.00538994 0.00294026 0.00248507 0.00225935 
831 0.22782 0.697813 0.0533157 0.00446783 0.0136655 0.00117496 0.000624158 0.000407096 0.000350631 0.000361102 
832 0.113761 0.680325 0.0969079 0.058871 0.0218642 0.0114945 0.00625802 0.00424279 0.00298974 0.00328579 
833 0.169079 0.82241 0.00692221 0.000752898 0.000344127 0.00019813 0.00010525 6.86476e-05 5.9126e-05 6.08918e-05 
834 0.205263 0.764049 0.0232568 0.00355438 0.0015955 0.000918603 0.000487978 0.000318275 0.00027413 0.000282316 
835 0.251564 0.692566 0.0400257 0.0121032 0.00153952 0.000886371 0.000470856 0.000307108 0.000264511 0.000272411 
836 0.201148 0.691051 0.0655801 0.009935 0.00739892 0.00367257 0.00267237 0.00177982 0.0155417 0.00122075 
837 0.261095 0.649312 0.0753386 0.0108974 0.00138193 0.00079564 0.000422658 0.000275672 0.000237435 0.000244526 
838 0.148456 0.705177 0.0802469 0.0347186 0.0131898 0.00711547 0.00468076 0.00212172 0.00180037 0.00249348 
839 0.134655 0.696397 0.0881491 0.0285406 0.0104582 0.0185837 0.00483237 0.0026361 0.00227322 0.0134746 
840 0.189228 0.688337 0.0944109 0.0101816 0.00750935 0.00372739 0.00271226 0.00166648 0.000988227 0.00123897 
841 0.105285 0.630768 0.137226 0.0390271 0.0292714 0.0324758 0.00919863 0.00792192 0.00353354 0.00529245 
842 0.0947594 0.644512 0.12816 0.0408283 0.0307112 0.032908 0.0106011 0.00828755 0.00369663 0.00553672 
843 0.137603 0.820355 0.0353121 0.00243014 0.00180981 0.000898327 0.000653674 0.000401633 0.00023817 0.000298601 
844 0.193135 0.697267 0.084979 0.00888921 0.00662009 0.00328599 0.00239107 0.00146913 0.0008712 0.00109225 
845 0.305042 0.647158 0.0368338 0.00397512 0.00294226 0.00146044 0.0010627 0.000652948 0.0003872 0.000485445 
846 0.107171 0.68947 0.0879406 0.0514029 0.0340812 0.0121709 0.00662613 0.00449236 0.00316561 0.00347907 
847 0.346605 0.599877 0.0423807 0.00402131 0.0029948 0.00148652 0.00108167 0.000664608 0.000394114 0.000494114 
848 0.11331 0.710956 0.129082 0.0221667 0.00866079 0.00601853 0.00404245 0.0022052 0.0018638 0.00169451 
849 0.174813 0.679582 0.0831187 0.0471598 0.00645036 0.00320173 0.00232976 0.00143146 0.000848862 0.00106425 
850 0.108472 0.796556 0.0562849 0.0128068 0.00762987 0.00979699 0.00478738 0.00121241 0.00102878 0.00142484 
851 0.235752 0.718845 0.0351228 0.00371198 0.00276443 0.00137217 0.000998469 0.000613484 0.000363798 0.000456105 
852 0.164501 0.769281 0.0542247 0.00433064 0.00322517 0.00160087 0.00116488 0.000715731 0.000424431 0.000532123 
853 0.394011 0.586914 0.00955339 0.00727717 0.000923923 0.000531823 0.000282514 0.000184265 0.000158707 0.000163446 
854 0.129186 0.700808 0.105129 0.0347318 0.0126622 0.00683085 0.00449353 0.00203685 0.00172835 0.00239374 
855 0.100836 0.6323 0.159582 0.0373781 0.0280253 0.0170285 0.00880993 0.00758719 0.00338424 0.00506882 
856 0.146037 0.731946 0.0610844 0.0201707 0.0118708 0.00690436 0.0162122 0.00190954 0.00162033 0.00224413 
857 0.0925109 0.72753 0.10302 0.0268065 0.0200989 0.0122123 0.00631823 0.00544132 0.00242708 0.00363522 
858 0.192341 0.719791 0.0482373 0.0135402 0.0154299 0.00416515 0.00273996 0.00124198 0.00105387 0.0014596 
859 0.0605393 0.617771 0.120197 0.0647835 0.0543043 0.0285992 0.0255972 0.0108683 0.00806271 0.00927762 
860 0.0952817 0.710349 0.0906055 0.0529531 0.0199701 0.0125395 0.00682692 0.00462849 0.00326153 0.0035845 
861 0.182378 0.709256 0.070085 0.00900774 0.00707371 0.0162481 0.0024726 0.00148872 0.000882816 0.00110682 
862 0.0905792 0.673566 0.12384 0.0390271 0.0292617 0.0177797 0.0091986 0.00792192 0.00353354 0.00529245 
863 0.0561056 0.516403 0.366175 0.00906053 0.0198077 0.0116308 0.00836862 0.00566311 0.00279116 0.00399516 
864 0.252574 0.67535 0.0646415 0.00352289 0.00161013 0.000927031 0.000492455 0.000321195 0.000276645 0.000284906 
865 0.0952797 0.709916 0.09104 0.0529531 0.0199701 0.0125395 0.00682693 0.0046285 0.00326153 0.0035845 
866 0.0905789 0.631184 0.151517 0.03903 0.0439646 0.0177798 0.0091986 0.00792192 0.00353354 0.00529245 
867 0.202909 0.78832 0.00747563 0.000630316 0.000340568 0.00013056 8.79608e-05 4.40159e-05 3.51731e-05 2.67479e-05 
868 0.130878 0.676792 0.0968564 0.0336003 0.0240736 0.0149363 0.00882882 0.00703292 0.002849 0.00415253 
869 0.221098 0.665928 0.0930692 0.00718703 0.00535241 0.00265675 0.00193321 0.00118781 0.000704374 0.000883097 
870 0.149059 0.703794 0.0875379 0.0248259 0.0146102 0.00788175 0.00518485 0.00235021 0.00199425 0.002762 
871 0.0952669 0.681424 0.119392 0.0531056 0.0199701 0.0125395 0.00682693 0.0046285 0.00326153 0.0035845 
872 0.232117 0.744923 0.0195618 0.00165344 0.000893374 0.000342483 0.000230738 0.000115462 9.22657e-05 7.01649e-05 
873 0.179263 0.752675 0.0479437 0.0072643 0.00540996 0.00268532 0.00195399 0.00120058 0.000711948 0.000892593 
874 0.116145 0.651341 0.105608 0.0815526 0.0178459 0.0111839 0.00608888 0.00412812 0.00290894 0.00319699 
875 0.228659 0.758357 0.00871869 0.00202086 0.000923708 0.000531823 0.000282514 0.000184265 0.000158707 0.000163446 
876 0.0765508 0.897179 0.025313 0.000465664 0.000251603 9.64544e-05 6.49833e-05 3.25178e-05 2.5985e-05 1.97607e-05 
877 0.0971158 0.865292 0.024113 0.00320197 0.0070267 0.00117246 0.000853152 0.000524198 0.000310851 0.000389724 
878 0.093845 0.699642 0.0893718 0.0521876 0.0345726 0.0123523 0.00672503 0.00455941 0.00321285 0.003531 
879 0.111763 0.674041 0.159491 0.0254355 0.0103531 0.00719456 0.00483236 0.0026361 0.00222799 0.00202563 
880 0.0952669 0.680101 0.105716 0.0529532 0.0199721 0.0276317 0.0068843 0.0046285 0.00326153 0.0035845 
881 0.115274 0.695245 0.105542 0.0459311 0.0134436 0.0093422 0.00627485 0.00342299 0.00289306 0.00263029 
882 0.36115 0.624156 0.00768072 0.000648222 0.000379419 0.00578691 9.04597e-05 4.52663e-05 3.61724e-05 2.75078e-05 
883 0.237404 0.742543 0.0170857 0.00144414 0.000780288 0.000299131 0.00020153 0.000100846 8.05865e-05 6.12832e-05 
884 0.0861317 0.654862 0.127733 0.0767546 0.0265887 0.0113831 0.00617229 0.00418467 0.00294878 0.00324078 
885 0.261488 0.685758 0.0318098 0.00872248 0.00513333 0.00276926 0.0018217 0.000825749 0.000700683 0.000970434 
886 0.0908519 0.607452 0.11599 0.0555402 0.059319 0.0247279 0.0219405 0.00931567 0.00691089 0.00795225 
887 0.142483 0.684586 0.0870048 0.0380093 0.0286344 0.00753403 0.0049561 0.00224652 0.00190627 0.00264015 
888 0.120695 0.686598 0.13164 0.0350556 0.0102324 0.00641556 0.00349285 0.00236807 0.00166869 0.00183393 
889 0.0967325 0.690523 0.0919994 0.0537678 0.0202773 0.0127324 0.00693196 0.0046997 0.00331363 0.0190223 
890 0.506564 0.344165 0.0177224 0.128604 0.00051334 0.00212849 0.000108454 7.07278e-05 6.09177e-05 6.2737e-05 
891 0.231824 0.735872 0.029445 0.00139131 0.000751741 0.000288187 0.000194157 9.7157e-05 7.76382e-05 5.90412e-05 
892 0.112964 0.884411 0.00107266 0.00153428 1.13108e-05 2.95728e-06 1.42202e-06 1.14247e-06 8.5624e-07 2.85622e-07 
893 0.186696 0.691495 0.0942943 0.009935 0.00739892 0.00367257 0.00267237 0.00164197 0.000973694 0.00122075 
894 0.0810572 0.636857 0.134536 0.0519277 0.0372046 0.0230834 0.0136445 0.0108691 0.00440301 0.00641755 
895 0.158567 0.697499 0.095502 0.0201712 0.0118708 0.00640392 0.00421269 0.00190954 0.00162033 0.00224413 
896 0.313107 0.623251 0.0412119 0.00527819 0.00393762 0.00975658 0.00141973 0.000872298 0.000517275 0.000648525 
897 0.113579 0.699727 0.102051 0.032507 0.0258185 0.0113207 0.00618258 0.00337265 0.00285052 0.00259161 
898 0.240382 0.751786 0.00457592 0.00266441 0.000243437 0.000140147 7.44488e-05 4.8558e-05 4.18228e-05 4.30719e-05 
899 0.184869 0.720787 0.0518755 0.0226349 0.00833174 0.00449398 0.00295627 0.00134003 0.00113707 0.00157483 
900 0.0723095 0.666783 0.126098 0.0495249 0.0331825 0.0205879 0.0121695 0.00969403 0.00392701 0.00572376 
901 0.423987 0.261817 0.305656 0.00244519 0.00502277 0.000431859 0.000229391 0.000149617 0.000128864 0.000132713 
902 0.161726 0.727185 0.051319 0.0364624 0.00979037 0.00528158 0.00347438 0.00157488 0.00133635 0.00185083 
903 0.113273 0.720577 0.114296 0.0199035 0.00811461 0.00563968 0.0127951 0.00206688 0.00174626 0.00158765 
904 0.152697 0.665473 0.112193 0.037338 0.0135667 0.00731876 0.0048145 0.00218234 0.00185181 0.00256472 
905 0.0545011 0.568279 0.150639 0.0478337 0.0611114 0.0339768 0.0330238 0.0298059 0.00964916 0.0111796 
906 0.0582852 0.389682 0.474819 0.0114096 0.0249431 0.0146462 0.0105383 0.00713133 0.0035148 0.00503094 
907 0.143201 0.711298 0.0795007 0.0308865 0.00891827 0.016098 0.00416257 0.0022707 0.00191916 0.00174485 
908 0.0894311 0.606827 0.138287 0.0483977 0.0364974 0.0477115 0.0126862 0.0101036 0.00409294 0.00596561 
909 0.182688 0.738725 0.0479754 0.0141091 0.00693187 0.00373951 0.00245996 0.00111506 0.000946178 0.00131044 
910 0.0933237 0.649898 0.141369 0.0402097 0.0301484 0.0183185 0.00947735 0.00816198 0.00364062 0.00545283 
911 0.226639 0.707738 0.0212328 0.0391846 0.00214514 0.00123227 0.000654605 0.000426955 0.000367735 0.000378717 
912 0.101065 0.630602 0.16115 0.0662851 0.0160735 0.0100928 0.00549484 0.00372537 0.00262514 0.00288509 
913 0.342451 0.56798 0.0508773 0.0197452 0.00744648 0.00467575 0.00254563 0.00172588 0.00121617 0.00133659 
914 0.207247 0.681697 0.0675558 0.0102436 0.0227671 0.00378386 0.00275335 0.00169173 0.0010032 0.00125774 
915 0.0967325 0.690523 0.0919994 0.0537678 0.0202773 0.0127324 0.00693196 0.00475226 0.0186438 0.00363965 
916 0.183743 0.681182 0.0789736 0.0387618 0.00730601 0.00361935 0.00263364 0.00161818 0.000959583 0.00120306 
