recueillis taken 1.89288e-05
dressait end 1.81602e-06
moment turn 3.02385e-08
évidé cut 0.000224655
évidé opening 1.42338e-05
fermais closed 5.91814e-05
l' bursting 1.02966e-09
par fifty 2.85337e-09
s' clung 1.69775e-08
poussai let 1.20867e-05
nous numbers 5.40955e-09
reconnaître tell 1.67175e-06
enfoncés core 2.68144e-06
du daytime 1.61514e-09
? men-- 5.48445e-10
laisse enjoy 5.70489e-07
laisse give 2.35891e-06
terminée over 3.61433e-06
avec moves 1.91034e-09
gagnant reaching 8.56486e-06
dont issue 1.26045e-08
celui creature 1.10514e-07
ovale edges 2.41838e-06
ovale fleshy 3.70348e-06
sur promontory 2.18226e-09
supérieur than 3.08751e-06
supérieur better 1.36064e-06
notion sense 4.76109e-05
notion lost 5.15059e-05
plus side 2.58682e-08
quittait left 1.94115e-05
que asphyxiation 2.01661e-09
faut worth 3.1931e-06
m' startled 1.92938e-08
- why 1.2974e-08
elle die 7.17593e-09
. picks 1.14029e-08
levèrent up 3.52657e-05
levèrent stood 4.55338e-06
est-il we 2.18901e-06
tombe need 1.01229e-06
avant n't 2.87025e-06
glace landslides 4.9811e-08
ils animals 1.40119e-08
déterminer whether 1.36612e-06
déterminer tell 0.000556659
déterminer we 0.000713037
déterminer disturbed 3.45898e-05
celui above 2.75659e-06
celui degree 5.44797e-07
celui density 1.73946e-08
celui maximum 1.4323e-07
celui thanks 1.03923e-07
libres open 2.63897e-06
prisonniers imprisoned 1.19345e-06
comme flung 3.14546e-09
plus just 2.19428e-08
que bering 5.97394e-10
milieu with 4.6176e-06
milieu in 0.0137431
milieu fell 1.90193e-05
delà rocks 4.95327e-07
une fish 3.00663e-09
accomplir carry 1.47836e-06
évidemment carry 2.83613e-07
nous hustling 2.61105e-09
bras accurately 2.37749e-08
mysis longlegs 1.50651e-05
alors forced 2.2367e-08
parfaite perfectly 1.05661e-06
une lay 3.55197e-09
gardait undulations 8.49339e-07
» shore 1.44866e-08
instants little 1.01262e-06
faits deeds 2.469e-06
flottantes fluid 2.30793e-06
m' climbed 2.59203e-07
rire smiling 2.04893e-07
comme became 6.87141e-09
montra made 1.37346e-06
savais estimated 1.9962e-07
ouvert mouth 4.19837e-07
juste put 7.71659e-07
juste also 1.17329e-06
monsieur so 2.56883e-07
monsieur says 6.77487e-07
suivit went 6.06406e-06
éclairés lit 2.38537e-05
qui opposite 3.3019e-09
oeuvre deed 5.68004e-07
jetées built 3.44711e-06
supérieure higher 7.39252e-05
redescendra down 0.000111334
redescendra back 0.000111627
uni level 2.9481e-05
laissai heavy 2.07326e-06
heure for 1.50927e-06
dangereux and 6.45581e-05
curieux really 4.23267e-07
puis how 3.56909e-07
rugueuses roughness 5.41598e-06
magiques effects 8.88482e-06
ouvrirent kept 2.06657e-06
fermera hopelessly 7.55719e-06
interrompus dreams 4.42353e-05
allant down 2.53739e-05
allant up 2.31858e-05
allant walking 1.47477e-05
apparaître saw 2.42789e-06
demi centigrade 1.79534e-07
d' skillful 7.94625e-09
possible n't 6.65516e-07
gosier throat 0.000407015
sont birds 1.54978e-08
sont 's 5.33706e-07
sont there 3.23608e-07
se head 1.49716e-08
ou fruit 1.00722e-08
préparez ready 1.80907e-05
aloyau eat 3.43248e-05
levées been 0.000429165
levées strait 3.78054e-05
cénotaphe NULL 0.00957478
voyaient did 2.22323e-05
demi 4,500,000 2.39115e-08
vergue pole 2.85279e-05
fus zoophyte 1.03726e-07
qu' put 1.03909e-08
mes objection 9.37559e-09
vitre glass 1.53383e-06
qui we 7.94686e-08
marchons simply 6.4119e-06
formait making 5.11549e-06
permis boat 2.16414e-06
est boat 1.5438e-08
m' boat 1.26666e-07
alors boat 4.34068e-08
ceci led 2.41017e-06
aux between 4.07729e-08
ceux latter 4.64475e-08
forcé to 7.77246e-05
qui heading 1.99553e-09
interrompu collector 8.62567e-07
retiré someone 9.56385e-07
ai waited 9.62408e-09
aggraver make 5.72951e-05
vainement exhausting 6.36587e-07
or fluently 2.70963e-08
mais fluently 2.63972e-09
la fluently 1.34762e-09
pour fluently 1.38713e-09
point familiar 3.05561e-08
qui caledonia 7.41332e-10
qui hospitable 1.72041e-09
souleva plates 1.19556e-06
souleva steel 1.39933e-05
souleva aside 3.7988e-05
souleva roughly 2.39922e-05
souleva pushed 3.14648e-05
souleva fastenings 1.26617e-05
souleva there 4.72508e-05
pénétrer getting 4.19816e-07
nettes straight 5.06345e-06
compris did 2.38467e-06
maintint racers 1.52991e-06
maintint up 2.30777e-05
ordre once 1.86028e-07
tremblotement trembling 3.54554e-05
pouvaient were 1.56448e-06
travers into 2.4989e-06
regards peering 2.58224e-07
pas undeniable 3.26245e-09
ça just 5.42922e-06
pas have 8.45628e-08
sur recorded 6.5414e-10
cafés coffee 4.01304e-05
entreprit marked 1.90331e-05
tâche path 8.16289e-07
êtes can 1.6925e-07
accablé smote 0.000233363
accablé chastisements 9.11785e-06
accablé _ 0.000121372
accablé valley 1.35163e-05
accablé forced 1.04672e-05
accablé was 0.000414918
accablé : 0.000230277
accablé me 0.000113734
accablé thick 0.00209883
accablé came 0.000354929
accablé disasters 2.62279e-05
accablé NULL 0.114963
bien _ 1.53646e-07
- ask 5.56763e-09
s' him!"--(to 1.15383e-09
hommes person 5.18076e-08
yeux salt 2.50699e-08
triste dark 3.52275e-07
vie dead 1.1514e-06
sans dead 2.39001e-08
voir nothing 1.15487e-06
t where 2.64763e-07
quant see 1.43496e-06
vivant gentleman 5.22925e-07
demeuré once 3.30715e-06
côté wandered 7.25831e-08
du wandered 5.77377e-09
jugera judge 6.76299e-06
répété again 1.11109e-05
de lividly 2.01981e-10
pas terror 2.81795e-08
figure terror 1.3105e-07
dits spoken 7.54885e-06
je defective 2.70983e-10
marche am 8.11338e-07
ou determined 1.5603e-08
partir favour 3.99194e-07
étant stooping 2.28114e-07
malades districts 1.23357e-05
malades different 8.97274e-05
mal thousand 1.51513e-07
écriai opinion 1.068e-06
encore quite 2.66221e-08
nature impressed 9.93165e-08
cessa lifted 1.46538e-06
progresser gratification 0.000495642
ce reverenced 3.28167e-10
connus of 0.000245955
plus succour 2.52245e-09
quelquefois sit 2.2697e-07
pas looks 4.11145e-09
pour retired 1.86259e-09
j' intervened 7.27267e-09
conductrice near 4.05804e-05
conductrice drew 2.01145e-05
direction it 5.65946e-05
direction towards 5.64856e-07
me sank 2.08348e-08
j' like 7.06782e-08
j' something 4.07981e-08
bien refreshment 3.99937e-09
noirs high 5.27238e-07
voir die 3.56556e-08
meilleure sympathy 4.36235e-07
une frosty 2.59506e-10
mois result 1.05717e-05
savoir facts 4.70346e-08
auras you 0.000191831
bruits bottomless 2.68072e-05
les bottomless 3.35793e-10
entendre bottomless 1.94106e-06
même bottomless 5.62546e-09
fond bottomless 1.26415e-08
. sounds 7.17441e-10
entendre -- 7.4641e-06
fin rest 5.16177e-07
continuel interest 2.7021e-05
sépare part 5.37266e-06
murmurai murmured 7.84781e-05
adresser either 8.92923e-07
adresser exchange 2.55477e-06
lorsque at 9.91303e-05
soulevant up 3.83014e-05
soulevant lifted 8.67083e-05
dessus round 1.70816e-07
robe stuff 1.43691e-07
; strain 1.61881e-08
vous sincerely 7.72524e-10
soyez -- 9.14937e-07
soyez own 4.81304e-07
; said-- 7.22147e-10
douceur seriously 4.2885e-06
me attached 1.51206e-08
» shrubbery 9.00076e-10
plus happiness 4.76959e-09
je take 7.53124e-09
connaissance collected 3.06807e-07
seule working 5.29355e-08
crois perhaps 2.23933e-07
ai intention 8.51013e-09
elle smile 6.87095e-09
elle abrupt 3.57606e-09
ne owed 4.17707e-09
est suicide 1.73641e-09
est committed 2.36813e-09
croit committed 8.482e-07
était frightful 2.46854e-09
être baffle 1.05453e-08
dit act 3.9066e-09
en pointed 2.31735e-09
voiture wheels 1.51761e-07
; passage 2.74257e-08
de run 1.49115e-09
et sickened 2.29948e-10
j' heard 2.84365e-08
moi lift 8.5389e-09
elles breathless 1.43958e-07
recevoir no 0.00117327
recevoir 'll 9.41285e-05
recevoir she 0.000317899
recevoir that 0.000341464
boucles incredulity 1.96159e-06
ce matter 3.27839e-09
approuvez do 8.56735e-05
croyait truly 4.32791e-07
comprend better 1.07064e-06
saisis overheard 1.41551e-06
services service 1.86443e-06
une fine 2.68863e-09
regards look 8.43538e-07
dit was 2.31104e-07
avait strange 4.62842e-09
ce is 9.48072e-08
parents regard 3.44069e-06
attitude countenance 2.92125e-06
avec ample 1.2999e-08
avec rich 4.40753e-09
avec hung 4.97006e-09
frère _ 6.87307e-07
quelle and 0.00586563
quelle " 0.000319877
quelle saw 7.20905e-07
d' years 3.64697e-09
croire whether 8.45011e-07
tombés down 9.59936e-06
gaies light 9.75299e-05
pièces light 8.82898e-06
davantage identity 5.64606e-07
être anticipated 1.32207e-08
être that 3.29498e-06
être sincere 9.7823e-08
être talk 6.70089e-09
voyait candlelight 1.07335e-06
nous came 1.92585e-08
bien face 1.37358e-08
pouvais do 1.64907e-06
je time 1.64978e-08
dans going 5.30835e-09
aurais exchanged 2.22245e-07
aurais now 1.31709e-06
autant quite 2.33776e-06
étais mounted 5.47708e-07
elle evil 6.20051e-09
secoua brocklehurst 3.54775e-07
, reserve 2.43549e-10
; arrived 1.13599e-08
civilisées nations 9.77223e-06
non sort 1.26298e-06
non nothing 3.80421e-06
non do 1.07943e-06
non would 7.44794e-07
non you 1.99821e-06
non probably 1.24113e-06
venez do 1.08042e-06
tirait herself 1.15898e-05
silencieuse quiet 7.27041e-07
autres equipped 5.17317e-07
les equipped 3.65026e-09
. succeeded 4.97091e-10
paroles speaking 1.11817e-07
chose wish 1.19645e-07
à twisting 7.82766e-10
au close 1.07711e-08
pleins perfectly 0.00033855
lui permission 3.65166e-09
étiez hence 1.67309e-07
étiez called 2.55165e-06
étiez be 2.05697e-05
de since,--a 9.16666e-11
sans doing 1.32214e-08
mère harshly-- 2.16432e-07
répondis audible 6.15642e-08
par rather 8.1754e-09
eu that 7.15233e-06
accès thing 9.11436e-05
accès it 9.18766e-05
accès : 1.31184e-05
accès night 6.79829e-06
accès - 1.58632e-05
fusse was 0.000228474
loyd he 0.000201811
crainte horror 5.00856e-07
ses vassalage 3.14125e-09
ceux chosen 6.90732e-08
; discord 7.06698e-10
au night 1.05345e-08
auprès round 9.51524e-07
28 october 6.3225e-06
28 eighth 2.47908e-05
28 - 9.95801e-05
long down 5.0764e-07
longtemps enough 1.26256e-07
suivre himself 1.85034e-05
suivre it 3.77572e-05
entrerai will 0.000111785
silhouette outline 3.8973e-05
silhouette dark 4.24116e-05
qu' brother 9.39115e-09
moment unfolded 1.06198e-08
leur should 1.01313e-07
bout line 8.10371e-08
donnait made 1.02391e-06
rendre go 1.89623e-06
par took 2.2458e-08
reparaître milady 0.000105177
reparaître see 0.000133159
reparaître instant 1.95522e-05
hâte supper 4.1102e-07
venir feel 1.05441e-07
fallait in 7.60385e-06
ici we 5.4385e-07
m' stop 1.10544e-08
ici down 1.33351e-07
je confidence 1.63005e-09
verrais see 0.000232697
! recognize 2.04529e-09
aime madame 2.13698e-07
souvenir majesty 5.84527e-07
mal chosen 1.16857e-07
appliqua tried 8.41036e-06
nous related 3.64773e-09
! hostler 7.75921e-10
jointe order 4.58154e-05
; rather 4.63952e-09
soit death 3.57311e-08
et likewise 1.47129e-09
aurais would 4.02319e-06
allait decline 2.21461e-07
allait to 4.81134e-05
allait ground 1.76657e-06
souleva NULL 0.00185821
leva NULL 1.82203e-05
là did 1.98078e-07
vînt might 1.9178e-05
parvenir able 5.10742e-06
restât left 2.60422e-05
retrouvai completely 1.13448e-05
pussent rebellious 1.05852e-06
parti ranges 8.41855e-06
ébranlé much 1.09176e-05
la trains 1.10593e-09
recevra being 0.000254508
recevra its 0.000722278
recevra for 0.662064
recevra answer 0.000620565
recevra NULL 0.00122187
est preference 1.37828e-09
émotions opposite 6.84403e-05
nuit particularly 1.65608e-07
plongeait reading 1.30921e-05
pas out 2.68084e-08
dans seized 2.16501e-09
dans trouble 1.82318e-09
est certainly 2.69265e-09
nonchalamment legs 7.4597e-06
nonchalamment stretching 6.76053e-06
égards attention 1.3476e-05
ainsi mistake 2.21836e-06
ainsi the 2.75574e-05
ainsi make 9.73087e-08
vient past 1.13093e-07
vient ’s 1.45906e-06
la adversary 9.03657e-10
au attendants 6.21444e-10
interrompirent interrupted 3.34204e-05
verrions see 3.61071e-05
verrions shall 3.70176e-05
fais satisfy 3.32508e-07
rarement failed 9.55159e-07
attachés carefully 1.31457e-06
obéir under 2.24236e-06
balsamique breeze 4.15101e-05
selon customary 3.13836e-07
te ; 1.024e-05
à observing 6.56975e-10
doit duty 1.53123e-07
critique look 1.63265e-05
dire no 4.06903e-07
presque answer 7.6375e-08
laquais found 6.5054e-07
enverra send 8.45972e-06
bonne well 1.11502e-06
d' some 2.40446e-08
absenter not 0.000441887
absenter NULL 0.00290944
comprendre what 4.77514e-06
même well 9.29152e-08
vont against 5.95554e-07
et paper 9.87343e-10
d' athos 2.11461e-08
de far 1.48761e-09
fit announced 1.7539e-08
avance perceive 1.91791e-06
effet hear 5.74092e-08
remplissait agreed 1.43428e-05
chasser succeeded 5.29473e-07
chasser horsemen 7.27446e-07
chasser came 2.33005e-05
chasser air 1.43812e-06
chasser humid 1.41399e-05
chasser beaten 2.59502e-06
chasser drum 1.46941e-06
chasser morning 8.16343e-06
chasser the 0.0378751
chasser NULL 0.00155054
assez very 3.66911e-07
vivement reached 1.18529e-07
me made 3.89461e-08
fou madness 2.49216e-07
échéant wanted 2.06015e-06
par upon 2.4225e-08
refroidir cold 4.45454e-06
belle great 3.7407e-07
reparaître NULL 0.00372018
il consequently 7.70524e-10
se assigning 3.20013e-09
trouvait felt 3.6585e-07
avec minimes 2.28771e-09
avaient took 3.20162e-07
accommodé ill 4.41546e-05
politiques relations 1.19775e-06
sont alone 3.69176e-08
qu' met 5.73715e-09
demandé demanded 3.05689e-07
baissé down 1.33694e-05
tout come 3.32281e-08
mystère mysterious 3.74193e-07
elle tried 6.01545e-09
point prefer 2.27952e-08
ai are 1.30194e-07
qu' word 9.33889e-09
ne however 9.43908e-09
, monsieur 1.62678e-09
: health 6.67591e-09
mon impossible 1.75319e-08
resta became 5.04952e-07
nouveau off 1.12068e-06
ôtez take 0.000163962
ôtez either 0.000142607
ketty returning 2.31802e-06
retraite step 3.07433e-07
or horse 7.67256e-08
avais began 6.9174e-08
et true 1.21366e-09
suis grateful 1.1141e-08
t' girl 2.74314e-07
de according 8.47893e-10
n' she 9.5345e-08
d' child 2.59928e-09
nouveaux fresh 6.14673e-07
alors livres 2.67983e-08
potage fancied 1.19257e-06
flamboyants eager 0.000136049
trop well 3.56086e-07
mal dark 2.8935e-07
fois day 3.07927e-07
milady on 8.81147e-07
milady again 3.01505e-06
courez running 3.1204e-06
vînt come 3.97734e-05
plaisir NULL 4.16142e-05
reproche question 2.30107e-06
accommodé of 0.00593738
accommodé good 0.000361688
pardieu not 1.59759e-05
pardieu is 1.7413e-05
accommodé NULL 0.00164673
se search 6.69364e-09
enfermé up 1.27866e-05
donner now 7.87147e-07
par induction 2.93002e-09
persistance afterward 5.81443e-06
poursuivie thought 2.33118e-05
pistes tracks 3.32451e-05
eux passengers 8.56418e-08
eux pavement 2.58297e-08
lors since 2.81694e-06
messieurs aramis 3.08362e-07
craignait appear 1.7615e-06
en replied 3.01661e-08
moi fine 2.25852e-08
hier drunk 4.98858e-07
remirent sheathed 7.36163e-06
remirent peaceful 9.84435e-05
remirent convinced 7.66794e-06
enfin athos 3.4797e-07
autre person 3.29451e-08
autre wrong 1.5231e-08
autorité officers 2.45877e-06
or belt 1.21404e-07
de employ 6.31765e-10
des search 4.71015e-09
les my 5.59491e-08
entends mean 5.79076e-07
cher my 1.61622e-06
frayer standing 1.2528e-06
excellentes tone 1.36144e-06
point attractions 9.3788e-09
moins grant 2.68311e-08
il madhouse 2.91812e-10
idiotisme bewildered 3.26693e-05
et repeated 1.88133e-08
passant way 3.28361e-06
passant call 4.84994e-06
et why 3.11809e-09
entre ! 2.08532e-06
entre nobody 5.27379e-08
ensemble entered 2.35106e-07
paraît pass 2.60473e-07
homme pass 2.33749e-07
homme repugnance 5.09302e-07
homme feeling 9.29332e-07
homme consequence 3.43091e-08
s' pushed 6.79018e-09
dépassait earth 2.61544e-06
les hold 2.51329e-09
trouvée it 2.75391e-05
homme of 2.03114e-06
angles corner 4.6279e-06
heure one 1.83388e-06
seuil very 6.56994e-06
tout paris 8.02905e-09
toute quite 4.76181e-08
; neufchatel 1.92058e-09
vers possible 3.1615e-08
avança possible 6.87523e-05
avança quickly 8.21202e-05
avança as 0.00159456
avança his 4.11457e-05
pesons clear 5.52017e-05
pour happy 4.38134e-09
faite properly 3.65358e-05
maintenant time 1.77182e-07
y each 2.63936e-08
; absence 2.34178e-09
mer letter 1.39703e-07
mer treville 3.93017e-07
rien allow 6.954e-08
lui friend 1.58511e-08
êtes went 1.14707e-06
une bonacieux 9.43774e-09
en interest 2.48895e-09
irai yourself 5.32575e-07
tient bear 9.01634e-07
et bag 1.11995e-09
? gave 5.91062e-09
faire honor 1.73871e-08
soient be 3.56146e-05
des affairs 4.44558e-09
et hand 4.3892e-09
exposait exposed 0.000463694
» motives-- 4.65622e-10
eu took 1.25298e-06
d' known 2.72574e-09
d' least 6.64633e-09
approchez near 2.3536e-05
vitray me 0.000290806
revenait did 9.53348e-06
, chamber 2.5114e-10
quérir came 1.06744e-05
un spoken 1.80192e-09
vu because 1.30238e-05
j' presentiments 3.40406e-09
à beneath 2.24285e-09
tenez upon 7.27636e-07
je yes 4.94724e-08
partie one 7.87322e-07
sont did 7.64573e-07
approché contrary 1.86116e-06
elle or 1.23075e-07
seule paris 5.88423e-08
assez still 2.59304e-07
un constantly 4.95304e-09
parquet inquisitors 1.3854e-07
parquet remaining 5.70223e-07
boirai may 5.01754e-05
artagnan so 1.72679e-07
du shape 2.84214e-09
-t about 4.00979e-05
soit open 6.07077e-08
soit in 1.64223e-06
encore disappearances 3.69505e-09
coeur NULL 1.11388e-05
bien became 1.37304e-08
en talked 2.98404e-09
à five 2.71581e-09
seulement certainly 4.15391e-08
ma for 5.00414e-07
leur encouraging 2.48032e-08
aux from 4.6271e-07
allez can 3.49029e-07
depuis about 4.1389e-07
quand seeing 2.50177e-08
lancé toward 1.70733e-06
sommes could 2.42495e-06
ne touching 3.35515e-09
du another 1.25682e-08
une practice 4.61116e-09
probable chance 7.79176e-07
voyaient NULL 0.000318649
moins ten 4.59782e-08
donnerez give 1.48934e-05
peut are 3.76448e-07
allaient away 6.82143e-06
mes endeavors 4.76694e-09
fort period 3.58871e-08
aucune yourself 8.1959e-08
entra with 4.36783e-06
monsieur prayer 5.2808e-08
... ; 7.76018e-07
alliez would 1.25573e-05
au silence 8.42802e-09
cela silence 2.32923e-08
préviens so 2.42883e-05
prétentieux vain 0.00293699
en respectfully 1.27077e-09
neuve new 1.29328e-05
avec veiled 4.70756e-09
bien admit 6.20191e-09
d' foils 1.50029e-09
banquettes circular 0.000269942
unes concerned 5.61669e-07
trempe as 0.00141236
faites will 1.29281e-06
chez to 5.73585e-06
si is 1.95766e-07
quitté off 1.13332e-06
sanglant blood 7.75387e-06
comme auditors 7.33922e-09
fréquentes common 3.99107e-06
passons proceed 2.1035e-06
poussée carried 1.77756e-06
si how 5.79133e-08
devine how 5.62039e-05
devine NULL 0.000452915
quinze few 1.14953e-06
dirigeait making 1.76983e-06
pour mark 1.53947e-09
momentanément moment 4.75066e-06
puisqu' because 9.98237e-07
dégageaient from 0.0001913
près step 7.91456e-08
terrestre earth 2.97251e-06
jour dawn 4.57113e-08
important truly 1.92736e-06
-- learn 4.44829e-09
panache hat 5.00892e-06
chambres interior 5.33094e-07
mécanique power 5.71184e-06
force mechanical 5.62847e-08
traversèrent through 1.63463e-05
traversèrent passed 1.34534e-05
est board 4.0496e-09
les skylights 5.65697e-10
de excited 5.07031e-10
était probably 7.12574e-09
n' reached 6.2964e-09
passer do 1.16242e-06
la my 2.87996e-08
ramena brought 3.02374e-06
il imparted 7.87999e-10
fut rendered 1.17449e-08
mesure ready 4.32439e-07
en everything 7.54298e-09
ne producing 1.84755e-09
accumulé accumulated 0.00147632
accumulé have 0.029028
autrefois fire 9.15796e-07
véritablement almost 4.72204e-07
l' powerful 2.30035e-09
l' discover 1.42464e-08
être less 8.09649e-09
porteront would 0.000106378
avait indicate 2.04231e-09
abatage would 0.00950319
mais engineer 2.66479e-08
! fever 2.94189e-09
avaient seen 4.74771e-07
car by 1.63882e-06
retirèrent retiring 1.57235e-06
qu' everything,--and 1.01287e-08
et everything,--and 5.29601e-10
, everything,--and 8.42144e-11
le everything,--and 3.33673e-10
y everything,--and 3.03519e-08
livrèrent therefore 2.72149e-05
livrèrent up 0.00054978
livrèrent themselves 6.1969e-05
faire was 1.90637e-06
ses failing 2.76617e-09
béni we 0.000144313
par aggravated,--if 1.0972e-09
quelle NULL 5.52638e-05
arrosait constantly 7.36581e-06
panserait decided 0.00149889
accablait herbert 2.98108e-05
mas companions 5.50925e-05
hauteurs prospect 1.12179e-06
bien best 1.12268e-08
avaient found 7.71661e-08
exécution putting 6.52959e-07
enlisait lower 8.34939e-05
reparu again 5.24275e-06
point time 2.38159e-07
imaginez can 2.37669e-05
augmenter large 1.55076e-05
rapprocha gradually 4.72735e-06
une attentively 1.0371e-09
eux side 6.55023e-08
quoiqu' yet 2.4546e-06
fallait of 1.3756e-05
ne sign 7.92249e-09
courait standing 5.3498e-07
atterrages towards 6.04977e-06
quelques pirates 1.54197e-08
tenait cyrus 5.55915e-06
tenait running 3.71875e-07
tenait NULL 6.61476e-05
hiverneurs colonists 0.000228105
elle colonists 8.90354e-09
et would 1.16448e-08
recevoir meet 5.14638e-06
laviques sand 6.06917e-05
laviques succeeded 0.000231694
laviques rocks 4.1e-05
laviques lava 7.54619e-05
ligne lead 2.93922e-07
déciderait would 0.000291245
ajouta continued 2.28273e-07
nous obliging 2.0496e-08
autant and 9.57311e-06
formée merely 3.78217e-06
est set 4.52989e-09
un exception 4.41468e-10
s' reach 2.00383e-08
eu give 1.61712e-07
qu' intelligence 3.644e-09
en answered 6.94754e-09
rembarqua on 0.00418618
rembarqua re 0.000124508
doubla passed 5.21015e-05
fois interrupt:-- 8.47456e-09
d' continued 5.58553e-09
vent much 3.47812e-07
faire night 3.81689e-08
regard words 6.11836e-07
jusqu' sight 4.65839e-08
remonte NULL 0.000322073
lui captured 1.70847e-09
compléteront up 0.00120643
compléteront will 0.000745801
compléteront tools 6.43504e-05
peut feared 5.2582e-07
peut be 7.58707e-06
peut to 1.43844e-05
soit plantations 3.92067e-08
pouvait passed 6.22579e-08
une no 2.80015e-08
sommets rays 2.25965e-06
sur gaze 1.8818e-09
parussent appeared 3.87677e-05
autre sides 2.20447e-08
quelques two 3.20534e-06
entièrement commenced 2.64635e-07
enfin on 5.45776e-06
fantaisie liked 1.3108e-06
laissa sleeping 1.80928e-07
insignifiantes NULL 0.00852713
compact granite 8.21193e-05
numéro number 4.76675e-06
été esteemed 2.67807e-08
été highly 3.17445e-08
été sufficiently 7.43002e-09
« dead 2.445e-09
distinguer be 8.43424e-05
mouvait way 9.91942e-05
dite the 0.00091205
devait belonged 3.76544e-08
annoncée which 0.00110831
opérer work 3.12971e-06
cela were 2.81035e-07
approprier put 0.000162833
quotidienne nourishment 3.01254e-06
battue around 1.06188e-05
battue circle 2.72378e-06
ensemble solidity 6.58999e-08
encrassait make 9.51182e-05
qu' whose 1.46112e-07
brandissant heights 6.65799e-06
qui therefore 1.40533e-08
approbateur uttered 8.78568e-05
le subdue 2.1413e-10
... threshold 2.73732e-08
? opening 5.18253e-09
encore degree 1.4715e-08
a dozens 5.73635e-09
suffisamment show 1.02681e-06
le lose 1.02377e-09
du claw 4.01665e-08
du along 1.69498e-08
volonté , 0.000304429
volonté mind 0.000235209
volonté a 2.99119e-05
volonté with 0.000191085
volonté endowed 1.98864e-06
volonté dog 1.91659e-07
du usual 3.43465e-09
moins twenty 6.4562e-08
moins found 2.76166e-07
moins chest 2.31103e-08
moins washed 4.48412e-07
présumé spars 1.33662e-06
présumé wreck 3.0849e-06
moins NULL 7.29244e-06
franchie passed 1.31193e-05
approbation received 1.04465e-05
obtint received 4.4963e-05
tenons take 8.3613e-06
chargées carefully 4.9119e-06
d' like 1.64499e-08
guise like 2.65003e-05
mange india 1.29651e-06
rempli full 2.7547e-06
suivre under 3.33897e-07
il fishing 1.33095e-09
alimenté up 7.4525e-05
d' river 2.52274e-09
présence river 1.31879e-07
demi-obscurité darkness 5.98727e-06
creusait were 5.49176e-05
celui including 3.61986e-08
quoi enough 1.07013e-07
composaient consisted 9.87703e-06
précisément be 5.58868e-06
aucune date 4.4748e-08
franchir in 2.95602e-05
accrue increased 0.000662903
parlerons about 5.3905e-05
souleva flew 0.00213767
milieu NULL 1.8889e-05
sang presence 1.3267e-07
restèrent were 1.59744e-05
agissait approaching 3.14502e-07
agissait canoe 4.9529e-07
agissait mean 3.92577e-05
agissait not 8.68549e-05
d' looking 2.98511e-09
devrons act 4.28282e-06
trouves find 2.70637e-05
directement importance 3.71672e-07
constamment worked 2.22654e-06
et outlet 4.74806e-10
faut use 6.06693e-08
abaissement falling 1.30677e-05
proviendra arise 0.000327863
convient correct 8.99266e-07
enfuyait ran 5.35947e-06
étant when 1.54977e-06
naturels bed 7.55269e-06
naturels formed 1.01606e-05
organisant having 8.94702e-05
surprendre them 0.000179161
surprendre might 7.30929e-06
des smoking 3.31202e-09
une framed 1.15653e-09
intérieurs finished 3.81298e-05
intérieurs arrangements 8.13182e-06
fouilles NULL 0.00378138
courir vain 2.90411e-06
entrée strong 8.46428e-07
entrée NULL 0.000199442
comprise cliff 6.95908e-06
accès NULL 0.000444137
suffisait would 1.60824e-05
porté given 7.30711e-07
accès so 2.97038e-05
ne thinking 4.50247e-09
observait carefully 8.28553e-07
sommes have 1.18807e-06
secours top 5.33011e-07
surface water 8.08832e-07
d' indication 8.93121e-10
un importance 2.19482e-09
cassa first 1.12052e-05
dite so 2.98505e-05
aux trees 2.46729e-08
large great 3.80629e-07
pourrons might 2.34913e-06
menu contained 2.74544e-06
observant looking 6.4225e-06
austral pole 9.25958e-07
pôle southern 2.83326e-07
océans sea 0.0209868
océans every 7.2057e-06
océans NULL 0.000600633
entendait knew 0.000355425
différentes minerals 1.5124e-06
au their 4.27752e-08
accourir forward 2.59621e-05
arriverons certain 5.26925e-06
? notebook 1.36136e-09
reste only 7.54363e-07
» neb 7.55675e-09
allaient sandy 3.0051e-07
allaient died 5.13952e-07
eut light 1.81535e-07
système mountain 1.02561e-06
longtemps fixed 8.60985e-08
ainsi NULL 5.21595e-06
puis afterwards 1.60994e-08
cyrus NULL 3.3454e-06
pas lavished 1.60352e-09
courroucés sea 8.93103e-05
vit there 1.12921e-06
vit NULL 9.88433e-05
. lips 1.11714e-09
faisait dark 1.0336e-07
faisait getting 1.15528e-07
nab recognized 6.28692e-08
d' thistles 3.48123e-10
région extent 2.46201e-06
pu straight 5.34598e-08
avec skillfully 7.47846e-09
tout which 1.9006e-07
produisait bore 1.88032e-06
pu obtained 9.88145e-08
est value 1.64558e-09
chute time 4.26009e-06
et re 6.34843e-09
stupéfaction horror 0.000244014
stupéfaction NULL 0.00198604
pour will 3.20645e-08
songer dream 1.43404e-06
se exclaimed 2.48349e-08
qui tempestuous 6.37998e-10
retenaient it 0.00270441
retenaient held 0.00478129
put NULL 2.29706e-05
peut uttered 2.33703e-08
rang NULL 0.000225969
simples common 9.79316e-07
peut NULL 6.69782e-06
ne before 2.02547e-08
ne still 1.68493e-08
réunissaient united 4.41664e-05
trouvant thinking 6.16877e-06
accomplissaient taking 1.20075e-05
narration faithful 8.89923e-05
instant right 2.05107e-07
bord tanks 6.90386e-07
l' barely 7.22432e-09
toute focused 1.02192e-07
rapporte take 1.30662e-05
accompagnent blennies 0.000169658
qui breakers 7.39128e-08
braver decided 4.5877e-05
eusse reply 5.53478e-06
travaille at 0.000214354
marcher movements 3.88533e-06
du your 1.32194e-07
accompagnerons NULL 0.00612296
cristal front 0.0391321
cristal NULL 0.00294892
mandibules suckers 0.000327393
égarer people 5.54364e-05
milliers thousand 2.31125e-05
une larder 1.4456e-08
dépassa passed 0.000106159
sur horn 4.95256e-09
, putting 1.00108e-09
compter account 0.0223403
compter into 0.000311647
compter taking 0.0043666
sur meter 1.18717e-08
sur surface 3.28284e-08
sur outlined 7.0602e-05
de after 7.77998e-09
glace submerged 1.87986e-06
digne works 3.22835e-06
changés changed 1.27492e-05
marche at 0.00128912
marche off 0.000251311
marche started 3.68062e-06
dégagée windows 1.29055e-05
tendait starting 7.01686e-05
avant another 1.30386e-07
avant try 4.80675e-07
ils pets 9.11663e-05
ils good 3.49546e-07
cérébraux lobes 0.000265475
chez cerebral 8.89412e-08
ait us 3.71417e-06
sous slide 6.47036e-07
les shallows 1.0552e-07
suivi conseil 2.12118e-06
, dear 7.11823e-10
entendre understand 2.00719e-07
écroulée mosques 0.000332722
va 's 1.19521e-06
extérieur marked 7.64093e-06
jour rays 1.32652e-07
semblables sulfate 1.00913e-06
son stuffed 3.53718e-07
vie freedom 2.44023e-07
delà indescribable 4.98566e-06
puissantes enough 5.96144e-06
suffisamment increase 5.19945e-06
une dolphins 3.64097e-06
étendaient sulfur 0.000597002
étendaient covered 0.000745992
fis ventured 1.2113e-06
appartient 's 2.51636e-05
pendant place 1.09571e-07
ancienne older 5.84703e-06
gisant stretching 0.000164321
pennatules sea 0.00571577
pennatules microscopic 0.000880739
faudra need 7.2832e-07
disparu lost 3.70016e-07
alors delivered 1.19746e-07
reçu company 3.47645e-07
dire inform 6.03919e-08
environ feet 3.7796e-07
uns missed 1.55939e-05
serions come 8.00979e-06
land occurred 2.01437e-07
pensée then 2.5245e-06
coffre after 9.8097e-06
me silent 8.7809e-09
voir existence 8.88934e-08
alors reduced 1.49129e-07
manquer at 0.000135168
manquer carefully 0.00422493
manquer aim 0.0268308
manquer that 0.00197045
manquer recommend 0.0001053
conduise take 0.000652139
conduise does 0.000110194
conduise heaven 4.3125e-05
fasse may 5.07878e-06
dusse formed 1.22244e-05
un insured 5.33125e-09
refermèrent together 0.000116637
compte 's 9.34222e-06
d' locks 7.60803e-08
je felt 6.50694e-09
jeta jumped 7.04214e-07
et hence 3.94116e-09
avoir going 1.4209e-07
dis asked 5.57429e-07
haute great 1.02537e-06
antique times 4.73334e-06
quelle presume 5.06571e-08
divise divided 0.000377306
à refuge 8.3801e-09
palmipèdes known 0.000107296
ouvrirent opening 5.69501e-06
répéta physician 7.00637e-07
qu' barely 1.98049e-08
, war 2.64225e-08
sédentaire rest 0.986851
sédentaire truly 1.45847e-05
paraisse seems 1.46037e-05
pas twenty 6.58715e-09
, rowing 2.76513e-09
levées surveyed 0.993457
celui passageway 4.03455e-07
pomphérides sweepers 0.000245822
appareiller anchor 0.000245314
appareiller weigh 0.000187862
cénotaphe astrolabe 0.000137504
on vessel 9.40896e-08
dillon activities 0.000219536
imposa given 7.25491e-06
eut not 2.79556e-06
accusa gave 2.4035e-05
la encountering 7.16797e-09
vive activated 7.83094e-06
pus can 1.94824e-06
lui dispute 9.15088e-08
du zoophyte 9.33356e-09
premiers zoophyte 5.64577e-07
plans magnificent 3.24372e-06
premiers slopes 2.14394e-07
premiers lower 3.93318e-07
premiers objects 3.96254e-07
quelques forms 9.43962e-08
lourdeur weight 9.68422e-05
peuvent n't 1.33843e-06
_ spigot 4.9744e-07
fabrique make 3.47927e-05
pourrions could 0.00101219
il old 2.52184e-09
sa services 2.15791e-08
passé night 3.29451e-07
passé 's 1.36883e-05
passé habit 5.51883e-07
revêtus covered 0.000159847
pas standing 9.63859e-09
travers midst 3.16175e-07
quart noon 1.22673e-06
glacial frozen 0.00041739
océan frozen 5.76711e-07
connais 'm 8.05199e-07
sévère design 3.67042e-05
tapisseries stretched 9.84268e-05
fais never 0.00255409
offrirait will 0.000631802
et things 1.49223e-09
et quiet 2.8296e-09
une hungry 8.47749e-09
et meanwhile 2.03884e-09
dormirais sleep 5.39129e-05
qui command 9.37579e-09
langues language 3.17064e-05
comment ask 6.52938e-08
ne who 6.48006e-08
il caledonia 1.78071e-08
suivaient behind 2.95344e-06
enveloppa darkness 2.06756e-06
souleva up 0.3048
mathématique regularity 0.0088082
au springs 6.55736e-09
entendis yes 2.23884e-06
a somebody 4.69369e-08
coniques shells 0.000259964
ses our 3.68733e-06
les insults 0.000146615
les sailor 2.131e-08
veut its 2.88543e-06
pouvaient unable 1.24106e-06
restait favorable 3.50499e-06
nécessairement need 3.14239e-06
! bosh 5.0367e-09
incalculable just 0.00137916
incalculable strength 2.98989e-05
poursuivons 're 1.67882e-05
afin watch 2.62897e-07
chemin home 6.05805e-07
chemin lead 2.49562e-06
_ fifth 1.93896e-07
toujours again 1.42171e-07
perte 200 2.6563e-06
depuis over 2.54577e-07
m' write 5.57437e-08
ne john 2.39814e-08
entreprit entered 2.75391e-05
aimons love 0.645232
aimons most 0.000165517
plus thinking 5.53989e-08
plus audible 5.96529e-08
avait needed 5.16552e-09
alliez gone 0.0980713
près valley 2.13568e-05
lui clearer 3.75067e-08
dit somewhat 1.11458e-08
fait now 1.86304e-07
voir fields 1.47732e-07
quitterai will 0.000126644
point step 1.00131e-07
n' restraining 6.84373e-08
longeait descending 0.000111908
ouvert up 8.55454e-06
! single 4.3864e-09
répétèrent answer 8.50589e-06
tout now 1.47228e-07
sentir sensible 1.66491e-06
pouvions die 8.58243e-06
tueriez marry 0.000148256
épousais marry 0.000395375
pendant take 1.49963e-07
concevoir expectations 3.18393e-05
pas demolished 3.09007e-08
pas calculated 1.04465e-08
ne calculated 9.68413e-08
demeure there 2.94833e-05
ma joy 2.32381e-08
. diana 2.98906e-09
ma not 4.99588e-07
sembla question 3.42859e-07
; exclaimed-- 7.09454e-09
son controlled 1.11756e-05
chose persuaded 6.28542e-08
schiller stead 0.000151327
je reflected 1.33995e-08
et whether 9.88135e-10
joies household 0.000470843
moi as 5.23753e-07
dans pavement 6.36374e-09
dans part 1.45338e-07
dans formed 1.17219e-06
papier hasty 1.82899e-07
son glove 6.4874e-08
papier disappeared 2.67593e-06
petit narrow 4.60671e-07
. world 8.2317e-09
rendra far 1.83812e-06
oubliera ; 0.00570167
devant stood 1.89938e-07
mort triumph 2.11385e-07
robe dark 5.01094e-07
obtenir rover 5.05084e-06
obtenir heaven 4.74819e-06
obtenir chance 7.04364e-07
seule chance 2.07982e-07
partait almost 1.45236e-05
regard unsmiling 1.03937e-05
et s- 3.24567e-08
terrestre angel 5.04416e-06
longtemps ago 3.73363e-08
mieux be 1.64764e-06
être wish 1.68972e-08
me are 3.26411e-07
l' preacher 3.36417e-08
assidue made 0.000340496
sincérité tone 1.76093e-05
regard second 8.25502e-05
la restless 2.91415e-09
la either 2.36859e-09
la within 3.95435e-08
la elements 1.05877e-07
la indicated 1.44126e-08
vitré doors 0.000392718
est childer 1.37511e-08
suffi myself 3.65643e-05
d' misunderstanding 5.48644e-09
escalier fire 3.17369e-05
position yourself 4.99087e-07
votre yourself 7.0119e-08
avez can 9.94495e-06
avez account 2.41572e-08
retirés retired 4.0299e-05
revis found 0.852927
aussitôt into 1.17094e-06
abord yet 4.78005e-07
étreinte embrace 2.60353e-05
du wrong 2.33598e-07
: reply--"_i 2.331e-07
il embracing 8.42011e-09
séparer comprised 6.75039e-06
étais loved 9.50679e-08
moi strong 7.71201e-08
comprenez how 3.88543e-06
comprenez now 3.76759e-06
pour desired 6.01354e-09
jour wounds 1.43977e-07
a dressed 1.51478e-07
je became 9.11259e-09
profond sort 5.45254e-07
et eyes 3.49894e-09
aveugle eyes 2.41561e-05
dans is 8.36072e-08
dans ; 4.00184e-07
ne dick!--never 2.22172e-09
répandit returned 7.47046e-06
. getting 2.34455e-09
soufflait shifted 4.20191e-05
allez would 7.11329e-06
ce spiteful 7.08972e-09
ainsi such 9.67855e-08
quitte leaving 0.00532456
la tea 3.94942e-09
: direction 1.89898e-08
votre my 0.000848119
s' wear 6.12065e-08
assoirai lay 0.000461789
remplies manna 0.000510602
. school 7.07579e-10
comme unwonted 4.26834e-08
comme stirred 1.89233e-07
comme portion 3.23889e-06
comme morning 1.79181e-07
vous ask,--why 2.37616e-08
. charmers-- 1.16956e-08
et revisit 4.17222e-09
aller away 0.00519749
aller sent 7.75118e-07
autour looked 1.15584e-07
bras liberty 2.71028e-07
-- ireland 4.28983e-09
deviné cise 0.000352595
grand like 7.36816e-07
barrière narrow 0.00052032
n' attempted 7.42149e-08
fois wrong 1.46656e-08
je thoughts 2.32247e-08
savais you!--i 5.9029e-06
adieu , 0.000170585
soir - 1.28693e-06
plaisir do 3.00988e-06
plaisir so 3.20507e-06
marier shortly 4.33119e-06
presque informed 9.81184e-08
château entered 9.65526e-06
voilà mr 7.39873e-05
troisième storey 2.14405e-06
ont n't 4.97194e-07
je act 9.84669e-09
partis not 2.99915e-05
son accent 1.45926e-07
? grateful 5.49903e-08
assez nothing 1.41062e-06
quelqu' acquaintance 2.37721e-05
êtes exist 1.3749e-07
semblable a 2.90259e-05
prêts prepared 0.000325678
prêts all 8.65176e-06
dis could 5.45682e-07
près examination 3.81742e-07
inconnu expressed 1.24494e-06
ses israelitish 1.86891e-05
ses complexion 8.24362e-07
sera punishment 9.39513e-07
ordre spirit 3.54e-07
continuelle duty 0.000248641
continuelle distractions 4.92089e-05
souffrir tricks 6.13312e-05
souffrir tables 1.61344e-06
souffrir turn 7.40599e-06
souffrir care 9.6467e-06
une minois 1.51571e-09
une face 5.83347e-08
me screened 4.19265e-08
mat complexion 6.53727e-05
ladies ladies 0.0348723
oui there 2.8017e-07
mains one 1.60225e-05
mains mine 2.88598e-07
dans close 7.57354e-09
une wished 2.3133e-09
plus deportment 1.03741e-08
ne deportment 1.20691e-08
coucher chamber 1.08233e-06
coucher withdrawn 4.02296e-06
... view 9.23646e-08
son countenance 7.91616e-09
. brilliant 4.25788e-09
a charmed 2.70972e-08
est therefore 9.03044e-08
pourquoi ; 3.92712e-06
disant this 1.26584e-05
mes other 2.66149e-06
mes each 6.65259e-06
mes way 3.63662e-06
mes into 0.000507411
mes the 0.00122471
mes performed 1.03226e-05
être inconsolable 1.62659e-08
ni even 0.000791829
ni and 4.41192e-05
qui comparative 3.33905e-08
bientôt brought 2.83009e-07
aurais been 1.17009e-06
trouvai down 7.64779e-06
heureux satisfied 3.16259e-07
avait placid 3.53902e-08
laide less 6.57003e-06
avais regretted 1.53637e-07
ici fine 4.19697e-08
viens seminary 9.90189e-07
par then 6.74651e-08
montré evinced 8.46169e-06
classes health 4.14658e-05
insistait insisted 2.2958e-05
hélène NULL 0.000178226
vous suggests 1.16131e-08
les sundays 2.09885e-08
voudra can 6.50378e-05
entendis NULL 0.000583341
lui answer 1.39396e-08
a rebuilt 5.03169e-08
larges walks 1.25376e-06
approcha ask 5.06254e-07
approcha seemed 4.42364e-07
mangé breakfasted 0.00279685
lorsque fully 2.00498e-07
lorsque terminated 1.51827e-07
une laid 4.73497e-09
il sounded 9.36039e-09
galerie musical 3.71551e-06
glaciale chill 0.00232143
cette chill 5.13146e-08
cette raw 1.43655e-08
le nourishment 9.00674e-09
rendît suiting 0.00077077
rien indeed 8.42246e-08
s' eyre 3.50983e-08
seulement uprooting 3.78886e-07
cordes rending 0.000165741
et from 4.69762e-08
supérieurs taking 4.90524e-06
excursion question 1.47994e-06
excursion exercise 1.26443e-05
trouvez do 1.2826e-05
plaira will 1.8865e-05
m' assassinate 3.69378e-06
ameutait set 7.01264e-05
il wish 4.77562e-09
tant loved 5.74387e-08
me judges 2.25787e-08
cri periodical 8.65852e-06
cri shrill 0.000390452
lueur aid 0.00361179
soit porthos 1.61307e-06
auraient stopped 6.32887e-07
tache festubert 1.97182e-05
répondît answer 1.36495e-05
et draw 6.34535e-09
chez down 7.18457e-07
moins much 1.17408e-07
moins may 1.49309e-07
affaire yourself 3.17789e-07
rapprochèrent near 1.70218e-05
liée really 1.28363e-05
cette matter 8.20684e-08
du an 4.41561e-08
accordés granted 0.000210929
songea think 6.69699e-06
difficulté he 0.0441688
sauta by 2.74416e-05
caché open 2.09346e-05
caché herself 3.26955e-06
rendre yourself 4.19923e-07
rendre place 3.88254e-06
vous within 3.234e-09
justement is 1.31825e-05
pouvait may 3.32199e-06
pareils masts 3.04021e-06
... felton 3.36148e-07
éclatât burst 8.97937e-05
là man 4.33007e-07
prendrai will 0.000281327
restai remained 3.65831e-06
tout through 3.12851e-08
appellent name 4.72362e-06
parti side 5.77901e-06
parti on 0.00161826
parti himself 0.000259537
parti dares 5.91466e-07
; or 3.27718e-08
: case 8.91428e-09
acte order 0.115134
quoique but 7.11956e-06
silence puritan 5.08916e-08
certain certainly 1.78195e-05
nonchalamment out 9.9787e-05
souffert sufficiently 3.23734e-06
né owes 0.000873066
: wakes 2.05269e-07
la passionate 3.36748e-08
rugissements passion 2.15473e-05
est upon 1.96245e-08
contre one 7.71832e-07
toutes as 5.56217e-05
un experienced 1.21535e-08
avez brains 4.5085e-08
préoccupation another 5.36831e-06
envoyaient sent 1.74521e-05
fais prepared 8.38235e-05
satisfait other 3.18489e-05
franc-chasseur hunter 0.000169706
don power 6.36212e-06
unes people 3.44104e-05
elle combat 7.33161e-09
vous brought 1.74629e-08
charmante seamstress 1.10058e-05
guetter observing 1.59834e-05
arrive evil 1.5043e-05
doit information 1.09465e-06
doit important 3.11453e-07
qui money 3.83098e-09
répondrais answer 0.000306425
n' question 2.89571e-08
désormais pass 1.33823e-06
passer henceforth 7.82101e-06
l' inextinguishable 2.24845e-10
n' inextinguishable 1.23001e-09
rengorgeant drawing 3.04115e-06
retentirent arose 3.63738e-06
égal very 1.13128e-05
au attitudes 4.2968e-08
pourtant like 3.4005e-06
endroit another 1.08884e-06
fort were 8.60889e-06
fort she 3.35068e-06
fort if 4.66028e-05
fut without 6.50453e-08
reprenons with 0.000439924
reprenons on 0.000469635
reprenons will 0.000116995
fusil replied 7.42372e-06
venu next 3.22527e-07
autant may 7.3628e-07
pour wine 3.82337e-09
dans initiated 1.21387e-08
silencieux dialect 1.45649e-05
dialecte silent 0.00331871
dialecte same 0.000180163
loin soon 0.000116373
là 1627 1.78586e-06
d' hoarse 1.31449e-08
demandez do 6.69513e-06
étaient earnest 1.48728e-07
pas desire 2.46862e-08
la place 4.40557e-09
importance milady 2.09936e-06
heure occurs 2.98477e-07
niais folly 7.84141e-05
s' necessary 1.42831e-08
là enter 2.9418e-08
tiendra be 0.000631252
force excursions 0.00554605
force nocturnal 1.36481e-06
force detractors 1.12776e-06
jambe limbs 2.73711e-05
avait lorraine 8.69972e-08
pareil feast 5.65649e-06
ai accounts 4.08026e-08
camarades athos 6.00585e-06
contenterez content 3.50559e-05
voulez are 9.68442e-07
être killed 6.62864e-08
être was 1.3017e-06
prouvèrent proved 7.16811e-05
tu nevertheless 3.62111e-07
a laughing 1.75458e-08
? undertake 2.05493e-08
villes important 4.19892e-06
chercher your 9.00159e-07
m. playing 8.45553e-08
amena drew 2.19027e-06
pu met 1.70197e-07
amènera back 0.000152741
ici brought 5.90478e-08
amènera brought 3.49017e-05
paie paid 0.147903
paie were 0.00162352
tirerez there 0.000250904
autrement serious 2.00608e-06
, replied 4.81743e-09
était connections 9.36651e-09
apercevant saw 5.58224e-06
plus have 1.01493e-06
est day 2.10979e-08
vous pale 2.17964e-09
bas behind 1.13717e-07
artagnan seen 3.93931e-08
artagnan doubtless 2.42302e-08
même terror 1.42456e-08
aujourd' today 9.2062e-06
. bantering 2.87437e-09
occuper think 4.87228e-06
cinq walked 1.06241e-06
évitait should 3.6643e-05
chapitre care 1.36483e-07
feriez now 7.80589e-06
sa brilliancy 0.000155699
sa conversed 9.81287e-09
sa possible 7.81086e-09
celle- she 0.392979
chose quite 2.33396e-07
reconnaître i 0.000155307
voilà wrong 3.18246e-08
qui retire 1.96038e-08
dans fired 3.74028e-07
décida mistress 3.66159e-06
faire once 1.64997e-07
voit perceived 3.13314e-06
voit plainly 8.77253e-06
... chevalier 0.000110104
-- then 1.48257e-08
justement ! 1.51999e-05
mangerez will 0.000213324
arrivait entered 1.96531e-06
cet those 9.80025e-08
distinguait see 0.00144653
distinguait could 0.100619
distinguait concealed 2.25893e-06
distinguait NULL 0.0248347
bien while 1.17931e-07
avez killed 1.62042e-07
on man 5.32135e-08
acheminer go 0.000197685
accommodé care 0.495071
songeant all 5.23999e-05
forme appearance 8.65474e-07
que fortunately 3.01693e-09
bien taught 5.33564e-08
passe situation 4.58082e-07
regard passing 1.01316e-07
croix boy 8.393e-05
croix black 8.82246e-05
eux if 1.22386e-06
vois clear 2.24198e-07
dîner -- 3.62983e-06
bravo NULL 0.000322181
luxe carefully 1.41588e-05
prendrais take 2.30147e-05
où whom 5.95951e-08
parole on 4.99191e-05
et hanged 5.51099e-09
mon yesterday 3.9841e-06
cher drunk 3.05115e-06
plus impenetrable 8.89147e-08
paie for 0.00111893
comme speak 2.81704e-08
aiment like 0.00177132
bien imprisoned 4.69643e-08
réunion if 3.39563e-05
réunion NULL 0.000492405
matérielle material 0.000276425
tranquille head 8.27543e-07
soyez yourself 1.3262e-05
soyez make 4.87959e-06
amours love 0.163353
décidèrent prevailed 5.67134e-05
rendis went 1.97168e-05
entendez do 4.18182e-05
curé departure 9.46679e-07
présentez " 0.00188543
route fatigued 9.52796e-08
depuis commenced 1.60644e-07
nous breakfast 7.7997e-09
déjeunerons we 0.000628422
voici see 8.14236e-07
ami reinforcement 1.64109e-07
toujours fear 1.03194e-07
mis forced 1.05895e-06
-- perforate 2.50643e-09
laquelle who 1.23164e-05
corps have 2.31935e-06
1 one 4.67063e-05
de wish 2.11731e-09
ensemble pierrefitte 6.79456e-06
pour received 2.68051e-09
paraît appear 5.36671e-07
arrive succeed 5.61562e-06
hôte old 2.79507e-07
espérait should 0.000312116
et interrogated 7.84432e-07
retournait again 2.7732e-05
hauteur beyond 5.92629e-07
dépassait impression 2.00286e-05
il table 1.71139e-09
argenter shone 0.000492832
ongles no 4.23095e-05
mal read 1.45643e-07
une passers 6.33464e-10
mangé NULL 0.000181872
... it 1.36516e-06
si friendly 1.46172e-08
ci moment 7.73609e-05
récompense leaving 2.33168e-06
velours gray 0.000210764
en adorn 8.13012e-08
couleur lanterns 4.48579e-06
arrivèrent o’clock 4.54842e-07
indubitable certain 4.42309e-05
comme in 6.27048e-07
tiendra will 0.000356797
répondrai shall 0.0332194
répondrai NULL 0.00106009
là away 4.45452e-07
peine age 2.3148e-07
tête blow 9.28665e-08
vais blow 2.17715e-07
moi service 1.29194e-08
vivement speed 1.39283e-07
leur thrown 2.97255e-07
leur excellencies 2.25151e-07
tant breathe 9.87748e-07
pour london 6.49577e-09
rien it 1.30958e-06
divertissante affair 4.72107e-05
espionner ! 0.0292002
dans here 3.05492e-07
dit instantly 2.11512e-09
exigez do 8.26464e-05
vous jest 7.43767e-09
peine bonacieux 1.61442e-06
à bonacieux 8.37036e-09
pensa began 8.43356e-06
donnent give 0.000169011
profondément low 0.00353274
soient , 0.00457764
soient placed 4.58849e-06
comprendrais understand 1.44492e-05
intérieur home 0.000265457
plus jealous 1.21794e-07
dans accomplishment 6.25146e-09
bien served 1.26377e-08
engagea passed 2.32413e-05
avaient prove 3.65011e-07
nos enemies 6.50759e-08
m. athos 5.0923e-07
bien same 2.23238e-08
préventions how 0.0160404
étendue open 1.08021e-06
pu people 7.35082e-08
fargis sleep 0.00401606
devant for 1.23165e-06
encore st 1.97197e-08
exécutait such 7.04658e-05
! by 6.29607e-08
brun dark 3.56568e-06
instant particularly 1.58126e-07
éloignèrent far 5.67533e-06
ai presentiments 2.97164e-08
ils touched 1.7432e-08
trouvez can 9.64604e-06
fit steps 3.01045e-08
fit a 1.53e-05
fit went 0.000219572
soi themselves 4.5962e-06
séide he 0.0142608
vos services 1.15073e-07
trouvaient . 7.22466e-05
mettre beginning 4.76508e-07
étranger about 2.19472e-06
! arrested 4.82498e-09
pensa uttering 7.04723e-05
pensa near 0.0320621
pensa was 0.000205762
pensa gaining 7.75511e-05
le present 4.11749e-09
parole my 9.08778e-06
parole by 1.3125e-05
puis , 1.74902e-05
mis gone 5.33894e-07
était continued 1.56408e-08
toi him 4.55266e-06
toi do 3.32831e-06
-t this 0.0124519
avait knocked 1.38162e-08
chez rooms 2.83698e-07
mystérieuses mysterious 4.07205e-05
. then-- 4.0652e-09
occupations distracted 7.45571e-06
chez distracted 5.24457e-06
chez though 1.01795e-06
chez here 2.71124e-06
ma a 2.66058e-06
cervelle brain 5.62056e-05
des practical 7.23337e-08
travailler or 1.89476e-05
yeux tender 2.54891e-07
prenait instantly 2.16484e-07
attachement veneration 5.37414e-05
mais furious 1.14098e-08
y continue 2.33584e-06
à valet 2.78921e-09
tout disturb 2.28003e-08
empêché prevent 7.31532e-06
avait prevent 9.35711e-09
prévenir word 3.44546e-06
parent prejudiced 9.83002e-05
parti resist 1.06311e-06
cette hounds 1.98291e-08
: adversary 3.12175e-08
quand upon 4.89904e-07
qu' fought 1.62695e-08
, wanting 7.33456e-10
aurait drawn 1.45157e-07
saurait known 7.84492e-07
faisaient gallant 1.16582e-06
atteinte upon 1.02773e-05
atteinte doubt 0.00482455
avaient implanted 4.67143e-07
comprit understand 1.45697e-06
peut people 9.25988e-08
perdue true 9.44086e-07
lieu generally 0.00824508
chacun and 0.000281464
sienne contend 7.30491e-07
sera most 6.88943e-08
eussiez have 0.000224245
parla about 4.67447e-05
arrêtées agreed 4.51485e-05
voit find 9.14931e-07
voit does 3.07878e-06
aussi last 1.02279e-07
si soon 2.87116e-08
encadrée carriage 0.000189092
encadrée through 0.00018157
encadrée appeared 0.000261593
mauvais pretty 3.8199e-07
presque NULL 0.000282184
apprêta about 2.99013e-05
pareille beast 2.43392e-06
savant illustrious 1.65119e-05
aviez not 1.03612e-05
droite line 9.81722e-07
voilà was 2.36708e-06
resta all 0.000337878
resta were 1.07666e-05
je one 4.38506e-08
chose possible 1.81968e-07
des calm 1.04034e-08
contenir firm 4.09952e-06
décider now 1.03392e-05
une instant 4.10759e-09
j' dakkar 0.000273336
suivant certain 2.64895e-07
suivant at 9.96888e-06
crypte from 2.92948e-05
prolongeait end 2.99512e-06
fussent pressing 2.76162e-06
le leaving 1.98407e-09
autre simply 4.28839e-08
chaudière earth 8.37929e-06
durent took 3.06685e-06
bordages mass 1.74701e-05
du serious 4.31557e-09
suite joined 7.81564e-07
. entire 1.13879e-08
vivement impression 2.40305e-06
redevenait gradually 2.18714e-06
redevenait became 5.32967e-06
fit by 5.53458e-07
une his 1.06208e-07
du respecting 1.6426e-08
éternel sleep 2.71659e-06
dessus beyond 3.72788e-07
des brave 1.2934e-08
père husband 2.99491e-07
il rest 2.62184e-08
depuis ocean 5.66398e-08
univers inhabited 0.000244757
capitaine strange 2.54561e-08
avait death 6.98494e-09
il feet 5.39671e-09
fingal cave 4.47492e-05
traversaient crossed 2.31473e-05
surnaturelles crossed 4.13968e-05
traversaient ideas 8.43135e-06
traversaient extraordinary 1.14889e-05
l' excited 5.09387e-09
contrefort western 1.61278e-05
place order 4.36902e-06
promené thrown 0.000124167
promené light 1.50283e-05
basse lowering 2.21865e-06
veut mean 2.37538e-07
elle course 2.77014e-08
est-il be 0.0288566
jugeait found 0.0026077
succès by 1.92226e-05
besogne really 9.97309e-07
retraite dwelling 6.02833e-07
déterminaient thus 6.58405e-05
entre with 1.24862e-06
! steer 5.52838e-08
rendra take 4.67606e-06
fermée near 1.72416e-06
sur can 1.41172e-07
agissait there 8.95218e-06
qu' advanced 9.76055e-09
bout was 5.9335e-06
habituelles taken 3.34026e-05
habituelles customary 0.00106821
être retreat 1.47677e-08
de deserted 8.56681e-08
a went 4.06333e-08
unes more 1.03781e-05
jalonner out 0.00010248
permirent allowed 0.000434075
premiers miles 1.55337e-06
joyeusement laughing 1.50594e-05
y into 1.52704e-07
cet advance 6.20024e-06
cet boy 1.0384e-07
cette powder 1.59568e-08
de fit 4.45852e-09
période fit 2.42045e-06
période soon 9.49775e-06
de slight 2.73833e-09
il much 5.44215e-09
ramenèrent back 8.09923e-05
désespérés result 2.06892e-05
faire occasion 2.42981e-08
faire any 1.59215e-05
appel collected 3.1814e-06
elles ready 1.22016e-07
existence denied 2.45777e-06
fussent entered 0.00095795
fussent had 0.0196699
mise be 0.00386401
serait science 1.93202e-06
fois from 1.92856e-05
d' conspicuous 3.12605e-08
a really 1.03756e-08
eu no 1.71436e-05
restée not 0.000368011
autres could 6.15135e-07
et speed 1.09622e-09
est exclaiming,-- 6.4221e-09
trouvaient find 1.1471e-06
purgée rid 0.999902
dû gained 2.56118e-06
ce way 1.36457e-08
courons shall 1.47066e-05
chagrin pain 1.55955e-05
aiguë rock 1.2299e-06
autant sheltered 5.53687e-07
prendre matter 1.34261e-07
guère can 9.11962e-06
cyrus waves 3.99834e-07
pussent might 1.39978e-05
avant for 4.80355e-05
avant return 5.09359e-07
montrer just 2.24822e-05
reparu seen 3.29011e-05
dans when 5.07532e-08
brick course 3.71061e-07
passer noted 2.51683e-06
ses every 1.24718e-06
bon large 6.98787e-08
travail absorbed 1.16454e-06
peuvent as 3.17496e-05
jugé thought 1.45416e-05
agi wisely 7.50179e-06
précédemment followed 2.06911e-05
elle raised 2.56687e-08
simplement armed 4.76012e-07
dans unfavorable 1.47144e-08
engager allowed 5.55663e-06
-- from 4.00146e-07
sous punishments 1.11339e-06
sous threatened 0.00172676
ses criminal 1.01189e-07
tribord quarter 1.4869e-05
encore unworthy 3.14321e-07
atterrages the 0.290811
atterrages NULL 0.0042785
trouvait far 3.77127e-07
pas been 3.85719e-06
communication there 5.08698e-06
nouvel occurred 1.19854e-06
et been 1.0899e-08
serait bonadventure 2.57772e-08
là mine 4.77677e-08
s' dirty 1.86587e-08
droite left 9.19876e-07
au way 1.31551e-08
au make 1.96825e-08
le land 6.5253e-09
retombait current 6.26034e-06
ce involving 2.41094e-07
charbon composed 3.61761e-06
guère chance 1.39725e-06
guère in 0.00125758
réunirent brought 0.00100928
si for 6.33572e-07
apprendre it 0.000462066
était sailed 8.48082e-06
attendrait await 6.13928e-05
assistants surprise 2.75975e-05
terre spot 2.23376e-07
sur spot 5.89738e-08
sur reach 9.03763e-09
travers over 1.03156e-06
mer irish 4.35208e-08
comment that 1.67868e-06
quand , 8.11495e-06
dire escaped 2.74352e-08
faire coming 3.15206e-08
parti NULL 0.00398719
par wrecked 1.25121e-08
voix stifled 5.39499e-07
regard stranger 2.36469e-07
coula fell 2.01247e-05
souffrir surf 8.55306e-06
raconter say 3.61068e-06
serais is 1.75147e-05
laissa there 2.62934e-06
ait always 2.45667e-07
rapporter or 0.000113964
jugement opinion 2.5529e-05
jugement what 0.0020358
point even 1.91017e-07
n' even 7.25923e-08
il even 2.37604e-08
une likely 7.20854e-09
élevées height 5.84325e-06
pas nor 1.03502e-07
rapide waves 8.43871e-07
au so 7.46322e-08
forge roughly 7.69698e-05
fais present 8.565e-06
fais a 0.000114349
fais NULL 0.000250107
poussant with 0.000289208
plus restless 9.39738e-09
une impregnable 7.65928e-09
que pure 5.32382e-09
contiendrait contain 0.000292274
réussit success 0.000215002
réussit complete 0.0887568
réussit a 0.00012107
réussit was 0.0138419
possédait ingeniously 7.34106e-06
ont possess 1.11548e-06
eu great 2.62063e-07
il frame 3.98433e-08
mouvait making 0.000775126
relevé taken 1.32934e-06
quand which 6.31054e-07
cela difficulties 1.3058e-07
hydraulique power 2.92451e-05
train way 3.27197e-06
dans bleated 1.24985e-08
favorisèrent several 2.9617e-05
tournait turned 7.8337e-06
et becoming 1.96477e-09
vent NULL 3.40796e-05
électrique depths 8.02404e-07
par cessation 6.96391e-10
fois cessation 7.58936e-09
électrique week 2.17509e-07
électrique lasted 1.22444e-06
électrique weather 7.54346e-07
chef thanks 1.16601e-06
manifester showing 0.212049
propulsive times 3.36842e-05
doigts used 6.85257e-05
doigts box 0.000127868
dans heads 2.64908e-09
fermés cut 3.8626e-05
pennes feathers 0.00234056
sans of 2.21492e-06
même scene 4.5144e-08
chariot better 2.0426e-06
par short 8.44344e-09
doux glossy 2.14191e-06
l' stones 2.2633e-09
l' cemented 2.8812e-06
il and 1.7747e-07
qui saluted 3.9803e-08
s' cunning 4.67724e-08
pourrons are 8.01305e-06
visa aim 4.72008e-05
bien darkness 1.27554e-08
mon explain 1.4234e-08
mon NULL 1.4973e-05
du their 4.11316e-08
tenons consideration 7.59536e-06
tenons into 3.02552e-05
installa entered 4.05095e-05
d' several 7.07503e-09
les forest 3.70103e-09
et ! 4.54534e-08
, ? 3.06297e-08
errer round 0.000322535
éloignées far 5.04232e-05
l' sanitary 4.01819e-09
présumé sought 1.22221e-05
liseré crest 0.000177438
ferait should 1.6952e-06
loin , 0.00012141
débarquèrent this 0.000472662
! bowl 3.37972e-09
fusils flint 0.000291317
demi-livre tobacco 6.77068e-05
demi-livre difficult 6.95677e-05
demi-livre therefore 1.4166e-05
demi-livre NULL 0.00982871
leurs provisions 9.16633e-08
arriverait reach 0.203631
arriverait would 0.00417345
deux the 5.25673e-06
donc seated 2.53081e-08
est got 5.01574e-09
postérieurement behind 8.11339e-05
, situation 9.28284e-10
toute beautiful 2.55675e-08
ne portage 7.15045e-09
atteint wounded 1.26069e-05
chasse light 6.00038e-07
tiraient drew 0.0259868
séparées well 0.00483718
saute moderated 0.0372713
saute atmosphere 1.82089e-05
ce degree 1.32527e-08
dépasser , 0.00375417
construite made 0.54087
polaires now 0.000112662
refroidie cold 1.72777e-05
leur able 6.98217e-06
leur was 3.56915e-06
espèce NULL 9.24409e-05
excellentes plenty 4.97576e-06
évidemment till 0.000276912
trou perpendicular 2.10998e-06
les manufactory 1.08821e-08
pour exposed 3.62153e-09
la farther 7.33359e-09
briquet steel 1.05312e-05
orifice looked 7.53229e-07
afin chimneys 1.09239e-07
témoigner showed 7.16598e-05
effet needed 5.22094e-07
effet therefore 9.54087e-07
déterminent cause 5.78597e-05
au scattering 1.50619e-09
assez porous 2.60667e-05
bain water 0.00106328
quoi how 2.39114e-06
façons many 2.43894e-05
assez crystals 4.65799e-07
rive granite 2.71278e-06
produisait there 3.63302e-05
malaisie elsewhere 0.000687884
malaisie archipelago 0.00179205
malaisie malay 0.000210974
évidemment NULL 0.000159854
rives northern 1.94828e-06
plaine sandy 3.942e-06
-t NULL 0.000117269
redoutables enemies 3.80918e-06
toute " 6.72723e-06
dirigés directed 2.97289e-05
loin NULL 0.000284896
avait about 1.0069e-07
fut of 2.34188e-06
fut morning 5.14023e-06
achèveraient continued 8.80125e-05
comptait wished 7.91659e-07
leur manage 7.42154e-08
pas send 5.84201e-09
il captured 3.80182e-09
fondrières holes 0.000164881
exploitations NULL 0.00994916
fonte changes 0.00366967
ayant with 0.000167466
termes words 6.51172e-05
horizon northern 4.20818e-07
horizon above 4.26666e-07
ce determined 3.16118e-08
proportionnelle NULL 0.00201253
trouve proves 3.98421e-06
avec suffering 3.48973e-07
dureraient least 0.0040024
dureraient last 0.000683242
cette for 4.21947e-07
environ from 1.88729e-06
pourrai shall 3.7284e-06
appartenir companions 6.6456e-06
aménagées more 7.429e-05
aménagées made 0.812895
gens all 2.60478e-06
exigeaient necessary 0.00239501
des few 2.79704e-08
anxiété awaited 1.97216e-05
congrue taste 0.993089
congrue much 0.00691135
ressemble is 0.0001257
chez NULL 0.00206253
fut opportunity 3.40459e-08
, and 1.1006e-07
approches approaching 1.9168e-06
pétillante fire 0.000127499
enlevés taken 0.000133887
assommer just 3.23876e-05
une added 3.86754e-09
inférieure half 2.17469e-05
inférieure than 5.24726e-06
vit was 0.00273219
seul here 9.45904e-07
avait remained 1.76713e-07
était went 2.36114e-08
fermait up 0.00174509
fermait brought 0.0235684
déclaré set 3.54544e-06
double arch 8.16448e-07
pour handkerchief 4.52497e-09
dès at 6.51645e-06
croyait did 2.11976e-05
croyait NULL 0.000158713
trouver forget 3.05904e-07
lui re 9.32542e-08
as NULL 9.15291e-05
n' easily 1.69636e-08
couloir narrow 1.96142e-06
vrai NULL 4.18486e-05
trouvaient was 1.64106e-05
plusieurs few 2.64794e-07
attendre awaited 2.73735e-06
les northern 3.88173e-09
-- , 3.24419e-07
haute hill 4.36025e-07
foulaient were 0.000309066
n' engineer 3.38898e-08
scellé ring 3.73477e-05
gaz lamps 8.9838e-06
. , 5.97599e-07
fait be 5.35213e-07
surveillance guards 0.113194
rang first 6.00049e-05
fouettée white 3.04213e-05
un chargers 1.63274e-09
lesquelles chargers 9.51471e-07
regards position 1.35505e-06
haut position 3.39689e-07
point land 1.61199e-07
dégageait threw 0.00323559
étaient obscurity 5.36605e-07
auraient NULL 7.59504e-05
me imagined 9.19844e-09
reverrons other 0.000130838
davantage applied 1.34834e-06
pliant bending 0.00793465
lés the 0.170465
poussai out 0.000137377
un rolled 2.35287e-07
complices act 4.43973e-06
âmes soul 1.62592e-05
implacable feeling 0.000281767
prodigieuse strength 6.28991e-05
prennent see 0.00946505
prennent n't 0.286827
certain surely 8.2814e-07
regarder watching 3.85313e-05
et head 4.49861e-09
la attempts 1.35849e-07
bord detected 0.000699354
clous someone 2.94033e-06
clous occasions 4.38608e-06
fourmilière swarms 0.00118795
qu' simply 2.68579e-07
donne among 4.94077e-07
donne lumpfish 0.00426708
aussi place 7.12874e-05
aussi same 0.00158188
aussi myself 0.000131975
aussi attached 5.54413e-06
qu' anything 2.58947e-08
permis n't 9.92586e-05
trouver lie 4.16268e-06
relevant stood 3.88492e-06
éclater off 0.000235395
éclater go 6.46505e-05
entendu bad 7.04309e-07
huit accurately 2.92641e-05
reculons backward 0.000984339
égarer wild 0.0282377
s' may 1.05205e-06
encore believe 2.98905e-08
véritables hereabouts 2.12591e-05
on sticking 9.57202e-08
se sticking 3.55063e-08
on hauled 1.45219e-07
par board 3.94605e-09
dont creature 0.000209407
torrides zone 0.00973977
trouva abreast 4.55298e-05
trouva lay 3.22687e-06
trouva plata 0.000137027
polaire antarctic 4.00721e-05
as great 3.08374e-06
bon yourself 8.97883e-08
bon generous 3.64448e-06
trouvant concluded 0.00171934
enlever surface 2.64397e-06
cherchant quest 0.0401348
ne escaped 8.68272e-09
retarderaient delay 0.00419261
sur efforts 7.21951e-05
. water 3.80473e-09
nous asphyxiated 6.22585e-06
pas world 1.23742e-08
de calm 5.78007e-08
calmer calm 0.00253148
fit could 1.83462e-06
poser put 5.63156e-05
aise wanted 5.00385e-05
avec due 8.19495e-06
avec headed 1.95382e-07
sa line 7.10048e-08
sa boundary 2.38376e-06
jour lipped 4.34038e-06
emploierai use 0.00288306
regagnâmes back 0.122239
regagnâmes went 0.511315
paru appearance 0.0462516
paru made 9.36363e-05
tâtonnements bank 0.00447194
irez any 0.000331133
irez get 0.000401973
perdus up 1.41064e-05
perdus swallowed 0.000119014
perdus completely 0.0665027
écroulée ruins 0.0419894
ou patches 0.000437981
enchantait classified 6.3516e-05
lumière insides 7.48565e-06
semblables like 3.08062e-05
obscurcir phenomenon 0.966176
obscurcir obscure 0.0338242
surveiller keep 4.51897e-05
pendant over 2.29142e-06
auraient might 4.97256e-06
des flying 5.05854e-09
sauver out 6.27901e-05
mysis mysid 0.978283
les ripples 1.53921e-06
creusé cut 8.76867e-05
et prehistoric 8.63214e-07
appartient many 2.38606e-06
avec southward 1.26005e-06
profonds underneath 0.548449
profonds deep 0.000152789
séculaires years 8.45258e-05
vieillards capital 0.00230647
apparaissait seemed 9.16525e-05
réitérer repeat 0.000301212
redescendîmes below 0.000492594
il ned 4.82677e-08
conclu wrest 0.000894108
arrêter rest 0.0236697
désert darkness 3.04703e-06
aspect austere 0.00020337
éprouvais felt 5.97684e-05
manquée being 0.000158215
me did 9.3739e-08
navires collisions 0.0170378
toute crossing 4.07094e-05
dépassé gone 0.00112508
remit back 3.15466e-05
passions by 0.37489
européennes europe 0.000138367
regrettez sorry 8.74552e-05
regrettez are 0.00554968
retrouverais would 0.0014815
je port 2.62627e-08
suivit along 8.10788e-05
verrez learn 1.5602e-05
moins salty 0.00134344
brûlerait work 0.000677403
quantité many 0.000174067
très value 0.000145721
hydrophytes plants 0.000405368
hydrophytes water 0.00017114
une rate 7.82237e-07
passage bab 0.000304416
mener very 0.132153
banc bank 6.73237e-06
contient held 5.16329e-05
isolément itself 1.07422e-05
développait grew 1.59599e-05
entraînait into 0.000123688
unes greenish 6.61228e-06
caoutchouc clothing 0.0221869
vêtement india 0.000354141
accompagner go 0.000464873
fit broke 5.26932e-07
dis tone 4.31147e-07
est unusual 3.60439e-06
est really 2.34199e-07
terminé fix 0.00104446
s' spreading 1.03255e-06
comment instant 1.65098e-07
donné able 1.47622e-07
rapproche near 0.00556513
léger low 1.32197e-06
conduisit took 1.81566e-05
les yesterday 3.30244e-09
demande unexpected 1.60943e-06
retrouver back 2.31197e-06
ailleurs case 1.06095e-05
rappeler happened 1.09375e-06
rappeler lifestyle 3.56621e-05
vie envisioned 0.000248489
tranquilles calm 1.3533e-05
et relative 7.99776e-10
entreprendrai zealous 1
qui red 8.97504e-07
qui craving 9.84628e-08
viande craving 3.42446e-06
dit note 1.53753e-06
la no 7.10172e-07
marteaux shells 0.0013111
marteaux hammer 0.0303689
valait back 5.88377e-06
valait actual 1.35853e-05
valait to 8.82111e-05
effrayaient frightened 0.000263539
celle stared 4.31513e-06
semblable looking 4.00442e-07
la complain 4.84243e-09
donc keep 4.63351e-08
taillis moderately 0.00189093
humidité dry 2.68581e-06
potage course 2.18667e-05
toujours observation 3.25052e-05
toujours under 3.62914e-07
plus navigate 4.85595e-07
cette phrase 3.81503e-08
là these 1.482e-06
par accept 2.65291e-08
plaisir heart 2.99991e-05
monsieur conclusion 7.83113e-06
n' since 4.43658e-08
te know 2.09726e-05
te 'd 0.0362049
bâtiment smaller 0.000115792
car ultimately 6.41391e-06
car misfortune 3.57117e-06
prolonge extending 0.378389
accroissement rate 0.00013727
mètres 100 1.20748e-05
reviendraient would 0.000779383
cubes leagues 0.000102619
alors opened 3.09598e-08
témoin witnessed 8.94262e-05
rapprocha close 4.87983e-05
rapprocha took 0.00066222
rapprocha quickly 0.000541942
premiers rocks 0.000386114
suivis so 0.000246267
possédiez own 0.000466374
espagnoles called 8.11001e-05
mon addressed 2.26054e-07
on want 9.98298e-07
sa else 1.2827e-07
fit appeared 1.17224e-06
une submitting 5.85502e-07
oubliant aside 0.000351005
vitrines windows 0.00132695
vitrines show 4.33149e-05
valoir enhanced 0.0920255
» blindfolded-- 4.27651e-08
ses motala 2.49834e-09
sein these 2.06568e-05
cubes water 0.312756
uniformes murillo 0.498614
fantaisie government 0.000176545
et smoke 1.93996e-08
à smoke 5.14082e-09
apparaissaient newspapers 0.00188048
porte none 5.94126e-07
peut freedom 1.29232e-07
releva quickly 1.06997e-06
cela complaining 3.4914e-06
là point 1.13643e-07
par using 3.97524e-07
natures people 0.000250792
mènerait n't 0.00031225
pas make 5.3767e-07
résistions barely 0.00194371
rabattues driven 0.00185773
on myself 3.15607e-07
dur banged 0.000250801
infortuné devil 3.02166e-06
accroché forecastle 0.000221001
recommença again 1.99154e-05
veut against 5.70949e-06
ai win 2.28845e-06
ai expected 3.967e-08
laissa stripping 0.00199546
trois during 2.13982e-07
restait most 0.000245087
avoir kindly 4.2365e-06
comment after 2.3173e-07
comment 're 1.69117e-07
flèches firing 1.09618e-05
par times 6.68527e-08
perte amounts 0.000728236
perte recorded 0.0142142
ces shoulder 1.12568e-07
sa quarter 0.000557225
gigantesques creature 6.86518e-05
ma distinctly,--'surely 0.000344972
seigneur clears 2.58063e-06
avec faithful 2.24156e-07
sienne devoted 2.46668e-06
sienne confidence 2.22514e-06
j' bestowed 5.30998e-09
nous animated 4.93704e-07
c' other 3.08855e-08
c' each 1.92586e-08
c' talk 6.6891e-08
sa corrected 5.59163e-07
: pursued--"i 5.35242e-06
une visit 2.59887e-09
suis it 5.64101e-05
suis is 9.74859e-06
importent now 0.000256992
importent jewels 0.205556
venais gave 2.62409e-06
me really 3.89268e-08
et ladies 9.59718e-10
dessus that 1.29921e-05
voyiez would 0.000155385
contraste overwhelming 0.000387768
voulus charm 6.75167e-05
ses fair 7.29704e-08
bien dry 1.37869e-06
brillant were 4.60121e-05
vert brilliantly 3.70383e-05
. exalted 1.38971e-09
me which 6.02041e-07
soupez do 0.000490151
mon cicatrised 8.89121e-06
pour too 1.75725e-08
verre half 4.37268e-06
faisant with 0.000158026
pensent think 0.000183353
avec had 1.57986e-07
de recall 7.83459e-07
raconter feared 3.93882e-06
des de 3.44824e-08
a sweetly 4.16813e-08
ouvert yet 0.00013901
placée behind 0.000122347
placée from 0.00805805
ces desert 5.20925e-06
l' nothing 1.51401e-07
partir diana 1.97103e-07
démontrée known 1.40477e-05
est fails 3.03483e-07
il fails 1.61486e-09
qui dying 2.22292e-07
je fortnight 2.22325e-08
dans indian 7.31246e-09
dans labourer 2.39594e-06
vous loved 2.96739e-08
. done-- 1.28725e-07
ai admire 2.11225e-08
enrôler engaged 0.000110582
acceptez object 9.20845e-06
mais operation 1.44028e-07
regardez us 6.59906e-05
ferons had 0.021169
ferons i 0.000263186
ferons and 0.000536605
ferons you 0.000423531
hélas well 0.000891087
hélas know 0.0325292
labeurs cares 0.0036853
vous tests 1.33554e-06
bientôt ) 3.27923e-06
et fit 1.44553e-09
à join 3.51501e-07
voile on 2.89379e-05
voile sails 0.00372108
arrêté taken 5.27069e-06
santé task 6.79526e-05
ma morning 6.83862e-05
ma very 8.97525e-07
ma being 7.41479e-07
étions occupants 1.01856e-05
air ill 3.1796e-07
pensais chance 2.48965e-06
m' result 1.73562e-07
aussi exclaimed-- 9.97351e-06
selon equally 0.0295515
selon was 2.91649e-05
selon as 6.61917e-05
diana former 4.05731e-05
cousines mary 0.000136442
saint-john refused 0.00120193
saint-john lightly 0.000935322
schiller morton 0.00361844
sortirent form 1.13197e-06
connues form 1.78396e-05
demandera surely 0.000267772
liberté hannah 4.35915e-06
côté opinion 9.84371e-08
-ce penniless 9.82408e-06
vous neglected 1.79465e-07
les joy 4.87926e-08
tout must 4.94631e-08
tourna again 2.44345e-05
. abstraction 3.78316e-08
dans abstraction 2.61073e-05
jugez don't 0.0621557
malgré against 4.90794e-06
conversation ground 4.28535e-06
avoir consternation 1.55998e-07
surprise crossed 8.5684e-05
prit again 2.38004e-07
est apostle 8.415e-09
restais silent 6.38782e-06
aimeriez wound 7.0076e-05
soudaine abruptness 0.0123803
âmes sordid 3.77836e-05
! papa 2.0966e-07
dans affirmed 6.49709e-09
parce despair 2.12265e-06
aiguiseurs knife 0.00223988
en attendant 8.87286e-07
ses duties 4.91722e-06
autres born 0.00307877
autres best 8.47461e-05
coeur those 0.00457551
end end 0.000286659
pas be 6.04812e-07
dis rivers 3.16843e-06
obligée recall 0.000307008
assidue she 0.00122331
évite whatever 0.000144628
juge penetrating 7.19604e-05
du much 1.82519e-06
tourterelle dove 0.00257632
simple enough 6.14702e-07
habits things 2.09552e-06
je apparel 6.65516e-08
et countenance 4.29334e-08
semblèrent seemed 4.09123e-05
vous does 3.30507e-08
un stocking 7.10589e-07
réclamer isolated 2.55229e-05
réclamer expect 0.0129792
coeur voice 3.53009e-07
mais possession 3.17161e-07
moindre cold 0.000126584
moindre , 0.059944
moindre pillow 1.25039e-06
moindre mossy 1.98699e-06
soir conclusion 1.84449e-05
où coin 0.000145016
devais where 3.99658e-05
du reigned 3.38652e-07
devenir dread 2.78047e-06
puissiez may 4.30189e-05
sombre short 2.73641e-07
coule insane 0.000177941
sincèrement love 3.44073e-05
. reminiscences 1.46082e-08
avec your 1.6825e-07
vous demanded 2.13026e-08
attendent attend 0.000142377
haine vindictive 0.000125934
prenez sir!--for 0.0036407
aller stay 2.32805e-07
vous stay 1.56896e-08
aujourd'hui ? 0.0143346
bonjour morrow 1.0883e-05
suivaient came 1.16919e-05
mariage church 2.43497e-06
; parentage 6.42756e-08
un solicitor 8.5799e-08
marbre stained 0.000170224
reposez delay 0.000247694
fuyaient eastward 0.00103312
ce entrance 6.7217e-08
inconnu child 5.75852e-07
regardez NULL 0.000115085
moi prove 5.89125e-08
figure flushed 9.86235e-06
gris raiment 0.00100546
gris wedding 8.26625e-05
mais doing 8.82816e-09
bien flattered 1.057e-06
je vocalist 6.71192e-08
je lay 7.56559e-09
moi volcano 1.17932e-07
tout absolutely 1.79871e-06
prochainement to 0.000820703
l' irritated 1.23932e-06
moi may 4.98123e-07
sembla averted 3.46099e-05
satisfaite granted 0.00132691
satisfaite request 0.000625306
est gild 7.06904e-08
envoyât send 5.43598e-05
faisaient rooks 1.35365e-05
les rooks 5.70894e-08
autour on 5.10593e-06
moment did 1.89154e-06
tout happy 1.24814e-07
? sincerely 9.45832e-07
l' what 9.10408e-08
occuperai shall 0.000290715
deviné pre 0.00330073
marronnier horse 0.00921376
triste fierce 5.96325e-05
heureuse strangely 5.75489e-06
voyant way 7.66593e-07
aperçus flowery 3.45923e-06
je attempted 1.14072e-05
les independent 1.54568e-07
fis shaped 0.000255807
fis large 2.25143e-06
éclaté there 0.000865728
éclaté out 0.00664302
éclaté broke 0.000362628
abord there 0.00639652
bien give 5.78823e-08
tenir break 1.68783e-06
nouvelle things 2.98873e-06
je remember 3.09952e-09
heures four 7.45309e-08
prouver word 3.06725e-05
il wrong 1.50101e-09
rejeta hastily 6.70839e-05
rejeta as 0.000146555
craignez never 3.29234e-05
n' secure 3.73752e-07
? balmly 3.07546e-05
du balmly 4.34565e-07
légers high 0.000176882
avait house 3.08985e-08
avait prepared 0.000421982
prenez taken 4.9981e-06
cordial liquid 0.000412314
il used 4.11789e-08
supposerez may 0.000610122
taisez come 6.19872e-05
sang drain 0.000432968
sang 'd 6.79549e-07
sang sucked 2.12123e-08
pourtant no 1.49549e-05
son calming 1.89436e-06
son darted 1.6898e-07
son looked 9.78129e-07
me dangerous 7.24345e-06
me wax 0.000132754
pressaient crowded 0.00338409
pressaient fro 0.00291431
battre still 9.49658e-06
aussi arm 1.3371e-07
leur sphere 1.62539e-06
leur its 0.00156491
toutes run 4.61645e-07
franchement truth 6.60605e-06
vous spirit 2.68919e-07
seul movement 1.06264e-06
pipe short 6.68543e-05
me impudence 2.39513e-07
dois for 0.0109162
recevoir sir 0.0311894
nous sport 1.79887e-07
d' consult 4.26464e-07
par : 3.26246e-07
les meet 3.99414e-09
dirigées shot 0.000538912
alors hero 7.23146e-07
comprendre sort 2.09752e-06
commandez command 0.0109185
me command 7.4885e-08
connaissons them 2.67351e-05
rappelez merry 0.000100772
elle fabric 0.000286895
elle indian 8.12427e-07
elle turban 9.99669e-08
de retired 1.60062e-09
dans filled 1.72952e-07
plus mind 3.73259e-08
des plate 1.5625e-07
rapidement below 2.6137e-07
rapidement post 1.8368e-06
john answer 5.35796e-07
on chance 2.30673e-08
qu' chance 1.92454e-08
ici quiet 1.52551e-06
entendant i 5.55245e-05
famille plain 8.06395e-07
qui women 1.77777e-07
grasse flesh 2.58599e-05
grasse colour 5.53012e-05
verrou door 1.09988e-05
a --"did 5.34621e-07
... comprehension 7.27757e-07
fait tolerable 1.70848e-06
suis pleasure 1.41466e-07
dans still 9.66064e-08
qui uttered 4.26036e-07
parents mother 4.32693e-06
ses crow 4.70415e-06
paysage world 0.0196743
paysage NULL 0.00120923
t- votre 0.0585741
t- mille 0.00751573
tuteur predicted 5.12816e-05
pourquoi therefore 9.62312e-06
fétide puddle 0.535044
répondis thinking 7.78932e-06
-- manner 7.99794e-06
jouez can 0.125238
put again 9.10035e-06
put now 1.68575e-05
des evening 1.87604e-07
et ' 7.99643e-09
aimez are 9.73109e-06
me compels 7.64358e-07
marcher foot 5.34206e-05
seulement sprain 0.000927353
qu' however 3.19023e-07
trouvai walked 6.50076e-06
ses . 0.000428919
ses proportion 4.88982e-06
ses deep 1.04987e-08
terre barked 3.12728e-07
ses predicament 7.08354e-09
ses back 0.00197998
ses bounding 1.7602e-05
entretien sort 1.23415e-05
entretien effort 0.000577272
laide apparition 0.00781497
écriai out 2.86468e-05
maison apartments 0.00314077
s' evidently 1.48244e-07
me offer 2.23702e-07
n' no,--i 5.12959e-06
enfin ring 7.50426e-08
montrer together 3.04065e-05
position change 1.1611e-05
son mother 5.47112e-08
école solace 7.14429e-07
appuyée burns 0.000172402
arracher take 5.27695e-06
abandonnez leave 0.000262545
avec lie 1.641e-06
infirmerie room 0.000662469
ouvrir heard 7.66147e-06
elle reluctantly 4.49181e-06
retint helen 0.000412995
laisserions ever 0.000247711
ma stool 5.48385e-06
choquant pupil 0.00182903
choquant shocked 0.0062422
choquant dazzled 0.00871354
que circumstance 1.58602e-07
que please 9.43215e-08
collerettes johnstone 3.37402e-05
devienne testament 0.0367578
guérit certainly 0.0013765
guérit most 0.000290318
mienne questioned 0.0188064
tout farther 1.9691e-07
. bordered 3.05564e-05
avais nearly 5.16641e-07
. these 1.30139e-08
devoirs hand 3.91951e-05
vingt-neuf impressed 1.03802e-05
souffla sounded 0.000203945
haut musical 0.00703432
: slapped 7.13829e-06
longue alone 1.40476e-06
claquaient hastened 4.83851e-05
glaciale raw 0.161626
cette recent 1.80437e-07
; nourishment 1.49963e-06
mes speaking 8.64211e-07
; 'll 1.8481e-05
pourquoi tremble 8.6133e-07
mais walked 1.52818e-05
retournerai return 0.000888135
sera being 2.69048e-07
reed manner 1.66994e-05
reed brought 3.89871e-06
il since,--a 2.04058e-10
ai since,--a 8.96236e-05
bien since,--a 7.0736e-05
et answer 1.98366e-09
soin child 1.15039e-06
beaucoup often 5.76002e-07
m' now 4.21499e-07
répondis conclusion 1.13342e-05
! conclusion 1.36351e-07
! audible 1.90143e-07
aimerais like 8.72568e-05
aimerais indeed 0.000150203
aimerais should 0.000154712
que possibly 3.09297e-08
n' ca 1.00282e-07
quand candle,--so 0.000220166
gateshead hall 3.37928e-06
presque rather 6.62652e-07
reviendrait call 1.49728e-05
tout we 3.27651e-07
mes wild 1.31021e-06
abbot bessie 2.56718e-05
elle vassalage 8.55862e-05
esprit come 8.10941e-07
j' whereof 0.000107256
gagnez your 0.000543712
extrémité its 3.87341e-05
froid twilight 0.0097679
froid raw 0.000237496
dressée between 3.61407e-05
ramèneront take 7.18148e-05
faibles wanting 2.27861e-05
courait great 3.00303e-05
aimé great 2.32459e-05
courait was 4.02848e-05
venait began 2.55239e-07
sache see 0.000258728
cela notwithstanding 2.37166e-07
tenta not 0.000904849
traînant judges 0.00123864
coupable he 0.016849
jeune woman 6.23925e-06
disais well 3.07205e-05
sombre mantle 0.000104386
tourner go 9.7627e-06
sous amid 6.15743e-07
cherchaient sought 9.34754e-06
enfonça out 0.000115726
enfonça went 0.100696
y stood 1.97248e-08
chemins different 1.57788e-05
nous everyone 2.46427e-07
beaucoup suffered 3.32928e-06
: for 6.58823e-06
: weep 0.000212707
effet at 3.1546e-05
nues hands 0.00108517
faire power 1.37784e-07
froide burst 0.000724165
affreux heard 0.000214746
affreux noise 6.1178e-06
devaient could 0.00053648
d' get 6.99816e-08
c' get 1.44917e-05
lui need 2.0022e-08
ici what 3.56904e-06
d' what 2.13958e-07
viennent may 3.12654e-05
se possible 4.18989e-08
a reveal 4.05104e-08
sûr him 4.21403e-06
après-demain after 9.98903e-05
après-demain day 4.35683e-05
retraite unacquainted 5.65412e-05
et recover 2.80175e-08
tête she 3.04268e-06
pas meet 1.8964e-08
réellement intimate 0.00207346
été sent 8.7073e-08
faudra power 6.69969e-05
ferons power 1.66205e-06
physionomies face 4.20805e-05
passa describe 3.00566e-06
tint confined 0.0544023
ailleurs likewise 1.74426e-05
! pleasure 4.84005e-08
ceci simple 2.21898e-06
à simple 9.24141e-09
aurais quite 1.8397e-06
serrant upon 2.64986e-05
j' resistance 4.0306e-08
sauta seized 0.000454341
allait began 0.0010669
ordinaire calmness 0.00148408
être urged 2.24379e-06
étais could 9.93933e-07
jetiez shore 3.8821e-05
sentit found 3.55074e-06
leva burned 1.31515e-05
leva bed 2.89029e-07
seulement change 1.12231e-07
palpitant palpitating 0.00115315
mais poniard 7.44245e-09
quoique act 4.21131e-05
quoique how 8.75635e-06
dites-le-moi ! 0.047971
arme power 5.24441e-06
si well 1.74817e-05
opposai opposed 1.40991e-05
fût creaking 3.05732e-07
endormir falling 3.22251e-05
étaient ill 4.85522e-08
oser do 0.0012887
projets intentions 4.17242e-07
visita looked 8.48702e-05
réveiller brass 0.000199099
pas away 5.14739e-07
john you 0.000854469
qu' he 8.00428e-07
fauteuil ground 1.57879e-06
cherchez look 8.41884e-05
parquet ground 2.48885e-06
appelez ’ 1.28067e-05
coupable oh 2.25371e-05
felton him 1.01909e-05
profonde ardent 0.0111672
voilà ! 2.82073e-06
faut match 6.85831e-07
couvre herself 1.66813e-05
n' form 9.13621e-08
reprenez read 0.249839
trouverait be 0.000110469
trouverait might 3.10638e-05
nous perform 5.32787e-08
bon we 4.29512e-06
crois scoundrel 0.00359345
crois you 0.00357198
crois NULL 0.000566605
aide means 0.0279094
rendit brought 1.53038e-06
était nevertheless 5.84688e-08
impuissance want 0.000258252
reste yet 1.0153e-05
dans sometimes 1.66774e-07
armes army 0.0122444
lui- recognize 2.84905e-06
d' trouble 8.136e-09
d' saved 2.98082e-09
ailleurs and 0.00815541
sortez leave 5.86488e-06
admettre suppose 9.234e-06
son smiling 2.41362e-08
suis guarantees 4.05059e-08
maisons seen 8.33811e-05
ait as 0.000767291
eut feared 1.77732e-06
donc latest 7.46772e-07
fait give 1.42692e-06
qui remained 1.87076e-07
qui alone 1.48523e-07
» joyful 6.94401e-06
allures proceeding 0.000135155
partirait set 2.26635e-05
arrive purpose 0.00472904
coquettement folded 0.000776131
est prevented 1.61231e-07
est buckingham 1.23653e-08
vit live 2.38147e-07
même obtained 4.27812e-07
dire doubt 6.51897e-06
répondrais would 0.000155584
plein very 3.19141e-06
plus why 8.77773e-08
avec basket 1.71593e-06
comprendre NULL 0.000135007
sauvera take 0.0004703
succédèrent repeated 0.000806407
souhaits service 0.000119569
autant blow 3.86655e-05
qui has 1.17828e-06
toutefois having 1.9082e-06
approcha placed 4.30708e-07
nous by 2.40705e-07
chevau light 0.000371615
- applied 4.28037e-05
accordaient agreed 0.000187911
feutre putting 0.062901
son putting 1.97193e-07
repassa returned 0.000847533
inflexible beast 0.000123439
conjugale scene 0.000193183
pour exchange 3.44851e-08
troc fair 0.00236695
est once 7.49869e-09
n' can 2.01544e-07
ses your 3.79994e-07
un merit 1.83154e-07
; enter 1.10561e-08
sévèrement orders 4.97104e-06
donc carry 2.13916e-07
façon watched 0.00219741
façon monsieur 2.6184e-06
pas say 5.49844e-08
... gain 3.46001e-06
méfait crime 0.00266257
excuses accepted 0.000417337
tutoyait thou 0.00139437
m. live 5.68113e-07
donc fixed 2.45234e-07
alors and 1.80236e-05
tu your 2.61257e-06
élancèrent sprang 1.50595e-05
élancèrent immediately 0.000223791
coururent were 7.55618e-05
fusil barrel 0.000443858
pût able 6.88827e-07
et inspired 9.09715e-06
côté naturally 1.10778e-05
données given 3.9838e-05
compagnie guards 0.0124125
être dissatisfied 2.73084e-06
passer come 0.00849761
avez received 1.29512e-07
lorsqu' as 0.00030256
veulent can 0.104057
monté street 2.28953e-05
hâtons make 1.50402e-05
choisi yourself 1.99843e-06
part whence 2.23623e-06
tirerez they 0.00155864
bien rendezvous 1.99474e-07
long folded 2.54737e-05
avec back 2.15586e-08
ici any 2.50216e-07
prenez use 3.68897e-06
noirs eyebrows 3.57928e-05
approche room 0.000186502
hui today 0.00111661
qu' touch 2.07175e-07
est except 4.07241e-08
trahir turn 8.31222e-06
paierai should 0.00059973
vivante animated 3.84639e-05
mon with 6.96637e-07
prendre formed 3.11215e-07
prendre appearing 1.15583e-05
la nearer 5.32073e-08
vous need 2.57659e-08
retrouva again 9.10549e-06
cette go 1.20997e-06
cette would 2.28103e-06
une accept 4.11905e-08
et letter 1.61131e-09
coup cried 4.79247e-07
avec given 0.000404929
voilà have 0.0019869
: deceive 3.23721e-06
pleurait NULL 0.000645369
t- enter 0.0119295
par repeat 3.98913e-08
crut wife 3.24261e-06
donc rang 1.17214e-07
soit have 2.72289e-05
vendu him 0.000403675
vendu got 5.73366e-05
serrée badly 0.000128113
davantage about 8.97281e-06
front broke 9.65807e-06
dormez are 0.000145149
me appoint 2.62605e-09
. coquenard 4.37721e-09
toute to 1.65012e-05
salle reception 3.33596e-06
presque stairs 0.00502703
sur reckoning 1.08206e-07
respecter forced 0.000283515
enfoui face 0.000829564
mal half 8.03129e-06
mal staircase 4.90151e-06
en winning 6.90355e-05
cet climb 2.15208e-05
regardée observed 2.9298e-05
temps warned 2.39843e-06
dont produced 2.96351e-08
il man 1.08299e-07
couchant sun 0.000266095
! oddly 1.13026e-07
produit made 1.30888e-05
serez confess 1.31827e-05
donc quickly 8.45045e-08
oui " 2.37872e-05
était find 1.22438e-08
montez get 2.43378e-05
préoccupation constantly 0.000165627
appétissante appearance 0.00304457
voir saw 1.82385e-06
fond part 0.000276313
voyons indeed 2.98493e-07
non madame 1.67127e-07
équipé according 0.000112322
poursuivrai follow 0.00581649
avait half 9.05857e-08
avait only 1.73569e-07
jusqu' almost 0.00167171
désargenté purse 0.000224441
il animal 2.77041e-08
est consists 3.32303e-06
cela which 1.36095e-05
on determined 6.05905e-08
avons want 1.84694e-07
-ce doubt 3.22269e-07
-ce without 0.00259764
est without 1.47098e-08
n' without 1.57735e-07
diable " 4.96255e-05
tout nervous 1.24708e-07
-- days 5.79462e-09
il thank 1.44155e-09
suis very 6.55793e-07
agissait about 2.0121e-06
embarrassa embarrassed 0.00141925
timidement added 3.39231e-06
? highest 2.28661e-07
bourg town 0.00119668
ferons better 0.00078684
monseigneur justice 0.00576837
auberge house 0.0180132
installer proceeded 6.90169e-05
-- lord 2.82798e-07
rapide survey 0.000239476
entrechoqués being 6.39501e-05
remontez " 0.00463075
charge look 0.0068042
veuille will 4.18405e-05
permission into 0.000123615
m. much)--monsieur 1.34737e-06
celui much)--monsieur 2.21822e-07
celui name 1.09968e-07
celui us 7.40083e-07
vite had 2.10957e-05
reconnut understood 1.71756e-07
gala embroidered 0.0152821
indiqué marked 0.000838139
valet boy 8.83209e-06
superbes animals 3.78282e-06
ne laughing 2.49322e-08
plus left 3.80566e-08
viens came 1.89645e-06
remise NULL 0.000245577
annonçait announces 0.00839284
si these 8.30426e-08
menai took 0.00352415
bien venture 3.73701e-08
la these 3.72388e-08
avait listening 0.000324379
. immnsitatem 4.11034e-06
faire doubt 1.47212e-07
in volumes 0.0428605
simplement moved 8.34528e-06
paysages lost 0.000109064
ferons will 0.000869486
qu' since 9.56056e-08
pas leaves 1.85149e-07
manquons want 0.000750545
nouer lay 0.000138681
aîné brother 0.000115567
mis both 4.52019e-06
arrivé thrust 3.81494e-07
sommes took 0.00582062
sommes we 6.64895e-05
maintenant " 2.56725e-05
maintenant on 7.71035e-07
est who 2.79275e-07
est know 1.67236e-07
corps what 2.73676e-05
vraiment so 1.32077e-05
un leaving 3.46728e-09
ébahi singular 0.000347901
ébahi his 0.00183808
rentrait had 0.20382
autres both 6.44007e-08
pas evade 4.9923e-06
est understood 5.45973e-07
irréprochable odor 0.00104895
empreinte , 0.00338722
pas given 1.09971e-07
mangé respectfully 0.000549714
louche mysterious 0.000743556
rue direction 0.0094399
rue opposite 2.07559e-05
rue an 7.67829e-06
vient " 0.000377914
tenir above 0.000261864
il imagination 3.30269e-08
comme worth 2.15115e-07
latin subject 1.09635e-05
rentre come 1.97128e-05
est but 9.32728e-08
monsieur bonacieux 0.000730031
monsieur dear 1.65182e-05
mme sworn 4.09264e-06
mme part 4.62329e-07
mme wife 6.33381e-07
cependant thought 2.3284e-06
d' journey 2.8489e-09
- n’t 1.83777e-08
seuil gate 8.25944e-05
quartiers quarters 3.00216e-05
voix others 1.04316e-05
tint waited 0.0290544
se waited 1.60155e-07
au receive 1.51159e-07
ballet famous 0.00176396
au pontoise 2.97345e-07
fendit way 6.88304e-05
matelots hut 0.000103965
chargé bound 5.65167e-05
donc inform 1.43267e-07
donc instantly 3.8791e-08
cru believe 0.000187106
reprirent off 2.10571e-05
port wound 0.000180214
toi care 0.0196687
quatre hours 2.02325e-07
quoi after 2.91091e-06
triple full 7.79478e-05
firent require 1.70665e-05
maîtres they 7.9734e-05
et said 5.07778e-08
eux you 2.89444e-06
faire breathe 7.60692e-08
partirai will 3.53437e-05
laissait leave 2.5102e-05
laissait accustomed 0.000997306
et one 7.4566e-08
sincèrement obliged 4.36696e-05
demandé leave 0.000120394
on continuing 5.58287e-06
attendu account 0.000138896
bondir felt 0.000176637
verrou back 9.09745e-05
présente makes 3.85565e-05
était circumstances 7.77963e-08
avez considered 2.20124e-08
depuis other 4.27667e-07
à mme 1.39145e-07
c' . 1.12574e-06
-ce am 0.000975759
bonne service 1.04657e-07
épouvantés eyes 0.0043129
épouvantés NULL 0.00585775
coup advance 1.09091e-06
retirerais withdraw 0.000495277
je withdraw 4.09444e-08
d' hauteur 1.64382e-06
autre instant 4.55762e-08
maréchale d’ancre 0.00507058
depuis paris 6.32422e-07
avez possess 0.000746757
eu place 6.09166e-07
trouvaient there 0.000698879
trouvaient happened 5.19423e-07
! cahusac 2.32869e-08
duc tremouille 1.82661e-07
pu he 0.000199873
pu if 0.00440738
pu as 1.29255e-05
un touched 1.11066e-08
qui man 8.73645e-08
avec queen 1.48312e-07
allaient began 1.35856e-06
faillit was 0.000444385
allait had 1.56464e-05
quel know 0.00255545
tremblant tremble 0.000478443
bonacieux " 0.0012958
eu formed 1.92005e-06
qu' lived 4.41536e-08
pointu with 0.00299791
firent enter 3.57234e-06
firent and 0.000611248
firent court 7.47978e-06
craindrai fear 6.93449e-05
votre queen 1.65634e-07
rigide desired 0.00623991
rigide critic 0.00300216
blonds critic 5.42211e-06
rigide NULL 0.0593528
tout yet 1.31733e-07
à- to 0.00193496
cet his 3.77735e-06
cru for 0.00164374
séide fortunately 0.0841617
sienne drew 1.08566e-06
sienne NULL 0.00149254
veux do 0.000278407
-ce nothing 1.83255e-07
le your 2.3531e-08
empressa made 3.78242e-05
bien importance 1.1655e-06
bien affair 9.20508e-08
les streets 1.11818e-06
chez dear 1.23622e-07
s' concealed 4.5663e-08
allais and 0.000137222
allais go 0.002071
mettra NULL 0.0329029
nue hand 0.00051957
n' himself 5.86141e-06
permanence operation 0.00213316
; demand 6.67598e-07
tout tone 5.95735e-08
restant being 8.61864e-05
donc tongue 8.37966e-06
belle " 0.000374303
sien NULL 0.000824608
lui rooms 1.89714e-06
vois do 4.1223e-06
; terrifies 6.79193e-06
tête-à-tête left 0.00046871
travailler do 0.000144996
ce conveying 6.26765e-07
avaient heard 5.4917e-07
exécuté effect 1.9123e-05
et mean 5.25727e-09
une yonder 2.04052e-07
ceux NULL 0.000234245
ma me 1.89385e-05
eux dispose 1.7762e-06
et know 1.66226e-08
ils sort 2.93344e-08
parti dinner 1.38108e-06
visage become 2.00052e-06
visage brow 6.22602e-05
bien fortunate 1.76654e-07
soutenir ignorant 1.89666e-05
on hour 1.62637e-06
or dreams 8.64721e-06
prévenus informed 0.0114624
vous meet 5.47092e-08
puis dare 4.42384e-07
attendre long 5.83035e-07
croirai am 0.000222898
mais these 2.10422e-07
il against 1.03357e-08
qui cahusac 2.56657e-07
décidez jussac 0.000929269
uns drew 8.22889e-07
un kill 6.87931e-08
gardé hence 1.03113e-05
avec from 2.04025e-06
chez addition 1.14917e-06
ensuite addition 7.62683e-06
audace courage 2.75619e-06
dis matter 3.71119e-07
bout in 0.0015172
autres guardsmen 5.40869e-07
peut handkerchief 1.69652e-05
portait had 3.08414e-05
instant off 1.39664e-06
artagnan chatting 5.32413e-06
aperçut d’arguillon 6.73476e-05
ce escape 0.000127398
ce you 3.36764e-07
droit cause 4.36181e-05
droit good 1.07127e-06
aussi perhaps 4.20235e-08
rhume cold 0.000660994
soit relations 6.7087e-07
contraire beware 7.30482e-07
un undertake 1.10074e-07
discourait spoke 0.000366891
croisaient another 0.00257613
croisaient one 0.000913663
croisaient crossed 0.00066808
pas straight 4.52195e-08
appeler heard 1.10067e-05
chose is 1.81756e-06
éveillée imagination 0.000116181
mais rather 2.02502e-05
mais or 1.62716e-06
atteint piece 3.46102e-05
des review 1.52876e-08
descendaient office 0.00164267
qui he 1.19367e-06
désespéré end 3.47487e-06
pour side 1.70109e-08
emmaillotée bound 0.000151179
tout on 4.49817e-07
de endeavored 1.04485e-07
cas esteem 0.00689835
eux war 2.14363e-07
des open 1.03122e-08
enfuir seeing 1.53679e-06
comme might 7.13695e-08
encore raised 4.68794e-07
parcimonie care 0.000314568
granits rocks 0.735033
granits granite 0.000922362
, appearances 2.56844e-08
jaguars boars 0.0715439
déprimaient extent 0.000657576
bouleversées lake 3.57613e-05
en threatened 1.99474e-08
travailler longer 6.76779e-06
ses unceasing 2.41335e-06
qu' hoped 4.94859e-08
cintre low 0.000258799
aqueuses vapors 0.00271442
lors spring 0.000157861
aventuré ascended 0.316143
donner work 6.88949e-07
donner necessary 5.00106e-06
donner yourself 1.07536e-07
quatre two 9.754e-06
faire two 1.86856e-06
chaudière shell 0.00261851
justement expressed 1.35878e-05
vinrent at 0.000150203
accomplissaient going 9.44324e-05
silencieusement silence 7.67258e-06
devenu now 2.64802e-05
l' sleep 7.64664e-08
retrouverons make 6.35971e-06
ait can 1.31175e-06
ne terrors 4.88813e-08
ne useless 1.24549e-08
souleva emotion 9.30498e-05
assister observed 0.0148648
peu one 2.80273e-07
le whence 1.48917e-09
par and 0.000381502
péri escaped 1.40202e-05
dont supported 1.47891e-06
accroché NULL 0.0018304
direction southern 2.4806e-06
franchi reached 9.90196e-06
tout ago 7.24818e-08
ferrures work 9.67298e-05
dressait lay 0.137946
témoignaient shown 0.287999
précisément during 1.5818e-06
donc should 2.92376e-07
trouvons find 2.45258e-05
plus latitudes 1.46061e-07
bretagne america 0.000629897
parcourir over 0.000162512
parcourir extended 0.0806612
parcourir gaze 0.000566269
mois often 2.85199e-07
employèrent employed 0.000306363
époque most 2.64086e-06
rétablirent established 0.00274045
qu' if 1.93401e-07
pourquoi " 1.65519e-05
premières waters 9.86374e-07
a steer 1.40185e-06
celui , 9.15377e-05
sur south 3.39263e-09
crurent think 9.23322e-05
sans returning 2.54089e-08
retrouver again 5.16306e-06
enfoncée rather 4.12381e-05
du absolutely 1.8054e-07
vigoureuse iron 2.16645e-05
autour , 2.99989e-05
agissait was 0.0584004
supérieures slopes 0.000135189
vers on 8.20383e-06
et impatient 5.72465e-08
vigoureux healthy 0.029086
toute as 7.62202e-07
qui latter 1.43199e-08
mettrait place 0.000100958
cet fresh 6.97142e-07
éprouvés tried 6.35674e-05
là hand 0.000144894
bout a 1.38873e-05
écorce pounded 0.00101348
suite broke 4.66176e-06
période succeeded 0.00175593
roches lower 4.10455e-06
ménager open 0.0497466
enceinte plateau 0.0509202
sont guns 9.45035e-08
soulevèrent raised 0.0445638
ne might 2.08647e-08
quitter and 0.0116569
cette one 3.3239e-06
fussions NULL 0.00587362
si useful 4.07208e-06
si very 0.000790822
regarder kept 4.19931e-07
lacéré torn 0.0012684
contenus uttered 3.98573e-05
menace fear 6.58271e-06
été everything 3.60695e-07
temps happily 4.00434e-06
temps poor 0.000219675
ils seek 4.10774e-07
ils naturally 9.77155e-07
manière for 8.47996e-06
s' arrangements 1.11862e-07
environ minutes 2.5109e-06
renvoyé immediately 2.03915e-05
top NULL 7.93503e-05
. neighborhood 6.17736e-09
donc really 8.4525e-08
pas all 6.96517e-08
démontré been 6.81681e-05
surviendrait might 8.78044e-05
quoi been 1.14148e-06
quoi if 4.24223e-06
quoi ; 6.0191e-06
accablait lay 5.22339e-05
qu' dropped 1.89217e-06
ai running 5.74974e-07
bien stone 1.62572e-07
bien blocks 2.67018e-05
bien cemented 3.97074e-05
dire until 0.00154268
des behavior 7.07803e-08
occupations what 0.000247696
connaître NULL 0.000124785
mon give 7.36689e-07
davantage lower 4.56879e-05
polynésie laden 0.00950843
polynésie usually 0.00722649
servait serve 1.72999e-05
prendre done 1.72876e-05
dessus NULL 2.03972e-05
arrivé occurred 4.87883e-06
abattant fell 0.000514275
colons returning 6.2932e-07
les few 1.10863e-08
pirogue pulled 0.0372846
même together 1.22487e-07
était approached 4.64761e-09
blessés some 0.000108248
perdaient followed 4.10527e-05
aussi seen 3.10497e-07
large half 2.22379e-07
enjambait leaped 0.0298894
dernière discharged 0.000443654
fallait one 0.000144198
coup terrible 1.27933e-07
l' norfolk 8.82132e-07
seulement islet 1.83512e-07
celle to 9.29491e-05
avoir land 1.00151e-07
- formerly 4.74962e-07
encore so 1.41882e-06
encore do 1.33719e-06
sans ayrton 9.57455e-08
pensa flaw 4.98263e-06
travaux plans 9.30634e-06
alors destroyed 3.93507e-07
même being 1.22956e-06
insistant engineer 7.14758e-05
coup most 1.07701e-06
complètement sheltered 3.98219e-06
allume light 0.000227829
aujourd'hui a 0.000168545
exposerai myself 0.000131195
pour think 2.93515e-08
pour you 7.26107e-07
il wind 2.56713e-09
oiseaux water 1.34961e-06
lorsqu' from 0.00122387
lorsqu' NULL 0.000524196
au therefore 6.48562e-07
absolument right 2.8165e-06
absolument being 9.7052e-07
depuis only 1.15922e-06
depuis parts 1.1949e-06
autant the 0.000160355
qu' while 6.82888e-07
observer pencroft 1.54118e-06
port land 8.17821e-07
blanche sheet 0.00347434
blanche uniform 0.0160475
dose expressed 8.17526e-05
dose sentimental 0.000181005
terrible against 9.12891e-07
fut also 1.7067e-08
fut they 1.47161e-06
allait from 1.2186e-06
petits young 5.25486e-05
rapportés brought 8.52554e-05
tampon clay 0.0100861
fabriqués number 1.48001e-06
isolé time 0.000363307
beaucoup more 2.89096e-06
cette into 2.35178e-07
cette duncan 4.50462e-07
le confident 1.5641e-08
compagnons crew 0.00344103
installations arrangements 0.000402748
dira why 1.81314e-06
quitta go 1.0317e-05
quand but 0.00367006
toute frame 0.000129488
qui carefully 5.81567e-08
repas times 3.378e-06
d' returning 2.28178e-08
ont him 8.70173e-06
craintif anxious 6.35789e-05
faire observation,-- 3.1698e-08
vouloir wished 1.67454e-05
une determined 3.85431e-06
extrême animation 3.93123e-05
, contemplate 1.62941e-09
éprouver try 5.45428e-05
jamais NULL 2.03657e-05
surveillance protection 1.04012e-05
serais rather 9.99404e-07
rapporter trust 0.0447265
était sea 9.44969e-08
cingler straight 0.00627176
cingler sail 0.0104251
îlot finish 1.31557e-05
sur finish 1.88182e-07
d' christians 5.85377e-07
bien looking 7.31089e-08
vraiment be 9.07182e-05
vraiment justly 0.0106975
aussi what 1.65334e-06
continuer until 7.36624e-06
son dangerous 3.03323e-05
et months 5.96058e-09
et fifteen 6.72838e-09
depuis NULL 0.000474387
ailleurs else 2.69029e-07
risquez risk 0.000699301
c' even 9.65266e-08
traversée longer 5.46637e-06
environ pounds 2.7175e-07
pipe own 1.22401e-05
mais reached 1.01095e-08
rendre reach 8.70529e-05
donc in 1.22584e-06
eau breaking 1.70179e-05
toute of 6.99524e-06
façon NULL 8.02629e-05
chauffera warm 9.49368e-05
passaient winter 6.04735e-06
pussent cross 2.78598e-05
pussent could 0.000810133
laissait not 0.00108099
formaient interlaced 0.00086937
-- who 4.55925e-07
recourberai bend 0.99868
courons after 3.90937e-05
annoncée had 0.00316218
atelier glass 1.36127e-05
cela there 2.96986e-07
là already 2.06424e-05
grêle day 0.00101942
grêle complete 0.0472087
grêle more 0.000176667
vitres interior 9.0882e-06
vitres at 0.000109683
vitres weather 1.0708e-05
verte east 5.55304e-05
verte thunder 0.000416687
chef captain 5.45633e-05
jeta thrown 0.000773257
maître black 3.04438e-06
bouillon turtle 0.000183903
ils greatly 3.743e-06
obtenues obtained 0.000415898
ils reared 3.73628e-07
traits vegetable 1.86517e-05
éprouver wish 2.08616e-06
éprouver appeared 4.50914e-06
écurie yard 0.00536179
pas bridges 3.84849e-08
occupèrent employed 0.000140297
ni visits 2.44838e-06
sans discontinued 7.36735e-05
sans stock 3.80959e-08
au good 6.27149e-08
: surprise 7.29468e-08
: guarded 0.00081013
: be 3.20738e-07
fossé broad 0.000332701
abréviation short 0.000753558
y come 5.71773e-07
point firm 0.000152881
point drawn 6.65411e-07
recommencer making 0.00032023
guenon orangoutang 0.00110326
mais sapajou 0.000102249
visa took 0.0450467
visa fixing 0.309143
inutilement repeated 3.05011e-05
détachée fallen 0.000715703
il seeing 4.27731e-09
chargé taken 1.15661e-06
cordes cordage 0.123378
et minds 3.32969e-09
évidée by 0.0115906
rapport light 4.67834e-06
rapport threw 0.000139333
abondaient eatable 0.00105458
fond other 2.43671e-06
resterait be 7.05844e-05
qui ran 8.4731e-09
autrement formidable 0.0604972
autrement as 0.00115863
poil streaks 1.6153e-05
dans shot 4.19629e-07
soit over 3.22406e-06
splendides forest 0.000123014
étendre anything 8.09025e-05
en and 1.1858e-06
alimenté made 0.000342313
dans western 1.3878e-07
précisément " 0.000423854
donne guava 8.80617e-05
aurait obliged 1.11348e-07
montra enough 1.10982e-06
composaient beer 4.03935e-06
conserves store 0.385568
leurs arms 4.79386e-06
première greatest 8.51171e-07
des his 2.34561e-07
franchir going 0.000118726
franchir up 7.12475e-05
franchir taken 2.71738e-06
retrouveraient might 0.000497341
complétaient completed 0.0153677
enfuie away 0.000726268
étaient returned 9.98751e-08
reprendre back 3.46735e-06
reprendre come 2.05147e-05
enfouir away 0.00050451
point situation 5.91344e-07
de beautiful 5.02943e-09
lubie arose 0.000831822
lui- cared 5.4347e-05
lui cared 1.87908e-07
était passages 1.96934e-07
toutefois perhaps 0.00571046
que touched 3.59873e-09
autres settlers 3.48947e-07
s' cavern 2.04061e-07
buenos aires 0.0349094
très claws 4.58981e-05
bien also 2.62152e-07
inébranlable retreat 3.70175e-06
et formed 2.04332e-08
été already 2.9323e-05
nombreuses showed 2.82462e-05
établir making 2.06259e-06
ils bears 6.55709e-05
il , 2.60045e-05
pour if 6.9752e-07
verser throw 2.564e-05
intérieurs interior 0.000200204
suite because 1.02587e-05
offrait which 0.000846707
tout even 5.26549e-07
trouvèrent beach 1.10383e-06
reconnu found 2.09182e-06
furent precaution 4.06369e-06
avait but 1.87306e-07
liquéfiée regular 0.0026495
liquéfiée formed 0.000350612
eurent vain 7.22943e-07
serons ill 9.33698e-07
manifestait showed 0.000251305
évidemment course 9.66197e-06
long than 8.68245e-07
curiosité yet 1.17874e-05
ils impelled 1.11544e-08
ainsi exposed 2.34668e-08
ils without 3.60584e-07
. but 3.27136e-08
sommes NULL 5.84484e-05
doutait impossible 3.44998e-06
est uninhabitable 2.60602e-07
aventurer enter 1.35629e-05
va NULL 2.19248e-05
allumée simply 0.000285711
cadre granite 0.000180049
rendirent went 5.80328e-05
de mixed 9.84886e-09
future preparation 0.000106172
goémons wrack 0.00983022
formeront make 0.000187812
des between 2.36344e-07
produisait lost 0.000617343
produisait suddenly 0.00408247
produisait was 0.00322853
smith wished 6.375e-08
ouvrait was 0.000310261
retrouvaient , 0.0312478
avait habitable 3.10517e-08
avait happened 1.11607e-06
explorée interior 0.00016008
dite requires 0.000133648
loin reach 0.000219866
, plenty 6.30957e-10
observer asked 1.6413e-06
dès in 5.54968e-05
forge NULL 0.00230385
leur short 3.19971e-06
têtes appearance 0.000216663
. appearance 6.12368e-09
têtes exactly 6.09441e-05
têtes having 5.61468e-06
fleur above 1.28464e-05
innocents birds 1.33602e-05
lui " 7.38854e-06
dit is 2.03604e-06
mer ebbing 1.1523e-06
aime NULL 0.000208886
approuvée be 0.00358168
matin eight 3.61185e-06
. determined 1.52868e-08
t- NULL 0.0122758
autres NULL 2.93909e-05
fascines prepared 0.0049368
effort strength 1.26977e-06
sa that 1.23565e-06
passage NULL 0.000658427
indispensable get 2.72825e-05
indispensable n't 1.79536e-05
effacèrent sight 0.0895293
effacèrent out 0.000126801
les trust 6.31684e-09
vois anything 2.92953e-07
vois vain 4.85323e-06
guère NULL 0.000184137
déjà most 1.19293e-07
déjà the 0.000577883
franchis crossed 0.00034026
qui they 1.41484e-07
contreforts west 8.05038e-06
comptait was 0.0520168
comptait NULL 0.000568888
ressemblait half 0.00025808
précision correct 0.000126295
étrange caught 2.7703e-06
posée gaze 3.72292e-05
posée NULL 0.00770633
jalonnaient thus 9.40593e-05
par obstructed 8.39005e-06
eut circular 0.000126009
et as 1.17218e-07
faisait came 4.55943e-07
fallait springs 1.19011e-07
prenait appeared 1.00579e-05
essayé proved 0.00244067
bien employed 2.62983e-07
pas useful 4.79118e-08
ses rolled 6.68404e-08
venue closed 9.1654e-07
et also 5.39694e-08
