1 1 100 1 1
1 2 100 1 1
1 0 100 2 0.985724
2 0 100 2 0.0142763
1 1 100 2 0.972597
2 1 100 2 0.0274032
1 2 100 2 0.0311618
2 2 100 2 0.968838
1 3 100 2 0.382617
2 3 100 2 0.617383
1 4 100 2 0.269871
2 4 100 2 0.730129
1 5 100 2 0.140677
2 5 100 2 0.859323
2 6 100 2 1
1 0 100 3 0.552135
2 0 100 3 0.176717
3 0 100 3 0.271148
1 1 100 3 0.965747
2 1 100 3 0.0327453
3 1 100 3 0.00150771
1 2 100 3 0.0205316
2 2 100 3 0.902253
3 2 100 3 0.0772153
1 3 100 3 0.00752533
2 3 100 3 0.11167
3 3 100 3 0.880805
1 4 100 3 0.0484889
2 4 100 3 0.322191
3 4 100 3 0.629321
1 5 100 3 0.00899418
2 5 100 3 0.0949609
3 5 100 3 0.896045
1 6 100 3 0.428161
2 6 100 3 5.06816e-05
3 6 100 3 0.571788
1 7 100 3 0.0998799
2 7 100 3 1.42574e-06
3 7 100 3 0.900119
1 8 100 3 0.110679
2 8 100 3 0.425762
3 8 100 3 0.463559
1 9 100 3 4.95982e-05
3 9 100 3 0.99995
3 10 100 3 1
1 0 100 4 0.125924
2 0 100 4 0.530692
3 0 100 4 0.315256
4 0 100 4 0.0281279
1 1 100 4 0.923926
2 1 100 4 0.0735042
3 1 100 4 1.67734e-05
4 1 100 4 0.00255255
1 2 100 4 0.0332685
2 2 100 4 0.686109
3 2 100 4 0.260958
4 2 100 4 0.0196648
1 3 100 4 0.0108993
2 3 100 4 0.107657
3 3 100 4 0.594595
4 3 100 4 0.286849
1 4 100 4 0.00947228
2 4 100 4 0.049813
3 4 100 4 0.176505
4 4 100 4 0.76421
1 5 100 4 0.00652344
2 5 100 4 0.045901
3 5 100 4 0.22927
4 5 100 4 0.718306
1 6 100 4 0.0587049
2 6 100 4 0.0309504
3 6 100 4 0.188209
4 6 100 4 0.722135
1 7 100 4 0.0138051
2 7 100 4 0.00737953
3 7 100 4 0.000357743
4 7 100 4 0.978458
1 8 100 4 0.314338
2 8 100 4 3.27147e-05
3 8 100 4 0.193795
4 8 100 4 0.491834
1 9 100 4 2.19455e-06
2 9 100 4 0.000438463
4 9 100 4 0.999559
1 10 100 4 0.792114
2 10 100 4 1.39574e-05
4 10 100 4 0.207872
4 11 100 4 1
2 12 100 4 0.000776054
4 12 100 4 0.999224
1 0 100 5 0.0730757
2 0 100 5 0.286355
3 0 100 5 0.552156
4 0 100 5 0.0711083
5 0 100 5 0.0173056
1 1 100 5 0.946087
2 1 100 5 0.0427963
3 1 100 5 0.0051815
4 1 100 5 0.00592676
5 1 100 5 8.81222e-06
1 2 100 5 0.0550547
2 2 100 5 0.752831
3 2 100 5 0.115361
4 2 100 5 0.066583
5 2 100 5 0.0101702
1 3 100 5 0.0107499
2 3 100 5 0.118038
3 3 100 5 0.591604
4 3 100 5 0.232095
5 3 100 5 0.0475134
1 4 100 5 0.00295938
2 4 100 5 0.0546979
3 4 100 5 0.166841
4 4 100 5 0.613498
5 4 100 5 0.162004
1 5 100 5 0.000721174
2 5 100 5 0.00788372
3 5 100 5 0.0714708
4 5 100 5 0.197388
5 5 100 5 0.722537
1 6 100 5 0.0313163
2 6 100 5 0.00026159
3 6 100 5 0.0886629
4 6 100 5 0.203419
5 6 100 5 0.67634
1 7 100 5 0.00891886
2 7 100 5 0.0469311
3 7 100 5 0.0337499
4 7 100 5 0.190085
5 7 100 5 0.720315
1 8 100 5 0.00664533
2 8 100 5 0.000824706
3 8 100 5 0.0277016
4 8 100 5 0.171593
5 8 100 5 0.793235
1 9 100 5 0.272567
2 9 100 5 0.14355
3 9 100 5 0.129543
4 9 100 5 0.0565694
5 9 100 5 0.39777
1 10 100 5 0.0102616
2 10 100 5 0.168376
3 10 100 5 0.190166
4 10 100 5 0.283319
5 10 100 5 0.347877
2 11 100 5 4.71281e-05
3 11 100 5 3.39592e-05
4 11 100 5 0.339063
5 11 100 5 0.660856
2 12 100 5 0.00200661
3 12 100 5 0.000373154
4 12 100 5 0.000269339
5 12 100 5 0.997351
1 0 100 6 0.0558363
2 0 100 6 0.196662
3 0 100 6 0.32176
4 0 100 6 0.341205
5 0 100 6 0.0675861
6 0 100 6 0.0169503
1 1 100 6 0.910582
2 1 100 6 0.0620709
3 1 100 6 0.0087252
4 1 100 6 0.00512674
5 1 100 6 0.0101216
6 1 100 6 0.00337375
1 2 100 6 0.0348746
2 2 100 6 0.704181
3 2 100 6 0.180923
4 2 100 6 0.0475199
5 2 100 6 0.0216696
6 2 100 6 0.0108325
1 3 100 6 0.0124197
2 3 100 6 0.130343
3 3 100 6 0.538239
4 3 100 6 0.192797
5 3 100 6 0.0974209
6 3 100 6 0.0287811
1 4 100 6 0.0116065
2 4 100 6 0.0511208
3 4 100 6 0.181008
4 4 100 6 0.428041
5 4 100 6 0.279061
6 4 100 6 0.0491627
1 5 100 6 0.0161684
2 5 100 6 0.0263758
3 5 100 6 0.0651015
4 5 100 6 0.212019
5 5 100 6 0.44785
6 5 100 6 0.232484
1 6 100 6 0.00339698
2 6 100 6 0.0191141
3 6 100 6 0.0254092
4 6 100 6 0.132991
5 6 100 6 0.274578
6 6 100 6 0.54451
1 7 100 6 0.0195027
2 7 100 6 0.010289
3 7 100 6 0.0248187
4 7 100 6 0.0349633
5 7 100 6 0.215293
6 7 100 6 0.695133
1 8 100 6 0.0201338
2 8 100 6 0.0153586
3 8 100 6 0.0149992
4 8 100 6 0.0471294
5 8 100 6 0.105653
6 8 100 6 0.796726
1 9 100 6 0.0628767
2 9 100 6 0.0056968
3 9 100 6 0.0279016
4 9 100 6 0.0872292
5 9 100 6 0.239767
6 9 100 6 0.576529
1 10 100 6 0.00208427
2 10 100 6 5.50757e-05
3 10 100 6 0.000598565
4 10 100 6 0.0806607
5 10 100 6 3.54971e-05
6 10 100 6 0.916566
1 11 100 6 0.000361743
2 11 100 6 0.236094
3 11 100 6 0.252043
4 11 100 6 0.250696
5 11 100 6 0.252042
6 11 100 6 0.00876308
1 12 100 6 0.000247218
2 12 100 6 0.347484
3 12 100 6 9.04125e-05
4 12 100 6 1.60135e-05
6 12 100 6 0.652162
1 13 100 6 0.221798
2 13 100 6 0.225879
3 13 100 6 3.22654e-06
4 13 100 6 0.227289
5 13 100 6 0.243866
6 13 100 6 0.081164
1 14 100 6 0.0387387
3 14 100 6 2.76743e-06
5 14 100 6 0.000394687
6 14 100 6 0.960864
3 15 100 6 0.000601491
4 15 100 6 0.987325
5 15 100 6 0.0120732
1 16 100 6 4.59277e-06
3 16 100 6 0.999995
3 17 100 6 0.99403
4 17 100 6 0.00596963
3 18 100 6 7.3225e-05
4 18 100 6 9.25775e-05
5 18 100 6 0.999834
3 19 100 6 8.69595e-06
6 19 100 6 0.999991
1 0 100 7 0.0424997
2 0 100 7 0.152028
3 0 100 7 0.276508
4 0 100 7 0.232424
5 0 100 7 0.240749
6 0 100 7 0.0395229
7 0 100 7 0.0162693
1 1 100 7 0.923627
2 1 100 7 0.0484058
3 1 100 7 0.0137731
4 1 100 7 0.00740536
5 1 100 7 0.00520517
6 1 100 7 0.0015698
7 1 100 7 1.42869e-05
1 2 100 7 0.0313621
2 2 100 7 0.709373
3 2 100 7 0.135402
4 2 100 7 0.0941397
5 2 100 7 0.016338
6 2 100 7 0.0133409
7 2 100 7 4.39525e-05
1 3 100 7 0.0155504
2 3 100 7 0.0990416
3 3 100 7 0.532615
4 3 100 7 0.186395
5 3 100 7 0.100027
6 3 100 7 0.0572328
7 3 100 7 0.00913834
1 4 100 7 0.005577
2 4 100 7 0.0470184
3 4 100 7 0.150905
4 4 100 7 0.369279
5 4 100 7 0.23924
6 4 100 7 0.158197
7 4 100 7 0.0297833
1 5 100 7 0.00907588
2 5 100 7 0.0168261
3 5 100 7 0.0496048
4 5 100 7 0.199256
5 5 100 7 0.342558
6 5 100 7 0.271122
7 5 100 7 0.111557
1 6 100 7 0.00554148
2 6 100 7 0.0188325
3 6 100 7 0.0312439
4 6 100 7 0.0865379
5 6 100 7 0.213795
6 6 100 7 0.386805
7 6 100 7 0.257244
1 7 100 7 0.00957218
2 7 100 7 0.00489332
3 7 100 7 0.0215579
4 7 100 7 0.0645118
5 7 100 7 0.0758864
6 7 100 7 0.260326
7 7 100 7 0.563252
1 8 100 7 0.00633059
2 8 100 7 0.0149548
3 8 100 7 0.0314948
4 8 100 7 0.0266207
5 8 100 7 0.103916
6 8 100 7 0.194075
7 8 100 7 0.622609
1 9 100 7 0.00849743
2 9 100 7 0.0152463
3 9 100 7 0.0304276
4 9 100 7 0.0150948
5 9 100 7 0.033621
6 9 100 7 0.248146
7 9 100 7 0.648967
1 10 100 7 0.0246151
2 10 100 7 0.0297338
3 10 100 7 0.0288376
4 10 100 7 0.0846923
5 10 100 7 0.0679226
6 10 100 7 0.177253
7 10 100 7 0.586946
1 11 100 7 0.00118012
2 11 100 7 0.0712193
3 11 100 7 0.000360661
4 11 100 7 0.121831
5 11 100 7 0.0898962
6 11 100 7 0.236485
7 11 100 7 0.479027
1 12 100 7 0.0929837
2 12 100 7 0.0585939
3 12 100 7 0.1543
4 12 100 7 0.128861
5 12 100 7 0.117565
6 12 100 7 0.120756
7 12 100 7 0.32694
1 13 100 7 0.0835222
2 13 100 7 0.240227
3 13 100 7 4.49863e-06
4 13 100 7 0.193413
5 13 100 7 0.124634
6 13 100 7 0.0898648
7 13 100 7 0.268335
3 14 100 7 0.000178262
4 14 100 7 4.42376e-06
5 14 100 7 0.20028
6 14 100 7 0.200214
7 14 100 7 0.599323
5 15 100 7 2.16686e-06
7 15 100 7 0.999998
5 16 100 7 1.62833e-06
7 16 100 7 0.999998
1 0 100 8 0.0566017
2 0 100 8 0.153308
3 0 100 8 0.19743
4 0 100 8 0.181974
5 0 100 8 0.168212
6 0 100 8 0.205748
7 0 100 8 0.0255462
8 0 100 8 0.0111796
1 1 100 8 0.906966
2 1 100 8 0.0486599
3 1 100 8 0.0145879
4 1 100 8 0.0137378
5 1 100 8 0.00946217
6 1 100 8 0.00151079
7 1 100 8 0.0050732
8 1 100 8 2.69968e-06
1 2 100 8 0.0461968
2 2 100 8 0.660911
3 2 100 8 0.153551
4 2 100 8 0.0629001
5 2 100 8 0.0413341
6 2 100 8 0.0190968
7 2 100 8 0.015945
8 2 100 8 6.43127e-05
1 3 100 8 0.00810515
2 3 100 8 0.0986119
3 3 100 8 0.529192
4 3 100 8 0.202669
5 3 100 8 0.0773427
6 3 100 8 0.043711
7 3 100 8 0.032626
8 3 100 8 0.00774222
1 4 100 8 0.0198593
2 4 100 8 0.0391199
3 4 100 8 0.150691
4 4 100 8 0.439811
5 4 100 8 0.172828
6 4 100 8 0.0876925
7 4 100 8 0.0735132
8 4 100 8 0.0164854
1 5 100 8 0.00599688
2 5 100 8 0.0326568
3 5 100 8 0.062837
4 5 100 8 0.15897
5 5 100 8 0.362225
6 5 100 8 0.178211
7 5 100 8 0.154734
8 5 100 8 0.0443691
1 6 100 8 0.00736409
2 6 100 8 0.00939745
3 6 100 8 0.0296968
4 6 100 8 0.0737933
5 6 100 8 0.220712
6 6 100 8 0.292222
7 6 100 8 0.243845
8 6 100 8 0.122968
1 7 100 8 0.00393666
2 7 100 8 0.0122808
3 7 100 8 0.0180805
4 7 100 8 0.0318229
5 7 100 8 0.103394
6 7 100 8 0.24715
7 7 100 8 0.317958
8 7 100 8 0.265378
1 8 100 8 0.00772653
2 8 100 8 0.00665143
3 8 100 8 0.00675491
4 8 100 8 0.0163647
5 8 100 8 0.0510069
6 8 100 8 0.146756
7 8 100 8 0.314142
8 8 100 8 0.450598
1 9 100 8 0.00779508
2 9 100 8 0.00718214
3 9 100 8 0.00360101
4 9 100 8 0.0171452
5 9 100 8 0.0436956
6 9 100 8 0.0954319
7 9 100 8 0.250995
8 9 100 8 0.574154
1 10 100 8 0.000617952
2 10 100 8 0.00311198
3 10 100 8 0.0119136
4 10 100 8 0.00557035
5 10 100 8 0.0140218
6 10 100 8 0.0637995
7 10 100 8 0.213101
8 10 100 8 0.687863
1 11 100 8 0.00906463
2 11 100 8 0.0347821
3 11 100 8 0.00510979
4 11 100 8 0.0373828
5 11 100 8 0.0434634
6 11 100 8 0.0229878
7 11 100 8 0.187328
8 11 100 8 0.659881
1 12 100 8 0.00808453
2 12 100 8 0.0640106
3 12 100 8 0.044973
4 12 100 8 0.0908765
5 12 100 8 0.000174262
6 12 100 8 0.031714
7 12 100 8 0.2259
8 12 100 8 0.534268
1 13 100 8 0.000537828
2 13 100 8 0.000117361
3 13 100 8 0.063672
4 13 100 8 2.33846e-05
5 13 100 8 0.126125
6 13 100 8 0.04797
7 13 100 8 0.164814
8 13 100 8 0.59674
1 14 100 8 0.0631728
2 14 100 8 0.00169769
3 14 100 8 1.67266e-06
4 14 100 8 5.57489e-05
5 14 100 8 0.105968
6 14 100 8 0.113567
7 14 100 8 0.000689957
8 14 100 8 0.714847
2 15 100 8 6.9737e-07
3 15 100 8 4.49122e-07
4 15 100 8 4.84694e-06
5 15 100 8 4.53317e-05
7 15 100 8 0.274923
8 15 100 8 0.725026
1 16 100 8 8.99939e-05
2 16 100 8 4.6167e-06
3 16 100 8 0.00690093
4 16 100 8 2.14597e-06
5 16 100 8 9.22023e-06
6 16 100 8 1.59725e-05
8 16 100 8 0.992977
1 0 100 9 0.0218239
2 0 100 9 0.117549
3 0 100 9 0.162096
4 0 100 9 0.17206
5 0 100 9 0.151576
6 0 100 9 0.144644
7 0 100 9 0.203427
8 0 100 9 0.0190043
9 0 100 9 0.0078203
1 1 100 9 0.928407
2 1 100 9 0.0317124
3 1 100 9 0.0111638
4 1 100 9 0.0127517
5 1 100 9 0.0061225
6 1 100 9 0.00498498
7 1 100 9 0.0023584
8 1 100 9 0.00249318
9 1 100 9 6.3885e-06
1 2 100 9 0.0329019
2 2 100 9 0.704265
3 2 100 9 0.143317
4 2 100 9 0.0481384
5 2 100 9 0.0371295
6 2 100 9 0.0184156
7 2 100 9 0.00913201
8 2 100 9 0.00666529
9 2 100 9 3.45395e-05
1 3 100 9 0.0198857
2 3 100 9 0.129881
3 3 100 9 0.532569
4 3 100 9 0.186321
5 3 100 9 0.0703002
6 3 100 9 0.0344779
7 3 100 9 0.0137836
8 3 100 9 0.0113354
9 3 100 9 0.00144531
1 4 100 9 0.00608078
2 4 100 9 0.050149
3 4 100 9 0.166502
4 4 100 9 0.422419
5 4 100 9 0.191998
6 4 100 9 0.0801006
7 4 100 9 0.0429915
8 4 100 9 0.0354247
9 4 100 9 0.00433353
1 5 100 9 0.0145922
2 5 100 9 0.0300086
3 5 100 9 0.0644062
4 5 100 9 0.164668
5 5 100 9 0.345073
6 5 100 9 0.191368
7 5 100 9 0.10698
8 5 100 9 0.066187
9 5 100 9 0.0167178
1 6 100 9 0.00224706
2 6 100 9 0.014159
3 6 100 9 0.0450106
4 6 100 9 0.0651448
5 6 100 9 0.193897
6 6 100 9 0.300645
7 6 100 9 0.176239
8 6 100 9 0.161077
9 6 100 9 0.0415808
1 7 100 9 0.00523602
2 7 100 9 0.00494972
3 7 100 9 0.0151847
4 7 100 9 0.0417014
5 7 100 9 0.0837146
6 7 100 9 0.216631
7 7 100 9 0.269182
8 7 100 9 0.225883
9 7 100 9 0.137517
1 8 100 9 0.00545227
2 8 100 9 0.00350623
3 8 100 9 0.00488554
4 8 100 9 0.0215525
5 8 100 9 0.0523309
6 8 100 9 0.114118
7 8 100 9 0.217644
8 8 100 9 0.335007
9 8 100 9 0.245503
1 9 100 9 0.00285696
2 9 100 9 0.00424028
3 9 100 9 0.0034404
4 9 100 9 0.0122727
5 9 100 9 0.0232841
6 9 100 9 0.0520664
7 9 100 9 0.116651
8 9 100 9 0.342003
9 9 100 9 0.443186
1 10 100 9 0.00438211
2 10 100 9 0.000431997
3 10 100 9 0.0102261
4 10 100 9 2.01934e-05
5 10 100 9 0.0198579
6 10 100 9 0.0735398
7 10 100 9 0.106853
8 10 100 9 0.198654
9 10 100 9 0.586034
1 11 100 9 0.011478
2 11 100 9 0.00678177
3 11 100 9 0.00783986
4 11 100 9 0.0330729
5 11 100 9 0.0214303
6 11 100 9 0.0289944
7 11 100 9 0.0649891
8 11 100 9 0.195429
9 11 100 9 0.629985
1 12 100 9 0.0309337
2 12 100 9 0.0218842
3 12 100 9 0.0423991
4 12 100 9 0.023465
5 12 100 9 0.00147462
6 12 100 9 0.0619105
7 12 100 9 0.0841051
8 12 100 9 0.185412
9 12 100 9 0.548416
1 13 100 9 0.0390001
2 13 100 9 0.00281276
3 13 100 9 0.000185563
4 13 100 9 0.00110977
5 13 100 9 0.0274199
6 13 100 9 0.0348379
7 13 100 9 0.0356992
8 13 100 9 0.208611
9 13 100 9 0.650324
1 14 100 9 0.0400872
2 14 100 9 0.000909407
3 14 100 9 0.000107274
4 14 100 9 0.0276368
5 14 100 9 0.0698763
6 14 100 9 0.0670069
7 14 100 9 0.00012524
8 14 100 9 0.0692606
9 14 100 9 0.72499
1 15 100 9 0.000180632
2 15 100 9 0.000331503
3 15 100 9 0.00018025
4 15 100 9 8.61027e-06
5 15 100 9 6.9932e-05
6 15 100 9 4.03534e-05
7 15 100 9 0.157783
8 15 100 9 1.69685e-06
9 15 100 9 0.841404
1 16 100 9 0.00437463
2 16 100 9 3.25953e-05
3 16 100 9 0.0422303
4 16 100 9 5.26109e-07
5 16 100 9 6.01003e-06
6 16 100 9 8.50133e-06
7 16 100 9 2.18386e-06
8 16 100 9 0.344237
9 16 100 9 0.609109
1 17 100 9 3.08093e-06
2 17 100 9 0.257694
3 17 100 9 2.88206e-07
4 17 100 9 0.221828
5 17 100 9 0.258981
6 17 100 9 0.25861
7 17 100 9 6.75864e-07
8 17 100 9 0.00288355
9 17 100 9 2.59029e-07
1 18 100 9 0.0044015
3 18 100 9 7.70707e-05
7 18 100 9 4.07852e-05
8 18 100 9 2.20236e-06
9 18 100 9 0.995478
1 0 100 10 0.0360624
2 0 100 10 0.099431
3 0 100 10 0.153114
4 0 100 10 0.151375
5 0 100 10 0.125732
6 0 100 10 0.122228
7 0 100 10 0.13792
8 0 100 10 0.154013
9 0 100 10 0.0106439
10 0 100 10 0.00948106
1 1 100 10 0.930133
2 1 100 10 0.0337382
3 1 100 10 0.0144498
4 1 100 10 0.00474712
5 1 100 10 0.00825567
6 1 100 10 0.00407882
7 1 100 10 0.00237109
8 1 100 10 0.0022214
9 1 100 10 5.33772e-07
10 1 100 10 3.96745e-06
1 2 100 10 0.0378351
2 2 100 10 0.700185
3 2 100 10 0.145431
4 2 100 10 0.0498402
5 2 100 10 0.0177234
6 2 100 10 0.0169653
7 2 100 10 0.00765483
8 2 100 10 0.010276
9 2 100 10 0.014086
10 2 100 10 2.53502e-06
1 3 100 10 0.0139012
2 3 100 10 0.0952593
3 3 100 10 0.530104
4 3 100 10 0.204581
5 3 100 10 0.0834064
6 3 100 10 0.0320167
7 3 100 10 0.0199155
8 3 100 10 0.0108009
9 3 100 10 0.00863861
10 3 100 10 0.00137584
1 4 100 10 0.00968816
2 4 100 10 0.0489136
3 4 100 10 0.130366
4 4 100 10 0.3907
5 4 100 10 0.215323
6 4 100 10 0.10296
7 4 100 10 0.0398498
8 4 100 10 0.0287629
9 4 100 10 0.028419
10 4 100 10 0.00501671
1 5 100 10 0.00186839
2 5 100 10 0.022539
3 5 100 10 0.0532023
4 5 100 10 0.148726
5 5 100 10 0.333604
6 5 100 10 0.205667
7 5 100 10 0.11474
8 5 100 10 0.0602143
9 5 100 10 0.0494842
10 5 100 10 0.00995441
1 6 100 10 0.0028982
2 6 100 10 0.0113171
3 6 100 10 0.0256721
4 6 100 10 0.0739734
5 6 100 10 0.172903
6 6 100 10 0.301684
7 6 100 10 0.173249
8 6 100 10 0.107797
9 6 100 10 0.10506
10 6 100 10 0.0254466
1 7 100 10 0.00942144
2 7 100 10 0.0101247
3 7 100 10 0.0113593
4 7 100 10 0.0343729
5 7 100 10 0.0809444
6 7 100 10 0.158964
7 7 100 10 0.305418
8 7 100 10 0.159718
9 7 100 10 0.146116
10 7 100 10 0.0835606
1 8 100 10 0.00778396
2 8 100 10 0.0122145
3 8 100 10 0.0123143
4 8 100 10 0.0161877
5 8 100 10 0.0340563
6 8 100 10 0.114408
7 8 100 10 0.188402
8 8 100 10 0.264644
9 8 100 10 0.231154
10 8 100 10 0.118835
1 9 100 10 0.00349337
2 9 100 10 0.00794979
3 9 100 10 0.00476525
4 9 100 10 0.00882937
5 9 100 10 0.0360818
6 9 100 10 0.0508255
7 9 100 10 0.11122
8 9 100 10 0.212192
9 9 100 10 0.309671
10 9 100 10 0.254972
1 10 100 10 0.00297141
2 10 100 10 5.02122e-05
3 10 100 10 0.00450145
4 10 100 10 0.0114519
5 10 100 10 0.0133126
6 10 100 10 0.0395305
7 10 100 10 0.063092
8 10 100 10 0.136528
9 10 100 10 0.287213
10 10 100 10 0.441349
1 11 100 10 0.00779485
2 11 100 10 0.00374075
3 11 100 10 0.00373154
4 11 100 10 0.00372878
5 11 100 10 0.00408942
6 11 100 10 0.0245118
7 11 100 10 0.0613606
8 11 100 10 0.116436
9 11 100 10 0.234625
10 11 100 10 0.539982
1 12 100 10 0.000408499
2 12 100 10 0.0066305
3 12 100 10 0.0084735
4 12 100 10 0.013828
5 12 100 10 0.0250615
6 12 100 10 0.0359213
7 12 100 10 0.0723652
8 12 100 10 0.10761
9 12 100 10 0.197012
10 12 100 10 0.53269
1 13 100 10 0.000883791
2 13 100 10 0.00051159
3 13 100 10 0.0106741
4 13 100 10 0.014877
5 13 100 10 0.0155293
6 13 100 10 0.0160872
7 13 100 10 0.0483016
8 13 100 10 0.0788102
9 13 100 10 0.180638
10 13 100 10 0.633687
1 14 100 10 0.000520359
2 14 100 10 3.7742e-05
3 14 100 10 0.00163758
4 14 100 10 0.0334084
5 14 100 10 0.063383
6 14 100 10 0.0337031
7 14 100 10 0.0309819
8 14 100 10 0.06452
9 14 100 10 0.101722
10 14 100 10 0.670086
1 15 100 10 0.000173925
2 15 100 10 4.65218e-07
3 15 100 10 9.1204e-06
4 15 100 10 9.89387e-05
5 15 100 10 0.118468
6 15 100 10 0.0925807
7 15 100 10 0.0877729
8 15 100 10 0.0928316
9 15 100 10 0.185114
10 15 100 10 0.42295
1 16 100 10 1.19047e-06
2 16 100 10 0.000326884
3 16 100 10 0.0042175
4 16 100 10 0.000248336
5 16 100 10 8.14755e-05
6 16 100 10 9.49087e-05
7 16 100 10 0.115598
8 16 100 10 1.33142e-05
9 16 100 10 0.141968
10 16 100 10 0.737451
1 17 100 10 0.000112133
4 17 100 10 4.96307e-06
5 17 100 10 0.0157117
6 17 100 10 0.148257
7 17 100 10 0.00014034
8 17 100 10 0.284249
9 17 100 10 0.141642
10 17 100 10 0.409883
1 18 100 10 2.2863e-06
3 18 100 10 2.92656e-07
5 18 100 10 7.00386e-06
6 18 100 10 0.000137634
7 18 100 10 1.24803e-05
8 18 100 10 0.000197655
9 18 100 10 0.220689
10 18 100 10 0.778954
1 19 100 10 0.0010157
3 19 100 10 8.44183e-06
4 19 100 10 9.23355e-06
5 19 100 10 1.25583e-06
6 19 100 10 0.000216829
7 19 100 10 0.000971161
8 19 100 10 3.16249e-05
10 19 100 10 0.997746
7 22 100 10 0.926128
10 22 100 10 0.0738722
1 0 100 11 0.0314367
2 0 100 11 0.086259
3 0 100 11 0.126347
4 0 100 11 0.113132
5 0 100 11 0.130237
6 0 100 11 0.106411
7 0 100 11 0.122809
8 0 100 11 0.104723
9 0 100 11 0.154148
10 0 100 11 0.0146143
11 0 100 11 0.00988226
1 1 100 11 0.915963
2 1 100 11 0.0425729
3 1 100 11 0.0128854
4 1 100 11 0.00963826
5 1 100 11 0.00682447
6 1 100 11 0.00376958
7 1 100 11 0.00119868
8 1 100 11 0.00366423
9 1 100 11 0.00229654
10 1 100 11 0.00118636
11 1 100 11 5.78736e-07
1 2 100 11 0.0397058
2 2 100 11 0.681696
3 2 100 11 0.137055
4 2 100 11 0.0620142
5 2 100 11 0.0178022
6 2 100 11 0.0207672
7 2 100 11 0.00636737
8 2 100 11 0.0186808
9 2 100 11 0.00902464
10 2 100 11 0.00686117
11 2 100 11 2.52248e-05
1 3 100 11 0.0170749
2 3 100 11 0.107557
3 3 100 11 0.497011
4 3 100 11 0.199047
5 3 100 11 0.0813298
6 3 100 11 0.0345439
7 3 100 11 0.0269724
8 3 100 11 0.017873
9 3 100 11 0.00816627
10 3 100 11 0.0102542
11 3 100 11 0.000170187
1 4 100 11 0.0160292
2 4 100 11 0.0488643
3 4 100 11 0.149042
4 4 100 11 0.384147
5 4 100 11 0.218506
6 4 100 11 0.0962781
7 4 100 11 0.0338967
8 4 100 11 0.0200507
9 4 100 11 0.0135066
10 4 100 11 0.0173121
11 4 100 11 0.00236647
1 5 100 11 0.00688329
2 5 100 11 0.0130146
3 5 100 11 0.0698492
4 5 100 11 0.16872
5 5 100 11 0.288873
6 5 100 11 0.225438
7 5 100 11 0.107209
8 5 100 11 0.0500981
9 5 100 11 0.0306566
10 5 100 11 0.0333429
11 5 100 11 0.00591519
1 6 100 11 0.00645777
2 6 100 11 0.0162907
3 6 100 11 0.0200492
4 6 100 11 0.073843
5 6 100 11 0.18176
6 6 100 11 0.278665
7 6 100 11 0.219434
8 6 100 11 0.102763
9 6 100 11 0.0414547
10 6 100 11 0.041663
11 6 100 11 0.0176192
1 7 100 11 0.00865916
2 7 100 11 0.00749444
3 7 100 11 0.0179496
4 7 100 11 0.0272947
5 7 100 11 0.0842228
6 7 100 11 0.18358
7 7 100 11 0.259214
8 7 100 11 0.174982
9 7 100 11 0.111505
10 7 100 11 0.0989438
11 7 100 11 0.0261548
1 8 100 11 0.00562734
2 8 100 11 0.0126808
3 8 100 11 0.0141668
4 8 100 11 0.0144274
5 8 100 11 0.0242591
6 8 100 11 0.0917274
7 8 100 11 0.182233
8 8 100 11 0.260762
9 8 100 11 0.171291
10 8 100 11 0.14374
11 8 100 11 0.0790849
1 9 100 11 0.000404084
2 9 100 11 0.00688621
3 9 100 11 0.00806572
4 9 100 11 0.00967868
5 9 100 11 0.00850586
6 9 100 11 0.0313643
7 9 100 11 0.0943722
8 9 100 11 0.205624
9 9 100 11 0.247002
10 9 100 11 0.239652
11 9 100 11 0.148445
1 10 100 11 0.00466607
2 10 100 11 0.00104254
3 10 100 11 0.0135679
4 10 100 11 0.00467397
5 10 100 11 0.0197349
6 10 100 11 0.0215669
7 10 100 11 0.0564082
8 10 100 11 0.135097
9 10 100 11 0.190906
10 10 100 11 0.299855
11 10 100 11 0.252482
1 11 100 11 0.000180218
2 11 100 11 8.67009e-06
3 11 100 11 0.00374388
4 11 100 11 0.0120997
5 11 100 11 0.0118724
6 11 100 11 0.011703
7 11 100 11 0.025108
8 11 100 11 0.0862416
9 11 100 11 0.166438
10 11 100 11 0.267426
11 11 100 11 0.415179
1 12 100 11 0.000258642
2 12 100 11 0.00313019
3 12 100 11 0.00550475
4 12 100 11 2.98449e-07
5 12 100 11 0.0138311
6 12 100 11 0.0139739
7 12 100 11 0.0138191
8 12 100 11 0.0359119
9 12 100 11 0.0981212
10 12 100 11 0.268959
11 12 100 11 0.546489
1 13 100 11 0.00263242
2 13 100 11 0.0122669
3 13 100 11 0.0110667
4 13 100 11 0.00791874
5 13 100 11 0.00181165
6 13 100 11 0.0266427
7 13 100 11 0.0233174
8 13 100 11 0.0363859
9 13 100 11 0.0728895
10 13 100 11 0.21781
11 13 100 11 0.587258
1 14 100 11 0.000445357
2 14 100 11 0.00176513
3 14 100 11 0.0311365
4 14 100 11 0.0157245
5 14 100 11 7.08448e-05
6 14 100 11 0.00895617
7 14 100 11 0.0011562
8 14 100 11 0.0464525
9 14 100 11 0.0705386
10 14 100 11 0.170362
11 14 100 11 0.653392
1 15 100 11 0.000415201
2 15 100 11 0.011238
3 15 100 11 0.030931
4 15 100 11 0.03714
5 15 100 11 4.59623e-05
6 15 100 11 8.30447e-05
7 15 100 11 0.0683986
8 15 100 11 0.0637698
9 15 100 11 0.0940666
10 15 100 11 0.280568
11 15 100 11 0.413344
1 16 100 11 0.000635134
2 16 100 11 1.42452e-05
3 16 100 11 0.000110018
4 16 100 11 0.000316483
5 16 100 11 0.0198471
6 16 100 11 4.64432e-05
7 16 100 11 0.00288991
8 16 100 11 0.0620095
9 16 100 11 1.1676e-05
10 16 100 11 0.123147
11 16 100 11 0.790972
1 17 100 11 0.000377283
3 17 100 11 8.64107e-06
4 17 100 11 2.8455e-07
5 17 100 11 3.45821e-05
6 17 100 11 7.03335e-06
7 17 100 11 2.00778e-05
8 17 100 11 0.0797593
9 17 100 11 0.173916
10 17 100 11 0.0953573
11 17 100 11 0.65052
1 18 100 11 9.03145e-05
4 18 100 11 2.45808e-06
5 18 100 11 1.4e-05
7 18 100 11 9.27408e-06
8 18 100 11 8.77475e-06
10 18 100 11 0.328244
11 18 100 11 0.671631
1 19 100 11 3.24336e-06
5 19 100 11 9.82518e-07
11 19 100 11 0.999996
11 22 100 11 1
1 23 100 11 7.42702e-06
11 23 100 11 0.999993
1 24 100 11 0.999493
11 24 100 11 0.000507362
1 0 100 12 0.0226598
2 0 100 12 0.0576049
3 0 100 12 0.125527
4 0 100 12 0.117134
5 0 100 12 0.105681
6 0 100 12 0.113978
7 0 100 12 0.105786
8 0 100 12 0.118256
9 0 100 12 0.090918
10 0 100 12 0.125817
11 0 100 12 0.00871818
12 0 100 12 0.00792122
1 1 100 12 0.928974
2 1 100 12 0.0427973
3 1 100 12 0.00855907
4 1 100 12 0.00540468
5 1 100 12 0.00381917
6 1 100 12 0.00242195
7 1 100 12 0.00406699
8 1 100 12 0.00260061
9 1 100 12 1.8346e-05
10 1 100 12 0.00128757
12 1 100 12 4.9817e-05
1 2 100 12 0.0291608
2 2 100 12 0.716216
3 2 100 12 0.130624
4 2 100 12 0.0392932
5 2 100 12 0.0260178
6 2 100 12 0.0216555
7 2 100 12 0.0116933
8 2 100 12 0.00831165
9 2 100 12 0.00787975
10 2 100 12 0.00393598
11 2 100 12 0.00520835
12 2 100 12 3.4995e-06
1 3 100 12 0.0179635
2 3 100 12 0.107469
3 3 100 12 0.528403
4 3 100 12 0.190129
5 3 100 12 0.0787505
6 3 100 12 0.0332733
7 3 100 12 0.0158994
8 3 100 12 0.00864964
9 3 100 12 0.00884018
10 3 100 12 0.00292575
11 3 100 12 0.00718008
12 3 100 12 0.000517032
1 4 100 12 0.0184484
2 4 100 12 0.0463571
3 4 100 12 0.138532
4 4 100 12 0.384833
5 4 100 12 0.197763
6 4 100 12 0.087898
7 4 100 12 0.064594
8 4 100 12 0.0217101
9 4 100 12 0.0186506
10 4 100 12 0.0127902
11 4 100 12 0.00840141
12 4 100 12 2.25655e-05
1 5 100 12 0.0044155
2 5 100 12 0.0254946
3 5 100 12 0.0485062
4 5 100 12 0.152934
5 5 100 12 0.334321
6 5 100 12 0.208857
7 5 100 12 0.0987848
8 5 100 12 0.0657452
9 5 100 12 0.0297098
10 5 100 12 0.0139108
11 5 100 12 0.015773
12 5 100 12 0.00154909
1 6 100 12 0.00816111
2 6 100 12 0.0185423
3 6 100 12 0.023903
4 6 100 12 0.0633554
5 6 100 12 0.171901
6 6 100 12 0.258372
7 6 100 12 0.219083
8 6 100 12 0.0990119
9 6 100 12 0.0524327
10 6 100 12 0.0512574
11 6 100 12 0.0307059
12 6 100 12 0.00327493
1 7 100 12 0.00624749
2 7 100 12 0.0153024
3 7 100 12 0.0196113
4 7 100 12 0.029293
5 7 100 12 0.0592937
6 7 100 12 0.179218
7 7 100 12 0.233064
8 7 100 12 0.187344
9 7 100 12 0.125783
10 7 100 12 0.0631584
11 7 100 12 0.0633162
12 7 100 12 0.0183683
1 8 100 12 0.00582274
2 8 100 12 0.0124878
3 8 100 12 0.0119009
4 8 100 12 0.0264985
5 8 100 12 0.0242697
6 8 100 12 0.0767827
7 8 100 12 0.16383
8 8 100 12 0.248071
9 8 100 12 0.184849
10 8 100 12 0.109427
11 8 100 12 0.0913353
12 8 100 12 0.0447248
1 9 100 12 0.00158625
2 9 100 12 0.00769091
3 9 100 12 0.0136369
4 9 100 12 0.0284193
5 9 100 12 0.0183881
6 9 100 12 0.0228996
7 9 100 12 0.0848536
8 9 100 12 0.167647
9 9 100 12 0.240703
10 9 100 12 0.178066
11 9 100 12 0.163626
12 9 100 12 0.0724834
1 10 100 12 0.00177779
2 10 100 12 0.00332036
3 10 100 12 0.00824776
4 10 100 12 0.00960582
5 10 100 12 0.0200373
6 10 100 12 0.0220305
7 10 100 12 0.0328201
8 10 100 12 0.0683327
9 10 100 12 0.158604
10 10 100 12 0.241585
11 10 100 12 0.284632
12 10 100 12 0.149007
1 11 100 12 0.0042379
2 11 100 12 0.000226277
3 11 100 12 0.00191368
4 11 100 12 0.00745792
5 11 100 12 0.0133694
6 11 100 12 0.0159484
7 11 100 12 0.0259147
8 11 100 12 0.0621239
9 11 100 12 0.126522
10 11 100 12 0.163073
11 11 100 12 0.271665
12 11 100 12 0.307548
1 12 100 12 0.00255811
2 12 100 12 0.0140039
3 12 100 12 0.00234297
4 12 100 12 0.0144185
5 12 100 12 0.0189593
6 12 100 12 0.0138645
7 12 100 12 0.0292243
8 12 100 12 0.0374371
9 12 100 12 0.0993758
10 12 100 12 0.152606
11 12 100 12 0.247403
12 12 100 12 0.367807
1 13 100 12 0.000560433
2 13 100 12 2.90016e-06
3 13 100 12 0.0038637
4 13 100 12 0.00383521
5 13 100 12 0.00761073
6 13 100 12 0.0154123
7 13 100 12 4.65271e-05
8 13 100 12 0.0337242
9 13 100 12 0.0606037
10 13 100 12 0.110691
11 13 100 12 0.247459
12 13 100 12 0.516191
1 14 100 12 0.00027876
2 14 100 12 0.000789459
3 14 100 12 0.00303088
4 14 100 12 0.00965585
5 14 100 12 0.0224399
6 14 100 12 0.0164329
7 14 100 12 0.0258054
8 14 100 12 0.0239271
9 14 100 12 0.0761119
10 14 100 12 0.107479
11 14 100 12 0.211171
12 14 100 12 0.502877
1 15 100 12 0.0157052
2 15 100 12 2.56548e-06
3 15 100 12 0.011772
4 15 100 12 0.000120771
5 15 100 12 6.33325e-05
6 15 100 12 0.0396747
7 15 100 12 0.0226871
8 15 100 12 0.0348157
9 15 100 12 0.0857263
10 15 100 12 0.105047
11 15 100 12 0.124291
12 15 100 12 0.560094
1 16 100 12 8.88487e-05
2 16 100 12 1.31092e-05
3 16 100 12 0.000448596
4 16 100 12 0.0201555
5 16 100 12 0.0392351
6 16 100 12 0.0393134
7 16 100 12 0.020683
8 16 100 12 0.071137
9 16 100 12 0.0805275
10 16 100 12 0.120686
11 16 100 12 0.205659
12 16 100 12 0.402054
1 17 100 12 0.00772924
2 17 100 12 1.45843e-06
3 17 100 12 0.000239115
4 17 100 12 7.06036e-06
5 17 100 12 0.000769129
6 17 100 12 3.11109e-07
7 17 100 12 0.0175485
8 17 100 12 1.26825e-05
9 17 100 12 0.0980859
10 17 100 12 0.0855251
11 17 100 12 0.171907
12 17 100 12 0.618175
1 18 100 12 0.0777105
2 18 100 12 6.32914e-06
3 18 100 12 9.83038e-05
4 18 100 12 6.69548e-05
5 18 100 12 7.86125e-07
6 18 100 12 2.13079e-06
7 18 100 12 0.000188331
8 18 100 12 0.00697233
9 18 100 12 0.0723175
10 18 100 12 0.0420856
11 18 100 12 0.145539
12 18 100 12 0.655012
1 19 100 12 0.000354323
2 19 100 12 0.000771357
3 19 100 12 1.0172e-05
4 19 100 12 9.56466e-06
5 19 100 12 3.12458e-07
6 19 100 12 2.98973e-05
7 19 100 12 3.50968e-06
8 19 100 12 0.000654454
10 19 100 12 0.0184121
11 19 100 12 0.475326
12 19 100 12 0.504428
1 20 100 12 5.93535e-05
3 20 100 12 1.99371e-05
4 20 100 12 2.57775e-06
6 20 100 12 4.42139e-07
8 20 100 12 1.05081e-06
9 20 100 12 4.69179e-06
10 20 100 12 6.94585e-05
11 20 100 12 0.000250962
12 20 100 12 0.999592
1 21 100 12 0.000614758
2 21 100 12 5.99323e-05
3 21 100 12 3.71941e-05
4 21 100 12 3.57611e-05
5 21 100 12 7.27342e-06
11 21 100 12 0.770336
12 21 100 12 0.228909
12 22 100 12 1
1 0 100 13 0.0232504
2 0 100 13 0.057408
3 0 100 13 0.0917815
4 0 100 13 0.107838
5 0 100 13 0.0958466
6 0 100 13 0.0981112
7 0 100 13 0.105103
8 0 100 13 0.0868003
9 0 100 13 0.0929313
10 0 100 13 0.0948459
11 0 100 13 0.121511
12 0 100 13 0.0134
13 0 100 13 0.0111723
1 1 100 13 0.912109
2 1 100 13 0.0409564
3 1 100 13 0.0150308
4 1 100 13 0.0108495
5 1 100 13 0.00451376
6 1 100 13 2.47381e-06
7 1 100 13 0.00411904
8 1 100 13 0.00291734
9 1 100 13 0.00275829
10 1 100 13 0.00275669
11 1 100 13 0.00260369
12 1 100 13 0.00137858
13 1 100 13 4.65445e-06
1 2 100 13 0.0376474
2 2 100 13 0.69442
3 2 100 13 0.136028
4 2 100 13 0.0469853
5 2 100 13 0.026862
6 2 100 13 0.0127695
7 2 100 13 0.00934476
8 2 100 13 0.00552052
9 2 100 13 0.00770807
10 2 100 13 0.00760426
11 2 100 13 0.00542189
12 2 100 13 0.00965308
13 2 100 13 3.58548e-05
1 3 100 13 0.0209003
2 3 100 13 0.0991348
3 3 100 13 0.503158
4 3 100 13 0.195094
5 3 100 13 0.0740833
6 3 100 13 0.0393982
7 3 100 13 0.0246318
8 3 100 13 0.0162359
9 3 100 13 0.00971215
10 3 100 13 0.011944
11 3 100 13 0.00300109
12 3 100 13 0.00267562
13 3 100 13 3.07219e-05
1 4 100 13 0.00934261
2 4 100 13 0.0421044
3 4 100 13 0.140065
4 4 100 13 0.388232
5 4 100 13 0.211854
6 4 100 13 0.0865447
7 4 100 13 0.0514121
8 4 100 13 0.0312247
9 4 100 13 0.0141825
10 4 100 13 0.00773635
11 4 100 13 0.00422926
12 4 100 13 0.00992011
13 4 100 13 0.00315159
1 5 100 13 0.00795612
2 5 100 13 0.0256889
3 5 100 13 0.0543392
4 5 100 13 0.130801
5 5 100 13 0.341209
6 5 100 13 0.214684
7 5 100 13 0.0962713
8 5 100 13 0.0592017
9 5 100 13 0.0331617
10 5 100 13 0.0154408
11 5 100 13 0.0105998
12 5 100 13 0.0105582
13 5 100 13 8.88246e-05
1 6 100 13 0.00401463
2 6 100 13 0.0223983
3 6 100 13 0.0270784
4 6 100 13 0.0570552
5 6 100 13 0.127139
6 6 100 13 0.301862
7 6 100 13 0.209694
8 6 100 13 0.114167
9 6 100 13 0.0627697
10 6 100 13 0.0435258
11 6 100 13 0.0177407
12 6 100 13 0.0109342
13 6 100 13 0.00162136
1 7 100 13 0.00611607
2 7 100 13 0.011866
3 7 100 13 0.00917038
4 7 100 13 0.0276395
5 7 100 13 0.0683235
6 7 100 13 0.153416
7 7 100 13 0.253274
8 7 100 13 0.201137
9 7 100 13 0.117476
10 7 100 13 0.051024
11 7 100 13 0.0548716
12 7 100 13 0.0408018
13 7 100 13 0.00488475
1 8 100 13 0.00467968
2 8 100 13 0.00906298
3 8 100 13 0.0129003
4 8 100 13 0.0128911
5 8 100 13 0.0379711
6 8 100 13 0.0615817
7 8 100 13 0.142464
8 8 100 13 0.253724
9 8 100 13 0.178964
10 8 100 13 0.117338
11 8 100 13 0.0636134
12 8 100 13 0.0816952
13 8 100 13 0.0231149
1 9 100 13 0.00492737
2 9 100 13 0.00330696
3 9 100 13 0.00835005
4 9 100 13 0.0134863
5 9 100 13 0.0218279
6 9 100 13 0.0346141
7 9 100 13 0.0683218
8 9 100 13 0.143349
9 9 100 13 0.247984
10 9 100 13 0.185223
11 9 100 13 0.127297
12 9 100 13 0.104115
13 9 100 13 0.0371966
1 10 100 13 1.64189e-05
2 10 100 13 0.00866234
3 10 100 13 0.0159666
4 10 100 13 0.008596
5 10 100 13 0.00530983
6 10 100 13 0.0279396
7 10 100 13 0.039924
8 10 100 13 0.0907271
9 10 100 13 0.14596
10 10 100 13 0.238757
11 10 100 13 0.1729
12 10 100 13 0.142908
13 10 100 13 0.102333
1 11 100 13 0.00347535
2 11 100 13 0.00342571
3 11 100 13 0.0113864
4 11 100 13 0.00688079
5 11 100 13 0.00854857
6 11 100 13 0.00511658
7 11 100 13 0.0343529
8 11 100 13 0.0486652
9 11 100 13 0.101206
10 11 100 13 0.150711
11 11 100 13 0.194221
12 11 100 13 0.279439
13 11 100 13 0.152571
1 12 100 13 0.00172946
2 12 100 13 0.0022036
3 12 100 13 0.00477614
4 12 100 13 0.00340099
5 12 100 13 0.0138933
6 12 100 13 0.0103773
7 12 100 13 0.0093426
8 12 100 13 0.021419
9 12 100 13 0.0739283
10 12 100 13 0.112229
11 12 100 13 0.184175
12 12 100 13 0.256527
13 12 100 13 0.305998
1 13 100 13 0.00275991
2 13 100 13 0.00267795
3 13 100 13 0.00784064
4 13 100 13 0.00880091
5 13 100 13 0.0105025
6 13 100 13 0.0123532
7 13 100 13 0.0204386
8 13 100 13 0.0247429
9 13 100 13 0.0324867
10 13 100 13 0.119318
11 13 100 13 0.155098
12 13 100 13 0.216523
13 13 100 13 0.386458
1 14 100 13 0.00124354
2 14 100 13 3.06989e-07
3 14 100 13 1.38083e-06
4 14 100 13 4.30712e-06
5 14 100 13 0.00459972
6 14 100 13 0.0163817
7 14 100 13 0.0165695
8 14 100 13 0.0205217
9 14 100 13 0.0315474
10 14 100 13 0.0616638
11 14 100 13 0.109882
12 14 100 13 0.256908
13 14 100 13 0.480676
1 15 100 13 0.00948714
2 15 100 13 0.0221376
3 15 100 13 0.0011591
4 15 100 13 0.000709481
5 15 100 13 0.00234582
6 15 100 13 0.0144475
7 15 100 13 0.00520027
8 15 100 13 0.00880958
9 15 100 13 0.0252583
10 15 100 13 0.0480481
11 15 100 13 0.11077
12 15 100 13 0.190857
13 15 100 13 0.56077
1 16 100 13 0.0114085
2 16 100 13 0.0215448
3 16 100 13 0.0520067
4 16 100 13 0.0435934
5 16 100 13 0.0402959
6 16 100 13 0.0434097
7 16 100 13 0.0342994
8 16 100 13 0.0735551
9 16 100 13 0.0427024
10 16 100 13 0.0584336
11 16 100 13 0.103121
12 16 100 13 0.170628
13 16 100 13 0.305001
1 17 100 13 0.000836009
2 17 100 13 0.00227939
3 17 100 13 0.0232374
4 17 100 13 0.000147388
5 17 100 13 2.27321e-05
6 17 100 13 1.31285e-05
7 17 100 13 0.00156196
8 17 100 13 0.0214599
9 17 100 13 0.0482276
10 17 100 13 0.0381468
11 17 100 13 0.0497938
12 17 100 13 0.314806
13 17 100 13 0.499468
1 18 100 13 0.0309054
2 18 100 13 1.44399e-05
3 18 100 13 0.0298432
4 18 100 13 0.0814309
5 18 100 13 0.0298107
6 18 100 13 0.029815
7 18 100 13 2.83249e-05
8 18 100 13 0.0293306
9 18 100 13 0.0255617
10 18 100 13 0.0257226
11 18 100 13 0.0639026
12 18 100 13 0.132096
13 18 100 13 0.521538
1 19 100 13 0.000470632
2 19 100 13 6.05681e-06
3 19 100 13 0.000129715
4 19 100 13 1.51047e-05
5 19 100 13 4.0796e-05
6 19 100 13 2.82007e-06
7 19 100 13 7.52921e-06
8 19 100 13 0.000104539
9 19 100 13 5.63763e-05
10 19 100 13 4.34362e-06
11 19 100 13 0.144299
12 19 100 13 0.0980862
13 19 100 13 0.756777
1 20 100 13 0.000237642
3 20 100 13 7.69803e-05
4 20 100 13 8.38563e-05
6 20 100 13 8.95986e-06
7 20 100 13 1.09132e-06
8 20 100 13 2.01455e-05
9 20 100 13 5.14269e-06
10 20 100 13 0.18104
11 20 100 13 1.30048e-06
12 20 100 13 0.259123
13 20 100 13 0.559401
4 21 100 13 2.61001e-05
7 21 100 13 1.39267e-06
9 21 100 13 1.51883e-05
11 21 100 13 3.8452e-05
13 21 100 13 0.999919
1 0 100 14 0.0228359
2 0 100 14 0.056851
3 0 100 14 0.0969235
4 0 100 14 0.0945451
5 0 100 14 0.0785066
6 0 100 14 0.0893852
7 0 100 14 0.0859071
8 0 100 14 0.0930796
9 0 100 14 0.0827716
10 0 100 14 0.0919151
11 0 100 14 0.0803162
12 0 100 14 0.109844
13 0 100 14 0.0089183
14 0 100 14 0.0082006
1 1 100 14 0.903524
2 1 100 14 0.0528556
3 1 100 14 0.010953
4 1 100 14 0.00862623
5 1 100 14 0.00848518
6 1 100 14 0.00563229
7 1 100 14 7.90859e-06
8 1 100 14 0.0013979
9 1 100 14 0.00413549
10 1 100 14 0.000162468
11 1 100 14 0.0027936
12 1 100 14 3.98535e-06
13 1 100 14 0.00142182
14 1 100 14 1.11374e-06
1 2 100 14 0.0438405
2 2 100 14 0.652624
3 2 100 14 0.154717
4 2 100 14 0.0501403
5 2 100 14 0.0261793
6 2 100 14 0.0163166
7 2 100 14 0.0181275
8 2 100 14 0.012267
9 2 100 14 0.0045037
10 2 100 14 0.00704462
11 2 100 14 0.00420514
12 2 100 14 0.00564125
13 2 100 14 0.00424886
14 2 100 14 0.000144518
1 3 100 14 0.0206412
2 3 100 14 0.128323
3 3 100 14 0.469874
4 3 100 14 0.19545
5 3 100 14 0.0797827
6 3 100 14 0.0332371
7 3 100 14 0.0235277
8 3 100 14 0.0194858
9 3 100 14 0.011982
10 3 100 14 0.00978891
11 3 100 14 0.00161594
12 3 100 14 0.00488926
13 3 100 14 1.05214e-05
14 3 100 14 0.00139219
1 4 100 14 0.0105187
2 4 100 14 0.0456014
3 4 100 14 0.159529
4 4 100 14 0.348639
5 4 100 14 0.188229
6 4 100 14 0.09109
7 4 100 14 0.0472444
8 4 100 14 0.0338938
9 4 100 14 0.0244919
10 4 100 14 0.0186614
11 4 100 14 0.0139954
12 4 100 14 0.0109274
13 4 100 14 0.00609888
14 4 100 14 0.00107915
1 5 100 14 0.00714589
2 5 100 14 0.0172353
3 5 100 14 0.0467838
4 5 100 14 0.163154
5 5 100 14 0.313665
6 5 100 14 0.166244
7 5 100 14 0.11467
8 5 100 14 0.0526591
9 5 100 14 0.0433817
10 5 100 14 0.0308767
11 5 100 14 0.0148532
12 5 100 14 0.0157093
13 5 100 14 0.0106617
14 5 100 14 0.00296051
1 6 100 14 0.0039389
2 6 100 14 0.0181439
3 6 100 14 0.0241691
4 6 100 14 0.0636214
5 6 100 14 0.161783
6 6 100 14 0.277015
7 6 100 14 0.155927
8 6 100 14 0.107692
9 6 100 14 0.0728382
10 6 100 14 0.0428199
11 6 100 14 0.0349342
12 6 100 14 0.00975656
13 6 100 14 0.0229273
14 6 100 14 0.00443288
1 7 100 14 0.0118945
2 7 100 14 0.00803605
3 7 100 14 0.0184967
4 7 100 14 0.0297011
5 7 100 14 0.071819
6 7 100 14 0.164284
7 7 100 14 0.277663
8 7 100 14 0.16809
9 7 100 14 0.096226
10 7 100 14 0.0478224
11 7 100 14 0.0470077
12 7 100 14 0.0347502
13 7 100 14 0.01452
14 7 100 14 0.00969001
1 8 100 14 0.0035921
2 8 100 14 0.0142686
3 8 100 14 0.00866464
4 8 100 14 0.0283208
5 8 100 14 0.041784
6 8 100 14 0.0881592
7 8 100 14 0.145934
8 8 100 14 0.223848
9 8 100 14 0.164098
10 8 100 14 0.102794
11 8 100 14 0.0583783
12 8 100 14 0.0522215
13 8 100 14 0.0586434
14 8 100 14 0.00929417
1 9 100 14 0.00615401
2 9 100 14 0.0102267
3 9 100 14 0.00938549
4 9 100 14 0.0182571
5 9 100 14 0.0185766
6 9 100 14 0.0429403
7 9 100 14 0.0852053
8 9 100 14 0.164998
9 9 100 14 0.210391
10 9 100 14 0.159734
11 9 100 14 0.101421
12 9 100 14 0.0678365
13 9 100 14 0.0715372
14 9 100 14 0.0333366
1 10 100 14 0.00488387
2 10 100 14 0.00979482
3 10 100 14 0.0179359
4 10 100 14 0.0114291
5 10 100 14 0.0222296
6 10 100 14 0.0277303
7 10 100 14 0.0516788
8 10 100 14 0.0695488
9 10 100 14 0.172971
10 10 100 14 0.192642
11 10 100 14 0.174016
12 10 100 14 0.0822702
13 10 100 14 0.102311
14 10 100 14 0.0605595
1 11 100 14 0.000879882
2 11 100 14 0.00172172
3 11 100 14 0.00776915
4 11 100 14 0.00871141
5 11 100 14 0.0137288
6 11 100 14 0.0133338
7 11 100 14 0.024012
8 11 100 14 0.060518
9 11 100 14 0.100933
10 11 100 14 0.170926
11 11 100 14 0.189452
12 11 100 14 0.165883
13 11 100 14 0.148136
14 11 100 14 0.0939952
1 12 100 14 0.00699422
2 12 100 14 0.00378514
3 12 100 14 0.0110225
4 12 100 14 0.00224659
5 12 100 14 0.0150429
6 12 100 14 0.0105958
7 12 100 14 0.0164891
8 12 100 14 0.0240697
9 12 100 14 0.0425674
10 12 100 14 0.118148
11 12 100 14 0.179888
12 12 100 14 0.189732
13 12 100 14 0.211675
14 12 100 14 0.167743
1 13 100 14 0.00780732
2 13 100 14 0.00853847
3 13 100 14 0.00419534
4 13 100 14 0.0123638
5 13 100 14 0.00428961
6 13 100 14 0.00890995
7 13 100 14 0.00826646
8 13 100 14 0.0153
9 13 100 14 0.0320176
10 13 100 14 0.0737121
11 13 100 14 0.149781
12 13 100 14 0.20226
13 13 100 14 0.235521
14 13 100 14 0.237037
1 14 100 14 7.22742e-05
2 14 100 14 0.00812592
3 14 100 14 0.00716386
4 14 100 14 0.00595824
5 14 100 14 0.00260479
6 14 100 14 0.0102172
7 14 100 14 0.00776967
8 14 100 14 0.0122639
9 14 100 14 0.0104219
10 14 100 14 0.0311141
11 14 100 14 0.108016
12 14 100 14 0.174371
13 14 100 14 0.291598
14 14 100 14 0.330303
1 15 100 14 0.00369748
2 15 100 14 4.5699e-06
3 15 100 14 3.37521e-06
4 15 100 14 0.0040201
5 15 100 14 5.841e-06
6 15 100 14 0.000110483
7 15 100 14 2.75434e-05
8 15 100 14 0.00264449
9 15 100 14 0.0262374
10 15 100 14 0.0374978
11 15 100 14 0.0683658
12 15 100 14 0.117142
13 15 100 14 0.263941
14 15 100 14 0.476302
1 16 100 14 0.00392904
2 16 100 14 0.000300561
3 16 100 14 0.00152278
4 16 100 14 0.0071252
5 16 100 14 3.09266e-05
6 16 100 14 4.11976e-05
7 16 100 14 0.00388699
8 16 100 14 0.012893
9 16 100 14 0.0183621
10 16 100 14 0.0256264
11 16 100 14 0.0845746
12 16 100 14 0.0941543
13 16 100 14 0.230828
14 16 100 14 0.516725
1 17 100 14 0.000550096
2 17 100 14 2.46931e-05
3 17 100 14 0.000241067
4 17 100 14 0.0205603
5 17 100 14 0.0244916
6 17 100 14 8.60629e-06
7 17 100 14 0.00735484
8 17 100 14 0.0294124
9 17 100 14 0.0302398
10 17 100 14 0.0598353
11 17 100 14 0.020041
12 17 100 14 0.08571
13 17 100 14 0.182231
14 17 100 14 0.539299
1 18 100 14 0.000214256
2 18 100 14 2.09437e-06
3 18 100 14 8.59485e-06
4 18 100 14 0.0210713
5 18 100 14 0.0211204
6 18 100 14 0.0382107
7 18 100 14 0.0211124
8 18 100 14 0.0213762
9 18 100 14 0.0327088
10 18 100 14 0.0128462
11 18 100 14 0.0319805
12 18 100 14 0.0916872
13 18 100 14 0.272514
14 18 100 14 0.435147
1 19 100 14 0.000113504
2 19 100 14 1.41996e-06
3 19 100 14 0.000118999
4 19 100 14 9.42972e-07
5 19 100 14 8.36011e-06
6 19 100 14 0.00276181
7 19 100 14 0.0444649
8 19 100 14 0.0484207
9 19 100 14 0.0440287
10 19 100 14 0.0440704
11 19 100 14 5.69708e-05
12 19 100 14 0.0836318
13 19 100 14 0.0730742
14 19 100 14 0.659247
1 20 100 14 0.00094936
2 20 100 14 2.00839e-07
3 20 100 14 0.000385357
4 20 100 14 0.060242
5 20 100 14 0.0990861
6 20 100 14 0.0694227
7 20 100 14 0.132968
8 20 100 14 2.77964e-05
9 20 100 14 0.0689963
10 20 100 14 0.00349598
11 20 100 14 0.000655082
12 20 100 14 0.0344536
13 20 100 14 0.110194
14 20 100 14 0.419123
1 21 100 14 0.000202984
3 21 100 14 5.31885e-05
4 21 100 14 0.000106806
5 21 100 14 2.89834e-05
6 21 100 14 7.06173e-07
8 21 100 14 3.71302e-05
9 21 100 14 2.79263e-06
10 21 100 14 0.000253874
11 21 100 14 4.26442e-05
12 21 100 14 2.89451e-06
13 21 100 14 0.278929
14 21 100 14 0.720339
1 22 100 14 0.0023462
3 22 100 14 0.00078426
4 22 100 14 0.000581703
7 22 100 14 7.47024e-06
8 22 100 14 0.00122432
9 22 100 14 0.0395307
10 22 100 14 0.000389961
11 22 100 14 0.00686957
12 22 100 14 2.6054e-06
14 22 100 14 0.948263
4 23 100 14 9.23107e-05
9 23 100 14 0.00136541
10 23 100 14 0.994899
13 23 100 14 0.0036432
3 24 100 14 3.21582e-05
4 24 100 14 1.93898e-06
8 24 100 14 1.20933e-06
9 24 100 14 1.04947e-05
11 24 100 14 0.000102879
14 24 100 14 0.999851
1 25 100 14 0.992365
3 25 100 14 0.000162921
6 25 100 14 5.17702e-06
8 25 100 14 8.71929e-05
9 25 100 14 2.07442e-06
11 25 100 14 6.06454e-06
14 25 100 14 0.00737146
1 0 100 15 0.0254812
2 0 100 15 0.0504569
3 0 100 15 0.0859895
4 0 100 15 0.0787933
5 0 100 15 0.0722688
6 0 100 15 0.0831798
7 0 100 15 0.0785873
8 0 100 15 0.0724431
9 0 100 15 0.0806047
10 0 100 15 0.0912529
11 0 100 15 0.086363
12 0 100 15 0.0899235
13 0 100 15 0.090716
14 0 100 15 0.0052123
15 0 100 15 0.00872758
1 1 100 15 0.928604
2 1 100 15 0.04078
3 1 100 15 0.0110354
4 1 100 15 0.00553323
5 1 100 15 0.00581545
6 1 100 15 0.00138961
7 1 100 15 5.80537e-07
8 1 100 15 0.00137593
9 1 100 15 0.00138352
10 1 100 15 0.00140116
11 1 100 15 0.00137601
12 1 100 15 1.60147e-06
13 1 100 15 3.15412e-06
14 1 100 15 6.06071e-06
15 1 100 15 0.0012944
1 2 100 15 0.0451347
2 2 100 15 0.666884
3 2 100 15 0.148927
4 2 100 15 0.0508722
5 2 100 15 0.0217768
6 2 100 15 0.019824
7 2 100 15 0.00650239
8 2 100 15 0.00813458
9 2 100 15 0.00767301
10 2 100 15 0.00379849
11 2 100 15 0.00642496
12 2 100 15 0.00535859
13 2 100 15 0.0073448
14 2 100 15 0.00134148
15 2 100 15 3.15052e-06
1 3 100 15 0.0218328
2 3 100 15 0.12811
3 3 100 15 0.487505
4 3 100 15 0.190269
5 3 100 15 0.0775809
6 3 100 15 0.0286113
7 3 100 15 0.0208893
8 3 100 15 0.0087864
9 3 100 15 0.00768721
10 3 100 15 0.0107066
11 3 100 15 0.00306867
12 3 100 15 0.00443085
13 3 100 15 0.00606162
14 3 100 15 0.00442807
15 3 100 15 3.20846e-05
1 4 100 15 0.00803287
2 4 100 15 0.0470581
3 4 100 15 0.12268
4 4 100 15 0.37981
5 4 100 15 0.175786
6 4 100 15 0.10875
7 4 100 15 0.0452599
8 4 100 15 0.0287647
9 4 100 15 0.0250673
10 4 100 15 0.0127052
11 4 100 15 0.0159063
12 4 100 15 0.010429
13 4 100 15 0.00770632
14 4 100 15 0.00944528
15 4 100 15 0.0025991
1 5 100 15 0.00818227
2 5 100 15 0.0171752
3 5 100 15 0.0762197
4 5 100 15 0.154466
5 5 100 15 0.339789
6 5 100 15 0.155696
7 5 100 15 0.104698
8 5 100 15 0.0540054
9 5 100 15 0.0300151
10 5 100 15 0.0246555
11 5 100 15 0.012921
12 5 100 15 0.0144749
13 5 100 15 0.00456795
14 5 100 15 0.00288678
15 5 100 15 0.000246687
1 6 100 15 0.00157104
2 6 100 15 0.012116
3 6 100 15 0.0172401
4 6 100 15 0.068588
5 6 100 15 0.168466
6 6 100 15 0.302148
7 6 100 15 0.167876
8 6 100 15 0.109974
9 6 100 15 0.0528797
10 6 100 15 0.028673
11 6 100 15 0.0291824
12 6 100 15 0.0150313
13 6 100 15 0.011644
14 6 100 15 0.0130646
15 6 100 15 0.00154613
1 7 100 15 0.00557909
2 7 100 15 0.009978
3 7 100 15 0.0198799
4 7 100 15 0.0413112
5 7 100 15 0.0783648
6 7 100 15 0.148617
7 7 100 15 0.276848
8 7 100 15 0.159013
9 7 100 15 0.0973921
10 7 100 15 0.0529136
11 7 100 15 0.040974
12 7 100 15 0.0275575
13 7 100 15 0.0174614
14 7 100 15 0.0213047
15 7 100 15 0.00280608
1 8 100 15 0.0043755
2 8 100 15 0.0138174
3 8 100 15 0.0173022
4 8 100 15 0.0240221
5 8 100 15 0.046264
6 8 100 15 0.0761849
7 8 100 15 0.148622
8 8 100 15 0.246675
9 8 100 15 0.14582
10 8 100 15 0.111377
11 8 100 15 0.0625574
12 8 100 15 0.0373673
13 8 100 15 0.0252811
14 8 100 15 0.0308057
15 8 100 15 0.00952825
1 9 100 15 9.71771e-06
2 9 100 15 0.0060346
3 9 100 15 0.00624707
4 9 100 15 0.0102738
5 9 100 15 0.0209381
6 9 100 15 0.04827
7 9 100 15 0.0848969
8 9 100 15 0.160184
9 9 100 15 0.229945
10 9 100 15 0.139149
11 9 100 15 0.0987095
12 9 100 15 0.0807373
13 9 100 15 0.0513202
14 9 100 15 0.0457504
15 9 100 15 0.0175347
1 10 100 15 0.0021803
2 10 100 15 0.00428316
3 10 100 15 0.00613234
4 10 100 15 0.0060773
5 10 100 15 0.00464563
6 10 100 15 0.0140036
7 10 100 15 0.0410445
8 10 100 15 0.0912222
9 10 100 15 0.159316
10 10 100 15 0.225205
11 10 100 15 0.14964
12 10 100 15 0.106991
13 10 100 15 0.0877036
14 10 100 15 0.0666213
15 10 100 15 0.0349346
1 11 100 15 0.00158885
2 11 100 15 0.00676835
3 11 100 15 0.0109697
4 11 100 15 0.00937396
5 11 100 15 0.0107455
6 11 100 15 0.0140792
7 11 100 15 0.0169814
8 11 100 15 0.0522142
9 11 100 15 0.11064
10 11 100 15 0.130034
11 11 100 15 0.210355
12 11 100 15 0.153088
13 11 100 15 0.11131
14 11 100 15 0.111214
15 11 100 15 0.0506389
1 12 100 15 0.00152903
2 12 100 15 0.00524028
3 12 100 15 0.00687427
4 12 100 15 0.00500404
5 12 100 15 0.00655967
6 12 100 15 0.0115543
7 12 100 15 0.0115766
8 12 100 15 0.0280755
9 12 100 15 0.051926
10 12 100 15 0.118776
11 12 100 15 0.143648
12 12 100 15 0.192947
13 12 100 15 0.152682
14 12 100 15 0.162592
15 12 100 15 0.101017
1 13 100 15 0.00559336
2 13 100 15 0.00217604
3 13 100 15 0.00213939
4 13 100 15 0.00552112
5 13 100 15 0.00824007
6 13 100 15 0.00885477
7 13 100 15 0.010983
8 13 100 15 0.014045
9 13 100 15 0.0309712
10 13 100 15 0.0687668
11 13 100 15 0.11833
12 13 100 15 0.147692
13 13 100 15 0.211888
14 13 100 15 0.197686
15 13 100 15 0.167112
1 14 100 15 5.01534e-05
2 14 100 15 0.00606361
3 14 100 15 0.00578602
4 14 100 15 0.00421396
5 14 100 15 0.00418502
6 14 100 15 0.00831664
7 14 100 15 0.0117726
8 14 100 15 9.62628e-05
9 14 100 15 0.0125609
10 14 100 15 0.0292942
11 14 100 15 0.0842546
12 14 100 15 0.13071
13 14 100 15 0.200234
14 14 100 15 0.287997
15 14 100 15 0.214465
1 15 100 15 0.000115504
2 15 100 15 0.00654365
3 15 100 15 0.00796819
4 15 100 15 0.00575513
5 15 100 15 0.00576257
6 15 100 15 0.00612074
7 15 100 15 0.00488838
8 15 100 15 0.0103287
9 15 100 15 0.00971377
10 15 100 15 0.0338887
11 15 100 15 0.0386155
12 15 100 15 0.122468
13 15 100 15 0.132098
14 15 100 15 0.246258
15 15 100 15 0.369475
1 16 100 15 0.00411995
2 16 100 15 2.71329e-06
3 16 100 15 2.56312e-05
4 16 100 15 0.00732051
5 16 100 15 0.00392324
7 16 100 15 0.00835077
8 16 100 15 0.0115725
9 16 100 15 0.0184393
10 16 100 15 0.0116374
11 16 100 15 0.0520786
12 16 100 15 0.0479648
13 16 100 15 0.113941
14 16 100 15 0.250213
15 16 100 15 0.47041
1 17 100 15 5.73225e-05
2 17 100 15 5.46094e-06
3 17 100 15 1.09991e-05
4 17 100 15 0.00620367
5 17 100 15 0.00844118
6 17 100 15 0.0125431
7 17 100 15 0.00977978
8 17 100 15 0.0152995
9 17 100 15 0.0261219
10 17 100 15 0.0142202
11 17 100 15 0.0411452
12 17 100 15 0.0692518
13 17 100 15 0.10769
14 17 100 15 0.236812
15 17 100 15 0.452418
1 18 100 15 7.35415e-05
2 18 100 15 0.00104842
3 18 100 15 0.0012231
4 18 100 15 6.14578e-05
5 18 100 15 0.0107205
6 18 100 15 3.24387e-05
7 18 100 15 0.0221016
8 18 100 15 0.0233676
9 18 100 15 0.0209156
10 18 100 15 0.0246597
11 18 100 15 0.000697201
12 18 100 15 0.0784896
13 18 100 15 0.124124
14 18 100 15 0.165864
15 18 100 15 0.526621
1 19 100 15 4.46342e-05
2 19 100 15 5.35923e-05
3 19 100 15 0.00395519
4 19 100 15 0.00215389
5 19 100 15 4.04111e-06
6 19 100 15 7.99907e-05
7 19 100 15 0.035773
8 19 100 15 0.0473339
9 19 100 15 0.010675
10 19 100 15 9.73547e-05
11 19 100 15 0.0352365
12 19 100 15 0.0229695
13 19 100 15 0.112039
14 19 100 15 0.214383
15 19 100 15 0.515201
1 20 100 15 0.0338997
2 20 100 15 0.032184
3 20 100 15 0.00399529
4 20 100 15 0.0322946
5 20 100 15 0.0390583
6 20 100 15 1.7303e-05
7 20 100 15 3.59804e-07
8 20 100 15 0.0323533
9 20 100 15 0.0321898
10 20 100 15 0.0323737
11 20 100 15 0.078256
12 20 100 15 0.0633728
13 20 100 15 0.060151
14 20 100 15 0.128794
15 20 100 15 0.43106
1 21 100 15 0.0677838
2 21 100 15 0.0646366
3 21 100 15 0.0655035
4 21 100 15 0.00114874
5 21 100 15 0.000115825
6 21 100 15 0.0155857
7 21 100 15 1.13906e-07
8 21 100 15 1.02138e-06
9 21 100 15 1.65057e-05
10 21 100 15 7.33578e-06
11 21 100 15 3.16383e-05
12 21 100 15 0.105029
13 21 100 15 0.200248
14 21 100 15 0.12935
15 21 100 15 0.350543
1 22 100 15 0.000137331
2 22 100 15 0.000128052
3 22 100 15 1.1635e-05
4 22 100 15 5.57067e-05
5 22 100 15 3.57738e-06
6 22 100 15 1.13218e-05
7 22 100 15 1.88027e-05
8 22 100 15 0.00111417
9 22 100 15 0.00642581
10 22 100 15 0.107829
11 22 100 15 0.0977141
12 22 100 15 0.106458
13 22 100 15 0.000466406
14 22 100 15 0.231719
15 22 100 15 0.447907
1 23 100 15 0.000114493
3 23 100 15 1.6259e-06
5 23 100 15 0.025468
6 23 100 15 1.14488e-06
8 23 100 15 0.000232886
9 23 100 15 1.84668e-05
10 23 100 15 0.00136876
11 23 100 15 2.67363e-07
14 23 100 15 1.43008e-05
15 23 100 15 0.97278
5 24 100 15 0.00523563
9 24 100 15 0.983291
10 24 100 15 6.91864e-05
15 24 100 15 0.0114038
1 25 100 15 4.23134e-05
3 25 100 15 0.0288015
6 25 100 15 0.0787735
15 25 100 15 0.892383
1 26 100 15 0.0829834
3 26 100 15 0.09511
4 26 100 15 0.689792
6 26 100 15 0.101812
9 26 100 15 0.0303033
4 27 100 15 1
1 28 100 15 7.26219e-06
3 28 100 15 3.95982e-06
5 28 100 15 4.64853e-05
7 28 100 15 0.000229956
9 28 100 15 1.21147e-06
15 28 100 15 0.999711
1 29 100 15 0.000228041
3 29 100 15 8.28475e-05
15 29 100 15 0.999689
1 0 100 16 0.017298
2 0 100 16 0.0493624
3 0 100 16 0.0817077
4 0 100 16 0.080689
5 0 100 16 0.0853912
6 0 100 16 0.0668486
7 0 100 16 0.0780516
8 0 100 16 0.0782372
9 0 100 16 0.0681932
10 0 100 16 0.0794496
11 0 100 16 0.0714064
12 0 100 16 0.0699774
13 0 100 16 0.0680316
14 0 100 16 0.0886699
15 0 100 16 0.00867678
16 0 100 16 0.00800955
1 1 100 16 0.910326
2 1 100 16 0.0440481
3 1 100 16 0.0162134
4 1 100 16 0.0146779
5 1 100 16 0.00215326
6 1 100 16 0.00146469
7 1 100 16 1.55015e-05
8 1 100 16 0.00452262
9 1 100 16 0.00294244
10 1 100 16 0.00155643
11 1 100 16 7.05798e-07
12 1 100 16 0.00206537
13 1 100 16 7.87315e-06
14 1 100 16 3.50874e-06
15 1 100 16 1.59736e-07
16 1 100 16 2.28039e-06
1 2 100 16 0.0454097
2 2 100 16 0.680053
3 2 100 16 0.144311
4 2 100 16 0.0474196
5 2 100 16 0.0264777
6 2 100 16 0.00932349
7 2 100 16 0.00751156
8 2 100 16 0.00395521
9 2 100 16 0.00787657
10 2 100 16 0.00444289
11 2 100 16 0.00607606
12 2 100 16 0.0016631
13 2 100 16 0.00499561
14 2 100 16 0.0059756
15 2 100 16 0.00450842
16 2 100 16 7.0454e-07
1 3 100 16 0.0135258
2 3 100 16 0.108373
3 3 100 16 0.47898
4 3 100 16 0.188543
5 3 100 16 0.0754654
6 3 100 16 0.0360592
7 3 100 16 0.0155345
8 3 100 16 0.0130084
9 3 100 16 0.0141312
10 3 100 16 0.0167659
11 3 100 16 0.00942091
12 3 100 16 0.00847422
13 3 100 16 0.0122728
14 3 100 16 0.0031797
15 3 100 16 0.00625957
16 3 100 16 6.87283e-06
1 4 100 16 0.0129132
2 4 100 16 0.0333253
3 4 100 16 0.141293
4 4 100 16 0.36424
5 4 100 16 0.221589
6 4 100 16 0.0936987
7 4 100 16 0.042243
8 4 100 16 0.0177524
9 4 100 16 0.0155151
10 4 100 16 0.0115419
11 4 100 16 0.0106697
12 4 100 16 0.00696868
13 4 100 16 0.0104538
14 4 100 16 0.014164
15 4 100 16 0.00190043
16 4 100 16 0.00173103
1 5 100 16 0.0169158
2 5 100 16 0.0417068
3 5 100 16 0.0550491
4 5 100 16 0.146298
5 5 100 16 0.276729
6 5 100 16 0.200824
7 5 100 16 0.111941
8 5 100 16 0.0545992
9 5 100 16 0.0308719
10 5 100 16 0.0254707
11 5 100 16 0.00964091
12 5 100 16 0.0122758
13 5 100 16 0.00628069
14 5 100 16 0.00488078
15 5 100 16 0.00503611
16 5 100 16 0.00148043
1 6 100 16 0.00437577
2 6 100 16 0.0257559
3 6 100 16 0.0322926
4 6 100 16 0.0684718
5 6 100 16 0.142062
6 6 100 16 0.306592
7 6 100 16 0.171997
8 6 100 16 0.0878516
9 6 100 16 0.0519062
10 6 100 16 0.028751
11 6 100 16 0.0282749
12 6 100 16 0.0140844
13 6 100 16 0.0125238
14 6 100 16 0.00725573
15 6 100 16 0.014358
16 6 100 16 0.00344693
1 7 100 16 0.00303886
2 7 100 16 0.00172578
3 7 100 16 0.01899
4 7 100 16 0.0411258
5 7 100 16 0.0647276
6 7 100 16 0.15146
7 7 100 16 0.263731
8 7 100 16 0.170306
9 7 100 16 0.113924
10 7 100 16 0.0560541
11 7 100 16 0.0427529
12 7 100 16 0.0213764
13 7 100 16 0.0197062
14 7 100 16 0.0163369
15 7 100 16 0.0130892
16 7 100 16 0.0016545
1 8 100 16 0.00333526
2 8 100 16 0.00503806
3 8 100 16 0.00529747
4 8 100 16 0.0201825
5 8 100 16 0.0558666
6 8 100 16 0.0713135
7 8 100 16 0.172738
8 8 100 16 0.251806
9 8 100 16 0.173167
10 8 100 16 0.0932679
11 8 100 16 0.0507955
12 8 100 16 0.041226
13 8 100 16 0.0213272
14 8 100 16 0.0153029
15 8 100 16 0.0159414
16 8 100 16 0.00339435
1 9 100 16 0.00159421
2 9 100 16 0.00315897
3 9 100 16 0.00944868
4 9 100 16 0.0158476
5 9 100 16 0.021081
6 9 100 16 0.0436165
7 9 100 16 0.0756336
8 9 100 16 0.149466
9 9 100 16 0.214933
10 9 100 16 0.180701
11 9 100 16 0.111974
12 9 100 16 0.0802199
13 9 100 16 0.0421305
14 9 100 16 0.0188335
15 9 100 16 0.0204343
16 9 100 16 0.0109278
1 10 100 16 0.00253581
2 10 100 16 0.00489851
3 10 100 16 0.00352862
4 10 100 16 0.00814815
5 10 100 16 0.00825397
6 10 100 16 0.0138302
7 10 100 16 0.0362368
8 10 100 16 0.095509
9 10 100 16 0.164043
10 10 100 16 0.202942
11 10 100 16 0.18198
12 10 100 16 0.104774
13 10 100 16 0.0601592
14 10 100 16 0.056136
15 10 100 16 0.0457083
16 10 100 16 0.0113179
1 11 100 16 0.00247543
2 11 100 16 0.00327126
3 11 100 16 0.00518865
4 11 100 16 0.00774038
5 11 100 16 0.0119353
6 11 100 16 0.0192195
7 11 100 16 0.0177117
8 11 100 16 0.0489569
9 11 100 16 0.0905529
10 11 100 16 0.14365
11 11 100 16 0.177431
12 11 100 16 0.173613
13 11 100 16 0.115729
14 11 100 16 0.0662312
15 11 100 16 0.0890589
16 11 100 16 0.0272351
1 12 100 16 9.73458e-06
2 12 100 16 0.00377023
3 12 100 16 0.00089832
4 12 100 16 0.00551244
5 12 100 16 0.00734474
6 12 100 16 0.0134226
7 12 100 16 0.0144673
8 12 100 16 0.0200243
9 12 100 16 0.0486696
10 12 100 16 0.100904
11 12 100 16 0.151121
12 12 100 16 0.19554
13 12 100 16 0.175086
14 12 100 16 0.0959446
15 12 100 16 0.0974409
16 12 100 16 0.0698438
1 13 100 16 8.0018e-05
2 13 100 16 0.00569171
3 13 100 16 0.00213093
4 13 100 16 0.0107689
5 13 100 16 0.00621143
6 13 100 16 0.00525144
7 13 100 16 0.0144433
8 13 100 16 0.0186045
9 13 100 16 0.0186715
10 13 100 16 0.045656
11 13 100 16 0.123899
12 13 100 16 0.12846
13 13 100 16 0.212218
14 13 100 16 0.179087
15 13 100 16 0.124965
16 13 100 16 0.103861
1 14 100 16 0.00548254
2 14 100 16 0.00361956
3 14 100 16 0.00578843
4 14 100 16 0.00781034
5 14 100 16 0.0144217
6 14 100 16 0.0091248
7 14 100 16 0.0102848
8 14 100 16 0.0165077
9 14 100 16 0.0274867
10 14 100 16 0.0315158
11 14 100 16 0.0527034
12 14 100 16 0.126126
13 14 100 16 0.135213
14 14 100 16 0.18702
15 14 100 16 0.236431
16 14 100 16 0.130464
1 15 100 16 0.00441131
2 15 100 16 0.00855997
3 15 100 16 0.0128323
4 15 100 16 0.008561
5 15 100 16 0.00647843
6 15 100 16 0.010742
7 15 100 16 0.00648158
8 15 100 16 0.00646371
9 15 100 16 0.010683
10 15 100 16 0.0203476
11 15 100 16 0.034117
12 15 100 16 0.0697664
13 15 100 16 0.135581
14 15 100 16 0.15259
15 15 100 16 0.256281
16 15 100 16 0.256105
1 16 100 16 0.000312396
2 16 100 16 3.81313e-07
3 16 100 16 0.00311734
4 16 100 16 0.00934954
5 16 100 16 0.00621859
6 16 100 16 0.0121901
7 16 100 16 0.0121899
8 16 100 16 0.00933628
9 16 100 16 0.00734595
10 16 100 16 0.0187697
11 16 100 16 0.0172005
12 16 100 16 0.0379446
13 16 100 16 0.0866148
14 16 100 16 0.173513
15 16 100 16 0.19324
16 16 100 16 0.412656
1 17 100 16 0.000121344
2 17 100 16 0.00423367
3 17 100 16 0.0038475
4 17 100 16 0.0191657
5 17 100 16 0.0112794
6 17 100 16 0.00394487
7 17 100 16 0.00774735
8 17 100 16 0.0148882
9 17 100 16 0.0229919
10 17 100 16 0.0105467
11 17 100 16 0.0306276
12 17 100 16 0.0652153
13 17 100 16 0.0911411
14 17 100 16 0.167089
15 17 100 16 0.250243
16 17 100 16 0.296917
1 18 100 16 4.59549e-05
2 18 100 16 0.000916719
3 18 100 16 9.90532e-06
4 18 100 16 0.00614993
5 18 100 16 3.51121e-05
6 18 100 16 1.20799e-05
7 18 100 16 0.00325846
8 18 100 16 0.00305292
9 18 100 16 0.00233648
10 18 100 16 0.0189187
11 18 100 16 0.0335995
12 18 100 16 0.0543718
13 18 100 16 0.0782002
14 18 100 16 0.101968
15 18 100 16 0.220978
16 18 100 16 0.476146
1 19 100 16 0.000127261
2 19 100 16 7.74118e-06
3 19 100 16 6.13888e-05
4 19 100 16 0.00125529
5 19 100 16 0.00241
6 19 100 16 4.00708e-05
7 19 100 16 8.15059e-05
8 19 100 16 0.00370297
9 19 100 16 4.57243e-05
10 19 100 16 0.000435972
11 19 100 16 0.0180412
12 19 100 16 0.0469393
13 19 100 16 0.0672354
14 19 100 16 0.0795698
15 19 100 16 0.265932
16 19 100 16 0.514114
1 20 100 16 5.25777e-05
2 20 100 16 1.52401e-05
3 20 100 16 1.78284e-05
4 20 100 16 6.30414e-05
5 20 100 16 2.90064e-06
6 20 100 16 0.000136201
7 20 100 16 3.31249e-05
8 20 100 16 0.00638435
9 20 100 16 0.0205438
10 20 100 16 0.03069
11 20 100 16 0.0398951
12 20 100 16 0.0217507
13 20 100 16 0.0499192
14 20 100 16 0.0453236
15 20 100 16 0.230533
16 20 100 16 0.55464
1 21 100 16 0.000187372
2 21 100 16 5.20694e-07
3 21 100 16 9.36996e-05
4 21 100 16 5.05376e-07
5 21 100 16 1.10075e-06
6 21 100 16 1.58816e-06
7 21 100 16 5.61563e-05
8 21 100 16 0.0201498
9 21 100 16 0.0969213
10 21 100 16 1.064e-06
11 21 100 16 7.15105e-05
12 21 100 16 3.09954e-06
13 21 100 16 0.0751206
14 21 100 16 0.0516887
15 21 100 16 0.077372
16 21 100 16 0.678331
1 22 100 16 9.06388e-05
2 22 100 16 6.20851e-07
3 22 100 16 2.93473e-06
4 22 100 16 3.69697e-06
5 22 100 16 5.85698e-06
6 22 100 16 1.72555e-05
7 22 100 16 3.48619e-05
8 22 100 16 5.68008e-05
9 22 100 16 0.0579881
10 22 100 16 0.0651728
11 22 100 16 4.10531e-05
12 22 100 16 7.407e-06
13 22 100 16 2.26875e-05
14 22 100 16 0.130615
15 22 100 16 0.130456
16 22 100 16 0.615483
1 23 100 16 0.000188169
4 23 100 16 4.04445e-06
5 23 100 16 1.16421e-06
6 23 100 16 2.92619e-05
7 23 100 16 3.66938e-06
8 23 100 16 5.27741e-06
10 23 100 16 1.41532e-05
11 23 100 16 4.32681e-07
12 23 100 16 0.000113329
13 23 100 16 1.6847e-05
14 23 100 16 3.55174e-06
15 23 100 16 0.202557
16 23 100 16 0.797063
5 24 100 16 2.58817e-05
6 24 100 16 2.84217e-06
7 24 100 16 1.1267e-06
8 24 100 16 4.86162e-06
10 24 100 16 8.99956e-06
15 24 100 16 6.10056e-05
16 24 100 16 0.999895
16 25 100 16 1
16 26 100 16 1
1 0 100 17 0.018256
2 0 100 17 0.0460307
3 0 100 17 0.0716385
4 0 100 17 0.065213
5 0 100 17 0.0672377
6 0 100 17 0.0689278
7 0 100 17 0.063545
8 0 100 17 0.0734197
9 0 100 17 0.0701871
10 0 100 17 0.0567842
11 0 100 17 0.0795325
12 0 100 17 0.0729898
13 0 100 17 0.0777576
14 0 100 17 0.0672444
15 0 100 17 0.0860078
16 0 100 17 0.00646024
17 0 100 17 0.00876809
1 1 100 17 0.894285
2 1 100 17 0.0532949
3 1 100 17 0.0259528
4 1 100 17 0.00844035
5 1 100 17 0.00278405
6 1 100 17 0.00418261
7 1 100 17 0.00275293
8 1 100 17 0.00419284
9 1 100 17 0.00133893
10 1 100 17 0.00136416
11 1 100 17 0.00137677
12 1 100 17 6.17492e-06
13 1 100 17 5.71811e-07
14 1 100 17 2.70134e-05
15 1 100 17 2.97528e-07
17 1 100 17 2.7894e-07
1 2 100 17 0.0420132
2 2 100 17 0.663414
3 2 100 17 0.140167
4 2 100 17 0.0567782
5 2 100 17 0.0260698
6 2 100 17 0.0150895
7 2 100 17 0.00990081
8 2 100 17 0.00532867
9 2 100 17 0.00941168
10 2 100 17 0.00408591
11 2 100 17 0.0026904
12 2 100 17 0.00663508
13 2 100 17 0.00659213
14 2 100 17 0.0051755
15 2 100 17 0.00133242
16 2 100 17 0.00399556
17 2 100 17 0.0013201
1 3 100 17 0.0234318
2 3 100 17 0.092833
3 3 100 17 0.484986
4 3 100 17 0.192917
5 3 100 17 0.0747515
6 3 100 17 0.0383382
7 3 100 17 0.0268389
8 3 100 17 0.0201617
9 3 100 17 0.00303521
10 3 100 17 0.0075243
11 3 100 17 0.00661061
12 3 100 17 0.00694903
13 3 100 17 0.00599243
14 3 100 17 0.00298181
15 3 100 17 0.00845262
16 3 100 17 0.00417896
17 3 100 17 1.67776e-05
1 4 100 17 0.0126291
2 4 100 17 0.036542
3 4 100 17 0.143872
4 4 100 17 0.396231
5 4 100 17 0.217687
6 4 100 17 0.0871469
7 4 100 17 0.0303323
8 4 100 17 0.0234443
9 4 100 17 0.0203888
10 4 100 17 0.00143748
11 4 100 17 0.00599028
12 4 100 17 0.00601804
13 4 100 17 0.00471844
14 4 100 17 0.00633207
15 4 100 17 0.00372065
16 4 100 17 0.0031919
17 4 100 17 0.000317799
1 5 100 17 0.00598942
2 5 100 17 0.0211864
3 5 100 17 0.0417755
4 5 100 17 0.148595
5 5 100 17 0.318909
6 5 100 17 0.198057
7 5 100 17 0.0970178
8 5 100 17 0.0458725
9 5 100 17 0.0340294
10 5 100 17 0.032313
11 5 100 17 0.014457
12 5 100 17 0.013048
13 5 100 17 0.00309005
14 5 100 17 0.0129006
15 5 100 17 0.00587033
16 5 100 17 0.00597679
17 5 100 17 0.000911895
1 6 100 17 0.00884156
2 6 100 17 0.0157625
3 6 100 17 0.0286436
4 6 100 17 0.0686676
5 6 100 17 0.146365
6 6 100 17 0.288418
7 6 100 17 0.196372
8 6 100 17 0.091318
9 6 100 17 0.0424818
10 6 100 17 0.0207086
11 6 100 17 0.0253309
12 6 100 17 0.0189362
13 6 100 17 0.0113822
14 6 100 17 0.0131436
15 6 100 17 0.00748793
16 6 100 17 0.0161181
17 6 100 17 2.18823e-05
1 7 100 17 0.00313033
2 7 100 17 0.0109279
3 7 100 17 0.0137321
4 7 100 17 0.03531
5 7 100 17 0.0590082
6 7 100 17 0.156081
7 7 100 17 0.272135
8 7 100 17 0.197309
9 7 100 17 0.104802
10 7 100 17 0.0523875
11 7 100 17 0.0383622
12 7 100 17 0.0192825
13 7 100 17 0.0185766
14 7 100 17 0.00783896
15 7 100 17 0.00322715
16 7 100 17 0.00472652
17 7 100 17 0.00316271
1 8 100 17 0.0015421
2 8 100 17 0.00860805
3 8 100 17 0.0106169
4 8 100 17 0.0186177
5 8 100 17 0.0308229
6 8 100 17 0.0642156
7 8 100 17 0.155249
8 8 100 17 0.21846
9 8 100 17 0.193401
10 8 100 17 0.114092
11 8 100 17 0.0578411
12 8 100 17 0.0474685
13 8 100 17 0.0323862
14 8 100 17 0.0236782
15 8 100 17 0.00332316
16 8 100 17 0.0179598
17 8 100 17 0.00171675
1 9 100 17 0.00603974
2 9 100 17 0.00449495
3 9 100 17 0.0103922
4 9 100 17 0.00794959
5 9 100 17 0.0294676
6 9 100 17 0.0351153
7 9 100 17 0.070634
8 9 100 17 0.170167
9 9 100 17 0.201429
10 9 100 17 0.174589
11 9 100 17 0.102418
12 9 100 17 0.0593082
13 9 100 17 0.0506954
14 9 100 17 0.0311161
15 9 100 17 0.0218925
16 9 100 17 0.0182652
17 9 100 17 0.00602685
1 10 100 17 0.00605457
2 10 100 17 0.00218179
3 10 100 17 0.0056875
4 10 100 17 0.0126936
5 10 100 17 0.018463
6 10 100 17 0.0186874
7 10 100 17 0.0487251
8 10 100 17 0.0797454
9 10 100 17 0.150171
10 10 100 17 0.203772
11 10 100 17 0.158535
12 10 100 17 0.118498
13 10 100 17 0.0628799
14 10 100 17 0.0499218
15 10 100 17 0.0173691
16 10 100 17 0.0328995
17 10 100 17 0.0137146
1 11 100 17 0.00298434
2 11 100 17 0.00571253
3 11 100 17 0.00494491
4 11 100 17 0.00673567
5 11 100 17 0.0104555
6 11 100 17 0.0163259
7 11 100 17 0.0258881
8 11 100 17 0.0398424
9 11 100 17 0.0854119
10 11 100 17 0.158134
11 11 100 17 0.165049
12 11 100 17 0.143149
13 11 100 17 0.121784
14 11 100 17 0.0824899
15 11 100 17 0.0601871
16 11 100 17 0.0461982
17 11 100 17 0.0247079
1 12 100 17 0.00320029
2 12 100 17 0.00475041
3 12 100 17 0.00770569
4 12 100 17 0.00473817
5 12 100 17 0.00787029
6 12 100 17 0.00986814
7 12 100 17 0.0141807
8 12 100 17 0.0280131
9 12 100 17 0.0479054
10 12 100 17 0.113167
11 12 100 17 0.145764
12 12 100 17 0.175006
13 12 100 17 0.140667
14 12 100 17 0.112864
15 12 100 17 0.0900555
16 12 100 17 0.0725021
17 12 100 17 0.0217414
1 13 100 17 0.00162543
2 13 100 17 0.00477464
3 13 100 17 0.00478905
4 13 100 17 0.00943005
5 13 100 17 0.00381951
6 13 100 17 0.011263
7 13 100 17 0.00948248
8 13 100 17 0.00825017
9 13 100 17 0.0333167
10 13 100 17 0.0576922
11 13 100 17 0.116382
12 13 100 17 0.151092
13 13 100 17 0.139369
14 13 100 17 0.139607
15 13 100 17 0.130934
16 13 100 17 0.12104
17 13 100 17 0.0571321
1 14 100 17 0.00162443
2 14 100 17 0.0048774
3 14 100 17 0.0113395
4 14 100 17 0.00617384
5 14 100 17 0.0114372
6 14 100 17 0.00741611
7 14 100 17 0.0178551
8 14 100 17 0.0146136
9 14 100 17 0.0180792
10 14 100 17 0.0330442
11 14 100 17 0.0578889
12 14 100 17 0.10864
13 14 100 17 0.152903
14 14 100 17 0.167272
15 14 100 17 0.12977
16 14 100 17 0.155381
17 14 100 17 0.101684
1 15 100 17 0.00200852
2 15 100 17 0.00191467
3 15 100 17 0.00192937
4 15 100 17 0.0038844
5 15 100 17 0.00385192
6 15 100 17 0.00950095
7 15 100 17 0.00965852
8 15 100 17 0.0171507
9 15 100 17 0.0125101
10 15 100 17 0.0201066
11 15 100 17 0.0309922
12 15 100 17 0.0620381
13 15 100 17 0.138523
14 15 100 17 0.148117
15 15 100 17 0.165268
16 15 100 17 0.173436
17 15 100 17 0.199109
1 16 100 17 0.00236405
2 16 100 17 0.00456059
3 16 100 17 0.00229624
4 16 100 17 0.00213056
5 16 100 17 0.00455831
6 16 100 17 0.00682027
7 16 100 17 0.00502523
8 16 100 17 0.00885153
9 16 100 17 0.0160747
10 16 100 17 0.0181111
11 16 100 17 0.0308008
12 16 100 17 0.0369044
13 16 100 17 0.0577956
14 16 100 17 0.151325
15 16 100 17 0.193067
16 16 100 17 0.229573
17 16 100 17 0.229741
1 17 100 17 4.92171e-05
2 17 100 17 0.00293015
3 17 100 17 0.00302001
4 17 100 17 0.00292853
5 17 100 17 6.77884e-05
6 17 100 17 1.79254e-05
7 17 100 17 0.00297041
8 17 100 17 0.00897531
9 17 100 17 0.0141974
10 17 100 17 0.0117125
11 17 100 17 0.0110436
12 17 100 17 0.0406958
13 17 100 17 0.0701525
14 17 100 17 0.0959955
15 17 100 17 0.176528
16 17 100 17 0.26319
17 17 100 17 0.295525
1 18 100 17 0.000186706
2 18 100 17 0.000568619
3 18 100 17 0.00365367
4 18 100 17 0.0036553
5 18 100 17 0.00365261
6 18 100 17 3.81935e-06
7 18 100 17 0.00364944
8 18 100 17 0.00433528
9 18 100 17 0.0217364
10 18 100 17 0.014585
11 18 100 17 0.02228
12 18 100 17 0.018277
13 18 100 17 0.0462224
14 18 100 17 0.106101
15 18 100 17 0.121379
16 18 100 17 0.219687
17 18 100 17 0.410026
1 19 100 17 0.00370204
2 19 100 17 1.85754e-05
3 19 100 17 6.1208e-05
4 19 100 17 1.59636e-05
5 19 100 17 1.06553e-05
6 19 100 17 0.007738
7 19 100 17 4.86283e-06
8 19 100 17 0.00390752
9 19 100 17 0.00646609
10 19 100 17 0.0117013
11 19 100 17 0.0276019
12 19 100 17 0.0135072
13 19 100 17 0.0540083
14 19 100 17 0.0351135
15 19 100 17 0.116175
16 19 100 17 0.240625
17 19 100 17 0.479343
1 20 100 17 0.00448501
2 20 100 17 0.000261209
3 20 100 17 0.00169074
4 20 100 17 0.0107483
5 20 100 17 0.010759
6 20 100 17 0.000112181
7 20 100 17 3.24952e-06
8 20 100 17 8.00139e-06
9 20 100 17 0.000156904
10 20 100 17 0.00441554
11 20 100 17 0.022701
12 20 100 17 0.0331724
13 20 100 17 0.00885925
14 20 100 17 0.101452
15 20 100 17 0.126687
16 20 100 17 0.259418
17 20 100 17 0.415069
1 21 100 17 0.000158518
2 21 100 17 2.99674e-06
3 21 100 17 1.81756e-05
4 21 100 17 2.36331e-06
5 21 100 17 0.00020601
6 21 100 17 4.96893e-05
7 21 100 17 0.0162986
8 21 100 17 0.00351688
9 21 100 17 0.0405753
10 21 100 17 0.0506695
11 21 100 17 0.000113321
12 21 100 17 0.02679
13 21 100 17 0.0417366
14 21 100 17 0.0737383
15 21 100 17 0.0608595
16 21 100 17 0.224838
17 21 100 17 0.460427
1 22 100 17 0.000110022
2 22 100 17 0.0168243
3 22 100 17 1.76796e-05
4 22 100 17 2.11086e-06
5 22 100 17 6.89624e-06
6 22 100 17 1.30822e-05
7 22 100 17 1.70542e-05
8 22 100 17 1.11844e-06
9 22 100 17 4.70667e-06
10 22 100 17 0.000108764
11 22 100 17 0.000263208
12 22 100 17 0.000835334
13 22 100 17 0.0655426
14 22 100 17 0.0218004
15 22 100 17 0.0926641
16 22 100 17 0.105387
17 22 100 17 0.696402
1 23 100 17 0.0633202
2 23 100 17 1.31911e-06
3 23 100 17 0.000617466
4 23 100 17 1.49046e-05
5 23 100 17 2.45707e-06
6 23 100 17 4.49837e-07
7 23 100 17 5.30739e-06
8 23 100 17 4.00827e-06
9 23 100 17 4.66491e-05
10 23 100 17 2.49822e-05
11 23 100 17 8.87735e-05
12 23 100 17 0.0720419
13 23 100 17 5.32431e-06
14 23 100 17 0.0576443
15 23 100 17 0.0487528
16 23 100 17 0.360899
17 23 100 17 0.39653
1 24 100 17 9.62605e-05
2 24 100 17 2.066e-05
3 24 100 17 0.000106394
4 24 100 17 2.20862e-05
5 24 100 17 2.86756e-06
6 24 100 17 0.000124292
7 24 100 17 7.71017e-07
8 24 100 17 3.88915e-05
9 24 100 17 3.07272e-06
10 24 100 17 7.04346e-07
11 24 100 17 2.89672e-06
13 24 100 17 0.000826414
14 24 100 17 0.000578829
15 24 100 17 1.18452e-05
16 24 100 17 0.112312
17 24 100 17 0.885852
1 25 100 17 0.0003108
3 25 100 17 0.000167937
4 25 100 17 0.123165
5 25 100 17 4.38086e-06
6 25 100 17 2.08782e-06
8 25 100 17 2.35257e-07
9 25 100 17 8.47214e-05
11 25 100 17 2.74522e-07
12 25 100 17 6.96418e-05
13 25 100 17 0.0232909
14 25 100 17 0.0418081
15 25 100 17 0.158383
16 25 100 17 2.2107e-07
17 25 100 17 0.652712
1 26 100 17 0.00170404
2 26 100 17 7.24273e-06
4 26 100 17 0.00139187
5 26 100 17 5.08782e-06
6 26 100 17 3.0657e-06
8 26 100 17 8.35255e-07
9 26 100 17 3.13445e-05
12 26 100 17 0.151311
14 26 100 17 0.152341
15 26 100 17 0.224121
16 26 100 17 0.448728
17 26 100 17 0.0203562
1 27 100 17 3.69043e-07
5 27 100 17 2.70541e-07
6 27 100 17 3.45178e-07
7 27 100 17 2.62585e-07
8 27 100 17 3.00654e-06
9 27 100 17 2.57132e-05
10 27 100 17 2.78443e-06
11 27 100 17 2.57276e-06
13 27 100 17 2.65767e-06
14 27 100 17 0.000455005
15 27 100 17 0.198419
17 27 100 17 0.801088
5 28 100 17 6.41288e-07
12 28 100 17 9.66975e-06
16 28 100 17 0.99999
5 29 100 17 5.2788e-06
14 29 100 17 4.60169e-06
17 29 100 17 0.99999
1 30 100 17 0.997219
7 30 100 17 5.08129e-05
8 30 100 17 4.07926e-06
13 30 100 17 1.13666e-05
14 30 100 17 8.134e-06
17 30 100 17 0.00270618
1 0 100 18 0.0156436
2 0 100 18 0.0353967
3 0 100 18 0.0590765
4 0 100 18 0.0647804
5 0 100 18 0.0684027
6 0 100 18 0.0657701
7 0 100 18 0.068354
8 0 100 18 0.0526846
9 0 100 18 0.0652635
10 0 100 18 0.0581486
11 0 100 18 0.0708319
12 0 100 18 0.0757343
13 0 100 18 0.0722306
14 0 100 18 0.0681612
15 0 100 18 0.0633271
16 0 100 18 0.0825553
17 0 100 18 0.00663038
18 0 100 18 0.00700862
1 1 100 18 0.90629
2 1 100 18 0.0630036
3 1 100 18 0.00584391
4 1 100 18 0.00739308
5 1 100 18 0.0029617
6 1 100 18 0.00855543
7 1 100 18 0.000190692
8 1 100 18 4.93398e-07
9 1 100 18 0.00141721
10 1 100 18 0.00138528
11 1 100 18 0.00148112
12 1 100 18 4.89145e-06
13 1 100 18 0.00146343
14 1 100 18 4.06548e-06
15 1 100 18 3.7044e-07
16 1 100 18 2.18498e-06
18 1 100 18 2.1524e-06
1 2 100 18 0.0406435
2 2 100 18 0.663693
3 2 100 18 0.172692
4 2 100 18 0.0530776
5 2 100 18 0.0277984
6 2 100 18 0.0147467
7 2 100 18 0.00857672
8 2 100 18 0.00262336
9 2 100 18 0.000554529
10 2 100 18 0.00256878
11 2 100 18 1.9888e-05
12 2 100 18 0.00413807
13 2 100 18 0.00287598
14 2 100 18 0.00291055
15 2 100 18 0.00147898
16 2 100 18 0.000188059
17 2 100 18 0.00141395
18 2 100 18 5.79255e-07
1 3 100 18 0.0178936
2 3 100 18 0.105001
3 3 100 18 0.505154
4 3 100 18 0.198296
5 3 100 18 0.0606103
6 3 100 18 0.0345134
7 3 100 18 0.0176662
8 3 100 18 0.0190139
9 3 100 18 0.00483822
10 3 100 18 0.00409477
11 3 100 18 0.00791531
12 3 100 18 0.00622482
13 3 100 18 0.00455832
14 3 100 18 0.00498206
15 3 100 18 0.00319809
16 3 100 18 0.00475392
17 3 100 18 0.00125651
18 3 100 18 2.94087e-05
1 4 100 18 0.0123743
2 4 100 18 0.0410119
3 4 100 18 0.115481
4 4 100 18 0.37404
5 4 100 18 0.20617
6 4 100 18 0.0721557
7 4 100 18 0.0530981
8 4 100 18 0.0393338
9 4 100 18 0.016744
10 4 100 18 0.0218006
11 4 100 18 0.0108949
12 4 100 18 0.00774895
13 4 100 18 0.0105121
14 4 100 18 0.00312507
15 4 100 18 0.00611956
16 4 100 18 0.00162949
17 4 100 18 0.00773318
18 4 100 18 2.73054e-05
1 5 100 18 0.0136511
2 5 100 18 0.0210583
3 5 100 18 0.0576011
4 5 100 18 0.127766
5 5 100 18 0.290412
6 5 100 18 0.179022
7 5 100 18 0.0891518
8 5 100 18 0.0585973
9 5 100 18 0.0502556
10 5 100 18 0.0205338
11 5 100 18 0.0246145
12 5 100 18 0.0197869
13 5 100 18 0.00876876
14 5 100 18 0.010269
15 5 100 18 0.00735554
16 5 100 18 0.00912875
17 5 100 18 0.00779208
18 5 100 18 0.00423442
1 6 100 18 0.00313319
2 6 100 18 0.0123173
3 6 100 18 0.0260421
4 6 100 18 0.0536916
5 6 100 18 0.164352
6 6 100 18 0.284729
7 6 100 18 0.189312
8 6 100 18 0.0839311
9 6 100 18 0.0651292
10 6 100 18 0.0445098
11 6 100 18 0.021874
12 6 100 18 0.0140276
13 6 100 18 0.00877531
14 6 100 18 0.00767804
15 6 100 18 0.00793571
16 6 100 18 0.00321679
17 6 100 18 0.00769665
18 6 100 18 0.00164905
1 7 100 18 0.00358421
2 7 100 18 0.0131936
3 7 100 18 0.0124382
4 7 100 18 0.0344934
5 7 100 18 0.0595559
6 7 100 18 0.164773
7 7 100 18 0.244755
8 7 100 18 0.179722
9 7 100 18 0.0944642
10 7 100 18 0.0646411
11 7 100 18 0.0540947
12 7 100 18 0.0256841
13 7 100 18 0.0200635
14 7 100 18 0.00780594
15 7 100 18 0.00816356
16 7 100 18 0.00325526
17 7 100 18 0.00761063
18 7 100 18 0.00170193
1 8 100 18 0.00607538
2 8 100 18 0.00550381
3 8 100 18 0.0114427
4 8 100 18 0.0204363
5 8 100 18 0.0280378
6 8 100 18 0.0567818
7 8 100 18 0.153853
8 8 100 18 0.257933
9 8 100 18 0.163568
10 8 100 18 0.115902
11 8 100 18 0.0619939
12 8 100 18 0.0512802
13 8 100 18 0.0293805
14 8 100 18 0.013014
15 8 100 18 0.00987494
16 8 100 18 0.00654296
17 8 100 18 0.00362652
18 8 100 18 0.00475261
1 9 100 18 0.00475206
2 9 100 18 0.0147017
3 9 100 18 0.0139353
4 9 100 18 0.00755116
5 9 100 18 0.0293682
6 9 100 18 0.030598
7 9 100 18 0.0775695
8 9 100 18 0.149584
9 9 100 18 0.20669
10 9 100 18 0.14025
11 9 100 18 0.100384
12 9 100 18 0.0782641
13 9 100 18 0.054437
14 9 100 18 0.0381793
15 9 100 18 0.0220882
16 9 100 18 0.00795903
17 9 100 18 0.022057
18 9 100 18 0.00163139
1 10 100 18 2.72229e-05
2 10 100 18 0.00650253
3 10 100 18 0.0101356
4 10 100 18 0.0154842
5 10 100 18 0.00325434
6 10 100 18 0.0344013
7 10 100 18 0.0338748
8 10 100 18 0.0728811
9 10 100 18 0.140422
10 10 100 18 0.185054
11 10 100 18 0.154139
12 10 100 18 0.0883951
13 10 100 18 0.0936454
14 10 100 18 0.0659405
15 10 100 18 0.04954
16 10 100 18 0.021857
17 10 100 18 0.0211443
18 10 100 18 0.00330239
1 11 100 18 0.00157122
2 11 100 18 0.00310845
3 11 100 18 0.00597374
4 11 100 18 0.0099317
5 11 100 18 0.0129579
6 11 100 18 0.00854866
7 11 100 18 0.0165388
8 11 100 18 0.0481308
9 11 100 18 0.0776155
10 11 100 18 0.159464
11 11 100 18 0.171307
12 11 100 18 0.140678
13 11 100 18 0.107127
14 11 100 18 0.0899995
15 11 100 18 0.0491475
16 11 100 18 0.0516145
17 11 100 18 0.0338112
18 11 100 18 0.0124742
1 12 100 18 0.000119113
2 12 100 18 0.000827115
3 12 100 18 0.00320093
4 12 100 18 0.00995554
5 12 100 18 0.0110054
6 12 100 18 0.0125928
7 12 100 18 0.0150571
8 12 100 18 0.022994
9 12 100 18 0.0580505
10 12 100 18 0.0919226
11 12 100 18 0.148241
12 12 100 18 0.163881
13 12 100 18 0.124339
14 12 100 18 0.109842
15 12 100 18 0.0898001
16 12 100 18 0.0564947
17 12 100 18 0.0604948
18 12 100 18 0.0211835
1 13 100 18 3.47361e-05
2 13 100 18 0.00490839
3 13 100 18 0.00352004
4 13 100 18 0.00492684
5 13 100 18 0.00571315
6 13 100 18 0.0102117
7 13 100 18 0.0119236
8 13 100 18 0.0149427
9 13 100 18 0.0334356
10 13 100 18 0.0585641
11 13 100 18 0.078944
12 13 100 18 0.140438
13 13 100 18 0.145268
14 13 100 18 0.137963
15 13 100 18 0.131715
16 13 100 18 0.0942161
17 13 100 18 0.0763118
18 13 100 18 0.0469625
1 14 100 18 0.00324035
2 14 100 18 4.30692e-06
3 14 100 18 2.02469e-06
4 14 100 18 0.00488356
5 14 100 18 0.00165388
6 14 100 18 0.0116041
7 14 100 18 0.0138941
8 14 100 18 0.0201107
9 14 100 18 0.0197401
10 14 100 18 0.0256322
11 14 100 18 0.0579358
12 14 100 18 0.0901079
13 14 100 18 0.143646
14 14 100 18 0.15899
15 14 100 18 0.128431
16 14 100 18 0.124129
17 14 100 18 0.12016
18 14 100 18 0.075835
1 15 100 18 0.000111564
2 15 100 18 0.00183365
3 15 100 18 0.00395988
4 15 100 18 0.00373205
5 15 100 18 0.00184046
6 15 100 18 0.00368764
7 15 100 18 0.00775716
8 15 100 18 0.0183067
9 15 100 18 0.0163797
10 15 100 18 0.0187126
11 15 100 18 0.0179615
12 15 100 18 0.0577283
13 15 100 18 0.0885109
14 15 100 18 0.143472
15 15 100 18 0.190106
16 15 100 18 0.145153
17 15 100 18 0.168333
18 15 100 18 0.112414
1 16 100 18 0.00391247
2 16 100 18 3.23064e-07
3 16 100 18 0.00215751
4 16 100 18 0.000141219
5 16 100 18 6.69235e-06
6 16 100 18 0.00214293
7 16 100 18 0.00214067
8 16 100 18 0.00642274
9 16 100 18 0.00840121
10 16 100 18 0.0212013
11 16 100 18 0.0230787
12 16 100 18 0.0299069
13 16 100 18 0.082097
14 16 100 18 0.103298
15 16 100 18 0.14327
16 16 100 18 0.173243
17 16 100 18 0.212753
18 16 100 18 0.185826
1 17 100 18 0.00267656
2 17 100 18 0.00434688
3 17 100 18 0.00298401
4 17 100 18 0.00243248
5 17 100 18 0.00243491
6 17 100 18 3.23824e-06
7 17 100 18 0.00246771
8 17 100 18 0.00485256
9 17 100 18 0.0140022
10 17 100 18 0.0102802
11 17 100 18 0.0169735
12 17 100 18 0.0218055
13 17 100 18 0.0386544
14 17 100 18 0.0543233
15 17 100 18 0.11903
16 17 100 18 0.182609
17 17 100 18 0.266588
18 17 100 18 0.253535
1 18 100 18 0.00658631
2 18 100 18 9.02934e-06
4 18 100 18 6.68283e-07
5 18 100 18 0.00318926
6 18 100 18 0.00325146
7 18 100 18 0.000370687
8 18 100 18 0.00636924
9 18 100 18 2.40332e-05
10 18 100 18 0.00640788
11 18 100 18 0.0127356
12 18 100 18 0.0237789
13 18 100 18 0.0221979
14 18 100 18 0.0721046
15 18 100 18 0.104852
16 18 100 18 0.148268
17 18 100 18 0.213568
18 18 100 18 0.376287
1 19 100 18 0.00531328
2 19 100 18 4.30167e-06
3 19 100 18 0.00470699
4 19 100 18 3.95409e-06
5 19 100 18 0.00470389
6 19 100 18 0.00465534
7 19 100 18 0.00472251
8 19 100 18 2.42063e-05
10 19 100 18 6.03848e-06
11 19 100 18 0.00193544
12 19 100 18 0.00488132
13 19 100 18 0.0419791
14 19 100 18 0.0720645
15 19 100 18 0.072699
16 19 100 18 0.107699
17 19 100 18 0.241922
18 19 100 18 0.432679
1 20 100 18 0.0016202
2 20 100 18 0.00782545
3 20 100 18 0.000792595
4 20 100 18 0.0150486
5 20 100 18 0.0180048
6 20 100 18 0.0108564
7 20 100 18 0.00778887
8 20 100 18 0.00165825
9 20 100 18 0.00761867
10 20 100 18 0.0151557
11 20 100 18 0.00765033
12 20 100 18 0.00924543
13 20 100 18 0.0194802
14 20 100 18 0.0290427
15 20 100 18 0.0784657
16 20 100 18 0.129742
17 20 100 18 0.235035
18 20 100 18 0.404969
1 21 100 18 8.83878e-05
2 21 100 18 0.00108699
3 21 100 18 8.85157e-05
4 21 100 18 2.8249e-05
5 21 100 18 7.05492e-05
6 21 100 18 0.00206808
7 21 100 18 0.011464
8 21 100 18 0.0210927
9 21 100 18 0.0114927
10 21 100 18 0.0327548
11 21 100 18 0.0187791
12 21 100 18 0.0148466
13 21 100 18 0.0111929
14 21 100 18 0.0537767
15 21 100 18 0.0776973
16 21 100 18 0.073187
17 21 100 18 0.186911
18 21 100 18 0.483375
1 22 100 18 0.00186978
2 22 100 18 0.0226667
3 22 100 18 0.00016075
4 22 100 18 0.0385918
5 22 100 18 0.000129619
6 22 100 18 3.81598e-06
7 22 100 18 6.1966e-05
8 22 100 18 0.015275
9 22 100 18 0.0128367
10 22 100 18 0.0197584
11 22 100 18 0.00102939
12 22 100 18 0.0254332
13 22 100 18 0.0944008
14 22 100 18 0.0235079
15 22 100 18 0.07672
16 22 100 18 0.142191
17 22 100 18 0.0921292
18 22 100 18 0.433234
1 23 100 18 0.0645155
2 23 100 18 2.92595e-05
3 23 100 18 1.41861e-05
4 23 100 18 8.00881e-05
5 23 100 18 7.64616e-05
6 23 100 18 2.35562e-05
7 23 100 18 5.63777e-05
8 23 100 18 0.000657492
9 23 100 18 0.000135669
10 23 100 18 1.41714e-06
11 23 100 18 3.17639e-05
12 23 100 18 3.38279e-05
13 23 100 18 0.000153943
14 23 100 18 0.000196049
15 23 100 18 0.0872919
16 23 100 18 0.0452551
17 23 100 18 0.369892
18 23 100 18 0.431556
1 24 100 18 2.04084e-05
2 24 100 18 4.17211e-06
3 24 100 18 2.7912e-06
4 24 100 18 0.001963
5 24 100 18 0.067136
6 24 100 18 1.15966e-06
7 24 100 18 7.18126e-07
8 24 100 18 6.09847e-06
9 24 100 18 1.46136e-06
10 24 100 18 3.94213e-05
11 24 100 18 0.00550116
12 24 100 18 3.2034e-06
13 24 100 18 1.53034e-05
14 24 100 18 0.056619
15 24 100 18 0.137197
16 24 100 18 0.0565676
17 24 100 18 0.166228
18 24 100 18 0.508693
1 25 100 18 0.000169988
2 25 100 18 0.000151921
3 25 100 18 6.13297e-07
4 25 100 18 5.69384e-05
5 25 100 18 6.23713e-05
6 25 100 18 0.108263
7 25 100 18 4.75868e-05
8 25 100 18 4.47762e-07
9 25 100 18 9.40562e-07
10 25 100 18 4.80621e-05
11 25 100 18 1.10774e-05
12 25 100 18 3.49353e-07
13 25 100 18 4.53505e-05
14 25 100 18 1.60152e-06
15 25 100 18 6.90036e-06
16 25 100 18 0.000191717
17 25 100 18 0.134286
18 25 100 18 0.756655
1 26 100 18 0.00367304
2 26 100 18 3.08268e-07
3 26 100 18 1.33967e-06
4 26 100 18 2.4798e-05
5 26 100 18 5.91671e-07
6 26 100 18 4.76612e-05
7 26 100 18 1.32358e-06
8 26 100 18 7.42034e-07
9 26 100 18 0.000660851
10 26 100 18 0.000446051
11 26 100 18 0.0108123
12 26 100 18 0.110001
13 26 100 18 2.39898e-06
14 26 100 18 3.11957e-07
15 26 100 18 1.47021e-06
16 26 100 18 0.291785
17 26 100 18 5.58781e-05
18 26 100 18 0.582485
1 27 100 18 4.59447e-06
2 27 100 18 3.28204e-06
3 27 100 18 0.228073
4 27 100 18 2.77202e-05
6 27 100 18 1.57829e-06
7 27 100 18 9.63577e-07
8 27 100 18 0.101101
9 27 100 18 1.00734e-06
10 27 100 18 0.000418623
11 27 100 18 4.34915e-07
13 27 100 18 6.15051e-06
15 27 100 18 0.000245376
16 27 100 18 6.68135e-07
17 27 100 18 0.332858
18 27 100 18 0.337259
4 28 100 18 1.19291e-06
5 28 100 18 5.56817e-07
9 28 100 18 1.6472e-06
10 28 100 18 4.41244e-07
13 28 100 18 2.95139e-05
14 28 100 18 2.6806e-07
17 28 100 18 0.265666
18 28 100 18 0.7343
1 29 100 18 8.8793e-06
2 29 100 18 5.49117e-07
3 29 100 18 5.85688e-06
8 29 100 18 3.18372e-06
9 29 100 18 2.67124e-06
11 29 100 18 7.26053e-06
17 29 100 18 0.000112358
18 29 100 18 0.999859
1 0 100 19 0.0194936
2 0 100 19 0.0447815
3 0 100 19 0.0687442
4 0 100 19 0.0587257
5 0 100 19 0.0559715
6 0 100 19 0.0653261
7 0 100 19 0.0619275
8 0 100 19 0.0515774
9 0 100 19 0.0553802
10 0 100 19 0.0569141
11 0 100 19 0.0577698
12 0 100 19 0.0586356
13 0 100 19 0.0667602
14 0 100 19 0.0701276
15 0 100 19 0.063463
16 0 100 19 0.060774
17 0 100 19 0.0703081
18 0 100 19 0.00585758
19 0 100 19 0.00746231
1 1 100 19 0.902527
2 1 100 19 0.0509076
3 1 100 19 0.0124152
4 1 100 19 0.0120874
5 1 100 19 0.00550439
6 1 100 19 0.00171745
7 1 100 19 0.0066111
8 1 100 19 0.00122327
10 1 100 19 0.00168857
11 1 100 19 0.00151861
12 1 100 19 8.7097e-07
13 1 100 19 0.00295033
14 1 100 19 8.77614e-07
15 1 100 19 0.000785068
17 1 100 19 7.17483e-06
18 1 100 19 3.25746e-05
19 1 100 19 2.21561e-05
1 2 100 19 0.0336159
2 2 100 19 0.660459
3 2 100 19 0.147766
4 2 100 19 0.0540176
5 2 100 19 0.0226039
6 2 100 19 0.0108027
7 2 100 19 0.00872151
8 2 100 19 0.0120844
9 2 100 19 0.0114303
10 2 100 19 0.00861955
11 2 100 19 0.00571686
12 2 100 19 0.00298958
13 2 100 19 0.00187777
14 2 100 19 0.00591164
15 2 100 19 0.00444082
16 2 100 19 0.00742576
17 2 100 19 0.00137356
18 2 100 19 0.000110776
19 2 100 19 3.27853e-05
1 3 100 19 0.0216392
2 3 100 19 0.0942365
3 3 100 19 0.50404
4 3 100 19 0.190296
5 3 100 19 0.066962
6 3 100 19 0.0358528
7 3 100 19 0.0182933
8 3 100 19 0.00967966
9 3 100 19 0.00709583
10 3 100 19 0.0105501
11 3 100 19 0.00653007
12 3 100 19 0.00648585
13 3 100 19 0.00684168
14 3 100 19 0.00794613
15 3 100 19 0.00489465
16 3 100 19 0.00318222
17 3 100 19 0.00214458
18 3 100 19 0.00332753
19 3 100 19 2.21011e-06
1 4 100 19 0.0164712
2 4 100 19 0.0417567
3 4 100 19 0.110854
4 4 100 19 0.391295
5 4 100 19 0.20139
6 4 100 19 0.0704184
7 4 100 19 0.0509711
8 4 100 19 0.0243667
9 4 100 19 0.0123876
10 4 100 19 0.0119522
11 4 100 19 0.00862676
12 4 100 19 0.00686285
13 4 100 19 0.00861484
14 4 100 19 0.00837083
15 4 100 19 0.00477382
16 4 100 19 0.00861763
17 4 100 19 0.0119252
18 4 100 19 0.0103199
19 4 100 19 2.51213e-05
1 5 100 19 0.00319974
2 5 100 19 0.0207732
3 5 100 19 0.0633545
4 5 100 19 0.131183
5 5 100 19 0.33888
6 5 100 19 0.182043
7 5 100 19 0.0865929
8 5 100 19 0.050608
9 5 100 19 0.0373037
10 5 100 19 0.02229
11 5 100 19 0.0130949
12 5 100 19 0.0180263
13 5 100 19 0.00327133
14 5 100 19 0.0065557
15 5 100 19 0.00982606
16 5 100 19 0.00150779
17 5 100 19 0.00327757
18 5 100 19 0.00654501
19 5 100 19 0.00166819
1 6 100 19 0.00245772
2 6 100 19 0.0165239
3 6 100 19 0.0214703
4 6 100 19 0.0772724
5 6 100 19 0.156423
6 6 100 19 0.282518
7 6 100 19 0.179223
8 6 100 19 0.100313
9 6 100 19 0.0493094
10 6 100 19 0.020514
11 6 100 19 0.0206737
12 6 100 19 0.022205
13 6 100 19 0.0170418
14 6 100 19 0.0121369
15 6 100 19 0.00348419
16 6 100 19 0.00348369
17 6 100 19 0.00519636
18 6 100 19 0.0062954
19 6 100 19 0.00345772
1 7 100 19 0.0074169
2 7 100 19 0.0131907
3 7 100 19 0.016563
4 7 100 19 0.0391722
5 7 100 19 0.0760174
6 7 100 19 0.164605
7 7 100 19 0.253902
8 7 100 19 0.154015
9 7 100 19 0.0927113
10 7 100 19 0.0611633
11 7 100 19 0.0330999
12 7 100 19 0.0195415
13 7 100 19 0.0288691
14 7 100 19 0.00961706
15 7 100 19 0.0116094
16 7 100 19 0.00644595
17 7 100 19 0.00669832
18 7 100 19 0.00535788
19 7 100 19 3.47647e-06
1 8 100 19 0.00166703
2 8 100 19 0.00432149
3 8 100 19 0.00482137
4 8 100 19 0.014573
5 8 100 19 0.0518626
6 8 100 19 0.0831096
7 8 100 19 0.150443
8 8 100 19 0.252734
9 8 100 19 0.16223
10 8 100 19 0.113528
11 8 100 19 0.0599128
12 8 100 19 0.0342658
13 8 100 19 0.0275474
14 8 100 19 0.0143118
15 8 100 19 0.0125709
16 8 100 19 0.00867987
17 8 100 19 0.00168736
18 8 100 19 5.04742e-06
19 8 100 19 0.00172884
1 9 100 19 0.00161807
2 9 100 19 0.00473137
3 9 100 19 0.00167264
4 9 100 19 0.0132456
5 9 100 19 0.0191571
6 9 100 19 0.0475526
7 9 100 19 0.0924832
8 9 100 19 0.14164
9 9 100 19 0.214077
10 9 100 19 0.14896
11 9 100 19 0.111822
12 9 100 19 0.0662849
13 9 100 19 0.0380963
14 9 100 19 0.0325311
15 9 100 19 0.0225987
16 9 100 19 0.0221063
17 9 100 19 0.0125571
18 9 100 19 0.00626884
19 9 100 19 0.00259739
1 10 100 19 0.00164579
2 10 100 19 0.0032472
3 10 100 19 0.00652642
4 10 100 19 0.00813444
5 10 100 19 0.00821521
6 10 100 19 0.0212436
7 10 100 19 0.0470721
8 10 100 19 0.0989848
9 10 100 19 0.153838
10 10 100 19 0.200733
11 10 100 19 0.148681
12 10 100 19 0.103935
13 10 100 19 0.0569354
14 10 100 19 0.045612
15 10 100 19 0.035705
16 10 100 19 0.0224204
17 10 100 19 0.0174162
18 10 100 19 0.0179227
19 10 100 19 0.00173056
1 11 100 19 0.00325921
2 11 100 19 0.00325216
3 11 100 19 0.00185149
4 11 100 19 0.0159978
5 11 100 19 0.00814359
6 11 100 19 0.0113501
7 11 100 19 0.0231626
8 11 100 19 0.0500881
9 11 100 19 0.0938286
10 11 100 19 0.127825
11 11 100 19 0.183254
12 11 100 19 0.149046
13 11 100 19 0.105328
14 11 100 19 0.0853809
15 11 100 19 0.0595598
16 11 100 19 0.0285944
17 11 100 19 0.0178107
18 11 100 19 0.0241485
19 11 100 19 0.00811822
1 12 100 19 0.00551102
2 12 100 19 0.00190624
3 12 100 19 5.02522e-06
4 12 100 19 0.00368597
5 12 100 19 0.00547198
6 12 100 19 0.00922965
7 12 100 19 0.00550461
8 12 100 19 0.0292817
9 12 100 19 0.0583215
10 12 100 19 0.102863
11 12 100 19 0.149156
12 12 100 19 0.149053
13 12 100 19 0.150354
14 12 100 19 0.0959366
15 12 100 19 0.0908184
16 12 100 19 0.0604952
17 12 100 19 0.0401248
18 12 100 19 0.0277015
19 12 100 19 0.0145799
1 13 100 19 0.0033436
2 13 100 19 0.00856495
3 13 100 19 0.00510059
4 13 100 19 0.00485591
5 13 100 19 0.00368794
6 13 100 19 0.0116831
7 13 100 19 0.0084067
8 13 100 19 0.0201313
9 13 100 19 0.0254904
10 13 100 19 0.0660701
11 13 100 19 0.102491
12 13 100 19 0.145295
13 13 100 19 0.144302
14 13 100 19 0.132036
15 13 100 19 0.101797
16 13 100 19 0.0711153
17 13 100 19 0.0571245
18 13 100 19 0.0633858
19 13 100 19 0.0251185
1 14 100 19 0.00169725
2 14 100 19 0.00333166
3 14 100 19 0.00661414
4 14 100 19 0.0047812
5 14 100 19 0.00168957
6 14 100 19 0.00438372
7 14 100 19 0.00665214
8 14 100 19 0.0132296
9 14 100 19 0.0169545
10 14 100 19 0.0295815
11 14 100 19 0.0585455
12 14 100 19 0.101874
13 14 100 19 0.133854
14 14 100 19 0.160896
15 14 100 19 0.128367
16 14 100 19 0.127827
17 14 100 19 0.0839321
18 14 100 19 0.0834199
19 14 100 19 0.0323701
1 15 100 19 1.91445e-06
2 15 100 19 0.00186839
3 15 100 19 0.00185802
4 15 100 19 0.0037152
5 15 100 19 0.00192377
6 15 100 19 0.00187967
7 15 100 19 0.00367643
8 15 100 19 0.00371844
9 15 100 19 0.0121221
10 15 100 19 0.0203191
11 15 100 19 0.0258149
12 15 100 19 0.0649004
13 15 100 19 0.0878584
14 15 100 19 0.12713
15 15 100 19 0.176058
16 15 100 19 0.151783
17 15 100 19 0.120213
18 15 100 19 0.0983536
19 15 100 19 0.0968062
1 16 100 19 8.0864e-05
2 16 100 19 0.00488079
3 16 100 19 0.00739873
4 16 100 19 0.00477018
5 16 100 19 0.00894708
6 16 100 19 0.0064311
7 16 100 19 0.00530492
8 16 100 19 0.00878398
9 16 100 19 0.0157519
10 16 100 19 0.0125074
11 16 100 19 0.0236897
12 16 100 19 0.0516002
13 16 100 19 0.0779758
14 16 100 19 0.0844532
15 16 100 19 0.112806
16 16 100 19 0.1738
17 16 100 19 0.138125
18 16 100 19 0.159194
19 16 100 19 0.103498
1 17 100 19 0.00414671
2 17 100 19 0.00211828
3 17 100 19 0.00212036
4 17 100 19 0.00479952
5 17 100 19 0.002143
6 17 100 19 0.00632384
7 17 100 19 0.0021317
8 17 100 19 0.00814633
9 17 100 19 0.00632862
10 17 100 19 0.00874111
11 17 100 19 0.0152718
12 17 100 19 0.0230881
13 17 100 19 0.0470541
14 17 100 19 0.0772626
15 17 100 19 0.114315
16 17 100 19 0.132285
17 17 100 19 0.192964
18 17 100 19 0.18288
19 17 100 19 0.16788
1 18 100 19 1.18108e-05
3 18 100 19 0.0098092
4 18 100 19 0.00889062
5 18 100 19 0.00245642
6 18 100 19 0.00980899
7 18 100 19 0.0050418
8 18 100 19 0.0119494
9 18 100 19 0.00797525
10 18 100 19 0.012265
11 18 100 19 0.0230455
12 18 100 19 0.019584
13 18 100 19 0.0299003
14 18 100 19 0.0520441
15 18 100 19 0.0796375
16 18 100 19 0.10979
17 18 100 19 0.132441
18 18 100 19 0.263499
19 18 100 19 0.22185
1 19 100 19 0.0032219
2 19 100 19 0.00334879
3 19 100 19 1.5949e-05
4 19 100 19 6.43906e-05
5 19 100 19 0.00963348
6 19 100 19 2.15009e-07
7 19 100 19 0.00296838
8 19 100 19 0.00626105
9 19 100 19 0.00629695
10 19 100 19 0.00939403
11 19 100 19 0.0125074
12 19 100 19 0.0190055
13 19 100 19 0.0281629
14 19 100 19 0.0517994
15 19 100 19 0.0560137
16 19 100 19 0.100747
17 19 100 19 0.153286
18 19 100 19 0.205929
19 19 100 19 0.331344
1 20 100 19 0.000110922
2 20 100 19 0.00462886
3 20 100 19 0.00925686
4 20 100 19 0.000401356
5 20 100 19 0.00459274
6 20 100 19 0.00926123
7 20 100 19 0.00937187
8 20 100 19 0.00925674
9 20 100 19 0.000367969
10 20 100 19 0.00466246
11 20 100 19 0.00368447
12 20 100 19 0.0137621
13 20 100 19 0.0139148
14 20 100 19 0.022051
15 20 100 19 0.0601348
16 20 100 19 0.112708
17 20 100 19 0.14168
18 20 100 19 0.252388
19 20 100 19 0.327765
1 21 100 19 0.00632907
2 21 100 19 1.00379e-05
3 21 100 19 0.000362221
4 21 100 19 0.0120397
5 21 100 19 0.0124985
6 21 100 19 0.0125457
7 21 100 19 0.021944
8 21 100 19 0.0120885
9 21 100 19 0.00826153
10 21 100 19 0.0104127
11 21 100 19 0.00133307
12 21 100 19 0.00719766
13 21 100 19 0.0430771
14 21 100 19 0.0109028
15 21 100 19 0.0306968
16 21 100 19 0.0739441
17 21 100 19 0.101513
18 21 100 19 0.20987
19 21 100 19 0.424974
1 22 100 19 5.98517e-05
2 22 100 19 4.83721e-05
3 22 100 19 1.5475e-05
4 22 100 19 3.24434e-05
5 22 100 19 8.75673e-06
6 22 100 19 9.21965e-06
7 22 100 19 0.00427424
8 22 100 19 6.65463e-05
9 22 100 19 0.0105568
10 22 100 19 3.21231e-05
11 22 100 19 1.62263e-05
12 22 100 19 0.0301263
13 22 100 19 0.000130404
14 22 100 19 0.0147588
15 22 100 19 0.0519277
16 22 100 19 0.0612094
17 22 100 19 0.178136
18 22 100 19 0.20584
19 22 100 19 0.442751
1 23 100 19 6.13559e-05
2 23 100 19 5.41586e-07
3 23 100 19 5.55139e-06
4 23 100 19 3.2043e-06
5 23 100 19 1.44495e-06
6 23 100 19 7.06762e-06
7 23 100 19 0.0163648
8 23 100 19 0.0262655
9 23 100 19 0.0403222
10 23 100 19 2.44788e-05
11 23 100 19 6.7668e-05
12 23 100 19 0.000130858
13 23 100 19 3.33592e-05
14 23 100 19 0.0157009
15 23 100 19 0.0318042
16 23 100 19 0.00925152
17 23 100 19 0.143759
18 23 100 19 0.260003
19 23 100 19 0.456193
1 24 100 19 0.000485012
2 24 100 19 5.97715e-06
3 24 100 19 0.000241356
4 24 100 19 1.06608e-05
5 24 100 19 0.00022626
6 24 100 19 1.11348e-05
7 24 100 19 6.5549e-06
8 24 100 19 2.39928e-06
9 24 100 19 8.93485e-05
10 24 100 19 0.0193143
11 24 100 19 7.45608e-06
12 24 100 19 1.34319e-05
13 24 100 19 8.45453e-06
14 24 100 19 1.51488e-06
15 24 100 19 0.000185134
16 24 100 19 0.0701057
17 24 100 19 0.0702619
18 24 100 19 0.175222
19 24 100 19 0.663802
1 25 100 19 3.88234e-05
2 25 100 19 1.34556e-05
3 25 100 19 9.28375e-07
4 25 100 19 2.81502e-06
5 25 100 19 0.000240725
7 25 100 19 1.64662e-06
8 25 100 19 3.50504e-06
9 25 100 19 1.4882e-05
10 25 100 19 8.33813e-06
11 25 100 19 9.71383e-05
12 25 100 19 0.097893
13 25 100 19 0.0010617
14 25 100 19 1.38997e-05
15 25 100 19 7.81143e-07
16 25 100 19 0.0293965
17 25 100 19 0.0443778
18 25 100 19 0.276533
19 25 100 19 0.550301
1 26 100 19 2.27968e-05
3 26 100 19 1.24365e-05
4 26 100 19 1.58768e-06
5 26 100 19 0.000341152
6 26 100 19 5.5015e-06
7 26 100 19 5.28523e-05
8 26 100 19 1.9784e-05
9 26 100 19 3.48348e-06
10 26 100 19 6.94914e-06
11 26 100 19 5.52381e-06
12 26 100 19 4.24587e-05
13 26 100 19 0.0151376
15 26 100 19 3.52355e-07
17 26 100 19 0.0149486
18 26 100 19 2.94583e-05
19 26 100 19 0.96937
1 27 100 19 1.30195e-05
5 27 100 19 3.44534e-07
8 27 100 19 8.05874e-06
9 27 100 19 2.51035e-06
10 27 100 19 1.53161e-05
11 27 100 19 8.51364e-07
13 27 100 19 0.000541498
14 27 100 19 0.228885
15 27 100 19 0.0844438
17 27 100 19 4.11402e-05
18 27 100 19 0.228889
19 27 100 19 0.45716
1 28 100 19 0.0006763
2 28 100 19 1.78344e-05
3 28 100 19 1.38374e-06
5 28 100 19 5.21134e-06
6 28 100 19 2.01619e-06
8 28 100 19 1.67579e-06
10 28 100 19 7.13338e-06
11 28 100 19 0.433006
12 28 100 19 1.74708e-06
13 28 100 19 0.0367389
14 28 100 19 0.124456
16 28 100 19 0.000205327
17 28 100 19 1.60422e-06
19 28 100 19 0.40488
4 29 100 19 3.87544e-06
15 29 100 19 0.977704
16 29 100 19 9.59966e-06
17 29 100 19 3.12793e-05
19 29 100 19 0.0222513
2 30 100 19 0.566747
4 30 100 19 3.48853e-05
16 30 100 19 0.0430143
18 30 100 19 4.04657e-06
19 30 100 19 0.3902
1 31 100 19 5.8267e-05
4 31 100 19 1.06489e-06
13 31 100 19 4.01229e-06
19 31 100 19 0.999937
1 0 100 20 0.0195702
2 0 100 20 0.0390237
3 0 100 20 0.0546398
4 0 100 20 0.0576912
5 0 100 20 0.0532554
6 0 100 20 0.0599261
7 0 100 20 0.0506261
8 0 100 20 0.0616422
9 0 100 20 0.059516
10 0 100 20 0.0659357
11 0 100 20 0.0490548
12 0 100 20 0.0556191
13 0 100 20 0.0516341
14 0 100 20 0.0619572
15 0 100 20 0.063588
16 0 100 20 0.0644417
17 0 100 20 0.0645186
18 0 100 20 0.0590984
19 0 100 20 0.00343057
20 0 100 20 0.00483128
1 1 100 20 0.853898
2 1 100 20 0.0473997
3 1 100 20 0.0187717
4 1 100 20 0.0107237
5 1 100 20 0.0122371
6 1 100 20 0.0135425
7 1 100 20 0.00607585
8 1 100 20 0.00751802
9 1 100 20 0.00321187
10 1 100 20 0.00010078
11 1 100 20 0.00152187
12 1 100 20 0.00740427
13 1 100 20 0.00398793
14 1 100 20 0.00288619
15 1 100 20 0.00613911
16 1 100 20 0.00152599
17 1 100 20 0.0015262
18 1 100 20 1.08721e-06
19 1 100 20 0.00152487
20 1 100 20 2.70156e-06
1 2 100 20 0.0441771
2 2 100 20 0.678677
3 2 100 20 0.141502
4 2 100 20 0.0441613
5 2 100 20 0.00818648
6 2 100 20 0.0191816
7 2 100 20 0.015818
8 2 100 20 0.00764433
9 2 100 20 0.00629173
10 2 100 20 0.00629195
11 2 100 20 0.00158068
12 2 100 20 0.00473858
13 2 100 20 0.00440958
14 2 100 20 0.00314671
15 2 100 20 0.00157829
16 2 100 20 0.00471001
17 2 100 20 0.00316792
18 2 100 20 1.658e-05
19 2 100 20 0.0031511
20 2 100 20 0.00156875
1 3 100 20 0.0167819
2 3 100 20 0.0990424
3 3 100 20 0.494041
4 3 100 20 0.181103
5 3 100 20 0.084897
6 3 100 20 0.0301685
7 3 100 20 0.0238232
8 3 100 20 0.00865041
9 3 100 20 0.00747876
10 3 100 20 0.0101985
11 3 100 20 0.00671746
12 3 100 20 0.00664854
13 3 100 20 0.00268492
14 3 100 20 0.0120957
15 3 100 20 0.00695112
16 3 100 20 0.00341134
17 3 100 20 0.00187836
18 3 100 20 0.00170885
19 3 100 20 0.00170893
20 3 100 20 1.06608e-05
1 4 100 20 0.00870863
2 4 100 20 0.0264552
3 4 100 20 0.126464
4 4 100 20 0.416336
5 4 100 20 0.188501
6 4 100 20 0.0738217
7 4 100 20 0.0467137
8 4 100 20 0.0279076
9 4 100 20 0.0239677
10 4 100 20 0.00830366
11 4 100 20 0.00356255
12 4 100 20 0.00882152
13 4 100 20 0.00861903
14 4 100 20 0.00351345
15 4 100 20 0.00349363
16 4 100 20 0.00394896
17 4 100 20 0.00689577
18 4 100 20 0.0104842
19 4 100 20 0.00346501
20 4 100 20 1.73035e-05
1 5 100 20 0.0107054
2 5 100 20 0.0203583
3 5 100 20 0.0503807
4 5 100 20 0.139895
5 5 100 20 0.347441
6 5 100 20 0.183507
7 5 100 20 0.0889682
8 5 100 20 0.0363667
9 5 100 20 0.025568
10 5 100 20 0.0201429
11 5 100 20 0.013926
12 5 100 20 0.00615751
13 5 100 20 0.00695542
14 5 100 20 0.00794035
15 5 100 20 0.00501971
16 5 100 20 0.00829617
17 5 100 20 0.00499666
18 5 100 20 0.0116234
19 5 100 20 0.0116888
20 5 100 20 6.25516e-05
1 6 100 20 0.00622502
2 6 100 20 0.0200913
3 6 100 20 0.0281275
4 6 100 20 0.0570671
5 6 100 20 0.156156
6 6 100 20 0.292899
7 6 100 20 0.169219
8 6 100 20 0.0937076
9 6 100 20 0.064732
10 6 100 20 0.0237181
11 6 100 20 0.0227691
12 6 100 20 0.0148961
13 6 100 20 0.00565489
14 6 100 20 0.0118563
15 6 100 20 0.0069892
16 6 100 20 0.00512273
17 6 100 20 0.00339982
18 6 100 20 0.00515165
19 6 100 20 0.00677039
20 6 100 20 0.00544752
1 7 100 20 0.00444348
2 7 100 20 0.00530204
3 7 100 20 0.0190886
4 7 100 20 0.0212402
5 7 100 20 0.0606263
6 7 100 20 0.128889
7 7 100 20 0.272981
8 7 100 20 0.179619
9 7 100 20 0.0860686
10 7 100 20 0.0715896
11 7 100 20 0.0501162
12 7 100 20 0.0301951
13 7 100 20 0.0292669
14 7 100 20 0.0154933
15 7 100 20 0.0135082
16 7 100 20 0.0034654
17 7 100 20 0.0067536
18 7 100 20 0.000357312
20 7 100 20 0.000997007
1 8 100 20 0.00246161
2 8 100 20 0.00984957
3 8 100 20 0.0119768
4 8 100 20 0.010202
5 8 100 20 0.0238883
6 8 100 20 0.0921958
7 8 100 20 0.142648
8 8 100 20 0.217789
9 8 100 20 0.169281
10 8 100 20 0.101149
11 8 100 20 0.0526722
12 8 100 20 0.0519581
13 8 100 20 0.0383841
14 8 100 20 0.0213387
15 8 100 20 0.00695628
16 8 100 20 0.0129434
17 8 100 20 0.013764
18 8 100 20 0.00853891
19 8 100 20 0.0119978
20 8 100 20 6.81283e-06
1 9 100 20 0.00183492
2 9 100 20 0.00183355
3 9 100 20 0.0039215
4 9 100 20 0.0200085
5 9 100 20 0.0144978
6 9 100 20 0.016558
7 9 100 20 0.0994753
8 9 100 20 0.141573
9 9 100 20 0.228629
10 9 100 20 0.15524
11 9 100 20 0.109432
12 9 100 20 0.0715955
13 9 100 20 0.0291356
14 9 100 20 0.0329626
15 9 100 20 0.0345768
16 9 100 20 0.0149268
17 9 100 20 0.00186963
18 9 100 20 0.0127308
19 9 100 20 0.00914249
20 9 100 20 5.53852e-05
1 10 100 20 3.1586e-06
2 10 100 20 0.00529718
3 10 100 20 0.00858203
4 10 100 20 0.00835607
5 10 100 20 0.0126853
6 10 100 20 0.0229954
7 10 100 20 0.0276415
8 10 100 20 0.106913
9 10 100 20 0.134211
10 10 100 20 0.180589
11 10 100 20 0.149338
12 10 100 20 0.107899
13 10 100 20 0.0722224
14 10 100 20 0.0439443
15 10 100 20 0.0316467
16 10 100 20 0.0284128
17 10 100 20 0.0228227
18 10 100 20 0.0173463
19 10 100 20 0.0190879
20 10 100 20 6.19535e-06
1 11 100 20 0.00171235
2 11 100 20 0.00347194
3 11 100 20 0.00537027
4 11 100 20 0.00172274
5 11 100 20 0.0034829
6 11 100 20 0.0182038
7 11 100 20 0.0215773
8 11 100 20 0.0426742
9 11 100 20 0.0904874
10 11 100 20 0.138231
11 11 100 20 0.198729
12 11 100 20 0.148725
13 11 100 20 0.113003
14 11 100 20 0.0604438
15 11 100 20 0.0485963
16 11 100 20 0.0335443
17 11 100 20 0.0240311
18 11 100 20 0.0204698
19 11 100 20 0.0153108
20 11 100 20 0.0102126
1 12 100 20 0.00513176
2 12 100 20 1.9138e-07
3 12 100 20 4.78712e-05
4 12 100 20 0.000281704
5 12 100 20 0.004528
6 12 100 20 0.00526656
7 12 100 20 0.0103017
8 12 100 20 0.027395
9 12 100 20 0.0363598
10 12 100 20 0.085148
11 12 100 20 0.134634
12 12 100 20 0.168049
13 12 100 20 0.18986
14 12 100 20 0.105875
15 12 100 20 0.0751984
16 12 100 20 0.0561251
17 12 100 20 0.0383142
18 12 100 20 0.0304616
19 12 100 20 0.0235107
20 12 100 20 0.00351219
1 13 100 20 0.00180188
2 13 100 20 0.00441244
3 13 100 20 0.00352377
4 13 100 20 1.76314e-05
5 13 100 20 0.00186493
6 13 100 20 0.00459856
7 13 100 20 0.0136395
8 13 100 20 0.0118992
9 13 100 20 0.0313187
10 13 100 20 0.0540038
11 13 100 20 0.102997
12 13 100 20 0.114855
13 13 100 20 0.127749
14 13 100 20 0.145355
15 13 100 20 0.115404
16 13 100 20 0.0861264
17 13 100 20 0.0730612
18 13 100 20 0.0460414
19 13 100 20 0.0454382
20 13 100 20 0.015892
1 14 100 20 0.0014636
2 14 100 20 0.00916335
3 14 100 20 0.00841393
4 14 100 20 0.0050427
5 14 100 20 0.0109855
6 14 100 20 0.0117304
7 14 100 20 0.00841147
8 14 100 20 0.0134013
9 14 100 20 0.0194735
10 14 100 20 0.0340469
11 14 100 20 0.063057
12 14 100 20 0.07751
13 14 100 20 0.122405
14 14 100 20 0.119117
15 14 100 20 0.133119
16 14 100 20 0.116204
17 14 100 20 0.0826695
18 14 100 20 0.0537912
19 14 100 20 0.0698835
20 14 100 20 0.0401117
1 15 100 20 2.13531e-06
2 15 100 20 0.00380022
3 15 100 20 0.00644074
4 15 100 20 0.00562022
5 15 100 20 0.0109159
6 15 100 20 0.00772418
7 15 100 20 0.0118449
8 15 100 20 0.001926
9 15 100 20 0.00690442
10 15 100 20 0.0111019
11 15 100 20 0.0338469
12 15 100 20 0.0691642
13 15 100 20 0.0859431
14 15 100 20 0.127956
15 15 100 20 0.13616
16 15 100 20 0.125642
17 15 100 20 0.117942
18 15 100 20 0.107891
19 15 100 20 0.0709477
20 15 100 20 0.0582266
1 16 100 20 1.31455e-06
2 16 100 20 0.00207222
3 16 100 20 0.00230539
4 16 100 20 0.00482188
5 16 100 20 0.00603328
6 16 100 20 0.00821218
7 16 100 20 0.00557352
8 16 100 20 0.00546476
