1 1 100 1 1
1 2 100 1 1
1 3 100 1 1
1 0 100 2 0.388783
2 0 100 2 0.611217
1 1 100 2 0.628317
2 1 100 2 0.371683
1 2 100 2 0.272054
2 2 100 2 0.727946
1 3 100 2 0.255934
2 3 100 2 0.744066
1 4 100 2 0.561498
2 4 100 2 0.438502
1 5 100 2 0.02311
2 5 100 2 0.97689
1 6 100 2 0.00644212
2 6 100 2 0.993558
1 7 100 2 0.490313
2 7 100 2 0.509687
1 8 100 2 0.554351
2 8 100 2 0.445649
1 9 100 2 2.66358e-05
2 9 100 2 0.999973
1 10 100 2 0.104608
2 10 100 2 0.895392
1 11 100 2 1.69842e-06
2 11 100 2 0.999998
2 12 100 2 1
1 0 100 3 0.364714
2 0 100 3 0.062675
3 0 100 3 0.572611
1 1 100 3 0.768671
2 1 100 3 0.218415
3 1 100 3 0.0129139
1 2 100 3 0.253608
2 2 100 3 0.475594
3 2 100 3 0.270798
1 3 100 3 0.0453448
2 3 100 3 0.487913
3 3 100 3 0.466743
1 4 100 3 0.0110152
2 4 100 3 0.244989
3 4 100 3 0.743996
1 5 100 3 0.149126
2 5 100 3 0.294943
3 5 100 3 0.555931
1 6 100 3 0.296691
2 6 100 3 0.295601
3 6 100 3 0.407708
1 7 100 3 0.0320157
2 7 100 3 3.18225e-07
3 7 100 3 0.967984
1 8 100 3 1.16232e-06
3 8 100 3 0.999999
2 9 100 3 1
1 10 100 3 0.0107357
2 10 100 3 0.659008
3 10 100 3 0.330256
2 11 100 3 0.255023
3 11 100 3 0.744977
1 12 100 3 1
1 13 100 3 3.24719e-05
3 13 100 3 0.999968
1 0 100 4 0.18584
2 0 100 4 0.0516101
3 0 100 4 0.0128511
4 0 100 4 0.749699
1 1 100 4 0.617021
2 1 100 4 0.321199
3 1 100 4 0.0430525
4 1 100 4 0.0187276
1 2 100 4 0.1325
2 2 100 4 0.416794
3 2 100 4 0.416932
4 2 100 4 0.0337742
1 3 100 4 0.0327237
2 3 100 4 0.289503
3 3 100 4 0.550496
4 3 100 4 0.127277
1 4 100 4 0.0221365
2 4 100 4 0.105515
3 4 100 4 0.544585
4 4 100 4 0.327764
1 5 100 4 0.0751093
2 5 100 4 0.131158
3 5 100 4 0.234298
4 5 100 4 0.559435
1 6 100 4 0.057969
2 6 100 4 0.145889
3 6 100 4 0.302987
4 6 100 4 0.493155
1 7 100 4 0.0992989
2 7 100 4 0.241701
3 7 100 4 0.367612
4 7 100 4 0.291388
1 8 100 4 0.00949476
2 8 100 4 0.00216039
3 8 100 4 0.10839
4 8 100 4 0.879954
2 9 100 4 4.97842e-06
3 9 100 4 8.06214e-05
4 9 100 4 0.999914
1 10 100 4 0.000253384
3 10 100 4 0.00294614
4 10 100 4 0.9968
3 11 100 4 1
1 12 100 4 0.0238264
3 12 100 4 0.177561
4 12 100 4 0.798612
3 13 100 4 1
2 14 100 4 0.880809
3 14 100 4 0.119191
1 15 100 4 0.000484003
2 15 100 4 3.98979e-06
3 15 100 4 0.904042
4 15 100 4 0.0954696
1 0 100 5 0.280632
2 0 100 5 0.0826394
3 0 100 5 0.122015
4 0 100 5 0.0285164
5 0 100 5 0.486197
1 1 100 5 0.575056
2 1 100 5 0.239819
3 1 100 5 0.117048
4 1 100 5 0.0371264
5 1 100 5 0.0309508
1 2 100 5 0.151439
2 2 100 5 0.43854
3 2 100 5 0.275456
4 2 100 5 0.119615
5 2 100 5 0.01495
1 3 100 5 0.046937
2 3 100 5 0.2269
3 3 100 5 0.35643
4 3 100 5 0.314944
5 3 100 5 0.0547897
1 4 100 5 0.0174536
2 4 100 5 0.0839749
3 4 100 5 0.228344
4 4 100 5 0.463396
5 4 100 5 0.206832
1 5 100 5 0.0118275
2 5 100 5 0.0289054
3 5 100 5 0.080099
4 5 100 5 0.424448
5 5 100 5 0.45472
1 6 100 5 0.0120912
2 6 100 5 0.0954938
3 6 100 5 0.114796
4 6 100 5 0.246691
5 6 100 5 0.530929
1 7 100 5 0.00808159
2 7 100 5 0.0322247
3 7 100 5 0.0694401
4 7 100 5 0.276171
5 7 100 5 0.614083
1 8 100 5 0.00207434
2 8 100 5 0.00026522
3 8 100 5 0.102949
4 8 100 5 0.22356
5 8 100 5 0.671152
1 9 100 5 0.0893803
2 9 100 5 0.0540665
3 9 100 5 0.273452
4 9 100 5 0.231456
5 9 100 5 0.351645
1 10 100 5 0.11258
2 10 100 5 0.229939
3 10 100 5 0.11018
4 10 100 5 0.0956627
5 10 100 5 0.451638
1 11 100 5 0.000875993
2 11 100 5 3.59587e-07
3 11 100 5 0.283582
4 11 100 5 0.000235732
5 11 100 5 0.715306
1 12 100 5 0.00560375
2 12 100 5 0.00178689
3 12 100 5 0.185348
4 12 100 5 0.491356
5 12 100 5 0.315905
1 13 100 5 0.00232378
2 13 100 5 0.01777
5 13 100 5 0.979906
1 14 100 5 0.00173844
4 14 100 5 0.83637
5 14 100 5 0.161891
2 15 100 5 1
1 16 100 5 1
1 19 100 5 0.998965
5 19 100 5 0.00103546
1 0 100 6 0.223678
2 0 100 6 0.0743636
3 0 100 6 0.135571
4 0 100 6 0.080249
5 0 100 6 0.010815
6 0 100 6 0.475323
1 1 100 6 0.499348
2 1 100 6 0.29026
3 1 100 6 0.0769384
4 1 100 6 0.0805083
5 1 100 6 0.0118495
6 1 100 6 0.0410955
1 2 100 6 0.125024
2 2 100 6 0.354947
3 2 100 6 0.322701
4 2 100 6 0.113761
5 2 100 6 0.0723569
6 2 100 6 0.0112101
1 3 100 6 0.0266894
2 3 100 6 0.166546
3 3 100 6 0.29474
4 3 100 6 0.328953
5 3 100 6 0.15445
6 3 100 6 0.0286223
1 4 100 6 0.0180158
2 4 100 6 0.0637849
3 4 100 6 0.153087
4 4 100 6 0.300921
5 4 100 6 0.41159
6 4 100 6 0.0526015
1 5 100 6 0.0243979
2 5 100 6 0.0469329
3 5 100 6 0.0581817
4 5 100 6 0.217181
5 5 100 6 0.466967
6 5 100 6 0.186339
1 6 100 6 0.0168442
2 6 100 6 0.0584112
3 6 100 6 0.082245
4 6 100 6 0.118635
5 6 100 6 0.387448
6 6 100 6 0.336416
1 7 100 6 0.00964424
2 7 100 6 0.0383628
3 7 100 6 0.0710548
4 7 100 6 0.0766272
5 7 100 6 0.288947
6 7 100 6 0.515364
1 8 100 6 0.0658765
2 8 100 6 0.0734226
3 8 100 6 0.0953961
4 8 100 6 0.129391
5 8 100 6 0.25437
6 8 100 6 0.381544
1 9 100 6 0.0358057
2 9 100 6 0.0544802
3 9 100 6 0.0701241
4 9 100 6 0.111963
5 9 100 6 0.246726
6 9 100 6 0.480902
1 10 100 6 0.142954
2 10 100 6 0.0270694
3 10 100 6 0.19076
4 10 100 6 0.106434
5 10 100 6 0.112743
6 10 100 6 0.420039
1 11 100 6 0.000220746
2 11 100 6 0.177789
3 11 100 6 0.0344863
4 11 100 6 0.0996924
5 11 100 6 0.095373
6 11 100 6 0.592438
1 12 100 6 0.0762843
2 12 100 6 0.155792
3 12 100 6 0.155942
4 12 100 6 0.186938
5 12 100 6 0.294423
6 12 100 6 0.130622
1 13 100 6 4.21961e-06
2 13 100 6 0.00012917
3 13 100 6 2.66079e-06
4 13 100 6 0.327952
6 13 100 6 0.671912
3 14 100 6 8.22917e-06
4 14 100 6 0.000342222
5 14 100 6 0.291922
6 14 100 6 0.707728
6 15 100 6 1
6 16 100 6 1
1 0 100 7 0.189586
2 0 100 7 0.0587722
3 0 100 7 0.114606
4 0 100 7 0.156589
5 0 100 7 0.0678503
6 0 100 7 0.0193593
7 0 100 7 0.393237
1 1 100 7 0.536405
2 1 100 7 0.222984
3 1 100 7 0.106564
4 1 100 7 0.0528857
5 1 100 7 0.0439508
6 1 100 7 0.0153242
7 1 100 7 0.0218866
1 2 100 7 0.115935
2 2 100 7 0.40085
3 2 100 7 0.217895
4 2 100 7 0.120684
5 2 100 7 0.0984734
6 2 100 7 0.0377447
7 2 100 7 0.00841809
1 3 100 7 0.0169128
2 3 100 7 0.202609
3 3 100 7 0.2882
4 3 100 7 0.221157
5 3 100 7 0.159396
6 3 100 7 0.102765
7 3 100 7 0.00896009
1 4 100 7 0.0207373
2 4 100 7 0.0672892
3 4 100 7 0.193633
4 4 100 7 0.245012
5 4 100 7 0.253565
6 4 100 7 0.174846
7 4 100 7 0.0449176
1 5 100 7 0.0244295
2 5 100 7 0.0439644
3 5 100 7 0.0667632
4 5 100 7 0.187223
5 5 100 7 0.262802
6 5 100 7 0.316838
7 5 100 7 0.0979794
1 6 100 7 0.0130767
2 6 100 7 0.0389855
3 6 100 7 0.0673998
4 6 100 7 0.0880268
5 6 100 7 0.242467
6 6 100 7 0.368813
7 6 100 7 0.181232
1 7 100 7 0.0115387
2 7 100 7 0.029439
3 7 100 7 0.0344269
4 7 100 7 0.0674098
5 7 100 7 0.134008
6 7 100 7 0.395819
7 7 100 7 0.327358
1 8 100 7 0.0229803
2 8 100 7 0.0298616
3 8 100 7 0.0448245
4 8 100 7 0.0442358
5 8 100 7 0.118615
6 8 100 7 0.297719
7 8 100 7 0.441764
1 9 100 7 0.0528334
2 9 100 7 0.0601866
3 9 100 7 0.0624323
4 9 100 7 0.0562561
5 9 100 7 0.0607378
6 9 100 7 0.286898
7 9 100 7 0.420655
1 10 100 7 0.0598619
2 10 100 7 0.00136472
3 10 100 7 0.0590665
4 10 100 7 0.172909
5 10 100 7 0.163456
6 10 100 7 0.11294
7 10 100 7 0.430402
1 11 100 7 0.00084113
2 11 100 7 0.0390889
3 11 100 7 0.0368706
4 11 100 7 0.0451068
5 11 100 7 0.202281
6 11 100 7 0.3401
7 11 100 7 0.335712
1 12 100 7 0.0460312
2 12 100 7 0.0874241
3 12 100 7 0.0551728
4 12 100 7 0.0464462
5 12 100 7 0.070528
6 12 100 7 0.257026
7 12 100 7 0.437372
1 13 100 7 0.00133289
2 13 100 7 7.93033e-05
3 13 100 7 0.000472567
4 13 100 7 0.0843493
5 13 100 7 0.131637
6 13 100 7 0.133427
7 13 100 7 0.648701
1 14 100 7 0.105219
2 14 100 7 0.00168324
3 14 100 7 0.00188206
4 14 100 7 0.208789
5 14 100 7 0.105198
6 14 100 7 0.119269
7 14 100 7 0.457959
2 15 100 7 0.0197451
3 15 100 7 0.00440809
5 15 100 7 2.97735e-07
6 15 100 7 0.000241035
7 15 100 7 0.975605
2 16 100 7 0.462499
3 16 100 7 4.00182e-05
4 16 100 7 5.87221e-06
5 16 100 7 0.337488
6 16 100 7 0.135449
7 16 100 7 0.0645186
1 17 100 7 4.62804e-05
2 17 100 7 5.1117e-05
3 17 100 7 0.705779
4 17 100 7 0.000261653
5 17 100 7 0.000146114
6 17 100 7 0.034628
7 17 100 7 0.259088
3 18 100 7 6.69278e-05
6 18 100 7 0.874171
7 18 100 7 0.125762
1 0 100 8 0.16674
2 0 100 8 0.059574
3 0 100 8 0.097987
4 0 100 8 0.109775
5 0 100 8 0.139364
6 0 100 8 0.0668423
7 0 100 8 0.0219041
8 0 100 8 0.337814
1 1 100 8 0.496807
2 1 100 8 0.236614
3 1 100 8 0.101168
4 1 100 8 0.068452
5 1 100 8 0.0323058
6 1 100 8 0.0360817
7 1 100 8 0.0162482
8 1 100 8 0.0123243
1 2 100 8 0.11228
2 2 100 8 0.334926
3 2 100 8 0.23663
4 2 100 8 0.118292
5 2 100 8 0.092957
6 2 100 8 0.0744065
7 2 100 8 0.0277212
8 2 100 8 0.00278758
1 3 100 8 0.0330456
2 3 100 8 0.174707
3 3 100 8 0.260032
4 3 100 8 0.218954
5 3 100 8 0.124551
6 3 100 8 0.105431
7 3 100 8 0.0673802
8 3 100 8 0.0158995
1 4 100 8 0.0220843
2 4 100 8 0.0744491
3 4 100 8 0.135894
4 4 100 8 0.218167
5 4 100 8 0.226944
6 4 100 8 0.174602
7 4 100 8 0.117435
8 4 100 8 0.0304251
1 5 100 8 0.0183244
2 5 100 8 0.0402943
3 5 100 8 0.0720865
4 5 100 8 0.15446
5 5 100 8 0.191161
6 5 100 8 0.248785
7 5 100 8 0.225436
8 5 100 8 0.0494533
1 6 100 8 0.0109798
2 6 100 8 0.0288219
3 6 100 8 0.0571203
4 6 100 8 0.0581775
5 6 100 8 0.163019
6 6 100 8 0.227659
7 6 100 8 0.332828
8 6 100 8 0.121395
1 7 100 8 0.00989799
2 7 100 8 0.0107756
3 7 100 8 0.0247818
4 7 100 8 0.0706237
5 7 100 8 0.0726482
6 7 100 8 0.210373
7 7 100 8 0.355664
8 7 100 8 0.245236
1 8 100 8 0.0118959
2 8 100 8 0.0262697
3 8 100 8 0.0400874
4 8 100 8 0.0473317
5 8 100 8 0.103128
6 8 100 8 0.146702
7 8 100 8 0.332703
8 8 100 8 0.291883
1 9 100 8 0.0166493
2 9 100 8 0.0242827
3 9 100 8 0.0223579
4 9 100 8 0.0630042
5 9 100 8 0.0302454
6 9 100 8 0.108811
7 9 100 8 0.30003
8 9 100 8 0.43462
1 10 100 8 0.0285072
2 10 100 8 0.0667172
3 10 100 8 0.0185331
4 10 100 8 0.0724032
5 10 100 8 0.0943555
6 10 100 8 0.0633037
7 10 100 8 0.213105
8 10 100 8 0.443075
1 11 100 8 0.0279046
2 11 100 8 0.0797108
3 11 100 8 0.0775738
4 11 100 8 0.041634
5 11 100 8 0.0372747
6 11 100 8 0.174245
7 11 100 8 0.176509
8 11 100 8 0.385148
1 12 100 8 0.0694076
2 12 100 8 0.00839864
3 12 100 8 0.0459386
4 12 100 8 0.0617333
5 12 100 8 0.00186807
6 12 100 8 0.00503316
7 12 100 8 0.154081
8 12 100 8 0.65354
1 13 100 8 0.0352177
2 13 100 8 0.0137597
3 13 100 8 0.100779
4 13 100 8 0.100875
5 13 100 8 0.151875
6 13 100 8 0.101778
7 13 100 8 0.100781
8 13 100 8 0.394935
1 14 100 8 2.9774e-05
2 14 100 8 0.0972339
3 14 100 8 0.00863272
4 14 100 8 0.111904
5 14 100 8 0.195029
6 14 100 8 0.103512
7 14 100 8 0.0971193
8 14 100 8 0.38654
1 15 100 8 2.8204e-07
3 15 100 8 1.96414e-05
4 15 100 8 1.88357e-06
5 15 100 8 2.75553e-06
6 15 100 8 0.000340296
7 15 100 8 0.370233
8 15 100 8 0.629402
1 16 100 8 0.000532611
3 16 100 8 5.48028e-07
5 16 100 8 6.96981e-06
6 16 100 8 1.72513e-05
8 16 100 8 0.999443
6 17 100 8 1
3 18 100 8 1.10266e-05
7 18 100 8 0.00245258
8 18 100 8 0.997536
1 0 100 9 0.173408
2 0 100 9 0.0562284
3 0 100 9 0.0803941
4 0 100 9 0.0905694
5 0 100 9 0.12779
6 0 100 9 0.144178
7 0 100 9 0.0551776
8 0 100 9 0.023301
9 0 100 9 0.248954
1 1 100 9 0.518724
2 1 100 9 0.225215
3 1 100 9 0.079987
4 1 100 9 0.0500503
5 1 100 9 0.0355194
6 1 100 9 0.0264445
7 1 100 9 0.0330077
8 1 100 9 0.0194189
9 1 100 9 0.0116337
1 2 100 9 0.0901141
2 2 100 9 0.390607
3 2 100 9 0.240615
4 2 100 9 0.139379
5 2 100 9 0.0543884
6 2 100 9 0.0367469
7 2 100 9 0.0326898
8 2 100 9 0.0114999
9 2 100 9 0.00395921
1 3 100 9 0.0214223
2 3 100 9 0.168392
3 3 100 9 0.306119
4 3 100 9 0.188647
5 3 100 9 0.119905
6 3 100 9 0.0729012
7 3 100 9 0.0820523
8 3 100 9 0.0362859
9 3 100 9 0.00427488
1 4 100 9 0.024004
2 4 100 9 0.0682334
3 4 100 9 0.148601
4 4 100 9 0.265613
5 4 100 9 0.172955
6 4 100 9 0.120046
7 4 100 9 0.106252
8 4 100 9 0.0772875
9 4 100 9 0.017008
1 5 100 9 0.00789032
2 5 100 9 0.0401068
3 5 100 9 0.0773055
4 5 100 9 0.146233
5 5 100 9 0.21459
6 5 100 9 0.193951
7 5 100 9 0.155893
8 5 100 9 0.125807
9 5 100 9 0.0382237
1 6 100 9 0.00549012
2 6 100 9 0.0242101
3 6 100 9 0.0321523
4 6 100 9 0.0645695
5 6 100 9 0.158889
6 6 100 9 0.202737
7 6 100 9 0.239533
8 6 100 9 0.188659
9 6 100 9 0.0837599
1 7 100 9 0.00964901
2 7 100 9 0.0199575
3 7 100 9 0.033814
4 7 100 9 0.050792
5 7 100 9 0.0993728
6 7 100 9 0.160064
7 7 100 9 0.224546
8 7 100 9 0.284041
9 7 100 9 0.117763
1 8 100 9 0.00615913
2 8 100 9 0.00854443
3 8 100 9 0.0134142
4 8 100 9 0.0414127
5 8 100 9 0.0664668
6 8 100 9 0.0962053
7 8 100 9 0.195223
8 8 100 9 0.335974
9 8 100 9 0.2366
1 9 100 9 0.00701481
2 9 100 9 0.0348341
3 9 100 9 0.0357824
4 9 100 9 0.0358343
5 9 100 9 0.0477318
6 9 100 9 0.0815779
7 9 100 9 0.13145
8 9 100 9 0.312555
9 9 100 9 0.313219
1 10 100 9 0.0116421
2 10 100 9 0.0117211
3 10 100 9 0.0234659
4 10 100 9 0.035454
5 10 100 9 0.0346296
6 10 100 9 0.0577531
7 10 100 9 0.153174
8 10 100 9 0.22095
9 10 100 9 0.45121
1 11 100 9 0.0149095
2 11 100 9 0.0370882
3 11 100 9 0.0276861
4 11 100 9 0.0302752
5 11 100 9 0.0445955
6 11 100 9 0.055335
7 11 100 9 0.13914
8 11 100 9 0.264805
9 11 100 9 0.386165
1 12 100 9 0.0172982
2 12 100 9 0.017182
3 12 100 9 0.0304112
4 12 100 9 0.0483625
5 12 100 9 0.0521693
6 12 100 9 0.152531
7 12 100 9 0.0335398
8 12 100 9 0.277896
9 12 100 9 0.37061
1 13 100 9 0.0234183
2 13 100 9 0.0249613
3 13 100 9 0.0903655
4 13 100 9 0.0447311
5 13 100 9 0.0745493
6 13 100 9 0.0368025
7 13 100 9 0.144057
8 13 100 9 0.112081
9 13 100 9 0.449035
1 14 100 9 4.74964e-05
2 14 100 9 0.0199464
3 14 100 9 0.000924602
4 14 100 9 2.70017e-06
5 14 100 9 0.00020402
6 14 100 9 1.891e-06
7 14 100 9 7.19017e-05
8 14 100 9 0.294103
9 14 100 9 0.684698
1 15 100 9 0.00172124
3 15 100 9 0.124968
5 15 100 9 1.41523e-07
6 15 100 9 4.14514e-07
7 15 100 9 0.134422
8 15 100 9 0.0164148
9 15 100 9 0.722474
1 16 100 9 0.000217359
3 16 100 9 6.07203e-05
4 16 100 9 0.164751
5 16 100 9 0.0409467
6 16 100 9 1.9954e-05
7 16 100 9 5.14794e-05
8 16 100 9 0.0147991
9 16 100 9 0.779154
5 17 100 9 0.313455
6 17 100 9 0.0278516
7 17 100 9 0.313429
8 17 100 9 2.37253e-05
9 17 100 9 0.345241
1 18 100 9 0.000277173
4 18 100 9 7.38323e-07
6 18 100 9 2.1165e-06
8 18 100 9 0.454358
9 18 100 9 0.545362
1 19 100 9 0.000177069
5 19 100 9 3.50263e-05
6 19 100 9 0.0826404
9 19 100 9 0.917148
9 20 100 9 1
1 0 100 10 0.162464
2 0 100 10 0.0537132
3 0 100 10 0.0749357
4 0 100 10 0.0748536
5 0 100 10 0.104433
6 0 100 10 0.1197
7 0 100 10 0.137602
8 0 100 10 0.0559858
9 0 100 10 0.0173818
10 0 100 10 0.198931
1 1 100 10 0.470387
2 1 100 10 0.237687
3 1 100 10 0.0913635
4 1 100 10 0.0679923
5 1 100 10 0.0375632
6 1 100 10 0.0218227
7 1 100 10 0.024574
8 1 100 10 0.0268686
9 1 100 10 0.0129183
10 1 100 10 0.00882299
1 2 100 10 0.079848
2 2 100 10 0.358092
3 2 100 10 0.252484
4 2 100 10 0.121197
5 2 100 10 0.0860571
6 2 100 10 0.0351237
7 2 100 10 0.029534
8 2 100 10 0.0227492
9 2 100 10 0.0148418
10 2 100 10 7.37559e-05
1 3 100 10 0.0320548
2 3 100 10 0.141841
3 3 100 10 0.269839
4 3 100 10 0.223879
5 3 100 10 0.109347
6 3 100 10 0.0751857
7 3 100 10 0.0542225
8 3 100 10 0.0531491
9 3 100 10 0.0390097
10 3 100 10 0.00147251
1 4 100 10 0.0142607
2 4 100 10 0.0581937
3 4 100 10 0.134597
4 4 100 10 0.228323
5 4 100 10 0.199588
6 4 100 10 0.144738
7 4 100 10 0.0741504
8 4 100 10 0.0805907
9 4 100 10 0.0498396
10 4 100 10 0.0157191
1 5 100 10 0.0065455
2 5 100 10 0.0408273
3 5 100 10 0.065511
4 5 100 10 0.124277
5 5 100 10 0.192853
6 5 100 10 0.173183
7 5 100 10 0.131106
8 5 100 10 0.141849
9 5 100 10 0.089735
10 5 100 10 0.0341138
1 6 100 10 0.00501051
2 6 100 10 0.0270819
3 6 100 10 0.0387187
4 6 100 10 0.0696109
5 6 100 10 0.12794
6 6 100 10 0.17887
7 6 100 10 0.170978
8 6 100 10 0.157282
9 6 100 10 0.163155
10 6 100 10 0.0613528
1 7 100 10 0.00729978
2 7 100 10 0.0276517
3 7 100 10 0.0127411
4 7 100 10 0.0404852
5 7 100 10 0.0780077
6 7 100 10 0.143298
7 7 100 10 0.182802
8 7 100 10 0.223094
9 7 100 10 0.187373
10 7 100 10 0.0972467
1 8 100 10 0.00380208
2 8 100 10 0.00402286
3 8 100 10 0.0191823
4 8 100 10 0.0178514
5 8 100 10 0.042183
6 8 100 10 0.088406
7 8 100 10 0.128684
8 8 100 10 0.230945
9 8 100 10 0.321582
10 8 100 10 0.143341
1 9 100 10 0.00762319
2 9 100 10 0.00481168
3 9 100 10 0.0120193
4 9 100 10 0.0245432
5 9 100 10 0.0316747
6 9 100 10 0.0589406
7 9 100 10 0.128538
8 9 100 10 0.16936
9 9 100 10 0.304676
10 9 100 10 0.257813
1 10 100 10 5.39893e-05
2 10 100 10 7.57212e-06
3 10 100 10 0.012064
4 10 100 10 0.0120565
5 10 100 10 0.0248738
6 10 100 10 0.0463392
7 10 100 10 0.0858568
8 10 100 10 0.129727
9 10 100 10 0.302107
10 10 100 10 0.386914
1 11 100 10 0.00834746
2 11 100 10 5.84631e-05
3 11 100 10 0.0143737
4 11 100 10 0.0154568
5 11 100 10 0.0209491
6 11 100 10 0.044702
7 11 100 10 0.0362319
8 11 100 10 0.125713
9 11 100 10 0.259039
10 11 100 10 0.475128
1 12 100 10 0.0271733
2 12 100 10 0.040698
3 12 100 10 0.00605803
4 12 100 10 0.0344066
5 12 100 10 0.0143765
6 12 100 10 0.0879556
7 12 100 10 0.0851787
8 12 100 10 0.0965779
9 12 100 10 0.232721
10 12 100 10 0.374855
1 13 100 10 0.0172462
2 13 100 10 0.0156013
3 13 100 10 0.0452211
4 13 100 10 0.0256914
5 13 100 10 0.0368433
6 13 100 10 0.0232727
7 13 100 10 0.100356
8 13 100 10 0.168458
9 13 100 10 0.149804
10 13 100 10 0.417506
1 14 100 10 0.000149594
2 14 100 10 0.0432771
3 14 100 10 0.0417369
4 14 100 10 0.0444505
5 14 100 10 0.000521955
6 14 100 10 0.0488073
7 14 100 10 0.031262
8 14 100 10 0.0228814
9 14 100 10 0.215631
10 14 100 10 0.551283
1 15 100 10 0.078609
2 15 100 10 0.0655225
3 15 100 10 0.182048
4 15 100 10 0.156925
5 15 100 10 0.0796792
6 15 100 10 0.000142532
7 15 100 10 0.0691296
8 15 100 10 0.0654198
9 15 100 10 0.0710946
10 15 100 10 0.231429
1 16 100 10 0.0387738
2 16 100 10 7.15523e-05
3 16 100 10 0.0478644
4 16 100 10 0.0942705
5 16 100 10 0.137061
6 16 100 10 0.0959628
7 16 100 10 0.113224
8 16 100 10 0.227264
9 16 100 10 0.141398
10 16 100 10 0.10411
1 17 100 10 9.07629e-05
2 17 100 10 0.000294301
3 17 100 10 1.61485e-07
4 17 100 10 1.08094e-05
5 17 100 10 5.31387e-06
6 17 100 10 2.49716e-06
7 17 100 10 0.106349
8 17 100 10 0.00899886
9 17 100 10 0.0999962
10 17 100 10 0.784252
1 18 100 10 4.90926e-06
8 18 100 10 0.257385
9 18 100 10 0.2483
10 18 100 10 0.49431
1 19 100 10 0.0119422
8 19 100 10 0.000175478
9 19 100 10 0.503959
10 19 100 10 0.483923
10 20 100 10 1
1 0 100 11 0.141422
2 0 100 11 0.0486767
3 0 100 11 0.0668638
4 0 100 11 0.0817179
5 0 100 11 0.0849151
6 0 100 11 0.08955
7 0 100 11 0.105156
8 0 100 11 0.120249
9 0 100 11 0.0562697
10 0 100 11 0.0169079
11 0 100 11 0.188272
1 1 100 11 0.495694
2 1 100 11 0.216424
3 1 100 11 0.08025
4 1 100 11 0.0527402
5 1 100 11 0.0392483
6 1 100 11 0.0379927
7 1 100 11 0.0266127
8 1 100 11 0.0184389
9 1 100 11 0.0202018
10 1 100 11 0.00555992
11 1 100 11 0.00683777
1 2 100 11 0.0830555
2 2 100 11 0.351325
3 2 100 11 0.22218
4 2 100 11 0.121057
5 2 100 11 0.0823014
6 2 100 11 0.0459088
7 2 100 11 0.0320492
8 2 100 11 0.0180234
9 2 100 11 0.0253138
10 2 100 11 0.0175887
11 2 100 11 0.00119758
1 3 100 11 0.0308984
2 3 100 11 0.166132
3 3 100 11 0.258193
4 3 100 11 0.205612
5 3 100 11 0.111985
6 3 100 11 0.0890319
7 3 100 11 0.0407702
8 3 100 11 0.0314433
9 3 100 11 0.0345637
10 3 100 11 0.0251605
11 3 100 11 0.00621013
1 4 100 11 0.0183325
2 4 100 11 0.0755044
3 4 100 11 0.161478
4 4 100 11 0.213257
5 4 100 11 0.185801
6 4 100 11 0.114553
7 4 100 11 0.0920466
8 4 100 11 0.0518341
9 4 100 11 0.0513635
10 4 100 11 0.0278254
11 4 100 11 0.00800365
1 5 100 11 0.0124917
2 5 100 11 0.0332305
3 5 100 11 0.066592
4 5 100 11 0.125899
5 5 100 11 0.201609
6 5 100 11 0.191115
7 5 100 11 0.124932
8 5 100 11 0.0834204
9 5 100 11 0.0842141
10 5 100 11 0.0610149
11 5 100 11 0.0154823
1 6 100 11 0.00539
2 6 100 11 0.0298364
3 6 100 11 0.0368857
4 6 100 11 0.0600707
5 6 100 11 0.132302
6 6 100 11 0.180021
7 6 100 11 0.166595
8 6 100 11 0.138655
9 6 100 11 0.125249
10 6 100 11 0.102823
11 6 100 11 0.0221723
1 7 100 11 0.0125986
2 7 100 11 0.0126717
3 7 100 11 0.0352996
4 7 100 11 0.055996
5 7 100 11 0.0605742
6 7 100 11 0.112668
7 7 100 11 0.183915
8 7 100 11 0.157647
9 7 100 11 0.149266
10 7 100 11 0.157049
11 7 100 11 0.0623141
1 8 100 11 0.00769035
2 8 100 11 0.0221399
3 8 100 11 0.0210116
4 8 100 11 0.0233257
5 8 100 11 0.040049
6 8 100 11 0.0643041
7 8 100 11 0.120807
8 8 100 11 0.181209
9 8 100 11 0.210507
10 8 100 11 0.181499
11 8 100 11 0.127458
1 9 100 11 0.00433615
2 9 100 11 0.0129956
3 9 100 11 0.0232652
4 9 100 11 0.020133
5 9 100 11 0.0416261
6 9 100 11 0.0477599
7 9 100 11 0.0612595
8 9 100 11 0.149864
9 9 100 11 0.209804
10 9 100 11 0.278206
11 9 100 11 0.150752
1 10 100 11 0.00247423
2 10 100 11 0.0144591
3 10 100 11 0.0146396
4 10 100 11 0.00486173
5 10 100 11 0.0162543
6 10 100 11 0.0422484
7 10 100 11 0.0848174
8 10 100 11 0.110597
9 10 100 11 0.182404
10 10 100 11 0.292673
11 10 100 11 0.234571
1 11 100 11 0.000249589
2 11 100 11 0.00650002
3 11 100 11 0.0082664
4 11 100 11 0.0154906
5 11 100 11 0.00564221
6 11 100 11 0.0264522
7 11 100 11 0.0233137
8 11 100 11 0.102584
9 11 100 11 0.125968
10 11 100 11 0.326029
11 11 100 11 0.359505
1 12 100 11 0.00968066
2 12 100 11 0.00500097
3 12 100 11 0.0247903
4 12 100 11 0.0287208
5 12 100 11 0.0247306
6 12 100 11 0.0249829
7 12 100 11 0.0663713
8 12 100 11 0.0692566
9 12 100 11 0.203065
10 12 100 11 0.248165
11 12 100 11 0.295236
1 13 100 11 0.0110371
2 13 100 11 0.0176691
3 13 100 11 0.0180721
4 13 100 11 0.0327508
5 13 100 11 0.020314
6 13 100 11 0.046326
7 13 100 11 0.0496393
8 13 100 11 0.0423835
9 13 100 11 0.0478468
10 13 100 11 0.267395
11 13 100 11 0.446567
1 14 100 11 0.000465285
2 14 100 11 0.00864462
3 14 100 11 0.00246231
4 14 100 11 0.0252084
5 14 100 11 0.0214621
6 14 100 11 0.0217904
7 14 100 11 0.0662562
8 14 100 11 0.0723909
9 14 100 11 0.129527
10 14 100 11 0.129415
11 14 100 11 0.522377
1 15 100 11 0.0335316
2 15 100 11 1.52587e-06
3 15 100 11 6.71697e-05
4 15 100 11 9.29973e-05
5 15 100 11 0.0478852
6 15 100 11 0.067904
7 15 100 11 0.0331351
8 15 100 11 0.129719
9 15 100 11 0.106877
10 15 100 11 0.171197
11 15 100 11 0.40959
1 16 100 11 6.60896e-05
2 16 100 11 4.34831e-07
3 16 100 11 2.84751e-06
4 16 100 11 6.51132e-05
5 16 100 11 0.0798802
6 16 100 11 0.0778065
7 16 100 11 4.24005e-06
8 16 100 11 0.155526
9 16 100 11 0.19845
10 16 100 11 0.121849
11 16 100 11 0.366349
1 17 100 11 0.000844679
2 17 100 11 0.000716347
3 17 100 11 6.10233e-06
4 17 100 11 6.2492e-05
5 17 100 11 0.0259221
6 17 100 11 0.126121
7 17 100 11 0.250433
8 17 100 11 0.0694314
9 17 100 11 0.0698167
10 17 100 11 0.206641
11 17 100 11 0.250005
1 18 100 11 1.94132e-06
3 18 100 11 0.000638831
4 18 100 11 7.20884e-06
5 18 100 11 1.59943e-06
6 18 100 11 0.000464384
8 18 100 11 0.119163
9 18 100 11 8.24459e-07
10 18 100 11 0.271966
11 18 100 11 0.607756
1 19 100 11 7.32404e-05
3 19 100 11 2.74336e-07
5 19 100 11 3.61899e-06
6 19 100 11 0.116763
8 19 100 11 0.00498899
9 19 100 11 0.210942
10 19 100 11 0.000519818
11 19 100 11 0.666709
1 20 100 11 0.000250839
2 20 100 11 0.274258
3 20 100 11 0.000250556
4 20 100 11 0.00777331
5 20 100 11 0.0505666
10 20 100 11 0.6669
3 21 100 11 2.34203e-06
6 21 100 11 4.71079e-05
11 21 100 11 0.999951
1 0 100 12 0.143268
2 0 100 12 0.0517385
3 0 100 12 0.075362
4 0 100 12 0.0734301
5 0 100 12 0.0808224
6 0 100 12 0.0830107
7 0 100 12 0.0871691
8 0 100 12 0.0989486
9 0 100 12 0.089992
10 0 100 12 0.0464179
11 0 100 12 0.0128276
12 0 100 12 0.157013
1 1 100 12 0.4515
2 1 100 12 0.238867
3 1 100 12 0.0951546
4 1 100 12 0.0495035
5 1 100 12 0.0349013
6 1 100 12 0.0289372
7 1 100 12 0.0198292
8 1 100 12 0.0222137
9 1 100 12 0.0211229
10 1 100 12 0.0272439
11 1 100 12 0.00691187
12 1 100 12 0.00381554
1 2 100 12 0.0810844
2 2 100 12 0.342652
3 2 100 12 0.232331
4 2 100 12 0.130143
5 2 100 12 0.0714171
6 2 100 12 0.0288683
7 2 100 12 0.042975
8 2 100 12 0.0186203
9 2 100 12 0.0246444
10 2 100 12 0.0130576
11 2 100 12 0.0141188
12 2 100 12 8.7548e-05
1 3 100 12 0.0271253
2 3 100 12 0.156579
3 3 100 12 0.250222
4 3 100 12 0.196487
5 3 100 12 0.124267
6 3 100 12 0.0884562
7 3 100 12 0.0411587
8 3 100 12 0.0405018
9 3 100 12 0.030045
10 3 100 12 0.0269361
11 3 100 12 0.0166231
12 3 100 12 0.00159849
1 4 100 12 0.0235522
2 4 100 12 0.0553505
3 4 100 12 0.146214
4 4 100 12 0.20682
5 4 100 12 0.188918
6 4 100 12 0.142227
7 4 100 12 0.088095
8 4 100 12 0.0369583
9 4 100 12 0.0403141
10 4 100 12 0.0425909
11 4 100 12 0.0248097
12 4 100 12 0.00414971
1 5 100 12 0.00547358
2 5 100 12 0.0382815
3 5 100 12 0.0677043
4 5 100 12 0.145843
5 5 100 12 0.182931
6 5 100 12 0.184964
7 5 100 12 0.125201
8 5 100 12 0.0918619
9 5 100 12 0.0661142
10 5 100 12 0.0452892
11 5 100 12 0.0385161
12 5 100 12 0.00782053
1 6 100 12 0.00843186
2 6 100 12 0.0198541
3 6 100 12 0.0265916
4 6 100 12 0.0701838
5 6 100 12 0.12207
6 6 100 12 0.185587
7 6 100 12 0.184594
8 6 100 12 0.128525
9 6 100 12 0.0936909
10 6 100 12 0.0819562
11 6 100 12 0.0573161
12 6 100 12 0.0211989
1 7 100 12 0.00734736
2 7 100 12 0.0240723
3 7 100 12 0.0293142
4 7 100 12 0.0346606
5 7 100 12 0.0789017
6 7 100 12 0.108314
7 7 100 12 0.175141
8 7 100 12 0.163411
9 7 100 12 0.130059
10 7 100 12 0.115356
11 7 100 12 0.0918316
12 7 100 12 0.0415922
1 8 100 12 0.00917685
2 8 100 12 0.00865081
3 8 100 12 0.0238192
4 8 100 12 0.0351416
5 8 100 12 0.0455393
6 8 100 12 0.0660771
7 8 100 12 0.086465
8 8 100 12 0.163663
9 8 100 12 0.183068
10 8 100 12 0.172494
11 8 100 12 0.151588
12 8 100 12 0.0543178
1 9 100 12 0.00356938
2 9 100 12 0.0165114
3 9 100 12 0.00356554
4 9 100 12 0.0219269
5 9 100 12 0.0236271
6 9 100 12 0.0391404
7 9 100 12 0.0924161
8 9 100 12 0.125148
9 9 100 12 0.160992
10 9 100 12 0.194839
11 9 100 12 0.205865
12 9 100 12 0.112399
1 10 100 12 0.000145458
2 10 100 12 0.00674911
3 10 100 12 0.0138478
4 10 100 12 0.00636443
5 10 100 12 0.0185473
6 10 100 12 0.0330439
7 10 100 12 0.0556171
8 10 100 12 0.0786843
9 10 100 12 0.133223
10 10 100 12 0.208131
11 10 100 12 0.257351
12 10 100 12 0.188296
1 11 100 12 0.00549519
2 11 100 12 0.0157746
3 11 100 12 0.0135621
4 11 100 12 0.0216768
5 11 100 12 0.0236809
6 11 100 12 0.0214271
7 11 100 12 0.0384814
8 11 100 12 0.0507023
9 11 100 12 0.0811919
10 11 100 12 0.169082
11 11 100 12 0.31272
12 11 100 12 0.246206
1 12 100 12 0.00382555
2 12 100 12 0.0187743
3 12 100 12 0.0139731
4 12 100 12 0.0217102
5 12 100 12 0.0330082
6 12 100 12 0.0262794
7 12 100 12 0.0402599
8 12 100 12 0.0765844
9 12 100 12 0.0809521
10 12 100 12 0.117972
11 12 100 12 0.230157
12 12 100 12 0.336503
1 13 100 12 0.00885926
3 13 100 12 0.000323664
4 13 100 12 0.000300703
5 13 100 12 0.0195026
6 13 100 12 8.01886e-05
7 13 100 12 0.0260099
8 13 100 12 0.0533479
9 13 100 12 0.132088
10 13 100 12 0.143847
11 13 100 12 0.281647
12 13 100 12 0.333993
1 14 100 12 0.000305081
2 14 100 12 0.0105511
3 14 100 12 0.0168003
4 14 100 12 0.0246322
5 14 100 12 0.0193043
6 14 100 12 0.0199303
7 14 100 12 0.0211159
8 14 100 12 0.00738049
9 14 100 12 0.0395428
10 14 100 12 0.114196
11 14 100 12 0.259085
12 14 100 12 0.467156
1 15 100 12 0.0227981
2 15 100 12 0.00913606
3 15 100 12 0.0524193
4 15 100 12 0.0193825
5 15 100 12 0.0195316
6 15 100 12 0.0189675
7 15 100 12 0.019922
8 15 100 12 0.0387047
9 15 100 12 0.0535081
10 15 100 12 0.124286
11 15 100 12 0.242655
12 15 100 12 0.378689
1 16 100 12 0.00280352
2 16 100 12 0.000182099
3 16 100 12 0.0308222
4 16 100 12 0.0622245
5 16 100 12 0.0297355
6 16 100 12 2.00778e-05
7 16 100 12 1.74872e-06
8 16 100 12 0.0427802
9 16 100 12 0.0241665
10 16 100 12 0.114662
11 16 100 12 0.284594
12 16 100 12 0.408008
1 17 100 12 0.000140824
2 17 100 12 0.00112568
3 17 100 12 0.0396969
4 17 100 12 0.0396983
5 17 100 12 0.0108151
6 17 100 12 0.0429951
7 17 100 12 0.0421308
8 17 100 12 0.0745988
9 17 100 12 0.135061
10 17 100 12 0.16289
11 17 100 12 0.167373
12 17 100 12 0.283475
1 18 100 12 6.35146e-07
2 18 100 12 7.47467e-07
4 18 100 12 1.60417e-07
5 18 100 12 2.32759e-06
6 18 100 12 1.06936e-06
7 18 100 12 5.9194e-07
8 18 100 12 4.43532e-07
9 18 100 12 0.00149713
10 18 100 12 0.111363
11 18 100 12 0.222726
12 18 100 12 0.664409
1 19 100 12 4.58049e-05
2 19 100 12 0.098464
3 19 100 12 0.0632089
4 19 100 12 0.0288635
5 19 100 12 0.0103972
6 19 100 12 0.0132684
7 19 100 12 0.000733427
8 19 100 12 0.13463
9 19 100 12 4.16696e-05
10 19 100 12 0.129965
11 19 100 12 0.108262
12 19 100 12 0.41212
2 20 100 12 9.3856e-07
3 20 100 12 0.128669
4 20 100 12 0.131037
5 20 100 12 0.0894279
6 20 100 12 0.131037
7 20 100 12 0.108969
8 20 100 12 0.131037
10 20 100 12 1.65231e-06
11 20 100 12 0.131037
12 20 100 12 0.148784
1 21 100 12 2.05778e-05
3 21 100 12 2.71025e-06
12 21 100 12 0.999977
7 24 100 12 4.62514e-06
12 24 100 12 0.999995
1 0 100 13 0.117033
2 0 100 13 0.038682
3 0 100 13 0.0639302
4 0 100 13 0.0723279
5 0 100 13 0.0725054
6 0 100 13 0.0776817
7 0 100 13 0.0884163
8 0 100 13 0.0839484
9 0 100 13 0.0774029
10 0 100 13 0.0859621
11 0 100 13 0.0509054
12 0 100 13 0.010794
13 0 100 13 0.160411
1 1 100 13 0.475335
2 1 100 13 0.217855
3 1 100 13 0.0821347
4 1 100 13 0.0596193
5 1 100 13 0.0394079
6 1 100 13 0.0236058
7 1 100 13 0.0196966
8 1 100 13 0.0199293
9 1 100 13 0.0173262
10 1 100 13 0.014582
11 1 100 13 0.0167239
12 1 100 13 0.00708904
13 1 100 13 0.00669564
1 2 100 13 0.0754592
2 2 100 13 0.340742
3 2 100 13 0.209955
4 2 100 13 0.118135
5 2 100 13 0.096408
6 2 100 13 0.0432501
7 2 100 13 0.0428402
8 2 100 13 0.0251869
9 2 100 13 0.0190776
10 2 100 13 0.0131374
11 2 100 13 0.00960341
12 2 100 13 0.00618422
13 2 100 13 2.09722e-05
1 3 100 13 0.0325803
2 3 100 13 0.152522
3 3 100 13 0.249546
4 3 100 13 0.176983
5 3 100 13 0.111504
6 3 100 13 0.0792673
7 3 100 13 0.0500785
8 3 100 13 0.0417182
9 3 100 13 0.0389518
10 3 100 13 0.0224796
11 3 100 13 0.0260871
12 3 100 13 0.016112
13 3 100 13 0.00217096
1 4 100 13 0.014733
2 4 100 13 0.0571838
3 4 100 13 0.136899
4 4 100 13 0.207926
5 4 100 13 0.174003
6 4 100 13 0.138289
7 4 100 13 0.0997771
8 4 100 13 0.0500842
9 4 100 13 0.0292665
10 4 100 13 0.033642
11 4 100 13 0.0361148
12 4 100 13 0.0208717
13 4 100 13 0.00120863
1 5 100 13 0.0123263
2 5 100 13 0.0361138
3 5 100 13 0.0706206
4 5 100 13 0.128176
5 5 100 13 0.182898
6 5 100 13 0.163099
7 5 100 13 0.119831
8 5 100 13 0.0931925
9 5 100 13 0.0682942
10 5 100 13 0.0407996
11 5 100 13 0.0338683
12 5 100 13 0.0421007
13 5 100 13 0.00867935
1 6 100 13 0.0162108
2 6 100 13 0.026188
3 6 100 13 0.029932
4 6 100 13 0.0630585
5 6 100 13 0.135552
6 6 100 13 0.178314
7 6 100 13 0.141901
8 6 100 13 0.123151
9 6 100 13 0.0916638
10 6 100 13 0.0716054
11 6 100 13 0.0651946
12 6 100 13 0.0459204
13 6 100 13 0.0113089
1 7 100 13 0.0062991
2 7 100 13 0.021741
3 7 100 13 0.0280418
4 7 100 13 0.0396935
5 7 100 13 0.0615472
6 7 100 13 0.109346
7 7 100 13 0.148507
8 7 100 13 0.155648
9 7 100 13 0.130726
10 7 100 13 0.109911
11 7 100 13 0.0902097
12 7 100 13 0.0757858
13 7 100 13 0.0225437
1 8 100 13 0.00323722
2 8 100 13 0.0105821
3 8 100 13 0.0235661
4 8 100 13 0.0372019
5 8 100 13 0.0220053
6 8 100 13 0.0562286
7 8 100 13 0.106544
8 8 100 13 0.142053
9 8 100 13 0.177263
10 8 100 13 0.128222
11 8 100 13 0.136848
12 8 100 13 0.116324
13 8 100 13 0.0399236
1 9 100 13 0.00285849
2 9 100 13 0.0128861
3 9 100 13 0.0172692
4 9 100 13 0.0126776
5 9 100 13 0.0278048
6 9 100 13 0.025767
7 9 100 13 0.0729998
8 9 100 13 0.117274
9 9 100 13 0.156895
10 9 100 13 0.16216
11 9 100 13 0.160731
12 9 100 13 0.141495
13 9 100 13 0.0891833
1 10 100 13 0.00704433
2 10 100 13 0.00752826
3 10 100 13 0.00778773
4 10 100 13 0.00953691
5 10 100 13 0.00606033
6 10 100 13 0.0427221
7 10 100 13 0.036449
8 10 100 13 0.0755247
9 10 100 13 0.120151
10 10 100 13 0.164797
11 10 100 13 0.178471
12 10 100 13 0.231604
13 10 100 13 0.112324
1 11 100 13 0.00244338
2 11 100 13 0.011004
3 11 100 13 0.0130626
4 11 100 13 0.000851819
5 11 100 13 0.0205576
6 11 100 13 0.016032
7 11 100 13 0.0433184
8 11 100 13 0.0584669
9 11 100 13 0.0849408
10 11 100 13 0.157976
11 11 100 13 0.186981
12 11 100 13 0.236446
13 11 100 13 0.16792
1 12 100 13 7.96754e-06
2 12 100 13 0.0133228
3 12 100 13 0.0233074
4 12 100 13 0.0287468
5 12 100 13 0.00845225
6 12 100 13 0.0295224
7 12 100 13 0.013753
8 12 100 13 0.0448798
9 12 100 13 0.0737075
10 12 100 13 0.108171
11 12 100 13 0.191628
12 12 100 13 0.239682
13 12 100 13 0.224819
1 13 100 13 0.00459495
2 13 100 13 1.1838e-06
3 13 100 13 0.0133726
4 13 100 13 0.0043035
5 13 100 13 0.008826
6 13 100 13 0.00855843
7 13 100 13 0.0129903
8 13 100 13 0.0260851
9 13 100 13 0.0329787
10 13 100 13 0.0938425
11 13 100 13 0.14365
12 13 100 13 0.339571
13 13 100 13 0.311225
1 14 100 13 0.0126921
2 14 100 13 0.0218635
3 14 100 13 0.0272133
4 14 100 13 0.0327182
5 14 100 13 0.0110896
6 14 100 13 0.0308284
7 14 100 13 0.0272634
8 14 100 13 0.0478919
9 14 100 13 0.0446534
10 14 100 13 0.0923683
11 14 100 13 0.138184
12 14 100 13 0.219196
13 14 100 13 0.294038
1 15 100 13 0.0157803
2 15 100 13 0.0164163
3 15 100 13 0.010435
4 15 100 13 0.00107858
5 15 100 13 0.000151817
6 15 100 13 0.000813088
7 15 100 13 0.0310739
8 15 100 13 0.0191713
9 15 100 13 0.0515148
10 15 100 13 0.038423
11 15 100 13 0.149841
12 15 100 13 0.266366
13 15 100 13 0.398935
1 16 100 13 0.000116314
2 16 100 13 0.0204135
3 16 100 13 7.77142e-05
4 16 100 13 0.000676691
5 16 100 13 5.40781e-06
6 16 100 13 8.79862e-05
7 16 100 13 1.68843e-05
8 16 100 13 0.0378128
9 16 100 13 0.0783518
10 16 100 13 0.0259922
11 16 100 13 0.0867443
12 16 100 13 0.270178
13 16 100 13 0.479526
1 17 100 13 0.000107127
2 17 100 13 2.51204e-07
3 17 100 13 0.0137271
4 17 100 13 2.02162e-07
5 17 100 13 3.5522e-06
6 17 100 13 0.00588814
7 17 100 13 0.0158206
8 17 100 13 0.00372256
9 17 100 13 0.0671375
10 17 100 13 0.15859
11 17 100 13 0.0919341
12 17 100 13 0.15311
13 17 100 13 0.489959
1 18 100 13 0.00147523
2 18 100 13 4.46814e-05
3 18 100 13 0.000224936
4 18 100 13 1.99397e-06
5 18 100 13 5.59755e-06
6 18 100 13 5.18491e-06
7 18 100 13 0.000131874
8 18 100 13 0.00147526
9 18 100 13 0.0795071
10 18 100 13 0.209495
11 18 100 13 0.118092
12 18 100 13 0.188049
13 18 100 13 0.401492
1 19 100 13 0.0471925
2 19 100 13 0.0497874
3 19 100 13 0.000292124
4 19 100 13 0.0497462
5 19 100 13 0.052982
6 19 100 13 0.0498168
7 19 100 13 0.000222174
8 19 100 13 0.0493693
9 19 100 13 0.000321892
10 19 100 13 0.0497873
11 19 100 13 0.0962255
12 19 100 13 0.298585
13 19 100 13 0.255672
1 20 100 13 8.03861e-05
2 20 100 13 3.58697e-05
3 20 100 13 7.05818e-07
4 20 100 13 2.46175e-05
5 20 100 13 3.14673e-07
7 20 100 13 1.20972e-05
8 20 100 13 3.28898e-07
9 20 100 13 4.26272e-05
10 20 100 13 2.31348e-07
11 20 100 13 0.00307283
12 20 100 13 0.179827
13 20 100 13 0.816903
3 21 100 13 0.000467078
9 21 100 13 0.0200301
11 21 100 13 4.04644e-06
12 21 100 13 0.00524069
13 21 100 13 0.974258
1 22 100 13 3.93315e-05
9 22 100 13 3.83791e-06
11 22 100 13 3.85134e-06
12 22 100 13 2.95659e-05
13 22 100 13 0.999923
13 23 100 13 1
1 0 100 14 0.107284
2 0 100 14 0.0370961
3 0 100 14 0.0598024
4 0 100 14 0.0643545
5 0 100 14 0.0762909
6 0 100 14 0.0787105
7 0 100 14 0.0718628
8 0 100 14 0.0691421
9 0 100 14 0.0769733
10 0 100 14 0.089222
11 0 100 14 0.0696753
12 0 100 14 0.0484185
13 0 100 14 0.0102934
14 0 100 14 0.140874
1 1 100 14 0.499586
2 1 100 14 0.203279
3 1 100 14 0.0692768
4 1 100 14 0.0393845
5 1 100 14 0.0224849
6 1 100 14 0.0221635
7 1 100 14 0.0207895
8 1 100 14 0.0182147
9 1 100 14 0.0251444
10 1 100 14 0.0201361
11 1 100 14 0.0238891
12 1 100 14 0.0201398
13 1 100 14 0.0123907
14 1 100 14 0.00312051
1 2 100 14 0.0879176
2 2 100 14 0.378579
3 2 100 14 0.205768
4 2 100 14 0.101039
5 2 100 14 0.0581731
6 2 100 14 0.035402
7 2 100 14 0.0276747
8 2 100 14 0.0269583
9 2 100 14 0.0166028
10 2 100 14 0.0218682
11 2 100 14 0.016144
12 2 100 14 0.0163566
13 2 100 14 0.00649014
14 2 100 14 0.00102653
1 3 100 14 0.0269262
2 3 100 14 0.132603
3 3 100 14 0.295644
4 3 100 14 0.175898
5 3 100 14 0.104393
6 3 100 14 0.0650814
7 3 100 14 0.052526
8 3 100 14 0.0315833
9 3 100 14 0.024404
10 3 100 14 0.0270499
11 3 100 14 0.0212803
12 3 100 14 0.0272
13 3 100 14 0.0139272
14 3 100 14 0.00148303
1 4 100 14 0.0143107
2 4 100 14 0.0528787
3 4 100 14 0.0990724
4 4 100 14 0.252409
5 4 100 14 0.173263
6 4 100 14 0.115331
7 4 100 14 0.078716
8 4 100 14 0.0547021
9 4 100 14 0.0448868
10 4 100 14 0.0282944
11 4 100 14 0.037627
12 4 100 14 0.0212124
13 4 100 14 0.0270863
14 4 100 14 0.000210412
1 5 100 14 0.00722308
2 5 100 14 0.0388787
3 5 100 14 0.0698076
4 5 100 14 0.131799
5 5 100 14 0.202152
6 5 100 14 0.170016
7 5 100 14 0.111452
8 5 100 14 0.0883638
9 5 100 14 0.0481698
10 5 100 14 0.0443242
11 5 100 14 0.0308095
12 5 100 14 0.0298034
13 5 100 14 0.0172779
14 5 100 14 0.00992293
1 6 100 14 0.0115704
2 6 100 14 0.0222885
3 6 100 14 0.0438052
4 6 100 14 0.0723422
5 6 100 14 0.111075
6 6 100 14 0.174625
7 6 100 14 0.16412
8 6 100 14 0.130825
9 6 100 14 0.0739826
10 6 100 14 0.0555927
11 6 100 14 0.0480187
12 6 100 14 0.0403562
13 6 100 14 0.0442728
14 6 100 14 0.00712635
1 7 100 14 0.0127075
2 7 100 14 0.0154901
3 7 100 14 0.0298336
4 7 100 14 0.0387701
5 7 100 14 0.0838044
6 7 100 14 0.116616
7 7 100 14 0.171071
8 7 100 14 0.152991
9 7 100 14 0.124287
10 7 100 14 0.0746279
11 7 100 14 0.0536674
12 7 100 14 0.0522622
13 7 100 14 0.0554786
14 7 100 14 0.0183922
1 8 100 14 0.00541196
2 8 100 14 0.0168803
3 8 100 14 0.0253957
4 8 100 14 0.0304216
5 8 100 14 0.043162
6 8 100 14 0.068817
7 8 100 14 0.124095
8 8 100 14 0.155037
9 8 100 14 0.146373
10 8 100 14 0.112936
11 8 100 14 0.0926473
12 8 100 14 0.0861879
13 8 100 14 0.0643853
14 8 100 14 0.0282505
1 9 100 14 0.00598282
2 9 100 14 0.0171132
3 9 100 14 0.0174224
4 9 100 14 0.0205176
5 9 100 14 0.0277233
6 9 100 14 0.0504171
7 9 100 14 0.0608341
8 9 100 14 0.115744
9 9 100 14 0.159546
10 9 100 14 0.141198
11 9 100 14 0.122173
12 9 100 14 0.0981204
13 9 100 14 0.116851
14 9 100 14 0.0463579
1 10 100 14 0.00385873
2 10 100 14 0.0034438
3 10 100 14 0.0215896
4 10 100 14 0.0257798
5 10 100 14 0.0257284
6 10 100 14 0.0278029
7 10 100 14 0.040315
8 10 100 14 0.0645678
9 10 100 14 0.107477
10 10 100 14 0.162073
11 10 100 14 0.151062
12 10 100 14 0.164952
13 10 100 14 0.13083
14 10 100 14 0.0705207
1 11 100 14 0.00394554
2 11 100 14 0.0131782
3 11 100 14 0.0120097
4 11 100 14 0.0229579
5 11 100 14 0.0155624
6 11 100 14 0.0173917
7 11 100 14 0.0286487
8 11 100 14 0.0556752
9 11 100 14 0.0751037
10 11 100 14 0.124867
11 11 100 14 0.183122
12 11 100 14 0.190567
13 11 100 14 0.14299
14 11 100 14 0.113981
1 12 100 14 0.00541102
2 12 100 14 0.00904157
3 12 100 14 0.00929532
4 12 100 14 0.00629726
5 12 100 14 0.0255665
6 12 100 14 0.0212529
7 12 100 14 0.0231439
8 12 100 14 0.0275035
9 12 100 14 0.0633
10 12 100 14 0.0833092
11 12 100 14 0.136325
12 12 100 14 0.179357
13 12 100 14 0.270284
14 12 100 14 0.139912
1 13 100 14 3.52474e-05
2 13 100 14 0.0103853
3 13 100 14 0.0103969
4 13 100 14 0.00692473
5 13 100 14 0.0140654
6 13 100 14 0.0258373
7 13 100 14 0.0130351
8 13 100 14 0.0265256
9 13 100 14 0.0308612
10 13 100 14 0.0611207
11 13 100 14 0.115032
12 13 100 14 0.172802
13 13 100 14 0.273039
14 13 100 14 0.23994
1 14 100 14 1.9528e-05
2 14 100 14 0.00872992
3 14 100 14 2.918e-07
4 14 100 14 0.00437953
5 14 100 14 0.00918821
6 14 100 14 0.00893607
7 14 100 14 0.0175405
8 14 100 14 0.0262271
9 14 100 14 0.0602839
10 14 100 14 0.0479287
11 14 100 14 0.0992446
12 14 100 14 0.157619
13 14 100 14 0.267662
14 14 100 14 0.292241
1 15 100 14 6.38989e-07
2 15 100 14 1.49664e-05
3 15 100 14 0.00684254
4 15 100 14 0.00796711
5 15 100 14 0.0130066
6 15 100 14 0.0137308
7 15 100 14 0.0136536
8 15 100 14 0.00688775
9 15 100 14 0.0399859
10 15 100 14 0.0600172
11 15 100 14 0.0854534
12 15 100 14 0.124475
13 15 100 14 0.265859
14 15 100 14 0.362106
1 16 100 14 0.0111553
2 16 100 14 0.0102004
3 16 100 14 0.00511217
4 16 100 14 0.0382219
5 16 100 14 0.0230204
6 16 100 14 0.00107542
7 16 100 14 0.0207926
8 16 100 14 7.26876e-05
9 16 100 14 0.0334887
10 16 100 14 0.0312713
11 16 100 14 0.106151
12 16 100 14 0.103059
13 16 100 14 0.262304
14 16 100 14 0.354075
1 17 100 14 3.55837e-05
2 17 100 14 0.0329438
3 17 100 14 0.0316636
4 17 100 14 1.48026e-05
5 17 100 14 0.000139078
6 17 100 14 0.000406086
7 17 100 14 0.0110066
8 17 100 14 0.0156094
9 17 100 14 0.000265209
10 17 100 14 0.0157672
11 17 100 14 0.083081
12 17 100 14 0.193299
13 17 100 14 0.198025
14 17 100 14 0.417744
1 18 100 14 4.70047e-05
2 18 100 14 5.13496e-07
3 18 100 14 0.0311342
4 18 100 14 0.0596575
5 18 100 14 0.0296634
6 18 100 14 3.18829e-05
7 18 100 14 0.000219322
8 18 100 14 2.09385e-06
9 18 100 14 0.0305318
10 18 100 14 2.16165e-05
11 18 100 14 0.00706795
12 18 100 14 0.10732
13 18 100 14 0.26777
14 18 100 14 0.466533
1 19 100 14 2.45068e-06
2 19 100 14 1.87603e-07
3 19 100 14 1.53521e-06
4 19 100 14 2.73382e-05
5 19 100 14 0.0542327
6 19 100 14 0.000528131
7 19 100 14 4.20438e-06
8 19 100 14 0.00019585
9 19 100 14 1.82126e-06
10 19 100 14 0.00547952
11 19 100 14 1.18207e-06
12 19 100 14 2.46342e-05
13 19 100 14 0.215969
14 19 100 14 0.723531
1 20 100 14 0.00153043
2 20 100 14 2.0585e-07
3 20 100 14 1.9526e-05
4 20 100 14 0.000519192
5 20 100 14 7.34213e-06
6 20 100 14 5.30874e-07
8 20 100 14 0.0026903
9 20 100 14 0.0845199
10 20 100 14 0.0860699
11 20 100 14 0.252849
12 20 100 14 0.187279
13 20 100 14 0.000740528
14 20 100 14 0.383774
1 21 100 14 1.17373e-05
2 21 100 14 0.000125029
4 21 100 14 3.20319e-07
5 21 100 14 2.73805e-06
6 21 100 14 8.62186e-05
7 21 100 14 1.55155e-06
10 21 100 14 2.49045e-07
12 21 100 14 0.0051344
13 21 100 14 0.692419
14 21 100 14 0.302219
3 22 100 14 6.42436e-07
14 22 100 14 0.999999
1 23 100 14 2.40491e-06
9 23 100 14 1.3217e-06
10 23 100 14 0.000159046
13 23 100 14 0.00175214
14 23 100 14 0.998085
14 24 100 14 1
1 0 100 15 0.105839
2 0 100 15 0.0422927
3 0 100 15 0.0639325
4 0 100 15 0.0660591
5 0 100 15 0.0736888
6 0 100 15 0.057596
7 0 100 15 0.066985
8 0 100 15 0.0690469
9 0 100 15 0.0720434
10 0 100 15 0.0743528
11 0 100 15 0.06264
12 0 100 15 0.0679254
13 0 100 15 0.0436317
14 0 100 15 0.0121799
15 0 100 15 0.121787
1 1 100 15 0.483031
2 1 100 15 0.229456
3 1 100 15 0.0813467
4 1 100 15 0.0406813
5 1 100 15 0.0217228
6 1 100 15 0.0222127
7 1 100 15 0.0140453
8 1 100 15 0.0182521
9 1 100 15 0.0201822
10 1 100 15 0.0166029
11 1 100 15 0.0156356
12 1 100 15 0.0176652
13 1 100 15 0.0134194
14 1 100 15 0.00316276
15 1 100 15 0.00258384
1 2 100 15 0.0919997
2 2 100 15 0.392512
3 2 100 15 0.215954
4 2 100 15 0.111862
5 2 100 15 0.0654711
6 2 100 15 0.0330269
7 2 100 15 0.0119584
8 2 100 15 0.0190685
9 2 100 15 0.0156291
10 2 100 15 0.0101912
11 2 100 15 0.0124593
12 2 100 15 0.00978793
13 2 100 15 0.00709292
14 2 100 15 2.67475e-05
15 2 100 15 0.00296007
1 3 100 15 0.0294733
2 3 100 15 0.130559
3 3 100 15 0.250408
4 3 100 15 0.198144
5 3 100 15 0.127431
6 3 100 15 0.0928568
7 3 100 15 0.048236
8 3 100 15 0.0232176
9 3 100 15 0.0195855
10 3 100 15 0.0185989
11 3 100 15 0.016426
12 3 100 15 0.0172008
13 3 100 15 0.0139598
14 3 100 15 0.0137329
15 3 100 15 0.00016968
1 4 100 15 0.0185962
2 4 100 15 0.0630205
3 4 100 15 0.143361
4 4 100 15 0.210812
5 4 100 15 0.190411
6 4 100 15 0.114208
7 4 100 15 0.0917969
8 4 100 15 0.0518303
9 4 100 15 0.033579
10 4 100 15 0.0207502
11 4 100 15 0.0207905
12 4 100 15 0.0155705
13 4 100 15 0.0120094
14 4 100 15 0.0092769
15 4 100 15 0.00398743
1 5 100 15 0.00681772
2 5 100 15 0.0222459
3 5 100 15 0.0569969
4 5 100 15 0.124623
5 5 100 15 0.169139
6 5 100 15 0.190008
7 5 100 15 0.131276
8 5 100 15 0.0915243
9 5 100 15 0.0718527
10 5 100 15 0.0477724
11 5 100 15 0.030238
12 5 100 15 0.021381
13 5 100 15 0.0193502
14 5 100 15 0.0144801
15 5 100 15 0.0022952
1 6 100 15 0.00544546
2 6 100 15 0.0166238
3 6 100 15 0.0292846
4 6 100 15 0.0547831
5 6 100 15 0.104987
6 6 100 15 0.164979
7 6 100 15 0.171449
8 6 100 15 0.119345
9 6 100 15 0.0943723
10 6 100 15 0.0789086
11 6 100 15 0.0539359
12 6 100 15 0.0384714
13 6 100 15 0.0387874
14 6 100 15 0.0253026
15 6 100 15 0.00332509
1 7 100 15 0.001864
2 7 100 15 0.00803495
3 7 100 15 0.0235781
4 7 100 15 0.0425649
5 7 100 15 0.0552132
6 7 100 15 0.104025
7 7 100 15 0.14838
8 7 100 15 0.157097
9 7 100 15 0.122023
10 7 100 15 0.0956668
11 7 100 15 0.0870828
12 7 100 15 0.0508685
13 7 100 15 0.0569824
14 7 100 15 0.0401282
15 7 100 15 0.00649236
1 8 100 15 0.00901484
2 8 100 15 0.0101002
3 8 100 15 0.0165844
4 8 100 15 0.0256583
5 8 100 15 0.0329465
6 8 100 15 0.0561065
7 8 100 15 0.117959
8 8 100 15 0.141755
9 8 100 15 0.138471
10 8 100 15 0.110571
11 8 100 15 0.0930244
12 8 100 15 0.0881995
13 8 100 15 0.0895819
14 8 100 15 0.0496454
15 8 100 15 0.0203822
1 9 100 15 0.000300757
2 9 100 15 0.0165398
3 9 100 15 0.0165576
4 9 100 15 0.0152
5 9 100 15 0.0214915
6 9 100 15 0.0441977
7 9 100 15 0.0565109
8 9 100 15 0.11407
9 9 100 15 0.141332
10 9 100 15 0.138545
11 9 100 15 0.109634
12 9 100 15 0.100352
13 9 100 15 0.0975083
14 9 100 15 0.0987631
15 9 100 15 0.0289982
1 10 100 15 0.00715067
2 10 100 15 0.0114643
3 10 100 15 0.0112853
4 10 100 15 0.0271023
5 10 100 15 0.0188296
6 10 100 15 0.0318793
7 10 100 15 0.0358521
8 10 100 15 0.0708553
9 10 100 15 0.0973148
10 10 100 15 0.133363
11 10 100 15 0.142733
12 10 100 15 0.111396
13 10 100 15 0.117615
14 10 100 15 0.123998
15 10 100 15 0.0591614
1 11 100 15 0.00304776
2 11 100 15 0.00497885
3 11 100 15 0.0147579
4 11 100 15 0.015829
5 11 100 15 0.0202299
6 11 100 15 0.0207646
7 11 100 15 0.0302453
8 11 100 15 0.0358514
9 11 100 15 0.0715813
10 11 100 15 0.106147
11 11 100 15 0.155395
12 11 100 15 0.150108
13 11 100 15 0.135385
14 11 100 15 0.140577
15 11 100 15 0.0951025
1 12 100 15 0.00196409
2 12 100 15 0.00577125
3 12 100 15 0.0125709
4 12 100 15 0.00397005
5 12 100 15 0.0184887
6 12 100 15 0.0134989
7 12 100 15 0.0129255
8 12 100 15 0.0362062
9 12 100 15 0.0401948
10 12 100 15 0.0801288
11 12 100 15 0.129921
12 12 100 15 0.178384
13 12 100 15 0.172724
14 12 100 15 0.195139
15 12 100 15 0.0981127
1 13 100 15 0.00475219
2 13 100 15 0.00246633
3 13 100 15 0.0120124
4 13 100 15 0.012207
5 13 100 15 0.0120953
6 13 100 15 0.0193056
7 13 100 15 0.00940279
8 13 100 15 0.0168286
9 13 100 15 0.0350612
10 13 100 15 0.0628624
11 13 100 15 0.0676566
12 13 100 15 0.147656
13 13 100 15 0.187307
14 13 100 15 0.227638
15 13 100 15 0.182749
1 14 100 15 0.000104381
2 14 100 15 0.00539363
3 14 100 15 0.0142571
4 14 100 15 0.00867743
5 14 100 15 0.0217917
6 14 100 15 0.0140846
7 14 100 15 0.0220927
8 14 100 15 0.0135513
9 14 100 15 0.0256536
10 14 100 15 0.0248154
11 14 100 15 0.082977
12 14 100 15 0.0777513
13 14 100 15 0.184179
14 14 100 15 0.301055
15 14 100 15 0.203616
1 15 100 15 0.0039703
2 15 100 15 0.0158249
3 15 100 15 0.00809129
4 15 100 15 0.0160696
5 15 100 15 0.011892
6 15 100 15 0.0237626
7 15 100 15 0.0237555
8 15 100 15 0.0117873
9 15 100 15 0.00785017
10 15 100 15 0.0312675
11 15 100 15 0.0692185
12 15 100 15 0.124667
13 15 100 15 0.110896
14 15 100 15 0.194446
15 15 100 15 0.346501
1 16 100 15 0.00014857
2 16 100 15 0.00623333
3 16 100 15 0.0248893
4 16 100 15 0.0185921
5 16 100 15 0.0372746
6 16 100 15 0.00674263
7 16 100 15 0.0221936
8 16 100 15 0.032046
9 16 100 15 0.0306401
10 16 100 15 0.0449679
11 16 100 15 0.0486053
12 16 100 15 0.0853688
13 16 100 15 0.129448
14 16 100 15 0.236748
15 16 100 15 0.276101
1 17 100 15 9.90734e-05
2 17 100 15 0.00874919
3 17 100 15 0.000138399
4 17 100 15 0.0205371
5 17 100 15 0.0397668
6 17 100 15 0.0207828
7 17 100 15 0.018607
8 17 100 15 0.0499194
9 17 100 15 0.042355
10 17 100 15 0.0300063
11 17 100 15 0.0708217
12 17 100 15 0.0628102
13 17 100 15 0.111125
14 17 100 15 0.201875
15 17 100 15 0.322407
1 18 100 15 0.00210946
2 18 100 15 0.0108458
3 18 100 15 7.79527e-06
4 18 100 15 3.19383e-05
5 18 100 15 0.00166464
6 18 100 15 0.0248038
7 18 100 15 0.0167194
8 18 100 15 0.00455788
9 18 100 15 0.0400997
10 18 100 15 0.036747
11 18 100 15 0.0367934
12 18 100 15 0.0807925
13 18 100 15 0.123
14 18 100 15 0.193712
15 18 100 15 0.428115
1 19 100 15 0.000119686
2 19 100 15 0.0111362
3 19 100 15 2.41142e-05
4 19 100 15 1.04513e-06
5 19 100 15 0.000111273
6 19 100 15 0.0203326
7 19 100 15 0.0216823
8 19 100 15 0.0143599
9 19 100 15 0.0449288
10 19 100 15 0.0988789
11 19 100 15 0.080732
12 19 100 15 0.049996
13 19 100 15 0.0651805
14 19 100 15 0.209822
15 19 100 15 0.382695
1 20 100 15 0.000572757
3 20 100 15 0.000370787
4 20 100 15 0.000156175
5 20 100 15 0.000315074
6 20 100 15 2.30173e-06
7 20 100 15 8.14073e-06
8 20 100 15 0.000909946
9 20 100 15 0.000698636
10 20 100 15 0.0108158
11 20 100 15 0.199479
12 20 100 15 0.133231
13 20 100 15 0.130746
14 20 100 15 0.132314
15 20 100 15 0.390381
1 21 100 15 0.000183144
2 21 100 15 0.0642372
3 21 100 15 0.0640745
4 21 100 15 0.0636715
5 21 100 15 0.0654035
6 21 100 15 0.0629273
7 21 100 15 0.000379827
8 21 100 15 6.03501e-06
9 21 100 15 0.0474361
10 21 100 15 0.134774
11 21 100 15 0.0647414
12 21 100 15 0.134334
13 21 100 15 0.0651716
14 21 100 15 0.197693
15 21 100 15 0.0349673
1 22 100 15 0.000164914
3 22 100 15 5.83333e-06
7 22 100 15 3.82856e-07
8 22 100 15 2.39199e-06
9 22 100 15 5.97562e-07
10 22 100 15 0.000517109
11 22 100 15 0.00855298
12 22 100 15 7.2187e-06
13 22 100 15 0.176992
14 22 100 15 0.0623847
15 22 100 15 0.751372
1 23 100 15 2.43373e-05
3 23 100 15 3.51203e-07
7 23 100 15 5.56324e-05
8 23 100 15 5.49677e-07
10 23 100 15 6.10855e-07
13 23 100 15 0.0019548
14 23 100 15 0.58068
15 23 100 15 0.417284
3 24 100 15 1.62687e-06
11 24 100 15 0.073732
14 24 100 15 0.443848
15 24 100 15 0.482419
14 25 100 15 1.60823e-06
15 25 100 15 0.999998
1 0 100 16 0.107742
2 0 100 16 0.0403864
3 0 100 16 0.0568796
4 0 100 16 0.0527994
5 0 100 16 0.0669317
6 0 100 16 0.0681246
7 0 100 16 0.0635762
8 0 100 16 0.0657719
9 0 100 16 0.0620922
10 0 100 16 0.0574811
11 0 100 16 0.0688993
12 0 100 16 0.0558895
13 0 100 16 0.0604394
14 0 100 16 0.0398275
15 0 100 16 0.00916796
16 0 100 16 0.123992
1 1 100 16 0.495828
2 1 100 16 0.255029
3 1 100 16 0.0777854
4 1 100 16 0.0455018
5 1 100 16 0.0269738
6 1 100 16 0.0262382
7 1 100 16 0.0164135
8 1 100 16 0.0142917
9 1 100 16 0.0129041
10 1 100 16 0.00866263
11 1 100 16 0.00609735
12 1 100 16 0.00356871
13 1 100 16 0.00359957
14 1 100 16 0.0053496
15 1 100 16 5.76009e-06
16 1 100 16 0.00175058
1 2 100 16 0.0803128
2 2 100 16 0.342918
3 2 100 16 0.212432
4 2 100 16 0.11957
5 2 100 16 0.0767302
6 2 100 16 0.0327037
7 2 100 16 0.0272225
8 2 100 16 0.019817
9 2 100 16 0.0189042
10 2 100 16 0.0136346
11 2 100 16 0.0135883
12 2 100 16 0.0147352
13 2 100 16 0.0137311
14 2 100 16 0.00500762
15 2 100 16 0.00749783
16 2 100 16 0.00119468
1 3 100 16 0.0300345
2 3 100 16 0.133881
3 3 100 16 0.262078
4 3 100 16 0.216592
5 3 100 16 0.10739
6 3 100 16 0.069923
7 3 100 16 0.0458087
8 3 100 16 0.0304233
9 3 100 16 0.0277148
10 3 100 16 0.0186751
11 3 100 16 0.0128831
12 3 100 16 0.0128214
13 3 100 16 0.0116667
14 3 100 16 0.0129262
15 3 100 16 0.00715593
16 3 100 16 2.61408e-05
1 4 100 16 0.0131973
2 4 100 16 0.0454404
3 4 100 16 0.140074
4 4 100 16 0.211023
5 4 100 16 0.191604
6 4 100 16 0.108938
7 4 100 16 0.07898
8 4 100 16 0.0606271
9 4 100 16 0.0376604
10 4 100 16 0.0285384
11 4 100 16 0.0210268
12 4 100 16 0.0161632
13 4 100 16 0.0152065
14 4 100 16 0.0166686
15 4 100 16 0.0138486
16 4 100 16 0.00100431
1 5 100 16 0.00865129
2 5 100 16 0.017442
3 5 100 16 0.0492491
4 5 100 16 0.126765
5 5 100 16 0.186732
6 5 100 16 0.187096
7 5 100 16 0.11913
8 5 100 16 0.0863253
9 5 100 16 0.0747391
10 5 100 16 0.0358957
11 5 100 16 0.0313692
12 5 100 16 0.0216703
13 5 100 16 0.0220351
14 5 100 16 0.0202458
15 5 100 16 0.0108116
16 5 100 16 0.00184294
1 6 100 16 0.00936084
2 6 100 16 0.0154636
3 6 100 16 0.0316767
4 6 100 16 0.051243
5 6 100 16 0.0933337
6 6 100 16 0.174385
7 6 100 16 0.191369
8 6 100 16 0.12058
9 6 100 16 0.0975786
10 6 100 16 0.0661691
11 6 100 16 0.0409181
12 6 100 16 0.0365161
13 6 100 16 0.0251684
14 6 100 16 0.0236199
15 6 100 16 0.0172195
16 6 100 16 0.00539819
1 7 100 16 0.006109
2 7 100 16 0.0123678
3 7 100 16 0.0173019
4 7 100 16 0.0411913
5 7 100 16 0.0515888
6 7 100 16 0.109965
7 7 100 16 0.136972
8 7 100 16 0.166231
9 7 100 16 0.092678
10 7 100 16 0.099692
11 7 100 16 0.0825773
12 7 100 16 0.0646242
13 7 100 16 0.0428509
14 7 100 16 0.041861
15 7 100 16 0.0290583
16 7 100 16 0.00493252
1 8 100 16 0.00271864
2 8 100 16 0.00542062
3 8 100 16 0.0126464
4 8 100 16 0.0208241
5 8 100 16 0.0388008
6 8 100 16 0.0494175
7 8 100 16 0.133754
8 8 100 16 0.142927
9 8 100 16 0.155024
10 8 100 16 0.103717
11 8 100 16 0.0978524
12 8 100 16 0.07408
13 8 100 16 0.0551142
14 8 100 16 0.057981
15 8 100 16 0.0405835
16 8 100 16 0.00913829
1 9 100 16 0.00343185
2 9 100 16 0.0160615
3 9 100 16 0.0195068
4 9 100 16 0.0193027
5 9 100 16 0.0352553
6 9 100 16 0.0472061
7 9 100 16 0.0628796
8 9 100 16 0.0944055
9 9 100 16 0.120452
10 9 100 16 0.168305
11 9 100 16 0.110515
12 9 100 16 0.080727
13 9 100 16 0.0904189
14 9 100 16 0.066981
15 9 100 16 0.0524385
16 9 100 16 0.0121132
1 10 100 16 0.00449958
2 10 100 16 0.00788089
3 10 100 16 0.00761835
4 10 100 16 0.0109603
5 10 100 16 0.0130308
6 10 100 16 0.0251376
7 10 100 16 0.0300456
8 10 100 16 0.0508787
9 10 100 16 0.105666
10 10 100 16 0.128981
11 10 100 16 0.150386
12 10 100 16 0.122973
13 10 100 16 0.0921549
14 10 100 16 0.119824
15 10 100 16 0.0978487
16 10 100 16 0.0321146
1 11 100 16 0.00374287
2 11 100 16 0.00976674
3 11 100 16 0.0163815
4 11 100 16 0.0179267
5 11 100 16 0.0179804
6 11 100 16 0.0115063
7 11 100 16 0.0226842
8 11 100 16 0.0341677
9 11 100 16 0.0674563
10 11 100 16 0.0962641
11 11 100 16 0.122084
12 11 100 16 0.17576
13 11 100 16 0.10375
14 11 100 16 0.117718
15 11 100 16 0.116578
16 11 100 16 0.0662322
1 12 100 16 0.00207968
2 12 100 16 0.0102592
3 12 100 16 0.0170146
4 12 100 16 0.0134593
5 12 100 16 0.0151234
6 12 100 16 0.0167133
7 12 100 16 0.0102937
8 12 100 16 0.0347591
9 12 100 16 0.056416
10 12 100 16 0.076403
11 12 100 16 0.0853485
12 12 100 16 0.149718
13 12 100 16 0.178297
14 12 100 16 0.117504
15 12 100 16 0.147864
16 12 100 16 0.0687476
1 13 100 16 0.00586854
2 13 100 16 0.0120402
3 13 100 16 0.0119914
4 13 100 16 0.0163396
5 13 100 16 0.0199298
6 13 100 16 0.0211424
7 13 100 16 0.00613832
8 13 100 16 0.0271913
9 13 100 16 0.0434292
10 13 100 16 0.0524421
11 13 100 16 0.0781316
12 13 100 16 0.102074
13 13 100 16 0.154119
14 13 100 16 0.182848
15 13 100 16 0.161691
16 13 100 16 0.104623
1 14 100 16 0.00243229
2 14 100 16 0.00265418
3 14 100 16 0.0158914
4 14 100 16 0.00792975
5 14 100 16 0.0101156
6 14 100 16 0.00541496
7 14 100 16 0.00461162
8 14 100 16 0.00556097
9 14 100 16 0.015767
10 14 100 16 0.0499673
11 14 100 16 0.0661706
12 14 100 16 0.0740018
13 14 100 16 0.155388
14 14 100 16 0.179899
15 14 100 16 0.25387
16 14 100 16 0.150326
1 15 100 16 8.68186e-05
2 15 100 16 3.89176e-07
3 15 100 16 0.00681419
4 15 100 16 0.0128142
5 15 100 16 0.0153771
6 15 100 16 0.00323529
7 15 100 16 0.00643156
8 15 100 16 0.00305244
9 15 100 16 0.00710574
10 15 100 16 0.0240046
11 15 100 16 0.0581396
12 15 100 16 0.0819034
13 15 100 16 0.0752254
14 15 100 16 0.172644
15 15 100 16 0.301548
16 15 100 16 0.231618
1 16 100 16 0.00424342
2 16 100 16 0.00467155
3 16 100 16 0.00938556
4 16 100 16 0.000131607
5 16 100 16 0.00929551
6 16 100 16 0.00178094
7 16 100 16 0.0101593
8 16 100 16 0.00923571
9 16 100 16 0.0118674
10 16 100 16 0.0324636
11 16 100 16 0.0308558
12 16 100 16 0.0720757
13 16 100 16 0.0932998
14 16 100 16 0.141082
15 16 100 16 0.272051
16 16 100 16 0.2974
1 17 100 16 0.00727901
2 17 100 16 0.0073713
3 17 100 16 0.00739587
4 17 100 16 0.0145623
5 17 100 16 0.00708509
6 17 100 16 0.0215972
7 17 100 16 7.65513e-06
8 17 100 16 0.0150857
9 17 100 16 0.00728197
10 17 100 16 0.00681589
11 17 100 16 0.0147675
12 17 100 16 0.0777373
13 17 100 16 0.144714
14 17 100 16 0.118141
15 17 100 16 0.20574
16 17 100 16 0.344419
1 18 100 16 5.03875e-05
2 18 100 16 5.50295e-06
3 18 100 16 0.000100077
4 18 100 16 0.000104661
5 18 100 16 6.46253e-05
6 18 100 16 1.86256e-05
7 18 100 16 1.27858e-05
8 18 100 16 3.94836e-05
9 18 100 16 4.07285e-05
10 18 100 16 0.0284427
11 18 100 16 0.0563222
12 18 100 16 0.0713453
13 18 100 16 0.106603
14 18 100 16 0.130599
15 18 100 16 0.211567
16 18 100 16 0.394684
1 19 100 16 1.56052e-05
2 19 100 16 3.36065e-07
3 19 100 16 0.00141859
4 19 100 16 0.0270911
5 19 100 16 0.0502098
6 19 100 16 0.0153295
7 19 100 16 0.014127
8 19 100 16 0.0813847
9 19 100 16 0.0497859
10 19 100 16 0.0413636
11 19 100 16 0.0273631
12 19 100 16 0.0669786
13 19 100 16 0.077238
14 19 100 16 0.146478
15 19 100 16 0.226626
16 19 100 16 0.17459
1 20 100 16 1.08735e-05
2 20 100 16 5.31915e-05
3 20 100 16 0.0151697
4 20 100 16 1.04742e-06
5 20 100 16 1.89214e-07
6 20 100 16 0.000147747
7 20 100 16 0.0243528
8 20 100 16 0.000545831
9 20 100 16 0.000115225
10 20 100 16 0.0240536
11 20 100 16 0.0100019
12 20 100 16 0.0479728
13 20 100 16 0.0286155
14 20 100 16 0.130391
15 20 100 16 0.207898
16 20 100 16 0.51067
1 21 100 16 5.52855e-05
2 21 100 16 8.10568e-07
3 21 100 16 7.45548e-07
4 21 100 16 4.49828e-07
5 21 100 16 0.0002071
6 21 100 16 8.30099e-05
7 21 100 16 0.0141765
8 21 100 16 0.00101549
9 21 100 16 0.00905928
10 21 100 16 0.00848271
11 21 100 16 0.0456369
12 21 100 16 0.00981075
13 21 100 16 1.69416e-05
14 21 100 16 0.00988983
15 21 100 16 0.141959
16 21 100 16 0.759605
1 22 100 16 1.47828e-05
2 22 100 16 4.79732e-07
4 22 100 16 4.99169e-05
6 22 100 16 0.000138017
7 22 100 16 0.000250698
8 22 100 16 1.80065e-06
9 22 100 16 0.00104467
11 22 100 16 7.64358e-07
12 22 100 16 0.00799262
13 22 100 16 0.00361556
14 22 100 16 0.123381
15 22 100 16 0.122016
16 22 100 16 0.741494
1 23 100 16 2.4559e-06
3 23 100 16 9.79037e-07
4 23 100 16 0.000183443
7 23 100 16 2.39498e-07
8 23 100 16 2.31798e-07
9 23 100 16 3.1039e-05
10 23 100 16 0.0814495
11 23 100 16 0.000120007
12 23 100 16 1.58002e-07
13 23 100 16 1.54505e-06
14 23 100 16 0.0260953
15 23 100 16 1.3118e-06
16 23 100 16 0.892114
1 24 100 16 0.00067829
6 24 100 16 6.7384e-05
10 24 100 16 0.0029935
11 24 100 16 0.353778
12 24 100 16 1.06099e-05
14 24 100 16 0.000402862
15 24 100 16 0.570711
16 24 100 16 0.071358
15 25 100 16 1.02648e-06
16 25 100 16 0.999999
16 26 100 16 1
1 0 100 17 0.0939784
2 0 100 17 0.0335938
3 0 100 17 0.0603679
4 0 100 17 0.0569696
5 0 100 17 0.064221
6 0 100 17 0.0569091
7 0 100 17 0.0646768
8 0 100 17 0.0690601
9 0 100 17 0.0601248
10 0 100 17 0.0561155
11 0 100 17 0.0563475
12 0 100 17 0.0536806
13 0 100 17 0.0592101
14 0 100 17 0.0508136
15 0 100 17 0.0398746
16 0 100 17 0.0101991
17 0 100 17 0.113858
1 1 100 17 0.442885
2 1 100 17 0.221671
3 1 100 17 0.0776264
4 1 100 17 0.0488023
5 1 100 17 0.0315564
6 1 100 17 0.030773
7 1 100 17 0.0222967
8 1 100 17 0.0272195
9 1 100 17 0.0208179
10 1 100 17 0.0131125
11 1 100 17 0.0133005
12 1 100 17 0.014111
13 1 100 17 0.0130197
14 1 100 17 0.00892206
15 1 100 17 0.00652263
16 1 100 17 0.00660995
17 1 100 17 0.000753304
1 2 100 17 0.0828886
2 2 100 17 0.364229
3 2 100 17 0.208558
4 2 100 17 0.123868
5 2 100 17 0.0647807
6 2 100 17 0.0309807
7 2 100 17 0.0194467
8 2 100 17 0.0155257
9 2 100 17 0.0137672
10 2 100 17 0.00785708
11 2 100 17 0.0153266
12 2 100 17 0.0114012
13 2 100 17 0.0140169
14 2 100 17 0.013914
15 2 100 17 0.0102654
16 2 100 17 0.00316019
17 2 100 17 1.38646e-05
1 3 100 17 0.0274078
2 3 100 17 0.122987
3 3 100 17 0.24741
4 3 100 17 0.185371
5 3 100 17 0.107391
6 3 100 17 0.0770692
7 3 100 17 0.054961
8 3 100 17 0.0364296
9 3 100 17 0.0289348
10 3 100 17 0.0238107
11 3 100 17 0.0212474
12 3 100 17 0.0139873
13 3 100 17 0.0125181
14 3 100 17 0.0179608
15 3 100 17 0.0114131
16 3 100 17 0.0110834
17 3 100 17 1.76102e-05
1 4 100 17 0.0176337
2 4 100 17 0.0479105
3 4 100 17 0.117137
4 4 100 17 0.224562
5 4 100 17 0.191249
6 4 100 17 0.121385
7 4 100 17 0.0823849
8 4 100 17 0.0398208
9 4 100 17 0.0269508
10 4 100 17 0.0174111
11 4 100 17 0.0112091
12 4 100 17 0.0311387
13 4 100 17 0.0203931
14 4 100 17 0.015415
15 4 100 17 0.0208395
16 4 100 17 0.0119302
17 4 100 17 0.00262978
1 5 100 17 0.00961238
2 5 100 17 0.032006
3 5 100 17 0.0528839
4 5 100 17 0.113846
5 5 100 17 0.183307
6 5 100 17 0.147316
7 5 100 17 0.127972
8 5 100 17 0.0676136
9 5 100 17 0.0594623
10 5 100 17 0.0456515
11 5 100 17 0.0426842
12 5 100 17 0.0208641
13 5 100 17 0.0277551
14 5 100 17 0.0252547
15 5 100 17 0.0247957
16 5 100 17 0.0174477
17 5 100 17 0.00152782
1 6 100 17 0.0102898
2 6 100 17 0.0306538
3 6 100 17 0.0365137
4 6 100 17 0.0476155
5 6 100 17 0.0832881
6 6 100 17 0.165408
7 6 100 17 0.139138
8 6 100 17 0.119307
9 6 100 17 0.0870187
10 6 100 17 0.0730364
11 6 100 17 0.0418755
12 6 100 17 0.0422991
13 6 100 17 0.023225
14 6 100 17 0.0361621
15 6 100 17 0.0398382
16 6 100 17 0.0218839
17 6 100 17 0.00244756
1 7 100 17 0.00738558
2 7 100 17 0.013588
3 7 100 17 0.013456
4 7 100 17 0.0286126
5 7 100 17 0.0505591
6 7 100 17 0.0905817
7 7 100 17 0.166793
8 7 100 17 0.163214
9 7 100 17 0.122649
10 7 100 17 0.095835
11 7 100 17 0.0800383
12 7 100 17 0.0442937
13 7 100 17 0.047781
14 7 100 17 0.0180048
15 7 100 17 0.0322176
16 7 100 17 0.0191086
17 7 100 17 0.00588182
1 8 100 17 0.00585798
2 8 100 17 0.0139746
3 8 100 17 0.0198844
4 8 100 17 0.0197501
5 8 100 17 0.0371291
6 8 100 17 0.078639
7 8 100 17 0.0721877
8 8 100 17 0.133492
9 8 100 17 0.155956
10 8 100 17 0.109941
11 8 100 17 0.0837888
12 8 100 17 0.081363
13 8 100 17 0.0510341
14 8 100 17 0.0505877
15 8 100 17 0.0356335
16 8 100 17 0.0393505
17 8 100 17 0.0114297
1 9 100 17 0.00570611
2 9 100 17 0.0125205
3 9 100 17 0.0133743
4 9 100 17 0.0158554
5 9 100 17 0.0201422
6 9 100 17 0.0325046
7 9 100 17 0.0529919
8 9 100 17 0.087752
9 9 100 17 0.122337
10 9 100 17 0.135008
11 9 100 17 0.122322
12 9 100 17 0.0924942
13 9 100 17 0.0864344
14 9 100 17 0.0710394
15 9 100 17 0.0679893
16 9 100 17 0.0497859
17 9 100 17 0.0117433
1 10 100 17 0.00360881
2 10 100 17 0.0136782
3 10 100 17 0.0147608
4 10 100 17 0.0208456
5 10 100 17 0.0209172
6 10 100 17 0.0157889
7 10 100 17 0.0297587
8 10 100 17 0.0638927
9 10 100 17 0.0883508
10 10 100 17 0.143135
11 10 100 17 0.114959
12 10 100 17 0.133259
13 10 100 17 0.098936
14 10 100 17 0.070906
15 10 100 17 0.0794044
16 10 100 17 0.0689933
17 10 100 17 0.0188047
1 11 100 17 0.00186052
2 11 100 17 0.00646768
3 11 100 17 0.0147636
4 11 100 17 0.00932686
5 11 100 17 0.00563709
6 11 100 17 0.0174687
7 11 100 17 0.0174307
8 11 100 17 0.0305663
9 11 100 17 0.0458603
10 11 100 17 0.104131
11 11 100 17 0.151037
12 11 100 17 0.142697
13 11 100 17 0.129491
14 11 100 17 0.102656
15 11 100 17 0.0916017
16 11 100 17 0.0942335
17 11 100 17 0.0347715
1 12 100 17 0.00557431
2 12 100 17 0.00742939
3 12 100 17 0.0092901
4 12 100 17 0.00946956
5 12 100 17 0.0218875
6 12 100 17 0.0156313
7 12 100 17 0.0241675
8 12 100 17 0.0196184
9 12 100 17 0.0434285
10 12 100 17 0.0530568
11 12 100 17 0.0970756
12 12 100 17 0.144435
13 12 100 17 0.124817
14 12 100 17 0.155484
15 12 100 17 0.0997941
16 12 100 17 0.0953323
17 12 100 17 0.073509
1 13 100 17 0.00553178
2 13 100 17 0.00771019
3 13 100 17 0.00820554
4 13 100 17 0.00779221
5 13 100 17 0.0115537
6 13 100 17 0.0236095
7 13 100 17 0.0192617
8 13 100 17 0.00823748
9 13 100 17 0.0265121
10 13 100 17 0.0597624
11 13 100 17 0.0680148
12 13 100 17 0.0923689
13 13 100 17 0.134033
14 13 100 17 0.134215
15 13 100 17 0.157042
16 13 100 17 0.16931
17 13 100 17 0.0668395
1 14 100 17 0.00228742
2 14 100 17 0.0113982
3 14 100 17 0.0141517
4 14 100 17 0.00681186
5 14 100 17 0.0136359
6 14 100 17 0.0100038
7 14 100 17 0.018546
8 14 100 17 0.0186167
9 14 100 17 0.0220802
10 14 100 17 0.0288104
11 14 100 17 0.0537962
12 14 100 17 0.0702625
13 14 100 17 0.108849
14 14 100 17 0.157502
15 14 100 17 0.167992
16 14 100 17 0.196383
17 14 100 17 0.0988739
1 15 100 17 0.00512445
2 15 100 17 0.0132091
3 15 100 17 0.0130385
4 15 100 17 0.0106032
5 15 100 17 0.00261631
6 15 100 17 0.00522726
7 15 100 17 0.00524638
8 15 100 17 0.0154184
9 15 100 17 0.0210232
10 15 100 17 0.0324785
11 15 100 17 0.04598
12 15 100 17 0.0385132
13 15 100 17 0.074596
14 15 100 17 0.124288
15 15 100 17 0.162534
16 15 100 17 0.249565
17 15 100 17 0.180538
1 16 100 17 1.19078e-05
2 16 100 17 0.00349738
3 16 100 17 0.0172884
4 16 100 17 0.0105853
5 16 100 17 0.0200186
6 16 100 17 0.0102852
7 16 100 17 0.0140875
8 16 100 17 0.0209733
9 16 100 17 0.0274451
10 16 100 17 0.0174078
11 16 100 17 0.0277584
12 16 100 17 0.0421119
13 16 100 17 0.0586136
14 16 100 17 0.11722
15 16 100 17 0.135355
16 16 100 17 0.241548
17 16 100 17 0.235793
1 17 100 17 2.753e-06
2 17 100 17 0.000166518
3 17 100 17 3.08207e-06
4 17 100 17 0.000435015
5 17 100 17 0.00578895
6 17 100 17 0.00574156
7 17 100 17 0.00722989
8 17 100 17 0.00653809
9 17 100 17 0.0404457
10 17 100 17 0.0233319
11 17 100 17 0.0407207
12 17 100 17 0.0666689
13 17 100 17 0.0576629
14 17 100 17 0.0635566
15 17 100 17 0.167448
16 17 100 17 0.202356
17 17 100 17 0.311903
1 18 100 17 5.2624e-07
2 18 100 17 1.06741e-05
3 18 100 17 5.61812e-05
4 18 100 17 7.42855e-07
5 18 100 17 0.00162828
6 18 100 17 0.000304432
7 18 100 17 0.00864412
8 18 100 17 5.78009e-07
9 18 100 17 0.00759369
10 18 100 17 0.033169
11 18 100 17 0.0393059
12 18 100 17 0.0409757
13 18 100 17 0.082565
14 18 100 17 0.108505
15 18 100 17 0.116461
16 18 100 17 0.267524
17 18 100 17 0.293255
1 19 100 17 0.00122594
2 19 100 17 0.0119508
3 19 100 17 0.00557731
4 19 100 17 0.0123144
5 19 100 17 0.00119704
6 19 100 17 0.0133513
7 19 100 17 0.00143358
8 19 100 17 0.0168986
9 19 100 17 0.0324198
10 19 100 17 0.0117316
11 19 100 17 0.0128176
12 19 100 17 0.0757287
13 19 100 17 0.0587646
14 19 100 17 0.0569026
15 19 100 17 0.0987444
16 19 100 17 0.162308
17 19 100 17 0.426634
1 20 100 17 5.62076e-06
2 20 100 17 0.00738528
3 20 100 17 0.0181977
4 20 100 17 0.0183843
5 20 100 17 6.69431e-05
6 20 100 17 1.45685e-07
7 20 100 17 4.004e-06
8 20 100 17 0.0183179
9 20 100 17 0.00581926
10 20 100 17 0.000419202
11 20 100 17 0.0188003
12 20 100 17 0.000917763
13 20 100 17 0.144629
14 20 100 17 0.103341
15 20 100 17 0.0942002
16 20 100 17 0.144766
17 20 100 17 0.424746
1 21 100 17 6.9911e-06
2 21 100 17 1.67437e-05
3 21 100 17 2.36035e-06
4 21 100 17 9.84863e-06
5 21 100 17 4.46449e-05
6 21 100 17 3.13375e-07
7 21 100 17 1.22598e-07
8 21 100 17 5.61298e-07
9 21 100 17 0.0375254
10 21 100 17 0.0518716
11 21 100 17 0.0373365
12 21 100 17 1.43926e-05
13 21 100 17 0.000100269
14 21 100 17 0.0467386
15 21 100 17 0.186233
16 21 100 17 0.271109
17 21 100 17 0.36899
1 22 100 17 8.08082e-07
2 22 100 17 0.0281854
3 22 100 17 0.00532146
4 22 100 17 0.0378284
5 22 100 17 3.83924e-06
6 22 100 17 0.0506815
7 22 100 17 7.48325e-07
8 22 100 17 1.2438e-06
9 22 100 17 0.000116511
10 22 100 17 4.203e-06
11 22 100 17 1.10896e-06
12 22 100 17 0.0484019
13 22 100 17 0.000107391
14 22 100 17 0.000357629
15 22 100 17 0.075842
16 22 100 17 0.248217
17 22 100 17 0.504929
1 23 100 17 7.6568e-06
2 23 100 17 0.102174
3 23 100 17 0.0692654
4 23 100 17 0.0695863
5 23 100 17 0.00736161
6 23 100 17 0.0695898
7 23 100 17 0.00719887
8 23 100 17 0.0695918
9 23 100 17 0.042864
10 23 100 17 0.000986939
11 23 100 17 4.69275e-07
12 23 100 17 6.07025e-05
13 23 100 17 0.069637
14 23 100 17 0.0703498
16 23 100 17 0.0748456
17 23 100 17 0.34648
1 24 100 17 4.96847e-06
2 24 100 17 3.15721e-05
4 24 100 17 3.54592e-07
6 24 100 17 7.97042e-07
7 24 100 17 1.00806e-05
8 24 100 17 1.55723e-07
9 24 100 17 8.68448e-07
10 24 100 17 3.49909e-05
11 24 100 17 1.8222e-06
12 24 100 17 0.0807434
13 24 100 17 0.000467111
14 24 100 17 0.155344
15 24 100 17 0.170772
16 24 100 17 0.0786768
17 24 100 17 0.513912
2 25 100 17 5.82705e-05
3 25 100 17 0.16859
5 25 100 17 1.04362e-06
6 25 100 17 0.168626
7 25 100 17 0.155757
12 25 100 17 0.00174241
13 25 100 17 3.5346e-06
14 25 100 17 1.82772e-07
15 25 100 17 4.6009e-06
16 25 100 17 0.168635
17 25 100 17 0.336582
2 26 100 17 8.183e-05
4 26 100 17 0.501391
17 26 100 17 0.498527
2 27 100 17 1.06433e-06
4 27 100 17 0.00018806
5 27 100 17 0.93618
6 27 100 17 5.7904e-05
7 27 100 17 0.0635419
14 27 100 17 3.14229e-05
2 28 100 17 4.68484e-06
17 28 100 17 0.999995
1 0 100 18 0.0810289
2 0 100 18 0.0330317
3 0 100 18 0.0519308
4 0 100 18 0.0538716
5 0 100 18 0.0601048
6 0 100 18 0.0672134
7 0 100 18 0.063244
8 0 100 18 0.0616568
9 0 100 18 0.0625065
10 0 100 18 0.0586263
11 0 100 18 0.0594026
12 0 100 18 0.0523694
13 0 100 18 0.0516754
14 0 100 18 0.0454428
15 0 100 18 0.0471976
16 0 100 18 0.0378327
17 0 100 18 0.00775193
18 0 100 18 0.105113
1 1 100 18 0.505945
2 1 100 18 0.222861
3 1 100 18 0.0843838
4 1 100 18 0.0379818
5 1 100 18 0.0249607
6 1 100 18 0.0218042
7 1 100 18 0.0156143
8 1 100 18 0.0187529
9 1 100 18 0.016887
10 1 100 18 0.00725684
11 1 100 18 0.00953346
12 1 100 18 0.00529491
13 1 100 18 0.00949249
14 1 100 18 0.00495482
15 1 100 18 0.00634133
16 1 100 18 0.00489174
17 1 100 18 0.00125989
18 1 100 18 0.00178312
1 2 100 18 0.0848611
2 2 100 18 0.391744
3 2 100 18 0.222626
4 2 100 18 0.0942192
5 2 100 18 0.0739072
6 2 100 18 0.027937
7 2 100 18 0.0213686
8 2 100 18 0.0183443
9 2 100 18 0.0113019
10 2 100 18 0.0140913
11 2 100 18 0.00578674
12 2 100 18 0.0070126
13 2 100 18 0.00747024
14 2 100 18 0.00738685
15 2 100 18 0.00297105
16 2 100 18 0.00437439
17 2 100 18 0.00306606
18 2 100 18 0.00153097
1 3 100 18 0.0330749
2 3 100 18 0.127876
3 3 100 18 0.287281
4 3 100 18 0.188496
5 3 100 18 0.104118
6 3 100 18 0.0927924
7 3 100 18 0.0400225
8 3 100 18 0.0207546
9 3 100 18 0.0234426
10 3 100 18 0.0262634
11 3 100 18 0.0202464
12 3 100 18 0.0108093
13 3 100 18 0.00879955
14 3 100 18 0.00763249
15 3 100 18 0.00315297
16 3 100 18 0.00348258
17 3 100 18 0.00156729
18 3 100 18 0.000188029
1 4 100 18 0.0134644
2 4 100 18 0.0547214
3 4 100 18 0.115347
4 4 100 18 0.245265
5 4 100 18 0.169485
6 4 100 18 0.0840485
7 4 100 18 0.0972886
8 4 100 18 0.0561727
9 4 100 18 0.0357561
10 4 100 18 0.0237409
11 4 100 18 0.021835
12 4 100 18 0.0268627
13 4 100 18 0.0143579
14 4 100 18 0.0129151
15 4 100 18 0.010922
16 4 100 18 0.00994335
17 4 100 18 0.00583578
18 4 100 18 0.00203784
1 5 100 18 0.0156706
2 5 100 18 0.0291918
3 5 100 18 0.0573463
4 5 100 18 0.121357
5 5 100 18 0.226997
6 5 100 18 0.175645
7 5 100 18 0.0966126
8 5 100 18 0.0948593
9 5 100 18 0.058659
10 5 100 18 0.0339474
11 5 100 18 0.0219796
12 5 100 18 0.0212325
13 5 100 18 0.0107859
14 5 100 18 0.00527032
15 5 100 18 0.0122092
16 5 100 18 0.013601
17 5 100 18 0.00456857
18 5 100 18 6.66009e-05
1 6 100 18 0.0142942
2 6 100 18 0.0240493
3 6 100 18 0.030055
4 6 100 18 0.05797
5 6 100 18 0.102094
6 6 100 18 0.180672
7 6 100 18 0.158205
8 6 100 18 0.11316
9 6 100 18 0.0962363
10 6 100 18 0.0702148
11 6 100 18 0.0455657
12 6 100 18 0.0305722
13 6 100 18 0.0224952
14 6 100 18 0.0209643
15 6 100 18 0.0151174
16 6 100 18 0.0111105
17 6 100 18 0.00712416
18 6 100 18 0.000100413
1 7 100 18 0.00145144
2 7 100 18 0.0131011
3 7 100 18 0.016517
4 7 100 18 0.0419679
5 7 100 18 0.0555111
6 7 100 18 0.0897426
7 7 100 18 0.165333
8 7 100 18 0.152897
9 7 100 18 0.0957567
10 7 100 18 0.100316
11 7 100 18 0.0698096
12 7 100 18 0.0552392
13 7 100 18 0.0440321
14 7 100 18 0.0330206
15 7 100 18 0.0241942
16 7 100 18 0.0267574
17 7 100 18 0.0134245
18 7 100 18 0.000927773
1 8 100 18 0.00451776
2 8 100 18 0.0116666
3 8 100 18 0.0230064
4 8 100 18 0.0227539
5 8 100 18 0.031721
6 8 100 18 0.0665907
7 8 100 18 0.086672
8 8 100 18 0.145148
9 8 100 18 0.137168
10 8 100 18 0.111649
11 8 100 18 0.0966335
12 8 100 18 0.0707517
13 8 100 18 0.0422249
14 8 100 18 0.0479392
15 8 100 18 0.0480436
16 8 100 18 0.0215139
17 8 100 18 0.0290572
18 8 100 18 0.00294239
1 9 100 18 0.000397169
2 9 100 18 0.008048
3 9 100 18 0.0113199
4 9 100 18 0.0172973
5 9 100 18 0.0251013
6 9 100 18 0.0324923
7 9 100 18 0.074906
8 9 100 18 0.0805022
9 9 100 18 0.141271
10 9 100 18 0.124346
11 9 100 18 0.108013
12 9 100 18 0.105657
13 9 100 18 0.0784312
14 9 100 18 0.054047
15 9 100 18 0.0590004
16 9 100 18 0.0349986
17 9 100 18 0.0396675
18 9 100 18 0.00450336
1 10 100 18 0.00290463
2 10 100 18 0.00290038
3 10 100 18 0.00693429
4 10 100 18 0.0196833
5 10 100 18 0.0217144
6 10 100 18 0.0100012
7 10 100 18 0.0277037
8 10 100 18 0.060143
9 10 100 18 0.101833
10 10 100 18 0.134504
11 10 100 18 0.138348
12 10 100 18 0.107474
13 10 100 18 0.0977613
14 10 100 18 0.0860234
15 10 100 18 0.0591602
16 10 100 18 0.0669074
17 10 100 18 0.0458399
18 10 100 18 0.0101638
1 11 100 18 0.00734495
2 11 100 18 0.00588015
3 11 100 18 0.00744914
4 11 100 18 0.00735652
5 11 100 18 0.00796229
6 11 100 18 0.0250387
7 11 100 18 0.0144391
8 11 100 18 0.0343994
9 11 100 18 0.0602855
10 11 100 18 0.0862374
11 11 100 18 0.105189
12 11 100 18 0.1465
13 11 100 18 0.124491
14 11 100 18 0.110526
15 11 100 18 0.0856485
16 11 100 18 0.0807089
17 11 100 18 0.0716679
18 11 100 18 0.0188758
1 12 100 18 0.0014121
2 12 100 18 0.0088606
3 12 100 18 0.0125076
4 12 100 18 0.0100071
5 12 100 18 0.0051035
6 12 100 18 0.00880926
7 12 100 18 0.0212294
8 12 100 18 0.0259563
9 12 100 18 0.0268652
10 12 100 18 0.0651027
11 12 100 18 0.0985995
12 12 100 18 0.113636
13 12 100 18 0.115238
14 12 100 18 0.122199
15 12 100 18 0.121521
16 12 100 18 0.103307
17 12 100 18 0.096526
18 12 100 18 0.043118
1 13 100 18 0.005293
2 13 100 18 0.00875935
3 13 100 18 0.0122111
4 13 100 18 0.0175902
5 13 100 18 0.0138272
6 13 100 18 0.00707274
7 13 100 18 0.0109246
8 13 100 18 0.0228313
9 13 100 18 0.0302914
10 13 100 18 0.0422615
11 13 100 18 0.0650326
12 13 100 18 0.0886179
13 13 100 18 0.116093
14 13 100 18 0.141073
15 13 100 18 0.128082
16 13 100 18 0.128306
17 13 100 18 0.120089
18 13 100 18 0.041644
1 14 100 18 2.00646e-05
2 14 100 18 0.00526328
3 14 100 18 0.00712068
4 14 100 18 0.0106125
5 14 100 18 0.00910581
6 14 100 18 0.0176084
7 14 100 18 0.0155332
8 14 100 18 0.0086083
9 14 100 18 0.0140976
10 14 100 18 0.0345683
11 14 100 18 0.0580636
12 14 100 18 0.0691538
13 14 100 18 0.131418
14 14 100 18 0.129199
15 14 100 18 0.125686
16 14 100 18 0.126052
17 14 100 18 0.154379
18 14 100 18 0.0835099
1 15 100 18 0.00207466
2 15 100 18 0.00445001
3 15 100 18 0.00625569
4 15 100 18 0.0104061
5 15 100 18 0.00802202
6 15 100 18 0.0103659
7 15 100 18 0.0121822
8 15 100 18 0.0143429
9 15 100 18 0.0145241
10 15 100 18 0.0106663
11 15 100 18 0.0306651
12 15 100 18 0.0495211
13 15 100 18 0.082371
14 15 100 18 0.122226
15 15 100 18 0.170657
16 15 100 18 0.142346
17 15 100 18 0.193968
18 15 100 18 0.114956
1 16 100 18 0.00573312
2 16 100 18 0.0143579
3 16 100 18 0.00290362
4 16 100 18 0.00281898
5 16 100 18 0.00861221
6 16 100 18 0.00291711
7 16 100 18 0.0144966
8 16 100 18 0.0116084
9 16 100 18 0.0149077
10 16 100 18 0.0178477
11 16 100 18 0.0184789
12 16 100 18 0.0435243
13 16 100 18 0.0534968
14 16 100 18 0.0787201
15 16 100 18 0.116824
16 16 100 18 0.198117
17 16 100 18 0.209902
18 16 100 18 0.184733
1 17 100 18 0.00368757
2 17 100 18 0.0073667
3 17 100 18 0.0109456
4 17 100 18 0.00368644
5 17 100 18 0.000224224
6 17 100 18 0.00820118
7 17 100 18 0.000409137
8 17 100 18 0.00723185
9 17 100 18 0.00394878
10 17 100 18 0.00371594
11 17 100 18 0.0184231
12 17 100 18 0.0433376
13 17 100 18 0.0694091
14 17 100 18 0.0676409
15 17 100 18 0.101719
16 17 100 18 0.166383
17 17 100 18 0.255896
18 17 100 18 0.227775
1 18 100 18 0.00990057
2 18 100 18 0.00443963
3 18 100 18 0.0145511
4 18 100 18 0.00511758
5 18 100 18 2.90624e-07
6 18 100 18 0.00509935
7 18 100 18 0.0103638
8 18 100 18 0.0102125
9 18 100 18 0.00988764
10 18 100 18 0.0149283
11 18 100 18 0.00916011
12 18 100 18 0.028371
13 18 100 18 0.0576277
14 18 100 18 0.0642928
15 18 100 18 0.0571485
16 18 100 18 0.139866
17 18 100 18 0.255759
18 18 100 18 0.303273
1 19 100 18 0.00746674
2 19 100 18 0.0148713
3 19 100 18 0.00784665
4 19 100 18 0.00741298
5 19 100 18 0.00107068
6 19 100 18 3.22666e-05
7 19 100 18 0.00818309
8 19 100 18 0.0153161
9 19 100 18 0.0081934
10 19 100 18 0.020916
11 19 100 18 0.0148235
12 19 100 18 0.0144835
13 19 100 18 0.0227366
14 19 100 18 0.117575
15 19 100 18 0.0996659
16 19 100 18 0.147914
17 19 100 18 0.184474
18 19 100 18 0.307018
1 20 100 18 7.66426e-05
2 20 100 18 1.5975e-06
3 20 100 18 0.00218707
4 20 100 18 0.000373659
5 20 100 18 0.0123521
6 20 100 18 0.0136325
7 20 100 18 0.0126229
8 20 100 18 0.000277001
9 20 100 18 0.00141119
10 20 100 18 0.012876
11 20 100 18 0.00620072
12 20 100 18 0.00198242
13 20 100 18 0.026392
14 20 100 18 0.0667008
15 20 100 18 0.0910406
16 20 100 18 0.11426
17 20 100 18 0.260382
18 20 100 18 0.377231
1 21 100 18 9.91824e-07
2 21 100 18 8.48594e-06
3 21 100 18 1.61322e-05
4 21 100 18 1.63381e-06
5 21 100 18 8.27852e-07
6 21 100 18 3.15381e-06
7 21 100 18 0.000202189
8 21 100 18 2.01711e-05
9 21 100 18 2.21015e-05
10 21 100 18 3.50458e-05
11 21 100 18 0.0119891
12 21 100 18 4.61677e-05
13 21 100 18 0.000192409
14 21 100 18 0.0202065
15 21 100 18 0.124903
16 21 100 18 0.126468
17 21 100 18 0.19726
18 21 100 18 0.518624
1 22 100 18 4.75211e-06
2 22 100 18 1.39822e-05
3 22 100 18 6.86985e-05
4 22 100 18 9.68074e-06
5 22 100 18 1.48006e-06
6 22 100 18 1.27499e-06
7 22 100 18 1.72951e-07
8 22 100 18 1.79691e-05
9 22 100 18 6.98091e-06
10 22 100 18 0.000150626
11 22 100 18 0.0341326
12 22 100 18 0.033379
13 22 100 18 0.0323045
14 22 100 18 0.0377872
15 22 100 18 0.00430885
16 22 100 18 0.189289
17 22 100 18 0.227291
18 22 100 18 0.441232
1 23 100 18 0.00364253
3 23 100 18 4.35078e-06
4 23 100 18 6.77126e-06
6 23 100 18 1.55763e-07
7 23 100 18 0.0010077
8 23 100 18 0.000261784
9 23 100 18 0.0437083
10 23 100 18 0.0436762
11 23 100 18 0.0440248
12 23 100 18 0.0293464
13 23 100 18 4.99601e-06
14 23 100 18 0.0449134
15 23 100 18 0.0645596
16 23 100 18 0.0440386
17 23 100 18 0.175722
18 23 100 18 0.505082
1 24 100 18 0.0393641
3 24 100 18 1.79153e-06
4 24 100 18 0.000430618
5 24 100 18 0.00657537
6 24 100 18 1.32669e-05
7 24 100 18 2.16689e-06
8 24 100 18 1.34834e-07
9 24 100 18 2.55562e-06
10 24 100 18 1.23446e-06
12 24 100 18 2.24559e-06
13 24 100 18 4.29198e-06
14 24 100 18 2.85744e-05
15 24 100 18 1.14588e-05
16 24 100 18 0.159544
17 24 100 18 9.15549e-05
18 24 100 18 0.793927
4 25 100 18 6.96099e-07
9 25 100 18 2.07579e-06
11 25 100 18 3.36892e-06
14 25 100 18 4.72528e-07
17 25 100 18 0.464413
18 25 100 18 0.53558
3 26 100 18 4.15351e-06
4 26 100 18 3.21359e-05
17 26 100 18 2.79495e-06
18 26 100 18 0.999961
1 27 100 18 0.512551
4 27 100 18 0.404943
6 27 100 18 0.0019026
7 27 100 18 0.00508631
18 27 100 18 0.0755175
1 28 100 18 9.96141e-05
4 28 100 18 0.657041
6 28 100 18 0.000241489
7 28 100 18 7.04136e-06
17 28 100 18 0.0838219
18 28 100 18 0.258789
1 0 100 19 0.0818255
2 0 100 19 0.0284406
3 0 100 19 0.0485294
4 0 100 19 0.0499126
5 0 100 19 0.055976
6 0 100 19 0.0527409
7 0 100 19 0.069733
8 0 100 19 0.0623213
9 0 100 19 0.0607149
10 0 100 19 0.0587437
11 0 100 19 0.0540648
12 0 100 19 0.0536909
13 0 100 19 0.0505893
14 0 100 19 0.0388376
15 0 100 19 0.042097
16 0 100 19 0.0471354
17 0 100 19 0.0329496
18 0 100 19 0.00685795
19 0 100 19 0.10484
1 1 100 19 0.522509
2 1 100 19 0.220186
3 1 100 19 0.0626446
4 1 100 19 0.0451422
5 1 100 19 0.0112188
6 1 100 19 0.0220046
7 1 100 19 0.012591
8 1 100 19 0.0150839
9 1 100 19 0.0147345
10 1 100 19 0.00814887
11 1 100 19 0.0170694
12 1 100 19 0.0103033
13 1 100 19 0.0100358
14 1 100 19 0.0106143
15 1 100 19 0.00625875
16 1 100 19 0.00134849
17 1 100 19 0.00619552
18 1 100 19 0.00366217
19 1 100 19 0.000248437
1 2 100 19 0.0757349
2 2 100 19 0.383791
3 2 100 19 0.212488
4 2 100 19 0.101258
5 2 100 19 0.0594101
6 2 100 19 0.0238477
7 2 100 19 0.0199721
8 2 100 19 0.0118537
9 2 100 19 0.0179434
10 2 100 19 0.00599075
11 2 100 19 0.00628972
12 2 100 19 0.0130791
13 2 100 19 0.0119438
14 2 100 19 0.0135976
15 2 100 19 0.00905647
16 2 100 19 0.00649179
17 2 100 19 0.014524
18 2 100 19 0.0102882
19 2 100 19 0.00243995
1 3 100 19 0.0266962
2 3 100 19 0.138011
3 3 100 19 0.287494
4 3 100 19 0.170833
5 3 100 19 0.115862
6 3 100 19 0.0593166
7 3 100 19 0.042341
8 3 100 19 0.0235579
9 3 100 19 0.00721479
10 3 100 19 0.0265759
11 3 100 19 0.0154967
12 3 100 19 0.0112634
13 3 100 19 0.016944
14 3 100 19 0.0130626
15 3 100 19 0.0141897
16 3 100 19 0.00843541
17 3 100 19 0.0141912
18 3 100 19 0.00850509
19 3 100 19 9.11654e-06
1 4 100 19 0.0182548
2 4 100 19 0.0610554
3 4 100 19 0.125398
4 4 100 19 0.242395
5 4 100 19 0.175764
6 4 100 19 0.121989
7 4 100 19 0.0711299
8 4 100 19 0.0543853
9 4 100 19 0.035182
10 4 100 19 0.0216729
11 4 100 19 0.0128384
12 4 100 19 0.0121477
13 4 100 19 0.0118273
14 4 100 19 0.0105127
15 4 100 19 0.0118712
16 4 100 19 0.00454628
17 4 100 19 0.00592788
18 4 100 19 0.00159722
19 4 100 19 0.00150425
1 5 100 19 0.0122685
2 5 100 19 0.025807
3 5 100 19 0.0475239
4 5 100 19 0.12944
5 5 100 19 0.191696
6 5 100 19 0.181202
7 5 100 19 0.102472
8 5 100 19 0.0855743
9 5 100 19 0.0565522
10 5 100 19 0.039659
11 5 100 19 0.0225871
12 5 100 19 0.0183586
13 5 100 19 0.0141149
14 5 100 19 0.0209394
15 5 100 19 0.0131246
16 5 100 19 0.0125524
17 5 100 19 0.0144998
18 5 100 19 0.00864784
19 5 100 19 0.0029812
1 6 100 19 0.00268852
2 6 100 19 0.0158304
3 6 100 19 0.0472554
4 6 100 19 0.0592117
5 6 100 19 0.0980572
6 6 100 19 0.204896
7 6 100 19 0.144641
8 6 100 19 0.104696
9 6 100 19 0.105579
10 6 100 19 0.0488794
11 6 100 19 0.0491137
12 6 100 19 0.0278553
13 6 100 19 0.0162944
14 6 100 19 0.0161512
15 6 100 19 0.0214926
16 6 100 19 0.00876149
17 6 100 19 0.0117078
18 6 100 19 0.0125062
19 6 100 19 0.00438296
1 7 100 19 0.00935071
2 7 100 19 0.0194642
3 7 100 19 0.0211624
4 7 100 19 0.0408215
5 7 100 19 0.0717112
6 7 100 19 0.0861338
7 7 100 19 0.17402
8 7 100 19 0.142365
9 7 100 19 0.101327
10 7 100 19 0.0766123
11 7 100 19 0.0645199
12 7 100 19 0.0619949
13 7 100 19 0.034558
14 7 100 19 0.0320517
15 7 100 19 0.0148752
16 7 100 19 0.0151978
17 7 100 19 0.0173848
18 7 100 19 0.0153465
19 7 100 19 0.00110287
1 8 100 19 0.00321175
2 8 100 19 0.0109409
3 8 100 19 0.00814495
4 8 100 19 0.0202795
5 8 100 19 0.0418976
6 8 100 19 0.0481653
7 8 100 19 0.108792
8 8 100 19 0.150225
9 8 100 19 0.143313
10 8 100 19 0.129288
11 8 100 19 0.0818106
12 8 100 19 0.0838887
13 8 100 19 0.0522488
14 8 100 19 0.0385136
15 8 100 19 0.0360126
16 8 100 19 0.0218787
17 8 100 19 0.01634
18 8 100 19 0.0032107
19 8 100 19 0.00183912
1 9 100 19 0.0043659
2 9 100 19 0.0134755
3 9 100 19 0.0106102
4 9 100 19 0.0119095
5 9 100 19 0.0325961
6 9 100 19 0.0377741
7 9 100 19 0.0391436
8 9 100 19 0.0968439
9 9 100 19 0.135183
10 9 100 19 0.131931
11 9 100 19 0.133547
12 9 100 19 0.096732
13 9 100 19 0.0829532
14 9 100 19 0.0533526
15 9 100 19 0.0428356
16 9 100 19 0.0338174
17 9 100 19 0.0282407
18 9 100 19 0.0118971
19 9 100 19 0.00279143
1 10 100 19 0.00568548
2 10 100 19 0.0113077
3 10 100 19 0.0146665
4 10 100 19 0.0132533
5 10 100 19 0.0155926
6 10 100 19 0.0329318
7 10 100 19 0.0334794
8 10 100 19 0.0521448
9 10 100 19 0.0925666
10 10 100 19 0.13502
11 10 100 19 0.112008
12 10 100 19 0.116516
13 10 100 19 0.0931604
14 10 100 19 0.0922833
15 10 100 19 0.0441156
16 10 100 19 0.0425081
17 10 100 19 0.0405212
18 10 100 19 0.0398478
19 10 100 19 0.0123919
1 11 100 19 0.00294053
2 11 100 19 0.014375
3 11 100 19 0.0113496
4 11 100 19 0.0127332
5 11 100 19 0.018822
6 11 100 19 0.0237291
7 11 100 19 0.0306272
8 11 100 19 0.0366629
9 11 100 19 0.0457774
10 11 100 19 0.0980631
11 11 100 19 0.131877
12 11 100 19 0.0914468
13 11 100 19 0.098905
14 11 100 19 0.0977235
15 11 100 19 0.0992989
16 11 100 19 0.0683374
17 11 100 19 0.0595017
18 11 100 19 0.0466339
19 11 100 19 0.0111955
1 12 100 19 2.36567e-05
2 12 100 19 0.00890676
3 12 100 19 0.00621053
4 12 100 19 0.0101065
5 12 100 19 0.00612498
6 12 100 19 0.0100219
7 12 100 19 0.0149081
8 12 100 19 0.029619
9 12 100 19 0.0513473
10 12 100 19 0.0519391
11 12 100 19 0.0896662
12 12 100 19 0.128856
13 12 100 19 0.122214
14 12 100 19 0.0900071
15 12 100 19 0.109079
16 12 100 19 0.097847
17 12 100 19 0.0751694
18 12 100 19 0.0787398
19 12 100 19 0.0192137
1 13 100 19 0.00318913
2 13 100 19 0.00169701
3 13 100 19 0.0151973
4 13 100 19 0.00943179
5 13 100 19 0.009484
6 13 100 19 0.0128237
7 13 100 19 0.00787922
8 13 100 19 0.0159042
9 13 100 19 0.0239045
10 13 100 19 0.0375893
11 13 100 19 0.0601378
12 13 100 19 0.0873873
13 13 100 19 0.119078
14 13 100 19 0.141192
15 13 100 19 0.114725
16 13 100 19 0.121008
17 13 100 19 0.0971277
18 13 100 19 0.0859801
19 13 100 19 0.0362641
1 14 100 19 0.00371241
2 14 100 19 0.0129492
3 14 100 19 0.00926801
4 14 100 19 0.0129081
5 14 100 19 0.0110695
6 14 100 19 0.0121178
7 14 100 19 0.0146709
8 14 100 19 0.0210303
9 14 100 19 0.0110803
10 14 100 19 0.0297773
11 14 100 19 0.0327868
12 14 100 19 0.0533012
13 14 100 19 0.0945311
14 14 100 19 0.131625
15 14 100 19 0.128153
16 14 100 19 0.111951
17 14 100 19 0.123944
18 14 100 19 0.139696
19 14 100 19 0.0454285
1 15 100 19 0.00226437
2 15 100 19 0.0106089
3 15 100 19 0.00221309
4 15 100 19 0.00632306
5 15 100 19 0.00643985
6 15 100 19 0.00642821
7 15 100 19 0.00659093
8 15 100 19 0.013769
9 15 100 19 0.0149813
10 15 100 19 0.0250011
11 15 100 19 0.0323679
12 15 100 19 0.046177
13 15 100 19 0.0662851
14 15 100 19 0.113278
15 15 100 19 0.136624
16 15 100 19 0.128804
17 15 100 19 0.13806
18 15 100 19 0.175579
19 15 100 19 0.0682046
1 16 100 19 0.00247273
2 16 100 19 7.44321e-05
3 16 100 19 0.00698433
4 16 100 19 0.00705039
5 16 100 19 0.0115213
6 16 100 19 0.00467001
7 16 100 19 0.00514361
8 16 100 19 0.00256643
9 16 100 19 0.0116827
10 16 100 19 0.0131435
11 16 100 19 0.0320402
12 16 100 19 0.042628
13 16 100 19 0.0617965
14 16 100 19 0.0563305
15 16 100 19 0.120015
16 16 100 19 0.143565
17 16 100 19 0.162973
18 16 100 19 0.183661
19 16 100 19 0.131681
1 17 100 19 0.00302767
2 17 100 19 0.00300989
3 17 100 19 0.0152169
4 17 100 19 0.00301486
5 17 100 19 0.00296699
6 17 100 19 0.00246131
7 17 100 19 0.00233947
8 17 100 19 0.0093666
9 17 100 19 0.00905355
10 17 100 19 0.0150026
11 17 100 19 0.0148932
12 17 100 19 0.0299651
13 17 100 19 0.0387094
14 17 100 19 0.0783222
15 17 100 19 0.0914361
16 17 100 19 0.139236
17 17 100 19 0.159698
18 17 100 19 0.235641
19 17 100 19 0.146638
1 18 100 19 0.000122908
3 18 100 19 6.26115e-06
4 18 100 19 0.0073524
5 18 100 19 0.011031
6 18 100 19 0.00749354
7 18 100 19 0.00371245
8 18 100 19 0.00948037
9 18 100 19 0.0073541
10 18 100 19 0.00367683
11 18 100 19 0.0187863
12 18 100 19 0.0300676
13 18 100 19 0.0534591
14 18 100 19 0.0409643
15 18 100 19 0.0731188
16 18 100 19 0.165607
17 18 100 19 0.140316
18 18 100 19 0.205398
19 18 100 19 0.222053
1 19 100 19 1.1559e-05
2 19 100 19 1.28061e-05
3 19 100 19 0.00535564
4 19 100 19 1.88611e-06
5 19 100 19 0.00993631
6 19 100 19 0.000333934
7 19 100 19 0.0039341
8 19 100 19 0.00491396
9 19 100 19 0.00987384
10 19 100 19 0.0118335
11 19 100 19 0.00957329
12 19 100 19 0.0262015
13 19 100 19 0.0378204
14 19 100 19 0.0546502
15 19 100 19 0.066357
16 19 100 19 0.0835636
17 19 100 19 0.197312
18 19 100 19 0.20759
19 19 100 19 0.270725
1 20 100 19 0.000299655
2 20 100 19 1.33601e-07
3 20 100 19 0.0126312
4 20 100 19 0.0136076
6 20 100 19 0.0135816
7 20 100 19 1.23244e-06
8 20 100 19 0.0133958
9 20 100 19 6.65856e-07
10 20 100 19 0.0082023
11 20 100 19 0.00679332
12 20 100 19 0.00110196
13 20 100 19 0.0405556
14 20 100 19 0.103859
15 20 100 19 0.0681852
16 20 100 19 0.0981456
17 20 100 19 0.129574
18 20 100 19 0.250522
19 20 100 19 0.239543
1 21 100 19 9.80437e-06
2 21 100 19 0.00816909
3 21 100 19 0.00899136
4 21 100 19 0.016692
5 21 100 19 0.00908702
6 21 100 19 0.000920676
7 21 100 19 0.00911364
8 21 100 19 0.00971839
9 21 100 19 0.0160195
10 21 100 19 0.000991252
11 21 100 19 0.0397808
12 21 100 19 0.00931165
13 21 100 19 0.0102053
14 21 100 19 0.0429701
15 21 100 19 0.116206
16 21 100 19 0.0894508
17 21 100 19 0.111149
18 21 100 19 0.103022
19 21 100 19 0.398191
1 22 100 19 0.0124362
2 22 100 19 0.00149997
3 22 100 19 0.0126007
4 22 100 19 3.10717e-05
6 22 100 19 5.23958e-05
7 22 100 19 3.91791e-06
8 22 100 19 1.23345e-05
9 22 100 19 0.0183555
10 22 100 19 0.0125929
11 22 100 19 0.0123052
12 22 100 19 0.035523
13 22 100 19 0.0608829
14 22 100 19 0.021343
15 22 100 19 0.0525879
16 22 100 19 0.120309
17 22 100 19 0.135817
18 22 100 19 0.234189
19 22 100 19 0.269459
1 23 100 19 0.000241694
2 23 100 19 6.25042e-06
3 23 100 19 5.29063e-06
4 23 100 19 3.97431e-05
5 23 100 19 7.32035e-06
6 23 100 19 8.51925e-07
7 23 100 19 1.4299e-06
8 23 100 19 8.62562e-07
9 23 100 19 6.87921e-05
10 23 100 19 0.024008
11 23 100 19 8.54486e-07
12 23 100 19 2.58128e-05
13 23 100 19 7.34982e-06
14 23 100 19 0.00246986
15 23 100 19 0.0264571
16 23 100 19 0.0649975
17 23 100 19 0.262869
18 23 100 19 0.22076
19 23 100 19 0.398032
1 24 100 19 4.50324e-06
2 24 100 19 6.58058e-06
3 24 100 19 2.51217e-06
4 24 100 19 0.0285776
5 24 100 19 0.0307357
6 24 100 19 5.55249e-05
7 24 100 19 2.13697e-05
8 24 100 19 0.014867
9 24 100 19 0.0286735
10 24 100 19 0.0311458
11 24 100 19 0.0321061
12 24 100 19 0.000239253
13 24 100 19 6.3526e-06
14 24 100 19 0.0571513
15 24 100 19 0.0032191
16 24 100 19 0.0427997
17 24 100 19 0.0886731
18 24 100 19 0.28353
19 24 100 19 0.358185
1 25 100 19 4.79094e-07
3 25 100 19 1.84095e-07
6 25 100 19 1.44837e-05
7 25 100 19 0.0420522
8 25 100 19 0.000829484
9 25 100 19 1.93687e-07
10 25 100 19 6.24286e-06
11 25 100 19 0.000739771
12 25 100 19 5.7683e-06
13 25 100 19 0.0307755
14 25 100 19 4.85553e-06
15 25 100 19 0.0493238
16 25 100 19 0.0462854
17 25 100 19 0.0462888
18 25 100 19 0.183889
19 25 100 19 0.599784
1 26 100 19 2.21692e-07
4 26 100 19 9.33976e-06
6 26 100 19 8.47087e-07
8 26 100 19 7.36449e-05
9 26 100 19 2.05761e-07
10 26 100 19 3.44917e-05
12 26 100 19 1.64306e-07
13 26 100 19 0.0838852
14 26 100 19 0.0831984
15 26 100 19 0.0773206
16 26 100 19 0.00825045
17 26 100 19 0.0831962
18 26 100 19 0.0847757
19 26 100 19 0.579255
1 27 100 19 3.53743e-05
5 27 100 19 2.8376e-05
6 27 100 19 4.99444e-07
7 27 100 19 2.83104e-07
8 27 100 19 2.01749e-06
13 27 100 19 1.80581e-06
14 27 100 19 1.30026e-06
16 27 100 19 3.60624e-07
18 27 100 19 1.16108e-06
19 27 100 19 0.999929
4 28 100 19 0.0116072
6 28 100 19 0.681287
12 28 100 19 0.307106
6 29 100 19 0.992763
8 29 100 19 0.00717016
18 29 100 19 6.7077e-05
1 30 100 19 2.0763e-05
3 30 100 19 9.18527e-06
6 30 100 19 1.85456e-05
8 30 100 19 0.00227309
10 30 100 19 8.61634e-05
18 30 100 19 0.0562029
19 30 100 19 0.941389
1 0 100 20 0.0718521
2 0 100 20 0.0277471
3 0 100 20 0.051788
4 0 100 20 0.0463887
5 0 100 20 0.0590308
6 0 100 20 0.0522102
7 0 100 20 0.0621015
8 0 100 20 0.0617433
9 0 100 20 0.0523151
10 0 100 20 0.0565703
11 0 100 20 0.0476569
12 0 100 20 0.043016
13 0 100 20 0.0474989
14 0 100 20 0.0421958
15 0 100 20 0.0492716
16 0 100 20 0.0436102
17 0 100 20 0.0420802
18 0 100 20 0.0362233
19 0 100 20 0.00815318
20 0 100 20 0.0985468
1 1 100 20 0.4823
2 1 100 20 0.204209
3 1 100 20 0.0794119
4 1 100 20 0.0570505
5 1 100 20 0.02898
6 1 100 20 0.0126634
7 1 100 20 0.013279
8 1 100 20 0.0181992
9 1 100 20 0.0171582
10 1 100 20 0.0102471
11 1 100 20 0.0139695
12 1 100 20 0.0130544
13 1 100 20 0.00879546
14 1 100 20 0.0148399
15 1 100 20 0.0105521
16 1 100 20 0.00580941
17 1 100 20 0.00459388
18 1 100 20 0.00288976
20 1 100 20 0.0019966
1 2 100 20 0.101363
2 2 100 20 0.393438
3 2 100 20 0.178882
4 2 100 20 0.0883152
5 2 100 20 0.0624204
6 2 100 20 0.0532453
7 2 100 20 0.0276325
8 2 100 20 0.0151193
9 2 100 20 0.0177048
10 2 100 20 0.00774649
11 2 100 20 0.00924529
12 2 100 20 0.0055485
13 2 100 20 0.00794667
14 2 100 20 0.00906516
15 2 100 20 0.0111127
16 2 100 20 0.00563701
17 2 100 20 0.00369459
18 2 100 20 0.00185192
19 2 100 20 6.44076e-06
20 2 100 20 2.58116e-05
1 3 100 20 0.0319758
2 3 100 20 0.13571
3 3 100 20 0.266782
4 3 100 20 0.17419
5 3 100 20 0.110053
6 3 100 20 0.0775841
7 3 100 20 0.0530782
8 3 100 20 0.0274635
9 3 100 20 0.0243801
10 3 100 20 0.023331
11 3 100 20 0.0175845
12 3 100 20 0.0101441
13 3 100 20 0.00558405
14 3 100 20 0.0128965
15 3 100 20 0.00633236
16 3 100 20 0.00201765
17 3 100 20 0.00523791
18 3 100 20 0.00516976
19 3 100 20 0.00874002
20 3 100 20 0.00174479
1 4 100 20 0.0117982
2 4 100 20 0.0418622
3 4 100 20 0.122266
4 4 100 20 0.248093
5 4 100 20 0.131339
6 4 100 20 0.0990567
7 4 100 20 0.0715213
8 4 100 20 0.0612637
9 4 100 20 0.0326997
10 4 100 20 0.0306371
11 4 100 20 0.0237585
12 4 100 20 0.027954
13 4 100 20 0.016594
14 4 100 20 0.00569263
15 4 100 20 0.0183705
16 4 100 20 0.0146419
17 4 100 20 0.0252443
18 4 100 20 0.0152231
19 4 100 20 0.00186921
20 4 100 20 0.000115161
1 5 100 20 0.0142401
2 5 100 20 0.030241
3 5 100 20 0.0499383
4 5 100 20 0.101083
5 5 100 20 0.192737
6 5 100 20 0.165099
7 5 100 20 0.0954439
8 5 100 20 0.069951
9 5 100 20 0.0701484
10 5 100 20 0.0375446
11 5 100 20 0.0349415
12 5 100 20 0.024625
13 5 100 20 0.0260068
14 5 100 20 0.0156135
15 5 100 20 0.00874487
16 5 100 20 0.0123485
17 5 100 20 0.0157342
18 5 100 20 0.0150523
19 5 100 20 0.0205043
20 5 100 20 2.81704e-06
1 6 100 20 0.00822843
2 6 100 20 0.0235567
3 6 100 20 0.0357501
4 6 100 20 0.0495177
5 6 100 20 0.0773484
6 6 100 20 0.162777
7 6 100 20 0.166306
8 6 100 20 0.10926
9 6 100 20 0.0775739
10 6 100 20 0.0750759
11 6 100 20 0.0586918
12 6 100 20 0.0400347
13 6 100 20 0.0269193
14 6 100 20 0.0271187
15 6 100 20 0.0169676
16 6 100 20 0.0124167
17 6 100 20 0.010543
18 6 100 20 0.0129706
19 6 100 20 0.00532609
20 6 100 20 0.00361769
1 7 100 20 0.00591898
2 7 100 20 0.0163677
3 7 100 20 0.0199861
4 7 100 20 0.0384499
5 7 100 20 0.0745854
6 7 100 20 0.0979551
7 7 100 20 0.136796
8 7 100 20 0.141795
9 7 100 20 0.10145
10 7 100 20 0.0831128
11 7 100 20 0.0677254
12 7 100 20 0.0603241
13 7 100 20 0.0429174
14 7 100 20 0.0385769
15 7 100 20 0.0166986
16 7 100 20 0.0237076
17 7 100 20 0.0148967
18 7 100 20 0.0127548
19 7 100 20 0.00570744
20 7 100 20 0.000273403
1 8 100 20 0.00520548
2 8 100 20 0.0238327
3 8 100 20 0.0231219
4 8 100 20 0.0203024
5 8 100 20 0.0550104
6 8 100 20 0.0602559
7 8 100 20 0.0743687
8 8 100 20 0.14318
9 8 100 20 0.123162
10 8 100 20 0.0898011
11 8 100 20 0.0842464
12 8 100 20 0.0816305
13 8 100 20 0.056379
14 8 100 20 0.0449261
15 8 100 20 0.0353147
16 8 100 20 0.0351613
17 8 100 20 0.0219251
18 8 100 20 0.0169913
19 8 100 20 0.00516281
20 8 100 20 2.19923e-05
1 9 100 20 0.00376976
2 9 100 20 0.00860121
3 9 100 20 0.0155938
4 9 100 20 0.0186113
5 9 100 20 0.0258914
6 9 100 20 0.050644
7 9 100 20 0.0623218
8 9 100 20 0.0666284
9 9 100 20 0.130693
10 9 100 20 0.127684
11 9 100 20 0.115334
12 9 100 20 0.0864255
13 9 100 20 0.0902563
14 9 100 20 0.0617348
15 9 100 20 0.0390472
16 9 100 20 0.0282498
17 9 100 20 0.0217593
18 9 100 20 0.0274167
19 9 100 20 0.0155824
20 9 100 20 0.00375558
1 10 100 20 0.00709087
2 10 100 20 0.00902705
3 10 100 20 0.0193626
4 10 100 20 0.0197155
5 10 100 20 0.0134939
6 10 100 20 0.0171959
7 10 100 20 0.0451728
8 10 100 20 0.0714544
9 10 100 20 0.0700295
10 10 100 20 0.0900402
11 10 100 20 0.12796
12 10 100 20 0.101457
13 10 100 20 0.0826305
14 10 100 20 0.0669296
15 10 100 20 0.061531
16 10 100 20 0.0530746
17 10 100 20 0.0491321
18 10 100 20 0.0538899
19 10 100 20 0.0331005
20 10 100 20 0.00771177
1 11 100 20 1.01787e-05
2 11 100 20 0.00984236
3 11 100 20 0.00993872
4 11 100 20 0.0195955
5 11 100 20 0.0197887
6 11 100 20 0.0116324
7 11 100 20 0.014043
8 11 100 20 0.0332833
9 11 100 20 0.0734121
10 11 100 20 0.0807842
11 11 100 20 0.0955032
12 11 100 20 0.127207
13 11 100 20 0.121416
14 11 100 20 0.0879979
15 11 100 20 0.0682962
16 11 100 20 0.0528919
17 11 100 20 0.0650188
18 11 100 20 0.047981
19 11 100 20 0.0504986
20 11 100 20 0.0108592
1 12 100 20 0.00359852
2 12 100 20 0.00776585
3 12 100 20 0.00784925
4 12 100 20 0.00993298
5 12 100 20 0.00755774
6 12 100 20 0.017199
7 12 100 20 0.0169018
8 12 100 20 0.00764914
9 12 100 20 0.0411883
10 12 100 20 0.0729909
11 12 100 20 0.0871918
12 12 100 20 0.0929599
13 12 100 20 0.112455
14 12 100 20 0.107555
15 12 100 20 0.106369
16 12 100 20 0.0905905
17 12 100 20 0.0691921
18 12 100 20 0.0567354
19 12 100 20 0.0654108
20 12 100 20 0.0189074
1 13 100 20 0.00357914
2 13 100 20 0.00424559
3 13 100 20 0.00424389
4 13 100 20 0.0162513
5 13 100 20 0.0176991
6 13 100 20 0.0168649
7 13 100 20 0.0191216
8 13 100 20 0.0155244
9 13 100 20 0.0146802
10 13 100 20 0.04523
11 13 100 20 0.049284
12 13 100 20 0.0878152
13 13 100 20 0.0845811
14 13 100 20 0.130879
15 13 100 20 0.0951554
16 13 100 20 0.111189
17 13 100 20 0.0883234
18 13 100 20 0.0832362
19 13 100 20 0.0775842
20 13 100 20 0.0345129
1 14 100 20 0.00604331
2 14 100 20 0.00824864
3 14 100 20 0.0100415
4 14 100 20 0.00812058
5 14 100 20 0.0065041
6 14 100 20 0.0121089
7 14 100 20 0.0140373
8 14 100 20 0.0160932
9 14 100 20 0.025797
10 14 100 20 0.014215
11 14 100 20 0.0407088
12 14 100 20 0.0577134
13 14 100 20 0.105045
14 14 100 20 0.0977847
15 14 100 20 0.127222
16 14 100 20 0.115555
17 14 100 20 0.107922
18 14 100 20 0.0821865
19 14 100 20 0.112599
20 14 100 20 0.0320544
1 15 100 20 0.00276783
2 15 100 20 0.00935913
3 15 100 20 0.0117411
4 15 100 20 0.00791326
5 15 100 20 0.00953055
6 15 100 20 0.00483764
7 15 100 20 0.00747738
8 15 100 20 0.0119735
9 15 100 20 0.0144495
10 15 100 20 0.0290177
11 15 100 20 0.0148402
12 15 100 20 0.0619624
13 15 100 20 0.0626676
14 15 100 20 0.0913476
15 15 100 20 0.102471
16 15 100 20 0.128931
17 15 100 20 0.109772
18 15 100 20 0.135862
19 15 100 20 0.120791
20 15 100 20 0.0622884
1 16 100 20 5.41031e-05
2 16 100 20 0.00839889
3 16 100 20 0.00562076
4 16 100 20 0.00634489
5 16 100 20 0.00858703
6 16 100 20 4.48389e-06
7 16 100 20 0.00560892
8 16 100 20 0.0138499
9 16 100 20 0.0255458
10 16 100 20 0.0198625
11 16 100 20 0.0342277
12 16 100 20 0.0313565
13 16 100 20 0.0470779
14 16 100 20 0.0579366
15 16 100 20 0.121975
16 16 100 20 0.117384
17 16 100 20 0.138288
18 16 100 20 0.124657
19 16 100 20 0.15331
20 16 100 20 0.0799105
1 17 100 20 0.00570916
2 17 100 20 2.45965e-05
3 17 100 20 0.00855702
4 17 100 20 0.0115576
5 17 100 20 0.0113937
6 17 100 20 0.0171356
7 17 100 20 0.00562781
8 17 100 20 0.0087709
9 17 100 20 0.0143316
10 17 100 20 0.0340469
11 17 100 20 0.0313858
12 17 100 20 0.0367855
13 17 100 20 0.0342069
14 17 100 20 0.0697879
15 17 100 20 0.0770822
16 17 100 20 0.105049
17 17 100 20 0.1148
18 17 100 20 0.139416
19 17 100 20 0.169738
20 17 100 20 0.104595
1 18 100 20 0.00617933
2 18 100 20 0.00381531
3 18 100 20 0.00366985
4 18 100 20 0.00372956
5 18 100 20 6.77314e-06
6 18 100 20 0.0145817
7 18 100 20 0.0181911
8 18 100 20 0.00729444
9 18 100 20 0.0217878
10 18 100 20 0.0225233
11 18 100 20 0.0181573
12 18 100 20 0.0147059
13 18 100 20 0.0321368
14 18 100 20 0.0419446
15 18 100 20 0.0756422
16 18 100 20 0.0934683
17 18 100 20 0.126236
18 18 100 20 0.133236
19 18 100 20 0.208454
20 18 100 20 0.15424
1 19 100 20 4.10986e-05
2 19 100 20 0.00811223
3 19 100 20 1.37687e-05
4 19 100 20 0.00826555
5 19 100 20 0.0042004
6 19 100 20 0.00421488
7 19 100 20 0.0149194
8 19 100 20 0.00419218
9 19 100 20 0.00414613
10 19 100 20 0.0248608
11 19 100 20 0.0160244
12 19 100 20 0.0248917
13 19 100 20 0.0301255
14 19 100 20 0.0758925
15 19 100 20 0.0499036
16 19 100 20 0.107496
17 19 100 20 0.0952307
18 19 100 20 0.197001
19 19 100 20 0.174688
20 19 100 20 0.155779
1 20 100 20 1.16416e-05
2 20 100 20 0.00606589
3 20 100 20 0.0115897
4 20 100 20 0.00896124
5 20 100 20 0.00579475
6 20 100 20 0.00664017
7 20 100 20 2.44223e-05
8 20 100 20 0.00564987
9 20 100 20 0.0115897
10 20 100 20 0.0117275
11 20 100 20 0.0335779
12 20 100 20 0.050795
13 20 100 20 0.029421
14 20 100 20 0.040628
15 20 100 20 0.0556348
16 20 100 20 0.0515393
17 20 100 20 0.119579
18 20 100 20 0.0743173
19 20 100 20 0.242588
20 20 100 20 0.233865
1 21 100 20 0.000241536
2 21 100 20 1.27291e-05
3 21 100 20 3.4904e-05
4 21 100 20 0.00896871
5 21 100 20 4.78973e-05
6 21 100 20 2.53654e-07
7 21 100 20 0.00897207
8 21 100 20 0.0176693
9 21 100 20 2.348e-05
10 21 100 20 2.42945e-06
11 21 100 20 0.00901324
12 21 100 20 0.0179347
13 21 100 20 0.031732
14 21 100 20 0.0357732
15 21 100 20 0.0640234
16 21 100 20 0.0627987
17 21 100 20 0.0944936
18 21 100 20 0.125974
19 21 100 20 0.188737
20 21 100 20 0.333548
1 22 100 20 1.5351e-06
2 22 100 20 0.0151668
3 22 100 20 0.0201855
4 22 100 20 0.0118486
5 22 100 20 0.00327009
6 22 100 20 0.000192681
7 22 100 20 0.0098166
8 22 100 20 0.0314583
9 22 100 20 0.0311616
10 22 100 20 0.000173264
11 22 100 20 0.013936
12 22 100 20 0.00103491
13 22 100 20 0.0250335
14 22 100 20 0.0487164
15 22 100 20 0.0430293
16 22 100 20 0.0654568
17 22 100 20 0.0917371
18 22 100 20 0.111023
19 22 100 20 0.182667
20 22 100 20 0.294091
1 23 100 20 0.0182613
2 23 100 20 0.0113671
3 23 100 20 1.04367e-06
4 23 100 20 0.0113507
5 23 100 20 0.0116488
