438 4690 1.16749e-07
6283 11492 6.01925e-06
241 890 4.46162e-07
449 8303 1.09725e-07
1981 39 1.0683e-07
1981 331 1.50671e-07
26684 34 6.68927e-06
385 11678 1.02128e-07
30358 1626 2.2633e-06
68 8172 1.74675e-07
597 3968 1.9136e-07
1096 622 4.7117e-07
36 622 1.1603e-07
30299 1744 1.29499e-05
9785 60 8.48626e-07
5864 680 2.75512e-06
188 680 2.26036e-06
20 680 1.87962e-07
30256 680 2.75565e-06
17737 1749 1.19994e-06
549 17078 1.07938e-07
242 764 1.90527e-07
29969 51 3.06469e-06
115 6236 1.25345e-07
1336 139 2.64202e-07
20143 1668 2.23356e-06
927 2097 1.38311e-07
3954 83 3.67434e-06
5832 39 8.84771e-07
29776 1049 6.11077e-06
367 19097 2.42621e-07
2730 353 4.68427e-07
1170 117 4.96277e-07
6058 313 5.79881e-07
139 313 1.81181e-07
12038 21 1.59885e-06
561 19085 1.08218e-07
472 19085 5.85504e-07
7610 19085 0.000173372
1300 185 1.3179e-07
27 282 1.58747e-07
3319 282 7.91904e-07
22165 282 4.14065e-07
3842 4017 1.16615e-06
11673 5499 7.00996e-07
1799 564 1.22641e-07
22162 213 3.65145e-07
493 83 3.03971e-07
6077 1126 1.1352e-07
0 13561 1.05307e-07
8192 8172 1.18571e-06
3659 8172 1.14685e-05
3659 247 6.42918e-05
4641 8172 2.94259e-07
29454 18908 2.01245e-05
29453 18908 1.71069e-06
29445 18908 1.56828e-06
12992 438 1.24452e-07
1655 1095 1.66427e-06
1615 494 1.70035e-07
29269 611 3.448e-06
6854 21 2.05171e-06
537 21 5.28543e-07
120 21 2.27956e-07
2865 21 9.02639e-07
64 21 1.21245e-07
25747 438 3.68184e-07
694 1604 1.94395e-07
2062 443 2.45981e-07
4325 10244 6.91048e-06
4877 4736 2.67066e-07
4162 2592 6.07429e-07
2047 331 1.14816e-06
1415 17771 1.05414e-05
0 17771 6.43181e-07
2951 195 4.66841e-06
18407 2276 6.45748e-07
6047 34 5.01863e-07
1413 1420 1.93937e-07
71 1420 2.43011e-07
13929 1420 4.73523e-06
976 1523 1.08566e-05
1290 51 2.8668e-07
464 9087 3.65919e-07
634 246 1.14448e-07
2592 1744 6.38289e-07
28739 1744 4.89726e-05
11848 9073 1.35857e-06
1574 449 2.54508e-06
12740 5293 3.03537e-06
28606 93 1.54326e-06
516 185 3.6555e-07
2820 18306 2.97082e-07
698 18306 1.24046e-06
2206 1971 3.12298e-07
64 331 2.03374e-07
3004 627 8.82433e-07
3835 68 2.43478e-07
10747 1351 1.44251e-06
28384 420 1.38499e-06
1718 34 1.02864e-07
6968 1987 0.000118625
4991 1987 2.60395e-06
28294 19 1.1707e-05
28184 53 1.3907e-06
1215 21 1.51834e-06
148 637 2.85598e-07
71 637 3.16997e-06
475 637 0.000232317
0 637 2.95345e-07
299 17973 1.07072e-07
1007 30 1.93894e-07
12135 331 1.81645e-07
10447 1436 2.26452e-06
472 34 1.1847e-07
349 2441 1.32886e-07
19463 754 6.23324e-07
27544 438 9.43288e-07
5760 127 1.27417e-07
27 1916 1.19201e-07
739 690 5.16914e-06
5672 690 4.0898e-06
27474 21 1.46526e-06
193 518 2.58133e-07
1880 518 1.12376e-07
6942 518 1.20121e-05
95 518 2.27798e-07
27391 518 1.75669e-05
2925 313 2.7186e-06
674 305 1.71153e-07
10733 995 1.06215e-06
3881 186 4.96391e-07
169 3368 1.42908e-07
26571 60 1.42983e-06
993 51 4.09739e-07
27109 17190 3.85339e-06
3776 54 1.4223e-06
9393 1963 4.00773e-07
135 17082 2.93016e-07
4334 30 7.39284e-07
108 658 1.23883e-07
12134 1710 3.31553e-07
1174 1095 1.69981e-07
1125 3446 2.79273e-07
19737 925 1.28257e-05
21967 83 1.49935e-06
45 68 3.13092e-07
1855 353 2.85873e-07
8272 1565 1.81749e-06
1041 1565 2.72387e-06
26572 535 2.23171e-06
8697 593 9.49031e-07
14112 1744 1.08529e-06
5857 206 8.70649e-07
8598 826 3.1294e-07
22623 183 1.01432e-06
10340 6422 1.02802e-06
15229 230 2.07755e-06
17755 48 2.59071e-06
12684 51 6.22292e-07
15291 371 1.31093e-07
9677 123 2.51688e-06
9529 83 2.55031e-06
674 115 1.32237e-07
20376 19 1.10667e-06
5730 45 8.1869e-07
2328 740 2.808e-07
807 60 1.19498e-07
17596 827 1.20089e-06
1354 2320 1.08012e-07
2974 181 2.00185e-07
22412 1060 3.66904e-06
13639 1092 8.36396e-07
22860 16351 3.60264e-07
5184 139 1.67303e-07
536 27 9.08294e-07
19050 1076 1.66559e-06
9022 127 2.08776e-06
21422 142 1.46233e-06
6983 68 4.57204e-07
2623 21 3.15511e-07
120 7093 3.77464e-07
25655 60 5.07391e-06
1011 16127 1.10428e-07
25585 486 2.32183e-06
2033 13722 1.24991e-07
9166 1171 1.08144e-06
4742 16081 1.46938e-06
25428 93 1.86113e-06
25428 45 1.95584e-06
248 9 1.07127e-07
17497 15992 2.78693e-07
25350 1060 3.04719e-06
743 45 1.0442e-06
1426 37 3.13502e-07
22193 20 9.24038e-07
1615 150 3.27609e-07
1950 150 5.11464e-07
4081 30 8.21971e-06
24021 4809 7.35615e-07
2494 1357 1.2561e-07
60 1357 1.64204e-07
469 1357 2.35714e-07
1753 730 4.12227e-06
2768 730 1.0278e-05
1017 730 1.57691e-06
7762 730 9.31835e-06
204 730 2.69196e-06
22007 730 0.000556697
7462 4597 3.42596e-07
8623 1521 2.15736e-07
1421 15 3.60688e-07
25013 15 3.10594e-06
13479 20 5.1106e-07
17710 39 3.99079e-06
3819 7714 9.87526e-07
3819 507 2.4793e-07
933 15627 1.2524e-06
18367 15627 3.74626e-06
21917 13600 1.82945e-05
3395 13600 1.41671e-05
1165 27 1.06865e-07
21797 45 4.64633e-07
24724 58 2.86409e-06
15291 52 1.03379e-07
16327 933 6.05118e-07
24709 220 2.06211e-05
9205 43 6.6796e-06
3208 892 1.34969e-06
7608 3114 9.14672e-07
20864 15471 1.61243e-06
24557 45 3.8494e-06
24552 41 1.82366e-06
1985 127 2.29871e-07
561 247 1.30584e-07
13381 5259 1.67514e-06
2451 353 1.06047e-07
4623 154 6.65692e-07
196 58 3.39011e-06
71 58 9.36864e-07
541 181 1.07251e-07
11221 22 2.23279e-06
2132 140 2.27964e-07
2132 189 0.000141691
2132 1146 1.94873e-07
5189 602 9.24931e-07
40 53 1.10504e-07
23877 5125 1.29155e-06
8904 1885 7.84843e-07
1278 68 1.13786e-07
8728 661 1.18594e-06
22178 1041 2.64181e-06
23628 157 4.16307e-06
985 1256 1.14584e-07
21917 6039 1.69401e-05
699 6039 1.28393e-06
200 6039 3.23419e-07
1890 6039 4.62646e-06
138 6039 2.64608e-07
242 6039 1.48219e-06
2490 6039 6.55305e-07
22135 483 4.16647e-06
3049 1076 1.95353e-07
1816 3598 1.04583e-07
21892 14563 3.48625e-07
1157 2664 7.61685e-07
23280 1041 1.69296e-06
23280 566 3.02874e-06
23280 39 3.07491e-06
16862 1357 8.10226e-07
6769 579 7.30023e-07
21002 180 1.08757e-07
4955 45 3.9033e-07
1007 759 2.36348e-07
320 127 4.45465e-07
298 10542 1.67349e-07
22279 389 1.25422e-06
1816 16 2.34936e-07
22815 16 5.68109e-06
1180 1093 1.53194e-07
21778 53 2.40083e-06
13776 19 1.1015e-06
4300 52 2.50436e-07
138 140 1.35193e-07
14033 4439 2.85174e-07
21781 2679 3.99944e-07
21781 1041 6.44433e-07
55 6195 9.46658e-07
1245 703 1.72321e-07
9017 60 1.79395e-06
2426 416 5.21735e-07
22116 68 2.00218e-06
20923 1983 1.22814e-07
21892 142 3.86126e-07
11825 28 1.56662e-06
4254 2461 3.29058e-07
4254 26 2.8143e-07
5732 1353 6.54574e-07
5573 990 1.21342e-05
2167 2188 7.60559e-07
48 2188 4.50539e-07
39 2188 9.35186e-07
5676 2188 3.34059e-05
6579 67 5.58769e-07
21622 651 2.74073e-06
21568 1207 2.64005e-06
13048 4435 5.20896e-07
49 2782 1.69419e-07
1167 27 1.02617e-07
19011 2732 1.23585e-06
15835 247 2.26175e-06
4676 804 6.68337e-06
221 593 1.53023e-07
527 593 4.06459e-07
1232 200 2.36787e-06
21366 3424 2.26166e-06
511 19 1.36636e-07
34 8673 7.20569e-06
908 1106 1.23148e-07
9284 1106 2.65278e-06
1173 1106 9.00041e-06
191 1106 0.0194078
508 764 1.23584e-07
668 2292 1.55201e-07
6549 68 1.31186e-06
21087 14 0.00197584
549 9108 1.40516e-07
1061 3887 3.13672e-07
807 133 1.09679e-07
947 4365 4.02285e-07
5245 54 5.3451e-07
3478 68 2e-07
2058 919 1.46485e-06
362 919 2.863e-06
751 608 8.73404e-07
5224 53 6.47827e-07
12287 10114 4.38458e-06
2573 183 5.17943e-07
1103 183 1.65955e-07
607 950 3.00194e-07
11663 13119 1.39628e-06
6071 5296 8.16914e-07
618 83 1.3564e-07
3319 27 1.04122e-07
6580 8270 2.95879e-07
5278 2962 1.68581e-06
20246 2962 0.000103266
1421 2962 4.38791e-07
181 2962 7.01528e-07
2191 10535 1.02702e-07
2191 83 1.00692e-07
20425 27 2.54868e-06
9474 6645 9.29526e-06
1573 6645 3.21158e-06
4466 1317 9.60813e-07
20370 12162 4.78152e-06
1516 68 1.77452e-07
53 68 6.84998e-07
543 3597 1.49793e-07
4605 10885 4.94866e-07
360 1463 1.81768e-07
2494 68 1.60184e-07
520 188 1.09144e-06
20071 45 2.34331e-06
378 6312 1.89149e-07
15 919 1.11548e-07
19927 39 1.58596e-06
13224 32 3.63073e-06
986 2895 1.20763e-07
16435 27 4.36242e-07
168 32 1.07344e-07
674 1097 1.22868e-07
9661 517 9.82848e-07
583 554 4.19233e-06
349 554 2.5337e-06
1156 2242 9.68351e-07
19417 581 3.48801e-06
1547 133 1.31501e-07
3894 208 4.80589e-07
926 2753 4.67158e-07
903 45 3.30579e-07
116 1827 1.03113e-07
19177 10320 3.28358e-06
478 660 1.51955e-06
350 10044 1.27302e-07
11266 4801 3.88237e-06
49 4801 1.31909e-06
0 4801 1.21492e-07
73 28 1.01303e-07
701 5065 1.3809e-07
10986 449 1.00367e-07
5013 1093 7.9331e-07
635 453 1.24606e-07
16832 45 2.10993e-06
80 532 1.23866e-06
18892 1041 5.83557e-06
3917 5721 2.04563e-06
1281 5721 1.6994e-05
1148 5721 1.92826e-07
18825 9702 9.53212e-07
3440 2732 1.61718e-06
3440 264 5.56541e-07
18255 57 1.12575e-07
863 2402 0.000214451
813 2402 1.96815e-05
124 2402 2.44394e-05
1005 2402 2.72718e-05
141 9572 2.88868e-07
1101 9572 3.02549e-05
56 12215 1.29265e-07
2132 529 0.000137103
2302 11943 3.82876e-07
21 7290 1.33452e-07
935 10415 1.49172e-07
2635 587 3.86663e-06
1914 3744 1.91947e-07
526 9547 2.52337e-07
1758 3632 2.10068e-07
2196 185 1.26825e-07
13316 21 1.0163e-07
18 892 1.68036e-07
1702 892 2.07947e-06
14935 2665 1.18172e-06
178 1284 1.38996e-07
1045 1284 1.32339e-06
5176 1284 4.25577e-06
12107 1284 1.34655e-06
9666 990 2.56268e-06
15288 1041 1.6341e-06
13316 54 1.24148e-07
1996 156 3.27572e-07
13400 27 1.22024e-07
2326 189 2.04576e-07
5732 535 2.09917e-07
8683 202 6.71043e-07
17712 45 1.8835e-06
5713 7004 8.20929e-07
3051 7004 2.37858e-06
1016 7004 2.30327e-07
22 11325 1.75474e-07
638 39 1.63311e-07
689 19 2.0768e-07
13259 892 1.33888e-06
4412 48 1.07627e-06
325 679 8.19423e-07
463 64 2.25048e-07
12954 27 1.02581e-07
263 286 1.055e-07
22 27 1.89579e-07
346 483 1.16582e-06
13019 483 2.56473e-07
1373 3597 6.85455e-07
13111 11148 1.15378e-07
543 10855 1.32125e-07
9674 19 4.4081e-07
1920 1657 1.13713e-06
331 11079 1.10169e-07
116 11078 2.4101e-06
59 11078 3.79142e-07
5927 2439 1.22952e-06
2451 5072 2.60155e-07
43 123 1.0092e-07
406 2145 1.75852e-07
16704 634 8.98283e-05
16703 634 3.26532e-05
16689 128 1.821e-06
5344 1158 1.33419e-06
2344 8354 3.54515e-07
16652 2618 2.89435e-06
12945 20 5.62859e-07
1092 1081 1.48937e-07
2082 577 1.16923e-07
16537 597 8.98346e-07
12021 83 4.53999e-07
16489 986 4.01129e-06
16489 2258 6.58298e-05
16489 93 3.32234e-06
16478 7093 1.53e-06
1445 287 1.39876e-06
192 287 2.30827e-06
16454 287 2.936e-07
162 27 1.02929e-07
152 54 1.37386e-07
14335 5728 1.90768e-07
14947 3031 1.11347e-06
16322 2982 2.84698e-06
3310 9560 1.61468e-05
1310 453 2.36082e-07
14992 6693 6.00368e-07
11260 6693 1.37875e-06
70 142 1.08601e-07
14685 1130 3.0572e-07
352 5184 1.07333e-07
3266 5184 1.35641e-07
375 68 1.62349e-07
6579 2753 7.30719e-07
3990 5453 1.92628e-07
4817 5453 6.1902e-07
1039 287 2.13181e-07
6012 16 3.88737e-07
8824 525 1.19304e-07
2356 10200 5.07497e-05
5476 10200 1.36117e-06
15417 45 5.7553e-07
5732 10535 2.76396e-07
1799 60 1.0221e-07
1174 1405 2.4779e-07
15360 9007 6.69003e-07
7482 664 1.10913e-07
36 1093 2.75894e-07
2939 1349 3.18986e-07
1692 10414 8.74924e-07
469 2686 1.63845e-07
43 2686 1.25726e-07
10300 51 7.11007e-07
690 193 1.38811e-07
815 620 1.01917e-07
12762 8664 1.02447e-07
6162 3309 1.35075e-06
259 3309 8.28526e-07
13489 71 2.26067e-06
0 2962 1.0633e-07
14926 45 5.47983e-07
14682 892 2.76337e-06
1296 1827 1.63092e-07
6054 3325 1.59015e-07
14562 27 1.22642e-06
541 9648 9.65977e-07
145 60 1.08587e-07
14305 45 2.34125e-06
915 3081 1.31657e-07
469 591 1.53063e-07
13504 1827 1.12418e-06
538 6415 2.13316e-07
13115 802 1.39765e-07
6970 380 2.38916e-07
10465 298 1.64655e-06
2251 298 1.70924e-07
4759 41 6.92253e-07
500 476 1.24417e-07
2132 9415 1.04392e-07
8406 1689 1.15138e-06
178 230 1.03347e-07
13685 587 3.35038e-06
1176 587 2.14632e-07
3456 1081 2.32069e-07
1996 786 3.59083e-07
1177 3447 1.27767e-07
1604 602 6.07651e-07
599 1335 1.35131e-07
13391 8673 2.24362e-06
2935 7222 1.27513e-07
41 587 1.61685e-06
40 3062 1.41768e-07
13288 241 3.82376e-07
3058 241 1.52654e-07
1499 210 3.38446e-07
13199 9015 2.60159e-06
3269 30 9.1791e-07
7462 4435 3.34809e-07
168 220 1.36619e-07
168 127 1.42882e-06
168 4435 3.6758e-06
936 4930 6.06164e-07
221 8863 1.02029e-07
1278 139 1.15991e-07
150 194 4.8032e-07
410 194 5.72786e-07
6212 194 1.35046e-06
643 45 6.45078e-07
9868 73 1.00218e-06
886 3010 1.03314e-07
6249 3010 1.99292e-06
6875 593 5.89907e-07
1982 45 1.26207e-07
9767 133 7.52083e-07
1125 2666 3.01868e-07
4790 1066 1.59338e-05
2461 8119 2.58342e-07
597 127 1.43655e-07
3059 4449 6.04403e-07
2335 378 1.99649e-06
5875 32 3.97443e-07
1653 2027 1.23388e-06
1804 325 1.06414e-07
2024 664 2.58562e-07
511 189 1.08958e-07
2094 1095 4.77555e-06
6106 1403 2.00513e-07
3315 7930 2.78011e-05
11646 222 6.37138e-06
5068 7840 9.40214e-07
11 156 2.86237e-07
688 2388 4.01547e-07
1049 34 1.59219e-06
674 219 1.02107e-07
6302 45 3.25157e-07
496 428 3.89375e-07
202 428 3.22753e-07
3249 7703 4.48446e-07
3294 841 6.0504e-07
116 22 1.44417e-07
198 661 4.69651e-07
60 1411 1.6945e-07
295 4304 1.05103e-07
11233 4304 3.59786e-05
5856 287 6.65532e-07
3080 6302 5.66642e-06
2229 45 7.83396e-07
3722 37 1.57718e-07
64 1207 1.05294e-06
688 7446 1.30218e-07
4996 4883 5.13289e-07
1973 68 1.17497e-07
1419 68 2.99619e-07
20 890 1.08207e-07
1151 1101 1.27882e-06
1003 6076 1.08288e-07
113 5122 1.01576e-07
80 83 1.10439e-07
161 32 1.27637e-07
2602 51 1.0094e-07
161 241 1.26109e-07
7335 68 1.98177e-07
777 34 1.32303e-07
1456 2890 4.41114e-07
1264 3597 1.08472e-07
10435 3597 1.37209e-06
3123 286 1.49752e-06
3123 184 1.37018e-06
339 286 1.17985e-07
412 184 3.96272e-06
5299 3139 8.32973e-07
10331 140 2.64383e-06
225 1501 2.26418e-07
549 15 2.69407e-07
3461 532 2.58831e-07
378 1997 1.68524e-07
7906 71 1.88078e-07
1937 702 3.68261e-07
8166 213 2.46008e-07
9945 188 5.80463e-06
1279 188 4.86057e-07
9902 43 1.94437e-06
4279 2 5.90365e-07
1316 141 1.69488e-07
198 175 5.33124e-07
170 378 1.70098e-06
1060 995 1.16059e-07
9719 45 1.3214e-06
1981 581 1.12689e-07
1415 661 1.27523e-07
420 826 1.98749e-07
3992 82 2.48937e-07
2970 6600 1.3853e-07
8694 556 1.78335e-06
4643 22 1.79884e-06
1610 591 3.13507e-07
1794 581 1.92757e-07
172 634 4.45228e-07
5436 3061 1.62153e-06
9405 518 6.16043e-06
7833 2693 4.14959e-07
1982 457 1.19327e-07
1279 153 1.24958e-07
9324 4046 2.499e-06
13 188 1.49444e-07
2302 188 5.1333e-06
1799 188 1.04059e-07
1320 133 3.12709e-07
8645 389 1.42097e-06
1060 34 1.28439e-07
21 930 1.03594e-07
4053 930 4.80063e-06
0 930 1.0249e-07
2730 4750 3.5539e-06
443 4750 1.82151e-07
9100 4750 6.3608e-06
456 2 1.02327e-07
1166 115 1.02377e-07
8851 65 1.47723e-06
531 1720 6.17076e-07
95 3417 2.16455e-07
202 607 1.91747e-07
8509 139 4.64079e-06
8232 2738 2.48735e-06
8231 587 1.73545e-06
3284 66 2.07098e-06
44 127 1.08312e-07
161 486 4.36973e-07
2158 2335 3.22611e-07
1530 95 3.5299e-07
1753 544 3.26699e-05
21 544 5.95117e-07
2882 544 8.42663e-05
183 41 2.60351e-07
611 1207 1.25385e-07
7904 66 1.24141e-06
871 1862 1.67924e-07
2167 486 2.36438e-07
638 127 1.02084e-07
127 127 2.98681e-07
4877 4458 9.53738e-07
248 139 1.34594e-07
248 4458 1.5019e-07
11 1130 1.28012e-07
833 627 2.92064e-07
478 627 2.87841e-06
247 627 2.24028e-07
0 627 2.34356e-07
975 3647 4.6608e-07
3056 522 5.89213e-07
1839 5323 1.71445e-05
7529 5323 2.0613e-06
7527 5323 2.75727e-05
826 566 6.50078e-06
47 566 8.62288e-05
43 566 6.17988e-05
3916 566 0.000207681
7312 133 1.93604e-06
890 445 1.11922e-07
7293 127 8.6555e-07
1422 127 1.58781e-07
914 90 1.39492e-07
0 483 1.41816e-07
12 1176 1.58181e-07
1972 3625 7.87668e-07
456 441 1.57945e-07
1421 127 1.01901e-07
6858 156 2.38683e-05
1396 175 1.08739e-07
256 41 1.17453e-07
4983 1651 6.31651e-07
549 54 1.13322e-07
350 763 1.08548e-07
1338 68 6.09989e-07
464 55 1.64e-07
137 1070 1.00707e-07
542 127 1.02453e-07
177 165 1.11156e-07
5687 1424 1.26232e-06
1624 530 4.08152e-07
5355 66 6.0543e-07
5342 45 9.89528e-06
340 654 5.07393e-05
1418 654 9.49263e-05
2598 51 3.6066e-07
0 280 1.17227e-07
1714 1984 3.68746e-07
4873 53 2.06803e-06
285 1280 1.47118e-07
3619 2678 1.06339e-07
2124 3494 1.05241e-06
619 3494 1.61686e-07
4564 3494 3.00888e-06
360 3494 5.6883e-07
115 3494 1.63757e-07
4557 3494 2.63763e-06
3650 3494 0.00191728
287 303 1.4733e-07
4425 48 7.05932e-07
258 438 8.56138e-07
1027 83 1.04725e-07
1854 49 7.32254e-07
2251 3142 1.28089e-07
4040 68 3.3897e-06
0 634 1.76832e-07
3681 1886 1.15133e-06
2823 2345 6.2966e-07
295 2387 1.02417e-07
20 2845 1.32593e-07
954 53 1.23783e-07
3576 892 3.69633e-06
3568 373 2.15919e-06
0 607 4.15316e-07
1938 1166 3.32528e-06
2675 208 5.38894e-07
3450 83 4.78716e-07
3439 156 2.4933e-06
1838 1339 1.4396e-07
0 730 6.7732e-07
1101 378 3.75676e-07
614 93 1.56158e-07
985 18 1.15098e-07
1584 660 7.84459e-07
2987 1964 2.66404e-06
349 1964 1.74433e-07
2674 1964 3.39896e-05
701 48 1.44356e-07
239 127 2.14717e-07
842 2126 1.06828e-07
149 116 6.11811e-06
2248 116 2.31012e-07
2555 116 1.20639e-05
2500 20 1.40014e-05
2402 154 9.75221e-06
2401 1931 1.14827e-06
2322 28 1.08503e-07
1058 661 3.17804e-07
1418 1659 1.8906e-07
375 60 1.72651e-07
694 60 2.43584e-07
469 1299 1.28782e-07
1443 222 6.16452e-07
0 566 4.91558e-07
738 1193 1.38524e-07
506 13 2.9011e-07
1214 93 1.24684e-06
811 588 2.05901e-07
985 587 1.1531e-06
1041 115 5.29316e-07
507 390 2.00223e-06
430 11 1.78803e-06
346 48 1.18876e-06
244 243 2.7163e-06
0 194 1.22643e-07
121 54 1.71113e-07
22256 16 0.00047375
670 34 3.49714e-07
27047 11492 2.4049e-05
9331 16629 3.07449e-05
541 16629 5.28899e-07
19880 6252 1.98392e-06
9785 17400 4.22306e-06
470 21 3.75068e-05
30301 60 7.65514e-05
25295 22 8.7982e-06
1081 13263 1.30222e-07
182 7003 1.47494e-07
4454 5857 1.89736e-07
2249 616 4.72845e-07
842 83 1.77106e-07
1894 2591 2.69314e-06
44 2591 4.72575e-07
751 2591 3.74472e-07
216 1932 2.40229e-07
3141 603 8.24186e-07
823 603 3.13284e-07
160 127 2.93872e-07
8192 19278 9.22306e-06
4300 34 0.000151813
25546 30 8.4998e-05
21791 19234 0.00434722
429 26 7.83769e-06
886 8205 1.47251e-06
15431 8205 0.000169329
29865 581 2.8888e-05
1512 2554 1.40899e-07
1422 17543 2.65275e-05
29777 1049 0.00136818
29777 19102 0.000300385
851 19102 0.000117961
22727 142 3.49889e-05
270 7029 0.0112389
124 7029 1.50158e-05
1854 7029 4.41635e-07
3807 8223 6.22477e-06
4984 531 0.00167693
2287 11 2.38771e-06
17143 946 0.000143296
64 2384 1.95055e-07
272 6761 0.000105542
4200 6761 0.000295532
937 6761 0.000106612
197 7000 3.42666e-07
45 7000 2.7797e-05
6450 7000 5.4405e-05
2512 7000 7.37157e-05
26441 18974 6.01002e-07
29548 507 9.38397e-06
3184 18969 6.4903e-05
1508 3095 2.04136e-07
26286 210 0.000156688
4198 427 1.03964e-07
4067 95 1.10809e-05
4102 34 1.63376e-06
1281 5308 0.00022893
10057 493 2.09333e-05
3277 892 7.80272e-07
8638 5214 2.53657e-07
1176 2879 4.95016e-07
438 2879 1.23415e-07
171 1306 2.20263e-07
1866 4736 3.96158e-07
428 4736 1.80328e-06
3971 4736 2.79927e-06
22174 39 4.93251e-07
15291 2097 3.34708e-07
531 4749 1.28218e-07
23296 68 2.30674e-06
133 18553 9.63559e-07
2870 970 5.79012e-05
105 970 3.57797e-07
1336 970 1.00152e-05
2935 16805 7.26621e-07
2846 21 6.85377e-07
1516 3514 2.64527e-07
6976 1521 2.13906e-06
4438 21 7.67188e-07
21984 27 4.88045e-07
12256 9 1.52427e-06
4362 1657 7.97168e-06
1339 1657 1.2737e-05
65 1077 1.54735e-07
23371 18307 1.16538e-05
1122 331 0.000160267
25747 331 7.40495e-05
28486 1438 1.62147e-05
496 2097 1.42733e-07
1753 642 3.49811e-06
28458 4836 0.000248573
25035 22 1.59037e-06
11283 18151 4.57594e-05
463 1081 5.03055e-07
697 9494 3.09874e-07
1759 175 1.41453e-07
500 1901 1.13122e-07
2926 1901 2.65758e-05
3916 1901 4.21548e-05
152 4101 1.46813e-07
3610 686 8.71208e-06
5644 5733 3.7452e-06
679 47 3.34913e-06
5482 47 4.3206e-06
5184 12726 7.22232e-07
10471 2194 6.05959e-06
2704 591 1.38118e-05
4628 34 3.32793e-05
179 720 1.5245e-07
2468 427 0.0122374
12005 519 1.46057e-05
2010 6417 4.81707e-07
252 95 5.56502e-05
448 194 3.74991e-07
1914 1126 2.79883e-07
22162 393 7.95769e-06
2088 2441 1.90919e-05
26607 202 4.80541e-06
6518 202 0.0259095
927 202 1.7805e-05
3141 202 1.95777e-05
3258 202 2.72487e-06
1555 39 1.22198e-06
27605 210 5.41308e-05
27542 5482 1.05513e-05
27172 3254 0.000131049
3870 66 3.28803e-05
5538 83 1.81647e-06
1015 16805 1.25405e-06
175 16805 1.29497e-06
12101 127 0.015389
187 127 1.94915e-07
406 39 3.31828e-07
1665 95 0.000545425
8506 95 0.0659065
22964 68 5.91585e-06
27232 54 0.000262086
2232 10538 2.285e-06
27173 17248 0.000505079
27022 45 0.000311163
6643 22 1.31034e-05
198 83 5.51674e-07
109 658 1.74236e-07
17122 1095 1.46416e-06
1282 16 7.0639e-07
640 16951 1.19631e-07
797 20 2.05234e-07
8461 752 7.1858e-06
2555 404 0.00267313
21990 1054 1.34631e-07
3234 115 1.18371e-06
10001 249 9.09534e-07
26621 363 3.02845e-05
4102 176 4.11508e-05
245 755 3.79631e-06
4234 176 8.03116e-05
3942 188 1.59262e-05
2238 68 9.36351e-07
787 1388 2.84011e-06
2935 280 0.000236357
26306 22 8.97631e-06
2026 16515 1.31556e-05
591 16515 1.02826e-06
26260 338 0.000321211
228 34 2.53003e-06
25433 1657 0.000134777
20509 15 7.02143e-05
24308 189 3.20597e-06
26080 378 0.000280496
3281 492 3.26964e-07
15356 7381 8.18703e-06
2416 7381 0.0143738
4123 133 2.14935e-05
25953 133 1.67335e-05
2468 4474 4.83182e-07
3086 8394 1.64419e-07
4991 1809 1.61626e-07
518 1020 6.94642e-07
5110 1020 1.99541e-06
8917 587 2.65089e-06
22 414 1.57006e-07
0 1901 6.29263e-07
116 1687 3.98887e-07
1157 16288 1.63455e-07
4515 3036 1.85227e-05
25859 3036 0.00121026
5175 2631 3.87657e-06
18676 2631 1.51857e-05
1718 4838 1.48843e-07
2612 217 4.83047e-06
1088 8621 8.70404e-07
25691 90 3.68299e-05
19336 2423 4.54224e-05
25686 39 2.16886e-06
2235 16158 1.40598e-07
22006 30 5.19141e-06
1180 3325 1.33746e-07
2765 133 2.08601e-05
6016 1200 1.87595e-05
22666 1886 2.31338e-05
12052 51 1.034e-06
25355 51 3.8153e-05
2744 2220 1.56739e-06
5439 1451 0.000100954
2947 55 0.000145156
711 37 1.39136e-06
410 11179 1.11292e-07
1137 1041 4.00116e-06
739 1077 4.64837e-07
1083 1077 8.90588e-07
24405 19 4.68069e-05
360 967 2.8061e-07
815 967 1.30948e-06
3593 123 7.41632e-06
25064 5036 7.84372e-06
13009 1081 4.48625e-06
1700 2679 2.6215e-06
4266 1265 1.58375e-07
263 890 1.28533e-05
468 7600 1.39417e-07
15812 341 1.01521e-06
21872 750 1.94909e-05
441 7601 1.28864e-06
24361 364 0.000140495
7949 15152 1.96871e-05
21792 3293 9.25784e-05
2451 3189 0.00159574
71 3189 1.33893e-06
1118 9109 1.8387e-05
24593 1041 3.9076e-05
5686 4936 3.67694e-06
14501 127 3.66036e-06
7678 1041 3.44431e-06
2232 1886 1.50841e-06
22007 2448 1.0391e-05
1854 1238 9.76823e-06
2220 1238 6.79152e-07
10554 390 4.27839e-07
23296 51 1.92571e-06
22860 453 4.54015e-07
9975 1081 8.41106e-05
24267 740 6.98279e-06
170 13609 6.27734e-07
9284 15 4.02195e-06
18030 127 1.64532e-05
24090 1427 2.03919e-05
11133 53 5.3024e-06
5305 970 3.926e-06
378 133 2.4225e-07
57 581 1.57662e-07
13 222 1.0703e-07
1859 1848 2.76219e-06
23930 615 4.57208e-06
4215 615 4.40455e-05
16189 1037 0.0917772
23897 752 5.02717e-05
17734 30 2.81558e-05
23864 1081 2.22826e-05
648 150 1.77219e-07
3469 127 3.33666e-07
602 1865 2.67091e-07
23773 3597 7.23674e-05
619 13931 1.06636e-07
2564 13931 1.61168e-06
4641 13931 1.82821e-07
23755 892 0.00015188
4389 892 0.00719646
438 892 2.83024e-07
5552 14956 3.54228e-07
12994 14884 4.92232e-07
5571 14884 2.34458e-05
328 4003 1.17579e-06
7811 13595 1.47964e-06
7811 7123 1.34334e-06
22095 133 5.22652e-07
1877 1291 2.89882e-06
22064 30 2.25792e-05
23373 1545 0.00095808
23370 1483 0.000945152
16051 4663 8.38732e-06
1157 2643 1.41975e-07
38 607 2.43272e-07
707 343 1.97142e-06
1101 2708 9.34073e-07
1938 12479 2.4661e-07
23174 39 7.09187e-06
11754 5412 7.79393e-06
1301 5412 0.00100753
23078 41 1.13079e-05
23064 232 1.91124e-05
493 759 2.274e-07
1031 1604 4.84452e-06
22990 27 3.51446e-06
22972 650 4.71931e-05
22960 123 8.39362e-05
8466 1081 5.6131e-06
6053 156 1.10407e-07
9945 123 7.42196e-06
78 13825 3.07451e-07
1316 133 5.25692e-07
1176 133 3.63526e-07
500 133 1.27851e-06
7043 325 2.46983e-06
355 325 2.06637e-06
9399 1024 1.18455e-06
9945 593 3.82395e-06
17579 80 9.16769e-05
22698 140 1.93434e-05
1029 4417 2.36338e-06
22399 4435 1.85587e-06
22612 4435 2.7038e-05
22522 41 0.00052671
1722 1200 3.39953e-06
22465 1200 0.000792846
599 438 3.18515e-07
12636 95 3.76069e-06
6755 133 3.31586e-06
2016 5380 3.0419e-06
2606 18 3.62964e-06
1682 2584 7.33521e-07
1735 239 4.07454e-06
18574 13889 1.80386e-06
1941 13808 4.74696e-06
21897 180 3.45405e-07
59 5430 1.69608e-07
124 5430 1.8382e-07
20073 1041 5.57598e-05
4294 11645 1.2739e-06
21982 901 1.25742e-05
6925 1060 4.82225e-07
13274 19 6.08818e-06
21866 127 0.000245193
287 13384 2.79259e-07
635 9951 2.10056e-07
854 9951 1.26037e-07
621 2182 9.02546e-07
808 8882 0.000776368
246 8882 1.1563e-05
926 8882 2.39701e-05
629 4423 1.79231e-07
743 220 0.000104343
100 1095 3.9601e-07
634 763 9.64261e-07
895 1259 1.36125e-07
13110 142 1.43299e-06
1177 8664 6.87945e-06
62 390 1.57712e-06
269 417 7.7381e-06
6106 32 6.16351e-07
6106 2535 2.53906e-07
730 41 4.34713e-06
730 45 5.04993e-06
0 3209 1.39278e-07
600 195 3.96295e-07
2413 8312 0.000105111
5850 51 7.0598e-07
3930 1300 0.104258
3949 9483 2.06956e-06
13007 142 5.29182e-07
3589 331 1.8281e-05
8182 8673 1.19674e-07
1157 54 1.50547e-07
12931 1166 5.82797e-07
3990 51 6.01476e-07
21211 1938 6.50271e-06
1230 189 3.85653e-07
13488 1082 1.43554e-07
21168 537 2.27816e-06
1260 2704 7.80978e-07
8623 850 1.86116e-07
2234 1864 1.13582e-07
58 2636 4.46526e-07
59 2636 2.94808e-07
216 363 1.61114e-07
9970 581 3.17361e-05
519 2688 5.14136e-07
3238 380 2.36996e-07
2010 1101 9.25605e-06
14628 1349 1.20831e-05
1866 1349 0.000376328
12950 13285 1.10191e-05
1153 10885 7.56825e-07
18516 30 1.69617e-06
15378 752 7.57482e-06
20751 5380 0.00011022
3141 5380 7.89986e-07
20700 403 3.62324e-05
204 3825 1.99256e-07
0 4017 3.76961e-07
1417 27 1.38595e-07
873 282 0.00382619
12478 154 1.72075e-06
15225 27 1.02186e-05
986 4435 5.2197e-07
14033 21 2.86688e-07
6094 764 1.31591e-06
1017 495 2.56987e-06
11251 1711 7.41913e-06
678 12428 2.82e-07
13444 590 2.85456e-07
943 261 4.20682e-07
8051 1922 3.3467e-07
15080 919 0.000247215
19927 6013 4.84778e-05
19919 1885 1.7138e-05
16528 27 1.78615e-05
2609 5218 6.44462e-06
1752 298 7.44971e-07
49 12772 1.04481e-07
56 117 1.86673e-07
1816 1207 1.25616e-07
10022 2469 1.361e-06
1060 850 1.01029e-07
3817 208 2.01704e-07
2 8770 1.66425e-07
19695 3597 1.8145e-05
19695 590 1.64833e-05
3991 208 0.000475597
13948 27 2.28665e-06
3577 869 7.12873e-07
16414 10253 8.29967e-05
1432 10253 1.09908e-07
13316 183 4.01805e-07
255 154 1.07263e-06
4285 4129 3.36558e-07
19237 139 0.000252129
4144 449 2.56348e-07
6717 6109 4.07404e-06
13111 8359 2.00009e-07
513 4435 1.43597e-07
18865 45 5.17426e-05
1310 189 4.80992e-07
15325 189 1.07811e-06
6152 45 2.97479e-06
18 12215 0.000246593
385 140 2.15782e-07
2089 593 3.15939e-06
14423 970 0.00179342
18683 1669 0.166274
15563 18 1.17985e-06
15029 7290 1.93187e-06
1906 532 5.6383e-07
1738 8669 1.05604e-06
18570 27 0.00184934
18255 9887 1.56997e-07
2494 12054 8.07489e-07
16810 83 0.00119234
2196 1411 8.28128e-07
2127 1451 1.45139e-07
182 11958 3.05757e-05
18262 313 4.76269e-05
754 219 4.00683e-06
6064 2914 2.25189e-06
4269 2914 5.19555e-07
13033 1284 0.00232298
12201 2113 1.83199e-05
2323 11877 1.72412e-07
115 566 2.05184e-06
138 566 0.000224366
797 566 5.07126e-05
18124 39 8.05223e-06
3057 752 9.77939e-06
1007 1334 2.66112e-07
9989 5116 7.97141e-06
4195 378 2.08357e-05
259 338 7.5258e-07
65 1217 1.67193e-07
64 14 1.34947e-06
1974 8669 8.25584e-06
13698 2 2.3947e-07
4515 1993 4.7167e-07
15561 3393 1.20774e-07
415 10825 2.90848e-07
12708 51 1.29778e-07
17670 10456 7.93756e-05
5184 7953 8.31342e-07
17590 1784 7.90532e-05
2427 3588 6.46778e-06
124 1956 3.28939e-07
14314 20 1.71221e-06
1509 273 4.2534e-06
13070 273 2.18476e-05
192 273 1.13329e-06
161 273 2.5221e-06
64 80 4.30467e-06
267 80 2.87308e-06
12487 80 5.04238e-05
895 11447 1.23395e-07
6925 532 7.38477e-07
5702 1115 0.00282556
17317 1115 3.02348e-05
4055 581 0.00268186
1373 581 1.51212e-06
1537 4347 2.01279e-05
14574 8673 6.64871e-06
13295 222 7.67483e-06
1310 90 1.64094e-07
751 133 3.60574e-07
1849 67 2.22895e-07
5188 179 1.00813e-05
2137 593 5.27537e-07
6886 1245 0.000182282
1973 367 0.000214908
16996 139 0.00117976
2132 397 0.000167233
3141 804 1.46847e-06
629 804 8.49114e-07
1914 5732 1.3062e-07
2090 570 7.22771e-07
1626 1090 2.45156e-06
2255 8673 4.84211e-07
13209 590 7.76488e-05
2494 210 1.2367e-07
1902 1041 8.64707e-07
1902 39 8.08369e-07
204 179 1.34795e-07
13437 6790 1.66528e-07
16739 83 9.86794e-06
641 951 1.19461e-07
15029 155 1.31317e-06
1157 128 1.74125e-06
1173 128 9.91849e-07
16671 32 0.000656482
5204 8720 1.53885e-07
443 2032 1.94693e-06
396 2032 2.84409e-07
1374 518 1.46609e-07
559 1834 0.00147196
5716 3102 0.000107724
78 3102 3.50101e-05
510 5728 5.42729e-07
3212 93 1.1774e-06
14992 127 1.05921e-05
12335 581 0.0026034
6015 1886 1.70724e-05
5674 1711 8.28892e-07
4753 45 3.66492e-06
12946 694 2.09411e-07
716 7092 0.00145019
1415 7092 3.92534e-06
808 2096 1.23473e-06
817 15 1.22511e-06
6920 1076 0.000571498
976 10616 7.39688e-07
58 720 7.91185e-06
65 720 2.11213e-07
14038 1405 1.7799e-06
12791 8730 3.971e-06
8024 4122 0.00324593
15420 150 5.48202e-05
469 1115 5.19916e-07
3240 7484 1.4229e-06
15362 189 0.000444259
1024 3597 1.2878e-05
71 3597 1.38717e-06
2451 20 3.1319e-07
967 646 1.76489e-06
9101 646 5.10908e-06
797 535 3.48717e-07
1235 10258 3.42299e-06
5568 438 2.21598e-06
256 4120 4.73519e-07
15148 2258 2.57985e-06
1973 1657 1.13369e-06
1924 127 8.40221e-07
71 73 6.54571e-07
618 811 2.21322e-07
3478 178 3.38279e-07
14889 14 0.00101403
1975 1865 7.7044e-07
752 8521 1.1091e-07
344 8673 3.47208e-07
1433 3446 6.56173e-07
1918 30 1.38197e-06
2752 1508 1.27837e-05
1310 60 2.11536e-07
14519 457 0.000165038
1582 1058 1.86985e-06
13634 587 9.93104e-05
318 2503 1.76279e-06
14037 210 1.70391e-05
6086 48 7.8202e-07
14261 39 1.31166e-05
138 4120 7.94244e-07
14231 30 0.000112402
1973 529 4.30069e-07
8029 188 1.57688e-06
12994 2712 2.57368e-06
1475 2848 2.317e-06
1574 802 1.28992e-07
64 802 8.54956e-07
914 802 0.00681293
192 802 1.48133e-05
682 641 2.56571e-07
1177 2619 3.20584e-07
13797 45 4.29607e-06
12108 453 0.00245894
0 8968 2.03536e-07
13611 459 8.64159e-05
503 2242 1.69124e-07
13544 133 6.58253e-05
13433 1037 3.65799e-05
18 8673 5.31995e-07
3577 8673 2.0606e-06
3047 3190 8.01654e-07
13376 8671 6.0254e-06
36 8671 1.89423e-06
15 353 5.25012e-07
931 8914 3.81501e-07
12791 867 1.40013e-07
2834 826 2.28567e-06
428 60 3.99295e-07
375 1993 5.10667e-07
29 4435 3.0715e-07
12949 32 0.0164914
12908 2618 0.000131103
760 2099 4.07832e-06
8008 6953 0.00199374
732 8306 2.66859e-06
12589 2 1.00767e-06
219 3308 1.86156e-05
1018 3308 2.93498e-05
15751 679 7.21393e-06
2045 5811 1.14635e-05
4896 5811 2.72505e-06
4530 275 1.82779e-06
10253 8526 7.05931e-06
1866 3351 1.44965e-07
389 1095 1.56568e-06
12483 1194 3.06718e-05
5710 117 9.56108e-06
2580 1380 4.95609e-07
2975 272 1.431e-07
255 272 2.61832e-06
384 210 9.23235e-07
811 45 2.00637e-07
12288 1060 0.0141322
12130 1643 1.3842e-05
12130 127 9.33739e-05
12272 559 0.000111304
6047 45 2.88349e-06
177 45 2.16715e-07
1278 369 1.22541e-07
1973 8235 4.40289e-07
1115 51 2.50711e-07
7312 1066 0.00344616
275 48 6.60089e-06
1432 826 2.11724e-07
4698 47 4.63236e-05
1060 7449 2.32327e-07
270 1984 1.93583e-07
1890 200 8.96341e-07
172 286 1.83677e-07
5411 2598 1.175e-05
11807 515 3.33242e-05
4138 515 1.87022e-05
11796 42 1.07774e-05
11796 142 5.59079e-06
4639 42 2.46337e-05
4639 142 1.45355e-05
3484 1041 2.38885e-05
278 353 3.53894e-06
1714 401 5.7569e-06
467 2719 5.672e-05
5875 393 2.19874e-06
392 353 3.19967e-06
11577 246 4.45979e-05
9146 587 0.000189216
493 1207 1.48327e-07
201 65 1.98163e-07
29 5836 4.33731e-05
2651 157 2.72425e-06
11443 157 0.000338672
380 4532 6.40944e-06
3249 660 1.33982e-05
4404 720 1.79598e-05
690 486 1.3273e-07
617 135 4.17997e-06
815 395 2.00894e-07
626 135 1.25947e-05
1061 395 0.00345121
1061 135 0.00076677
2394 2675 2.33108e-06
3044 380 3.60099e-06
7559 2416 4.72077e-05
2952 590 6.73453e-07
11236 2416 4.54248e-06
352 3410 5.1479e-06
1166 2472 1.21557e-07
11193 117 5.0403e-05
741 1046 4.78667e-06
890 1393 1.55086e-07
1305 458 4.09745e-07
726 3203 3.93864e-07
11095 581 2.47258e-05
301 210 1.48445e-06
7227 16 3.25084e-05
3636 133 7.52105e-06
59 2120 1.30849e-07
6208 4646 2.60852e-07
10904 325 0.000169357
1973 1060 2.45941e-07
2180 241 2.86976e-06
2319 3573 1.76508e-05
43 395 7.95289e-05
10675 11 0.000233809
3469 607 4.86771e-07
7410 20 2.38877e-06
181 1089 1.51634e-06
3063 661 3.51049e-07
3362 241 0.0110626
3573 2818 2.44008e-07
1705 115 1.77634e-06
2359 256 5.74726e-06
1156 60 1.22317e-05
468 1997 1.64083e-07
9238 1261 7.3851e-07
763 41 5.16072e-07
177 41 1.91562e-07
2058 53 8.19919e-07
10056 60 0.000161388
3722 34 3.21953e-07
7999 51 9.23392e-06
1374 642 5.74894e-07
9967 6888 3.6294e-05
247 877 4.5469e-07
9871 457 6.45846e-06
9845 66 0.000476861
8640 11 3.2613e-07
5647 393 4.21565e-06
39 6652 0.00173347
6973 858 0.00416278
4976 858 0.000219406
475 858 6.82887e-07
933 858 0.000458314
375 858 6.71127e-05
640 1704 1.98294e-07
5562 1362 3.70437e-06
1456 41 1.77532e-06
74 6600 2.59236e-07
5702 440 3.08245e-07
9416 45 4.98641e-06
6124 185 7.35973e-06
20 20 1.48272e-07
600 249 3.51748e-07
6036 249 0.000402679
1344 169 5.3159e-07
493 153 2.65263e-07
678 5303 1.86021e-06
1608 5303 5.13952e-07
423 61 2.28798e-07
595 1384 1.57381e-06
637 32 6.61143e-06
97 6474 9.1144e-07
29 127 5.92697e-07
9198 752 0.000122652
378 752 1.64837e-07
9155 1539 0.000196649
9154 6371 4.86404e-05
2935 6371 1.29965e-07
9149 6368 3.6693e-06
860 400 7.53839e-07
1496 4923 3.06518e-07
11 22 2.3292e-07
89 4122 1.94904e-06
1157 503 1.94945e-07
2138 503 7.90327e-06
71 95 3.9938e-07
240 3614 0.00570818
827 746 4.54878e-05
826 746 5.27758e-06
908 1886 2.5416e-07
1177 5223 2.09529e-07
8618 5826 0.0122705
420 5781 8.33765e-06
48 393 4.95958e-07
420 55 3.61506e-06
8085 55 5.66182e-05
132 65 1.15967e-07
3478 5598 3.04085e-07
58 486 1.91998e-07
754 66 4.42974e-06
232 66 9.89097e-05
6062 66 3.86156e-06
1972 66 4.26901e-05
2117 5540 2.51267e-07
171 189 2.20393e-07
619 682 5.5595e-07
7827 66 0.000169072
6509 45 0.000148006
2987 54 2.04199e-06
5526 93 7.85996e-07
7749 535 6.98576e-06
4153 54 6.06285e-06
7728 27 2.52949e-05
1107 1170 8.8873e-07
2062 566 6.09224e-07
349 1679 1.72784e-07
7542 1182 6.50539e-05
4846 20 2.488e-06
3888 2885 1.56982e-06
7400 1159 3.55232e-07
6516 7 2.40182e-06
0 373 2.33928e-07
1659 5056 1.11787e-05
7161 22 5.01117e-06
3680 551 6.32605e-06
1704 2483 2.297e-07
4202 139 2.4345e-05
823 41 2.22037e-07
1753 83 1.33659e-06
1897 189 2.11803e-06
6707 22 5.18135e-06
6706 3307 1.7148e-06
122 503 2.06131e-07
68 2299 5.91664e-07
1124 2299 2.23934e-07
6188 4510 4.67322e-06
3655 339 9.51634e-06
3395 339 4.48692e-07
2636 1907 9.09422e-07
659 141 1.77588e-07
914 32 5.37863e-07
1534 1344 3.33946e-07
626 4129 3.30765e-05
1003 51 1.24551e-07
4596 1207 5.5105e-06
4435 438 3.50995e-07
13 438 1.71599e-07
410 127 3.8163e-07
3739 593 2.80915e-07
5636 220 1.72086e-05
1717 3981 4.548e-07
20 1983 1.92516e-05
2259 1553 5.16464e-07
1015 662 1.40723e-07
36 280 2.77611e-07
0 858 8.97859e-06
1314 3364 2.32627e-06
3 3364 0.00169978
1912 54 3.99843e-06
2710 1098 1.61971e-07
4267 4 8.44023e-06
58 1070 2.29926e-07
4205 127 4.03587e-06
719 93 8.33048e-06
3785 27 4.28211e-05
2059 2947 8.1963e-07
3698 2032 1.01342e-05
3648 273 2.4368e-06
628 83 5.94793e-06
628 2387 0.00860835
0 273 1.34131e-06
1938 2252 2.10779e-06
362 2475 3.38078e-07
1902 29 1.35225e-06
1087 661 1.00576e-07
210 123 1.4257e-06
1590 185 1.41387e-05
640 535 2.2851e-07
1706 592 1.61894e-06
18 592 3.96945e-07
412 592 1.39256e-06
2198 592 5.31409e-05
1119 593 1.31563e-07
1397 220 5.1503e-06
1205 1676 3.20697e-06
1636 1676 2.12107e-05
3150 220 1.38546e-05
3003 1659 0.000133602
1717 1659 4.26409e-05
1536 170 1.60519e-06
1762 222 3.52681e-06
178 222 2.89394e-07
2710 764 2.42475e-07
2249 127 1.40424e-07
1094 39 1.25668e-07
2338 156 2.63736e-06
679 34 1.17695e-07
2238 393 3.69494e-07
2237 393 7.5546e-06
2233 393 0.000175999
105 467 2.00071e-07
2004 1583 7.61293e-07
0 313 1.36145e-07
1899 390 1.65025e-06
506 1193 4.01622e-06
384 896 2.5509e-06
786 378 0.025386
94 203 3.06067e-05
725 203 2.4623e-07
29 122 1.20067e-07
29 535 1.26326e-07
11 83 3.85374e-07
481 471 4.55624e-06
292 185 5.64578e-06
6317 11 9.67952e-06
2053 18537 7.45388e-05
2053 754 0.000200992
449 754 2.09563e-06
16915 754 9.2386e-05
318 278 1.58692e-07
1099 51 5.13976e-07
7278 142 0.0230317
5615 142 0.221117
886 8172 8.92349e-06
1167 185 3.43553e-07
30295 68 0.142588
1516 5160 1.53156e-06
1288 1024 0.0198621
2647 17767 0.000540439
2317 1670 1.53723e-06
13982 142 8.26316e-05
26304 2397 0.000298043
21303 2844 1.17264e-06
8440 83 1.00746e-05
30224 16 0.243329
7901 3356 0.000103385
30191 230 0.110896
30155 58 0.000614381
2158 405 3.35821e-06
1015 1234 2.84408e-07
18442 1809 4.64616e-06
657 26 5.6566e-07
6963 65 0.0656558
25877 11853 0.0010953
1389 541 0.0207134
707 541 3.72016e-07
30003 337 0.332685
2350 17250 7.46997e-06
4140 19034 2.72212e-05
6084 438 0.00022902
2382 438 9.02059e-06
3711 11677 6.60548e-06
29935 93 0.0182703
4462 313 4.35323e-05
8981 1668 0.0245374
1534 482 9.48496e-05
4021 19136 2.43434e-06
5156 133 0.000958822
1785 19110 0.00913496
29782 1365 0.00418416
10411 19097 0.000219016
13854 1744 0.0030885
2730 117 0.000495563
4564 1041 0.00157864
12116 142 5.93805e-05
632 3030 6.86961e-07
187 5072 2.37978e-07
2941 5072 3.1514e-06
22013 16 0.0052063
29676 7473 0.162403
2205 984 1.93631e-06
29617 183 0.143534
5384 9010 0.000230846
10797 3968 1.68328e-06
3199 3968 0.0100519
37 3968 8.47885e-05
27174 3968 4.20852e-06
693 16926 1.58721e-07
120 16926 1.75234e-06
8715 27 6.99741e-06
188 213 6.76044e-06
26467 933 1.33866e-07
7842 2345 0.0706463
107 507 3.69869e-06
3336 16 3.57016e-05
215 26 9.2541e-06
199 18874 1.28176e-07
1125 34 3.46412e-06
821 525 4.58369e-05
2648 1466 0.00029018
11414 1753 0.00023644
2964 973 2.26317e-06
349 1604 2.16708e-06
2281 117 5.04334e-06
3917 455 3.69773e-06
1180 1306 1.08774e-05
12135 4736 5.54692e-06
29073 339 0.139125
187 339 3.12462e-07
906 339 7.47929e-05
8192 339 6.28795e-05
12489 339 0.0115598
2270 339 1.31628e-05
29071 339 0.00020178
15 961 5.39208e-07
29051 18642 0.164402
2031 515 0.0198064
132 18622 3.57583e-07
6077 18605 7.62077e-06
7644 206 0.000241398
1396 39 3.25248e-06
28961 661 0.000400705
8712 2116 4.56379e-06
10245 1283 0.000175245
2234 7185 6.4116e-07
28870 175 2.43902e-06
16535 1814 0.00798556
285 946 1.9197e-07
27359 47 0.199251
434 601 0.000113901
28749 9047 0.000107037
1804 16 2.59767e-06
384 16 5.93411e-05
27458 1521 0.00107058
10228 612 6.47897e-05
7566 804 0.0017877
4198 804 4.3301e-05
2646 694 3.53383e-06
71 694 3.32206e-07
4438 39 3.16746e-07
854 1657 6.95987e-06
28627 1565 0.00122485
28609 740 0.00857033
872 730 1.35786e-06
4653 6255 8.35545e-06
671 6255 0.0382194
2820 6255 3.52707e-05
698 6255 6.21254e-06
179 2972 0.000461692
28486 2669 0.332684
7659 123 0.00353388
80 6945 1.08261e-07
1757 702 3.4123e-05
5592 2908 2.8531e-05
20 1351 4.51653e-06
3273 18194 1.60478e-06
24690 1532 0.000153905
27047 651 0.0831748
27047 22 1.41878e-06
9331 22 2.63627e-07
2536 469 6.51205e-05
1038 469 6.9736e-05
15364 222 0.00327155
5349 222 0.00024415
2127 10273 8.96536e-05
19393 615 0.00194666
1816 1220 2.11816e-07
17114 4364 1.78233e-05
28305 4364 0.495477
28294 2419 1.3003e-05
28293 19 0.0891599
1477 5693 0.000713336
11263 15 0.000130194
9202 15 1.78819e-05
6106 1901 4.19613e-06
28125 16 0.499014
22508 6448 0.07894
8672 6448 5.39083e-05
2539 853 0.00243608
2435 1024 3.37952e-06
72 279 3.23538e-06
36 279 1.96373e-06
959 17927 4.10501e-07
799 7636 1.37651e-06
4795 34 1.00208e-05
138 1823 1.64553e-07
1032 1823 1.31054e-07
9794 21 3.91497e-05
471 17882 3.10423e-05
27911 826 0.033657
1180 17696 4.14726e-06
7027 7863 0.000483607
2598 17808 1.92469e-06
795 1054 9.46592e-05
5299 804 0.075461
4046 1927 4.47031e-07
2908 1096 0.000114059
4747 11 0.000136112
9285 11 0.0722256
3306 420 9.34066e-07
3058 4724 2.30763e-07
3361 7636 1.77181e-06
27543 9 0.110898
15 428 1.58688e-07
743 17450 0.00908811
2714 503 6.32849e-05
9179 16672 5.52376e-07
9179 68 5.65633e-05
27397 1814 0.249513
27393 45 0.00372198
1447 1077 3.46301e-07
8440 17417 0.00520833
5526 2583 0.0228468
726 5652 1.74036e-07
263 41 2.15729e-07
71 16792 6.14051e-07
183 8165 6.88077e-07
20794 8165 0.000127028
27250 32 0.0050835
124 16616 1.27663e-06
1310 278 0.000123754
27157 17240 0.499018
27152 17234 0.331228
6818 4548 2.33681e-06
817 1349 1.47701e-06
2569 1349 0.000281174
26467 1084 3.18236e-07
2450 9262 1.61881e-06
472 25 4.86413e-06
44 4655 3.06786e-07
2865 41 3.01698e-06
2265 14 3.76597e-07
9239 7009 0.0525472
590 925 0.00398148
19737 561 0.226447
48 561 1.80164e-07
541 16946 1.21562e-07
2173 16946 0.0714467
641 1017 1.19958e-07
2394 219 2.80694e-06
7938 833 0.000789901
465 95 6.08564e-05
6208 95 3.81144e-05
26611 249 0.025029
9655 176 9.75473e-05
5005 16797 0.000720226
319 11296 5.29427e-06
177 11296 2.73528e-06
9309 115 7.0854e-06
26422 139 0.00264561
9881 1388 0.00103996
2468 1988 1.12898e-06
1231 16597 9.8144e-07
9413 140 6.70037e-05
26337 61 0.227366
26255 14993 2.64566e-06
926 15 1.00436e-07
375 27 3.28951e-07
23721 8572 2.21022e-06
26222 39 0.000100908
1950 2406 7.21926e-06
18646 433 0.0119285
14084 21 0.00149216
20407 6043 0.0125022
15346 13594 0.00228926
2612 183 1.39606e-05
21781 7071 1.10013e-07
6469 483 4.61709e-07
26077 1722 0.00230908
26076 587 0.00206378
7903 83 0.00013451
12155 486 0.000420664
12110 39 1.01619e-05
3633 51 4.08224e-07
1671 7031 4.52069e-06
1960 7031 1.49414e-05
24174 661 2.89038e-05
3015 378 2.21207e-05
6625 21 7.63417e-06
2287 123 1.89994e-06
22859 1388 9.95898e-06
1438 1209 6.04485e-05
22168 123 4.11245e-05
406 892 3.29851e-05
621 7106 1.02227e-06
13373 34 1.31674e-05
22095 142 1.68686e-05
2255 503 5.17682e-06
6054 1901 1.36611e-07
3898 39 1.52208e-05
7966 19 9.56852e-05
1641 5664 1.62194e-05
4093 892 0.000259517
2612 587 0.00212142
78 41 1.1504e-07
6810 139 9.37821e-05
12583 390 0.0268892
4976 34 0.000124665
1219 1556 1.85283e-06
15264 208 0.0190355
25654 60 0.072382
12337 1076 0.000383911
1197 1374 4.38218e-06
7179 3396 0.000272142
4965 752 4.38956e-07
9279 3325 0.000202291
1421 11 7.95396e-07
21735 222 5.22995e-05
2246 11 1.40245e-07
25552 11 8.15098e-05
787 41 1.91286e-05
25543 16070 0.459402
23902 30 0.000287547
1938 601 2.29061e-07
511 887 0.00021168
9578 887 0.0024802
761 195 0.0250982
12274 195 8.77158e-07
504 7221 1.34507e-07
150 1243 5.83209e-07
5543 665 3.53848e-07
22389 53 3.44047e-05
2176 1827 5.40975e-06
25445 54 0.000493749
25250 1345 1.82815e-06
25439 2103 0.198939
25432 208 0.241163
349 7446 8.26723e-07
607 9389 4.64124e-07
1970 5197 2.46091e-06
5163 5197 4.99866e-07
360 1648 1.36639e-07
1768 2220 2.3173e-06
25288 4594 0.0154909
25246 11 4.55834e-06
4628 653 0.00192132
12816 93 9.11543e-06
754 2242 1.68496e-06
4269 2242 0.000927196
2235 7471 1.13874e-07
7127 3569 5.99928e-05
1092 8638 1.5748e-06
2970 4435 2.19125e-07
2970 139 7.92268e-05
451 183 2.05517e-07
14234 11176 0.0206681
23416 150 1.11045e-05
3209 54 3.28376e-05
16328 41 2.47075e-05
6755 5659 3.1889e-06
9282 83 8.7425e-06
2413 115 1.21525e-06
97 51 1.10097e-06
46 51 1.45182e-07
194 390 1.57358e-07
271 390 0.000119646
667 1357 4.40911e-07
25118 188 0.00265913
25061 139 0.095107
8495 12936 0.000371724
559 380 1.06323e-05
11286 6206 0.000126083
301 15720 5.97631e-07
48 13695 3.09483e-06
2427 15713 9.9143e-06
10404 292 5.28899e-05
5087 15699 4.96912e-07
541 15699 0.00214459
926 363 7.36313e-07
23110 19 0.00113827
635 1983 1.42867e-07
24928 30 0.00170353
2964 680 3.37402e-05
4285 680 7.26162e-06
24898 587 0.000305449
2143 9 6.51164e-07
874 7863 1.2651e-06
16519 7863 3.73793e-05
1876 10338 0.000977852
3139 661 2.98588e-05
3346 48 0.000418377
933 2584 2.80981e-07
5482 194 1.08471e-05
24702 48 0.00380761
24700 661 0.00740436
5585 851 0.000118669
18358 851 8.07182e-05
543 804 1.0069e-06
3069 752 1.66483e-06
4098 15057 7.81811e-06
22563 70 2.75284e-05
9044 3744 3.35793e-06
1974 3499 0.000102714
1674 1238 2.82514e-05
255 486 2.87188e-07
2426 48 1.64642e-05
1168 1079 1.08107e-06
22803 15424 1.2181e-05
2702 22 1.10399e-05
3017 5352 0.0356418
8689 247 0.00135552
3540 1907 0.000276715
8035 93 7.04097e-05
22487 71 0.000166706
287 188 1.36405e-06
2046 8173 2.17722e-05
1032 353 1.58615e-07
2280 2034 7.23739e-06
7112 2034 0.000213825
1447 2034 6.83007e-07
24379 370 0.0071564
15291 7413 1.81798e-07
1307 7413 2.68475e-07
1928 15306 0.0528564
24099 1041 0.0010175
1060 740 1.60563e-07
2710 9571 4.54158e-06
3034 9571 0.0408649
12992 15287 1.1477e-07
9326 10374 1.31491e-06
5588 462 2.7479e-05
21718 1163 1.55083e-06
2235 15247 1.87366e-07
24173 21 0.000402847
40 503 5.87271e-07
23439 4167 0.111648
161 13594 1.77031e-07
24094 1060 0.00294909
16514 1427 0.0034322
11149 11 5.64699e-07
11387 53 3.40847e-05
1609 13594 5.36526e-06
2456 93 9.54333e-05
9322 3313 3.27516e-05
163 3313 1.28159e-05
1736 133 3.97017e-05
24014 139 0.00998921
600 661 2.67541e-07
22859 21 0.000113048
23983 222 0.00198357
17005 21 0.00704587
2904 1077 0.000358973
3670 19 0.000118159
49 4036 1.12363e-07
814 4435 3.095e-06
23093 1041 0.000321999
7842 1041 5.16436e-05
35 51 2.275e-07
3469 740 2.30161e-07
23617 1092 0.0761561
21707 13685 5.19935e-07
22276 536 0.00428856
564 15033 6.96579e-07
1615 9278 1.01841e-06
23760 3597 0.125163
9760 95 0.000138128
1752 593 4.30323e-07
3634 892 5.73771e-07
614 10240 8.5151e-07
23678 14 0.00112577
40 20 8.03677e-07
178 393 7.64057e-06
178 20 1.11141e-06
22929 139 1.3976e-06
23209 39 5.60073e-05
23209 27 1.99677e-05
16634 763 5.52933e-05
10918 8671 0.0581176
15758 2511 7.06095e-05
23526 20 0.197135
23524 20 0.00255214
7462 2718 0.0138518
11034 133 0.00018291
5941 14733 1.8522e-05
1276 13600 1.03113e-06
229 40 9.40374e-06
23375 740 0.0460176
23320 66 0.499024
14851 13976 1.97391e-06
14959 2242 0.109587
3791 20 3.00744e-05
1660 20 5.9579e-05
3058 14542 0.000230913
1975 20 1.04954e-06
420 1060 2.19923e-05
6722 2841 6.03198e-05
9521 1041 8.44697e-06
10481 14265 0.00182089
1759 1245 1.77654e-06
4282 208 2.16966e-07
1755 208 1.22032e-05
23128 22 0.00351101
8971 14307 0.0886026
12039 1857 9.40096e-05
1302 95 7.18759e-07
5963 45 0.00609432
22909 13074 0.0969193
3871 13074 0.000843106
693 10542 4.77039e-06
559 325 4.01741e-07
22787 127 0.0238139
2160 133 0.000133971
2160 27 2.86736e-05
2451 503 4.33412e-07
6990 494 2.94796e-07
7441 19 1.36075e-05
797 892 1.85024e-07
17639 1415 1.76109e-06
5113 1306 0.00116472
22112 593 8.29622e-06
4699 14080 5.14608e-06
55 2738 3.94937e-07
1841 3241 5.19985e-06
3768 37 5.52145e-06
22325 1199 0.00094999
2411 13954 7.08062e-06
1704 48 1.19094e-06
2255 1084 1.82759e-07
1027 740 1.37433e-07
20611 740 0.000850211
22440 531 0.00146496
22439 4215 0.00233024
7293 1060 4.11594e-05
1845 175 9.13047e-06
16640 66 0.00013152
378 1374 2.11299e-07
22190 41 0.000528336
8779 517 0.000894955
11324 593 0.000774581
2367 486 5.03871e-07
2367 48 0.000476018
2367 405 8.77727e-07
1186 10021 6.10103e-07
2579 3813 1.46623e-06
10041 3813 9.76077e-06
21920 2425 0.000328969
6421 68 1.21788e-05
11016 13754 0.00156124
674 901 0.00399194
3818 901 0.00102543
11103 2571 0.00585303
16533 13724 0.00729436
8143 7601 3.27648e-06
5143 127 0.000253626
4604 4470 0.000149438
1638 4470 4.69704e-07
21835 37 0.000384517
13908 8051 8.23501e-05
16027 19 2.395e-06
21804 30 5.06516e-05
3552 9951 4.47945e-06
56 13655 8.5514e-07
9292 13577 1.1563e-06
2220 13569 7.81814e-07
12783 9832 1.22337e-06
18889 1372 0.00448155
1508 867 9.01518e-07
7674 3844 5.24734e-05
1692 651 4.41826e-06
21614 1081 0.0016326
13123 811 0.0116996
6886 811 0.00394516
1722 10805 3.94466e-05
56 10805 1.56191e-05
511 10805 0.00392315
71 10805 4.74569e-07
21502 10805 0.00152826
64 627 1.20168e-06
11398 2810 0.00380919
10578 587 9.40082e-05
145 11 1.86995e-07
74 7149 3.05434e-07
7107 8312 0.000792508
12703 1082 1.0285e-06
362 142 2.29234e-07
7590 30 8.98236e-06
1157 1146 1.87033e-07
1148 343 1.39541e-06
600 343 5.90597e-07
13641 537 0.000824504
503 1420 2.9498e-06
12861 1994 4.51294e-07
3633 593 1.77392e-07
1740 1864 2.83724e-05
725 1217 6.63964e-07
49 1987 5.93615e-07
1104 2679 4.8765e-07
2255 1077 9.1982e-07
168 1077 2.84706e-06
1282 1575 1.29324e-05
1176 1943 2.16946e-07
6861 581 0.0339293
181 1002 2.94584e-05
15626 664 0.000133533
3634 2089 2.1877e-06
2935 2961 1.86861e-07
10022 566 7.57357e-05
2413 133 1.03866e-06
1292 3597 8.88164e-05
255 1300 2.46074e-05
7201 18 2.73039e-06
7201 48 5.32937e-07
20985 298 0.000342194
181 10885 3.56679e-07
8182 10885 7.25306e-06
13496 338 2.16466e-06
13048 4365 5.22689e-05
758 4365 0.000392755
13586 593 2.1374e-07
4625 10086 2.16778e-06
9682 8498 0.0768004
12946 189 1.53323e-07
954 8872 3.19218e-07
20843 139 0.0461112
2210 1245 9.98479e-07
634 2354 1.16509e-07
473 13226 0.0109673
20797 139 3.87648e-05
5124 239 0.00132757
1767 115 1.09182e-06
1113 401 1.23623e-07
20276 10114 1.24934e-06
379 128 5.78288e-07
1909 3378 2.7478e-07
20707 3378 4.92893e-06
13115 156 3.38858e-07
5742 198 0.0310218
326 198 0.000116981
757 10191 0.16391
12116 10191 0.000166673
3319 83 6.7867e-07
809 27 4.28513e-07
14314 593 7.91809e-06
20563 154 1.01572e-05
20557 1041 0.0139782
12861 1809 0.00269433
132 3119 1.35793e-06
1799 3119 1.20454e-06
1701 611 2.47479e-07
20405 3597 0.00102032
204 1217 3.42913e-07
10993 6575 0.000310741
20246 10664 0.000396168
8506 4673 1.71492e-05
20166 378 0.167216
6202 3160 0.00591617
20136 1217 0.310167
20135 12905 3.37914e-05
20066 1194 0.00363279
6763 261 4.69501e-06
10451 246 2.25262e-06
19999 16 0.000955275
7608 12822 0.0531549
19921 68 0.000340873
1516 1885 0.00733191
875 2 6.25398e-06
18981 16 9.19014e-05
451 12772 2.32219e-06
1838 45 6.39798e-07
815 850 2.21619e-06
618 850 0.00979567
12709 9105 4.75931e-07
640 634 1.51813e-06
19743 156 0.461407
270 701 2.08922e-06
12680 537 1.63658e-07
13948 12662 0.0421513
1330 503 2.39697e-06
903 1439 1.16676e-06
8993 11645 0.000105384
6477 27 7.29353e-06
14046 51 1.06818e-05
875 1171 6.44495e-07
815 1604 1.36954e-05
2220 3588 0.00931689
4186 2248 0.0477952
2690 1886 1.51895e-07
5684 1886 4.49247e-07
6603 664 3.65511e-05
2733 664 0.00112757
12844 664 3.48867e-05
19484 664 0.000165454
109 664 2.25229e-07
2220 8394 1.08175e-07
7802 4808 4.43354e-05
40 532 1.90517e-07
9794 150 2.54226e-05
1638 80 2.01039e-07
19316 127 0.000840913
349 627 3.61976e-06
1061 296 0.00052071
78 296 0.00268474
6515 222 0.000378042
74 10320 6.82729e-06
8137 5895 7.01139e-05
5462 5895 0.00271585
11448 10044 0.000211044
2557 12373 8.95077e-07
132 3637 1.12326e-06
8938 3637 0.000299945
1374 10516 0.000118869
2198 10516 0.0135962
19037 1067 0.4897
3739 1988 0.0124988
13321 593 0.000529501
1148 1207 5.76852e-06
4652 661 0.000182477
2377 80 2.49925e-05
4047 27 3.35779e-05
8938 10933 1.40329e-05
285 590 0.00443967
15013 590 0.00131217
1838 2016 3.02043e-07
3095 48 5.04165e-06
16175 9702 0.000169039
168 621 4.46052e-07
352 593 1.95408e-07
13060 593 2.165e-05
18255 12257 0.000324785
247 563 2.6326e-07
1192 3905 1.74815e-05
18764 21 1.24088e-05
18756 298 0.00392188
2461 14 7.99562e-07
18684 123 6.08183e-05
11286 123 0.000262489
1421 1988 2.67607e-07
8993 1207 3.79131e-05
3240 1953 1.20295e-06
122 27 3.17583e-07
367 4435 2.13834e-07
2635 833 0.142677
1958 833 1.34022e-06
3751 4435 4.47515e-06
18634 16 0.000417516
188 1994 0.000253733
618 581 0.00045956
1804 7558 1.75242e-07
8052 115 2.60633e-06
8924 135 0.0998041
1624 1175 3.21916e-06
14338 8383 4.28915e-06
2494 378 2.70685e-07
690 2065 4.02031e-06
14202 587 2.31715e-05
2477 401 0.000109304
18301 10332 0.000994826
135 133 4.01208e-07
2058 393 3.84434e-06
640 525 1.49169e-06
6588 4435 4.45547e-06
813 338 1.90475e-07
835 6415 0.000306348
691 6415 1.88376e-05
9821 39 9.35998e-06
12849 83 2.5478e-05
6861 2047 7.4811e-05
10416 677 0.126996
14986 5495 0.00283592
985 1357 7.90489e-07
3739 990 8.70955e-07
3739 1284 4.85162e-05
3238 990 5.67344e-06
3238 1284 1.79014e-05
1015 135 7.98217e-07
178 14 6.24064e-07
1092 8392 1.4017e-07
21 8392 4.23903e-06
3319 8392 1.3271e-05
0 8392 9.93463e-06
4515 68 1.16488e-06
270 30 3.21007e-07
511 11817 0.00332779
47 9385 2.45341e-06
5204 831 1.87675e-06
6464 116 1.19882e-05
14869 116 6.48545e-05
562 1886 6.92942e-07
17939 93 0.00756921
17939 961 0.000381439
1610 1711 1.27007e-06
14078 486 5.62097e-06
12826 5089 1.64117e-06
12703 3429 1.33712e-07
6842 39 7.26826e-06
17862 578 0.000454539
1574 39 2.2433e-07
510 127 3.66925e-06
1232 48 5.17464e-05
179 10214 6.86654e-07
1486 11654 6.87261e-06
132 1130 5.26832e-06
16862 1081 4.47325e-05
6053 10456 4.69008e-05
13303 378 1.18689e-07
5277 11597 0.00518017
2388 10919 0.000277551
5297 581 3.25744e-07
209 11 7.81521e-07
1547 581 5.51556e-07
1738 1079 3.82095e-07
689 273 0.0173983
7181 2 0.00559918
5732 702 8.44378e-06
135 1147 3.53101e-07
7184 298 0.000187795
8044 551 0.001161
17311 551 0.00364626
15156 5100 1.54028e-05
12027 71 0.0547865
1165 438 1.57453e-06
5711 10901 1.31728e-06
113 2492 0.000327562
64 2492 3.27301e-07
1854 2492 0.000639687
4376 2492 0.0560208
8431 2492 1.22417e-06
122 183 4.75475e-07
1319 590 3.10854e-05
132 1217 9.22956e-07
1421 581 3.34214e-06
879 2341 1.87808e-06
11594 590 3.34229e-05
11758 208 7.15701e-07
7200 6422 0.00909652
9817 14 2.02e-05
890 1712 4.2799e-07
7612 1478 1.61006e-06
13221 8967 1.32362e-05
1398 1259 3.72809e-07
124 1973 1.00435e-07
2725 337 6.66861e-07
16960 11165 0.0166005
248 483 2.95388e-05
20 3324 1.57426e-07
602 264 6.29995e-07
617 280 8.33269e-07
251 64 9.46824e-07
12762 150 0.000116843
603 150 0.0442945
2068 401 7.64906e-05
423 401 1.09672e-05
161 9108 1.40718e-06
2036 1434 6.64726e-07
9402 19 4.36434e-06
22 41 1.85947e-07
469 390 1.80388e-07
73 1041 7.77294e-07
161 66 6.21315e-07
16749 4373 0.00607748
598 401 4.56511e-06
668 401 2.27722e-05
1859 529 0.000116703
7191 6178 0.000141642
4799 2032 2.35953e-05
16583 2407 0.000431182
2080 8914 5.50937e-07
3412 577 0.00226301
8 10924 3.40247e-06
1015 3597 1.39466e-07
813 1478 5.57893e-07
985 7496 8.87029e-07
4965 127 0.000113549
113 127 8.71246e-07
1854 127 1.13149e-06
7080 142 4.86933e-06
1810 188 2.27724e-05
819 1545 1.23329e-05
13316 43 3.29465e-07
263 5728 6.20393e-06
14935 2436 7.22695e-06
6735 2698 0.000459512
7400 343 9.14085e-07
1014 2632 5.34203e-06
14112 45 1.08662e-05
10818 199 1.01953e-05
319 7578 2.48269e-06
11260 127 0.00354182
16208 210 0.0132866
5264 1967 0.00336666
3273 2 3.81364e-07
3992 8218 3.38871e-06
854 133 1.53878e-07
3058 11 5.66717e-06
47 1082 1.71169e-07
5189 71 4.38097e-05
3531 504 8.22068e-06
1167 593 1.26584e-07
1924 4989 3.31915e-06
6469 6044 2.67019e-06
15920 1076 0.0353455
1590 10627 9.16594e-05
0 10624 3.64276e-07
15874 10616 0.00221432
4303 9532 1.67354e-05
15806 10030 1.06973e-05
10986 811 2.0959e-07
15734 54 0.000115714
14397 10043 0.0574547
221 141 7.39194e-07
240 1677 0.000415591
13502 185 1.24299e-06
1123 53 1.51414e-05
797 241 8.6714e-06
3881 1232 6.30297e-06
1722 1232 2.2395e-06
3966 5598 1.955e-07
13437 302 4.5234e-07
32 195 1.34963e-07
110 503 1.2638e-06
2326 39 1.83773e-06
204 892 1.54499e-05
4965 6369 3.61979e-07
9021 6369 0.0322105
1017 620 0.000143494
139 620 1.78779e-06
13387 1829 1.00542e-05
1056 78 1.67556e-06
1475 492 5.37291e-06
71 353 1.19972e-07
326 2972 2.35247e-06
40 220 1.91294e-07
12710 10183 1.10281e-07
914 330 2.40741e-07
5573 73 0.000124808
1121 6616 2.12863e-06
13586 1907 7.6157e-07
14908 532 0.0143895
379 68 9.56501e-07
12280 2069 1.38293e-06
1000 115 3.93282e-07
10479 26 0.00143554
1973 8961 3.18297e-06
95 8961 2.08198e-06
108 52 5.58072e-07
14732 222 4.15492e-05
14732 1041 0.00422865
14731 259 0.000152298
3817 8521 6.91311e-07
5 19 4.18568e-06
267 9965 0.000120127
396 750 1.72287e-07
1374 52 3.12776e-07
7184 3392 4.03855e-06
12946 216 7.27233e-07
12008 1403 2.4899e-07
1092 930 1.72863e-06
1354 220 1.62317e-06
295 220 1.67653e-07
1722 127 4.45611e-06
1113 2713 9.24123e-05
13538 9343 1.2261e-06
6131 71 0.00803906
886 185 8.55049e-07
21 185 3.0418e-06
14319 503 0.0490019
48 210 2.17501e-07
638 222 1.53081e-07
355 591 1.62298e-07
122 563 2.34654e-07
2759 80 4.6512e-06
14164 5293 0.00660272
108 150 4.13201e-06
14122 48 0.000546488
13511 216 1.78054e-06
255 570 1.51486e-07
1996 140 0.00164864
139 2388 1.2721e-07
614 8673 1.82669e-05
1354 117 2.14557e-07
36 9543 4.43496e-07
1172 667 1.79111e-06
80 393 2.51576e-07
1172 185 9.37365e-07
12101 1240 0.0671759
14026 7379 0.002511
2412 8646 6.11694e-06
996 8646 1.10762e-07
13930 19 0.00350326
1415 1041 3.04887e-07
169 335 1.00029e-06
115 536 8.14597e-06
622 1404 1.63461e-05
13794 7390 0.000555078
3238 9379 1.12764e-06
13700 52 5.20788e-05
1176 403 0.00252694
13059 5844 6.20137e-06
1105 694 4.61765e-07
1866 3143 6.00112e-07
172 9242 2.0535e-06
2395 156 6.32578e-05
10728 195 0.0874393
13256 1095 1.21222e-05
4991 2521 6.78269e-07
13456 27 0.000349653
3824 1037 0.0297468
8166 71 1.0529e-06
811 8961 7.3084e-07
4687 7222 0.000592756
132 826 1.02033e-06
108 8536 8.46113e-05
1167 8536 0.000817553
13321 8536 6.47493e-07
7599 210 0.0405049
625 634 0.000226857
13201 7858 0.24636
754 313 1.61368e-06
2058 313 2.59724e-05
9392 5302 2.06938e-05
13140 7576 5.81957e-06
12954 2988 3.99902e-07
688 3199 3.96613e-06
3294 8865 8.07919e-06
2041 4172 4.51877e-06
12487 189 4.93427e-05
12818 747 0.000641456
295 483 7.18308e-07
12789 68 0.00461853
232 127 1.85339e-05
204 11 4.35722e-06
1586 185 8.7747e-05
563 213 1.40356e-05
3000 32 5.96311e-06
8736 142 3.32436e-06
12624 142 0.00141115
5675 8596 6.36458e-06
12384 4 0.00175476
1018 5628 2.19389e-07
3753 1997 0.000387765
355 1653 3.76871e-05
237 1653 1.7169e-06
1015 1653 2.18682e-06
12585 4141 2.79792e-06
1769 4141 0.0415915
2188 3248 3.88573e-06
6251 1911 1.00624e-06
4578 1060 7.13172e-06
1013 1060 0.000299632
6351 123 0.00393129
3883 194 0.00108509
513 6443 3.95625e-06
3874 2796 0.000713418
255 167 2.13443e-07
2252 3319 5.84863e-07
2536 66 4.24606e-06
3819 66 1.00571e-05
661 66 0.00180821
366 1373 0.00113195
1738 8419 3.45823e-07
5820 566 8.8374e-06
9258 188 1.93757e-06
1202 45 1.10374e-06
2748 8363 1.82839e-06
5319 892 0.000478386
339 2016 5.3445e-06
8942 2016 0.0448664
1588 2016 3.42265e-07
2512 2016 0.000154446
3208 60 5.98641e-06
707 581 6.49171e-07
153 27 3.2983e-05
12170 2708 0.244332
6170 8269 1.24513e-06
632 363 1.69705e-07
21 1234 1.61988e-07
2646 184 2.01125e-07
12109 175 6.89619e-06
141 30 1.36306e-07
141 592 0.00160593
56 8176 6.07324e-06
1177 8176 7.31279e-05
309 1984 0.000781706
12044 2163 0.00721657
1586 54 3.76487e-06
749 1984 9.06154e-07
786 95 1.2018e-05
12000 3388 0.000717929
11999 3388 0.000767148
201 4449 8.50097e-06
1733 4935 3.07245e-07
821 183 0.000608584
11914 83 0.000553899
1219 8081 0.015651
5562 111 0.000353954
1187 8075 0.0156385
507 5705 6.8531e-05
7804 1130 0.000524213
192 183 6.33591e-07
339 1850 1.75156e-07
4121 609 1.77872e-05
2167 6520 7.71763e-07
11817 325 0.00934477
1906 53 2.02741e-07
2188 34 4.48448e-06
809 2365 5.19485e-06
8899 393 1.18495e-06
9790 1095 0.000164523
11743 1095 0.0047536
3739 4333 4.89966e-05
2228 1992 0.00140346
443 3991 1.42601e-06
35 1964 2.80251e-07
196 1814 1.48799e-06
2620 3278 2.61213e-07
1426 48 7.04502e-06
104 393 5.19987e-05
4643 7885 0.00177764
3041 4400 0.000121
11598 2131 0.000238479
78 1166 3.05634e-07
11594 1064 3.53112e-05
8066 206 2.08087e-07
11558 298 0.000278598
978 390 8.97909e-05
204 390 3.05434e-07
326 390 4.41613e-06
38 142 1.52396e-07
233 5394 1.39824e-05
1792 3753 4.43276e-05
11463 222 0.00104502
1024 388 9.23783e-07
147 587 1.55081e-06
1003 21 1.30043e-07
264 7761 8.03662e-06
165 7757 1.23503e-06
1235 54 9.73295e-05
1082 3939 1.05636e-06
6394 395 0.184531
472 22 1.00936e-06
616 127 7.90461e-07
389 2093 5.93055e-07
57 2093 2.32555e-05
815 123 1.11336e-07
5763 123 0.000140963
11182 22 0.000556481
2864 206 3.61085e-07
4144 2580 3.76495e-07
9685 53 3.01654e-05
47 52 8.08145e-05
36 1420 6.24093e-07
2680 5675 1.80389e-07
1574 210 1.67957e-06
1625 208 1.69991e-06
3306 127 7.1872e-06
20 1207 2.67148e-07
74 1207 7.05744e-06
116 977 0.000183357
0 977 8.09288e-06
482 64 3.04137e-07
10948 189 0.00559043
10947 139 8.85616e-05
10943 1339 5.9334e-05
725 2685 0.0157851
678 161 4.90149e-07
172 1651 4.3704e-07
10880 51 0.000341797
10876 68 3.41188e-05
2176 185 6.68712e-06
641 19 8.63715e-07
43 80 3.16404e-07
5644 2375 7.77009e-06
827 6076 3.15358e-07
0 518 5.72459e-07
3062 61 3.87094e-05
7078 2085 1.92358e-06
1237 2085 4.44165e-07
3038 68 0.000903669
1496 21 1.84943e-07
1396 123 3.18552e-06
448 174 3.78296e-07
210 286 1.23849e-07
1732 6806 1.52227e-05
3063 566 1.20073e-05
2477 1349 2.67193e-06
1409 32 4.32501e-07
35 7224 1.24144e-06
1750 45 3.63926e-07
122 241 8.36475e-06
1911 763 8.66869e-05
9867 763 1.54733e-05
1485 51 8.63646e-07
1637 139 2.55505e-07
2333 7136 0.000277018
2882 7136 5.9117e-05
10203 141 0.00222945
3951 140 0.0355241
8481 140 2.1987e-05
38 1518 6.77728e-07
1465 52 2.15256e-06
3063 189 0.00628462
216 436 6.02966e-07
3556 20 1.95416e-07
2134 482 0.000633857
10240 199 8.47827e-05
10237 264 0.000118182
2646 7039 7.32141e-07
1608 11 2.00704e-07
4320 590 9.35576e-07
2931 267 3.65177e-07
1019 177 1.74468e-05
1039 222 1.64281e-05
10150 210 0.014079
8166 6450 1.39374e-05
1659 882 3.48669e-06
542 882 5.98563e-07
9984 53 0.00685105
2220 127 1.81233e-07
9951 127 0.000942781
355 121 4.38855e-07
1020 4303 0.00131874
6144 892 0.000120946
9 6795 1.37236e-07
3438 628 0.007152
2976 1963 1.67891e-05
330 48 8.05592e-06
9708 127 0.000717805
1890 68 3.06623e-05
862 133 2.08852e-06
7062 157 0.000319574
2958 6681 0.000234702
360 5732 7.22911e-06
1777 30 1.30599e-06
641 593 1.39725e-06
2837 746 1.62217e-06
933 2099 4.42108e-07
6617 1704 0.000528997
39 1212 0.00279719
468 1212 2.86588e-07
2413 4182 9.54616e-07
774 34 4.09109e-06
1114 6615 2.16828e-05
55 6615 1.02049e-06
1456 30 0.0385853
9521 6600 0.000108251
7151 5158 9.47199e-06
469 389 1.92682e-07
1234 21 7.70371e-06
402 1657 1.35469e-06
4565 58 0.000102172
9426 2359 0.00205733
569 518 1.40493e-07
6102 590 4.17723e-06
9336 51 0.000622723
65 325 3.06149e-06
2335 3337 1.30672e-05
4513 32 8.3406e-07
3579 1095 0.0301783
204 1657 1.91148e-05
5687 246 2.59798e-05
833 54 4.66526e-06
1745 378 1.2718e-07
9256 504 0.00010042
5666 6400 0.000100409
9202 6400 6.13294e-05
9194 133 0.000411719
9154 127 0.0014695
1973 1375 7.41557e-07
8066 313 4.61341e-07
678 651 2.27246e-07
9103 405 1.77592e-05
9102 4247 0.00153349
9085 279 0.00083855
1410 3372 1.48722e-05
3035 27 2.07002e-05
2750 2293 0.0158586
48 764 3.13124e-06
9046 68 0.000701306
14 3297 2.74786e-06
9003 1185 0.178003
2292 2762 5.14815e-06
420 6212 2.02494e-06
3451 6212 6.15329e-07
8349 34 1.14622e-05
1702 898 2.71565e-07
1702 39 1.69118e-07
240 3597 1.03642e-06
1608 212 3.35663e-06
8851 1070 0.000598746
5857 1070 4.87169e-05
8822 1787 0.00026355
469 127 3.54747e-07
1330 4742 3.52874e-07
1087 577 6.91373e-07
8480 3609 5.00191e-06
3563 60 4.95406e-06
608 241 1.61444e-05
163 241 1.00193e-05
325 41 1.18202e-07
1588 95 1.77511e-06
463 2428 1.29148e-07
4054 642 8.42903e-07
1669 157 3.61156e-06
420 157 3.04759e-06
8250 1585 0.00300088
131 3272 9.55165e-06
3910 3272 0.000132475
188 5694 2.42647e-06
187 577 1.0022e-06
245 680 1.75956e-07
7754 27 1.95083e-05
4530 142 2.4898e-06
5110 259 1.47286e-05
64 350 1.23028e-06
2178 13 1.48309e-05
3762 150 0.00083059
2127 150 4.20541e-07
5072 150 8.33048e-05
8031 150 0.00234832
2631 5623 2.51292e-06
531 1681 8.91774e-07
1184 5606 7.1832e-07
726 203 0.00957539
194 660 2.62558e-07
7936 4166 0.0435387
2962 302 0.114911
3558 717 2.21517e-06
1186 1095 6.63103e-07
171 1374 1.10456e-06
384 373 4.37852e-06
12 2933 3.50864e-07
1905 2933 2.29314e-07
6425 2933 0.000364692
4127 60 2.41146e-06
726 868 4.27994e-07
7808 2425 0.00271776
2176 5485 2.3757e-06
1234 127 3.31981e-07
4254 51 6.77102e-06
1193 127 0.00104552
4068 27 7.63456e-06
1166 1199 1.54657e-07
2532 4458 0.000268852
7691 4458 1.92972e-06
833 2693 1.02954e-05
1418 220 0.00133007
350 2257 2.12522e-05
1716 593 1.91739e-07
148 290 5.58079e-07
2591 1207 5.81277e-07
3 150 4.34836e-06
168 150 1.46505e-07
7308 15 0.000149874
7132 15 0.000147278
5415 15 0.0686799
9 15 4.35841e-06
132 15 1.39938e-05
7496 127 6.65394e-05
5417 133 0.000263466
7432 71 0.249471
3718 66 2.27424e-06
246 2210 3.72538e-05
7406 1620 0.0276219
4292 544 1.73397e-07
7404 1620 0.0137029
387 71 7.71651e-05
7388 1192 0.000898127
2387 5228 0.0321798
4377 1096 0.0361803
147 440 4.27547e-07
549 179 1.58543e-07
449 826 1.81622e-07
1203 2812 1.13786e-06
7201 30 1.43207e-06
1567 338 0.00834627
1906 1971 2.22536e-07
1960 1733 2.11648e-06
2110 5068 0.000123912
3392 5068 0.000153863
2362 759 1.12783e-05
7058 1345 0.000538777
33 1345 1.47277e-07
3249 1345 1.54626e-05
1465 1345 0.000296776
1465 1886 3.10955e-06
5840 3978 0.000100029
201 3637 8.81732e-07
5562 393 3.97358e-05
6482 4769 2.08184e-05
418 4693 0.000303629
417 4693 4.44222e-07
1009 863 0.00869215
375 863 5.67958e-07
256 400 8.62134e-07
3668 127 8.49376e-05
682 4793 3.8645e-07
6618 54 0.00114255
2 298 2.27337e-05
6526 4024 0.000278597
569 438 1.43651e-07
2216 4006 5.38881e-05
223 2985 6.51789e-07
6149 220 0.00531294
1857 447 0.0143248
1410 702 1.20289e-05
65 142 1.37434e-06
6016 156 5.41194e-05
60 537 3.98912e-05
1848 66 2.3349e-05
1848 533 4.86812e-05
4219 66 3.3844e-05
4219 533 7.74733e-05
2573 66 5.8067e-06
1276 4376 1.73079e-07
2090 3515 1.79237e-05
189 1829 1.89597e-05
2750 34 4.37972e-06
38 95 1.74949e-06
4335 4183 0.0877116
4335 27 2.8829e-06
4272 298 1.16732e-05
4272 51 6.30461e-05
5618 4155 0.000384155
1045 162 9.74721e-05
413 253 0.000222449
183 455 2.0376e-07
1759 680 2.08799e-06
5317 1555 1.91851e-06
835 350 7.20961e-06
1036 350 0.000462326
5421 350 0.0028778
5384 241 0.0416256
5383 241 0.0118041
2252 241 0.000149681
2160 241 0.00368522
5382 241 8.87067e-05
245 759 4.67307e-07
5341 3392 0.0772223
5340 3392 0.0108639
0 577 3.14473e-07
0 1829 1.66473e-07
413 1512 7.0909e-07
3628 3869 0.00055999
5154 552 0.00159401
2310 447 2.70715e-06
121 378 2.69508e-06
1702 890 2.7442e-06
64 325 1.63041e-07
3461 325 4.71396e-06
4878 429 0.330487
4835 2263 0.000578855
4742 64 0.000334081
1906 2678 7.04077e-07
2128 51 8.97528e-06
1613 563 2.21887e-05
33 1323 5.65189e-07
1000 3346 1.45796e-06
694 162 6.16308e-05
2343 27 3.21212e-05
287 54 4.47875e-07
1527 1130 0.000162137
1816 3218 1.70606e-07
1177 3218 1.46404e-07
4155 3218 0.00019831
429 1098 5.98661e-06
1603 1098 4.53938e-07
2768 133 7.0369e-06
2768 60 0.000171453
113 401 5.48538e-07
339 990 1.8268e-07
1115 353 3.53685e-07
64 160 3.39559e-07
0 2032 1.12731e-06
26 123 1.02292e-05
2964 53 1.6568e-07
1843 2816 7.24483e-05
3464 208 2.11319e-06
3463 208 1.42123e-05
2291 827 0.00702706
3458 157 0.000280357
3431 53 0.000201654
3356 185 4.23658e-06
854 1080 9.95221e-07
854 185 4.42065e-07
3353 45 0.000198242
2686 343 8.32842e-06
0 811 1.11817e-05
3085 593 3.51842e-05
1330 45 1.39852e-06
74 2188 4.87707e-06
3151 1676 0.000509887
0 1210 8.26488e-07
269 27 0.000985777
3004 1659 2.12757e-06
356 1659 2.97018e-06
2136 136 2.68983e-06
1251 45 2.44152e-05
2813 9 0.00234833
1529 1904 2.70965e-06
295 118 2.75187e-06
2682 339 7.14243e-07
2676 1306 0.000778559
0 287 1.49745e-07
2483 730 0.00215663
454 390 0.000122981
2401 154 0.000228871
1462 2001 1.40039e-05
2349 1969 6.78515e-06
2318 1947 4.99713e-06
1119 1937 1.69791e-06
1981 241 1.06304e-07
2200 60 1.81574e-06
1187 1847 2.35232e-06
132 702 1.39926e-07
2150 34 5.02701e-06
2082 702 2.77849e-07
1655 1668 0.0203902
384 83 1.68673e-05
2043 43 0.000257187
2042 43 0.00031082
196 43 4.46361e-06
2041 43 1.15802e-05
1315 146 8.94126e-06
1915 222 0.000859335
1724 1518 1.02344e-06
189 298 2.74306e-07
201 313 0.00179253
1934 313 5.92344e-06
1153 390 8.63745e-06
1853 1624 2.11353e-07
833 1576 5.70542e-07
1771 1553 1.39288e-05
1668 1313 1.34049e-05
1603 995 1.05022e-05
475 1367 5.7686e-07
1490 51 0.000401373
1060 1324 1.50354e-06
1264 1162 3.70368e-06
1202 1162 2.80099e-05
730 302 2.09003e-05
1189 34 1.78197e-05
1154 1059 0.00413077
208 1021 5.90196e-05
0 52 4.82129e-06
189 140 1.76841e-07
11 32 7.25693e-07
113 30 7.11664e-07
0 353 1.29863e-06
453 11 2.52405e-06
174 187 6.40229e-05
172 185 1.95468e-06
61 11 0.000115464
10167 378 0.0862643
237 60 2.29668e-05
1184 21 2.92111e-07
987 16805 1.77963e-07
670 9878 2.11193e-05
8166 195 0.0239238
30488 892 4.07042e-06
30483 30 0.199987
2386 15752 0.000920798
1245 593 1.44307e-05
10107 6331 0.0474564
7425 6331 0.000192734
3494 6331 8.5286e-07
545 650 1.83233e-06
20790 650 6.70031e-05
1430 19530 0.049823
30450 3224 0.251893
85 393 0.00066342
5629 393 2.56762e-06
26714 139 6.97196e-05
986 5182 8.00989e-07
754 175 6.50448e-05
1165 175 6.56108e-07
30427 175 0.221153
312 443 0.0157814
30421 11 0.00558879
62 11 2.32159e-06
1905 2693 0.00498688
379 1380 0.00161538
21928 1380 4.90304e-06
27088 2945 0.0459366
10669 503 0.0542437
19137 188 0.00635218
11541 16585 1.94156e-05
26352 4763 8.38763e-06
26352 133 9.70909e-07
12048 438 7.29802e-06
22526 588 0.281607
5734 19489 0.000104963
911 60 0.00152794
1272 409 0.0127666
9464 409 1.59368e-05
231 409 4.14956e-07
520 593 5.08376e-06
121 438 2.90895e-05
448 68 1.7912e-05
1590 2326 0.0111862
4425 2326 1.32904e-05
986 1413 1.35705e-06
12118 51 1.27232e-05
466 19475 0.0908275
1394 19475 1.737e-06
6124 1181 0.0103577
9617 315 0.0626506
9032 156 0.000852652
6725 9073 0.000328948
9014 156 0.142906
530 316 3.15185e-05
1516 17919 0.00802136
30304 17919 0.00558466
1143 1209 0.0103545
30297 1209 0.00860458
3450 157 9.35484e-06
360 139 1.56101e-06
30278 4838 0.16643
25423 60 5.84416e-05
26465 3968 0.0778653
1336 12579 1.58025e-06
30264 2225 0.124845
2030 1403 5.54776e-06
163 1670 0.0228258
30203 503 0.0368432
202 187 0.0106555
30201 187 7.15763e-06
21737 54 5.16816e-07
3694 637 0.0366393
22165 637 3.64495e-07
30190 17250 0.249517
7036 1393 0.0453663
17737 2112 0.0628776
21852 8025 4.7406e-06
30121 8025 0.0168467
1866 1600 2.87283e-05
11782 393 0.0153724
9192 1600 0.331351
4200 2172 1.75368e-06
8625 2605 3.17167e-06
2701 2215 2.42837e-06
9057 2293 0.0876639
4230 2293 0.00308673
3671 2293 1.02103e-05
390 2293 0.00116318
9128 5930 0.0153425
617 9587 0.00039528
325 17351 2.30784e-07
184 41 0.0198395
5452 581 0.0207089
3914 335 0.00242756
1689 162 0.000621525
2996 26 0.0622125
9403 19 0.00202803
1187 19 4.38729e-06
27489 633 0.166345
21791 11286 0.165842
3286 11286 0.000115895
5077 16 0.0897239
216 154 8.52723e-05
10905 642 5.57347e-06
29507 154 0.136728
29507 642 0.143552
1260 30 5.89414e-05
5991 1753 0.0196788
420 353 0.0184612
21827 353 2.15869e-05
72 17250 0.000661385
6311 17250 0.000855366
842 20 1.86677e-07
5518 6335 0.00539546
29980 438 0.0792834
29969 19201 0.24595
29967 1095 0.16633
8385 54 0.00704955
1750 6236 0.00102452
2416 2504 0.00235002
62 504 0.000600454
5474 34 0.00170186
7544 15072 1.08537e-05
29914 26 0.109201
29913 235 0.166568
298 624 0.016709
1036 588 7.81065e-05
7450 5072 2.71632e-05
992 334 2.19321e-05
28883 184 0.139021
3770 1095 0.0262193
657 19086 7.42602e-05
339 19086 1.27938e-06
29868 123 0.24044
544 1002 1.17429e-06
1124 12100 4.7871e-05
2261 373 2.07417e-05
1638 19154 0.00771985
116 19154 5.26627e-07
1499 19154 3.33269e-05
29848 413 0.166731
1987 1096 0.0285269
7140 1657 0.093413
122 1657 1.2361e-05
1419 6039 0.00045728
29834 189 0.0153387
648 18779 0.0043048
4650 222 0.0832521
29825 222 1.01594e-05
29825 26 0.00349915
234 1225 0.0586718
1702 9376 1.96505e-07
4678 1882 0.00559507
29813 2969 0.184869
7964 1041 0.164483
15291 246 1.62247e-05
1167 246 0.000833692
9246 1935 0.0654966
482 66 0.000744971
1419 66 0.0229277
5162 123 0.0308496
1726 1521 0.0150299
78 2504 0.000310943
194 1339 0.0017861
57 1339 0.000240488
8848 4212 0.000140032
29722 4212 0.0256172
11834 1092 1.89026e-06
5718 7636 0.0751706
29709 41 0.00313489
1058 1626 5.27314e-06
3361 32 1.00916e-05
22013 898 0.0548351
1936 455 0.000424904
1144 888 0.0483749
182 7473 4.6517e-07
5742 984 0.000157014
7127 11382 0.0346334
20395 11 1.4994e-05
29625 135 0.249542
68 188 5.60783e-07
5305 188 0.0269495
2206 188 7.02229e-05
29609 188 0.000881788
29609 1335 0.107634
29608 188 0.00707619
4655 1711 0.00902643
8715 1711 2.48358e-05
246 2384 0.00377311
22240 19 6.67322e-05
29590 22 0.314212
1307 34 1.15572e-06
21990 39 1.71905e-05
527 3968 0.0203809
7553 15 1.31218e-06
7456 15 4.29607e-05
809 15 0.00300652
26522 15 3.81892e-06
29569 222 0.167575
4593 185 0.0126889
29557 16638 0.16644
23847 16638 1.60595e-06
3543 17086 0.0280966
505 364 7.22384e-07
10192 1988 0.000253484
1674 102 1.01255e-05
1941 754 8.65903e-07
25779 754 0.0667871
15983 455 0.0782305
6579 18673 0.0447762
26489 6459 0.249522
28695 246 0.0909448
8716 246 2.4159e-06
29478 4212 0.142671
145 16187 0.00161765
10968 587 1.07521e-06
2468 157 4.52676e-07
168 157 0.000989706
27340 427 0.00364266
27612 16 0.167191
5332 150 0.110795
679 18874 3.15663e-07
54 95 0.000205869
541 18879 0.00214449
2651 3293 3.58728e-05
4616 10172 0.0105083
221 525 0.00775466
951 34 8.21843e-07
7031 907 0.0553225
27639 907 2.37794e-06
108 624 0.00405607
26791 1744 0.0998398
285 1744 1.79046e-07
26408 222 3.84597e-05
3747 1095 0.0511529
807 1349 0.0082406
908 1349 3.82332e-05
1530 5308 0.000932947
915 34 3.18243e-06
3428 315 2.90894e-05
976 315 4.243e-07
5032 13305 7.90806e-06
8428 13305 0.0887095
8428 6644 0.0887201
4761 442 4.43069e-05
2024 17271 8.20887e-06
10833 4394 0.010615
2385 4394 1.68117e-05
9857 337 0.126869
819 18712 0.000289834
28319 41 0.125122
1637 264 1.31222e-05
694 3127 6.45083e-07
1530 3127 0.000154045
26596 1520 6.96059e-07
617 16805 0.00475593
285 16805 7.71431e-05
11448 34 4.78798e-06
181 961 0.0091618
3258 961 5.00763e-07
29002 18593 0.0259571
3256 438 1.01194e-05
1451 1827 0.0156881
1775 127 0.000168375
1396 127 2.40622e-05
20569 136 0.0622768
15 345 3.06794e-06
28963 150 0.123483
14206 438 0.163115
675 2483 6.83681e-07
319 2483 0.00346515
148 18572 2.44942e-05
632 18572 0.0134475
942 18572 6.73995e-05
23441 66 0.099805
942 18569 0.00551305
10128 2397 9.36764e-07
558 576 1.73515e-06
3511 18222 0.16629
22919 95 0.0830706
3305 9930 2.64099e-06
26467 9087 1.90349e-07
47 83 2.48853e-07
21303 187 0.00409272
9433 1041 7.2712e-05
617 946 5.66207e-05
5212 946 0.0211691
5212 6647 0.000763914
1443 2972 0.00339677
349 1421 0.00122731
622 16544 1.4053e-06
28809 10138 0.1659
432 18469 8.6211e-05
1855 18469 0.0275748
648 3761 4.64546e-06
26465 3761 1.38635e-05
2892 1435 0.0358625
2394 494 0.0224343
28739 298 0.169932
473 1266 5.58327e-07
3035 1266 0.000340567
196 615 0.00123767
12150 189 0.0921047
2904 612 3.9825e-06
257 1875 4.31226e-06
2964 1875 0.0121495
4438 1095 0.0224773
2377 650 0.00102853
1522 133 3.93009e-07
3868 18369 0.00222752
5193 7950 0.00121509
10388 7950 0.000357474
1880 4206 0.00328457
28552 9 8.90512e-05
28601 58 0.00867822
9664 1077 4.91605e-07
1530 15778 0.00929642
13069 15778 2.85213e-05
9511 1199 0.0666324
8346 1556 0.0269748
28558 3332 0.199605
28557 2835 0.199612
28514 156 0.166314
6549 66 7.03529e-06
3258 2097 0.000872337
1716 60 2.52327e-06
475 702 0.000471332
1753 1303 0.0323217
2750 2710 0.0192329
237 1351 0.000111896
490 892 0.0998584
28365 5321 0.00748146
4955 5321 0.0315395
2281 9994 0.0198086
299 1120 1.05497e-06
992 1126 6.44445e-07
287 1126 0.00234498
1176 1220 1.24044e-06
3163 1220 1.08332e-05
1759 1901 0.00138827
3619 655 0.000211006
38 951 0.000349848
1015 16762 0.00460857
160 46 1.92367e-06
17114 1095 0.111741
4513 4364 7.89652e-07
9836 2511 7.49754e-05
1036 2511 0.00726872
874 2511 1.42381e-05
28270 587 0.00264196
20663 587 0.00194119
5666 222 2.48411e-05
3086 188 0.00983579
28260 702 0.00019374
5205 702 1.65678e-05
360 9310 1.44473e-07
28256 532 0.249932
28176 455 0.143032
18442 115 2.90547e-06
141 58 0.00324034
28222 615 0.110897
23561 19 0.0884104
15296 18048 0.0811151
192 18048 7.37227e-06
2613 1578 4.08228e-05
6050 8239 2.97486e-05
9202 8239 0.0414584
1316 1335 0.00014847
379 1335 3.94127e-06
3531 1335 0.00619682
4285 240 0.000212699
927 1844 0.0134289
3564 34 0.000703821
1042 1081 1.21703e-06
10051 5023 7.85398e-05
4032 18015 2.59248e-05
28124 503 0.00492402
2614 12250 0.000314217
21805 1926 1.85692e-06
20958 27 8.39769e-05
28083 1620 0.199613
3503 2555 6.8593e-05
5830 2555 0.000393879
1834 2555 8.33031e-06
461 2555 0.0184618
2494 2555 3.50487e-07
1850 32 0.000624756
835 11 3.84962e-06
396 157 2.80924e-06
28023 21 7.54142e-05
2701 279 4.00156e-05
21989 1380 0.033922
5383 17930 0.082246
28006 933 0.000769167
23270 933 0.000712337
26571 587 0.083125
160 7043 0.000106612
24393 20 0.0204426
2205 1956 0.0109619
22027 2242 0.00105815
632 17897 0.0136937
2730 17897 7.15235e-06
4500 1310 0.0770959
777 121 0.000126671
9975 519 1.71569e-05
2259 139 2.84277e-07
2259 6285 0.000778121
6790 139 0.00660949
2010 7863 0.024063
3428 393 0.00700197
27876 194 0.00856891
976 185 7.04364e-05
26440 185 5.59652e-06
27862 17800 0.249516
3563 2196 0.00123394
2562 17736 0.0347813
1726 1126 2.74072e-06
109 205 0.00532772
2220 7496 0.000266362
65 627 5.06199e-07
629 6417 2.67684e-07
2015 1323 0.00126266
1398 2463 1.591e-05
24876 892 0.0833297
24876 127 3.38127e-05
12 1620 3.43994e-06
27663 1620 0.249523
2003 370 0.124798
956 607 1.09111e-06
27652 20 0.169961
5366 1095 4.0389e-06
2701 292 0.00786661
246 2837 1.64882e-06
385 1299 1.99635e-07
22715 1299 0.0129499
4004 10076 0.017174
2552 10076 6.68034e-06
27576 21 0.000563855
7429 2969 2.73211e-05
2323 2969 1.04873e-06
204 2969 3.67244e-06
189 2969 0.000604267
26862 2969 0.010009
1409 593 2.99878e-05
21735 593 0.0032966
4877 5113 8.51286e-06
21994 1983 1.56057e-06
122 216 0.00194532
3086 90 2.92038e-07
504 90 5.84524e-06
216 428 0.00424845
70 7290 4.19698e-05
22682 2097 0.124989
1419 185 8.87395e-05
3770 185 3.98196e-06
6037 1744 0.00100794
1857 2605 3.14617e-07
10051 15829 0.0332166
3888 26 5.26661e-06
27474 11860 0.123396
328 122 1.90783e-05
2682 16651 0.0120683
1573 11460 0.00473701
4104 17471 3.22045e-06
4682 17471 7.72704e-06
352 5207 0.00677181
21985 5207 1.84927e-05
5171 353 0.10062
591 11460 0.0407081
27411 16 0.0145127
6571 68 0.000130058
20569 4406 3.83839e-06
8029 1234 0.00107882
1105 58 1.40792e-05
4623 16 6.47009e-05
138 16 1.85974e-06
947 1744 1.12359e-06
228 1744 4.12127e-06
3058 1744 7.20284e-05
726 2845 6.90751e-05
632 2878 4.04448e-05
4528 29 2.8759e-06
1390 885 0.000169085
641 1095 0.0020372
1522 2619 1.15202e-06
3319 2619 4.62593e-06
9664 16792 5.36089e-07
1344 16792 0.0126318
1011 4569 3.16017e-05
11359 95 0.199611
135 3968 0.000471206
3647 1413 0.0713567
27218 9 0.249515
27209 131 0.011667
1122 220 0.000607853
22095 4720 0.0152221
89 4548 0.0338193
2251 156 1.01311e-06
27092 11 5.04631e-05
3609 3682 0.0323922
9061 17129 0.108999
1316 2273 0.0141823
17663 139 8.55883e-06
27032 3327 1.93486e-06
14345 3327 0.334684
472 58 0.000420638
4513 12042 0.0199772
1704 755 0.0101723
27009 990 0.000128015
2748 752 1.42933e-06
3291 17104 1.35022e-05
6607 11 0.000807852
14169 11 0.0593396
5380 363 0.0754521
4795 1916 5.75474e-05
4146 17096 0.0619404
26992 12638 0.199613
19623 665 0.124836
10675 373 1.09384e-05
10675 330 0.0835307
26985 68 0.332678
21781 19 0.00159851
6425 3337 0.000245732
5082 10636 0.00146182
1750 10636 0.00749629
198 14231 0.00012325
26943 27 0.000698688
11837 1095 0.166077
2362 1095 3.81936e-05
7604 2554 1.15858e-06
3283 313 0.108835
3698 1095 0.0843703
1260 1095 6.06027e-05
26914 2825 0.00511878
38 1095 0.000399918
813 1095 5.65532e-05
26913 378 2.53595e-05
12537 5503 0.00122588
9013 5503 0.1421
7031 5503 4.1988e-05
1417 5503 2.90539e-06
240 18 5.04575e-06
16675 1095 0.110893
2799 16993 1.48939e-05
7828 16993 0.106354
15657 140 0.0972806
3069 4622 0.0515401
4102 195 4.04515e-07
7118 1963 9.67256e-06
2526 522 0.0809248
4311 892 0.0310918
26822 16951 0.00373077
2333 1095 0.0562267
3395 1095 1.2926e-07
26819 115 0.249517
6029 16928 0.0906467
1595 68 2.11919e-06
7801 8396 4.81636e-05
3273 8396 0.0118767
26760 1341 0.332658
11733 1341 3.65867e-05
127 1425 0.0138788
264 1425 2.62591e-05
2206 378 0.00256969
7211 127 3.02319e-06
859 833 0.000489118
15534 117 0.00943094
10439 1166 0.161083
135 2430 2.15167e-07
48 2430 0.00030178
8598 8479 0.0285154
23579 51 1.48471e-06
183 208 0.000727202
5676 2886 0.000142438
1682 2886 0.039875
1314 75 0.038878
10935 2844 9.21205e-07
1716 1095 2.18532e-06
2301 3337 0.000341079
8638 1403 0.0113417
1187 667 6.76019e-05
5056 191 0.0110743
26527 1990 0.124638
9664 16700 4.57855e-06
1669 3844 9.05452e-06
2725 826 2.69084e-06
1120 378 4.19437e-05
526 826 1.03954e-06
1272 11296 0.0126901
283 3142 0.0285203
566 261 0.03781
3234 253 0.0264291
15654 11 0.199424
19350 4243 0.0524727
27 4243 8.75945e-07
18635 1081 3.35294e-06
8781 14331 0.00080995
9399 587 2.65865e-06
751 1583 0.0030916
26352 438 3.01508e-06
3671 5134 0.0552024
5612 5134 2.84879e-05
6714 2355 4.58912e-06
8661 2355 0.0630557
1071 16590 0.059139
4200 986 3.42848e-07
7800 403 0.142577
11570 16562 0.124777
618 21 0.000192657
2315 133 0.000282446
189 133 2.08797e-07
2082 133 0.00898691
2725 779 0.014037
13836 4525 4.32617e-05
2395 2747 5.11316e-07
17755 2747 0.249705
814 7858 0.0175701
26218 66 0.112839
3294 66 1.58981e-05
23721 34 0.000188524
22357 834 2.39779e-06
2710 278 0.00716242
25998 48 5.95666e-06
543 2272 8.27855e-06
21703 1809 1.19778e-06
4405 4457 2.39634e-05
2287 95 3.60645e-06
26170 189 0.11071
3612 60 0.00804453
242 83 4.59398e-06
13159 154 1.45931e-06
21173 154 0.110591
21173 1060 0.00280217
5730 183 0.0672826
3342 53 0.00127518
5100 2104 0.0138201
10554 7636 1.49234e-06
9833 133 0.000276728
1105 189 0.000142675
1105 188 0.0063691
1779 188 0.00281608
2820 6331 4.12343e-07
26091 581 0.121236
24308 1081 2.8116e-06
1296 16151 1.94503e-06
1398 58 1.70224e-07
2364 58 1.27288e-06
251 14155 0.000127045
16076 53 0.149598
1014 7439 1.24607e-05
1260 334 9.82609e-06
21703 60 0.00359892
504 1340 5.3849e-06
473 13695 4.1966e-05
21930 139 0.000272779
4994 139 7.36723e-06
12038 5548 0.107854
26030 486 0.0265599
1354 19 5.2136e-06
12155 19 0.0358649
1276 1403 0.0114913
8687 13963 0.00478258
25998 1545 0.0771274
152 507 0.000570218
22620 7401 0.0907755
2381 4378 0.016331
179 660 0.000461795
25119 298 0.0905007
5176 433 0.0615497
4309 1495 0.016603
508 43 0.011489
510 1060 1.33604e-05
640 1060 3.89628e-06
5666 1060 0.000959679
5666 1270 0.000319899
1279 10293 1.64158e-06
2113 8204 0.000481069
25961 1599 0.00346046
4490 188 3.80404e-05
29 188 2.20986e-06
1081 14635 0.00307454
819 13708 0.000284388
15485 200 5.12356e-06
17329 8934 0.0986989
3266 16320 0.0102345
115 16320 1.73423e-07
897 123 0.00117839
1973 123 1.1542e-05
22714 123 0.0786262
493 1930 7.94032e-06
21805 15036 0.0263618
7997 60 3.62796e-05
24321 1081 0.0736881
14914 1077 2.18093e-05
242 183 5.07411e-05
20804 183 5.50663e-07
886 587 4.51724e-05
4198 587 0.00133894
1465 11715 0.00420824
9317 4720 0.199306
25008 1406 0.1109
11057 2455 4.07862e-05
25904 53 0.110913
3649 730 0.0625233
25897 730 1.1126e-05
9413 1320 0.000323262
7559 398 0.124623
24415 66 0.0786429
25861 494 7.90624e-05
9082 142 0.000230407
17841 2684 0.00628393
7626 16280 0.000254312
23582 1081 0.0717034
17198 53 0.00929621
16411 10240 0.00993045
25836 5681 0.160245
2682 16267 4.75246e-07
1811 286 3.06951e-05
1811 794 3.31062e-05
15167 6573 0.113303
20385 15 0.0842463
25807 581 5.83994e-05
2395 581 3.55456e-07
9908 581 0.0476857
3514 581 8.54144e-05
12825 2116 0.00907938
1702 345 1.04085e-05
25790 19 0.0142365
25524 892 0.166344
25214 519 0.0768156
22553 71 0.000160289
16780 71 0.00306737
9546 18 0.0384268
1838 16212 0.0120378
18451 16212 0.000738687
4047 5053 0.00113139
619 14513 3.07652e-07
7767 990 0.124735
808 486 3.09229e-05
7921 142 0.124757
6810 634 0.0921566
25711 189 4.00373e-05
854 12238 7.47107e-05
25161 466 3.38894e-05
25692 7867 0.24892
25309 3183 0.249517
4272 603 0.010282
5986 39 6.54471e-07
342 624 1.58884e-07
22696 13454 0.0133684
19598 13454 0.00757471
25651 32 1.74051e-05
298 1926 3.90319e-07
14702 5567 0.0332024
1104 16 0.0062749
1161 133 2.121e-07
12124 10051 5.82965e-06
275 433 0.0221914
2322 522 0.0101827
4054 1349 9.86875e-06
4054 14228 2.83877e-05
25597 71 0.164976
761 11633 0.00064742
22620 11633 0.0186195
422 6255 9.24587e-07
14120 892 0.0961747
2974 1041 7.07995e-07
25576 1431 4.73207e-05
25576 439 0.000137468
25576 752 0.000712983
25569 19 0.0160137
23193 16091 0.12477
170 453 0.000942947
1592 518 0.00322872
787 567 3.45769e-05
1738 13148 9.6409e-07
2765 591 0.000130193
10168 591 0.0623946
21887 16070 0.00519277
517 1374 0.000816437
1282 1374 0.000514878
10981 1060 0.000604506
25528 123 0.00277568
6016 6440 1.54254e-06
18314 16059 0.143247
3384 53 0.0369299
461 9087 1.25879e-05
3416 4440 0.0269706
935 4440 1.71166e-06
12804 7221 5.07085e-06
3047 1098 1.873e-06
22389 247 0.00434958
1903 503 0.0277443
22078 151 0.0194748
24043 53 0.00277168
1219 5129 0.0156484
25455 457 0.139093
17644 1081 0.00294814
761 1827 0.00145543
13928 84 0.110897
25409 133 0.00412903
9420 3390 0.0823878
9297 390 0.00097578
22817 4585 0.0438125
2651 11037 0.00225943
23573 11 1.31565e-05
342 4177 0.000899633
9832 4177 1.37765e-05
25353 6791 6.29076e-05
618 71 9.43479e-07
14959 2072 0.109605
16623 26 0.0904097
25338 298 0.00282044
5347 593 3.47125e-05
25320 157 0.110474
782 15078 0.00756513
782 2220 0.00049213
25316 133 0.0360216
3798 2679 0.0433945
3139 990 0.0486404
10219 157 0.000979977
18887 11 0.249447
5082 43 0.000135789
15570 55 0.00190449
19472 405 4.96999e-05
8741 3041 3.84907e-05
8741 405 1.69481e-06
4604 15845 3.20387e-05
6641 15912 1.71284e-05
8 15912 4.28389e-05
3534 37 0.00843003
4282 1671 0.00627157
6674 7471 0.00281846
25218 8638 0.111738
22526 1256 0.00228541
22050 1256 6.8453e-06
2098 1256 1.35299e-06
161 9112 0.00061648
6294 66 0.0726461
25213 66 0.00428842
1522 2483 2.25269e-06
2384 1083 0.0161209
1137 486 5.77459e-06
6708 486 2.83044e-05
7678 486 0.0531466
16094 8516 0.166336
4081 1809 0.108114
20831 764 0.000307703
415 764 9.66073e-07
8166 2382 0.0003299
25181 1041 0.0856707
5760 60 1.18387e-05
12824 60 0.00578498
1121 2164 4.43213e-06
1344 2164 0.000233679
1804 2267 2.15584e-07
17473 2267 9.24519e-05
25143 2267 0.100962
7800 150 2.48138e-05
2 150 5.07759e-06
3141 150 0.00926116
2494 150 0.000984378
4988 150 0.000274871
14964 967 0.0407401
73 1746 0.00604398
4125 5647 1.53101e-06
12762 14379 0.00933975
1804 37 3.26972e-06
9075 272 0.0764383
3593 7025 0.0349502
17122 944 0.000297119
10085 7025 0.00680867
23512 115 0.00636084
23512 1990 0.0219697
17087 11 0.000356869
6320 71 0.0001999
25024 634 0.33269
23965 19 0.190415
3405 1809 4.16307e-07
25013 65 0.138464
5890 581 7.35474e-06
15319 4209 8.04752e-06
3478 32 2.0401e-07
15342 41 4.95954e-06
5986 680 6.98505e-06
9542 13695 0.00838582
272 5905 7.70629e-06
990 15705 0.0365146
10005 1420 0.0908627
7540 189 0.0714191
23022 13300 1.2405e-05
5732 1266 0.0173076
1724 1266 0.0024179
208 1440 0.00029245
24899 587 0.000580818
6042 1974 0.000531887
2179 6586 0.000220204
6518 6586 0.0280974
3136 593 2.22586e-07
4820 60 8.65426e-06
20970 1538 5.6952e-06
2062 7863 0.00139691
18908 93 7.64204e-06
1031 93 1.9931e-05
7461 19 0.0171783
15342 4455 0.058415
13244 15627 4.81301e-05
3634 494 0.013651
895 1465 0.00478291
4333 1465 0.00636434
24790 1604 0.165213
5297 14289 1.0997e-05
23950 156 0.000147427
344 14259 0.0027141
24393 1060 0.0163531
24748 8905 0.146936
24747 8905 0.0332995
879 12554 0.00901924
11976 2308 4.9675e-06
1438 52 0.00444466
8781 9109 8.88196e-05
7944 890 0.00439534
1157 117 2.63211e-06
24702 20 0.000321171
3358 607 5.09737e-07
5986 492 0.00378619
17663 14301 0.00740792
12992 14301 2.65977e-06
10450 1081 0.00193944
12573 265 0.0106492
23134 740 0.0715599
2662 13695 0.00191916
24622 117 0.00134898
754 5618 0.00197343
4991 5618 6.22362e-07
15181 1041 4.49908e-05
11327 811 3.7861e-07
463 3558 4.22812e-05
717 3176 6.96579e-05
12 5905 0.00481298
5052 11 0.00142193
5476 11 0.0026673
1470 11 2.98055e-05
24586 11 0.19476
14189 6514 0.0413193
23332 611 0.0254478
19560 15471 0.024317
229 15468 0.000207838
24560 1081 0.10859
8615 4002 0.0627847
9017 4002 0.0155185
21974 4002 0.000383109
24555 1091 0.166296
1165 587 1.45994e-06
5573 1238 0.00512495
1173 15448 0.00381952
4696 9524 0.0997801
1045 1260 0.00155332
1561 1260 0.0257002
9599 30 0.000464438
1014 892 1.46435e-06
3121 5419 0.0211101
24438 654 0.153035
24437 1041 0.0218882
248 4435 1.21816e-05
16926 4435 0.00441865
2120 2230 0.000185437
8623 5259 3.28854e-05
815 5259 2.92042e-05
21808 10809 0.000170298
20016 220 0.000186215
13823 185 0.00154624
1277 15361 9.59722e-05
193 150 6.9621e-05
6038 150 1.26701e-05
24379 150 0.0901745
10398 373 0.0907231
817 292 4.31404e-07
1854 3822 5.996e-07
21797 1043 1.97235e-07
22623 27 1.90107e-07
1759 603 7.98766e-05
17460 438 8.1439e-05
22860 390 0.0163369
22860 19 0.0116582
22860 22 6.09865e-05
4515 22 9.12481e-06
105 917 3.23998e-06
4419 1299 4.73507e-07
4636 1827 0.000220629
24319 20 8.36041e-05
23368 20 0.112625
19085 2665 0.121005
19085 1081 0.111919
17329 492 0.000117961
24299 30 0.000316248
1082 2069 0.00013122
17122 58 0.00163851
3262 117 0.0163041
504 1403 0.00507321
926 1403 4.51639e-05
7184 15287 4.76007e-06
13387 15287 9.39983e-07
9575 71 0.000240501
7059 19 4.80073e-06
21718 48 1.27147e-07
24229 364 0.166345
5543 313 3.51937e-06
21722 313 0.0525149
352 1679 2.65739e-05
2372 1679 0.00309077
3564 898 3.91499e-06
11714 892 0.188824
22058 1216 0.113779
24167 39 0.0818392
9908 10568 0.0478229
4128 10568 2.12512e-05
2450 188 3.53303e-05
1702 139 3.14075e-06
1279 139 1.68339e-05
14169 3216 0.0665959
1186 331 0.000455812
8883 3597 0.000718455
2027 9084 2.56063e-06
24132 93 0.137131
16505 7664 0.0669579
21737 19 1.61881e-05
1960 9 3.94054e-06
24100 9 0.19961
5162 2187 0.000144267
24082 123 0.103457
21880 607 0.000140245
1082 458 0.000688861
4239 740 0.0120868
24050 740 0.147636
24016 811 0.00216923
24014 140 0.141178
9101 581 0.00315944
263 892 1.78197e-05
1863 892 0.0565871
508 240 3.28694e-07
15851 892 0.166167
2019 522 0.00524707
4929 522 0.0325864
1516 522 0.000117663
24009 661 0.00089155
14102 1860 0.00068755
23041 150 0.0997478
3049 10663 0.000965345
5573 222 8.7896e-06
7751 222 0.045475
4800 264 0.062514
1386 892 0.00470357
5626 634 0.00789248
5218 93 4.60004e-06
14399 1601 0.000194083
9973 1601 5.71644e-06
5100 167 0.0138054
429 8247 0.0309732
9284 9 4.86947e-05
21837 730 0.0118593
3609 13855 1.17174e-05
689 13855 0.0201465
23868 1041 0.0106889
1049 1092 6.03775e-06
21707 757 2.37082e-06
1700 52 0.00136659
23818 785 0.166117
1418 1260 0.000565283
14015 337 0.00149595
4002 337 9.27795e-06
23504 1284 0.0416266
9908 135 5.89141e-06
5163 1052 0.00535696
7162 1052 0.00104631
381 1404 5.4089e-05
240 581 3.78476e-07
5092 581 0.00496673
1991 581 3.87277e-05
22914 581 2.5947e-05
23772 1621 0.332689
23763 369 1.82555e-05
1952 9 0.0555986
7471 43 0.0032137
15585 13941 0.0434031
145 95 0.00152627
177 1708 1.47324e-05
893 722 1.56373e-06
23735 499 0.111144
23705 10041 3.24703e-05
21179 10041 0.028497
4604 10041 0.044758
5359 10041 0.00205439
1857 740 0.000166424
687 14898 0.0623161
6341 43 0.000381927
23630 43 0.198946
6341 313 0.091127
22029 14864 0.140625
447 6548 0.0475447
295 660 2.38221e-06
1799 660 2.18426e-05
7811 3597 0.0435013
8348 14591 0.0001083
23578 19 0.0804392
23557 139 0.0020695
15291 139 1.30239e-05
4616 10169 2.79308e-05
3691 16 0.00064814
3843 53 0.0464578
15758 39 0.0054424
3136 507 0.0104044
2301 1076 8.70726e-06
20405 14733 0.00118333
23023 5114 0.0656725
1204 140 0.0564775
18 373 1.42337e-06
1743 373 0.0084442
21897 373 4.33946e-06
8163 14710 0.0475266
2420 48 0.00962077
2033 2702 0.000450189
187 90 0.00499336
23429 1041 0.117947
10785 6779 3.87042e-06
23023 19 0.00214752
22307 14668 1.16362e-06
783 14668 0.0188282
221 1545 4.83623e-06
1162 7379 3.96231e-07
17135 14656 0.000827392
23352 14625 0.166345
18340 650 0.01723
23116 127 0.0127265
4834 52 1.77891e-05
23298 52 0.112881
9685 15 0.00240402
513 2142 6.75677e-07
21737 14557 4.9477e-07
1113 14542 2.46143e-05
7450 282 0.0327592
1357 1041 6.49406e-06
2212 3692 0.0334342
1136 245 0.0670785
2496 245 0.00766483
5317 438 0.00255915
23192 1907 0.0907421
1106 892 1.12224e-05
22808 1339 8.7012e-07
58 1669 0.00060012
1039 4002 0.0194767
309 206 0.0177668
564 206 2.89163e-07
23144 877 0.142418
4382 133 2.90521e-06
1755 5012 1.32543e-06
549 141 2.35651e-06
1129 141 0.0296388
19457 566 0.024957
6054 5697 1.57614e-06
14157 740 1.17008e-05
11544 1926 0.0622651
9292 14271 0.000290259
2461 123 4.10541e-07
1180 14259 4.47027e-06
7610 241 0.0665362
5205 298 0.000566132
23064 298 0.13861
23062 298 0.000670603
3163 1041 2.05535e-05
13033 8733 0.146761
13694 918 0.00437331
182 66 2.74801e-06
8056 5535 0.000125543
14521 5535 0.166489
23038 222 1.0237e-05
21707 5186 8.34367e-07
23034 8905 0.249427
619 14354 2.21416e-07
15845 185 0.000152479
23016 9 0.000752388
6113 9 0.198027
428 4157 0.016903
9082 587 4.75969e-07
9082 1079 0.000174406
23001 55 0.195583
100 14330 1.01583e-05
13878 7054 0.0830101
12889 117 0.0973246
3798 486 2.66677e-06
22951 2152 0.164457
2255 944 5.08012e-06
22948 39 0.136464
22939 1887 0.0075521
22944 1887 2.08528e-05
1015 843 0.0051525
1522 2670 0.00483163
22926 68 0.142276
3163 5251 1.84955e-05
2323 10542 0.000140799
8621 1907 3.84299e-06
387 1907 2.26421e-06
2642 845 0.000191664
22869 60 0.199803
22112 389 0.000272928
135 389 1.05917e-06
6124 1916 0.000192497
21718 1916 3.34486e-06
1919 4002 0.0364557
22832 1041 0.16346
500 3709 1.81382e-07
7819 133 0.00180373
22805 32 7.62464e-05
908 20 1.34615e-06
22372 14218 0.000376626
22782 4090 0.010957
22778 390 2.81302e-05
14662 390 0.199588
116 41 0.0027188
7925 1081 0.110548
10554 370 9.19216e-05
19222 892 0.0070545
1231 892 6.72237e-07
6258 27 0.0150138
22730 593 0.110889
861 771 0.000169266
8432 71 9.95679e-05
8432 2536 0.0217422
1777 71 5.64193e-05
309 740 6.81969e-07
8024 740 1.80635e-05
10340 378 0.00017679
4010 3746 0.000266391
500 52 7.12297e-06
287 1949 0.00274814
17639 22 1.39091e-05
3634 423 8.89358e-06
3395 423 1.18968e-06
12294 150 9.45258e-06
1475 299 1.50575e-06
543 296 6.82532e-06
599 486 0.0104221
22103 486 2.44815e-05
22574 123 0.142556
14670 455 0.1413
22112 455 1.08364e-05
5523 7123 0.0291525
22552 41 0.00950012
5082 6619 0.0212256
4688 5622 0.00109857
7849 5622 0.00365514
309 13954 7.76531e-05
1740 1827 6.5889e-06
1752 200 0.000104195
21303 200 0.00215117
9316 14039 0.000670695
1794 66 0.0173504
1114 692 0.00301616
22460 48 0.00854126
11611 208 0.000156638
22247 3597 0.249272
8781 83 1.70814e-06
1081 531 3.66326e-06
5349 7123 0.0549312
1704 1060 0.0104492
2801 390 0.0372283
21819 1404 4.94045e-05
21735 1404 0.00533232
1161 10340 0.00100919
1161 2679 0.000137441
21781 10340 0.00545156
21781 892 8.25248e-05
9177 8865 0.000647265
9177 740 9.78387e-05
22365 1540 0.110443
22362 13933 0.249513
22353 54 1.91335e-06
18383 1999 2.71756e-05
3687 1999 3.86525e-07
10451 1393 2.86207e-05
22302 1935 0.0525286
886 2421 0.0230494
619 13957 0.00206991
3163 1603 1.05377e-05
12463 1857 0.0665372
9760 1857 2.08264e-06
6071 53 0.00113213
19583 66 0.0771108
1615 2593 0.0291032
4368 566 0.0669232
1344 4423 2.50474e-06
553 1081 0.0810086
893 9658 1.90019e-07
2062 13294 0.000274584
1799 1025 1.59924e-07
13774 206 0.0310639
9430 19 2.4123e-05
4002 843 2.31582e-07
2712 2943 2.11191e-05
7071 2943 0.00210659
11427 1041 1.73242e-05
13960 353 0.000447138
22127 353 0.00146248
2461 54 6.63661e-05
32 66 2.0946e-07
138 66 1.44904e-06
4387 139 0.00380226
21703 393 4.63678e-06
22098 2281 0.0151703
1804 73 8.21538e-06
22034 73 1.70042e-05
8440 37 5.57659e-07
22094 37 0.332686
2349 6783 5.36725e-07
325 4902 8.68697e-06
3711 4902 8.21382e-05
22055 188 0.249523
8143 13795 2.14988e-06
18424 13795 0.0110498
22033 93 0.000148943
8781 1983 7.66275e-07
385 8390 3.02666e-06
997 32 5.07711e-07
21964 2255 0.253307
1427 287 0.0996476
668 13739 3.18655e-07
10880 13736 3.37971e-06
3021 222 0.0083609
16533 438 0.0117183
4298 3825 0.000196954
309 3825 8.93503e-05
496 3825 5.35766e-07
20413 2461 5.70891e-05
4254 230 1.60063e-05
4530 11286 3.72157e-06
4530 208 0.000115705
1762 946 6.11982e-07
1909 4925 0.0228877
1516 4925 8.77493e-05
10471 4925 0.000173202
473 4146 3.31555e-07
16279 1857 0.000471899
21869 30 5.15817e-05
21864 19 0.0990426
193 13384 1.91807e-05
14819 1041 0.0657288
5207 53 1.82952e-05
2010 139 0.000406937
2489 6385 0.0359427
21815 892 0.000772997
21788 83 3.94854e-05
10795 13656 0.199852
37 13645 1.1385e-06
437 13645 0.166387
259 2851 1.2783e-05
16595 395 0.123365
15 826 0.000311174
13303 826 1.11788e-05
1597 2397 1.66371e-07
3881 2397 0.0224714
835 401 7.81702e-07
13820 20 0.00052027
21683 298 0.25129
908 1081 0.000100318
3478 401 0.0135691
2539 6056 2.25851e-06
21667 1041 0.180537
49 8880 0.000786992
7201 1054 0.0171328
543 2182 0.00522546
13746 8724 0.0711016
1123 3597 0.0262516
73 8968 5.54895e-06
1637 175 0.0118804
15318 1207 0.0125411
936 11064 0.000131342
1609 11064 1.49238e-06
13444 743 2.83868e-07
426 139 0.000174102
634 3028 6.1472e-07
379 2844 0.00182214
12703 8664 0.000645966
251 3114 1.53982e-06
15310 892 0.0908937
396 541 1.62614e-07
518 8507 2.22712e-05
14057 3597 1.34342e-05
21563 123 0.00972622
2951 503 1.51277e-05
2199 503 1.36391e-05
113 13520 0.00615495
16026 1016 0.00245412
109 634 2.87442e-06
821 634 0.00415367
2759 1053 0.000594359
5733 4460 3.07438e-07
5244 367 0.0224359
18367 380 0.0816898
2046 627 0.00661792
8182 1545 1.83063e-05
875 371 0.000146102
6980 581 1.12955e-06
451 3209 0.00438091
2344 13468 0.0138107
1973 9532 3.08927e-06
785 9532 4.19568e-06
8055 587 0.0165345
2372 4120 2.29414e-06
410 140 0.00373878
325 313 0.000396253
14574 566 5.13602e-07
469 13459 5.16894e-05
725 199 0.015853
1000 3319 0.00407275
2115 2308 9.38208e-07
21420 2439 0.00109136
127 1378 0.0280444
2247 4752 2.044e-05
12946 754 0.00762613
675 3449 0.00769047
9398 3449 0.000108606
4044 4760 0.0269505
1279 1068 0.00639505
13060 1205 5.82468e-07
3930 1814 0.111705
4475 1300 1.24986e-06
1740 1339 0.00843768
4108 839 0.0486145
523 707 2.9389e-05
10468 525 0.0424589
14378 5626 0.000396934
1103 5626 0.0127794
191 3597 7.64352e-07
1718 3597 8.76074e-07
20178 133 0.000886976
5791 133 0.0167362
181 1374 0.00890955
744 142 1.49611e-06
11005 5666 0.0999971
192 10133 1.87495e-07
58 123 0.000183431
1417 1146 0.00163032
21351 1041 0.344554
1316 1572 0.0159605
12737 393 0.001338
16149 19 0.000634269
13820 353 0.00118322
12826 1406 0.00556694
13820 1076 0.0190562
270 80 3.50594e-05
2882 380 2.04937e-05
12281 7970 1.38285e-06
8138 7970 4.76411e-06
100 1708 0.000105259
216 1708 0.00839372
843 40 0.0325074
13115 536 2.57317e-05
1170 1420 0.00225732
139 755 6.63653e-07
263 755 3.08746e-06
139 53 1.72011e-07
4461 826 0.000824776
13387 30 2.64685e-06
13387 2439 0.00228715
13538 2439 0.000192036
1219 303 0.00013743
1958 303 0.000760929
2125 241 2.63421e-06
564 117 1.33752e-06
13357 117 0.000177426
2125 1076 6.36202e-07
4419 764 0.00450319
161 1357 0.000654966
47 9153 0.000116592
1900 9280 0.0434737
3531 9280 1.53332e-06
15684 48 3.63387e-05
469 6331 3.11037e-06
1092 6331 0.00154889
18640 593 0.00161876
8741 2099 2.38091e-05
20706 2204 0.331913
3811 2204 0.000152433
313 8673 1.12863e-05
842 1163 1.30911e-07
169 7779 9.38494e-07
141 7779 0.00161806
1276 7779 1.46868e-06
10565 2458 0.034527
21197 9108 0.00155606
1000 1055 0.00447046
12826 945 0.00510244
1880 945 0.00010094
1240 6466 5.73638e-06
7400 1864 0.00910335
1854 13362 1.0251e-07
2959 13362 0.0608755
12421 133 0.00221827
16009 766 0.0986546
226 447 6.82205e-07
10192 4373 0.0326201
12751 4373 2.94754e-06
355 1088 1.08463e-07
6822 430 0.0277268
100 156 1.31484e-07
15451 449 8.6413e-06
18164 449 0.000418554
1701 449 1.62968e-06
320 7516 9.92033e-07
2062 2171 0.0143117
12791 2414 0.000236912
11419 8673 0.00960126
12119 8673 5.15217e-05
13463 115 0.00270214
1029 13330 2.20984e-06
1799 1829 3.218e-05
2494 449 5.09795e-05
13060 8638 0.00323986
884 3411 4.88e-05
2372 12897 5.58543e-07
640 590 0.000185667
555 4438 0.000341516
1597 650 4.71413e-06
643 43 0.0349125
7788 43 2.94944e-05
1561 2961 7.13751e-06
5290 1567 5.20182e-06
2292 1567 0.0257317
1122 896 3.10352e-05
2082 2166 1.61554e-07
49 3642 4.66449e-07
1124 3642 2.16315e-05
1007 6550 0.0154563
16469 1431 0.0361486
177 116 9.96975e-07
2885 13293 0.0525557
552 8673 2.58692e-06
777 8673 4.38803e-06
4376 8673 0.0469773
4282 3593 4.86227e-07
13346 1087 0.0667164
60 338 0.000162822
49 13276 1.95912e-07
1176 1768 0.0115578
1282 1768 0.001398
2082 593 2.92353e-05
141 892 0.00160566
1092 13271 0.00158614
1421 48 0.00645019
3469 717 0.0051976
13463 19 0.00678838
2691 241 0.053988
1101 389 4.16785e-06
16411 8872 0.0112913
13669 8872 5.34707e-07
2958 364 5.48776e-05
2958 13242 0.00371213
2409 6867 0.0237142
7658 1437 0.00401163
127 1399 0.0140411
20818 206 0.0530664
3063 2942 0.000328534
511 2942 1.16265e-07
14664 398 3.41454e-05
1027 398 0.00745078
10555 398 6.57465e-05
202 1096 0.00981212
202 39 1.81331e-07
1848 455 1.1545e-05
226 455 9.83788e-06
582 1206 0.0241385
189 4711 2.78821e-07
13048 4711 0.0262036
