0 1 1 100 0.0865992
1 1 1 100 0.913401
0 2 1 100 0.0477353
1 2 1 100 0.952265
0 3 1 100 0.189447
1 3 1 100 0.810553
0 4 1 100 0.772387
1 4 1 100 0.227613
0 5 1 100 0.0997109
1 5 1 100 0.900289
0 6 1 100 0.449598
1 6 1 100 0.550402
0 1 2 100 0.213442
1 1 2 100 0.753804
2 1 2 100 0.0327545
0 2 2 100 0.0398041
1 2 2 100 0.747387
2 2 2 100 0.212809
0 3 2 100 0.146604
1 3 2 100 0.278996
2 3 2 100 0.5744
0 4 2 100 0.562939
1 4 2 100 0.300364
2 4 2 100 0.136697
0 5 2 100 0.240164
1 5 2 100 0.387933
2 5 2 100 0.371902
0 6 2 100 0.177489
1 6 2 100 0.588828
2 6 2 100 0.233683
0 7 2 100 0.225629
1 7 2 100 0.478343
2 7 2 100 0.296028
0 8 2 100 0.253533
1 8 2 100 0.645606
2 8 2 100 0.100861
0 9 2 100 0.119199
1 9 2 100 0.49985
2 9 2 100 0.380952
0 10 2 100 0.257579
1 10 2 100 0.600326
2 10 2 100 0.142095
0 11 2 100 0.170068
1 11 2 100 0.266695
2 11 2 100 0.563237
0 12 2 100 0.256515
1 12 2 100 0.420029
2 12 2 100 0.323457
0 13 2 100 0.366931
1 13 2 100 0.633069
0 1 3 100 0.295844
1 1 3 100 0.608238
2 1 3 100 0.0913747
3 1 3 100 0.00454367
0 2 3 100 0.0674418
1 2 3 100 0.369172
2 2 3 100 0.503343
3 2 3 100 0.0600432
0 3 3 100 0.093738
1 3 3 100 0.178969
2 3 3 100 0.404406
3 3 3 100 0.322887
0 4 3 100 0.342983
1 4 3 100 0.12624
2 4 3 100 0.262365
3 4 3 100 0.268413
0 5 3 100 0.329145
1 5 3 100 0.111102
2 5 3 100 0.258402
3 5 3 100 0.30135
0 6 3 100 0.355976
1 6 3 100 0.162942
2 6 3 100 0.190966
3 6 3 100 0.290116
0 7 3 100 0.350898
1 7 3 100 0.241169
2 7 3 100 0.171713
3 7 3 100 0.23622
0 8 3 100 0.433078
1 8 3 100 0.140687
2 8 3 100 0.164821
3 8 3 100 0.261413
0 9 3 100 0.288134
1 9 3 100 0.285257
2 9 3 100 0.231373
3 9 3 100 0.195236
0 10 3 100 0.449758
1 10 3 100 0.10554
2 10 3 100 0.168115
3 10 3 100 0.276588
0 11 3 100 0.384079
1 11 3 100 0.204565
2 11 3 100 0.166667
3 11 3 100 0.244689
0 12 3 100 0.418316
1 12 3 100 6.38554e-05
2 12 3 100 0.245882
3 12 3 100 0.335738
0 13 3 100 0.620392
1 13 3 100 0.0477143
3 13 3 100 0.331894
0 14 3 100 0.999124
3 14 3 100 0.000875666
0 1 4 100 0.283297
1 1 4 100 0.5914
2 1 4 100 0.0989395
3 1 4 100 0.0259715
4 1 4 100 0.000391532
0 2 4 100 0.0707243
1 2 4 100 0.399944
2 2 4 100 0.242193
3 2 4 100 0.273378
4 2 4 100 0.0137615
0 3 4 100 0.128857
1 3 4 100 0.157622
2 3 4 100 0.273161
3 3 4 100 0.304125
4 3 4 100 0.136235
0 4 4 100 0.184361
1 4 4 100 0.113651
2 4 4 100 0.101988
3 4 4 100 0.419366
4 4 4 100 0.180635
0 5 4 100 0.225567
1 5 4 100 0.0650774
2 5 4 100 0.0802968
3 5 4 100 0.250311
4 5 4 100 0.378748
0 6 4 100 0.428942
1 6 4 100 0.0761183
2 6 4 100 0.0567802
3 6 4 100 0.234797
4 6 4 100 0.203362
0 7 4 100 0.356552
1 7 4 100 0.107068
2 7 4 100 0.0287596
3 7 4 100 0.212027
4 7 4 100 0.295594
0 8 4 100 0.38049
1 8 4 100 0.159543
2 8 4 100 0.0316531
3 8 4 100 0.194412
4 8 4 100 0.233902
0 9 4 100 0.24649
1 9 4 100 0.130019
2 9 4 100 0.0444671
3 9 4 100 0.28985
4 9 4 100 0.289174
0 10 4 100 0.407891
1 10 4 100 0.168351
2 10 4 100 0.0170965
3 10 4 100 0.119629
4 10 4 100 0.287032
0 11 4 100 0.292405
1 11 4 100 0.180846
2 11 4 100 0.036385
3 11 4 100 0.178615
4 11 4 100 0.311749
0 12 4 100 0.33823
1 12 4 100 0.256412
2 12 4 100 0.00035661
3 12 4 100 0.186232
4 12 4 100 0.218769
0 13 4 100 0.447071
1 13 4 100 0.216673
2 13 4 100 0.111076
3 13 4 100 0.114158
4 13 4 100 0.111022
0 14 4 100 0.177474
1 14 4 100 0.000247345
2 14 4 100 0.00162341
3 14 4 100 0.490548
4 14 4 100 0.330107
0 15 4 100 0.552492
1 15 4 100 0.0486092
3 15 4 100 0.200045
4 15 4 100 0.198854
0 16 4 100 0.696728
1 16 4 100 0.0193494
4 16 4 100 0.283922
0 1 5 100 0.246335
1 1 5 100 0.603635
2 1 5 100 0.0965048
3 1 5 100 0.0312325
4 1 5 100 0.0193379
5 1 5 100 0.0029553
0 2 5 100 0.0697467
1 2 5 100 0.315769
2 2 5 100 0.374294
3 2 5 100 0.127312
4 2 5 100 0.103931
5 2 5 100 0.00894788
0 3 5 100 0.122486
1 3 5 100 0.124291
2 3 5 100 0.273475
3 3 5 100 0.248143
4 3 5 100 0.207362
5 3 5 100 0.0242442
0 4 5 100 0.134429
1 4 5 100 0.0926396
2 4 5 100 0.156777
3 4 5 100 0.201674
4 4 5 100 0.325669
5 4 5 100 0.0888122
0 5 5 100 0.154094
1 5 5 100 0.0514317
2 5 5 100 0.123467
3 5 5 100 0.149148
4 5 5 100 0.292918
5 5 5 100 0.228941
0 6 5 100 0.271101
1 6 5 100 0.0416198
2 6 5 100 0.0717517
3 6 5 100 0.104056
4 6 5 100 0.263294
5 6 5 100 0.248178
0 7 5 100 0.323721
1 7 5 100 0.0397153
2 7 5 100 0.049412
3 7 5 100 0.0742
4 7 5 100 0.207279
5 7 5 100 0.305672
0 8 5 100 0.384469
1 8 5 100 0.0458767
2 8 5 100 0.0416506
3 8 5 100 0.0661797
4 8 5 100 0.23273
5 8 5 100 0.229094
0 9 5 100 0.284517
1 9 5 100 0.0818306
2 9 5 100 0.0355954
3 9 5 100 0.0645411
4 9 5 100 0.237196
5 9 5 100 0.29632
0 10 5 100 0.319848
1 10 5 100 0.0799665
2 10 5 100 0.0309959
3 10 5 100 0.042533
4 10 5 100 0.176082
5 10 5 100 0.350576
0 11 5 100 0.304758
1 11 5 100 0.130585
2 11 5 100 0.0394761
3 11 5 100 0.0928548
4 11 5 100 0.184753
5 11 5 100 0.247572
0 12 5 100 0.264802
1 12 5 100 0.128719
2 12 5 100 0.0697283
3 12 5 100 0.116278
4 12 5 100 0.140461
5 12 5 100 0.280011
0 13 5 100 0.282637
1 13 5 100 0.0769076
2 13 5 100 0.000304341
3 13 5 100 0.106629
4 13 5 100 0.247462
5 13 5 100 0.28606
0 14 5 100 0.40403
1 14 5 100 0.120779
2 14 5 100 1.43421e-05
3 14 5 100 0.00881658
4 14 5 100 0.153302
5 14 5 100 0.313059
0 15 5 100 0.483109
1 15 5 100 0.0168327
4 15 5 100 0.499831
5 15 5 100 0.000227334
0 16 5 100 0.0154584
4 16 5 100 0.5
5 16 5 100 0.484542
0 17 5 100 0.00585267
5 17 5 100 0.994147
0 18 5 100 0.897727
1 18 5 100 1.27098e-05
4 18 5 100 0.102234
5 18 5 100 2.61637e-05
0 1 6 100 0.298809
1 1 6 100 0.549791
2 1 6 100 0.0959557
3 1 6 100 0.023995
4 1 6 100 0.0169384
5 1 6 100 0.011002
6 1 6 100 0.00350841
0 2 6 100 0.0833939
1 2 6 100 0.310675
2 2 6 100 0.334817
3 2 6 100 0.153031
4 2 6 100 0.0404892
5 2 6 100 0.062178
6 2 6 100 0.0154148
0 3 6 100 0.147974
1 3 6 100 0.112131
2 3 6 100 0.243312
3 3 6 100 0.278422
4 3 6 100 0.104953
5 3 6 100 0.0914097
6 3 6 100 0.0217983
0 4 6 100 0.146675
1 4 6 100 0.0690878
2 4 6 100 0.119244
3 4 6 100 0.266075
4 4 6 100 0.158504
5 4 6 100 0.217905
6 4 6 100 0.0225087
0 5 6 100 0.145457
1 5 6 100 0.050456
2 5 6 100 0.071568
3 5 6 100 0.16069
4 5 6 100 0.183392
5 5 6 100 0.273222
6 5 6 100 0.115216
0 6 6 100 0.195919
1 6 6 100 0.0360101
2 6 6 100 0.0397046
3 6 6 100 0.102071
4 6 6 100 0.133107
5 6 6 100 0.302487
6 6 6 100 0.190701
0 7 6 100 0.217558
1 7 6 100 0.0282539
2 7 6 100 0.0414947
3 7 6 100 0.0969853
4 7 6 100 0.094622
5 7 6 100 0.245605
6 7 6 100 0.275481
0 8 6 100 0.307317
1 8 6 100 0.0223536
2 8 6 100 0.0271015
3 8 6 100 0.0800124
4 8 6 100 0.0731141
5 8 6 100 0.237706
6 8 6 100 0.252395
0 9 6 100 0.265355
1 9 6 100 0.0319398
2 9 6 100 0.0351116
3 9 6 100 0.068081
4 9 6 100 0.0576135
5 9 6 100 0.245851
6 9 6 100 0.296048
0 10 6 100 0.256675
1 10 6 100 0.0606124
2 10 6 100 0.0342219
3 10 6 100 0.0529616
4 10 6 100 0.0781378
5 10 6 100 0.179323
6 10 6 100 0.338068
0 11 6 100 0.351132
1 11 6 100 0.0702885
2 11 6 100 0.0560341
3 11 6 100 0.0814375
4 11 6 100 0.0837526
5 11 6 100 0.153998
6 11 6 100 0.203357
0 12 6 100 0.291683
1 12 6 100 0.0556648
2 12 6 100 0.0897123
3 12 6 100 0.0789474
4 12 6 100 9.12277e-06
5 12 6 100 0.225477
6 12 6 100 0.258507
0 13 6 100 0.320684
1 13 6 100 0.0544798
2 13 6 100 0.0588699
3 13 6 100 0.0784928
4 13 6 100 0.019672
5 13 6 100 0.115934
6 13 6 100 0.351867
0 14 6 100 0.308246
1 14 6 100 0.000818859
2 14 6 100 0.161274
3 14 6 100 0.0967767
4 14 6 100 0.0645154
5 14 6 100 0.120043
6 14 6 100 0.248326
0 15 6 100 0.197204
1 15 6 100 0.0526429
2 15 6 100 0.247476
3 15 6 100 0.105263
4 15 6 100 0.157889
5 15 6 100 0.052631
6 15 6 100 0.186893
0 16 6 100 0.475075
1 16 6 100 3.21731e-05
2 16 6 100 0.14407
3 16 6 100 0.000895141
4 16 6 100 0.0714468
5 16 6 100 0.0843045
6 16 6 100 0.224177
0 17 6 100 0.299448
1 17 6 100 0.00936805
3 17 6 100 0.142859
4 17 6 100 2.27814e-06
5 17 6 100 0.428599
6 17 6 100 0.119724
0 18 6 100 0.0718792
2 18 6 100 0.199999
3 18 6 100 0.00281263
6 18 6 100 0.725309
0 19 6 100 0.682752
1 19 6 100 0.00469773
3 19 6 100 0.000796091
5 19 6 100 0.107506
6 19 6 100 0.204248
0 1 7 100 0.279746
1 1 7 100 0.558709
2 1 7 100 0.0863366
3 1 7 100 0.0266188
4 1 7 100 0.0227293
5 1 7 100 0.00709192
6 1 7 100 0.0186745
7 1 7 100 9.36626e-05
0 2 7 100 0.0874547
1 2 7 100 0.323883
2 2 7 100 0.298841
3 2 7 100 0.157727
4 2 7 100 0.0650247
5 2 7 100 0.0231788
6 2 7 100 0.0392307
7 2 7 100 0.00465957
0 3 7 100 0.138973
1 3 7 100 0.117046
2 3 7 100 0.234884
3 3 7 100 0.25056
4 3 7 100 0.145134
5 3 7 100 0.0485936
6 3 7 100 0.060145
7 3 7 100 0.00466392
0 4 7 100 0.132238
1 4 7 100 0.0675777
2 4 7 100 0.120847
3 4 7 100 0.240449
4 4 7 100 0.232577
5 4 7 100 0.0917345
6 4 7 100 0.100957
7 4 7 100 0.0136211
0 5 7 100 0.173891
1 5 7 100 0.0452383
2 5 7 100 0.0764682
3 5 7 100 0.117347
4 5 7 100 0.220755
5 5 7 100 0.159639
6 5 7 100 0.166964
7 5 7 100 0.0396974
0 6 7 100 0.159942
1 6 7 100 0.0340619
2 6 7 100 0.0353485
3 6 7 100 0.0931248
4 6 7 100 0.156143
5 6 7 100 0.162695
6 6 7 100 0.234022
7 6 7 100 0.124663
0 7 7 100 0.209324
1 7 7 100 0.0247347
2 7 7 100 0.0186679
3 7 7 100 0.0509851
4 7 7 100 0.104442
5 7 7 100 0.143727
6 7 7 100 0.258519
7 7 7 100 0.1896
0 8 7 100 0.220854
1 8 7 100 0.0336942
2 8 7 100 0.018478
3 8 7 100 0.0387022
4 8 7 100 0.0735835
5 8 7 100 0.119904
6 8 7 100 0.246542
7 8 7 100 0.248242
0 9 7 100 0.246858
1 9 7 100 0.0476934
2 9 7 100 0.0188641
3 9 7 100 0.0262026
4 9 7 100 0.0533362
5 9 7 100 0.0970607
6 9 7 100 0.245612
7 9 7 100 0.264373
0 10 7 100 0.272393
1 10 7 100 0.0415813
2 10 7 100 0.0137239
3 10 7 100 0.0415231
4 10 7 100 0.0340528
5 10 7 100 0.0827283
6 10 7 100 0.222946
7 10 7 100 0.291051
0 11 7 100 0.277233
1 11 7 100 0.0458118
2 11 7 100 0.0209606
3 11 7 100 0.046932
4 11 7 100 0.0475807
5 11 7 100 0.0583606
6 11 7 100 0.226658
7 11 7 100 0.276463
0 12 7 100 0.189299
1 12 7 100 0.0728289
2 12 7 100 0.041833
3 12 7 100 0.0431688
4 12 7 100 0.0900759
5 12 7 100 0.056242
6 12 7 100 0.177976
7 12 7 100 0.328576
0 13 7 100 0.334693
1 13 7 100 0.0333642
2 13 7 100 0.0312916
3 13 7 100 0.0490256
4 13 7 100 0.0713884
5 13 7 100 0.0420538
6 13 7 100 0.199184
7 13 7 100 0.239
0 14 7 100 0.280176
1 14 7 100 0.0352967
2 14 7 100 0.0375132
3 14 7 100 0.0730943
4 14 7 100 0.0182592
5 14 7 100 0.0721792
6 14 7 100 0.12615
7 14 7 100 0.357331
0 15 7 100 0.394449
1 15 7 100 0.0495391
2 15 7 100 0.0296603
3 15 7 100 0.0285718
4 15 7 100 0.0857141
6 15 7 100 0.198554
7 15 7 100 0.213512
0 16 7 100 0.337454
1 16 7 100 0.0584361
2 16 7 100 0.0478053
3 16 7 100 0.0476396
4 16 7 100 0.0476141
5 16 7 100 0.0475684
6 16 7 100 0.142857
7 16 7 100 0.270626
0 17 7 100 0.293142
1 17 7 100 4.33442e-05
2 17 7 100 0.14252
3 17 7 100 0.000113786
4 17 7 100 0.0714621
5 17 7 100 1.01493e-06
6 17 7 100 0.0714252
7 17 7 100 0.421292
0 18 7 100 0.2108
1 18 7 100 0.160775
3 18 7 100 0.16591
7 18 7 100 0.462515
0 19 7 100 0.751149
1 19 7 100 0.00313758
2 19 7 100 6.19155e-05
4 19 7 100 0.244339
7 19 7 100 0.00131316
0 1 8 100 0.278777
1 1 8 100 0.57608
2 1 8 100 0.0796643
3 1 8 100 0.0216629
4 1 8 100 0.0171953
5 1 8 100 0.0123394
6 1 8 100 0.000138884
7 1 8 100 0.0138317
8 1 8 100 0.000310055
0 2 8 100 0.0900485
1 2 8 100 0.267687
2 2 8 100 0.341638
3 2 8 100 0.166806
4 2 8 100 0.0518281
5 2 8 100 0.0389438
6 2 8 100 0.0138109
7 2 8 100 0.0259255
8 2 8 100 0.00331291
0 3 8 100 0.134978
1 3 8 100 0.0981964
2 3 8 100 0.220246
3 3 8 100 0.275997
4 3 8 100 0.139116
5 3 8 100 0.0519697
6 3 8 100 0.0276343
7 3 8 100 0.0442275
8 3 8 100 0.00763539
0 4 8 100 0.142869
1 4 8 100 0.0662238
2 4 8 100 0.129977
3 4 8 100 0.194448
4 4 8 100 0.231678
5 4 8 100 0.116141
6 4 8 100 0.0384331
7 4 8 100 0.0679275
8 4 8 100 0.012303
0 5 8 100 0.174865
1 5 8 100 0.0371346
2 5 8 100 0.0710265
3 5 8 100 0.103677
4 5 8 100 0.198135
5 5 8 100 0.174557
6 5 8 100 0.113371
7 5 8 100 0.107163
8 5 8 100 0.0200705
0 6 8 100 0.171021
1 6 8 100 0.0293235
2 6 8 100 0.0364016
3 6 8 100 0.0976464
4 6 8 100 0.138016
5 6 8 100 0.182498
6 6 8 100 0.128289
7 6 8 100 0.168686
8 6 8 100 0.0481192
0 7 8 100 0.179755
1 7 8 100 0.0233741
2 7 8 100 0.0295422
3 7 8 100 0.0447002
4 7 8 100 0.0923598
5 7 8 100 0.149553
6 7 8 100 0.158631
7 7 8 100 0.206001
8 7 8 100 0.116085
0 8 8 100 0.194213
1 8 8 100 0.0256786
2 8 8 100 0.0289138
3 8 8 100 0.0260158
4 8 8 100 0.0547123
5 8 8 100 0.117921
6 8 8 100 0.135371
7 8 8 100 0.248849
8 8 8 100 0.168326
0 9 8 100 0.210572
1 9 8 100 0.0328351
2 9 8 100 0.0200975
3 9 8 100 0.0303212
4 9 8 100 0.0331415
5 9 8 100 0.0780936
6 9 8 100 0.134428
7 9 8 100 0.221283
8 9 8 100 0.239228
0 10 8 100 0.209676
1 10 8 100 0.0197169
2 10 8 100 0.0231155
3 10 8 100 0.0230871
4 10 8 100 0.0424997
5 10 8 100 0.0602622
6 10 8 100 0.110781
7 10 8 100 0.269589
8 10 8 100 0.241272
0 11 8 100 0.210727
1 11 8 100 0.0285194
2 11 8 100 0.0182954
3 11 8 100 0.0471125
4 11 8 100 0.0269845
5 11 8 100 0.045687
6 11 8 100 0.0805828
7 11 8 100 0.214849
8 11 8 100 0.327242
0 12 8 100 0.24082
1 12 8 100 0.0317888
2 12 8 100 0.024204
3 12 8 100 0.0396291
4 12 8 100 0.0490451
5 12 8 100 0.0683009
6 12 8 100 0.0598366
7 12 8 100 0.189982
8 12 8 100 0.296394
0 13 8 100 0.295116
1 13 8 100 0.0374556
2 13 8 100 0.0352276
3 13 8 100 0.0148173
4 13 8 100 0.0349524
5 13 8 100 0.0682206
6 13 8 100 0.0657638
7 13 8 100 0.182381
8 13 8 100 0.266066
0 14 8 100 0.328151
1 14 8 100 0.0129548
2 14 8 100 0.0159813
3 14 8 100 0.0193599
4 14 8 100 0.0293379
5 14 8 100 0.0660616
6 14 8 100 0.0847682
7 14 8 100 0.188385
8 14 8 100 0.255
0 15 8 100 0.26015
1 15 8 100 0.0470706
2 15 8 100 0.0147105
3 15 8 100 0.042284
4 15 8 100 0.0330801
5 15 8 100 0.0266065
6 15 8 100 0.0721463
7 15 8 100 0.218418
8 15 8 100 0.285534
0 16 8 100 0.257815
1 16 8 100 0.0758465
2 16 8 100 0.000890897
3 16 8 100 0.00012227
4 16 8 100 0.0865127
5 16 8 100 0.0462514
6 16 8 100 0.0232941
7 16 8 100 0.232439
8 16 8 100 0.276828
0 17 8 100 0.306501
1 17 8 100 0.000163592
2 17 8 100 6.01502e-06
3 17 8 100 0.00131659
4 17 8 100 0.0691424
6 17 8 100 0.0370399
7 17 8 100 0.109636
8 17 8 100 0.476194
0 18 8 100 0.540885
1 18 8 100 0.00678835
3 18 8 100 0.090909
6 18 8 100 0.0905218
7 18 8 100 0.0909091
8 18 8 100 0.179986
0 19 8 100 0.518896
1 19 8 100 5.04765e-05
5 19 8 100 0.00202752
7 19 8 100 0.25
8 19 8 100 0.229026
0 20 8 100 0.495023
5 20 8 100 0.00503576
8 20 8 100 0.499942
0 21 8 100 0.807312
1 21 8 100 0.0339874
4 21 8 100 0.158636
7 21 8 100 5.73009e-05
8 21 8 100 7.19294e-06
0 22 8 100 0.00461034
8 22 8 100 0.99539
0 23 8 100 0.999246
1 23 8 100 5.99132e-05
3 23 8 100 0.000483669
8 23 8 100 0.000210705
0 1 9 100 0.257545
1 1 9 100 0.566313
2 1 9 100 0.0875264
3 1 9 100 0.0283548
4 1 9 100 0.00940681
5 1 9 100 0.0206977
6 1 9 100 0.00435733
7 1 9 100 0.00792892
8 1 9 100 0.015481
9 1 9 100 0.00238858
0 2 9 100 0.0914494
1 2 9 100 0.276504
2 2 9 100 0.316785
3 2 9 100 0.146464
4 2 9 100 0.0558948
5 2 9 100 0.0319712
6 2 9 100 0.030057
7 2 9 100 0.0157738
8 2 9 100 0.0309226
9 2 9 100 0.00417801
0 3 9 100 0.148381
1 3 9 100 0.098965
2 3 9 100 0.210373
3 3 9 100 0.233964
4 3 9 100 0.130182
5 3 9 100 0.0710974
6 3 9 100 0.031221
7 3 9 100 0.0230186
8 3 9 100 0.0467558
9 3 9 100 0.0060422
0 4 9 100 0.156567
1 4 9 100 0.0585062
2 4 9 100 0.105757
3 4 9 100 0.193893
4 4 9 100 0.189618
5 4 9 100 0.146882
6 4 9 100 0.0520083
7 4 9 100 0.0341898
8 4 9 100 0.0594281
9 4 9 100 0.00315009
0 5 9 100 0.162222
1 5 9 100 0.0316873
2 5 9 100 0.0631938
3 5 9 100 0.101864
4 5 9 100 0.185534
5 5 9 100 0.177171
6 5 9 100 0.126181
7 5 9 100 0.0528599
8 5 9 100 0.0893496
9 5 9 100 0.00993823
0 6 9 100 0.174645
1 6 9 100 0.030939
2 6 9 100 0.0355706
3 6 9 100 0.069051
4 6 9 100 0.114485
5 6 9 100 0.188814
6 6 9 100 0.147674
7 6 9 100 0.0956589
8 6 9 100 0.115666
9 6 9 100 0.0274964
0 7 9 100 0.181416
1 7 9 100 0.0283002
2 7 9 100 0.0327282
3 7 9 100 0.0403354
4 7 9 100 0.076793
5 7 9 100 0.122401
6 7 9 100 0.169121
7 7 9 100 0.124081
8 7 9 100 0.163295
9 7 9 100 0.0615288
0 8 9 100 0.180968
1 8 9 100 0.0208728
2 8 9 100 0.0207766
3 8 9 100 0.0258411
4 8 9 100 0.0469344
5 8 9 100 0.104798
6 8 9 100 0.11363
7 8 9 100 0.144692
8 8 9 100 0.230724
9 8 9 100 0.110762
0 9 9 100 0.16331
1 9 9 100 0.0258339
2 9 9 100 0.0175968
3 9 9 100 0.0327096
4 9 9 100 0.0323952
5 9 9 100 0.0638281
6 9 9 100 0.106099
7 9 9 100 0.105869
8 9 9 100 0.282721
9 9 9 100 0.169638
0 10 9 100 0.201031
1 10 9 100 0.0232333
2 10 9 100 0.0122409
3 10 9 100 0.0294053
4 10 9 100 0.0238751
5 10 9 100 0.0475137
6 10 9 100 0.0846281
7 10 9 100 0.103243
8 10 9 100 0.242888
9 10 9 100 0.23194
0 11 9 100 0.203831
1 11 9 100 0.026279
2 11 9 100 0.0163039
3 11 9 100 0.0248597
4 11 9 100 0.0174414
5 11 9 100 0.0548601
6 11 9 100 0.0540996
7 11 9 100 0.108326
8 11 9 100 0.259659
9 11 9 100 0.234341
0 12 9 100 0.207179
1 12 9 100 0.0225507
2 12 9 100 0.0113406
3 12 9 100 0.0174452
4 12 9 100 0.0335038
5 12 9 100 0.0411738
6 12 9 100 0.0748855
7 12 9 100 0.0884167
8 12 9 100 0.236392
9 12 9 100 0.267113
0 13 9 100 0.203827
1 13 9 100 0.0315986
2 13 9 100 0.017529
3 13 9 100 0.0248264
4 13 9 100 0.0138798
5 13 9 100 0.0382819
6 13 9 100 0.0565959
7 13 9 100 0.0981742
8 13 9 100 0.202709
9 13 9 100 0.312577
0 14 9 100 0.230667
1 14 9 100 0.0328358
2 14 9 100 0.00539038
3 14 9 100 0.0386471
4 14 9 100 0.0116795
5 14 9 100 0.0297502
6 14 9 100 0.0784527
7 14 9 100 0.0522197
8 14 9 100 0.22023
9 14 9 100 0.300128
0 15 9 100 0.320075
1 15 9 100 0.0195379
2 15 9 100 0.0154254
3 15 9 100 0.0154311
4 15 9 100 0.0228694
5 15 9 100 0.0157515
6 15 9 100 0.0905226
7 15 9 100 0.0153615
8 15 9 100 0.220931
9 15 9 100 0.264095
0 16 9 100 0.341485
1 16 9 100 0.0146798
2 16 9 100 0.0127845
3 16 9 100 0.0133234
4 16 9 100 0.00247419
5 16 9 100 0.0266666
6 16 9 100 0.053512
7 16 9 100 0.08154
8 16 9 100 0.181627
9 16 9 100 0.271908
0 17 9 100 0.396928
1 17 9 100 0.0224994
2 17 9 100 2.00765e-06
3 17 9 100 1.27918e-05
4 17 9 100 0.0208352
5 17 9 100 0.0415746
6 17 9 100 0.000316585
7 17 9 100 0.0620738
8 17 9 100 0.167175
9 17 9 100 0.288583
0 18 9 100 0.308057
1 18 9 100 0.0494868
2 18 9 100 5.38618e-06
4 18 9 100 0.000277991
5 18 9 100 0.119063
6 18 9 100 0.120028
8 18 9 100 0.160181
9 18 9 100 0.242902
0 19 9 100 0.29593
1 19 9 100 0.000120083
5 19 9 100 0.0715448
6 19 9 100 0.142137
7 19 9 100 0.0714253
8 19 9 100 0.142856
9 19 9 100 0.275988
0 20 9 100 0.636155
1 20 9 100 0.000606802
2 20 9 100 0.000475351
3 20 9 100 3.6955e-05
4 20 9 100 6.87642e-06
6 20 9 100 0.000145297
7 20 9 100 5.60018e-06
8 20 9 100 0.111215
9 20 9 100 0.251354
0 21 9 100 0.333326
8 21 9 100 0.666667
9 21 9 100 7.40864e-06
0 22 9 100 0.387993
1 22 9 100 7.2974e-06
3 22 9 100 0.000170841
8 22 9 100 0.500001
9 22 9 100 0.111828
0 23 9 100 0.0517304
6 23 9 100 0.247032
8 23 9 100 0.701237
0 24 9 100 0.997732
1 24 9 100 0.000471331
4 24 9 100 6.10256e-05
6 24 9 100 1.94375e-05
9 24 9 100 0.00171624
0 1 10 100 0.278314
1 1 10 100 0.56622
2 1 10 100 0.0800419
3 1 10 100 0.0230942
4 1 10 100 0.0162805
5 1 10 100 0.00661648
6 1 10 100 0.00526798
7 1 10 100 0.00561991
8 1 10 100 0.00589139
9 1 10 100 0.0125386
10 1 10 100 0.000114774
0 2 10 100 0.0846432
1 2 10 100 0.287383
2 2 10 100 0.308146
3 2 10 100 0.138335
4 2 10 100 0.0684371
5 2 10 100 0.0317428
6 2 10 100 0.0208592
7 2 10 100 0.0162726
8 2 10 100 0.0088346
9 2 10 100 0.0353124
10 2 10 100 3.45653e-05
0 3 10 100 0.14519
1 3 10 100 0.0834055
2 3 10 100 0.191238
3 3 10 100 0.269916
4 3 10 100 0.138747
5 3 10 100 0.0547542
6 3 10 100 0.0395397
7 3 10 100 0.0221599
8 3 10 100 0.0159092
9 3 10 100 0.0349283
10 3 10 100 0.00421307
0 4 10 100 0.159067
1 4 10 100 0.0567273
2 4 10 100 0.105104
3 4 10 100 0.169301
4 4 10 100 0.215959
5 4 10 100 0.126295
6 4 10 100 0.0555118
7 4 10 100 0.0419909
8 4 10 100 0.0215951
9 4 10 100 0.045262
10 4 10 100 0.00318598
0 5 10 100 0.153834
1 5 10 100 0.0327279
2 5 10 100 0.075387
3 5 10 100 0.106446
4 5 10 100 0.163972
5 5 10 100 0.194958
6 5 10 100 0.137129
7 5 10 100 0.0544407
8 5 10 100 0.0215253
9 5 10 100 0.0514244
10 5 10 100 0.00815569
0 6 10 100 0.16109
1 6 10 100 0.0258681
2 6 10 100 0.0334235
3 6 10 100 0.0834765
4 6 10 100 0.108793
5 6 10 100 0.163651
6 6 10 100 0.186363
7 6 10 100 0.114063
8 6 10 100 0.0439124
9 6 10 100 0.0649187
10 6 10 100 0.0144412
0 7 10 100 0.172416
1 7 10 100 0.0237422
2 7 10 100 0.0341326
3 7 10 100 0.0424616
4 7 10 100 0.089619
5 7 10 100 0.112729
6 7 10 100 0.153523
7 7 10 100 0.162181
8 7 10 100 0.0816794
9 7 10 100 0.101356
10 7 10 100 0.0261596
0 8 10 100 0.179037
1 8 10 100 0.0329604
2 8 10 100 0.013281
3 8 10 100 0.0376995
4 8 10 100 0.0415981
5 8 10 100 0.072353
6 8 10 100 0.124674
7 8 10 100 0.15393
8 8 10 100 0.148964
9 8 10 100 0.146113
10 8 10 100 0.049389
0 9 10 100 0.16305
1 9 10 100 0.0180851
2 9 10 100 0.0145886
3 9 10 100 0.026553
4 9 10 100 0.0310893
5 9 10 100 0.0478315
6 9 10 100 0.0815805
7 9 10 100 0.124833
8 9 10 100 0.152306
9 9 10 100 0.226499
10 9 10 100 0.113584
0 10 10 100 0.16271
1 10 10 100 0.0210049
2 10 10 100 0.0139071
3 10 10 100 0.0245261
4 10 10 100 0.0257243
5 10 10 100 0.0371494
6 10 10 100 0.0626219
7 10 10 100 0.104968
8 10 10 100 0.119539
9 10 10 100 0.246581
10 10 10 100 0.181269
0 11 10 100 0.178881
1 11 10 100 0.0165749
2 11 10 100 0.0109735
3 11 10 100 0.0211772
4 11 10 100 0.0259481
5 11 10 100 0.033025
6 11 10 100 0.0506144
7 11 10 100 0.0820365
8 11 10 100 0.095902
9 11 10 100 0.263256
10 11 10 100 0.221612
0 12 10 100 0.191501
1 12 10 100 0.0190604
2 12 10 100 0.00616107
3 12 10 100 0.0251936
4 12 10 100 0.0228792
5 12 10 100 0.0287418
6 12 10 100 0.0605419
7 12 10 100 0.0621911
8 12 10 100 0.0905664
9 12 10 100 0.210175
10 12 10 100 0.282988
0 13 10 100 0.272981
1 13 10 100 0.0247162
2 13 10 100 0.0110173
3 13 10 100 0.0158089
4 13 10 100 0.0220173
5 13 10 100 0.0320082
6 13 10 100 0.037809
7 13 10 100 0.0916994
8 13 10 100 0.0843609
9 13 10 100 0.191434
10 13 10 100 0.216148
0 14 10 100 0.181792
1 14 10 100 0.0168317
2 14 10 100 0.0154837
3 14 10 100 0.0229913
4 14 10 100 0.0253269
5 14 10 100 0.0380665
6 14 10 100 0.0539755
7 14 10 100 0.0804
8 14 10 100 0.101213
9 14 10 100 0.223454
10 14 10 100 0.240465
0 15 10 100 0.250518
1 15 10 100 0.0115876
2 15 10 100 0.0156703
3 15 10 100 0.0185437
4 15 10 100 0.0108293
5 15 10 100 0.0362021
6 15 10 100 0.0474579
7 15 10 100 0.0470349
8 15 10 100 0.0768621
9 15 10 100 0.191466
10 15 10 100 0.293828
0 16 10 100 0.281862
1 16 10 100 0.0149092
2 16 10 100 0.0223092
3 16 10 100 0.0315564
4 16 10 100 0.000666232
5 16 10 100 0.0544966
6 16 10 100 0.0308647
7 16 10 100 0.0450434
8 16 10 100 0.0710287
9 16 10 100 0.174123
10 16 10 100 0.27314
0 17 10 100 0.357885
1 17 10 100 0.0184705
2 17 10 100 0.0227358
3 17 10 100 0.033403
4 17 10 100 0.0114241
5 17 10 100 0.0678437
6 17 10 100 0.0681843
7 17 10 100 0.0231676
8 17 10 100 0.0114971
9 17 10 100 0.174852
10 17 10 100 0.210537
0 18 10 100 0.218688
1 18 10 100 0.0174244
2 18 10 100 0.0169493
3 18 10 100 0.0169508
4 18 10 100 0.0508424
5 18 10 100 0.0673077
6 18 10 100 0.0677228
7 18 10 100 0.105264
8 18 10 100 0.0010359
9 18 10 100 0.237153
10 18 10 100 0.200661
0 19 10 100 0.269296
1 19 10 100 0.00132644
2 19 10 100 0.0148975
3 19 10 100 5.59851e-07
4 19 10 100 1.68668e-06
5 19 10 100 0.0965545
6 19 10 100 0.0908841
7 19 10 100 0.0674257
8 19 10 100 0.0289487
9 19 10 100 0.159045
10 19 10 100 0.27162
0 20 10 100 0.337161
1 20 10 100 0.00559164
3 20 10 100 3.221e-06
4 20 10 100 0.0333371
5 20 10 100 1.23486e-06
6 20 10 100 0.0333631
7 20 10 100 0.0666732
8 20 10 100 0.0666713
9 20 10 100 0.133428
10 20 10 100 0.32377
0 21 10 100 0.493579
1 21 10 100 0.00019814
2 21 10 100 0.00837137
3 21 10 100 2.16974e-06
4 21 10 100 7.89996e-05
5 21 10 100 0.00172184
6 21 10 100 9.02995e-07
7 21 10 100 0.0499997
8 21 10 100 0.000987319
9 21 10 100 0.288638
10 21 10 100 0.156422
0 22 10 100 0.260931
1 22 10 100 0.000993212
2 22 10 100 0.083194
5 22 10 100 0.000206555
8 22 10 100 2.17334e-05
9 22 10 100 0.333331
10 22 10 100 0.321323
0 23 10 100 0.544438
1 23 10 100 0.00507821
4 23 10 100 0.000178404
5 23 10 100 0.00536075
6 23 10 100 1.68618e-06
8 23 10 100 1.44752e-05
9 23 10 100 0.111111
10 23 10 100 0.333817
0 24 10 100 0.609791
1 24 10 100 6.62636e-05
2 24 10 100 3.90527e-05
3 24 10 100 7.32553e-06
4 24 10 100 3.8793e-06
9 24 10 100 0.390078
10 24 10 100 1.45686e-05
0 25 10 100 0.000328555
10 25 10 100 0.999671
0 1 11 100 0.258637
1 1 11 100 0.596023
2 1 11 100 0.0638653
3 1 11 100 0.028664
4 1 11 100 0.0116915
5 1 11 100 0.0112321
6 1 11 100 0.00731412
7 1 11 100 0.00272771
8 1 11 100 0.00998314
9 1 11 100 0.00116038
10 1 11 100 0.00866463
11 1 11 100 3.78329e-05
0 2 11 100 0.0948304
1 2 11 100 0.251906
2 2 11 100 0.325509
3 2 11 100 0.154538
4 2 11 100 0.0591932
5 2 11 100 0.0308571
6 2 11 100 0.0240629
7 2 11 100 0.0144233
8 2 11 100 0.00883559
9 2 11 100 0.010813
10 2 11 100 0.0227685
11 2 11 100 0.00226376
0 3 11 100 0.159647
1 3 11 100 0.0840958
2 3 11 100 0.197145
3 3 11 100 0.240619
4 3 11 100 0.147377
5 3 11 100 0.06194
6 3 11 100 0.0316033
7 3 11 100 0.0243943
8 3 11 100 0.0174956
9 3 11 100 0.00697785
10 3 11 100 0.0241372
11 3 11 100 0.00456844
0 4 11 100 0.153637
1 4 11 100 0.0634269
2 4 11 100 0.120503
3 4 11 100 0.157465
4 4 11 100 0.216291
5 4 11 100 0.113556
6 4 11 100 0.0556339
7 4 11 100 0.0470895
8 4 11 100 0.0270328
9 4 11 100 0.00551511
10 4 11 100 0.0376763
11 4 11 100 0.00217317
0 5 11 100 0.190031
1 5 11 100 0.0275483
2 5 11 100 0.0730279
3 5 11 100 0.108459
4 5 11 100 0.150142
5 5 11 100 0.182655
6 5 11 100 0.0923412
7 5 11 100 0.0694395
8 5 11 100 0.0416387
9 5 11 100 0.0243326
10 5 11 100 0.0341163
11 5 11 100 0.00626906
0 6 11 100 0.18011
1 6 11 100 0.0237328
2 6 11 100 0.0354116
3 6 11 100 0.0735317
4 6 11 100 0.120587
5 6 11 100 0.155091
6 6 11 100 0.164018
7 6 11 100 0.103068
8 6 11 100 0.0628946
9 6 11 100 0.0311713
10 6 11 100 0.0393476
11 6 11 100 0.0110368
0 7 11 100 0.165387
1 7 11 100 0.0137532
2 7 11 100 0.0228203
3 7 11 100 0.0563114
4 7 11 100 0.0857238
5 7 11 100 0.117529
6 7 11 100 0.1564
7 7 11 100 0.156901
8 7 11 100 0.0959258
9 7 11 100 0.0473778
10 7 11 100 0.0697938
11 7 11 100 0.0120766
0 8 11 100 0.194451
1 8 11 100 0.014423
2 8 11 100 0.0199438
3 8 11 100 0.0285712
4 8 11 100 0.0598268
5 8 11 100 0.0742348
6 8 11 100 0.124786
7 8 11 100 0.169196
8 8 11 100 0.119607
9 8 11 100 0.0802836
10 8 11 100 0.0882926
11 8 11 100 0.0263839
0 9 11 100 0.171035
1 9 11 100 0.0170698
2 9 11 100 0.0165493
3 9 11 100 0.0207595
4 9 11 100 0.0292752
5 9 11 100 0.0771658
6 9 11 100 0.0812376
7 9 11 100 0.132922
8 9 11 100 0.152988
9 9 11 100 0.0999485
10 9 11 100 0.154981
11 9 11 100 0.0460679
0 10 11 100 0.156697
1 10 11 100 0.0134174
2 10 11 100 0.0117258
3 10 11 100 0.0158493
4 10 11 100 0.0240643
5 10 11 100 0.0374622
6 10 11 100 0.0791582
7 10 11 100 0.0976296
8 10 11 100 0.139538
9 10 11 100 0.120506
10 10 11 100 0.180201
11 10 11 100 0.123751
0 11 11 100 0.183416
1 11 11 100 0.0152029
2 11 11 100 0.00525435
3 11 11 100 0.011505
4 11 11 100 0.0203937
5 11 11 100 0.024485
6 11 11 100 0.0484099
7 11 11 100 0.0894083
8 11 11 100 0.123056
9 11 11 100 0.108341
10 11 11 100 0.198175
11 11 11 100 0.172353
0 12 11 100 0.182604
1 12 11 100 0.0111584
2 12 11 100 0.0111476
3 12 11 100 0.00481417
4 12 11 100 0.0246819
5 12 11 100 0.0189209
6 12 11 100 0.0312399
7 12 11 100 0.0811633
8 12 11 100 0.1091
9 12 11 100 0.0950524
10 12 11 100 0.229481
11 12 11 100 0.200636
0 13 11 100 0.167482
1 13 11 100 0.0140724
2 13 11 100 0.0119532
3 13 11 100 0.00682018
4 13 11 100 0.00793113
5 13 11 100 0.0261676
6 13 11 100 0.0318415
7 13 11 100 0.0622194
8 13 11 100 0.104028
9 13 11 100 0.146812
10 13 11 100 0.216155
11 13 11 100 0.204518
0 14 11 100 0.189181
1 14 11 100 0.0160289
2 14 11 100 0.0102352
3 14 11 100 0.00781934
4 14 11 100 0.0173487
5 14 11 100 0.00805521
6 14 11 100 0.030609
7 14 11 100 0.0589531
8 14 11 100 0.0847172
9 14 11 100 0.0915449
10 14 11 100 0.256675
11 14 11 100 0.228833
0 15 11 100 0.231129
1 15 11 100 0.0204702
2 15 11 100 0.0201271
3 15 11 100 1.89499e-05
4 15 11 100 0.0206295
5 15 11 100 0.0166863
6 15 11 100 0.0268634
7 15 11 100 0.02153
8 15 11 100 0.0594572
9 15 11 100 0.0976587
10 15 11 100 0.210977
11 15 11 100 0.274453
0 16 11 100 0.236054
1 16 11 100 0.0152601
2 16 11 100 0.00944755
3 16 11 100 0.00919027
4 16 11 100 0.0246634
5 16 11 100 0.00989065
6 16 11 100 0.0246475
7 16 11 100 0.0345159
8 16 11 100 0.0447047
9 16 11 100 0.0517933
10 16 11 100 0.245569
11 16 11 100 0.294264
0 17 11 100 0.249431
1 17 11 100 0.00862242
2 17 11 100 0.0149007
3 17 11 100 6.33324e-05
4 17 11 100 0.0287642
5 17 11 100 0.00720912
6 17 11 100 0.0218606
7 17 11 100 0.0293928
8 17 11 100 0.0574825
9 17 11 100 0.0576248
10 17 11 100 0.215902
11 17 11 100 0.308746
0 18 11 100 0.346686
1 18 11 100 0.0214074
2 18 11 100 0.0106383
3 18 11 100 0.000850289
4 18 11 100 0.0212861
5 18 11 100 0.0106
6 18 11 100 4.23063e-07
7 18 11 100 0.0426285
8 18 11 100 0.0426048
9 18 11 100 0.0425188
10 18 11 100 0.220736
11 18 11 100 0.240044
0 19 11 100 0.33094
1 19 11 100 0.0166832
2 19 11 100 5.65e-06
4 19 11 100 0.0166667
5 19 11 100 3.4181e-05
6 19 11 100 0.0132453
7 19 11 100 0.0334087
8 19 11 100 0.0833342
9 19 11 100 0.0497102
10 19 11 100 0.135481
11 19 11 100 0.320491
0 20 11 100 0.470583
1 20 11 100 0.000190879
2 20 11 100 4.8153e-06
4 20 11 100 0.0256992
5 20 11 100 2.5945e-06
6 20 11 100 4.02111e-06
7 20 11 100 0.0769467
8 20 11 100 2.12652e-05
9 20 11 100 0.02563
10 20 11 100 0.185943
11 20 11 100 0.214975
0 21 11 100 0.282053
1 21 11 100 7.14965e-06
2 21 11 100 8.50721e-06
3 21 11 100 5.19005e-06
6 21 11 100 5.52804e-05
7 21 11 100 0.110955
8 21 11 100 0.111111
9 21 11 100 0.0554122
10 21 11 100 0.154535
11 21 11 100 0.285857
0 22 11 100 0.273554
1 22 11 100 0.00159293
5 22 11 100 9.00392e-05
7 22 11 100 0.17473
8 22 11 100 0.150176
9 22 11 100 0.0726038
10 22 11 100 0.0833333
11 22 11 100 0.24392
0 23 11 100 0.381234
1 23 11 100 0.000125729
4 23 11 100 0.000211347
5 23 11 100 0.000284626
8 23 11 100 0.125391
10 23 11 100 0.125
11 23 11 100 0.367753
0 24 11 100 0.212768
1 24 11 100 0.000484036
3 24 11 100 4.95874e-05
4 24 11 100 0.000300054
5 24 11 100 2.62544e-06
6 24 11 100 4.55963e-06
9 24 11 100 0.2
11 24 11 100 0.586391
0 25 11 100 0.665301
1 25 11 100 0.00072247
6 25 11 100 8.21397e-06
9 25 11 100 0.333288
10 25 11 100 3.95059e-05
11 25 11 100 0.000640936
0 26 11 100 0.975714
1 26 11 100 0.0195879
10 26 11 100 0.00368394
11 26 11 100 0.00101454
0 1 12 100 0.273861
1 1 12 100 0.550808
2 1 12 100 0.073167
3 1 12 100 0.0189544
4 1 12 100 0.0230266
5 1 12 100 0.0155201
6 1 12 100 0.0132987
7 1 12 100 0.0108732
8 1 12 100 0.00372772
9 1 12 100 0.00452941
10 1 12 100 0.00300257
11 1 12 100 0.0091827
12 1 12 100 4.81613e-05
0 2 12 100 0.0829475
1 2 12 100 0.259799
2 2 12 100 0.309773
3 2 12 100 0.138531
4 2 12 100 0.0548473
5 2 12 100 0.0335029
6 2 12 100 0.0282251
7 2 12 100 0.0213626
8 2 12 100 0.0166816
9 2 12 100 0.0183452
10 2 12 100 0.00566814
11 2 12 100 0.0269917
12 2 12 100 0.00332445
0 3 12 100 0.164848
1 3 12 100 0.0818583
2 3 12 100 0.19102
3 3 12 100 0.242384
4 3 12 100 0.1151
5 3 12 100 0.0516972
6 3 12 100 0.0346319
7 3 12 100 0.0237987
8 3 12 100 0.0205611
9 3 12 100 0.0239702
10 3 12 100 0.0102859
11 3 12 100 0.0353308
12 3 12 100 0.00451377
0 4 12 100 0.169517
1 4 12 100 0.0370092
2 4 12 100 0.0829498
3 4 12 100 0.178795
4 4 12 100 0.189304
5 4 12 100 0.130988
6 4 12 100 0.0592952
7 4 12 100 0.0372405
8 4 12 100 0.033197
9 4 12 100 0.0223841
10 4 12 100 0.014899
11 4 12 100 0.0405804
12 4 12 100 0.00383979
0 5 12 100 0.189109
1 5 12 100 0.0238535
2 5 12 100 0.0530189
3 5 12 100 0.0972627
4 5 12 100 0.172626
5 5 12 100 0.148218
6 5 12 100 0.114546
7 5 12 100 0.0646161
8 5 12 100 0.038328
9 5 12 100 0.0284965
10 5 12 100 0.0159382
11 5 12 100 0.0428162
12 5 12 100 0.0111713
0 6 12 100 0.170471
1 6 12 100 0.0238563
2 6 12 100 0.0282488
3 6 12 100 0.063413
4 6 12 100 0.0993282
5 6 12 100 0.172729
6 6 12 100 0.149451
7 6 12 100 0.108211
8 6 12 100 0.0624993
9 6 12 100 0.0451336
10 6 12 100 0.0197546
11 6 12 100 0.0487988
12 6 12 100 0.008105
0 7 12 100 0.176152
1 7 12 100 0.0287848
2 7 12 100 0.0171277
3 7 12 100 0.0403302
4 7 12 100 0.066993
5 7 12 100 0.0931575
6 7 12 100 0.152849
7 7 12 100 0.15449
8 7 12 100 0.113553
9 7 12 100 0.0691495
10 7 12 100 0.0325503
11 7 12 100 0.0410004
12 7 12 100 0.0138627
0 8 12 100 0.179815
1 8 12 100 0.0223556
2 8 12 100 0.00995384
3 8 12 100 0.0298002
4 8 12 100 0.0430888
5 8 12 100 0.0744275
6 8 12 100 0.108096
7 8 12 100 0.128355
8 8 12 100 0.147502
9 8 12 100 0.107525
10 8 12 100 0.0484229
11 8 12 100 0.0732062
12 8 12 100 0.0274509
0 9 12 100 0.181969
1 9 12 100 0.0242777
2 9 12 100 0.0137083
3 9 12 100 0.021497
4 9 12 100 0.0389369
5 9 12 100 0.045884
6 9 12 100 0.0860439
7 9 12 100 0.0874939
8 9 12 100 0.140108
9 9 12 100 0.145993
10 9 12 100 0.0929981
11 9 12 100 0.0842105
12 9 12 100 0.0368801
0 10 12 100 0.159357
1 10 12 100 0.0113555
2 10 12 100 0.011194
3 10 12 100 0.0249221
4 10 12 100 0.0230901
5 10 12 100 0.0504982
6 10 12 100 0.0621765
7 10 12 100 0.0828029
8 10 12 100 0.0982681
9 10 12 100 0.128623
10 10 12 100 0.137327
11 10 12 100 0.154967
12 10 12 100 0.0554191
0 11 12 100 0.148723
1 11 12 100 0.0116098
2 11 12 100 0.010401
3 11 12 100 0.0108961
4 11 12 100 0.0272447
5 11 12 100 0.030834
6 11 12 100 0.0487638
7 11 12 100 0.075601
8 11 12 100 0.103013
9 11 12 100 0.0986525
10 11 12 100 0.119177
11 11 12 100 0.213253
12 11 12 100 0.10183
0 12 12 100 0.165459
1 12 12 100 0.0137175
2 12 12 100 0.0115092
3 12 12 100 0.0115983
4 12 12 100 0.010231
5 12 12 100 0.0301581
6 12 12 100 0.0405723
7 12 12 100 0.0494767
8 12 12 100 0.110565
9 12 12 100 0.0832147
10 12 12 100 0.0953713
11 12 12 100 0.199271
12 12 12 100 0.178856
0 13 12 100 0.180392
1 13 12 100 0.0156618
2 13 12 100 0.00539235
3 13 12 100 0.0151833
4 13 12 100 0.0101481
5 13 12 100 0.0231495
6 13 12 100 0.0363613
7 13 12 100 0.0414247
8 13 12 100 0.0635251
9 13 12 100 0.118414
10 13 12 100 0.104402
11 13 12 100 0.18135
12 13 12 100 0.204595
0 14 12 100 0.179828
1 14 12 100 0.0103039
2 14 12 100 0.00432501
3 14 12 100 0.0193338
4 14 12 100 0.00444003
5 14 12 100 0.0238017
6 14 12 100 0.02561
7 14 12 100 0.0449899
8 14 12 100 0.0549044
9 14 12 100 0.0951273
10 14 12 100 0.116061
11 14 12 100 0.223573
12 14 12 100 0.197702
0 15 12 100 0.193842
1 15 12 100 0.0164104
2 15 12 100 0.000271246
3 15 12 100 0.0218454
4 15 12 100 0.00590206
5 15 12 100 0.0288106
6 15 12 100 0.0296197
7 15 12 100 0.0366724
8 15 12 100 0.054369
9 15 12 100 0.092536
10 15 12 100 0.0736336
11 15 12 100 0.225401
12 15 12 100 0.220686
0 16 12 100 0.251748
1 16 12 100 0.0182841
2 16 12 100 7.70801e-05
3 16 12 100 0.00697625
4 16 12 100 0.00349654
5 16 12 100 0.0278738
6 16 12 100 0.0277938
7 16 12 100 0.0277305
8 16 12 100 0.0405776
9 16 12 100 0.0967413
10 16 12 100 0.0779758
11 16 12 100 0.212234
12 16 12 100 0.208491
0 17 12 100 0.193638
1 17 12 100 0.0190173
2 17 12 100 0.00487975
3 17 12 100 0.0235995
4 17 12 100 0.00422254
5 17 12 100 0.005137
6 17 12 100 0.0235484
7 17 12 100 0.0141494
8 17 12 100 0.0623708
9 17 12 100 0.0667279
10 17 12 100 0.100703
11 17 12 100 0.199435
12 17 12 100 0.282571
0 18 12 100 0.273264
1 18 12 100 0.0144317
2 18 12 100 0.00707183
3 18 12 100 0.0136267
4 18 12 100 0.0019311
5 18 12 100 0.0134293
6 18 12 100 0.00696128
7 18 12 100 0.0137087
8 18 12 100 0.0217548
9 18 12 100 0.0606522
10 18 12 100 0.0741196
11 18 12 100 0.190109
12 18 12 100 0.30894
0 19 12 100 0.254874
1 19 12 100 0.0317386
2 19 12 100 0.000149935
3 19 12 100 0.0105779
4 19 12 100 2.79085e-07
5 19 12 100 0.0332106
6 19 12 100 0.00995638
7 19 12 100 0.0105353
8 19 12 100 0.0105291
9 19 12 100 0.0727883
10 19 12 100 0.0649781
11 19 12 100 0.212324
12 19 12 100 0.288338
0 20 12 100 0.252033
1 20 12 100 0.0193474
2 20 12 100 0.000635991
3 20 12 100 2.21646e-05
4 20 12 100 0.000888595
5 20 12 100 0.0168319
6 20 12 100 0.017411
7 20 12 100 0.0166657
8 20 12 100 0.0666803
9 20 12 100 0.0326991
10 20 12 100 0.0832689
11 20 12 100 0.134678
12 20 12 100 0.358838
0 21 12 100 0.389469
1 21 12 100 0.00611425
2 21 12 100 3.59249e-07
3 21 12 100 0.0277778
4 21 12 100 4.04598e-06
5 21 12 100 0.0280495
6 21 12 100 6.79678e-06
7 21 12 100 0.0277778
8 21 12 100 0.0277827
9 21 12 100 0.0277782
10 21 12 100 0.0277775
11 21 12 100 0.187326
12 21 12 100 0.250136
0 22 12 100 0.400086
1 22 12 100 0.0202548
4 22 12 100 3.43759e-05
5 22 12 100 6.07147e-06
6 22 12 100 0.000589972
8 22 12 100 0.104955
9 22 12 100 0.00012059
10 22 12 100 4.71473e-06
11 22 12 100 0.158012
12 22 12 100 0.315937
0 23 12 100 0.506183
1 23 12 100 0.000806694
6 23 12 100 0.000251102
7 23 12 100 7.04226e-06
8 23 12 100 0.1
11 23 12 100 1.62302e-05
12 23 12 100 0.392736
0 24 12 100 0.0554762
8 24 12 100 0.5
12 24 12 100 0.444524
0 25 12 100 0.236125
3 25 12 100 0.0203128
12 25 12 100 0.743563
0 26 12 100 0.99724
1 26 12 100 3.6538e-05
4 26 12 100 0.0019993
7 26 12 100 0.000238854
12 26 12 100 0.000484846
0 1 13 100 0.258887
1 1 13 100 0.557046
2 1 13 100 0.0830952
3 1 13 100 0.0335392
4 1 13 100 0.0165503
5 1 13 100 0.00890566
6 1 13 100 0.00756391
7 1 13 100 0.0080416
8 1 13 100 0.0040427
9 1 13 100 0.00275591
10 1 13 100 0.00631224
11 1 13 100 0.00491726
12 1 13 100 0.00828371
13 1 13 100 5.87296e-05
0 2 13 100 0.090789
1 2 13 100 0.222747
2 2 13 100 0.346338
3 2 13 100 0.136959
4 2 13 100 0.0588553
5 2 13 100 0.0334337
6 2 13 100 0.021231
7 2 13 100 0.0162494
8 2 13 100 0.00816399
9 2 13 100 0.00857258
10 2 13 100 0.012012
11 2 13 100 0.015091
12 2 13 100 0.0272927
13 2 13 100 0.00226531
0 3 13 100 0.162432
1 3 13 100 0.0804225
2 3 13 100 0.173663
3 3 13 100 0.241933
4 3 13 100 0.119951
5 3 13 100 0.0643864
6 3 13 100 0.0325576
7 3 13 100 0.0235555
8 3 13 100 0.0240559
9 3 13 100 0.0096599
10 3 13 100 0.018211
11 3 13 100 0.0111861
12 3 13 100 0.0332261
13 3 13 100 0.00476006
0 4 13 100 0.162471
1 4 13 100 0.0580352
2 4 13 100 0.0776313
3 4 13 100 0.17074
4 4 13 100 0.204629
5 4 13 100 0.122181
6 4 13 100 0.0615481
7 4 13 100 0.0305493
8 4 13 100 0.0279974
9 4 13 100 0.0200247
10 4 13 100 0.0168691
11 4 13 100 0.00951527
12 4 13 100 0.0341631
13 4 13 100 0.00364487
0 5 13 100 0.180361
1 5 13 100 0.0294919
2 5 13 100 0.0626617
3 5 13 100 0.0981398
4 5 13 100 0.160039
5 5 13 100 0.16642
6 5 13 100 0.112231
7 5 13 100 0.0581649
8 5 13 100 0.0441217
9 5 13 100 0.0171447
10 5 13 100 0.0212389
11 5 13 100 0.0155478
12 5 13 100 0.0310296
13 5 13 100 0.00340806
0 6 13 100 0.166823
1 6 13 100 0.015505
2 6 13 100 0.0327869
3 6 13 100 0.0611809
4 6 13 100 0.0891131
5 6 13 100 0.1873
6 6 13 100 0.160239
7 6 13 100 0.0937996
8 6 13 100 0.0620034
9 6 13 100 0.0490636
10 6 13 100 0.0246002
11 6 13 100 0.0204374
12 6 13 100 0.0331421
13 6 13 100 0.00400532
0 7 13 100 0.187184
1 7 13 100 0.0175865
2 7 13 100 0.0209062
3 7 13 100 0.0527405
4 7 13 100 0.0647898
5 7 13 100 0.0894056
6 7 13 100 0.152178
7 7 13 100 0.135341
8 7 13 100 0.0993756
9 7 13 100 0.0675067
10 7 13 100 0.0438226
11 7 13 100 0.0222117
12 7 13 100 0.0388795
13 7 13 100 0.00807205
0 8 13 100 0.172922
1 8 13 100 0.0249855
2 8 13 100 0.0122746
3 8 13 100 0.0243629
4 8 13 100 0.0356432
5 8 13 100 0.0631654
6 8 13 100 0.10671
7 8 13 100 0.153317
8 8 13 100 0.127483
9 8 13 100 0.112321
10 8 13 100 0.0631123
11 8 13 100 0.0318567
12 8 13 100 0.0585928
13 8 13 100 0.0132543
0 9 13 100 0.172384
1 9 13 100 0.0097827
2 9 13 100 0.0135258
3 9 13 100 0.0187632
4 9 13 100 0.0309056
5 9 13 100 0.0554827
6 9 13 100 0.0857941
7 9 13 100 0.0937526
8 9 13 100 0.131394
9 9 13 100 0.142903
10 9 13 100 0.0921828
11 9 13 100 0.0480875
12 9 13 100 0.0774645
13 9 13 100 0.0275779
0 10 13 100 0.173707
1 10 13 100 0.0113114
2 10 13 100 0.00761257
3 10 13 100 0.0258362
4 10 13 100 0.0219809
5 10 13 100 0.0283319
6 10 13 100 0.0511058
7 10 13 100 0.0809755
8 10 13 100 0.106533
9 10 13 100 0.141532
10 10 13 100 0.122277
11 10 13 100 0.0938751
12 10 13 100 0.0985501
13 10 13 100 0.0363713
0 11 13 100 0.162905
1 11 13 100 0.00937671
2 11 13 100 0.0102183
3 11 13 100 0.00797393
4 11 13 100 0.0239141
5 11 13 100 0.0344208
6 11 13 100 0.0551796
7 11 13 100 0.0548393
8 11 13 100 0.0684143
9 11 13 100 0.124549
10 11 13 100 0.125791
11 11 13 100 0.106996
12 11 13 100 0.142549
13 11 13 100 0.072873
0 12 13 100 0.147337
1 12 13 100 0.00877456
2 12 13 100 0.00568155
3 12 13 100 0.0100495
4 12 13 100 0.0150066
5 12 13 100 0.0303534
6 12 13 100 0.050133
7 12 13 100 0.0444897
8 12 13 100 0.0681902
9 12 13 100 0.0886434
10 12 13 100 0.139196
11 12 13 100 0.120121
12 12 13 100 0.172404
13 12 13 100 0.0996196
0 13 13 100 0.187281
1 13 13 100 0.0045674
2 13 13 100 0.00755049
3 13 13 100 0.0092764
4 13 13 100 0.0108419
5 13 13 100 0.0192795
6 13 13 100 0.0231503
7 13 13 100 0.0535306
8 13 13 100 0.0480704
9 13 13 100 0.0804486
10 13 13 100 0.0806606
11 13 13 100 0.115889
12 13 13 100 0.213004
13 13 13 100 0.14645
0 14 13 100 0.157941
1 14 13 100 0.00746498
2 14 13 100 0.00545484
3 14 13 100 0.00879801
4 14 13 100 0.00779732
5 14 13 100 0.0126026
6 14 13 100 0.0274365
7 14 13 100 0.0390536
8 14 13 100 0.0499048
9 14 13 100 0.0849242
10 14 13 100 0.0904411
11 14 13 100 0.106702
12 14 13 100 0.213222
13 14 13 100 0.188256
0 15 13 100 0.163886
1 15 13 100 0.00460336
2 15 13 100 0.00662122
3 15 13 100 0.015385
4 15 13 100 0.0110046
5 15 13 100 0.0146616
6 15 13 100 0.0191306
7 15 13 100 0.0318009
8 15 13 100 0.0652939
9 15 13 100 0.0712
10 15 13 100 0.101079
11 15 13 100 0.0921063
12 15 13 100 0.180676
13 15 13 100 0.222552
0 16 13 100 0.171402
1 16 13 100 0.00813912
2 16 13 100 0.00290305
3 16 13 100 0.0174495
4 16 13 100 0.0058523
5 16 13 100 0.00597992
6 16 13 100 0.0116012
7 16 13 100 0.0261649
8 16 13 100 0.0403747
9 16 13 100 0.0581948
10 16 13 100 0.0875225
11 16 13 100 0.0884165
12 16 13 100 0.224091
13 16 13 100 0.251909
0 17 13 100 0.228016
1 17 13 100 0.0078689
2 17 13 100 0.00774677
3 17 13 100 0.0154732
4 17 13 100 0.0193535
5 17 13 100 0.000487077
6 17 13 100 0.00775024
7 17 13 100 0.0427401
8 17 13 100 0.0272213
9 17 13 100 0.0487674
10 17 13 100 0.0741399
11 17 13 100 0.0764282
12 17 13 100 0.237051
13 17 13 100 0.206957
0 18 13 100 0.203417
1 18 13 100 0.00553935
2 18 13 100 0.0106738
3 18 13 100 0.02082
4 18 13 100 0.00660994
5 18 13 100 0.0153738
6 18 13 100 0.0159673
7 18 13 100 0.0323433
8 18 13 100 0.0402805
9 18 13 100 0.0480905
10 18 13 100 0.0747384
11 18 13 100 0.0487822
12 18 13 100 0.217186
13 18 13 100 0.260178
0 19 13 100 0.241925
1 19 13 100 0.00732996
2 19 13 100 0.0211274
3 19 13 100 0.014084
4 19 13 100 0.0212003
5 19 13 100 0.0139871
6 19 13 100 0.0280514
7 19 13 100 0.012073
8 19 13 100 0.0491926
9 19 13 100 0.0197472
10 19 13 100 0.0605705
11 19 13 100 0.0564273
12 19 13 100 0.180831
13 19 13 100 0.273454
0 20 13 100 0.274497
1 20 13 100 0.0109118
2 20 13 100 0.0107686
3 20 13 100 0.0316415
4 20 13 100 0.0430149
5 20 13 100 5.54378e-05
6 20 13 100 0.0108184
7 20 13 100 0.0215141
8 20 13 100 0.0214818
9 20 13 100 0.0645326
10 20 13 100 0.0431288
11 20 13 100 0.0234285
12 20 13 100 0.195388
13 20 13 100 0.248818
0 21 13 100 0.29033
1 21 13 100 0.0173435
2 21 13 100 0.0169573
3 21 13 100 5.66485e-07
4 21 13 100 0.0508587
5 21 13 100 0.0338978
6 21 13 100 9.8038e-06
8 21 13 100 1.04971e-06
9 21 13 100 0.0338702
10 21 13 100 0.0846124
11 21 13 100 0.0992773
12 21 13 100 0.118633
13 21 13 100 0.254209
0 22 13 100 0.274176
1 22 13 100 0.000277701
2 22 13 100 3.24866e-05
3 22 13 100 2.82705e-07
5 22 13 100 1.04964e-06
6 22 13 100 0.081089
7 22 13 100 0.0270253
8 22 13 100 9.51634e-05
9 22 13 100 0.0270362
10 22 13 100 0.0329322
11 22 13 100 0.158201
12 22 13 100 0.190854
13 22 13 100 0.208279
0 23 13 100 0.312334
1 23 13 100 0.00194681
2 23 13 100 6.86983e-07
4 23 13 100 1.68322e-05
6 23 13 100 0.0454546
7 23 13 100 0.0453846
8 23 13 100 1.16872e-05
9 23 13 100 0.0454532
10 23 13 100 0.0454546
11 23 13 100 0.045455
12 23 13 100 0.0909602
13 23 13 100 0.367528
0 24 13 100 0.485911
1 24 13 100 3.70153e-05
3 24 13 100 1.90841e-06
7 24 13 100 9.81137e-06
8 24 13 100 0.0610215
9 24 13 100 6.48458e-05
10 24 13 100 4.61574e-05
11 24 13 100 0.05851
12 24 13 100 4.73273e-05
13 24 13 100 0.39435
0 25 13 100 0.661625
1 25 13 100 0.00575675
5 25 13 100 5.02309e-06
6 25 13 100 0.166667
9 25 13 100 0.000313143
13 25 13 100 0.165633
0 1 14 100 0.28609
1 1 14 100 0.560025
2 1 14 100 0.0659081
3 1 14 100 0.0264262
4 1 14 100 0.0134543
5 1 14 100 0.00774948
6 1 14 100 0.0058531
7 1 14 100 0.0127815
8 1 14 100 0.00123893
9 1 14 100 0.00333518
10 1 14 100 0.0110793
11 1 14 100 5.38817e-05
12 1 14 100 0.00226372
13 1 14 100 0.00370544
14 1 14 100 3.51959e-05
0 2 14 100 0.0844409
1 2 14 100 0.280383
2 2 14 100 0.338766
3 2 14 100 0.12251
4 2 14 100 0.0529679
5 2 14 100 0.0230491
6 2 14 100 0.02187
7 2 14 100 0.0113735
8 2 14 100 0.0132488
9 2 14 100 0.010847
10 2 14 100 0.0160919
11 2 14 100 0.00825755
12 2 14 100 0.00507269
13 2 14 100 0.0110387
14 2 14 100 8.24074e-05
0 3 14 100 0.139399
1 3 14 100 0.0763049
2 3 14 100 0.226432
3 3 14 100 0.23435
4 3 14 100 0.113421
5 3 14 100 0.0563138
6 3 14 100 0.0290931
7 3 14 100 0.0226029
8 3 14 100 0.0160555
9 3 14 100 0.0130167
10 3 14 100 0.0249254
11 3 14 100 0.011778
12 3 14 100 0.00849198
13 3 14 100 0.0277581
14 3 14 100 5.87601e-05
0 4 14 100 0.149668
1 4 14 100 0.0411981
2 4 14 100 0.103753
3 4 14 100 0.180892
4 4 14 100 0.207233
5 4 14 100 0.122728
6 4 14 100 0.0587494
7 4 14 100 0.0374942
8 4 14 100 0.0190606
9 4 14 100 0.0123146
10 4 14 100 0.0206267
11 4 14 100 0.0120719
12 4 14 100 0.00805471
13 4 14 100 0.02597
14 4 14 100 0.000186108
0 5 14 100 0.176506
1 5 14 100 0.0245522
2 5 14 100 0.0565147
3 5 14 100 0.0922472
4 5 14 100 0.174204
5 5 14 100 0.179619
6 5 14 100 0.0914588
7 5 14 100 0.0600647
8 5 14 100 0.0341768
9 5 14 100 0.0317636
10 5 14 100 0.0169819
11 5 14 100 0.0173435
12 5 14 100 0.0127842
13 5 14 100 0.0271872
14 5 14 100 0.00459655
0 6 14 100 0.16921
1 6 14 100 0.0257959
2 6 14 100 0.019241
3 6 14 100 0.0636436
4 6 14 100 0.111529
5 6 14 100 0.165282
6 6 14 100 0.158798
7 6 14 100 0.0980041
8 6 14 100 0.0546874
9 6 14 100 0.0371629
10 6 14 100 0.0358448
11 6 14 100 0.0213937
12 6 14 100 0.00926719
13 6 14 100 0.0271633
14 6 14 100 0.00297786
0 7 14 100 0.194161
1 7 14 100 0.0116997
2 7 14 100 0.0141914
3 7 14 100 0.0407862
4 7 14 100 0.0782877
5 7 14 100 0.101454
6 7 14 100 0.16166
7 7 14 100 0.137161
8 7 14 100 0.0856528
9 7 14 100 0.0531298
10 7 14 100 0.0476513
11 7 14 100 0.0360977
12 7 14 100 0.0119226
13 7 14 100 0.0212212
14 7 14 100 0.00492352
0 8 14 100 0.155989
1 8 14 100 0.0122118
2 8 14 100 0.0164468
3 8 14 100 0.0224886
4 8 14 100 0.051036
5 8 14 100 0.0889386
6 8 14 100 0.110525
7 8 14 100 0.138694
8 8 14 100 0.130389
9 8 14 100 0.101873
10 8 14 100 0.055788
11 8 14 100 0.0480018
12 8 14 100 0.0228721
13 8 14 100 0.0367678
14 8 14 100 0.00797902
0 9 14 100 0.169948
1 9 14 100 0.0136592
2 9 14 100 0.0087541
3 9 14 100 0.0226948
4 9 14 100 0.0297232
5 9 14 100 0.0698022
6 9 14 100 0.078978
7 9 14 100 0.119765
8 9 14 100 0.126904
9 9 14 100 0.118381
10 9 14 100 0.0803496
11 9 14 100 0.0569417
12 9 14 100 0.0390358
13 9 14 100 0.0472324
14 9 14 100 0.0178302
0 10 14 100 0.196651
1 10 14 100 0.00721277
2 10 14 100 0.00768566
3 10 14 100 0.0151883
4 10 14 100 0.0191774
5 10 14 100 0.0382053
6 10 14 100 0.0696436
7 10 14 100 0.0794639
8 10 14 100 0.0883417
9 10 14 100 0.138419
10 10 14 100 0.117345
11 10 14 100 0.0897635
12 10 14 100 0.0480788
13 10 14 100 0.0671966
14 10 14 100 0.0176266
0 11 14 100 0.14016
1 11 14 100 0.0107273
2 11 14 100 0.0104534
3 11 14 100 0.0125179
4 11 14 100 0.0157556
5 11 14 100 0.0183803
6 11 14 100 0.0500855
7 11 14 100 0.0829112
8 11 14 100 0.0716602
9 11 14 100 0.106975
10 11 14 100 0.142389
11 11 14 100 0.133024
12 11 14 100 0.0711102
13 11 14 100 0.0905372
14 11 14 100 0.043314
0 12 14 100 0.150418
1 12 14 100 0.00848838
2 12 14 100 0.00548489
3 12 14 100 0.00801656
4 12 14 100 0.0134231
5 12 14 100 0.0174654
6 12 14 100 0.0232477
7 12 14 100 0.0585564
8 12 14 100 0.0645073
9 12 14 100 0.095963
10 12 14 100 0.117474
11 12 14 100 0.153291
12 12 14 100 0.098309
13 12 14 100 0.129076
14 12 14 100 0.056279
0 13 14 100 0.136167
1 13 14 100 0.0100616
2 13 14 100 0.00714503
3 13 14 100 0.0102208
4 13 14 100 0.0113456
5 13 14 100 0.00972211
6 13 14 100 0.0212723
7 13 14 100 0.0408836
8 13 14 100 0.0551595
9 13 14 100 0.0783921
10 13 14 100 0.106102
11 13 14 100 0.126988
12 13 14 100 0.106575
13 13 14 100 0.177724
14 13 14 100 0.102241
0 14 14 100 0.141181
1 14 14 100 0.0060783
2 14 14 100 0.0093804
3 14 14 100 0.0093822
4 14 14 100 0.00949505
5 14 14 100 0.0142364
6 14 14 100 0.0208202
7 14 14 100 0.026175
8 14 14 100 0.037013
9 14 14 100 0.057381
10 14 14 100 0.0993678
11 14 14 100 0.11179
12 14 14 100 0.0980111
13 14 14 100 0.209671
14 14 14 100 0.150017
0 15 14 100 0.158657
1 15 14 100 0.000248032
2 15 14 100 0.00929963
3 15 14 100 0.00367788
4 15 14 100 0.0149043
5 15 14 100 0.00371114
6 15 14 100 0.0180472
7 15 14 100 0.0238866
8 15 14 100 0.0308959
9 15 14 100 0.0361307
10 15 14 100 0.0910441
11 15 14 100 0.130918
12 15 14 100 0.101889
13 15 14 100 0.190888
14 15 14 100 0.185803
0 16 14 100 0.162017
1 16 14 100 0.0043476
2 16 14 100 0.00472728
3 16 14 100 0.00873543
4 16 14 100 0.00203916
5 16 14 100 0.0131646
6 16 14 100 0.0154005
7 16 14 100 0.0265695
8 16 14 100 0.0284428
9 16 14 100 0.031173
10 16 14 100 0.0644168
11 16 14 100 0.104393
12 16 14 100 0.130978
13 16 14 100 0.209978
14 16 14 100 0.193618
0 17 14 100 0.186869
1 17 14 100 5.00309e-05
2 17 14 100 0.0083236
3 17 14 100 0.000299333
4 17 14 100 0.0135633
5 17 14 100 0.00871055
6 17 14 100 0.0055465
7 17 14 100 0.0167239
8 17 14 100 0.0110745
9 17 14 100 0.0499523
10 17 14 100 0.0442553
11 17 14 100 0.0988691
12 17 14 100 0.0860987
13 17 14 100 0.271499
14 17 14 100 0.198165
0 18 14 100 0.196991
1 18 14 100 1.53673e-05
2 18 14 100 0.0032717
3 18 14 100 0.0077096
4 18 14 100 0.0037796
5 18 14 100 0.013666
6 18 14 100 0.00391529
7 18 14 100 0.0252848
8 18 14 100 0.0145456
9 18 14 100 0.021136
10 18 14 100 0.0455824
11 18 14 100 0.0749171
12 18 14 100 0.102417
13 18 14 100 0.198637
14 18 14 100 0.288132
0 19 14 100 0.254319
1 19 14 100 0.000123677
2 19 14 100 0.00491756
3 19 14 100 0.0146929
4 19 14 100 2.67298e-06
5 19 14 100 0.014677
6 19 14 100 0.0143984
7 19 14 100 0.0185687
8 19 14 100 0.0142465
9 19 14 100 0.0144792
10 19 14 100 0.0571167
11 19 14 100 0.0792789
12 19 14 100 0.0394486
13 19 14 100 0.25248
14 19 14 100 0.22125
0 20 14 100 0.199181
1 20 14 100 5.23578e-05
2 20 14 100 5.00097e-05
3 20 14 100 0.00691602
4 20 14 100 0.00694691
5 20 14 100 0.0272252
6 20 14 100 0.0208634
7 20 14 100 0.0142616
8 20 14 100 0.0207676
9 20 14 100 0.0208966
10 20 14 100 0.02081
11 20 14 100 0.0880069
12 20 14 100 0.103626
13 20 14 100 0.249472
14 20 14 100 0.220925
0 21 14 100 0.288579
1 21 14 100 0.00206229
2 21 14 100 0.00917506
3 21 14 100 0.0091763
4 21 14 100 0.00907763
5 21 14 100 0.0184202
6 21 14 100 9.95474e-05
7 21 14 100 0.00931421
8 21 14 100 0.0371337
9 21 14 100 0.0341039
10 21 14 100 0.0182883
11 21 14 100 0.0861147
12 21 14 100 0.018299
13 21 14 100 0.192459
14 21 14 100 0.267698
0 22 14 100 0.297788
1 22 14 100 0.000317907
2 22 14 100 0.0131624
3 22 14 100 0.0131596
4 22 14 100 0.00985606
5 22 14 100 0.0263186
6 22 14 100 1.75805e-05
7 22 14 100 1.56677e-05
8 22 14 100 0.0263158
9 22 14 100 0.0526376
10 22 14 100 0.0131633
11 22 14 100 0.0352418
12 22 14 100 0.0523134
13 22 14 100 0.264623
14 22 14 100 0.195069
0 23 14 100 0.331052
1 23 14 100 5.46993e-05
2 23 14 100 0.0212749
3 23 14 100 1.46182e-06
4 23 14 100 6.63115e-05
5 23 14 100 0.0212725
6 23 14 100 0.0218647
7 23 14 100 0.0210405
9 23 14 100 0.0215322
10 23 14 100 0.00013917
11 23 14 100 0.00051432
12 23 14 100 0.0638001
13 23 14 100 0.212512
14 23 14 100 0.284875
0 24 14 100 0.333717
1 24 14 100 0.000800953
3 24 14 100 3.73691e-07
4 24 14 100 5.3701e-07
5 24 14 100 0.0357143
6 24 14 100 0.0115337
7 24 14 100 0.0364349
8 24 14 100 0.000231167
9 24 14 100 0.0357661
11 24 14 100 0.0270562
12 24 14 100 0.000827722
13 24 14 100 0.23794
14 24 14 100 0.279977
0 25 14 100 0.412341
1 25 14 100 0.000108642
4 25 14 100 5.73247e-06
5 25 14 100 9.31109e-06
8 25 14 100 0.0426629
9 25 14 100 3.63304e-06
10 25 14 100 0.0525742
13 25 14 100 0.111111
14 25 14 100 0.381184
0 26 14 100 0.600743
1 26 14 100 0.00324658
5 26 14 100 0.00935102
8 26 14 100 0.100002
10 26 14 100 0.0896595
12 26 14 100 9.54249e-05
13 26 14 100 0.000326406
14 26 14 100 0.196576
0 27 14 100 0.00190905
9 27 14 100 0.499947
14 27 14 100 0.498144
0 28 14 100 0.663928
1 28 14 100 7.15714e-05
7 28 14 100 6.54953e-05
9 28 14 100 1.52607e-05
10 28 14 100 0.00251843
11 28 14 100 6.57734e-05
13 28 14 100 0.333328
14 28 14 100 7.57002e-06
0 29 14 100 0.00503599
14 29 14 100 0.994964
0 1 15 100 0.265023
1 1 15 100 0.547388
2 1 15 100 0.0914722
3 1 15 100 0.03321
4 1 15 100 0.0156996
5 1 15 100 0.00749449
6 1 15 100 0.00838482
7 1 15 100 0.0046254
8 1 15 100 0.00710666
9 1 15 100 0.00577043
10 1 15 100 0.000453671
11 1 15 100 0.00326359
12 1 15 100 0.00226984
13 1 15 100 0.00340142
14 1 15 100 0.00345484
15 1 15 100 0.00098152
0 2 15 100 0.103729
1 2 15 100 0.237329
2 2 15 100 0.329624
3 2 15 100 0.149108
4 2 15 100 0.0520697
5 2 15 100 0.0252713
6 2 15 100 0.0180679
7 2 15 100 0.0156782
8 2 15 100 0.0107384
9 2 15 100 0.0141621
10 2 15 100 0.00832406
11 2 15 100 0.00570392
12 2 15 100 0.0103576
13 2 15 100 0.00461855
14 2 15 100 0.0136953
15 2 15 100 0.00152245
0 3 15 100 0.170524
1 3 15 100 0.0967638
2 3 15 100 0.168393
3 3 15 100 0.229704
4 3 15 100 0.134899
5 3 15 100 0.0477478
6 3 15 100 0.0307839
7 3 15 100 0.0200304
8 3 15 100 0.0196816
9 3 15 100 0.0161356
10 3 15 100 0.0106704
11 3 15 100 0.0128305
12 3 15 100 0.00993466
13 3 15 100 0.00679143
14 3 15 100 0.0218227
15 3 15 100 0.00328614
0 4 15 100 0.164826
1 4 15 100 0.0452594
2 4 15 100 0.111357
3 4 15 100 0.156261
4 4 15 100 0.186436
5 4 15 100 0.130589
6 4 15 100 0.051207
7 4 15 100 0.0319177
8 4 15 100 0.0205291
9 4 15 100 0.0146423
10 4 15 100 0.0218134
11 4 15 100 0.0110074
12 4 15 100 0.0163757
13 4 15 100 0.00804473
14 4 15 100 0.0284903
15 4 15 100 0.00124505
0 5 15 100 0.176579
1 5 15 100 0.0283073
2 5 15 100 0.0593511
3 5 15 100 0.111619
4 5 15 100 0.145081
5 5 15 100 0.176139
6 5 15 100 0.107008
7 5 15 100 0.0588852
8 5 15 100 0.0356932
9 5 15 100 0.0161994
10 5 15 100 0.0159378
11 5 15 100 0.0132274
12 5 15 100 0.0159554
13 5 15 100 0.0125936
14 5 15 100 0.0263296
15 5 15 100 0.00109396
0 6 15 100 0.191072
1 6 15 100 0.0205354
2 6 15 100 0.0254135
3 6 15 100 0.0704093
4 6 15 100 0.0926538
5 6 15 100 0.124955
6 6 15 100 0.181131
7 6 15 100 0.101027
8 6 15 100 0.0565928
9 6 15 100 0.0374236
10 6 15 100 0.018148
11 6 15 100 0.0148965
12 6 15 100 0.0223055
13 6 15 100 0.0156276
14 6 15 100 0.0265138
15 6 15 100 0.00129482
0 7 15 100 0.182372
1 7 15 100 0.0196023
2 7 15 100 0.0207294
3 7 15 100 0.041546
4 7 15 100 0.0651603
5 7 15 100 0.108355
6 7 15 100 0.121766
7 7 15 100 0.17312
8 7 15 100 0.0986668
9 7 15 100 0.0569232
10 7 15 100 0.0293857
11 7 15 100 0.0152028
12 7 15 100 0.0198857
13 7 15 100 0.0139991
14 7 15 100 0.0281651
15 7 15 100 0.00511992
0 8 15 100 0.2067
1 8 15 100 0.013929
2 8 15 100 0.0177303
3 8 15 100 0.0298732
4 8 15 100 0.0482235
5 8 15 100 0.073475
6 8 15 100 0.117749
7 8 15 100 0.113597
8 8 15 100 0.134971
9 8 15 100 0.090703
10 8 15 100 0.0534219
11 8 15 100 0.0269864
12 8 15 100 0.023865
13 8 15 100 0.014518
14 8 15 100 0.0285582
15 8 15 100 0.00569854
0 9 15 100 0.178128
1 9 15 100 0.0140388
2 9 15 100 0.0149481
3 9 15 100 0.0158998
4 9 15 100 0.0344109
5 9 15 100 0.0483543
6 9 15 100 0.0793484
7 9 15 100 0.0830829
8 9 15 100 0.138573
9 9 15 100 0.131873
10 9 15 100 0.0872561
11 9 15 100 0.0702748
12 9 15 100 0.0392025
13 9 15 100 0.0167597
14 9 15 100 0.0351693
15 9 15 100 0.0126814
0 10 15 100 0.169786
1 10 15 100 0.0133116
2 10 15 100 0.0102487
3 10 15 100 0.0142335
4 10 15 100 0.0140252
5 10 15 100 0.0389232
6 10 15 100 0.0600285
7 10 15 100 0.0586052
8 10 15 100 0.0996252
9 10 15 100 0.126498
10 10 15 100 0.125651
11 10 15 100 0.10638
12 10 15 100 0.0665778
13 10 15 100 0.035528
14 10 15 100 0.048656
15 10 15 100 0.0119214
0 11 15 100 0.191321
1 11 15 100 0.0116061
2 11 15 100 0.00711612
3 11 15 100 0.0117096
4 11 15 100 0.010727
5 11 15 100 0.0227209
6 11 15 100 0.0421568
7 11 15 100 0.0575295
8 11 15 100 0.0690227
9 11 15 100 0.0996946
10 11 15 100 0.0989191
11 11 15 100 0.125649
12 11 15 100 0.102765
13 11 15 100 0.0540513
14 11 15 100 0.0736392
15 11 15 100 0.0213716
0 12 15 100 0.144816
1 12 15 100 0.00739499
2 12 15 100 0.0093389
3 12 15 100 0.0120155
4 12 15 100 0.00978614
5 12 15 100 0.0133136
6 12 15 100 0.0202854
7 12 15 100 0.0495079
8 12 15 100 0.0492552
9 12 15 100 0.113731
10 12 15 100 0.104795
11 12 15 100 0.114085
12 12 15 100 0.136249
13 12 15 100 0.0771733
14 12 15 100 0.101278
15 12 15 100 0.036975
0 13 15 100 0.150228
1 13 15 100 0.0109875
2 13 15 100 0.00881311
3 13 15 100 0.0061842
4 13 15 100 0.00866879
5 13 15 100 0.00867083
6 13 15 100 0.0215092
7 13 15 100 0.0311814
8 13 15 100 0.0465667
9 13 15 100 0.0796022
10 13 15 100 0.0830554
11 13 15 100 0.101296
12 13 15 100 0.129259
13 13 15 100 0.101519
14 13 15 100 0.150099
15 13 15 100 0.0623581
0 14 15 100 0.150024
1 14 15 100 0.00673176
2 14 15 100 0.00653295
3 14 15 100 0.00451702
4 14 15 100 0.00663894
5 14 15 100 0.0145591
6 14 15 100 0.0122902
7 14 15 100 0.0265418
8 14 15 100 0.0265195
9 14 15 100 0.0643956
10 14 15 100 0.0732915
11 14 15 100 0.0893964
12 14 15 100 0.114081
13 14 15 100 0.107255
14 14 15 100 0.209247
15 14 15 100 0.0879791
0 15 15 100 0.117126
1 15 15 100 0.00402149
2 15 15 100 0.00435502
3 15 15 100 0.00592663
4 15 15 100 0.00912065
5 15 15 100 0.0116436
6 15 15 100 0.0105617
7 15 15 100 0.0154232
8 15 15 100 0.0299328
9 15 15 100 0.0559141
10 15 15 100 0.0532044
11 15 15 100 0.0855743
12 15 15 100 0.111925
13 15 15 100 0.103552
14 15 15 100 0.197533
15 15 15 100 0.184186
0 16 15 100 0.161077
1 16 15 100 0.00346506
2 16 15 100 0.00680044
3 16 15 100 0.00372665
4 16 15 100 0.0130895
5 16 15 100 0.00868096
6 16 15 100 0.0187661
7 16 15 100 0.0185117
8 16 15 100 0.0288867
9 16 15 100 0.0437687
10 16 15 100 0.0447853
11 16 15 100 0.0642355
12 16 15 100 0.105381
13 16 15 100 0.110973
14 16 15 100 0.197309
15 16 15 100 0.170543
0 17 15 100 0.190898
1 17 15 100 0.00781694
2 17 15 100 0.00419716
3 17 15 100 0.00389242
4 17 15 100 0.0103294
5 17 15 100 0.00846783
6 17 15 100 0.00889229
7 17 15 100 0.00850245
8 17 15 100 0.0267628
9 17 15 100 0.0297569
10 17 15 100 0.0327506
11 17 15 100 0.0837433
12 17 15 100 0.115142
13 17 15 100 0.0772927
14 17 15 100 0.188169
15 17 15 100 0.203387
0 18 15 100 0.198988
1 18 15 100 0.0131706
2 18 15 100 0.00264973
3 18 15 100 0.0134109
4 18 15 100 0.00264782
5 18 15 100 0.0162497
6 18 15 100 0.0137984
7 18 15 100 0.0132249
8 18 15 100 0.0130679
9 18 15 100 0.0261783
10 18 15 100 0.0394156
11 18 15 100 0.0624528
12 18 15 100 0.115713
13 18 15 100 0.0831427
14 18 15 100 0.156251
15 18 15 100 0.229638
0 19 15 100 0.213776
1 19 15 100 0.0138188
2 19 15 100 0.00690103
3 19 15 100 0.010354
4 19 15 100 0.00768799
5 19 15 100 0.00360217
6 19 15 100 0.00691355
7 19 15 100 0.031428
8 19 15 100 0.0142682
9 19 15 100 0.0415715
10 19 15 100 0.0278099
11 19 15 100 0.0615755
12 19 15 100 0.105788
13 19 15 100 0.0791193
14 19 15 100 0.19766
15 19 15 100 0.177726
0 20 15 100 0.215297
1 20 15 100 0.0177719
2 20 15 100 0.0108647
3 20 15 100 0.00445069
4 20 15 100 0.00443916
5 20 15 100 0.00442692
6 20 15 100 0.00889556
7 20 15 100 0.0183773
8 20 15 100 0.0177195
9 20 15 100 0.0106339
10 20 15 100 0.0118518
11 20 15 100 0.0440156
12 20 15 100 0.100834
13 20 15 100 0.100391
14 20 15 100 0.207764
15 20 15 100 0.222268
0 21 15 100 0.254112
1 21 15 100 0.0121317
2 21 15 100 0.0155742
3 21 15 100 1.42051e-05
4 21 15 100 4.33464e-06
5 21 15 100 7.17924e-06
6 21 15 100 1.76855e-06
7 21 15 100 0.0159495
8 21 15 100 0.00566814
9 21 15 100 0.0337919
10 21 15 100 0.00560869
11 21 15 100 0.0414329
12 21 15 100 0.0561428
13 21 15 100 0.0813329
14 21 15 100 0.207997
15 21 15 100 0.270231
0 22 15 100 0.282807
1 22 15 100 0.00103848
2 22 15 100 0.0158775
3 22 15 100 2.55051e-05
4 22 15 100 0.0150773
5 22 15 100 0.0079592
6 22 15 100 1.94287e-05
7 22 15 100 3.9453e-07
8 22 15 100 0.00794839
9 22 15 100 0.0315499
10 22 15 100 0.0307803
11 22 15 100 0.0236332
12 22 15 100 0.055499
13 22 15 100 0.0633623
14 22 15 100 0.16751
15 22 15 100 0.296913
0 23 15 100 0.370608
1 23 15 100 0.00407037
2 23 15 100 0.0133357
3 23 15 100 0.000176017
4 23 15 100 0.0176181
5 23 15 100 7.55702e-07
6 23 15 100 5.90968e-06
7 23 15 100 6.53211e-06
8 23 15 100 0.0399998
9 23 15 100 0.0129885
10 23 15 100 0.0140119
11 23 15 100 0.00976056
12 23 15 100 0.0567476
13 23 15 100 0.0799756
14 23 15 100 0.173231
15 23 15 100 0.207463
0 24 15 100 0.244545
1 24 15 100 4.19049e-05
2 24 15 100 0.0222222
3 24 15 100 5.10082e-05
5 24 15 100 0.0221618
6 24 15 100 1.7721e-06
7 24 15 100 0.00476531
9 24 15 100 0.0227131
10 24 15 100 0.0216703
11 24 15 100 0.0222223
12 24 15 100 0.0885729
13 24 15 100 0.0888849
14 24 15 100 0.243428
15 24 15 100 0.218719
0 25 15 100 0.283158
1 25 15 100 0.000554723
2 25 15 100 5.06695e-06
3 25 15 100 1.06543e-06
4 25 15 100 6.46997e-07
5 25 15 100 0.065327
7 25 15 100 1.37854e-06
8 25 15 100 0.0333392
11 25 15 100 0.0337444
12 25 15 100 0.0666667
13 25 15 100 0.0333359
14 25 15 100 0.221484
15 25 15 100 0.262382
0 26 15 100 0.425587
1 26 15 100 3.49719e-06
7 26 15 100 0.000178641
8 26 15 100 0.000149822
9 26 15 100 0.0454928
10 26 15 100 9.18726e-05
11 26 15 100 5.89617e-06
13 26 15 100 6.29738e-07
14 26 15 100 0.136364
15 26 15 100 0.392126
0 27 15 100 0.581069
1 27 15 100 0.000769514
3 27 15 100 0.0052943
5 27 15 100 1.57448e-05
7 27 15 100 5.60609e-06
8 27 15 100 0.07143
9 27 15 100 0.0715181
11 27 15 100 3.11723e-06
15 27 15 100 0.269895
0 28 15 100 0.809456
1 28 15 100 0.000231293
9 28 15 100 1.29446e-05
15 28 15 100 0.190299
0 1 16 100 0.26973
1 1 16 100 0.552256
2 1 16 100 0.0816134
3 1 16 100 0.0324446
4 1 16 100 0.0172688
5 1 16 100 0.00639121
6 1 16 100 0.0152904
7 1 16 100 0.0036183
8 1 16 100 0.00166908
9 1 16 100 0.00256353
10 1 16 100 0.00339128
11 1 16 100 0.00254167
12 1 16 100 0.00149635
13 1 16 100 2.45344e-05
14 1 16 100 0.00338992
15 1 16 100 0.00626828
16 1 16 100 4.23615e-05
0 2 16 100 0.0909259
1 2 16 100 0.230493
2 2 16 100 0.376065
3 2 16 100 0.140345
4 2 16 100 0.0442102
5 2 16 100 0.0204733
6 2 16 100 0.0216712
7 2 16 100 0.0152799
8 2 16 100 0.00856995
9 2 16 100 0.0075244
10 2 16 100 0.00614395
11 2 16 100 0.0116116
12 2 16 100 0.00629561
13 2 16 100 0.00377015
14 2 16 100 0.0025221
15 2 16 100 0.0140726
16 2 16 100 2.64096e-05
0 3 16 100 0.158882
1 3 16 100 0.0834375
2 3 16 100 0.209052
3 3 16 100 0.260091
4 3 16 100 0.0959683
5 3 16 100 0.0555352
6 3 16 100 0.0256447
7 3 16 100 0.0260509
8 3 16 100 0.0141793
9 3 16 100 0.0102695
10 3 16 100 0.0086642
11 3 16 100 0.0102697
12 3 16 100 0.0125194
13 3 16 100 0.00906109
14 3 16 100 0.00271684
15 3 16 100 0.0174753
16 3 16 100 0.000183292
0 4 16 100 0.18213
1 4 16 100 0.0368597
2 4 16 100 0.0899938
3 4 16 100 0.178568
4 4 16 100 0.232134
5 4 16 100 0.0996988
6 4 16 100 0.0478667
7 4 16 100 0.0305998
8 4 16 100 0.024147
9 4 16 100 0.0124599
10 4 16 100 0.00999807
11 4 16 100 0.0110606
12 4 16 100 0.00880757
13 4 16 100 0.0113284
14 4 16 100 0.00632235
15 4 16 100 0.0178554
16 4 16 100 0.000171146
0 5 16 100 0.196095
1 5 16 100 0.0281181
2 5 16 100 0.0679384
3 5 16 100 0.0908014
4 5 16 100 0.161
5 5 16 100 0.186692
6 5 16 100 0.0956778
7 5 16 100 0.0523621
8 5 16 100 0.0331662
9 5 16 100 0.018097
10 5 16 100 0.0114579
11 5 16 100 0.0137311
12 5 16 100 0.00660273
13 5 16 100 0.0150972
14 5 16 100 0.00563029
15 5 16 100 0.017268
16 5 16 100 0.000264806
0 6 16 100 0.198646
1 6 16 100 0.0206657
2 6 16 100 0.0305036
3 6 16 100 0.0636891
4 6 16 100 0.0955605
5 6 16 100 0.13823
6 6 16 100 0.193171
7 6 16 100 0.0967739
8 6 16 100 0.0435195
9 6 16 100 0.0294988
10 6 16 100 0.0265314
11 6 16 100 0.0138419
12 6 16 100 0.0174384
13 6 16 100 0.00923751
14 6 16 100 0.003535
15 6 16 100 0.0162281
16 6 16 100 0.00292898
0 7 16 100 0.203793
1 7 16 100 0.0114275
2 7 16 100 0.0227543
3 7 16 100 0.0345963
4 7 16 100 0.0657509
5 7 16 100 0.10523
6 7 16 100 0.151242
7 7 16 100 0.147029
8 7 16 100 0.104164
9 7 16 100 0.049574
10 7 16 100 0.0302778
11 7 16 100 0.0180179
12 7 16 100 0.0158416
13 7 16 100 0.0177464
14 7 16 100 0.00464966
15 7 16 100 0.0163093
16 7 16 100 0.00159716
0 8 16 100 0.191057
1 8 16 100 0.0174086
2 8 16 100 0.0102991
3 8 16 100 0.0199592
4 8 16 100 0.0590485
5 8 16 100 0.0686427
6 8 16 100 0.116211
7 8 16 100 0.14536
8 8 16 100 0.125549
9 8 16 100 0.0915219
10 8 16 100 0.0438995
11 8 16 100 0.0271265
12 8 16 100 0.0310247
13 8 16 100 0.0148623
14 8 16 100 0.0136832
15 8 16 100 0.0201859
16 8 16 100 0.00416125
0 9 16 100 0.20938
1 9 16 100 0.0112291
2 9 16 100 0.0173962
3 9 16 100 0.0214488
4 9 16 100 0.0279811
5 9 16 100 0.0578669
6 9 16 100 0.0831259
7 9 16 100 0.0797284
8 9 16 100 0.12579
9 9 16 100 0.112919
10 9 16 100 0.0808573
11 9 16 100 0.040663
12 9 16 100 0.0511545
13 9 16 100 0.0310945
14 9 16 100 0.0110694
15 9 16 100 0.0326025
16 9 16 100 0.00569331
0 10 16 100 0.196601
1 10 16 100 0.0150827
2 10 16 100 0.004426
3 10 16 100 0.024688
4 10 16 100 0.0214127
5 10 16 100 0.0339696
6 10 16 100 0.0657192
7 10 16 100 0.0772429
8 10 16 100 0.0853606
9 10 16 100 0.130107
10 10 16 100 0.100847
11 10 16 100 0.073843
12 10 16 100 0.0543492
13 10 16 100 0.0500182
14 10 16 100 0.0210438
15 10 16 100 0.0404482
16 10 16 100 0.00484148
0 11 16 100 0.181458
1 11 16 100 0.0138378
2 11 16 100 0.00669039
3 11 16 100 0.0138763
4 11 16 100 0.0188843
5 11 16 100 0.0197667
6 11 16 100 0.0356408
7 11 16 100 0.0633531
8 11 16 100 0.0795722
9 11 16 100 0.104958
10 11 16 100 0.115059
11 11 16 100 0.0892543
12 11 16 100 0.0880691
13 11 16 100 0.0472415
14 11 16 100 0.0427851
15 11 16 100 0.0646042
16 11 16 100 0.014949
0 12 16 100 0.164295
1 12 16 100 0.0103101
2 12 16 100 0.0118868
3 12 16 100 0.0116941
4 12 16 100 0.0155419
5 12 16 100 0.0140817
6 12 16 100 0.0277315
7 12 16 100 0.0416635
8 12 16 100 0.0659016
9 12 16 100 0.0778075
10 12 16 100 0.104016
11 12 16 100 0.107515
12 12 16 100 0.116099
13 12 16 100 0.0789966
14 12 16 100 0.0435209
15 12 16 100 0.0849439
16 12 16 100 0.0239947
0 13 16 100 0.151252
1 13 16 100 0.0142322
2 13 16 100 0.0143059
3 13 16 100 0.0102928
4 13 16 100 0.0144509
5 13 16 100 0.0156627
6 13 16 100 0.0185352
7 13 16 100 0.0312231
8 13 16 100 0.0449973
9 13 16 100 0.0611356
10 13 16 100 0.119544
11 13 16 100 0.0868745
12 13 16 100 0.125004
13 13 16 100 0.0921398
14 13 16 100 0.0770554
15 13 16 100 0.0832628
16 13 16 100 0.0400313
0 14 16 100 0.15311
1 14 16 100 0.00399602
2 14 16 100 0.0109264
3 14 16 100 0.0152251
4 14 16 100 0.00990671
5 14 16 100 0.0137647
6 14 16 100 0.0159345
7 14 16 100 0.0244856
8 14 16 100 0.0326923
9 14 16 100 0.064045
10 14 16 100 0.0716678
11 14 16 100 0.0834664
12 14 16 100 0.119066
13 14 16 100 0.10638
14 14 16 100 0.0902708
15 14 16 100 0.130462
16 14 16 100 0.0546003
0 15 16 100 0.175722
1 15 16 100 0.00289312
2 15 16 100 0.00724594
3 15 16 100 0.0102268
4 15 16 100 0.0128748
5 15 16 100 0.0103424
6 15 16 100 0.012905
7 15 16 100 0.0145351
8 15 16 100 0.028417
9 15 16 100 0.0364464
10 15 16 100 0.0638767
11 15 16 100 0.0690046
12 15 16 100 0.113107
13 15 16 100 0.111822
14 15 16 100 0.0785741
15 15 16 100 0.163626
16 15 16 100 0.0883815
0 16 16 100 0.169102
1 16 16 100 0.00163184
2 16 16 100 0.00165133
3 16 16 100 0.0111779
4 16 16 100 0.00653303
5 16 16 100 0.00598055
6 16 16 100 0.0125358
7 16 16 100 0.014035
8 16 16 100 0.00825145
9 16 16 100 0.0422275
10 16 16 100 0.0524194
11 16 16 100 0.0697489
12 16 16 100 0.0913827
13 16 16 100 0.107694
14 16 16 100 0.079063
15 16 16 100 0.185065
16 16 16 100 0.141501
0 17 16 100 0.159432
1 17 16 100 0.00901747
2 17 16 100 0.0110201
3 17 16 100 0.00729535
4 17 16 100 0.00906883
5 17 16 100 0.00724093
6 17 16 100 0.0108534
7 17 16 100 0.0163217
8 17 16 100 0.0137812
9 17 16 100 0.0206501
10 17 16 100 0.0398176
11 17 16 100 0.0560836
12 17 16 100 0.088086
13 17 16 100 0.0955962
14 17 16 100 0.10388
15 17 16 100 0.189805
16 17 16 100 0.16205
0 18 16 100 0.15579
1 18 16 100 0.00456834
2 18 16 100 0.0131234
3 18 16 100 0.00876215
4 18 16 100 0.00437572
5 18 16 100 0.0131209
6 18 16 100 0.00452048
7 18 16 100 0.00901694
8 18 16 100 0.0172364
9 18 16 100 0.0226231
10 18 16 100 0.0305239
11 18 16 100 0.0430066
12 18 16 100 0.0771909
13 18 16 100 0.111203
14 18 16 100 0.0919332
15 18 16 100 0.204968
16 18 16 100 0.188037
0 19 16 100 0.188151
1 19 16 100 0.00269369
2 19 16 100 0.00805854
3 19 16 100 0.00803117
4 19 16 100 0.00535585
5 19 16 100 0.00499852
6 19 16 100 0.0080087
7 19 16 100 0.00841945
8 19 16 100 0.0163461
9 19 16 100 0.0208764
10 19 16 100 0.0290542
11 19 16 100 0.0216244
12 19 16 100 0.0775118
13 19 16 100 0.104127
14 19 16 100 0.0914939
15 19 16 100 0.19211
16 19 16 100 0.21314
0 20 16 100 0.159222
1 20 16 100 3.94664e-05
2 20 16 100 0.00342471
3 20 16 100 0.0102765
4 20 16 100 0.0170964
5 20 16 100 0.00342775
6 20 16 100 0.0137114
7 20 16 100 0.00342232
8 20 16 100 0.0136734
9 20 16 100 0.0170589
10 20 16 100 0.0232626
11 20 16 100 0.0302379
12 20 16 100 0.068235
13 20 16 100 0.102796
14 20 16 100 0.0935432
15 20 16 100 0.271606
16 20 16 100 0.168967
0 21 16 100 0.17649
1 21 16 100 0.00879319
2 21 16 100 0.00415213
3 21 16 100 0.00415599
4 21 16 100 0.0124491
5 21 16 100 8.86614e-05
6 21 16 100 0.00416225
7 21 16 100 0.00416179
8 21 16 100 0.0249248
9 21 16 100 0.0207478
10 21 16 100 0.0152784
11 21 16 100 0.0248789
12 21 16 100 0.0339707
13 21 16 100 0.0786731
14 21 16 100 0.0777099
15 21 16 100 0.281976
16 21 16 100 0.227387
0 22 16 100 0.195765
1 22 16 100 0.00547767
2 22 16 100 5.61878e-06
3 22 16 100 7.38468e-06
4 22 16 100 0.0164112
5 22 16 100 0.00546791
6 22 16 100 0.0169134
7 22 16 100 0.00546978
8 22 16 100 0.0215768
9 22 16 100 0.0180143
10 22 16 100 0.0219089
11 22 16 100 0.0119732
12 22 16 100 0.0491953
13 22 16 100 0.0600555
14 22 16 100 0.0581567
15 22 16 100 0.217914
16 22 16 100 0.295687
0 23 16 100 0.31084
1 23 16 100 0.0076716
2 23 16 100 1.78318e-06
3 23 16 100 1.48276e-05
4 23 16 100 5.55708e-05
5 23 16 100 0.00757725
6 23 16 100 0.0075766
7 23 16 100 0.0220945
8 23 16 100 0.0227294
9 23 16 100 0.0208527
10 23 16 100 0.00796896
11 23 16 100 0.0152548
12 23 16 100 0.0303057
13 23 16 100 0.0603306
14 23 16 100 0.0352742
15 23 16 100 0.167109
16 23 16 100 0.284343
0 24 16 100 0.261928
1 24 16 100 0.0123606
2 24 16 100 0.000630634
3 24 16 100 0.000539295
4 24 16 100 0.0123431
5 24 16 100 0.0123454
6 24 16 100 0.0123457
7 24 16 100 0.000427475
8 24 16 100 0.0250976
9 24 16 100 1.33587e-07
10 24 16 100 0.0123457
11 24 16 100 0.0238227
12 24 16 100 0.0123944
13 24 16 100 0.0871071
14 24 16 100 0.0244291
15 24 16 100 0.283552
16 24 16 100 0.218331
0 25 16 100 0.267773
1 25 16 100 0.037819
2 25 16 100 3.86577e-06
3 25 16 100 0.00185559
4 25 16 100 1.91198e-07
5 25 16 100 0.0188686
6 25 16 100 1.16161e-05
7 25 16 100 8.85224e-05
8 25 16 100 0.0377423
9 25 16 100 0.000751148
10 25 16 100 0.018857
11 25 16 100 0.0188696
12 25 16 100 0.018883
13 25 16 100 0.037733
14 25 16 100 0.0566023
15 25 16 100 0.168295
16 25 16 100 0.315847
0 26 16 100 0.378978
1 26 16 100 1.06592e-05
2 26 16 100 0.0186958
5 26 16 100 1.47258e-06
7 26 16 100 1.40384e-05
8 26 16 100 0.0294134
9 26 16 100 1.36432e-05
10 26 16 100 2.52357e-05
11 26 16 100 5.57636e-07
12 26 16 100 0.0294148
13 26 16 100 0.0294116
14 26 16 100 0.0855817
15 26 16 100 0.157144
16 26 16 100 0.271296
0 27 16 100 0.468395
1 27 16 100 0.0477863
2 27 16 100 2.37947e-06
3 27 16 100 2.39837e-05
4 27 16 100 0.0466371
5 27 16 100 1.60798e-06
6 27 16 100 1.94732e-06
7 27 16 100 2.89611e-05
8 27 16 100 5.70375e-07
10 27 16 100 0.000659999
11 27 16 100 0.00096098
14 27 16 100 0.0477131
15 27 16 100 0.0476464
16 27 16 100 0.340142
0 28 16 100 0.582808
1 28 16 100 0.166362
3 28 16 100 0.000148522
6 28 16 100 4.02643e-06
9 28 16 100 0.000171049
11 28 16 100 0.000218684
12 28 16 100 0.000154782
15 28 16 100 0.25
16 28 16 100 0.000132462
0 29 16 100 0.0215823
2 29 16 100 0.160131
9 29 16 100 0.189234
10 29 16 100 0.000920655
13 29 16 100 0.199845
16 29 16 100 0.428287
0 30 16 100 0.518225
1 30 16 100 0.05425
3 30 16 100 0.0674613
5 30 16 100 0.00037362
7 30 16 100 3.32838e-06
9 30 16 100 0.000853928
10 30 16 100 4.64205e-06
14 30 16 100 0.172739
15 30 16 100 0.0268882
16 30 16 100 0.159201
0 31 16 100 0.00125931
7 31 16 100 8.67342e-05
16 31 16 100 0.998654
0 32 16 100 0.99954
6 32 16 100 7.43685e-05
7 32 16 100 1.98697e-05
16 32 16 100 0.000365541
0 1 17 100 0.265417
1 1 17 100 0.562516
2 1 17 100 0.0889016
3 1 17 100 0.0256598
4 1 17 100 0.0138208
5 1 17 100 0.00530413
6 1 17 100 0.00508843
7 1 17 100 0.00617529
8 1 17 100 0.000440494
9 1 17 100 2.56159e-05
10 1 17 100 0.00119944
11 1 17 100 0.00283443
12 1 17 100 0.00267918
13 1 17 100 0.00402256
14 1 17 100 0.00772947
15 1 17 100 0.00288722
16 1 17 100 0.00528516
17 1 17 100 1.2632e-05
0 2 17 100 0.100491
1 2 17 100 0.248979
2 2 17 100 0.350495
3 2 17 100 0.119496
4 2 17 100 0.0479314
5 2 17 100 0.0357097
6 2 17 100 0.0189016
7 2 17 100 0.0158171
8 2 17 100 0.0103408
9 2 17 100 0.00287189
10 2 17 100 0.00537322
11 2 17 100 0.00451697
12 2 17 100 0.00651472
13 2 17 100 0.00545064
14 2 17 100 0.012972
15 2 17 100 0.00517483
16 2 17 100 0.00892962
17 2 17 100 3.45539e-05
0 3 17 100 0.17471
1 3 17 100 0.0869342
2 3 17 100 0.173432
3 3 17 100 0.260613
4 3 17 100 0.112663
5 3 17 100 0.045884
6 3 17 100 0.0333444
7 3 17 100 0.0150383
8 3 17 100 0.00553089
9 3 17 100 0.00938379
10 3 17 100 0.0053628
11 3 17 100 0.0121062
12 3 17 100 0.0134754
13 3 17 100 0.0107573
14 3 17 100 0.0160274
15 3 17 100 0.00534952
16 3 17 100 0.0180912
17 3 17 100 0.00129627
0 4 17 100 0.172699
1 4 17 100 0.037229
2 4 17 100 0.0987057
3 4 17 100 0.167152
4 4 17 100 0.213398
5 4 17 100 0.112386
6 4 17 100 0.04597
7 4 17 100 0.0434007
8 4 17 100 0.0176461
9 4 17 100 0.0106357
10 4 17 100 0.00649433
11 4 17 100 0.0106635
12 4 17 100 0.00913819
13 4 17 100 0.012821
14 4 17 100 0.0174177
15 4 17 100 0.00271561
16 4 17 100 0.0213727
17 4 17 100 0.000154361
0 5 17 100 0.170595
1 5 17 100 0.0216839
2 5 17 100 0.0507691
3 5 17 100 0.129796
4 5 17 100 0.163786
5 5 17 100 0.197888
6 5 17 100 0.0947633
7 5 17 100 0.0483374
8 5 17 100 0.028146
9 5 17 100 0.0155773
10 5 17 100 0.00927205
11 5 17 100 0.0106497
12 5 17 100 0.00656149
13 5 17 100 0.0133662
14 5 17 100 0.00935274
15 5 17 100 0.00415708
16 5 17 100 0.0252461
17 5 17 100 5.29496e-05
0 6 17 100 0.182424
1 6 17 100 0.018592
2 6 17 100 0.0232013
3 6 17 100 0.0720361
4 6 17 100 0.106706
5 6 17 100 0.157962
6 6 17 100 0.170131
7 6 17 100 0.0739744
8 6 17 100 0.0562254
9 6 17 100 0.029229
10 6 17 100 0.0192928
11 6 17 100 0.015929
12 6 17 100 0.0172475
13 6 17 100 0.0158774
14 6 17 100 0.0146982
15 6 17 100 0.00537709
16 6 17 100 0.0199399
17 6 17 100 0.00115702
0 7 17 100 0.21275
1 7 17 100 0.0105934
2 7 17 100 0.0147421
3 7 17 100 0.0325636
4 7 17 100 0.0858998
5 7 17 100 0.102941
6 7 17 100 0.147783
7 7 17 100 0.139217
8 7 17 100 0.0827028
9 7 17 100 0.0589503
10 7 17 100 0.0251743
11 7 17 100 0.0198138
12 7 17 100 0.01592
13 7 17 100 0.0118326
14 7 17 100 0.0133599
15 7 17 100 0.0027444
16 7 17 100 0.0222201
17 7 17 100 0.000791669
0 8 17 100 0.20523
1 8 17 100 0.00588489
2 8 17 100 0.00648398
3 8 17 100 0.0214757
4 8 17 100 0.0569335
5 8 17 100 0.0883076
6 8 17 100 0.10402
7 8 17 100 0.142372
8 8 17 100 0.128642
9 8 17 100 0.0734293
10 8 17 100 0.0419286
11 8 17 100 0.034377
12 8 17 100 0.0211958
13 8 17 100 0.0187928
14 8 17 100 0.0144078
15 8 17 100 0.00402312
16 8 17 100 0.0296936
17 8 17 100 0.00280164
0 9 17 100 0.175245
1 9 17 100 0.00846945
2 9 17 100 0.00763006
3 9 17 100 0.0169424
4 9 17 100 0.0489915
5 9 17 100 0.0512724
6 9 17 100 0.0901811
7 9 17 100 0.101087
8 9 17 100 0.13129
9 9 17 100 0.119445
10 9 17 100 0.077539
11 9 17 100 0.0537024
12 9 17 100 0.0333775
13 9 17 100 0.0223749
14 9 17 100 0.0242266
15 9 17 100 0.0040942
16 9 17 100 0.0313546
17 9 17 100 0.00277796
0 10 17 100 0.181757
1 10 17 100 0.00837527
2 10 17 100 0.010701
3 10 17 100 0.016989
4 10 17 100 0.0266086
5 10 17 100 0.0267726
6 10 17 100 0.0545505
7 10 17 100 0.0796846
8 10 17 100 0.0907222
9 10 17 100 0.139152
10 10 17 100 0.116918
11 10 17 100 0.0691166
12 10 17 100 0.0477106
13 10 17 100 0.0446236
14 10 17 100 0.029792
15 10 17 100 0.00807882
16 10 17 100 0.0355876
17 10 17 100 0.01286
0 11 17 100 0.18396
1 11 17 100 0.00582649
2 11 17 100 0.00817295
3 11 17 100 0.00925458
4 11 17 100 0.00916679
5 11 17 100 0.0309393
6 11 17 100 0.0424425
7 11 17 100 0.0577433
8 11 17 100 0.0803552
9 11 17 100 0.108576
10 11 17 100 0.141732
11 11 17 100 0.0960554
12 11 17 100 0.0576577
13 11 17 100 0.0532058
14 11 17 100 0.0442399
15 11 17 100 0.0298815
16 11 17 100 0.0347525
17 11 17 100 0.0060376
0 12 17 100 0.155353
1 12 17 100 0.00418962
2 12 17 100 0.00519474
3 12 17 100 0.00951571
4 12 17 100 0.00969156
5 12 17 100 0.0192793
6 12 17 100 0.0327125
7 12 17 100 0.050109
8 12 17 100 0.0599426
9 12 17 100 0.0921009
10 12 17 100 0.0964765
11 12 17 100 0.125022
12 12 17 100 0.095112
13 12 17 100 0.0914483
14 12 17 100 0.0472459
15 12 17 100 0.0371889
16 12 17 100 0.0534283
17 12 17 100 0.0159891
0 13 17 100 0.139103
1 13 17 100 0.00287359
2 13 17 100 0.0069399
3 13 17 100 0.0132686
4 13 17 100 0.0206799
5 13 17 100 0.00729092
6 13 17 100 0.0180583
7 13 17 100 0.034184
8 13 17 100 0.055968
9 13 17 100 0.0699877
10 13 17 100 0.0653658
11 13 17 100 0.0962114
12 13 17 100 0.117915
13 13 17 100 0.116235
14 13 17 100 0.0913834
15 13 17 100 0.0428812
16 13 17 100 0.0789501
17 13 17 100 0.0227052
0 14 17 100 0.16527
1 14 17 100 0.00186202
2 14 17 100 0.00565362
3 14 17 100 0.0113599
4 14 17 100 0.0169041
5 14 17 100 0.0125666
6 14 17 100 0.00711579
7 14 17 100 0.0241463
8 14 17 100 0.0422535
9 14 17 100 0.0445755
10 14 17 100 0.0555154
11 14 17 100 0.0903031
12 14 17 100 0.100999
13 14 17 100 0.130007
14 14 17 100 0.0879164
15 14 17 100 0.0660695
16 14 17 100 0.0937884
17 14 17 100 0.0436935
0 15 17 100 0.139458
1 15 17 100 0.00445345
2 15 17 100 0.00148097
3 15 17 100 0.0140383
4 15 17 100 0.0108625
5 15 17 100 0.0162412
6 15 17 100 0.00874974
7 15 17 100 0.0115842
8 15 17 100 0.0363878
9 15 17 100 0.0396741
10 15 17 100 0.0542971
11 15 17 100 0.0588592
12 15 17 100 0.0807792
13 15 17 100 0.121072
14 15 17 100 0.125654
15 15 17 100 0.0857294
16 15 17 100 0.126223
17 15 17 100 0.0644562
0 16 17 100 0.139949
1 16 17 100 0.00634876
2 16 17 100 0.00343213
3 16 17 100 0.00903268
4 16 17 100 0.0172088
5 16 17 100 0.0124573
6 16 17 100 0.00972635
7 16 17 100 0.0122241
8 16 17 100 0.0202884
9 16 17 100 0.0341433
10 16 17 100 0.036117
11 16 17 100 0.069208
12 16 17 100 0.0644771
13 16 17 100 0.0974758
14 16 17 100 0.114268
15 16 17 100 0.104348
16 16 17 100 0.15827
17 16 17 100 0.091026
0 17 17 100 0.146661
1 17 17 100 0.00501632
2 17 17 100 0.00923713
3 17 17 100 0.00519422
4 17 17 100 0.00878702
5 17 17 100 0.00870173
6 17 17 100 0.00502644
7 17 17 100 0.0110074
8 17 17 100 0.0183656
9 17 17 100 0.0279829
10 17 17 100 0.0462965
11 17 17 100 0.0491914
12 17 17 100 0.0704683
13 17 17 100 0.0960923
14 17 17 100 0.0991408
15 17 17 100 0.0728049
16 17 17 100 0.193363
17 17 17 100 0.126663
0 18 17 100 0.163459
1 18 17 100 0.00741406
2 18 17 100 9.23462e-06
3 18 17 100 0.00389683
4 18 17 100 0.00784227
5 18 17 100 0.00590406
6 18 17 100 0.00778322
7 18 17 100 0.00586817
8 18 17 100 0.0125271
9 18 17 100 0.0136181
10 18 17 100 0.0250364
11 18 17 100 0.0638008
12 18 17 100 0.044028
13 18 17 100 0.111871
14 18 17 100 0.0996254
15 18 17 100 0.0866534
16 18 17 100 0.175896
17 18 17 100 0.164767
0 19 17 100 0.183535
1 19 17 100 0.0060653
2 19 17 100 0.000145359
3 19 17 100 0.00937257
4 19 17 100 0.00472009
5 19 17 100 0.022943
6 19 17 100 6.94062e-05
7 19 17 100 0.00698292
8 19 17 100 0.00732445
9 19 17 100 0.00470505
10 19 17 100 0.0326016
11 19 17 100 0.0393936
12 19 17 100 0.0659646
13 19 17 100 0.0876714
14 19 17 100 0.114885
15 19 17 100 0.0817622
16 19 17 100 0.173973
17 19 17 100 0.157886
0 20 17 100 0.181581
1 20 17 100 0.00569649
2 20 17 100 0.00277391
3 20 17 100 0.0113846
4 20 17 100 0.00284114
5 20 17 100 0.01138
6 20 17 100 0.0113043
7 20 17 100 0.00582019
8 20 17 100 0.00521407
9 20 17 100 0.00624445
10 20 17 100 0.0227288
11 20 17 100 0.0358296
12 20 17 100 0.0342494
13 20 17 100 0.0922735
14 20 17 100 0.102218
15 20 17 100 0.110484
16 20 17 100 0.182038
17 20 17 100 0.175938
0 21 17 100 0.221526
1 21 17 100 0.00688863
2 21 17 100 0.00343946
3 21 17 100 0.000158551
4 21 17 100 0.0103914
5 21 17 100 0.0103286
6 21 17 100 0.00691464
7 21 17 100 0.00345638
8 21 17 100 1.9421e-05
9 21 17 100 0.0139504
10 21 17 100 0.021231
11 21 17 100 0.0275084
12 21 17 100 0.0171992
13 21 17 100 0.0560886
14 21 17 100 0.0723002
15 21 17 100 0.109063
16 21 17 100 0.227456
17 21 17 100 0.192079
0 22 17 100 0.213795
1 22 17 100 0.00856526
2 22 17 100 0.00426043
3 22 17 100 0.00851081
4 22 17 100 0.00846261
5 22 17 100 0.00870329
6 22 17 100 0.0127737
7 22 17 100 0.0125644
8 22 17 100 0.00429578
9 22 17 100 0.0173697
10 22 17 100 0.0170221
11 22 17 100 0.0294451
12 22 17 100 0.00442989
13 22 17 100 0.0383688
14 22 17 100 0.105658
15 22 17 100 0.0967101
16 22 17 100 0.204002
17 22 17 100 0.205062
0 23 17 100 0.190573
1 23 17 100 0.0060482
2 23 17 100 0.00595237
3 23 17 100 1.88456e-06
4 23 17 100 2.9352e-06
5 23 17 100 0.00597729
6 23 17 100 0.0119337
7 23 17 100 0.0119666
8 23 17 100 6.25141e-05
9 23 17 100 0.0119133
10 23 17 100 0.0119222
11 23 17 100 0.0415674
12 23 17 100 0.0122095
13 23 17 100 0.0359141
14 23 17 100 0.0863761
15 23 17 100 0.0650393
16 23 17 100 0.225967
17 23 17 100 0.276573
0 24 17 100 0.240371
1 24 17 100 9.01264e-06
2 24 17 100 4.65814e-06
3 24 17 100 3.62917e-05
4 24 17 100 9.37073e-07
5 24 17 100 0.00807264
6 24 17 100 0.0172308
7 24 17 100 0.00807586
8 24 17 100 1.56015e-05
9 24 17 100 0.0161147
10 24 17 100 0.00805437
11 24 17 100 0.0160404
12 24 17 100 0.0312843
13 24 17 100 0.0728476
14 24 17 100 0.0655639
15 24 17 100 0.0544048
16 24 17 100 0.15425
17 24 17 100 0.307623
0 25 17 100 0.379969
1 25 17 100 0.000796237
2 25 17 100 3.98439e-06
3 25 17 100 5.62116e-07
4 25 17 100 1.59059e-05
5 25 17 100 5.76345e-06
6 25 17 100 2.28067e-06
7 25 17 100 0.0123529
8 25 17 100 1.16938e-05
9 25 17 100 0.0374601
10 25 17 100 0.0366668
11 25 17 100 0.024439
12 25 17 100 0.02175
13 25 17 100 0.0490975
14 25 17 100 0.0975124
15 25 17 100 0.058758
16 25 17 100 0.0974622
17 25 17 100 0.183696
0 26 17 100 0.290715
1 26 17 100 0.000192153
2 26 17 100 6.18311e-07
3 26 17 100 0.019253
4 26 17 100 4.37697e-05
5 26 17 100 6.31924e-07
6 26 17 100 6.42751e-05
7 26 17 100 0.0192455
8 26 17 100 8.12956e-06
9 26 17 100 0.0192391
10 26 17 100 0.0368584
11 26 17 100 0.0192379
12 26 17 100 0.019251
13 26 17 100 0.0397101
14 26 17 100 0.0961557
15 26 17 100 0.05765
16 26 17 100 0.192306
17 26 17 100 0.190069
0 27 17 100 0.374814
1 27 17 100 9.10656e-05
2 27 17 100 8.46217e-06
3 27 17 100 1.06434e-06
4 27 17 100 3.2783e-05
5 27 17 100 1.41586e-06
9 27 17 100 0.0256408
10 27 17 100 1.66552e-06
11 27 17 100 1.80067e-05
13 27 17 100 0.0256416
14 27 17 100 0.0752122
15 27 17 100 0.0356425
16 27 17 100 0.205796
17 27 17 100 0.257099
0 28 17 100 0.188859
1 28 17 100 8.69401e-05
2 28 17 100 0.000313234
3 28 17 100 0.0453825
5 28 17 100 3.87133e-05
9 28 17 100 0.0454557
12 28 17 100 0.00273169
13 28 17 100 0.0454495
14 28 17 100 0.0454541
15 28 17 100 1.66387e-06
16 28 17 100 0.227276
17 28 17 100 0.39895
0 29 17 100 0.498254
1 29 17 100 0.000213467
6 29 17 100 3.88484e-05
7 29 17 100 2.51115e-05
8 29 17 100 4.37053e-06
10 29 17 100 0.055547
15 29 17 100 0.0549975
16 29 17 100 4.12265e-05
17 29 17 100 0.390878
0 30 17 100 0.855736
1 30 17 100 0.000166533
2 30 17 100 2.09037e-06
3 30 17 100 0.000561791
6 30 17 100 7.85822e-05
7 30 17 100 0.000496704
11 30 17 100 1.92611e-06
12 30 17 100 6.92569e-06
15 30 17 100 1.34384e-05
16 30 17 100 0.142858
17 30 17 100 7.79967e-05
0 31 17 100 0.00423341
17 31 17 100 0.995767
0 1 18 100 0.242792
1 1 18 100 0.560416
2 1 18 100 0.0829973
3 1 18 100 0.0247477
4 1 18 100 0.0155034
5 1 18 100 0.0187432
6 1 18 100 0.00873663
7 1 18 100 0.00078691
8 1 18 100 0.00519505
9 1 18 100 0.00427828
10 1 18 100 0.00844622
11 1 18 100 0.000388409
12 1 18 100 0.00248203
13 1 18 100 0.00878905
14 1 18 100 0.00561969
15 1 18 100 0.00427747
16 1 18 100 0.000152251
17 1 18 100 0.00564287
18 1 18 100 5.8512e-06
0 2 18 100 0.111332
1 2 18 100 0.223527
2 2 18 100 0.332012
3 2 18 100 0.140383
4 2 18 100 0.0350387
5 2 18 100 0.0379273
6 2 18 100 0.0156924
7 2 18 100 0.018603
8 2 18 100 0.0100044
9 2 18 100 0.0166602
10 2 18 100 0.00849477
11 2 18 100 0.00810021
12 2 18 100 0.000741573
13 2 18 100 0.00574806
14 2 18 100 0.0065906
15 2 18 100 0.017731
16 2 18 100 0.00263388
17 2 18 100 0.00842718
18 2 18 100 0.000352767
0 3 18 100 0.179233
1 3 18 100 0.0591195
2 3 18 100 0.203779
3 3 18 100 0.263142
4 3 18 100 0.100049
5 3 18 100 0.0530754
6 3 18 100 0.0374398
7 3 18 100 0.0128368
8 3 18 100 0.00995547
9 3 18 100 0.00885748
10 3 18 100 0.00985542
11 3 18 100 0.0087234
12 3 18 100 0.00704909
13 3 18 100 0.0141232
14 3 18 100 0.00707227
15 3 18 100 0.00845946
16 3 18 100 0.00567724
17 3 18 100 0.0112676
18 3 18 100 0.000284428
0 4 18 100 0.177342
1 4 18 100 0.0353726
2 4 18 100 0.0769608
3 4 18 100 0.196563
4 4 18 100 0.202627
5 4 18 100 0.107385
6 4 18 100 0.0516741
7 4 18 100 0.0348523
8 4 18 100 0.0230277
9 4 18 100 0.0183088
10 4 18 100 0.0141005
11 4 18 100 0.011054
12 4 18 100 0.00291022
13 4 18 100 0.00988526
14 4 18 100 0.00704255
15 4 18 100 0.00986637
16 4 18 100 0.00691876
17 4 18 100 0.0140812
18 4 18 100 2.80563e-05
0 5 18 100 0.189134
1 5 18 100 0.0113545
2 5 18 100 0.0628314
3 5 18 100 0.101557
4 5 18 100 0.162868
5 5 18 100 0.181901
6 5 18 100 0.0875111
7 5 18 100 0.0686718
8 5 18 100 0.0265677
9 5 18 100 0.0190056
10 5 18 100 0.0140073
11 5 18 100 0.0129724
12 5 18 100 0.0126179
13 5 18 100 0.0102924
14 5 18 100 0.00565994
15 5 18 100 0.0112149
16 5 18 100 0.00745231
17 5 18 100 0.0127047
18 5 18 100 0.00167608
0 6 18 100 0.160163
1 6 18 100 0.00880105
2 6 18 100 0.0311787
3 6 18 100 0.0618306
4 6 18 100 0.107628
5 6 18 100 0.171231
6 6 18 100 0.173622
7 6 18 100 0.104648
8 6 18 100 0.0625207
9 6 18 100 0.0257087
10 6 18 100 0.0168394
11 6 18 100 0.0158537
12 6 18 100 0.0108875
13 6 18 100 0.0116829
14 6 18 100 0.0108975
15 6 18 100 0.00566108
16 6 18 100 0.00277601
17 6 18 100 0.0154811
18 6 18 100 0.00258849
0 7 18 100 0.210967
1 7 18 100 0.00991297
2 7 18 100 0.0326465
3 7 18 100 0.0226135
4 7 18 100 0.070059
5 7 18 100 0.0974951
6 7 18 100 0.165875
7 7 18 100 0.142716
8 7 18 100 0.0834739
9 7 18 100 0.0456807
10 7 18 100 0.0362513
11 7 18 100 0.0199029
12 7 18 100 0.0103308
13 7 18 100 0.00988929
14 7 18 100 0.0112034
15 7 18 100 0.0140411
16 7 18 100 1.44769e-05
17 7 18 100 0.0154643
18 7 18 100 0.00146285
0 8 18 100 0.200332
1 8 18 100 0.00760197
2 8 18 100 0.0112822
3 8 18 100 0.0280454
4 8 18 100 0.0240029
5 8 18 100 0.0923392
6 8 18 100 0.0993636
7 8 18 100 0.12841
8 8 18 100 0.141814
9 8 18 100 0.0782763
10 8 18 100 0.0645164
11 8 18 100 0.0357609
12 8 18 100 0.0282228
13 8 18 100 0.0142065
14 8 18 100 0.0112884
15 8 18 100 0.0113671
16 8 18 100 0.00143069
17 8 18 100 0.0193987
18 8 18 100 0.00234138
0 9 18 100 0.175222
1 9 18 100 0.012605
2 9 18 100 0.0122235
3 9 18 100 0.0102217
4 9 18 100 0.0341025
5 9 18 100 0.0522085
6 9 18 100 0.0998161
7 9 18 100 0.0971012
8 9 18 100 0.122775
9 9 18 100 0.136804
10 9 18 100 0.0822422
11 9 18 100 0.0488316
12 9 18 100 0.0329539
13 9 18 100 0.0263819
14 9 18 100 0.0168741
15 9 18 100 0.0116317
16 9 18 100 0.0083468
17 9 18 100 0.0183215
18 9 18 100 0.00133649
0 10 18 100 0.204548
1 10 18 100 0.00711873
2 10 18 100 0.00547325
3 10 18 100 0.01128
4 10 18 100 0.010065
5 10 18 100 0.0414009
6 10 18 100 0.0446778
7 10 18 100 0.0828006
8 10 18 100 0.0985792
9 10 18 100 0.126691
10 10 18 100 0.122982
11 10 18 100 0.0708574
12 10 18 100 0.0622451
13 10 18 100 0.0351896
14 10 18 100 0.0237327
15 10 18 100 0.0145935
16 10 18 100 0.00512712
17 10 18 100 0.0281672
18 10 18 100 0.00446972
0 11 18 100 0.182763
1 11 18 100 0.00464161
2 11 18 100 0.00287544
3 11 18 100 0.00600866
4 11 18 100 0.00850655
5 11 18 100 0.0223141
6 11 18 100 0.0458441
7 11 18 100 0.0586724
8 11 18 100 0.0703724
9 11 18 100 0.104548
10 11 18 100 0.116291
11 11 18 100 0.105443
12 11 18 100 0.0856844
13 11 18 100 0.0601089
14 11 18 100 0.0491292
15 11 18 100 0.0262384
16 11 18 100 0.0113499
17 11 18 100 0.0336421
18 11 18 100 0.00556688
0 12 18 100 0.167968
1 12 18 100 0.00863699
2 12 18 100 0.00290111
3 12 18 100 0.00430326
4 12 18 100 0.0107429
5 12 18 100 0.0214967
6 12 18 100 0.0244438
7 12 18 100 0.0369511
8 12 18 100 0.0628399
9 12 18 100 0.0720798
10 12 18 100 0.0947983
11 12 18 100 0.122233
12 12 18 100 0.0999255
13 12 18 100 0.0852557
14 12 18 100 0.0571558
15 12 18 100 0.0531658
16 12 18 100 0.0205548
17 12 18 100 0.044437
18 12 18 100 0.0101109
0 13 18 100 0.172343
1 13 18 100 0.00725842
2 13 18 100 0.00292122
3 13 18 100 0.00579872
4 13 18 100 0.0117758
5 13 18 100 0.014049
6 13 18 100 0.0135272
7 13 18 100 0.0286053
8 13 18 100 0.0423478
9 13 18 100 0.0643611
10 13 18 100 0.0670197
11 13 18 100 0.108277
12 13 18 100 0.111487
13 13 18 100 0.0861164
14 13 18 100 0.0841403
15 13 18 100 0.0693299
16 13 18 100 0.0405499
17 13 18 100 0.0590509
18 13 18 100 0.0110412
0 14 18 100 0.136586
1 14 18 100 0.00441164
2 14 18 100 0.0043793
3 14 18 100 0.00580826
4 14 18 100 0.0028152
5 14 18 100 0.0101076
6 14 18 100 0.0205074
7 14 18 100 0.0174833
8 14 18 100 0.028102
9 14 18 100 0.0402617
10 14 18 100 0.073176
11 14 18 100 0.0811268
12 14 18 100 0.111435
13 14 18 100 0.100613
14 14 18 100 0.118649
15 14 18 100 0.079494
16 14 18 100 0.0521028
17 14 18 100 0.0812428
18 14 18 100 0.031698
0 15 18 100 0.165709
1 15 18 100 0.00643729
2 15 18 100 0.00450774
3 15 18 100 0.00597716
4 15 18 100 0.004406
5 15 18 100 0.0074796
6 15 18 100 0.0104724
7 15 18 100 0.0165358
8 15 18 100 0.0223717
9 15 18 100 0.0338231
10 15 18 100 0.0435713
11 15 18 100 0.0768743
12 15 18 100 0.0731928
13 15 18 100 0.108915
14 15 18 100 0.102378
15 15 18 100 0.131633
16 15 18 100 0.049
17 15 18 100 0.0923106
18 15 18 100 0.0444061
0 16 18 100 0.12796
1 16 18 100 0.00478431
2 16 18 100 0.00479586
3 16 18 100 1.11207e-05
4 16 18 100 0.00170915
5 16 18 100 0.00316649
6 16 18 100 0.00634552
7 16 18 100 0.009522
8 16 18 100 0.0142909
9 16 18 100 0.0296617
10 16 18 100 0.0521928
11 16 18 100 0.0726071
12 16 18 100 0.07519
13 16 18 100 0.103854
14 16 18 100 0.101217
15 16 18 100 0.117815
16 16 18 100 0.0860824
17 16 18 100 0.133793
18 16 18 100 0.0550012
0 17 18 100 0.148998
1 17 18 100 0.00669991
2 17 18 100 0.00333186
3 17 18 100 0.00493371
4 17 18 100 6.4219e-06
5 17 18 100 0.00484632
6 17 18 100 0.0067116
7 17 18 100 0.0100211
8 17 18 100 0.0183256
9 17 18 100 0.0200725
10 17 18 100 0.0358724
11 17 18 100 0.0450045
12 17 18 100 0.0525368
13 17 18 100 0.0808923
14 17 18 100 0.105131
15 17 18 100 0.105473
16 17 18 100 0.106123
17 17 18 100 0.157504
18 17 18 100 0.0875154
0 18 18 100 0.166216
1 18 18 100 0.00901145
2 18 18 100 0.00544456
3 18 18 100 0.00223631
4 18 18 100 0.00315371
5 18 18 100 0.00121639
6 18 18 100 0.00363625
7 18 18 100 0.0110351
8 18 18 100 0.0161792
9 18 18 100 0.0162405
10 18 18 100 0.0222387
11 18 18 100 0.0406777
12 18 18 100 0.0397583
13 18 18 100 0.0777462
14 18 18 100 0.0982799
15 18 18 100 0.115655
16 18 18 100 0.0754555
17 18 18 100 0.170992
18 18 18 100 0.124828
0 19 18 100 0.143692
1 19 18 100 0.00627067
2 19 18 100 0.00835708
3 19 18 100 0.00208719
4 19 18 100 0.00212391
5 19 18 100 0.00422827
6 19 18 100 0.00418217
7 19 18 100 0.00626546
8 19 18 100 0.0181936
9 19 18 100 0.0186426
10 19 18 100 0.0167646
11 19 18 100 0.0333942
12 19 18 100 0.0486673
13 19 18 100 0.0550166
14 19 18 100 0.0864585
15 19 18 100 0.134796
16 19 18 100 0.0988811
17 19 18 100 0.15406
18 19 18 100 0.157919
0 20 18 100 0.147127
1 20 18 100 1.89939e-05
2 20 18 100 0.00489255
3 20 18 100 0.00733844
4 20 18 100 0.00731086
5 20 18 100 0.00734401
6 20 18 100 0.00725224
7 20 18 100 0.0171453
8 20 18 100 0.0170958
9 20 18 100 0.0103842
10 20 18 100 0.0129972
11 20 18 100 0.0341751
12 20 18 100 0.0378195
13 20 18 100 0.0667388
14 20 18 100 0.0836229
15 20 18 100 0.0953908
16 20 18 100 0.100126
17 20 18 100 0.20514
18 20 18 100 0.138081
0 21 18 100 0.143598
1 21 18 100 2.42577e-05
2 21 18 100 0.00575415
3 21 18 100 0.0028728
4 21 18 100 0.00623156
5 21 18 100 0.0115008
6 21 18 100 4.1002e-05
7 21 18 100 2.19392e-05
8 21 18 100 0.0201503
9 21 18 100 0.00574965
10 21 18 100 0.0174929
11 21 18 100 0.0305385
12 21 18 100 0.0308153
13 21 18 100 0.0625627
14 21 18 100 0.0661919
15 21 18 100 0.0948358
16 21 18 100 0.0735554
17 21 18 100 0.189906
18 21 18 100 0.238157
0 22 18 100 0.161521
1 22 18 100 0.00369656
2 22 18 100 0.00365757
3 22 18 100 0.010608
4 22 18 100 0.00330024
5 22 18 100 0.0140313
6 22 18 100 1.1206e-07
7 22 18 100 3.42944e-06
8 22 18 100 0.0109527
9 22 18 100 0.0184223
10 22 18 100 0.0109623
11 22 18 100 0.0270458
12 22 18 100 0.0376472
13 22 18 100 0.0336909
14 22 18 100 0.0404304
15 22 18 100 0.0856243
16 22 18 100 0.106817
17 22 18 100 0.206611
18 22 18 100 0.224978
0 23 18 100 0.194465
1 23 18 100 6.89102e-05
2 23 18 100 0.00994813
3 23 18 100 0.0049749
4 23 18 100 0.0148934
5 23 18 100 0.00512477
6 23 18 100 0.00502365
7 23 18 100 2.75156e-06
8 23 18 100 0.0102307
9 23 18 100 0.0198533
10 23 18 100 0.00996551
11 23 18 100 0.0149356
12 23 18 100 0.0210941
13 23 18 100 0.0401008
14 23 18 100 0.0345797
15 23 18 100 0.086408
16 23 18 100 0.0819204
17 23 18 100 0.20789
18 23 18 100 0.238521
0 24 18 100 0.268602
1 24 18 100 7.3152e-05
2 24 18 100 0.00641113
3 24 18 100 3.58722e-06
4 24 18 100 2.87613e-05
5 24 18 100 0.019235
6 24 18 100 1.05582e-05
7 24 18 100 0.0120329
8 24 18 100 0.00634012
9 24 18 100 0.00707349
10 24 18 100 0.0130192
11 24 18 100 0.00717541
12 24 18 100 0.0195679
13 24 18 100 0.0193498
14 24 18 100 0.0514509
15 24 18 100 0.0580191
16 24 18 100 0.0705691
17 24 18 100 0.198645
18 24 18 100 0.242393
0 25 18 100 0.270158
1 25 18 100 2.52743e-05
2 25 18 100 2.33024e-06
3 25 18 100 8.5131e-06
4 25 18 100 1.8021e-06
5 25 18 100 0.00863565
6 25 18 100 0.000218058
7 25 18 100 6.75266e-05
8 25 18 100 0.0172809
9 25 18 100 0.0141179
10 25 18 100 0.00931296
11 25 18 100 0.010234
12 25 18 100 0.008689
13 25 18 100 0.0428367
14 25 18 100 0.0519241
15 25 18 100 0.0973085
16 25 18 100 0.0266434
17 25 18 100 0.171637
18 25 18 100 0.270899
0 26 18 100 0.355435
1 26 18 100 7.71354e-06
2 26 18 100 5.61765e-06
3 26 18 100 0.000135083
4 26 18 100 4.55063e-07
5 26 18 100 0.0129891
6 26 18 100 5.54747e-07
8 26 18 100 0.0129901
9 26 18 100 0.0156158
10 26 18 100 0.0260809
11 26 18 100 2.66239e-05
12 26 18 100 0.000156496
13 26 18 100 0.0380829
14 26 18 100 0.0269166
15 26 18 100 0.0545493
16 26 18 100 0.111159
17 26 18 100 0.140815
18 26 18 100 0.205035
0 27 18 100 0.186298
1 27 18 100 3.18824e-05
2 27 18 100 1.53576e-06
3 27 18 100 5.42908e-06
4 27 18 100 0.000206702
5 27 18 100 0.0199988
9 27 18 100 0.0200065
10 27 18 100 4.35118e-05
11 27 18 100 0.0200066
12 27 18 100 0.0200066
13 27 18 100 0.04
14 27 18 100 0.04
15 27 18 100 0.0599845
16 27 18 100 0.159905
17 27 18 100 0.239698
18 27 18 100 0.193807
0 28 18 100 0.249715
1 28 18 100 8.00646e-05
2 28 18 100 0.000189573
5 28 18 100 0.0243908
6 28 18 100 2.87533e-06
8 28 18 100 4.10594e-07
9 28 18 100 7.33705e-05
10 28 18 100 0.0243614
11 28 18 100 0.0243196
12 28 18 100 0.0243908
14 28 18 100 0.048819
15 28 18 100 0.0243889
16 28 18 100 0.0726248
17 28 18 100 0.195243
18 28 18 100 0.311401
0 29 18 100 0.308029
1 29 18 100 8.85073e-05
2 29 18 100 1.02577e-05
7 29 18 100 5.61187e-06
8 29 18 100 0.000140432
9 29 18 100 1.79166e-06
10 29 18 100 0.0370728
11 29 18 100 0.000170736
12 29 18 100 0.0370371
14 29 18 100 0.0373942
16 29 18 100 0.0370367
17 29 18 100 0.14815
18 29 18 100 0.394863
0 30 18 100 0.433756
1 30 18 100 3.27889e-06
3 30 18 100 1.53833e-06
4 30 18 100 1.95267e-05
7 30 18 100 6.68187e-06
11 30 18 100 8.77825e-07
12 30 18 100 3.05788e-06
14 30 18 100 0.14203
15 30 18 100 1.5107e-06
16 30 18 100 0.0714288
18 30 18 100 0.352749
0 31 18 100 0.571159
1 31 18 100 7.00354e-06
2 31 18 100 2.82738e-05
15 31 18 100 0.285711
17 31 18 100 0.142857
18 31 18 100 0.000236852
0 32 18 100 0.331152
2 32 18 100 1.04895e-05
7 32 18 100 1.71179e-05
16 32 18 100 0.333334
17 32 18 100 0.332808
18 32 18 100 0.00267794
0 33 18 100 0.447463
1 33 18 100 0.000599972
16 33 18 100 0.218407
18 33 18 100 0.333531
0 1 19 100 0.288543
1 1 19 100 0.538153
2 1 19 100 0.0833475
3 1 19 100 0.0315951
4 1 19 100 0.020097
5 1 19 100 0.00960277
6 1 19 100 0.00301771
7 1 19 100 0.00341063
8 1 19 100 0.00318805
9 1 19 100 6.93936e-06
10 1 19 100 0.00151756
11 1 19 100 0.00178855
12 1 19 100 0.00193148
13 1 19 100 0.00603617
14 1 19 100 1.30658e-05
15 1 19 100 1.51772e-06
16 1 19 100 0.00310458
17 1 19 100 1.96474e-06
18 1 19 100 0.00461107
19 1 19 100 3.29254e-05
0 2 19 100 0.0835403
1 2 19 100 0.247785
2 2 19 100 0.371678
3 2 19 100 0.12292
4 2 19 100 0.0381571
5 2 19 100 0.0291882
6 2 19 100 0.0195169
7 2 19 100 0.0169544
8 2 19 100 0.009484
9 2 19 100 0.00598056
10 2 19 100 0.00779693
11 2 19 100 0.00306758
12 2 19 100 0.00874396
13 2 19 100 0.00302151
14 2 19 100 0.00753217
15 2 19 100 0.00451507
16 2 19 100 0.0045549
17 2 19 100 0.00306279
18 2 19 100 0.0123065
19 2 19 100 0.000194416
0 3 19 100 0.176385
1 3 19 100 0.082849
2 3 19 100 0.186891
3 3 19 100 0.26364
4 3 19 100 0.103846
5 3 19 100 0.0466715
6 3 19 100 0.0253253
7 3 19 100 0.0101549
8 3 19 100 0.0150447
9 3 19 100 0.0119203
10 3 19 100 0.0105911
11 3 19 100 0.0108869
12 3 19 100 0.00767835
13 3 19 100 0.00751924
14 3 19 100 0.00604191
15 3 19 100 0.00893203
16 3 19 100 0.00445006
17 3 19 100 0.00352126
18 3 19 100 0.017566
19 3 19 100 8.50004e-05
0 4 19 100 0.16215
1 4 19 100 0.0370969
2 4 19 100 0.103364
3 4 19 100 0.174402
4 4 19 100 0.204357
5 4 19 100 0.104064
6 4 19 100 0.0480334
7 4 19 100 0.0378581
8 4 19 100 0.0164657
9 4 19 100 0.0107969
10 4 19 100 0.0271274
11 4 19 100 0.00458864
12 4 19 100 0.0163798
13 4 19 100 0.0106966
14 4 19 100 0.00448235
15 4 19 100 0.0110462
16 4 19 100 0.0105632
17 4 19 100 0.0059976
18 4 19 100 0.00902257
19 4 19 100 0.00150865
0 5 19 100 0.187788
1 5 19 100 0.0111307
2 5 19 100 0.0481195
3 5 19 100 0.0916155
4 5 19 100 0.159369
5 5 19 100 0.179398
6 5 19 100 0.0939948
7 5 19 100 0.0567923
8 5 19 100 0.0408874
9 5 19 100 0.0185692
10 5 19 100 0.0229536
11 5 19 100 0.00757409
12 5 19 100 0.0131843
13 5 19 100 0.0107879
14 5 19 100 0.00451083
15 5 19 100 0.0072696
16 5 19 100 0.020605
17 5 19 100 0.00753117
18 5 19 100 0.0165397
19 5 19 100 0.0013785
0 6 19 100 0.175689
1 6 19 100 0.0132786
2 6 19 100 0.0259038
3 6 19 100 0.0475206
4 6 19 100 0.111775
5 6 19 100 0.156491
6 6 19 100 0.170825
7 6 19 100 0.101354
8 6 19 100 0.0587101
9 6 19 100 0.0282279
10 6 19 100 0.0229099
11 6 19 100 0.0135958
12 6 19 100 0.0134369
13 6 19 100 0.0161993
14 6 19 100 0.010395
15 6 19 100 0.00775434
16 6 19 100 0.00901833
17 6 19 100 0.00622976
18 6 19 100 0.0104449
19 6 19 100 0.000240847
0 7 19 100 0.203578
1 7 19 100 0.00738655
2 7 19 100 0.0108291
3 7 19 100 0.0412144
4 7 19 100 0.0673609
5 7 19 100 0.0988248
6 7 19 100 0.134031
7 7 19 100 0.155045
8 7 19 100 0.0977721
9 7 19 100 0.0485486
10 7 19 100 0.0328596
11 7 19 100 0.0148238
12 7 19 100 0.012033
13 7 19 100 0.00753477
14 7 19 100 0.0158177
15 7 19 100 0.0133016
16 7 19 100 0.01573
17 7 19 100 0.000296582
18 7 19 100 0.0228131
19 7 19 100 0.000199625
0 8 19 100 0.196127
1 8 19 100 0.0117917
2 8 19 100 0.0121763
3 8 19 100 0.0175007
4 8 19 100 0.0469767
5 8 19 100 0.0746148
6 8 19 100 0.118888
7 8 19 100 0.127907
8 8 19 100 0.140755
9 8 19 100 0.084947
10 8 19 100 0.0588101
11 8 19 100 0.0231432
12 8 19 100 0.0265405
13 8 19 100 0.00905837
14 8 19 100 0.0104047
15 8 19 100 0.0117361
16 8 19 100 0.00751667
17 8 19 100 0.00476213
18 8 19 100 0.0135563
19 8 19 100 0.00278749
0 9 19 100 0.197202
